0.0000000000,0.0185214691,0.0135492813,-0.0094013661,-0.0033799829,0.0216594096,0.0424864367
0.010010004,0.0190364234,0.0224440228,-0.0075444425,0.0019444739,0.0227600951,0.0414238349
0.0200079679,0.0146381073,0.0226074588,-0.0017831769,0.0019364851,0.0238557197,0.0467333794
0.0301380157,0.0121483915,0.0198899638,0.004959539,0.0008252282,0.0281478688,0.0552281328
0.0401470661,0.0125468485,0.0161456,0.0029089605,-0.0066325283,0.0270210858,0.0552299954
0.0502510071,0.011929851,0.0182346832,-0.0021270956,-0.0056575453,0.0366279073,0.0626671389
0.0602589846,0.0151534192,0.0213288199,-0.009078607,-0.0024272902,0.0346023031,0.073284097
0.0725630522,0.0183105282,0.0225525629,-0.0169480294,0.0135407569,0.0390346013,0.0807148516
0.0805749893,0.0175197534,0.0171120893,-0.0246724337,0.0370036326,0.0402876213,0.0785851255
0.0906790495,0.0088595562,0.0059838421,-0.0206059664,0.047681842,0.0392713584,0.071149312
0.1009190083,0.0051955697,-0.004180538,-0.0135687441,0.0370329544,0.0370130651,0.0647816211
0.1107920408,0.0054929671,-0.0067478889,-0.0096239299,0.0061394856,0.031437736,0.06478668
0.1208040714,0.0067594764,-0.0114050377,-0.0068259682,-0.0152813029,0.0386582986,0.0616095997
0.130918026,0.0070572016,-0.0094086993,-0.0061535086,-0.024952041,0.0449058078,0.0563061796
0.1409599781,0.0043751714,-0.0073858374,-0.0045189108,-0.0100876344,0.0524849668,0.0594907217
0.1510920525,0.0016611036,-0.0052313679,-0.0017688718,0.0155442264,0.0505797416,0.0584214628
0.1611219645,-0.0022102478,0.0062691099,0.0047056233,0.0379918218,0.0475974642,0.0594780073
0.1712460518,-0.0023189071,6.40281e-05,0.0156706125,0.0519172288,0.0424066968,0.0584100783
0.1812349558,0.0004476126,-0.0093021262,0.0209760219,0.0562540777,0.0349907279,0.0541566089
0.1912900209,0.0016967769,-0.0153263081,0.02149041,0.0519930199,0.0338508971,0.0477863252
0.2013640404,0.0034760353,-0.0193398464,0.023785904,0.0434558839,0.033755023,0.0446035825
0.2114210129,0.0054091332,-0.0199112166,0.0247031003,0.0348874331,0.0368703865,0.0456691124
0.2215139866,0.0028989729,-0.0111876,0.0204590112,0.0305664241,0.042130731,0.0446115062
0.2315859795,-0.0013548617,-0.0066482895,0.0160249025,0.0358812958,0.0443062671,0.0456730425
0.241672039,0.000655603,-0.0085264314,0.0150383264,0.0347882807,0.0463992432,0.0424879044
0.2517369986,0.0024356064,-0.0218214262,0.0152344257,0.0526466407,0.069269672,-0.0541289151
0.2617709637,-0.127387628,-0.0442945249,-0.0147817582,0.0607617199,0.0021096766,-0.112562269
0.2718369961,-0.1996268779,-0.0536584146,-0.0121065825,0.0477330014,0.025485307,-0.0902495086
0.2818930149,-0.0642775148,-0.0299794544,0.0038618003,0.0425854325,0.0134748491,0.0276058931
0.2919740677,0.0220449083,-0.0170131791,0.0089407116,0.0370244831,0.034489058,0.0031964232
0.3019020557,-0.0156121738,-0.0247478355,0.0018397126,0.0337801687,0.038690988,0.0010760142
0.3120989799,0.0037576375,-0.0305919517,0.001788095,0.0327748246,0.0322879516,-0.0031741248
0.3221800327,0.0065050838,-0.0256785024,0.004671291,0.0382570773,0.0174600706,-0.0063686529
0.3323659897,0.0061825332,-0.0156242121,0.0009578023,0.0499438234,0.0228883922,-0.0031835122
0.3424299955,0.0114050321,-0.0163635481,0.0034620319,0.073514238,0.0135096703,-0.0085030431
0.3525630236,0.0199336819,-0.0146490205,0.0056789075,0.0669900253,0.0250693858,-0.0169900041
0.3625040054,0.0214378648,-0.0105321277,0.0154318362,0.0509379581,0.029153144,-0.0201696195
0.3723629713,0.0210423581,-0.0062074536,0.018128112,0.019938495,0.0341947749,-0.0190974306
0.3824059963,0.0247878246,-0.008947717,0.0192211419,-0.0110404864,0.0371360369,-0.014841767
0.3925000429,0.023946356,-0.0154389013,0.0181724578,-0.0153441541,0.040240217,-0.021209918
0.4025620222,0.0211719386,-0.0182132591,0.0179106742,-0.0164315216,0.0423169509,-0.0265162662
0.4127869606,0.020522546,-0.0104385484,0.0195046216,-0.0185657814,0.0422983095,-0.0265157335
0.4228550196,0.0266544335,-0.0045437687,0.0221170336,-0.0174115412,0.0338616148,-0.0201499127
0.4329850674,0.0307453685,0.0004524119,0.0218468457,-0.0066502383,0.0255291145,-0.0106006153
0.4430149794,0.0289719217,0.0014147289,0.0204478651,0.0072565223,0.0224451739,-0.0137897506
0.453050971,0.0213701837,-0.0025598281,0.0267508775,-0.00441851,0.0159696992,-0.0148518197
0.4631420374,0.0117405467,-0.0056244605,0.0339099914,-0.032163348,0.0157414004,-0.0127214901
0.4731529951,-0.0028214934,-0.0028909915,0.0448822528,-0.0705538839,0.0133461524,-0.0031567477
0.4832260609,-0.0085200556,0.0006870754,0.0537918955,-0.0949628204,0.0005181048,0.01489296
0.493234992,-0.0063004675,0.0050348169,0.0538156182,-0.1011924818,-0.0152797662,0.0414316244
0.5033570528,-0.0013114099,0.0094570052,0.0421874076,-0.067916818,-0.0328762047,0.0647746325
0.5135060549,0.0007236119,0.0093323123,0.0260176212,-0.013296715,-0.0514365733,0.0743076876
0.5235619545,0.0047767875,0.0066209561,0.0073402678,0.031527482,-0.0509827696,0.0838527232
0.5335930586,0.0079622678,-0.0065855854,0.0016127977,0.058289852,-0.0592516176,0.081718199
0.5436800718,0.0074443338,-0.0217745174,0.0047021066,0.0572269857,-0.0604050346,0.0689763054
0.553737998,0.0004806634,-0.032441128,0.01244618,0.0433580428,-0.0616772287,0.0551758036
0.5637780428,-0.005334306,-0.030759858,0.0179809481,0.0316129923,-0.0618485361,0.0445602424
0.5738179684,-0.0130649097,-0.0233751405,0.0233807713,0.0092986338,-0.0716002285,0.0434992388
0.5839329958,-0.013949085,-0.018859731,0.0249931365,0.0114796301,-0.0757843852,0.0498677231
0.5939869881,-0.0128289647,-0.0208912957,0.0259426385,0.020110935,-0.0852796286,0.0466753915
0.6040350199,-0.0067402306,-0.0178084243,0.0204256326,0.032943055,-0.088405773,0.0381757803
0.6141159534,0.0012602027,-0.0134909023,0.0151733905,0.0467917584,-0.0861972198,0.0328643695
0.6242010593,0.0062516746,-0.0118865836,0.0208186656,0.0596801043,-0.0946223214,0.0254247636
0.6342680454,0.0036265966,-0.0131978262,0.0226383954,0.0618905276,-0.103209421,0.0073693302
0.6443150043,0.0002487715,-0.0127909649,0.0272553712,0.0416179299,-0.1045514494,-0.008553111
0.6543740034,3.74134e-05,-0.0069177025,0.0228387266,0.0191826634,-0.1026805788,-0.0170408711
0.6644539833,0.0018116649,0.0006927975,0.0153020173,0.0062861731,-0.0943664014,-0.0265899673
0.6745550632,0.0084664635,0.0121312272,0.0096063763,-0.0033403561,-0.0923421308,-0.0287101101
0.6847679615,0.0140601508,0.015802158,0.002951995,0.003078022,-0.093327634,-0.025525637
0.6948699951,0.0175834112,0.0127982628,-0.0016767229,0.0126161333,-0.0869054198,-0.029772047
0.7047370672,0.01602019,0.0049477345,0.004271761,0.0071254685,-0.0721172169,-0.0329501964
0.7148029804,0.0143888108,0.0115832221,0.0110581666,-0.0142453341,-0.0690721571,-0.0255106557
0.7248730659,0.0137339644,0.0170784723,0.0127797872,-0.0334651545,-0.0670502931,-0.014885176
0.7349309921,0.0179388933,0.0098872315,0.007666782,-0.0323399715,-0.0722836703,-0.0053318841
0.7449840307,0.0281292014,0.0085177552,-0.0032163109,-0.026954338,-0.0775622502,-0.0085218847
0.7550730705,0.0294988863,0.0130291712,-0.0209010094,-0.0056091025,-0.0773412064,-0.0032182001
0.765141964,0.0219214968,0.0090392362,-0.0199251622,0.0167561509,-0.0729079098,-0.0042839302
0.7751799822,0.0133047812,0.0023616082,-0.0148417205,0.0316405594,-0.0675000995,-0.0085322047
0.7852749825,0.0144720189,0.004435373,-0.0145912617,0.0178368092,-0.0739819631,-0.0074685384
0.7953270674,0.018579524,0.0111487042,-0.0097219199,0.0028575929,-0.069826901,-0.0010918655
0.8053790331,0.0178252868,0.0051370985,-0.0146666616,0.0177483913,-0.0654856786,-0.0064038066
0.8154070377,0.0111755542,0.0041873581,-0.0077671851,0.0188634582,-0.0708506182,-0.0170247592
0.8255079985,0.0083855502,0.0130582582,-0.0075833644,0.0189019926,-0.0739506036,-0.0042846627
0.8373390436,0.0094997697,0.0142724048,-0.0130668133,0.0210224018,-0.0717130154,0.0105811022
0.8458449841,0.0106648318,0.0028961427,-0.0184619874,0.0252873208,-0.0717100203,0.0052706925
0.8557360172,0.0148933642,-0.00167154,-0.020870015,0.0370209441,-0.0716698021,-0.0042884578
0.8658699989,0.0152299814,0.0083822142,-0.0242161602,0.0519265756,-0.0683626235,-0.0053529898
0.8758950233,0.014542114,0.023339821,-0.0178771466,0.0647438318,-0.0692979246,-0.0032331136
0.8859139681,0.0147891752,0.0316105597,-0.0181867331,0.0721476376,-0.0617304221,0.0084495079
0.8960289955,0.0139787309,0.0234297048,-0.0164838284,0.0860554576,-0.0647507086,0.0148152616
0.9060280323,0.0132399015,0.0161594283,-0.0099501461,0.0753311217,-0.0595460981,0.0137590524
0.9161100388,0.0163202994,0.0196046364,-0.008332178,0.0806129724,-0.0530019142,0.0339351594
0.9261850119,0.0202466361,0.0213009845,-0.0172464103,0.0923144743,-0.0485862605,0.0445525199
0.9362950325,0.0171553008,0.0143975746,-0.0134356469,0.1008424461,-0.0474299155,0.0477363281
0.9462929964,0.0121598952,-0.000296282,-0.0057390179,0.0923441499,-0.051804021,0.0392420404
0.9563770294,0.0043057618,-0.0055661076,0.000673369,0.0634475201,-0.0435538143,0.0413770974
0.9664319754,-0.0025983038,-0.0042431229,2.27247e-05,0.0516159981,-0.0341011919,0.0424474217
0.9765210152,-0.0065780166,-0.0067995661,0.0003798757,0.0505536646,-0.0352476835,0.0307673309
0.9865590334,-0.0075660828,-0.0016306512,-0.0022368277,0.0484490991,-0.0384414122,0.0318270698
0.9967479706,-0.0105672367,0.0045138127,-0.0068145837,0.0538065806,-0.0405098908,0.0328864753
1.0067110062,-0.0116497464,0.0059011108,-0.008362934,0.0569325984,-0.0330403894,0.035012342
1.016775012,-0.0117834695,0.0004808433,-0.0118587464,0.0430604592,-0.0331546366,0.0360776074
1.0268610716,-0.0080180056,-0.0079346765,-0.0144690126,0.0248789247,-0.0290770046,0.035023462
1.0370520353,-0.0061773541,-0.0106705893,-0.0220918506,0.0076749041,-0.0165217984,0.0307869054
1.0469659567,-0.0043067816,-0.0115382541,-0.0200651139,0.0022950266,-0.0123380385,0.0286665633
1.0570249557,0.0005579706,-0.0114286412,-0.020925805,0.0119300764,-0.0154510085,0.0265389625
1.0671240091,0.0094024055,-0.0005835168,-0.0236515254,0.0290352963,-0.0184703656,0.0286560431
1.0773340464,0.0144059174,0.0055340058,-0.0242494792,0.0514774881,-0.0214507096,0.029710656
1.0872969627,0.0164761953,0.0040297634,-0.0198274106,0.0706843361,-0.0212895237,0.0286437273
1.0973210335,0.0195660703,0.001682771,-0.0181470364,0.0792831481,-0.0276086722,0.0243911911
1.1073420048,0.0206535868,0.0003931649,-0.0125475377,0.0685825422,-0.0245269276,0.0233347826
1.1176450253,0.0168017261,-2.9676e-06,-0.0050816978,0.0450417958,-0.0183659717,0.023343835
1.1275180578,0.0069831726,0.0005107053,0.0031799232,0.042866528,-0.0141198272,0.0265319049
1.1375590563,0.0010458048,-0.0038388246,0.0085340887,0.044933673,-0.0077767102,0.0201637559
1.1476360559,-0.0020032409,0.0014360078,0.0118275434,0.0331736058,-0.005764226,0.0191060137
1.1579140425,0.001707923,0.0075861341,0.0071782623,0.020308407,0.0005453356,0.0276068244
1.1677839756,0.0004373904,0.0020183451,0.0112193376,0.0139260888,-0.0016536361,0.0244222153
1.1778410673,0.0040753004,-0.0016233198,0.0084397346,0.0191605315,0.0078727575,0.0138076553
1.1879149675,0.0096407048,0.0092625152,0.0084826499,0.0073437933,0.0151559031,0.0074432995
1.1981710196,0.0074051437,0.0181183945,0.0162001997,0.0009830995,0.0108490391,0.0063809645
1.2080310583,0.0033741114,0.0229530465,0.0180483013,0.0021016272,0.0055042082,-0.0010539154
1.2181049585,-0.0034818533,0.0228697192,0.0140446573,-0.0042920895,0.0043665059,-0.0042382572
1.2281559706,-0.0083898194,0.0178098213,0.0060395752,-0.0161904804,0.020179091,-0.0042274045
1.238368988,-0.0133784898,0.0078116781,0.0056987558,-0.0333423018,0.027415432,-0.0105902292
1.2482889891,-0.0164469965,0.0016085632,0.005254284,-0.0451550744,0.0347327366,-0.0116451075
1.258390069,-0.011738468,0.000219775,0.0018056188,-0.0642957464,0.028247403,-0.0042108931
1.2684429884,-0.0071259621,-0.0012698047,0.0030824696,-0.0749699026,0.0293262489,0.0127808731
1.2784169912,-0.0064639333,-0.0076663368,0.0013704454,-0.0726790577,0.0145877851,0.0276381169
1.2885529995,-0.00382005,-0.0130443443,-0.0012590135,-0.0566046387,0.008402992,0.0340018757
1.2986810207,-0.0020705047,-0.0211707223,-0.0026857103,-0.0308822319,-0.0019210179,0.0435463786
1.3085440397,0.0017241951,-0.0222136844,-0.0037918533,0.000202368,-0.015429304,0.0456547365
1.3186759949,-0.0022278014,-0.0143133271,-0.0056561674,0.0183973499,-0.0205689371,0.0467093475
1.3288420439,-0.002269614,-0.0072125667,-0.0014709677,0.0408328846,-0.0224612467,0.0520123653
1.338883996,0.000627261,-0.0135871638,0.0009241257,0.0473368578,-0.0330845937,0.0413874164
1.3489630222,0.0045814631,-0.0190397371,0.0033337628,0.0409170389,-0.0321626067,0.0286479201
1.3590179682,0.0046792147,-0.0207185615,0.0046366011,0.0089319441,-0.0356667973,0.0222834982
1.3690919876,0.0037524817,-0.0226381291,0.0085805207,-0.0349638239,-0.0223110449,0.0138066569
1.3791459799,0.0018757697,-0.0238072742,0.0171554834,-0.0700698793,-0.0343935415,-0.002117449
1.3892060518,0.004047465,-0.0194287766,0.0118883401,-0.0903911814,-0.0303539261,-0.0063578668
1.3994109631,0.0043429849,-0.0093201268,0.0026407992,-0.0893160626,-0.0314402282,-0.0116676772
1.4093409777,0.0085553043,-0.0050511234,0.0021745716,-0.0839624926,-0.0335571095,-0.0180409551
1.4194669724,0.0128135495,-0.0055682533,0.0008326922,-0.0796503052,-0.0377499908,-0.0159205459
1.42948699,0.0111428909,-0.004090833,-0.0034298147,-0.077480413,-0.0409014411,-0.01379814
1.4395389557,0.0074510393,-0.0045643323,0.0029768501,-0.0881825909,-0.0377977937,-0.0116702747
1.4496259689,0.0086187534,-0.0060484284,0.0044660126,-0.0956510603,-0.0377995223,-0.0021133875
1.4598050117,0.0106594376,-0.003692376,0.0019719754,-0.103157714,-0.0335445888,0.0095704328
1.4697870016,0.0126669817,-0.0110356081,0.0014351164,-0.0977228656,-0.0430410877,0.0106271086
1.4798129797,0.0137897246,-0.0134993661,0.0009509478,-0.0934303775,-0.0450911894,0.0159339886
1.4898899794,0.0157951526,-0.0071485513,-0.0043727602,-0.080643557,-0.0428013392,0.024425678
1.4999630451,0.0098720901,-0.0064611309,0.0001174961,-0.0582205467,-0.0436319821,0.0297285635
1.5100120306,0.0069689867,-0.0026942366,-1.84025e-05,-0.0335830003,-0.0529515781,0.0318400525
1.5200680494,0.0069620726,0.0070499904,-0.0019474473,-0.0037092566,-0.0515672676,0.0413893498
1.5301530361,0.0049706814,0.0101924669,-0.001735374,0.0177058335,-0.0577072501,0.0477535687
1.5402699709,-0.0009471063,0.0008323319,-0.0013682093,0.031630706,-0.0629049465,0.0456238389
1.5502749681,-0.0068279984,-0.0084812511,0.0019810949,0.0241793916,-0.0651125684,0.0424388349
1.5603010654,-0.0107547529,-0.0120654572,-0.0006113495,0.0145310266,-0.0609732196,0.0392579548
1.5704200268,-0.0097470172,-0.0157403816,-0.0022999491,-0.0025344295,-0.062232431,0.0318296663
1.5804849863,-0.0115696378,-0.0137622822,-0.0041578854,-0.0143303685,-0.057085339,0.0233408399
1.5905419588,-0.0093963034,-0.0070349448,-0.0089956969,-0.0249843169,-0.0593347102,0.0180329587
1.6006180048,-0.0101761706,-0.0033184164,-0.0081136674,-0.0367546901,-0.0562542304,0.0180374868
1.6106870174,-0.0089671798,-0.0035925978,-0.0063371505,-0.0484723076,-0.058492817,0.015915947
1.6208189726,-0.006735492,-0.0029366487,-0.0094462484,-0.0549192876,-0.0543255024,0.0127342679
1.6308159828,-0.0074191871,0.004507733,-0.0194091648,-0.0570626818,-0.0532409959,0.019105548
1.6408890486,-0.0061907652,0.0081259739,-0.021511659,-0.0548826195,-0.057424821,0.025473699
1.6510070562,-0.0070017162,0.0059815175,-0.0284457654,-0.0465409309,-0.0371367969,0.0339771062
1.6609899998,-0.0060424688,0.0048858053,-0.0286001414,-0.0488445647,-0.0201655347,0.0361097679
1.6711159945,-0.0002593879,0.0028041727,-0.0190545171,-0.0542119816,-0.0170291979,0.0361127593
1.6811490059,0.0074445722,0.0152209532,-0.0174005479,-0.0638438314,-0.0138746835,0.0446111709
1.6912209988,0.018033307,0.0247119796,-0.0235633105,-0.0595616587,-0.0148069877,0.0584116094
1.701274991,0.0206934325,0.0265083443,-0.0326131433,-0.0490288548,-0.0009207346,0.0584158674
1.7113200426,0.0174176209,0.0244687926,-0.0309558362,-0.0544815436,0.0106680775,0.0531150475
1.7213920355,0.0180282108,0.0251976978,-0.0236251801,-0.0897303447,0.01352272,0.0499400273
1.7314560413,0.0205998234,0.0315571539,-0.0311075896,-0.1100815535,0.020794414,0.0531332232
1.7415549755,0.0171970241,0.0349102132,-0.0368118733,-0.118766129,0.0355946645,0.0563282184
1.7516900301,0.0156260245,0.0324182622,-0.0416083783,-0.1145545021,0.0420096889,0.0584560819
1.7617590427,0.013926547,0.0319336765,-0.0463901013,-0.0986423716,0.0517123826,0.0605804883
1.7718230486,0.0092342906,0.0296117794,-0.0452768058,-0.0911941528,0.0539495721,0.0680108368
1.7818120718,0.0103236549,0.0245121848,-0.0450101942,-0.0687365085,0.0499705411,0.0786211342
1.7918729782,0.0074712452,0.0215155613,-0.0475109071,-0.0463959463,0.0576340556,0.0849908888
1.8019660711,0.0045054373,0.0235696565,-0.0459972471,-0.0218248256,0.0558025986,0.0966635272
1.8119720221,0.0014901574,0.0228687655,-0.0472338051,-0.0036906675,0.0570990257,0.1083385497
1.8221460581,-0.0064816955,0.0174278747,-0.0425596684,-0.000497804,0.0582156889,0.1125854924
1.8321720362,-0.0106515475,0.0130069386,-0.0349508375,0.0015464127,0.0678168461,0.1178999022
1.8422050476,-0.0109402724,0.0105796587,-0.0302193016,0.0121910674,0.0711623132,0.1285168529
1.8522859812,-0.0093482025,0.015061928,-0.031274125,0.0228435509,0.0734548941,0.1401938945
1.8623600006,-0.0068440619,0.0157542955,-0.0263972133,0.0293576438,0.0629631057,0.1497431844
1.8724310398,-0.0072697285,0.0078091151,-0.028196618,0.0528086685,0.0663987845,0.1571724117
1.8824590445,-0.0097353347,1.31853e-05,-0.0259933919,0.0708625019,0.0750175714,0.15292494
1.8925579786,-0.0111473687,-0.000939893,-0.0188762993,0.0687084273,0.0759707168,0.1391217709
1.9026110172,-0.0115656741,0.0029085404,-0.0118265599,0.0548176467,0.0780130923,0.1454970986
1.9126800299,-0.0080768354,-0.0001663439,-0.0097532719,0.0366875418,0.0767792538,0.1433780342
1.9227739573,-0.009423513,-0.0034240955,-0.0078555793,0.0077855862,0.0849602222,0.1348950714
1.9327969551,-0.0078364499,-0.0184756387,0.0007430468,-0.0007346123,0.0827154368,0.1274632514
1.9428570271,-0.0061895433,-0.0239225496,0.0043479954,-0.015792124,0.0942490548,0.1264110357
1.953001976,-0.0016506795,-0.0216709245,0.0039563929,-0.0297077261,0.0983577818,0.1242932901
1.9631670713,-0.0020065489,-0.0204233397,0.0093377382,-0.0329117775,0.0982952043,0.1189850718
1.9731459618,-0.0022823992,-0.0231034625,0.0127833039,-0.0317441933,0.0876255035,0.108361192
1.9831739664,-0.003439385,-0.0161859859,0.0064138924,-0.0382449701,0.0970909148,0.1041203737
1.9932240248,-0.0016963963,-0.0112105478,0.0058464562,-0.0392825082,0.0938852057,0.1019949764
2.0032849312,-0.0067576054,-0.0169576276,0.0033469354,-0.040365085,0.0948745683,0.0924395546
2.0134100914,-0.0049540582,-0.0285597909,0.0047441875,-0.0510511249,0.0957442224,0.0775787085
2.0234379768,-0.0021395269,-0.031544555,0.0098785907,-0.0736035705,0.1092861295,0.0690968037
2.033490181,0.001671296,-0.0336778052,0.014894858,-0.0745279565,0.0943396688,0.0563479923
2.0436639786,0.0007217344,-0.0329573639,0.0189377815,-0.0766435713,0.0921644047,0.0510384478
2.0539178848,-0.0040815058,-0.0225623716,0.0190285593,-0.085100621,0.0835609883,0.0446647704
2.0637431145,-0.010730166,-0.0286975373,0.0259949118,-0.0775135458,0.071955204,0.0446570478
2.0738120079,-0.0163915046,-0.0406625755,0.024247244,-0.0722186267,0.0762380287,0.0435969122
2.0838220119,-0.0161539204,-0.0360430963,0.0215919763,-0.0605031103,0.0784417987,0.0404096395
2.0939021111,-0.0081157871,-0.0244759191,0.0171382576,-0.0358673818,0.0702583045,0.0542025492
2.1039400101,-0.0030628922,-0.0204711426,0.0109813362,-0.0015482875,0.0535874479,0.0552473068
2.114084959,-0.0056648138,-0.0270145405,0.0109005719,0.0092550917,0.0398045257,0.0424960926
2.1240229607,-0.0091825016,-0.0374778993,0.0069170748,0.0070766257,0.044009123,0.0393133499
2.1341619492,-0.012622375,-0.0519415624,0.0048266803,-0.0111368382,0.0501129553,0.0233939029
2.1442129612,-0.0179591663,-0.0617785342,0.0112475902,-0.0443014503,0.0571333133,0.0053552478
2.1543130875,-0.0163237043,-0.0581757315,0.0175509006,-0.0538485944,0.0505862646,-0.0095105842
2.1643471718,-0.0096565373,-0.0439894088,0.0130968839,-0.0601448342,0.039920304,-0.0095143123
2.1742739677,-0.0029395404,-0.0317063816,0.0106729418,-0.0376387276,0.0305739418,-0.0084628966
2.1843261719,-0.0030332389,-0.0270112026,0.0075029884,-0.0076968092,0.0244481377,-0.0116589554
2.1946370602,-0.0040727737,-0.0250454415,0.0094261914,0.0179765187,0.018306423,-0.0116691422
2.2046699524,-0.0001556162,-0.0248853434,0.0076807891,0.0383041613,0.0131646572,-0.0138004702
2.2147569656,0.0017956611,-0.0255773533,0.0070085083,0.0446716174,0.0164047927,-0.0138016688
2.2248010635,0.0047631976,-0.0253386963,0.0063520228,0.0352064744,0.0025347834,-0.0127443932
2.234858036,0.0057686386,-0.0260897148,0.0046573435,0.0341212377,0.0046392134,-0.0138035323
2.2448701859,0.0019264634,-0.0229927767,0.0048921262,0.0341286957,0.0035366646,-0.0201748796
2.2550158501,0.0059199748,-0.0150053371,-0.0016499008,0.0522285774,0.00793867,-0.0201768093
2.2650570869,0.006056082,-0.0127664674,-0.0012350525,0.0587463975,-0.0037041372,-0.0244314745
2.2750620842,0.0062108752,-0.0105534662,0.0040217792,0.0459830388,-0.0080456221,-0.0223073382
2.2851550579,0.0063890335,-0.0152401198,0.0052879606,0.0278844628,-0.0124480939,-0.022304941
2.2953560352,0.0046161232,-0.0180730093,0.0006259237,0.0223960057,0.0023464316,-0.0244206898
2.3053011894,0.0028185067,-0.0131993759,-0.0012261119,0.0085377153,1.32362e-05,-0.0382217206
2.3153450489,0.0009875413,0.002286566,-0.0012681927,-0.0034315418,0.0232586376,-0.0371442065
2.3253998756,-0.0028518918,0.0060477979,0.0054352437,-0.0086830296,0.0147101572,-0.03927074
2.3355300426,0.0021408317,0.0068474538,0.0033584391,-0.0162064321,0.0199642405,-0.0371430777
2.3455159664,0.0061357734,0.0095390212,0.0031712805,-0.023642242,0.0167436805,-0.0328956023
2.3556509018,0.010111969,0.014102472,-0.0019661631,-0.033262942,0.0188014396,-0.029705599
2.3656759262,0.0101218037,0.01577021,-0.0100579709,-0.0279533975,0.0221072212,-0.0180255082
2.3757991791,0.0080915801,0.0155996215,-0.0209951848,-0.0184474029,0.0317551866,-0.015900705
2.3858029842,0.0060039875,0.0115985405,-0.0192444772,-0.0152231129,0.0296819154,-0.0127171632
2.3959350586,0.0058719632,0.0114725363,-0.0146035403,-0.0152614638,0.0339315236,-0.0116518987
2.4059181213,0.0037680683,0.018137766,-0.0148798674,-0.0088421796,0.0330026112,2.57967e-05
2.4160680771,0.0064693806,0.0200529229,-0.0169798583,0.002918845,0.031032471,0.0074535524
2.4260668755,0.0022744057,0.020110203,-0.0171047896,0.0114271129,0.0343315937,0.0138238342
2.4361429214,0.0009780045,0.0202610623,-0.0181059092,0.0263555422,0.035516236,0.0127587691
2.4462280273,-0.0003565435,0.0156335961,-0.0112341493,0.0263459533,0.0365910865,0.0148829063
2.4562721252,-0.0006550435,0.0109921824,-0.0024136747,0.0136401718,0.0269359294,0.0159443095
2.4663619995,-0.0018888895,0.0091492068,-0.0014867033,-0.0034237672,0.0257188659,0.0148862358
2.4764089584,-0.0011615936,0.0111380946,-0.0064552273,0.0051381635,0.0237057153,0.0201923847
2.4864931107,0.0005112406,0.0132279526,-0.0103465766,0.0264514424,0.0271097682,0.0254976675
2.4965491295,0.0031305668,0.0145450365,-0.0081971139,0.0542633384,0.0210278407,0.0318581611
2.5066509247,0.0018086251,0.0150859486,-0.0048997845,0.0734849721,0.0201692358,0.0371618457
2.5166590214,0.0014907833,0.0098481309,-0.0024756636,0.078897953,0.0127949445,0.0382193886
2.5266709328,0.0031301198,0.0036443002,-0.0019796337,0.0735537857,0.0138370395,0.0424684621
2.5368289948,0.0008309003,-0.0045235627,-0.0015299168,0.075671792,0.0148688816,0.0350351781
2.5468730927,0.0015508052,-0.0078587998,-0.0030203308,0.076767154,0.0116467224,0.0276006982
2.55696702,0.0032820818,-0.0063506239,-0.0015935148,0.076710619,0.0169315655,0.0244173557
2.5669960976,0.0020484445,-0.0029189461,0.0007658754,0.0703089088,0.0168894883,0.0265425574
2.5771341324,0.0017728623,0.0014157422,0.0020471369,0.0552749671,0.0262931772,0.0244284738
2.5871219635,0.0004641529,-0.0011172168,0.0061629568,0.0499371924,0.0262188725,0.0201825965
2.5972189903,0.0031338152,-0.0046810382,0.0063697253,0.0424551219,0.0272222869,0.0212460626
2.6072511673,0.0028002975,-0.0024283999,0.0035824333,0.0349873528,0.027184736,0.0254951362
2.6173870564,0.0043945131,-0.0089152325,0.0047204052,0.0349553674,0.0303748697,0.0265583377
2.6273930073,0.0040381667,-0.0144215692,0.0048567806,0.0360629782,0.0261124801,0.0223087315
2.6374740601,0.0046940562,-0.0102645028,-0.0008841004,0.0274520181,0.0334433615,0.0191299822
2.6475439072,0.0014098998,-0.0090740193,0.003019229,0.0252597034,0.0386674181,0.0095769577
2.6576280594,0.001084667,-0.0098700393,0.0078939945,0.0251823124,0.0460527688,0.0032100054
2.6676559448,0.008596193,-0.0058613294,0.0165954381,0.0060831863,0.0353095755,0.0085184844
2.6777949333,0.0141697638,-0.0019135944,0.0193965584,-0.0034382539,0.0267598946,0.0117005622
2.6877760887,0.0129481368,-0.0038809055,0.012418583,-0.0023823101,0.0278232954,0.0106390258
2.6978900433,0.0078222863,-0.003854441,0.0074333702,0.0040448299,0.0257347766,0.0074526207
2.7079401016,0.0055935201,-0.0027848952,0.0054302369,0.0135744195,0.0332456902,0.0074539525
2.7180030346,0.0073189256,-0.0016518704,0.0064292704,0.020091068,0.0216175299,0.0053220917
2.7280550003,0.0100583546,-0.0005339257,0.0084203035,0.0115668215,0.0205096547,0.0095708985
2.7381248474,0.0069602546,-0.0062599056,0.0113520771,0.0084682601,0.0098160654,0.0010721526
2.7482500076,-6.19177e-05,-0.0091733802,0.0122113973,0.0008721258,0.0225036312,0.0042658155
2.7582569122,0.0006557222,-0.0043191188,0.0100854188,-0.0086851064,0.0182168745,0.0106372954
2.7683310509,0.0023823497,-0.0062988275,0.011869505,-0.0107767545,0.0139542185,0.0106356973
2.7783889771,0.0041487035,-0.0082697738,0.0068754707,-0.0022276072,0.0129743749,0.0116951689
2.7885251045,0.0069150445,-0.0033528083,0.00780578,0.0053189923,0.0056402958,0.0159367863
2.7985191345,0.0097351186,-0.0012910835,0.0059264456,0.0139936274,-0.0080422936,0.0212354772
2.8085951805,0.0076656756,-0.0040132874,0.0021750485,0.0289542004,-0.0100407293,0.0201688819
2.8186919689,0.0007253404,-0.0057082647,0.0033463989,0.0289399773,-0.0090211388,0.0137984669
2.8287670612,0.0016650971,-0.0054985755,0.0045286571,0.023614455,-0.0101356711,0.0127374642
2.8387899399,0.0016276952,-0.0043483251,0.0027488624,0.0236065742,-0.0090685431,0.0138005977
2.8488068581,0.0035269377,0.0026116497,-0.0010150517,0.0193172861,-0.006976896,0.0148645304
2.8589200974,0.0024077413,0.0038100607,0.0020458256,0.0267762691,-0.0058292067,0.01804794
2.8690600395,0.0013333078,-0.0008368365,0.0041620885,0.0224944372,-0.0048401086,0.0127405263
2.8790779114,-0.0016917471,-0.0045879357,0.0052413498,0.0118639246,-0.0091837915,0.0116787916
2.8891201019,-0.0036861184,-0.0064862245,0.0033224975,-0.0073667625,-0.0072434125,0.0095610451
2.8991961479,-0.0047051492,-0.0016765468,0.0012970719,-0.0159534067,-0.0019929232,0.0127519779
2.9093399048,-0.005772579,0.001189781,-0.0007886734,-0.0149171706,0.0012132565,0.0148769142
2.9193191528,-1.81083e-05,0.0011589058,0.0001205955,-0.0137814647,-0.0050953063,0.0223064013
2.9293999672,0.0028030393,-0.0026768916,-0.0037864889,0.0043916795,-0.0081198588,0.0223002769
2.9394540787,0.0027065095,-0.0054671043,-0.0066180076,0.0182314627,-0.0048153414,0.022298079
2.949529171,0.0015765842,-0.0033106678,-0.0045441831,0.0203667842,-0.0047828509,0.0244211517
2.9596161842,0.0024407324,-0.0001863114,-0.0004958357,0.015106109,-0.0122637376,0.0233572852
2.9700219631,0.0023566005,-0.0019443504,-0.0032656635,0.0161849558,-0.0133015718,0.0254800916
2.9800138474,0.0002976175,-0.0027370327,-0.0109048933,0.0224631727,-0.0004934303,0.0286708903
2.9900009632,0.0021125791,-0.0064028376,-0.0117012709,0.0203155987,0.00051431,0.0233629439
2.9999110699,-0.0009699945,-0.0072252625,-0.0087209195,0.0053515625,0.002492639,0.0212434679
3.0099480152,-0.0001704577,-0.0071374052,-0.0135952085,-0.0011481484,0.0119718947,0.0191262551
3.0200691223,-0.0013557557,-0.0109743942,-0.0117190331,-0.0107678594,0.0129151866,0.0138193732
3.0300700665,0.00236119,-0.0081269015,-0.014815256,-0.0289809518,0.0202183723,0.0191366412
3.040168047,0.0030825553,-0.0043437951,-0.0180118531,-0.0216178689,0.0308724158,0.0159551613
3.0502028465,-0.0011527423,-0.0122262109,-0.0115170926,-0.0355581865,0.0370687917,0.008529203
3.0603399277,0.0025037047,-0.014401244,-0.0089989156,-0.0505200885,0.0390250199,0.0032256511
3.0703680515,0.0041728732,-0.0040226453,-0.0095348209,-0.0633554608,0.0421238728,0.0074776541
3.0804338455,0.0008977469,-0.0004528038,-0.0101131648,-0.0580975562,0.0495986342,0.0074789193
3.0904798508,-0.0033746543,-0.0026697987,-0.0057671512,-0.0517400578,0.0538639501,0.0021704403
3.1005370617,-0.0008185689,0.0028929836,-0.004368111,-0.0570882186,0.055978898,0.0085456483
3.1106028557,0.0017087575,0.0007040628,-0.0048772539,-0.0516987815,0.0507274121,0.0096034566
3.1207008362,0.0023340401,-0.0033925646,-0.0091896504,-0.0335523188,0.0498196743,0.0085348627
3.1307349205,0.0020139632,0.0042944676,-0.007570907,-0.0196072105,0.0424861275,0.0042804629
3.1408400536,0.0056394157,0.0120298993,-0.0068208422,-0.0194764733,0.0298241954,0.0148912296
3.1508641243,0.0053884801,0.0091271531,-0.0147328824,-0.0002223533,0.0257895067,0.0212551188
3.161000967,0.0041274545,-0.0043241852,-0.0186121911,0.0179127082,0.026993122,0.0191295166
3.1709251404,0.0009179827,-0.0118865836,-0.0156248063,0.0274492223,0.0333945639,0.0116976993
3.1811330318,-0.0032763663,-0.0116448272,-0.0087332577,0.0338391811,0.0344909206,0.0085110273
3.191131115,-0.0044831815,0.0003250368,0.000182942,0.0457064956,0.0218752585,0.0106253112
3.2012629509,-0.0037605944,0.0152892601,-0.001532122,0.0542926602,0.017803086,0.0254859496
3.211274147,-0.005033839,0.0099398028,-0.0002189126,0.0670577213,0.0221866481,0.0297320932
3.2215270996,-0.0072781029,-0.0051063769,0.0030989205,0.0564572513,0.0146250688,0.023360014
3.2314360142,-0.0045874598,-0.0163937677,0.0053354655,0.0329367444,0.0186501704,0.0212443992
3.2414388657,-0.0018849854,-0.0190828908,0.0015689883,0.0126060136,0.0237218942,0.0127585027
3.2515411377,-0.0080035813,-0.0199470986,0.0054064547,0.0008329777,0.0267677531,0.007454019
3.2615990639,-0.0042955759,-0.0121183265,0.0082470924,0.0039926041,0.0310109667,0.0032092063
3.2717339993,-0.0015551035,-0.0032908195,0.010131076,0.0179217365,0.0258686692,0.0095738955
3.2817280293,-0.0007877235,-0.0002214186,0.0130752474,0.0233424418,0.017469991,0.0159379169
3.2918119431,3.69962e-05,-0.0019709938,0.0122298747,0.0276983082,0.0090469448,0.0201798007
3.3018689156,-0.0030455473,-0.0114680398,0.0075397645,0.0266523771,0.0068943119,0.016994128
3.3119969368,-0.0031795087,-0.0132262576,0.0008531366,0.0222618897,0.0184657462,0.0074448306
3.3220028877,-0.0003950481,-0.0159903634,-0.0010228601,0.0073433411,0.0162274931,0.0095706992
3.332075119,0.0053093252,-0.0178718437,-0.0049130167,-0.0001499951,0.0182565562,0.0053264196
3.3421289921,0.0012816306,-0.028574096,0.0018274937,-0.0022918684,0.018133916,-0.0105999494
3.3522291183,-0.0026815715,-0.0189354289,0.0094466954,-0.0108512677,0.0201675054,-0.0127203586
3.3622729778,0.0011810776,-0.0054343217,0.0121992379,-0.0021733856,0.0065122144,-0.0031740577
3.3723480701,0.0060556051,-0.006377148,0.0063920771,0.0192245804,0.0014213158,0.0010651619
3.3824038506,0.0050742147,-0.0101256836,0.000721768,0.0277398005,0.003603843,-0.0010593082
3.3925318718,0.0021236059,-0.015814947,0.0018530641,0.0212912224,0.0077503845,-0.0074263941
3.4025380611,0.0030907211,-0.0157131422,0.006801561,0.0085108448,0.0044294894,-0.0116736693
3.4125959873,0.0041128513,-0.0108768214,0.0029136692,-7.14576e-05,0.0085643129,-0.0169784203
3.4226820469,0.0041196463,-0.0040922635,0.0009421859,0.002035954,0.0117925964,-0.0127290804
3.4327788353,0.0080521218,-0.0070440643,0.0019101057,-4.71706e-05,0.0064412416,-0.0169784203
3.4427661896,0.0042117354,-0.007123875,0.0018497262,0.0009742845,0.0106672123,-0.0212240983
3.4528851509,0.0003434535,-0.0023419135,0.0046896492,-0.0032819798,0.0095896972,-0.0180381592
3.4629921913,-0.0025701704,-0.0023980611,0.0036469852,0.001004166,0.0085919434,-0.0137908161
3.4730639458,0.0003895875,-0.0034009092,0.0026762043,0.0031139217,0.0106910467,-0.0201610979
3.4830920696,-0.0005623881,-0.0005238525,0.0016649519,0.0020023454,0.0149690825,-0.0137896836
3.4930739403,0.0023484943,0.0004275568,0.0026024138,0.0009346846,0.0149528366,-0.014851219
3.5032639503,0.0043398258,-0.0025721663,0.0035257493,-0.006484272,0.0095549431,-0.0190992951
3.5132908821,0.0043867347,0.0011640914,0.0024119173,-0.0150010604,0.0073445193,-0.0212218333
3.5233130455,0.0044516441,0.002980364,0.0013277683,-0.0096285846,0.0042490605,-0.0148533508
3.5333809853,-0.0003600005,0.0009207852,0.000280336,-0.0032369979,0.0053590657,-0.015916219
3.543503046,0.0006998893,0.000850869,0.0012335335,0.0021474883,0.0011878898,-0.0116710067
3.5535600185,0.0036830124,0.0018312462,-0.0016360725,0.0117676249,0.0002800182,-0.0010559128
3.5636200905,0.004652333,0.0019409783,0.000424758,0.0224674325,-0.002787211,0.0021234355
3.5736608505,0.002719414,0.005012942,0.0035076891,0.0256986469,-0.0059699547,-0.0021261708
3.583753109,0.000796866,0.0042106039,0.005662397,0.0267991722,-0.0091299284,-4.297e-06
3.5938680172,0.0028182385,0.0033823377,0.0010056053,0.0289430153,-0.0101861386,-0.0021289671
3.6039209366,0.000915211,0.0006390937,0.0031689559,0.028910391,-0.0070242337,-0.0053124432
3.6139230728,0.0039667008,-0.0002309553,0.0014302288,0.0214932226,-0.0124014225,-0.0063750446
3.6240000725,0.0040985164,0.0027492768,0.0035056625,0.0086897556,-0.012521131,-0.0074327183
3.6340630054,-0.0006956343,0.0027445084,0.0016043935,0.0064692115,-0.0040655946,-0.0095515298
3.6441469193,0.0013195988,-0.0011405222,0.0065092598,0.0021773679,-0.001987264,-0.0106117334
3.654209137,0.0063337204,-0.0012132399,0.0036209379,0.0001613554,-0.0136630945,-0.0084934551
3.6643328667,0.0035241363,-0.0032266849,0.003614441,-0.0115970075,-0.0116085326,-0.0031809155
3.6743919849,0.0016310032,-0.003339278,0.0006171022,-0.0159070678,-0.0073879547,-0.0010541151
3.6844470501,-0.0002784912,-0.0024767392,0.0005056415,-0.0137628494,-0.0084442981,-0.0031786519
3.6944589615,0.0007470961,0.0032615191,-0.0024749483,-0.0052455282,-0.0062269494,5.6898e-06
3.7045819759,0.0027112779,0.0051772124,-0.003494605,-0.0074154185,-0.0019756125,0.0042572934
3.7146439552,0.0016868826,0.0012349017,-0.0016177144,-0.0170504674,0.0011373563,0.0063848924
3.7246551514,0.0045516607,-0.0017699472,0.0021485244,-0.0223563351,-0.002105708,0.004260622
3.7346920967,0.0074803648,-0.003844487,0.0039528166,-0.0265289769,-0.0116920229,0.0042568939
3.7447881699,0.0084824972,0.0028501279,-0.0019885744,-0.0115896845,-0.0115257744,0.0095610451
3.7549250126,0.006531578,0.0077169067,-0.0039398517,0.0054412312,-0.0071395482,0.0084971124
3.7649998665,0.0055723903,0.0058715469,6.24214e-05,0.0150989182,-0.0123821143,0.0053073112
3.7749891281,0.0085485391,0.0030927188,0.0031767641,0.0194009896,-0.0155070666,0.0084900549
3.785132885,0.0095570497,0.0022606379,-0.0005304064,0.0162225869,-0.0176078361,0.0159216728
3.7951898575,0.005645853,-0.0015256278,0.0005343709,-0.0009175185,-0.011418649,0.0116819199
3.8052420616,0.0055964109,-0.0015296809,-0.0014319862,-0.009518357,-0.0051058922,0.0148721207
3.8151469231,0.0064866659,-0.0054403418,-0.0044219936,-0.0105977356,-0.0040749824,0.0116875125
3.8253889084,0.006387007,-0.0064627999,-0.0084184259,-0.0160147399,0.0043792888,0.013817708
3.8354539871,0.0052623269,-0.0084626544,-0.0027416195,-0.0234628022,0.0021989588,0.0148803098
3.8455209732,0.0022018668,-0.0154017676,-0.0010228003,-0.0352446251,0.0063051539,0.0095770238
3.8555278778,-0.0008509938,-0.0156245101,-0.0023174132,-0.0395557508,0.0105118835,0.0095802201
3.8656630516,-0.0058897915,-0.010982858,-0.0007289495,-0.04171459,0.0125950743,0.0063958117
3.875649929,-0.0060437801,-0.0053681605,-9.76767e-05,-0.0353203416,0.0137397004,0.0106419558
3.8857951164,-0.0032461169,-0.0084138978,0.0016278777,-0.021421276,0.0106229372,0.0021420112
3.8957700729,-0.0003766302,-0.0075622671,0.003406838,-0.0277622603,0.0041732932,-0.002106796
3.9058361053,0.0025528488,-0.0057661408,0.0022910391,-0.0212667566,-0.0053258026,-0.0031759222
3.9159169197,0.0026120064,-0.005874502,-0.002665564,-0.0084521584,-0.0062957262,-0.0063650575
3.9260511398,0.0036847708,-0.0059034699,-0.0026212181,0.0033254297,-0.0104644382,-0.0106177926
3.9360489845,0.0048315939,-0.0029426091,0.0033479487,0.0076674479,-0.0178680252,-0.0127461916
3.9462008476,0.0050439951,-0.0019530527,0.0044671451,0.0077153845,-0.0220925994,-0.0095615834
3.956182003,0.0023161885,0.0019506343,0.0026565348,0.0098411199,-0.0209852569,-0.0053143739
3.9662809372,0.0005613383,0.0010476835,-7.76495e-05,0.0194669552,-0.0230235085,-0.0053177029
3.9765529633,0.0036598858,0.0021200306,-0.0037190164,0.0258606728,-0.0218858048,-0.0021333611
3.9864420891,0.0018415864,0.0042235381,-0.0034859623,0.023749372,-0.0240199286,-0.0010716921
3.9964489937,0.00098924,0.0024114377,-0.0013083663,0.0151910381,-0.0219724905,-0.0010684963
4.0065560341,0.0011212941,-0.0024062865,-0.0031092013,0.0023320708,-0.0167863835,-0.0021243063
4.0165820122,0.002188426,-0.0014862291,-0.0031136717,-0.0126732429,-0.0105716307,-0.0053027892
4.0267248154,0.002301049,0.0012754925,-0.0032337154,-0.0286484286,-0.0138872666,-0.004238856
4.0367150307,0.002352607,0.0039796359,-0.004406556,-0.0308753625,-0.004315333,0.0021372838
4.0467228889,0.0014100488,0.0018554457,-0.0074857916,-0.0212865975,-0.0031972048,-0.0021127216
4.0569009781,0.0024595079,-0.0012248628,-0.0095513314,-0.0202429052,-0.0010935736,-0.006359132
4.0669589043,0.0044802544,0.0005670913,-0.0087077469,-0.0212977845,-0.0021431255,-0.0031739916
4.0769662857,0.0015800114,-0.0005251638,-0.0049466337,-0.0148625225,-0.0052632848,-0.0021153847
4.0871119499,0.0016011413,-0.0035320991,-0.009869799,-0.0095893573,0.0011630559,1.02172e-05
4.0972690582,0.0045052883,-0.0016371481,-0.007019564,-0.0117326695,0.0022261897,0.0031966893
4.107252121,0.0044713733,-0.0026690834,-0.0032269205,-0.0170411728,9.1067e-05,0.008507099
4.1172471046,0.0014878031,-0.0056714886,-0.0062697376,-0.0149292881,0.0022178674,0.0063840272
4.1273450851,-0.0005168203,-0.0076615089,-0.006349429,-0.0117318975,0.0022187994,0.0021353532
4.1372771263,0.0024076221,-0.0009066336,-0.0093304962,-0.0053403107,0.0033288049,0.0010724856
4.147518158,0.0024014828,0.0010516174,-0.0083521456,0.0043276576,-0.002974631,-0.0021179812
4.1574988365,0.0063856957,9.9612e-05,-0.008270666,0.007559936,-0.0061435262,-0.004243983
4.1676239967,0.0074322638,0.0040262467,-0.0101243705,0.0128743276,-0.0039891619,-0.0063674543
4.1776461601,0.0094341151,0.0099417698,-0.0148916095,0.0170906447,0.0013669875,-0.0042422516
4.1877598763,0.011383485,0.0119780432,-0.0176940411,0.0202722698,0.0035519782,0.0010666266
4.1977791786,0.0094182305,0.00826676,-0.0165460557,0.0287965164,0.0046598529,-0.0031821802
4.2079172134,0.0064330217,0.0045520789,-0.0154027194,0.0265766643,0.0131293703,-0.0031775199
4.2179141045,0.0053957519,-0.0001341574,-0.0084463805,0.0233731475,0.0130737107,-0.0074239303
4.2280511856,0.0053470251,-5.33931e-05,-0.0083890408,0.0147619499,0.0204189084,-0.0084795402
4.2380657196,0.0032935855,0.008694781,-0.0084771961,-0.0013403213,0.0298350472,-0.0074089495
4.2481899261,0.001178604,0.0135244858,-0.0037748064,-0.004595397,0.0351264849,-0.005282416
4.2581801414,0.0038972613,0.0095861088,-0.0039285864,-0.009950215,0.0372295827,-0.0010328098
4.2683148384,0.0036469814,0.0084889662,-0.0042174901,-0.030253008,0.0402480736,0.0010987177
4.2783117294,0.0063127396,0.0014844664,-0.001672491,-0.044156041,0.0433306843,0.0042891847
4.2884459496,0.0031039235,-0.0026348704,-0.0040510143,-0.039903827,0.0443954132,-0.0010214249
4.2984437943,-0.0020481828,6.23591e-05,0.0013730084,-0.0334158316,0.0359633155,-0.0010272838
4.3085780144,-0.0032676342,0.0077028996,0.0010342156,-0.0184613056,0.0350882672,0.007462807
4.3185777664,-0.0025548819,0.0125685465,0.0008816872,0.0083490033,0.0226446465,0.0159441754
4.328701973,-0.0008249764,0.0088310968,0.0009234701,0.0233672895,0.0153965205,0.0233694017
4.3387198448,0.004816514,0.0042326576,-0.0028156484,0.029868599,0.0059380373,0.0286720209
4.3488459587,0.0026376066,-0.0100397337,-0.0084117502,0.0373507738,0.0049559297,0.0307934284
4.3588461876,-0.004430044,-0.0203900207,-0.0052735652,0.0394157916,0.0112713501,0.0201780684
4.3689131737,-0.0095216818,-0.0229745377,-0.000175878,0.0404648632,0.0122802882,0.0106211826
4.3789858818,-0.0086907931,-0.0129396785,0.0068567549,0.0426326767,0.0091366936,0.013804459
4.3890519142,-0.0048805955,-0.005827772,0.0100438744,0.0417375602,-0.007820785,0.0180432145
4.3991789818,-0.0059206071,-0.0045328015,0.0084039718,0.0492101237,-0.007720917,0.0233503617
4.4091777802,-0.0059901658,-0.0138653386,0.0049049412,0.0566324592,-0.0034810309,0.0127327368
4.4192438126,-0.006038982,-0.0242265332,0.003331617,0.04909385,0.0027574238,0.003181576
4.4293088913,-0.0031406763,-0.0220007766,0.0045840298,0.0319825634,0.0057576075,-0.0021225088
4.4394450188,-0.0021737101,-0.0218263138,0.006703571,0.0170390308,0.0055786436,-0.0095513966
4.4494309425,-0.006022084,-0.0198423732,0.0087375194,0.009581089,0.0044021257,-0.0169808827
4.4594068527,-0.005911726,-0.0159829129,0.007771865,0.0063583981,0.0064961696,-0.0169790201
4.4695849419,-0.0048459652,-0.0131090749,1.04461e-05,0.0148635227,0.0097394995,-0.0191027578
4.4797120094,-0.001818407,-0.0111499298,8.45347e-05,0.0159279872,0.0097142002,-0.0244120359
4.4897451401,-0.0036859992,-0.0130904783,0.0040363823,0.012703592,0.0118159661,-0.0233491659
4.4997630119,-0.0035954001,-0.0150399674,0.0040810858,0.0052640517,0.0085469363,-0.0265343077
4.5098409653,-0.0015500371,-0.0170981158,0.0079249889,-0.0128901843,0.0094432235,-0.0275917165
4.5198779106,-0.002392638,-0.0173145998,0.0048510586,-0.0225284304,0.0125146471,-0.0318349302
4.5308170319,-0.0032712701,-0.0156484712,0.0065658842,-0.0258026272,0.019891737,-0.0350146107
4.5433597565,-0.0021831873,-0.0100851525,0.0111771375,-0.0257701389,0.0167156514,-0.033954408
4.5507421494,0.0018657263,-0.0035254234,0.0109909326,-0.0160748195,0.0083663072,-0.0254660472
4.5608048439,0.00396682,0.0001732238,0.0128285438,-0.0181110725,-0.0011736683,-0.0212230999
4.5709209442,0.0031471369,-0.0009668939,0.0069129025,-0.0074535282,1.01069e-05,-0.0169798862
4.5803351402,0.0032701907,-0.0078683365,0.0059249555,-0.0095238695,-0.0063745552,-0.0169825479
4.5906352997,0.004380208,-0.009943353,0.0049154316,-0.0127219791,-0.0063823452,-0.0137957428
4.6004343033,0.0084220283,-0.012009548,-0.0009700503,-0.011685743,-0.0031761657,-0.0116708064
4.6102690697,0.0114724152,-0.0131175984,-0.0010216678,-0.0169683881,-0.0085561508,-0.0159186833
4.6204180717,0.0086828284,-0.013327824,0.0046598469,-0.0340211429,-0.0108272946,-0.015915487
4.630522728,0.0039444086,-0.0145975817,0.0005101119,-0.0362211019,-0.0045006219,-0.0190972313
4.6405220032,0.000180256,-0.0110500921,-0.0036476697,-0.0319627076,-0.0033954105,-0.0180359613
4.6506538391,0.0052020666,-0.0064476603,-0.0058118547,-0.0277169608,-0.0012427107,-0.0190980975
4.6606941223,0.0082631819,-0.0017881267,-0.0030263509,-0.0180483554,-0.0075179171,-0.0180418864
4.670814991,0.0084404461,0.0019230373,-0.005047306,-0.015837213,-0.014898669,-0.0137988729
4.680811882,0.0056687114,0.0047013289,-0.0070647444,-0.0190396644,-0.0149404798,-0.0159216765
4.6909379959,0.0009444173,0.0045155413,-0.0003693547,-0.0308022071,-0.0129128825,-0.0148570789
4.7009372711,-0.0008723025,0.0081890356,-0.0063736285,-0.0223173741,-0.0075194486,-0.0127329417
4.7110691071,0.0001761731,0.0119453799,-0.0045279707,-0.0127261877,-0.0052524991,-0.0031767874
4.7210702896,0.0051436541,0.0099905264,-0.0044875587,0.0022998992,-0.0135961836,-0.0010611726
4.731194973,0.0072291312,0.0139248502,-0.0072641219,0.0087874932,-0.0220210273,-5.562e-06
4.7411737442,0.0044025299,0.0188581478,-0.0119920224,0.0162286311,-0.0187312234,0.0063649854
4.751115799,0.0015407916,0.0092682969,-0.0156815499,0.0194182992,-0.0176561065,0.0042411145
4.7612848282,-0.0042832973,0.0054779178,-0.0184790343,0.0107640913,-0.0060596368,0.0042491043
4.771613121,-0.0052943709,0.0045777089,-0.0184174031,0.0074817198,0.0024131436,0.0063789003
4.7816681862,-0.0023911479,0.0046297438,-0.0144876689,0.0032222597,0.0012940834,0.0031940262
4.7917737961,-0.0004902367,0.0105053913,-0.0144693702,0.0085605392,0.0013824338,0.0095633082
4.8017787933,-0.001583207,0.012538923,-0.0115308017,0.0074497345,0.0056032781,0.0074421009
4.8119158745,-0.0046242657,0.0126063358,-0.0057055796,0.0020402418,0.0129905539,0.0085090296
4.8219008446,-0.0018494908,0.0087490808,-0.0047910656,-0.0054381806,0.0140140066,0.0127586359
4.8320207596,0.0009439107,0.0038802749,-0.0077871527,-0.0065385196,0.0171739142,0.0106368288
4.8420338631,0.001779389,0.0077399737,-0.0098563284,-0.0140180066,0.0181835182,0.0127628306
4.8521609306,0.0006168004,0.0086947214,-0.0099878758,-0.0107845832,0.0150569007,0.0170069113
4.8621768951,0.0004354831,0.0058001406,-0.0120267719,-0.0001553744,0.0194010492,0.0180681795
4.8723211288,-0.0007783357,0.0088136327,-0.007224604,0.0019757142,0.0194208231,0.0180665161
4.8822979927,0.0038688895,0.0127826463,-0.0043585743,0.0009442717,0.0162769612,0.0254977997
4.89245224,0.0055762646,0.010942949,-0.0063376273,0.0062806332,0.0163304247,0.0265583377
4.9024391174,0.0053127524,0.0042584068,-0.0024731006,0.000998253,0.0109788021,0.0265570059
4.9125561714,0.0050537703,0.0043823845,-0.0083388537,0.0105438484,0.0174410287,0.0286829416
4.9225668907,0.0057290015,0.0026275045,-0.0063518728,0.0137553541,0.0164010637,0.027619807
4.9327058792,0.0054556844,0.0028482801,-0.0014334167,0.0191120636,0.0143399769,0.0297405496
4.9427690506,0.0041712341,0.002166403,-0.0032605375,0.0340321586,0.0166132525,0.0329232924
4.9527778625,0.0058239517,0.002527786,0.0008419309,0.0372508802,0.0144850537,0.0276119504
4.9628591537,0.004596543,0.0018687971,0.0049030338,0.03088912,0.010164341,0.0244260114
4.972987175,0.0063335714,0.0011646278,0.0041010533,0.0308676548,0.0122792907,0.0233654063
4.9831590652,0.0041442034,-0.0005509726,0.0003030453,0.0211644284,0.0217028856,0.0170017835
4.9930491447,0.0019242581,0.0015528329,0.0051744138,0.0051684976,0.0205090567,0.0180669837
5.0031108856,0.0055828211,-0.0051289075,0.0090562254,0.0051903352,0.0183939748,0.0191277191
5.013212204,0.0063276407,-0.0050381296,0.0080307275,0.0030682217,0.017313797,0.01912825
5.0232563019,0.0070643541,0.0018594392,0.0069916998,-0.0032882113,0.0130623253,0.0265603345
5.0333127975,0.0077552316,0.0039140708,0.0069365059,0.001040251,0.0078491215,0.0350518934
5.04337883,0.0065270481,-0.0076055401,0.0011205231,0.012839919,0.0015510118,0.0297367536
5.0534539223,0.0053239879,-0.0122423638,-0.0036410536,0.0213759355,0.001647285,0.0329190977
5.0634970665,0.0050379154,-0.0129492749,-0.0044922675,0.0170126129,0.0111728795,0.0350485593
5.0736141205,0.0047248718,-0.0195004214,0.005320326,0.0159769896,0.0079522524,0.0308006201
5.0836467743,0.0025183973,-0.0192766059,0.0082989484,0.0159876421,0.0068912487,0.0308000874
5.0936779976,-0.0026681307,-0.0103203524,0.0073382412,0.0127296373,0.0121695008,0.0308023505
5.1036601067,-0.0087942071,-0.0091789234,0.015115872,0.0063753347,0.00674624,0.0212450642
5.1138629913,-0.0079930611,-0.0100726951,0.015108481,0.0010294924,0.0077391327,0.0180622544
5.1239089966,-0.0042588594,-0.0138926972,0.0121660978,-9.30298e-05,0.0130071323,0.0138179744
5.1339921951,-0.0024431827,-0.0187407006,0.0111280829,-0.0107485242,0.0107227387,0.0032014833
5.1440191269,-0.0015449111,-0.0217387546,0.0110024363,-0.0203452259,0.0095362999,-0.0031674667
5.1540851593,-0.0045053544,-0.0209205616,0.0127433687,-0.0245528072,0.0030842603,-0.0106019471
5.1642017365,-0.0073715034,-0.019169854,0.0057517444,-0.0171175264,0.0062978966,-0.0159112252
5.1742677689,-0.0082636066,-0.0154385436,0.0066092168,-0.0149111236,-0.0011096192,-0.0159163512
5.1842780113,-0.0042140665,-0.0146204699,0.0084821731,-0.0137257511,-0.0127574876,-0.013798872
5.1943902969,0.0008896108,-0.0157611836,0.002613679,-0.0115594827,-0.0159361027,-0.0159242079
5.2044582367,0.0020802137,-0.0188061465,0.0026242291,-0.0104726478,-0.0180695597,-0.019110946
5.2145338058,0.0003363605,-0.0160332788,0.0045356308,-0.0179992989,-0.0128427744,-0.0212308876
5.224571228,-0.0014126186,-0.0113473404,0.0073780571,-0.0158554539,-0.0138989845,-0.0233555585
5.2346768379,-0.0021273377,-0.0027482384,0.0063873683,-0.0083073918,-0.0212264713,-0.0180518068
5.2447652817,7.02854e-05,0.0010786183,0.0054975306,0.004532774,-0.0242630076,-0.0127475895
5.2548379898,0.004252505,-0.0038162344,-0.0001875009,0.0056111407,-0.0253220145,-0.0138097908
5.2648267746,-0.0004236285,-0.0058086985,-0.0010649408,0.0002025273,-0.0179208238,-0.0106193237
5.2749547958,0.0007189031,-0.0058661574,-0.0019979919,-0.0041404748,-0.0105524566,-0.0137993377
5.2850279808,0.0028600511,-0.0088413823,-0.0019386258,-0.0062006963,-0.0180050451,-0.0148643358
5.2950940132,0.0060288128,-0.0069942349,-0.0038225497,-0.0040166648,-0.0233044047,-0.0169920027
5.3050780296,0.0072582779,-0.004170286,-0.0086356848,-0.0018696245,-0.0243190676,-0.0127458591
5.3151669502,0.0075200913,-0.0051937574,-0.0065833773,0.0035317987,-0.0306391492,-0.0127497204
5.3252940178,0.0058551547,-0.0061895722,-0.0112814158,0.0120688276,-0.0305645801,-0.0127518503
5.3353610039,0.004142296,-0.0012810103,-0.0169254988,0.022633614,-0.0198684596,-0.0138107901
5.3453578949,0.000435185,-0.0011481516,-0.0108325928,0.0279596709,-0.0187470019,-0.0116879838
5.3554129601,-0.0023190859,-0.0029731863,-0.0037752832,0.0194282066,-0.0199163314,-0.0169962626
5.3656167984,-0.0021225098,-3.00281e-05,0.003162459,-0.0009100875,-0.0137135629,-0.0148644019
5.3755817413,-0.0029354277,0.0057296283,0.0002517257,-0.0094560124,-0.0126992967,-0.0106146634
5.385447979,0.001145583,0.0046744472,-0.0026305164,0.0022802716,-0.0126244612,-0.0148648024
5.3955249786,0.0032664952,0.0046511418,-0.0122707933,0.011841394,-0.0082821772,-0.012741996
5.405626297,0.0043751714,0.0007938273,-0.0131119341,0.0107518956,-0.0061833407,-0.0148642687
5.4156618118,0.0035324213,-0.0060380572,-0.0110946149,-0.0074187201,-0.0031881498,-0.0191036891
5.4257941246,0.0016814884,-0.0061956518,-0.0102395266,-0.0213867333,0.006246631,-0.0180336311
5.436029911,0.003692132,-0.002512502,-0.010428831,-0.0267322026,0.0072891917,-0.0137850242
5.44602108,0.0027829823,-0.0007783644,-0.0115840882,-0.0191989206,0.0009814948,-0.0148518858
5.4561300278,0.0028676805,0.001056207,-0.0145820826,0.0021124929,0.0043862131,-0.009547269
5.4661560059,0.0009024855,0.0059153563,-0.0184872597,0.0137907201,0.0109032337,-0.0021143861
5.4763002396,0.0008717891,0.0060078627,-0.0145163983,0.013844437,0.0055767125,-0.0053017237
5.4862747192,-0.0011244897,0.003159774,-0.0086247176,0.0052972874,0.0065700714,-0.0042372583
5.4964261055,-0.0020883265,0.0070458776,-0.0106000155,-0.0043539284,0.0107246693,-0.0052959318
5.5064210892,-0.001133192,0.0050554997,-0.0125918835,-0.0054434268,0.0128235063,-0.0074182046
5.5165271759,-0.000201929,0.0049932725,-0.012688145,-0.0076306006,0.0181168728,-0.0063532731
5.5265607834,-0.0003035549,0.0020315177,-0.0098742098,-0.0055160513,0.0202782936,-0.0031673335
5.5366358757,-0.0003893558,8.02405e-05,-0.0070202793,-0.0012346208,0.0192466527,-0.0042297351
5.5466861725,-0.0004822497,0.0029915101,-0.006121322,0.0030024685,0.0224738717,-0.0031674001
5.5568342209,-0.004496831,0.0059782988,-0.0012658085,0.0169314928,0.0173102673,1.24143e-05
5.5668239594,0.0003271218,0.0051311976,-0.0040711011,0.0254663937,0.0173571389,-0.0042369254
5.5769581795,-0.0026829126,0.0062316186,-0.004962727,0.0243797973,0.0194762833,-0.0031733252
5.5869531631,-0.0027914825,0.0044186241,-1.99522e-05,0.0147857582,0.0183244664,-0.0042332634
5.5970511436,-0.0019093041,-0.0023327344,0.0038936292,0.0030348264,0.0192836039,-0.0042304671
5.6070718765,0.0009427782,-0.0043293708,0.0008730445,-0.0097808372,0.0202396773,-0.0031649363
5.6172370911,0.0008602854,-0.0092582572,0.0027002846,-0.0097537804,0.0170228463,-0.0084763449
5.6273040771,0.0017880019,-0.0034557455,0.0055384194,-0.0011592265,0.0118477913,1.32798e-05
5.6373939514,0.003697556,0.0033689863,0.0045622145,0.0116712442,0.0098648015,0.0042567607
5.6473550797,0.0036142585,0.0073879487,0.0017187152,0.0266216975,0.0089342929,0.0042524999
5.6574001312,0.0045072553,0.0095462929,0.0019051585,0.0351168104,0.0132668568,0.0063759713
5.667509079,0.0063484428,0.0087943207,0.0030378853,0.0202217493,0.0089200456,0.0106247785
5.6775598526,0.0072004017,0.0060096509,0.0050680195,0.0074419575,0.006691712,0.011690109
5.6876621246,0.0080590956,-0.004629361,0.0031328951,-0.0021739183,0.007654977,0.0095694335
5.6976079941,0.0079350583,-0.0085070003,-0.0017921175,-0.0032784361,0.0108377207,0.0106309708
5.7077560425,0.0068162796,-0.0065603727,-0.0018882003,-0.0033024047,0.012925107,0.0053230235
5.7178301811,0.0037487862,-0.0045857304,0.0029083048,-4.26164e-05,0.0076675601,0.0085062338
5.7279491425,0.0046078381,-0.0006418101,0.001931027,0.0106510399,0.005652613,0.0106261102
5.7379522324,0.0035210368,-0.0005379788,0.001958326,0.0117285019,0.0045868158,0.0085019721
5.7479228973,-0.0004872564,-0.0052969926,0.0058787619,0.0106390025,0.0066856528,0.0063796998
5.7580842972,0.0004285689,-0.0062135928,0.006896988,0.0064096367,0.0023842484,0.0031925614
5.7681651115,0.00233556,-0.0032764548,0.0049391543,2.7637e-05,0.000199391,0.0021312919
5.7782258987,0.0013277348,0.0016048677,0.0020113741,0.0032081977,0.0023705331,0.0053165657
5.7883052826,0.0032145199,-0.0031927102,0.0001071249,0.0096312091,0.0002906043,0.0031902979
5.7984399796,-0.0007631961,-0.0060286992,0.0059839045,0.0010634474,0.0034199518,0.0063792998
5.8084168434,-0.0008340661,-0.0089180935,0.0118032843,-0.0052642226,-0.0040560742,0.0074389717
5.8185138702,-0.0028286162,-0.0118543375,0.0127396137,-0.0063615525,-0.0009043559,0.0042566275
5.8285198212,-0.0047946456,-0.0109044183,0.0126871616,-0.0010498771,0.001229635,-0.0010526503
5.8385481834,-0.0037988308,-0.0060611838,0.0136662871,0.0011571376,-0.0061923284,-0.0031807823
5.8486819267,-0.0007906441,-0.0002194516,0.0137040168,0.0033361353,-0.0103900032,0.0010637636
5.8587827682,-0.0007131282,-0.0002378695,0.0088573843,-0.0041438043,-0.0094086947,-0.0010568448
5.8688182831,0.0003192838,-0.00418024,0.0040015136,-0.0084213745,-0.0083642025,0.0021301599
5.8789520264,-0.000576723,-0.0062025064,0.0010385071,-0.0094838692,-0.0094679501,-0.0031803162
5.8889489174,-0.0014954988,-0.0033732527,6.2738e-06,-0.0127044292,-0.0073462096,0.0010687571
5.899061203,0.0004396554,-0.0024453276,0.0018952641,-0.007386337,-0.0051362524,0.0074395044
5.9090852737,0.0043410775,-0.0082781184,0.0067791496,-0.0041226326,-0.0114950817,0.0042501027
5.9191789627,0.0063808379,-0.0063474053,0.0048637544,-0.0029493244,-0.0221027862,0.0031827744
5.9292168617,0.002589595,-0.0063732737,0.0068563377,-0.0029296158,-0.0242455658,-3.6978e-06
5.9393520355,-0.0011348609,-0.0122484434,0.0040238653,-0.0018417938,-0.0263936035,-0.0053133084
5.9493489265,-0.0048655751,-0.010363685,0.0040307795,-0.0125562232,-0.0222497247,-0.0063703172
5.9594240189,-0.0017532889,-0.0095237959,0.0059668575,-0.0253228862,-0.0266042594,-0.0063705835
5.9695029259,0.0014070388,-0.0145742167,0.0039768969,-0.0210554358,-0.0265808236,-0.0084952535
5.9795570374,0.0006624575,-0.011862861,0.0019670879,-0.0232659392,-0.0192216448,-0.0159228761
5.9898319244,-9.83361e-05,-0.0033242577,-9.6425e-05,-0.0200741403,-0.0181188285,-0.013799537
5.9996590614,0.0059453365,0.0033425814,-0.0001397576,-0.0115117058,-0.0201179311,-0.0063699842
6.0097990036,0.0071075079,0.00522883,-0.0010713781,-0.0049901567,-0.0317122675,-0.0031920341
6.0198159218,0.002429348,0.0032507903,-0.0029219831,-0.0028555812,-0.0316795148,-0.0010692286
6.0298810005,-0.0012863461,-0.002586233,-0.004737183,0.0046026018,-0.0305671096,-0.003194165
6.0399742126,-0.002071369,-0.0064214342,-0.0045553888,0.0152107459,-0.02411527,-0.0042549684
6.0500831604,-0.0009189729,-0.0043744915,-0.004342481,0.0184318386,-0.0262300856,-0.0074422397
6.0600800514,0.0022326228,0.0005527862,-0.0070283855,0.0141942967,-0.0294358004,-0.0053198999
6.0700311661,0.0034363088,-0.0013189189,-0.0087608546,0.0141847096,-0.028360948,-0.0031957626
6.0802459717,0.0006839152,-0.0071102851,-0.01054506,0.0077059572,-0.0210106894,-0.0063757766
6.090280056,-0.0001068,-0.0120105613,-0.0124013275,-0.0030004838,-0.0179624371,-0.0127423294
6.1003489494,6.808e-05,-0.0082242358,-0.0085206479,-0.0137469769,-0.0106568523,-0.016982615
6.1104130745,0.002183896,-0.0005894772,-0.0056786384,-0.0127102081,-0.0074437484,-0.0137958759
6.120511055,0.006258708,0.0012712606,-0.0037044729,-0.0008859066,-0.015808139,-0.0106179919
6.130546093,0.0074085114,0.0051387674,-0.0055671181,0.007631415,-0.0135907903,-0.0074336505
6.1406788826,0.0055934903,0.0051256544,-0.0064863409,-0.0009052409,-0.0136654917,-0.0074313874
6.150686264,0.0027544913,0.003154052,-0.0054797377,-0.0041492376,-0.009449441,-0.0074284575
6.1608119011,0.0047954735,-0.0007725827,-0.0025501694,-0.0105813835,-0.0063161654,-0.0063627269
6.1708259583,0.0048806188,8.60818e-05,-0.000671431,-0.0244529899,-0.0064234911,-0.0042356602
6.1809530258,0.0068795797,0.0038492805,-0.0027177776,-0.0126946829,-0.008414004,6.289e-06
6.1909427643,0.0069028852,-8.85598e-05,-0.0037153806,-0.0084575936,-0.0051867855,0.001068624
6.201086998,0.0010492321,-0.0011054151,-0.0028164829,-0.0116701648,-0.0041606696,8.1533e-06
6.2110791206,-0.0008906607,-0.0021523708,-0.0028846706,-0.0137916394,-0.0052126185,0.0042553628
6.2212219238,-0.0038024667,-0.0012867324,-0.0088296384,-0.0170343556,-0.0009899102,0.0053203604
6.2312097549,-0.0067860964,-0.003338384,-0.0099540204,-0.0235234126,0.007428342,0.0032026148
6.2413539886,-0.0048848572,-0.0073925131,-0.009172067,-0.0298814978,0.0031205458,0.0021412121
6.2513170242,-0.0039406004,-0.008567499,-0.0084482282,-0.0384318456,0.0040723598,-0.0031651361
6.2614488602,-0.004904795,-0.0029907697,-0.0058002914,-0.0341675356,0.0040898034,-0.0063525406
6.2714452744,-0.0048825624,0.0007066258,-0.0030897106,-0.0223886408,-7.93755e-05,-0.01060481
6.2816009521,-0.0038334909,0.0044615394,-0.002240702,-0.0138284173,-0.0020848024,-0.0042376579
6.2916059494,-0.0027924362,0.0044043786,-0.0032389606,-0.0009802626,-0.0062169628,-0.0042429841
6.3017339706,-0.0007522885,0.004410041,-0.0060853208,0.0086083421,-0.0040060068,-0.0031806494
6.3117389679,0.0012602325,0.0025445349,-0.0088516921,0.0182338059,-0.0060441243,-0.0031841116
6.3218402863,0.00231747,0.0007173546,-0.007703885,0.0108350385,-0.0135138258,-2.3663e-06
6.3318729401,-0.0005926971,0.0017717012,-0.0085821599,0.0107311746,-0.0028691697,0.0053119715
6.3420109749,-0.0045347395,-0.006880092,-0.0055823768,0.0064320606,0.000261842,0.0031918958
6.3520069122,-0.0025927308,-0.0136672128,-0.0006783452,-0.0032083169,0.0033055688,-0.0052985279
6.3621759415,0.0023315665,-0.0088375676,0.0002733622,-0.002140468,0.0033217475,-0.0042369254
6.3721370697,0.0023763892,-0.0001658074,-0.0036908831,-0.0063663712,-0.0009595503,-0.0042379908
6.3822741508,0.00144304,-0.0022013658,-0.0037605013,-0.0106712664,0.0021735257,-0.0063601309
6.3921661377,0.0024382588,-0.0013520591,-0.0077547277,-0.0171816312,0.0127137844,-0.0084768105
6.4024152756,-0.0015168373,-0.0083349217,-0.0040796245,-0.0342960618,0.0168078616,-0.0084696207
6.4123830795,0.0013883527,-0.0076321834,-0.0005040612,-0.0470930822,0.0156073086,-0.0127141662
6.4225320816,0.0042640087,0.000768555,-0.0009270753,-0.0545990132,0.0198691003,3.15225e-05
6.4325299263,0.0061290083,0.0014575251,0.0016162549,-0.0449091047,0.0114718862,0.0010866669
6.4426121712,0.0040968177,-0.0006704204,-0.0005779709,-0.0139852501,0.0138363075,-0.0031670006
6.4527029991,0.003053498,0.0041509396,-0.0035835947,0.0020339303,0.0129358917,1.3879e-05
6.4627952576,0.0068892953,0.0042311079,0.0013258015,0.0117452536,0.0024379776,0.0042528324
6.4728708267,0.0088117532,0.0023993379,0.0014392291,0.018168265,0.0003580488,0.0021265647
6.4828767776,0.0078569762,0.0005422361,-0.0023427452,0.007544409,-0.0039737821,0.003190431
6.4930000305,0.0078798346,-0.0032690638,-0.0080630034,0.0150137767,-0.0039154589,0.0021267645
6.5030241013,0.003974956,-0.0061088079,-0.0079859942,0.0106656346,0.0034334008,-0.0042399215
6.5130839348,0.0039771912,-0.0041264766,-0.0040617432,0.0021621613,0.0001965947,-0.0010539821
6.5231189728,0.0049223718,0.0026902682,-0.0031079496,-0.0042495849,0.0012508736,0.0063800323
6.5332107544,-1.92408e-05,-0.0021473044,0.002717868,-0.0010157088,-0.0018972489,0.0074394378
6.5433468819,-0.0020376625,-0.0011226408,0.0007928167,0.0096142981,0.002432385,0.0063777687
6.5533671379,-0.0031050923,0.0077573783,0.0027907644,0.0149760414,0.0004193017,0.0159315933
6.5634622574,-0.002225149,0.0020791418,0.0038860594,0.0150180915,-0.0038245125,0.0159292612
6.5734987259,-0.0023268047,-0.0026282542,-0.0028168405,0.012850279,-0.0006809169,0.0127459858
6.5835781097,-0.0044031921,-0.0064051622,0.002115265,0.0011137277,-0.0007841142,0.0127495816
6.5935487747,-0.0025114897,-0.0063763731,0.0011217747,-0.0085032135,0.0001653025,0.0085053016
6.6037378311,0.0003761466,-0.0035375827,-0.0018946972,-0.015964672,-0.0009672733,0.0074442318
6.6137690544,0.004234415,-0.0055665248,-0.0020090784,-0.0191894919,0.0010990733,0.0031988863
6.6237659454,0.0022572991,-0.005692827,-0.0011855806,-0.0213383697,0.0021072796,-0.0021095257
6.6338701248,0.002268624,-0.0058355802,-0.0013343538,-0.0170693249,0.0021514881,-0.0010487889
6.6439399719,0.0012781139,-0.0010695927,-0.0014694179,-0.0139112668,0.0064166072,-0.0021093262
6.6540288925,-0.0007186119,0.0037331707,0.0023175632,-0.0075084949,0.0064725336,-0.0021109241
6.6640739441,-0.0007332448,0.0017765291,0.0032643829,0.001041797,0.0054851668,-0.002112655
6.674156189,0.0002237376,0.0056659109,0.0013138209,0.0010652328,0.0033908568,0.0021334891
6.6842489243,0.0011403974,0.0085773598,0.0002864752,-0.0085821757,0.0075725522,0.0053226245
6.6942577362,0.0030244109,-0.0030916804,-0.0007155385,-0.0064058406,0.0033402566,0.0042581586
6.7043681145,0.0029732701,-0.0089804996,-0.0066186632,-0.0075625582,0.0117920656,1.4678e-05
6.7143259048,-0.0010322217,-0.00611,-0.004798695,-0.0107852491,0.013886109,1.65423e-05
6.7245492935,-0.0040644291,-0.0061861747,0.0047589098,-0.0213804729,0.0063653411,1.60096e-05
6.7345719337,-0.0011295561,-0.0043732994,0.008514896,-0.0191604644,-0.0020971196,0.0010730182
6.7446680069,-0.0001051311,-0.006415891,0.0035700356,-0.0095069585,-0.0062667639,9.2852e-06
6.7546739578,-6.29012e-05,-0.0055183643,-0.0013239826,-0.0041611949,-0.0072880867,-0.0010543814
6.7648191452,0.0009699877,-0.0016531817,-0.0003496255,-0.0009621521,-0.0072308285,0.0031904308
6.7748670578,0.0009932335,-0.002584564,-0.0002925839,0.0055045355,-0.0135409217,0.0031856373
6.7849450111,0.00298233,-0.0054236525,-0.0030947174,0.0107437186,-0.0039379629,0.0042505022
6.7949399948,0.00297932,-0.0014384858,0.0018670115,0.0054288479,-0.0061134994,0.0031889663
6.8050141335,0.0020200429,0.0034427769,0.0018943105,0.0011843815,-0.0082595404,0.0053131701
6.8150339127,0.0030164239,0.0025287396,-0.0009487118,0.0097341947,-0.0092182783,0.0095577156
6.8251609802,0.0020597694,-0.0051663392,-0.0066781486,0.0129226632,-0.0081711905,0.0031869689
6.8352737427,0.0011187311,-0.0119132269,-0.0075529064,0.0032732319,-0.0040456876,-0.0021175153
6.8453369141,0.0001561161,-0.0109699238,-0.0065942849,-0.0074482551,9.35968e-05,-0.0042386567
6.8554039001,0.0031081853,-0.0081341136,-0.0047131027,-0.0096054142,0.0021761889,-0.0074224654
6.8654689789,0.0041488525,-0.0082356203,-0.0009093132,-0.0170213599,-0.0032298951,-0.0127310771
6.8754839897,0.0042450544,-0.0074148648,-0.0019955481,-0.0138412789,-0.0010799251,-0.0127308108
6.8855519295,0.0023829159,-0.0017251841,-0.0001525726,-0.0149278762,0.001039219,-0.0116672115
6.8956179619,0.0014481064,-0.0018508903,0.0016670381,-0.0160163082,0.0031519046,-0.0116658797
6.9056658745,0.0024945852,-0.0039248341,0.0015941416,-0.0085278209,0.001074772,-0.0148546156
6.9157400131,0.0025710878,-0.0030431622,0.0005620275,-0.0106386412,-0.00103818,-0.0106079392
6.9258761406,0.0055884835,-0.0021607154,-0.0023931707,-0.0074109705,-0.0031197735,-0.0084848003
6.9358649254,0.0056394455,-0.0070907944,-0.0033907737,-0.0074423971,7.0161e-05,-0.0074214004
6.9460091591,0.0027599451,-0.0081528891,-0.000555202,-0.0138825858,0.0031636225,-0.0127282143
6.9560050964,0.0037550149,0.0024399287,0.0051493202,-0.0181479044,0.0031678835,-0.0063563357
6.9660997391,0.0067223427,0.0149670374,0.0030927216,-0.0148241725,-0.0084130056,0.0031933603
6.9761300087,0.0037925062,0.0188382398,-0.0047177519,0.0086361468,-0.0060236175,0.0127447881
6.9861898422,-0.000150371,0.0092426073,-0.0065409984,0.0224838108,-0.0038360304,0.004248172
6.9963922501,-0.0031289342,-0.0022494071,-0.0034426297,0.0181833394,-0.0006903044,0.0042508352
7.0063281059,-0.002173889,-0.0011888616,0.0015034233,0.0011310922,-0.0029474001,0.0063774358
7.0164651871,-0.0002448444,-0.0021441453,0.0044340645,-0.0084421728,-0.006228148,0.0042546303
7.0264668465,-0.0011910085,-0.0050791972,0.0024830257,-0.0020178827,-0.0083014192,0.003190431
7.036465168,0.0008115586,-0.0021656626,-0.0033237184,0.0044386843,-0.0135435853,0.0042479723
7.0465941429,0.0067322371,0.0017606743,-0.0061536278,0.0097656194,-0.0124082128,0.0084943157
7.0566601753,0.0067768809,0.003776086,-0.0070169414,0.0065956591,-0.0156261101,0.0074317148
7.0667591095,0.0048583266,0.002884937,-0.0049804891,0.0065621557,-0.0124283209,0.0095559843
7.0767798424,0.0019169565,0.001041127,-0.0029219831,0.0107891252,-0.0081331749,0.0116806552
7.0868630409,0.0009193536,0.0031006462,-0.0047704424,0.0139784738,-0.0070721707,0.0074334457
7.0969982147,0.000890952,0.0071002967,-0.0036929096,0.011801606,-0.0028467993,0.0074361092
7.107003212,-0.0001388673,0.0081784856,-0.0026540603,0.0096601853,-0.0017914551,0.0095616449
7.1170601845,0.0007926043,0.0014500149,-0.0054808105,0.0085712187,0.0003143065,0.0085011739
7.1271271706,0.0017143305,-0.0004396312,-0.0083700866,0.002164877,0.000266769,0.0095631089
7.137254715,0.0006511029,-0.0003878944,-0.0083681792,-0.0021121595,0.001318185,0.0138119161
7.1472578049,0.0005414005,-0.0081208218,-0.0064377035,-4.18704e-05,0.0076672938,0.0085065002
7.1572952271,-0.001511294,-0.0061753863,-0.0094316453,-0.008642816,0.0139587456,0.0085118264
7.1673679352,-0.0006703619,0.0015601643,-0.0017932501,-0.0181930717,0.0085980687,0.0127582364
7.1775269508,-0.0037500444,-0.0004392736,-0.0019292083,-0.0128579605,0.0086377505,0.0116951028
7.1875143051,-0.0038825157,-0.0004617445,-0.005953535,-0.0075726248,0.0139954314,0.0127591016
7.1975622177,-0.0001178269,-0.0014222733,-0.0050337757,-0.0032188892,0.0055446886,0.0127537753
7.207657814,0.0007599707,-0.0023279064,-0.0069662775,0.006372619,0.0066760657,0.0106279738
7.217728138,-0.0012746338,-0.0022327178,-0.0020684446,0.0085255187,0.0045380797,0.0053173648
7.2278609276,-0.0023115459,-0.000200855,0.0009188209,0.0096246051,0.0013643909,0.0053155003
7.2378578186,-0.0013648454,-0.0010497443,0.0019995128,0.0171158109,-0.0006923683,0.0053125708
7.2479939461,-0.002361584,3.44046e-05,0.0001679216,0.0192273259,0.0014345653,0.0031893658
7.2579908371,0.0005135651,0.0011625417,0.0012756144,0.0181740448,0.0004057861,0.0095599135
7.2681360245,0.0014630969,-0.0025505298,0.0014681969,0.024627896,-0.0048567536,0.0074316482
7.2781238556,0.0014538582,-0.004306125,0.0006918464,0.0288751051,-0.0026974627,0.0074316482
7.2882599831,-0.0015112642,-0.0070028179,-6.00066e-05,0.0267952308,-0.0080215214,0.0074299173
7.2982559204,0.001405042,-0.0087669361,-0.0027710642,0.0235198066,-0.0006155362,0.0084962463
7.3083939552,0.00039072,-0.0144449342,-0.005528375,0.0224308949,0.0014759772,0.0053125708
7.3183898926,0.000380915,-0.017242359,-0.0063835825,0.0139114428,-0.0007690676,-0.00211898
7.3283190727,-0.0015392784,-0.0152622927,-0.0004963722,0.004282251,0.0012205802,-0.0095481342
7.3383569717,-0.0053981426,-0.0094736088,0.0033432995,-0.0032100193,0.003263491,-0.0116688088
7.3485631943,-0.0043672803,-0.0008025639,0.0022974764,-0.0042796265,0.0032692833,-0.0095462035
7.3586778641,-0.0004462485,0.0030266172,0.003231362,-0.0053755175,0.0064845178,-0.0031735254
7.3687973022,-0.0004747693,8.90024e-05,0.0041645323,-0.0021474464,0.0043956675,-0.0021118561
7.3787870407,0.0004742857,-0.0009062163,0.0041268622,-0.0032135099,0.0044001946,1.20149e-05
7.3889241219,0.0023976085,0.0010430344,0.0021729027,-2.5621e-06,0.0034102313,0.0063799657
7.3989467621,0.002350193,-0.0027660602,0.000294343,0.0117758,-0.0007658717,0.0010658943
7.4090571404,0.0043043313,-0.0084969271,0.0004169498,0.0149813397,-0.0007536213,-0.0010566452
7.4190540314,0.0043239412,-0.0084093679,0.0015012776,0.0075886711,-0.0082112718,0.0042505022
7.4291930199,0.0072851297,-0.0083369482,-0.0013074126,0.0118768932,-0.0102669653,0.0084942495
7.4391870499,0.0024041054,-0.0111754406,-0.0051133479,0.0086307656,-0.0060786121,0.0042499695
7.4493250847,-0.0044322195,-0.0169429053,0.0017447624,0.0053947861,-0.0029653099,-0.0021182476
7.4593191147,-0.0063781324,-0.0120674241,0.0007826839,0.0042861123,0.0012832311,7.7537e-06
7.4694652557,-0.0024747136,-0.0101298559,-0.0001806464,0.0011162572,-0.0019133613,0.0021300269
7.4794621468,0.0004831668,-0.0110993255,0.0008047376,0.0021684729,-0.0008984306,-0.0063641253
7.4895720482,0.0005382713,-0.0101702083,0.0008047376,-0.0042270543,-0.0020497153,-0.0116723385
7.4995560646,0.0015965517,-0.0092445482,-0.0001852955,0.0021331068,0.0022502248,-0.0116718058
7.5097150803,-0.0012596134,-0.0102823842,0.0027018343,-0.0064081578,0.0021131386,-0.0212256964
7.5197000504,-0.0011293475,-0.0094521511,0.0045779501,-0.0160448067,0.0052053351,-0.0222835038
7.5297908783,-0.0010304336,-0.0028537386,0.0063624536,-0.0224437173,0.0051622586,-0.0201573018
7.5398859978,8.56634e-05,0.0027836687,0.0062169586,-0.0127846971,-3.80962e-05,-0.0169769563
7.5499210358,0.0031499383,0.0056176311,0.0023135697,0.0054311655,-0.007285357,-0.013800337
7.5599880219,0.0052595255,-0.0011767618,0.0005182777,0.0161663666,-0.0135581661,-0.0138061959
7.5700531006,0.005440813,-0.0010953419,0.0007212315,0.0225692466,-0.0134809334,-0.0106229186
7.5801877975,0.0046190736,0.0009427198,-8.06298e-05,0.0140753593,-0.0177925918,-0.0095611177
7.5901937485,0.0028354344,-0.0029250258,-0.0018698421,0.006619601,-0.0189058594,-0.0074353153
7.6002521515,0.0010130819,-0.0077699297,-0.0046925391,0.0065785884,-0.0146410745,-0.0042477776
7.6103181839,0.0001906272,-0.008734094,-0.0075061168,0.0054970244,-0.0136236129,-0.0095563903
7.6204190254,-0.0035888138,-0.0058298581,-0.0025825347,0.0044293636,-0.0136398589,-0.0106179258
7.630466938,-0.0034101489,-0.002953636,-0.0025367583,-0.000907558,-0.0136931213,-0.0116786631
7.6405148506,-0.0003301982,-0.0020533674,-0.0054232324,-0.0062634405,-0.0116038723,-0.0095526613
7.6505818367,-0.0011794452,0.0007540711,-0.0064459289,-0.0138162458,-0.0032032633,-0.0127305454
7.6607179642,-0.0030526998,-0.000381159,-0.0046376432,-0.0202424526,-0.0011648799,-0.0169750918
7.6707162857,0.001944315,0.0023589856,-0.0057267393,-0.0181170925,-5.74044e-05,-0.012728015
7.6806087494,0.0030054566,0.0090069901,-0.007781669,-0.0159487464,-0.0031940753,-0.0084829368
7.6908512115,0.0050243256,0.0108859669,-0.0117203444,0.0011152728,-0.0019485813,-0.0031783856
7.700925827,0.0050772843,0.0080006253,-0.0126002282,0.0118190497,-0.0050314562,-0.0021208441
7.7109808922,0.0051544723,0.0042048818,-0.010511443,0.0182541795,-0.0081657972,-0.0031855095
7.7210578918,0.0071928916,0.0043292171,-0.0142064542,0.0246356465,-0.005987864,-0.0031860422
7.7311520576,0.0042877314,0.0054621822,-0.0081837624,0.023524601,-0.001752706,-0.0031841113
7.7411899567,0.0043105003,0.0027173883,-0.0050623263,0.023568809,-0.0059759468,-8.349e-07
7.7512569427,0.0033510146,0.001859916,-0.0039608921,0.0138961012,0.0003007245,-0.0010585095
7.7612991333,0.0013650175,0.0028753406,-0.0068523134,0.0042179078,0.0076507828,9.4182e-06
7.7713608742,0.0013151284,0.0038470752,-0.0107727498,-0.0011864444,0.0150575656,0.0042630192
7.7814321518,0.0011851307,0.0028633005,-0.0128151625,-0.0054656118,0.0160812847,0.0042646169
7.7915010452,0.0030228016,-0.0049332255,-0.0119128674,-0.0065920213,0.021343559,-0.0010426635
7.8015789986,0.0009180423,-0.0089103449,-0.0111307353,-0.0184066035,0.0286472775,-0.0042214128
7.8116540909,-0.0002152804,-0.0042114728,-0.0055755223,-0.0322317109,0.024301663,-0.0010334757
7.8217802048,-0.001310933,-0.0024595135,-0.0058680023,-0.0193835571,0.020169504,-0.001038802
7.8317861557,-0.0014215295,0.0003870256,-0.0108871907,0.0030017756,0.0224598888,-0.0052908715
7.8418450356,-0.0025134566,0.0043267137,-0.0070227231,0.0115494579,0.0214734543,-0.0052935346
7.8519129753,0.0003355857,0.0073460466,-0.0030695046,0.0158722736,0.016226694,-0.0021120559
7.8620400429,-0.0017392818,0.0055177934,-0.0001025047,0.016921293,0.0183995664,0.004259557
7.8720541,-0.0028306129,0.0017367132,-0.0029623951,0.0180200338,0.0152188875,0.003195957
7.8821101189,-0.000994343,-0.0010389559,-0.0038460935,0.0201324522,0.0173526108,0.0021346873
7.8921880722,-0.0011058036,0.0001047976,-0.0008364763,0.0222825035,0.0163297579,0.0053202938
7.902256012,0.00071938,-0.002661156,0.0002363477,0.0170118418,0.0099309813,0.0074420348
7.9122629166,-0.00134908,-0.0083649028,0.0022626673,0.0180327892,0.0141429035,0.0010729516
7.9223632812,-0.000452954,-0.011196183,0.0013411198,0.0094829779,0.0151016414,-0.0031715946
7.932513237,0.0004392978,-0.0073091858,0.0013002907,0.0019490281,0.0213882327,-0.0052898061
7.9424939156,-0.0006216649,-0.0073555582,0.001181439,-0.0023429226,0.0234452579,-0.0095348852
7.9526453018,0.0012718554,-0.0044905418,0.0010640179,-0.0055043874,0.0191955864,-0.0063523408
7.9626469612,0.0041152355,-0.0016426913,-0.0019702162,-0.0034004906,0.022418011,-0.0031658686
7.9728350639,0.003030133,-0.0026345127,-0.0030318941,0.001954088,0.0203292277,-0.0052923365
7.9827880859,0.0039224741,-0.0026473873,0.0027380739,-0.000170582,0.0192357339,-0.0074159405
7.9929661751,0.0028723893,0.0002567895,0.0046267067,-0.0022492325,0.0139325801,-0.0042323982
8.0029439926,0.0008257445,0.0012248285,0.0084437281,-0.0001250952,0.0150191505,-0.003170596
8.0130500793,0.0017313774,-0.0016735665,0.0093916208,-7.73966e-05,0.0108088916,0.0021371506
8.0231552124,0.0016521927,-0.0007206671,0.0093324929,-0.0033000885,0.012902936,0.0021390151
8.0338182449,0.001558822,-0.0026622885,0.0092694312,-0.0021883249,0.0086746346,0.0031989531
8.0431346893,0.0024695513,-0.0026659244,0.0063163792,0.0010125283,0.0086956741,0.0021363518
8.0533733368,0.0063457903,-0.0065639489,0.0014444742,0.0010408107,0.0054997476,1.02172e-05
8.0634632111,0.0102237575,-0.007543134,0.0014127051,-0.0032708459,0.0096995523,-0.0010483894
8.0734128952,0.0082158558,-0.0056537264,0.0032562171,-0.0139330793,0.008524565,-0.0042316657
8.0834541321,0.0052770493,-0.0058162683,0.006973878,-0.0277535543,0.0030845264,-0.0063544712
8.0935249329,0.0042894301,-0.0011302106,0.0067537581,-0.0235339887,0.0084679732,1.83398e-05
8.1036109924,0.0042313454,0.000678552,0.0055996929,-0.0139085231,0.0064298566,1.48778e-05
8.1136703491,0.0051726219,-0.0042570108,0.0045417701,-0.006390607,0.0022491596,1.28137e-05
8.123664856,0.0061627743,-0.0042665475,0.0035537635,6.64936e-05,-0.0029860823,0.0021321573
8.1338214874,0.0061841724,-0.0042592757,0.0016220366,-0.0009434307,-0.0093590263,0.0021268311
8.143860817,0.003235769,-0.0032577985,0.0026083742,0.0011386285,-0.0040215198,0.004252566
8.1539936066,-0.0006757263,0.0016087421,0.002605394,8.25515e-05,-0.005099101,0.0031908303
8.1639823914,-0.0016547922,0.0035894043,0.0035950695,0.003327081,-0.0093082273,0.0042497031
8.1740608215,0.0022764322,0.0016859301,0.0036804234,0.0075959158,-0.0092568286,0.0063719763
8.1841020584,0.0043022749,-0.0040683621,0.001875535,0.0129912142,-0.0156316385,-0.0021269696
8.1942090988,0.0034316299,-0.0050119036,0.0010020291,0.0022977693,-0.0136238793,-0.0053083817
8.2042512894,-0.0003803555,-0.0040756338,0.0019886051,-0.0083516799,-0.0158321746,-0.0042449813
8.2143344879,-0.0032194736,-0.0060992115,-0.0009606328,-0.0084255012,-0.0084054153,-0.0042409869
8.2244100571,-0.0031636539,-0.0013316147,-0.0020095552,-0.0138250617,-0.0020860007,-0.0042364593
8.2344446182,-0.0011507157,0.0034167296,-0.0030712928,-0.0137709454,-0.0073699784,-0.0010539821
8.24451828,-0.0011037175,0.0014059074,-0.0040824856,-0.0052669402,-0.0041262484,-0.0031781192
8.2545623779,-0.0020557228,0.0042969114,-0.008968398,0.0032277992,0.0002064484,-0.0010547808
8.2646818161,-0.0030590477,0.0052578575,-0.0080243796,-0.0032159854,0.0044153081,0.0021343546
8.2747573853,0.0007988032,-0.0015419595,-0.0050957049,-0.001060023,0.0023046862,0.0010712871
8.2847833633,-0.0011725012,-0.0044898861,-0.0061201896,-0.0064292224,0.0054203183,-0.0021111905
8.2949266434,-0.0021665278,0.001292003,-0.0081606358,-0.007527804,0.0086080562,1.40787e-05
8.3049526215,-0.0022424045,0.0012513526,-0.0043689455,-0.0117941871,0.0085984683,0.0042623533
8.3150320053,-0.0013341192,0.0012062319,0.0004143868,-0.0095816338,0.0011887553,0.0042594238
8.3249387741,-0.0023654881,0.0050512678,-0.0045296396,-0.003230528,0.0065704715,0.007445896
8.3351602554,-0.0024303081,0.0050867922,-0.0045319046,0.00851468,0.00559915,0.0053178309
8.3452415466,0.0004690703,0.0042186505,-0.0044339742,0.0160378441,0.0003593806,0.0053133033
8.3553180695,0.0033706543,0.002394808,-0.0062580551,0.0181086119,0.0067296615,0.0031928944
8.3653049469,0.005319607,-0.0062506669,-0.0041856016,0.0117995832,-0.0029029918,-0.0010575107
8.3753290176,0.0043789861,-0.0110736359,-0.0031292881,0.002199552,-0.0040953555,-0.0084892614
8.3856945038,-0.0004413609,-0.0043201917,0.0007235561,0.0010791607,0.0012003401,-0.0084863314
8.3955526352,-0.0003889684,0.0053731329,-0.0061108316,0.0021710573,-0.0008922387,-0.0053015905
8.4055719376,-0.0003966276,0.0112245213,-0.0022223438,0.0021534804,0.0012782377,0.0021320907
8.4156990051,-0.0014120225,0.0054353601,0.0016957079,0.0053658108,0.000266436,0.0053157001
8.4257011414,0.0014674481,-0.0032806867,0.0007546697,-0.0010998119,0.0065903785,0.0074440986
8.4358215332,0.0003746863,-0.0052318447,-0.0022312845,-0.013934223,0.0096817762,0.0106348312
8.4458560944,-0.0007361356,-0.008205818,0.0015027079,-0.0192512255,0.0074785426,0.0053260867
8.4559831619,0.0021113572,-0.0082988013,0.0023408686,-0.0170538239,0.0011385547,0.0063836942
8.4659719467,0.0059739468,-0.0034684413,-0.0064871754,0.0021337187,0.0034352648,0.0074417684
8.4760713577,0.0039673564,-0.0053652995,-0.006459638,0.0064551509,-0.0018394585,0.0063763042
8.4861040115,0.0039395508,-0.0043467158,-0.0015709248,-0.0009838566,-0.0051015648,0.0042529656
8.496178627,0.0010028299,-0.002419638,-0.0006424632,-0.008506461,0.0001380052,0.004257693
8.506319046,-0.0010400895,-0.0014943354,0.0002155457,-0.0139044235,0.0064781932,0.0074476274
8.5162801743,-0.0001436953,-0.0015529267,-0.000853702,-0.012833938,0.0064863153,0.0074485592
8.5263671875,-0.0002522949,-0.0015786759,0.0009800945,-0.0128014479,0.0033102294,0.0085087633
8.5364780426,0.0006493445,-0.0035252445,-3.13367e-05,-0.0010416219,0.0013120597,0.0116896434
8.546500206,0.002519202,-0.0063508623,-0.0028697099,0.016064927,-0.0017148892,0.0127455872
8.5566444397,0.0024524448,-0.0062010759,-0.0027484144,0.0149847763,-0.0006765891,0.0106223142
8.5666427612,0.0004186746,-0.0070351236,-0.0026758756,0.011751432,0.0024784578,0.0106247114
8.5767326355,0.0013143237,-0.0098408926,-0.0025932635,0.0107109882,-0.0007475624,0.0053134365
8.5867767334,-0.0006825809,-0.0117413271,0.0003438745,-0.0042826096,0.0044200355,0.0042580254
8.5968666077,-0.0017129664,-0.0107995141,0.0012483153,-0.0117473165,0.0043600476,0.0053233569
8.6068954468,-0.0017575506,-0.0138108004,0.0001543317,-0.0181745887,0.0063845823,-0.001044794
8.6170454025,-0.0008020584,-0.0090619195,-0.0009652223,-0.0171225332,0.0074422569,-0.0031693308
8.6270294189,0.000154179,-0.0033298009,-0.0020853723,-0.0086286478,0.0117539149,-0.004231133
8.6371021271,0.0011107441,-0.0043502324,-0.0001776065,-0.0031671962,-0.0009379119,-0.0053011915
8.647069931,0.00314064,-0.0072784894,0.0017926249,-0.0020904811,-0.0020034425,-0.0074255951
8.657201767,0.0021947739,-0.00538634,-0.0031041349,-0.0032051997,0.0033186851,-0.0031741911
8.6673669815,0.0012232776,-0.0063909763,-0.0031315531,-0.0032062652,0.0033048366,-0.0052977959
8.677365303,0.0012541529,-0.0083420146,-0.0002133097,1.57328e-05,0.0011968114,-0.0074231317
8.6874742508,0.0022936282,-0.004473018,-0.0021338905,0.00430502,-0.0008948352,-0.0084870644
8.6974830627,0.0013547357,0.0033072955,-0.0030868496,0.0032526199,-0.0019096995,7.0214e-06
8.7076330185,0.0013881143,0.0014158614,-0.0020383443,0.0128674302,-0.0028868134,4.0919e-06
8.7176389694,0.0004622455,-0.009196924,-0.0019160953,0.0129169654,-0.0082403002,-0.0074311877
8.7277002335,-0.0033900919,-0.0121092666,-0.001853272,0.0031934977,0.003319151,-0.0116701405
8.73777771,-0.0033491137,-0.0082583893,-0.0048104967,-0.0021661418,0.0054168561,-0.0084838681
8.7478485107,-0.0003872995,-0.0073268288,-0.0077466215,0.0010245917,0.0065058232,-0.0084841345
8.7578868866,0.0016136285,-0.0083082784,-0.0086829513,0.004249014,0.0043969322,-0.0106086051
8.7679681778,-0.002237964,-0.0025051706,-0.008706972,0.0052618147,0.0096974215,-0.0127298124
8.7780761719,-0.0031976285,-0.0015532247,-0.0067756022,0.0042245928,0.0065058228,-0.0127318762
8.788064003,-0.003157604,-0.0054656141,-0.001897737,0.0031457469,0.007543657,-0.0148546826
8.7982406616,-0.0030963304,-0.0025903457,-0.0009570565,-0.0021914411,0.0074620307,-0.0201619621
8.8082370758,-0.0029973271,-0.0017109386,-0.0009837593,-0.00110141,0.0053701177,-0.0169778876
8.8183040619,-0.002908993,0.0030878312,-0.0029490436,0.0041822763,0.0107212737,-0.0169760901
8.8283319473,-0.0018927936,0.0011089571,-0.0010059322,0.0020363005,0.0117497863,-0.0190986283
8.8384618759,0.0020969328,-0.0037978166,0.0019156489,-0.0021837447,0.0063949688,-0.0212251637
8.8484954834,0.0031960127,-0.004886257,0.000900105,-0.0096744187,0.0084586525,-0.020160431
8.8586425781,0.0022972045,-0.000199186,-0.0011998261,-0.0171715356,0.0116031794,-0.0159088299
8.8686304092,0.0071842787,0.0054785735,-0.0052464451,-0.0076057278,0.0159864761,-0.0074146762
8.8787660599,0.010076385,0.0103173982,-0.0082244724,0.0073726354,0.0129600614,-0.0031711953
8.8887891769,0.0129538588,0.0113554131,-0.0023476924,0.0074482695,0.0055468855,-0.0010513187
8.8988800049,0.0109581463,0.0094598662,0.0005957637,0.0053311093,0.0034361971,0.0031930942
8.9088926315,0.0059970734,0.0056093461,-0.004260465,0.0063151475,0.0119612422,0.0074442984
8.9190378189,0.0039377329,-0.0001966827,-0.0033262814,-0.0022441447,0.0139663359,0.001077479
8.9290208817,0.0038311896,-0.0011940472,-0.00147061,-0.0086581027,0.0149644883,1.78072e-05
8.9391689301,0.000802141,-0.0012665264,-0.0035815681,-0.0140073271,0.0159657039,-0.002104599
8.9491596222,-0.0042030397,-0.000385391,-0.0018163171,-0.0182864964,0.016989423,-0.0021030011
8.9593029022,0.000562739,-0.0024822825,-0.0030192579,-0.0279302802,0.0211982839,0.0053338762
8.9692020416,-0.0016057376,-0.0094421972,-0.0013797726,-0.0343895108,0.0264058299,-0.0010326768
8.979391098,0.0002140518,-0.0106712449,0.0031241928,-0.0471389145,0.0210163891,0.0032153316
8.9894170761,0.0029608724,-0.0051165097,-0.0041072215,-0.0397339948,0.0274338089,0.0010930585
8.9994773865,-0.0001315955,-0.0014791958,0.0042711054,-0.0439392067,0.0209951494,-0.0042173513
9.0096969604,0.0056382534,0.013828231,-0.0019236651,-0.02261208,0.023379745,0.0074582133
9.0196418762,0.0093852095,0.0138055217,-0.0078875273,0.0083630122,0.0204327572,0.0021395476
9.0297603607,0.0063484428,0.0090248715,0.0028357659,0.002064636,0.0097391,-0.0021113902
9.0397663116,0.0013962205,0.0100057852,0.0008543287,0.001061636,0.0034063696,0.0042554289
9.049823761,-0.0055363062,0.0041917092,-0.0069798077,0.0030584745,0.017231904,0.0063854251
9.0598907471,-0.0076349857,-0.0035230988,-0.0069908346,0.0094619393,0.0172520094,0.0010760142
9.0699558258,0.0020699617,-0.0034465664,-0.0117948502,0.0127400234,0.0098806471,0.0053186961
9.0801019669,0.0048970697,0.0005523689,-0.0107651204,0.0127513418,0.008840749,0.0085032377
9.090089798,-0.0020612064,-0.0042174333,-0.0019816603,0.0074236882,0.0076985196,0.003195025
9.1002349854,-0.0040961686,-0.0022275918,0.0009054695,0.0009888792,0.0108469753,0.0063830283
9.1101942062,-0.0042320075,-0.0002462737,0.0018358979,0.0009462684,0.0150909889,0.0063851587
9.1203136444,-0.0053395513,-0.0011964909,0.0085945278,-0.0022102967,0.0108253378,0.007446229
9.1303653717,-0.0025240663,-0.000188338,0.0095326453,0.0010251775,0.0076979869,0.0116910413
9.1404914856,0.000306141,-0.0020536655,0.0066565429,0.0127841532,0.0056787785,0.0116867796
9.1505222321,0.0002258833,-0.0058216923,0.0048025404,0.0117356665,0.0035128295,0.0063769696
9.1606330872,0.0002060648,-0.0028260224,-0.0009829248,0.0117165707,0.005641161,0.0074404366
9.1706361771,0.0020630178,-0.0056417459,-0.0018973794,0.0095498227,0.0087986048,0.0063807648
9.180768013,0.0020127115,-0.011434542,0.0039624129,-0.0042772023,0.003318219,-0.0021140533
9.1907529831,-0.0009257976,-0.0057080262,0.0047999178,-0.0213826858,0.0063590165,-0.001046392
9.2008895874,-0.002905834,0.0038403398,0.0026157652,-0.0278133936,0.0095060077,0.0021430764
9.2108869553,-0.0029755714,-0.0001798741,0.0014521632,-0.0118075302,0.0096319746,1.5477e-05
9.2210226059,0.0008907433,-0.0021749609,-0.0015289034,-5.67576e-05,0.0086657796,-0.0010489885
9.2310199738,0.0047379551,-0.0002281539,-0.0015417781,-0.0010695579,0.0033652904,0.0010722193
9.2411680222,0.0066602048,-0.0021813982,-0.000601932,-0.0064024851,0.0033390583,0.0042593572
9.2511558533,0.0066143391,-0.0060790055,-0.0035629715,-0.002164863,0.0065732012,0.0063834945
9.26130867,0.0046111462,-0.0051131719,-0.0045667137,-0.0021260865,0.0023092136,0.0031951582
9.2712879181,0.0065104184,-0.0002155177,-0.0016440596,0.0042990558,0.0002569817,0.0053160996
9.2813940048,0.0064765927,-0.0011055343,0.0013424908,0.0128358975,0.000331617,0.0053139026
9.2913246155,0.007434201,0.0028830296,0.0014376793,0.0128896935,-0.0049664755,0.0063730418
9.3014907837,0.004506093,9.62146e-05,0.0025405441,0.0182580408,-0.0081031471,0.0063703787
9.3115549088,0.0035162685,-0.0026972764,-0.0002323832,0.0171168763,-0.00067852,0.0074361758
9.3216896057,0.002463412,-0.002553212,0.0037610088,0.0127739795,0.0067111524,0.0074410359
9.3316869736,0.0033552167,-0.0053364509,0.0048273955,0.0149604343,0.0014109296,0.0053142356
9.3418416977,0.0042925593,-0.0013466351,0.0049109017,0.0064440444,-0.0007569501,0.0095615108
9.3518190384,0.0022964296,-0.0051907771,0.0020203148,-0.0020844629,-0.001920219,0.0053158998
9.3619556427,-0.0026201787,-0.0120439995,0.0019459877,-0.016032476,0.0053432202,-0.0010468579
9.3719530106,-0.005580354,-0.0112357605,0.0027292524,-0.0277948603,0.0073280744,-0.0063518747
9.3820886612,-0.0016719584,-0.0085263718,0.0015184437,-0.0288849175,0.0094271107,-0.0084743472
9.3920850754,0.0002823289,0.0009805687,0.0032059108,-0.0363100767,0.005145547,-0.0042274045
9.4022312164,-0.0016930584,0.0065648681,0.0038681184,-0.0384209491,0.0030468428,0.0021424771
9.4122209549,-0.0017301623,0.0015185006,0.0017090593,-0.0234912708,0.0042452654,0.0032010837
9.4222698212,-0.0007511262,-0.0025174492,-0.0042711939,-0.0192092247,0.0031991755,1.56767e-05
9.432352066,0.00118975,0.0002982743,-0.003428265,-0.0148986345,-0.0010144778,-0.0010493214
9.4424724579,0.0070742485,0.0051111705,-0.0054032053,9.63463e-05,-0.0061541125,0.0042530322
9.4524841309,0.0109997801,0.0100496542,-0.0062820758,0.0193600561,-0.0112636536,0.0084927846
9.4625606537,0.0110304467,0.0122002494,-0.0040912475,0.0343717895,-0.0185521245,0.0095459986
9.4726171494,0.0100844614,0.0105196368,-0.0018249002,0.0375630558,-0.0174562354,0.010607535
9.4827260971,0.0052343723,0.0020430214,-0.0015002337,0.0386117548,-0.0153472777,0.0074245241
9.4927997589,0.0023537395,-0.0016180746,-0.0021921839,0.0290070642,-0.015438091,0.0063651185
9.5028944016,0.0004788752,0.0005039104,-1.4152e-06,0.0236773081,-0.0165653396,0.0031793788
9.512919426,0.0005307313,0.0035663373,-0.0027350034,0.0193464737,-0.0102158329,0.0063690469
9.5230131149,-0.0014246289,0.0007948406,-0.0054923142,0.0214331672,-0.0059727514,0.0031840396
9.5359811783,-0.0004526858,0.0038351542,-0.0034206356,0.0107512288,-0.0050049582,0.0031872354
9.5433607101,0.0044074175,0.0087428223,-0.0043607797,8.69725e-05,-0.0050366502,0.012746918
9.5539798737,0.0023791906,0.00779028,-0.0073123421,-0.0074356589,0.0002100435,0.0138132479
9.5639038086,-0.0026185992,0.0009490974,-0.0083852857,-0.0160571635,0.0086232359,0.0138199059
9.5734348297,-0.005724329,-0.0010557048,-0.0075856294,-0.0214561895,0.0149495751,0.0148862358
9.5838813782,-0.0039584222,-0.0030674809,-0.0077720131,-0.021467749,0.0160037875,0.0138248326
9.5932073593,0.0007277544,0.0007577069,-0.0050511207,-0.0235455446,0.0107216733,0.0201935153
9.6035642624,0.0024518487,0.0065562255,-0.0013479437,-0.0245324336,0.0033615618,0.0318698138
9.6132240295,0.0041705486,-0.0012225382,-0.0092653483,-0.0128579345,0.0098301135,0.0318700783
9.6234512329,0.0019415136,-0.0089355577,-0.005468234,-0.0085987933,0.0108852582,0.0255003311
9.6335668564,0.0075674471,-0.0059755915,-0.0036325897,-0.014971206,0.0076255491,0.0223149247
9.6436338425,0.0084081404,-0.0030307048,0.0001872335,-0.0020785769,-0.0018511764,0.0159341227
9.6536540985,0.0054035601,0.0067497022,-0.0027227844,0.0054136943,-0.0038940874,0.0180547982
9.6638040543,0.0033358154,0.0030152923,-0.0074753012,0.0235139206,0.0005149089,0.0191146042
9.6738471985,0.0022314605,-0.0084330905,-0.0063359584,0.0245016888,0.0078889355,0.0095618442
9.6839694977,0.0011513646,-0.0121664871,-0.0033069695,0.0170177538,0.0088432133,0.0031933603
9.6940994263,0.002078962,-0.0062178844,-0.002245828,0.0170704834,0.0035312716,0.0021288949
9.7041721344,0.0059648869,0.0045918948,-0.0108944625,0.0277528763,0.0025917753,0.0063723093
9.7142162323,0.0020201621,-0.0039277547,-0.0155346841,0.0426575243,0.005863735,-6.352e-07
9.724313736,-8.3927e-06,-0.0105009545,-0.013365671,0.0298322178,0.007859108,-0.0021190466
9.7343568802,0.0018846508,-0.009384321,-0.0093516558,0.0149062658,0.0067091556,0.0042549632
9.7444572449,0.0027895686,-0.0092823971,-0.0044354643,0.009579597,0.0056021456,0.0042551626
9.7545146942,-0.0031871679,-0.0121158827,-0.0014884914,0.0105609726,0.0140925692,0.0031973552
9.7645807266,-0.005275059,-0.0042416924,-0.0005285587,0.0137200402,0.0183857847,0.0063836277
9.7746238708,-0.004461694,-0.0031285756,0.0043760096,0.0169533845,0.0152307376,0.0063812309
9.7847146988,-0.0025999728,-8.45067e-05,0.0034877216,0.0212212596,0.0152397919,0.0021334891
9.7946605682,0.0002297576,0.0009733565,-0.0023085321,0.0062596207,0.0172243807,0.0010764804
9.8048009872,-0.0008681897,-0.0058407658,-0.0033579911,-0.0119706504,0.0255411007,-0.0010393347
9.8148994446,-0.0029356959,-0.0079230536,-0.0045668925,-0.0333180167,0.0252923593,-0.0105902292
9.8250255585,-0.0079775639,-0.0024041408,-0.0079532117,-0.0484002158,0.0400561951,-0.0042069647
9.8350877762,-0.01312216,-0.0017099254,-0.0006478872,-0.0398754366,0.041170992,-0.0073939697
9.8451461792,-0.0044789794,0.0029329783,0.0029053246,-0.0301316231,0.0274969917,-0.002094812
9.8551445007,0.0012084063,0.013506664,-0.0012408937,-0.0097730877,0.0203578547,0.0148852374
9.865278244,0.0019954857,0.0038614399,-0.0051510776,0.019121971,0.0121295536,0.0159344561
9.8753156662,-0.0030448618,-0.0085677374,-0.0040265168,0.0287421066,0.0100221941,0.0053129708
9.8854122162,-0.0080306418,-0.0054640644,0.001931027,0.0213082917,0.0067653479,0.0042530987
9.8953952789,-0.006142843,-0.0004581086,9.41906e-05,0.0202752519,0.0036007138,0.008498976
9.905374527,-0.0023012343,0.0006892808,0.0012313877,0.0234984756,0.0015135943,0.0095589142
9.9153938293,0.0035202322,0.0018812545,0.0004870449,0.0310669132,-0.0079355668,0.014861268
9.9269142151,0.0044578728,-0.0007567279,-0.001182958,0.037482921,-0.0089344531,0.0159216728
9.9357833862,-0.0014449541,-0.0072898739,0.0010346923,0.0364008769,-0.0079381643,0.0074280528
9.94581604,-0.0043885591,-0.0051040524,0.0041893874,0.0321102589,-0.0058389269,0.0095531223
9.9558105469,-0.0044316235,0.0009735354,0.0024802838,0.0342120267,-0.0026441994,0.008492385
9.9659137726,-0.0044959071,0.0041285283,0.0046392237,0.0288448781,0.0005205016,0.0127419252
9.9759464264,0.0002730604,0.0091914665,0.0057551418,0.0139210559,-0.0006017545,0.0233631451
9.9860725403,0.0011063929,0.0035103685,1.267e-06,0.0106719723,0.0046804259,0.024430206
9.9962844849,-0.0029944959,-0.007058131,-0.0048312987,0.0073715169,0.0141599476,0.0180649851
10.0063266754,-0.0012632493,-0.0099036563,-0.0029374207,-0.0064740703,0.0108646192,0.0191267189
10.0165863037,0.004429203,-0.010864364,-0.0039848532,-0.0086003393,0.0097503522,0.0138177089
10.0265979767,0.0042953012,-0.0098737348,-0.0050332989,-0.0022011874,0.0097791143,0.009568369
10.0363445282,0.0032109139,-0.0069321268,-0.003136083,-3.0147e-06,0.0034317363,0.0095646409
10.0463647842,0.0001770373,-0.0029780739,-0.0002426948,0.004227709,0.0077184271,0.0106290393
10.0565013885,-0.0029022577,0.0048499829,0.0055488502,-0.0011281744,0.009807677,0.012755041
10.066617012,-0.003101218,0.0068675405,0.0152110606,-0.0096146567,0.0055574048,0.0233739968
10.0765943527,0.0006248172,0.0040090806,0.0141832381,-0.0063903676,0.0034841339,0.0265575387
10.0867090225,0.000401866,0.0040540225,0.0179861337,-0.0224135704,0.0044144429,0.0276216716
10.0967273712,0.0012003895,-0.0027888292,0.0168742687,-0.0202377662,0.000175223,0.0254954025
10.106795311,0.0030120132,-0.0134813059,0.0070880805,-0.0074568577,0.0023533558,0.0169991869
10.1168880463,0.0019088503,-0.0115190018,0.0079932958,-0.0095815267,0.0012598617,0.0148755824
10.1269407272,0.0037517068,-0.0037031048,0.0108558685,-0.0073444974,-0.0082231881,0.0223040059
10.1369934082,0.0046280739,-0.0055597895,0.007981196,0.0076267286,-0.0112826275,0.021236876
10.1470823288,-0.0002953891,-0.0064470046,0.008036986,-0.0019025942,-0.0187651776,0.0254820883
10.1571674347,-0.0003655438,-0.0093101729,-0.001664802,-0.0061583258,-0.0198357683,0.0297298301
10.1671104431,-0.0082486458,-0.0257738698,-0.0045416201,0.0065014358,-0.006020755,0.0159299951
10.1773719788,-0.0073528173,-0.0266746748,-0.0006274428,-0.000962073,-0.0072023994,0.0074369079
10.1873760223,-0.0014977042,-0.0178882945,0.0081673414,-0.0050882418,-0.0210198779,0.0095556527
10.1973972321,0.0034735915,-0.0129973758,0.0082560927,-0.0028884709,-0.0273464825,0.012737331
10.2075405121,-0.0003200654,-0.0129881371,0.0073481356,-0.0018588929,-0.0242019556,0.0053053806
10.2175397873,-0.002146292,-0.0129775275,0.0093906671,0.0003259648,-0.0295229517,-6.8271e-06
10.2276449203,-0.0039490345,-0.0052065128,0.0065387641,-0.0019266438,-0.0178559087,0.0021223701
10.2376737595,-0.003844935,-0.0003517143,0.006594256,0.0012406539,-0.0146726323,-0.0021240402
10.2477684021,0.0011749383,-0.0071323388,0.0086779147,0.0034319833,-0.0199817102,-0.0053107124
10.2577610016,0.0042968807,-0.0081300605,0.0058561121,-0.0040299287,-0.0211425815,-0.0106183924
10.267947197,0.0005904253,-0.0091771949,0.0068808352,-0.0050837947,-0.0233137254,-0.0169917364
10.2779350281,-0.002077389,-0.0131572951,0.0108541995,-0.0061221598,-0.0265476014,-0.0233638808
10.2880353928,-0.0046859267,-0.0103916992,0.0069964682,-0.0061229058,-0.0265473351,-0.0233641472
10.2980680466,-0.0033717635,-0.010523485,0.0012353215,-0.0007782085,-0.0275825057,-0.026551418
