0.0000000000,0.0002043571,0.0132878488,0.0004933871,0.0232698619,-0.0013493029,-0.0185737256
0.0080890656,0.0013722505,0.0105267828,0.0036569035,0.0286278743,-0.0034545318,-0.0196262058
0.0180569887,-0.0003636752,0.006755657,0.003901521,0.0264771059,-0.0002920281,-0.0228323862
0.028283,-0.0001392637,0.0029510327,-0.0007556283,0.0179006625,0.0007782963,-0.0175324287
0.0381760597,7.83529e-05,-0.0047735502,-0.0016011202,0.0018346095,0.0070737428,-0.0164985899
0.0513100624,0.0031329121,-0.0037431649,-0.005479773,-0.0056845592,0.0123686399,-0.0154652828
0.0626770258,0.0032413329,-0.0056830575,-0.0055424175,-0.0184934326,0.0112229483,-0.0133260982
0.0680999756,-0.0005846892,-0.0047172834,-0.003744086,-0.0153282648,0.0165732373,-0.0154877864
0.0780720711,-0.0014664207,-0.0046781828,-0.0008601748,-0.0088992612,0.0134221874,-0.0144077409
0.0877720118,-0.0014221345,0.001240141,0.0030002987,0.000768546,0.0081075821,-0.019691987
0.0978230238,0.0015951719,0.0042963098,0.007985631,0.0146613261,0.0050345603,-0.0164939277
0.1077660322,0.0046504461,0.0034902759,0.0130986962,0.0264500752,-0.0002273133,-0.0175304301
0.1178699732,0.0038505222,0.0036172338,0.0113944206,0.0275487602,-0.0034372215,-0.0185713284
0.1277580261,0.0001467194,0.0027016469,0.0056937733,0.0189797748,-0.0002880334,-0.0175233744
0.137814045,-0.0034887467,-0.0050634076,-0.0019337737,0.0221912805,-0.0002882995,-0.0207138415
0.1476789713,-0.0014258001,-0.0019702844,0.0012213981,0.0231779814,0.008296933,-0.0175830275
0.1577609777,0.0014328982,0.0026094385,0.0049291053,0.0188552719,0.0136323087,-0.0144262509
0.1678010225,0.0013518061,-0.0039399792,6.52469e-05,0.0103371516,0.0114197554,-0.015468345
0.1777330637,-0.0004816328,-0.0059853722,-0.0012570226,0.0006745374,0.0198561177,-0.0208312869
0.1877779961,-0.0023469005,-0.0050509502,-0.0034323537,0.0028095935,0.0177804492,-0.0155073609
0.197726965,-0.0018393074,-0.0006537965,-0.003500601,-0.0057146521,0.0166312959,-0.0165537167
0.2078830004,-0.0026052867,-0.0034599833,0.0023808277,-0.0207058527,0.023960581,-0.0208403412
0.2180249691,-0.0025666032,-0.0154761607,-0.0022719705,-0.0281419307,0.0196268186,-0.0208065193
0.2278139591,0.0026650156,-0.01125794,-0.0008831226,-0.0356752127,0.0270501133,-0.0208493955
0.237809062,0.0027420248,-0.0082093412,0.0041257539,-0.0356832035,0.0270703547,-0.0187257919
0.2477680445,0.0341477729,-0.0027874045,0.0116634164,-0.0355580337,0.0089653861,-0.0111717349
0.2576990128,0.218282491,0.0183758214,0.0318959765,-0.03469304,0.0366934203,-0.0187870432
0.2683329582,0.1444740593,0.0238279179,0.0246981177,-0.0269869193,0.0037202905,-0.0068923011
0.2779830694,-0.0025252972,0.0031079717,0.002292434,-0.0153980386,0.0188491754,0.0014989201
0.2876960039,-0.0101368101,0.0001480647,0.0002240933,0.0015007826,0.0424570367,-0.0029155356
0.2977089882,0.0009197022,0.0005676218,0.0009424484,0.0067386879,0.0553059839,-0.0051278239
0.3077380657,-0.0020261679,-0.0012658171,0.0004951156,0.017405713,0.0554066524,-0.0030111433
0.3177280426,-0.0030603681,-0.0041193892,0.0018266833,0.0387774482,0.0523727797,-0.0019430825
0.3276380301,0.0030998911,-0.0007657937,0.0001067317,0.0473448373,0.0481820293,0.0002028926
0.3377079964,-0.0072761155,-0.0088775093,-0.0058365068,0.0559051707,0.045056548,0.0023436749
0.3476569653,-0.0143973799,-0.0093185836,-0.0020981634,0.0485002473,0.0364579968,0.0034669961
0.3576719761,-0.0155775817,-0.0079109007,0.0021768606,0.0378135145,0.0364073962,0.0066595934
0.3676570654,-0.0105815502,-0.0112628872,0.002595762,0.0271851066,0.0320227668,0.0035082751
0.3776830435,-0.0109377177,-0.0119187171,0.0057393112,0.0048652873,0.0211426895,0.0014702911
0.3877030611,-0.0091687711,-0.0194228813,0.0029576218,-0.0057753725,0.0178358424,-0.0006256169
0.3978930712,-0.0093612345,-0.0162640736,-0.0049097142,-0.0153675461,0.0166794974,-0.0016717063
0.4079660177,-0.0089860829,-0.0132002169,-0.0069334111,-0.0249916762,0.0187426489,-0.0016783642
0.417994976,-0.0115008028,-0.0130406553,-0.0087859835,-0.0282026529,0.0197844785,-0.0027486887
0.4278130531,-0.0102168294,-0.0060679247,-0.0088218655,-0.0228726007,0.019843867,-0.0006280136
0.437672019,-0.0088818343,-0.0049478938,-0.0059669218,-0.0132853538,0.0220612139,0.0004150134
0.4476380348,-0.0076632178,-0.0009070567,-0.0049636564,-0.0047882721,0.0264202766,0.0025055949
0.4576810598,-0.0073661185,-0.0017711453,-0.0068592629,0.006946282,0.0275758207,0.0024918795
0.4675990343,-0.0090304883,-0.0025499396,-0.0065174899,0.0228959545,0.0330885649,0.0077569494
0.4774340391,-0.0098166736,-0.002262824,-0.0068278513,0.0421218462,0.0311114341,0.0088174203
0.4877860546,-0.0116322311,-0.0038950972,-0.0020684206,0.0591596849,0.0365781039,0.0077076806
0.4977420568,-0.0114480527,-0.0025300912,0.000872115,0.0655707121,0.0366100632,0.0055779507
0.5078160763,-0.0093814405,-0.0021969608,-0.0020997727,0.0677108318,0.0355669037,0.0066456124
0.5177350044,-0.0092070671,-0.0087513262,-0.0070932708,0.0687818229,0.0366127267,0.0034528812
0.5277850628,-0.0082400711,-0.0065632393,-0.0054023466,0.053822577,0.0375839807,0.0055818125
0.5376850367,-0.0043240166,-0.0063103368,-0.002783438,0.0431911051,0.0332054794,0.0024274311
0.5480929613,-0.0061475611,-0.0100204879,0.0015968478,0.0282984413,0.0277281553,0.0003485677
0.558199048,-0.004048524,-0.011800223,8.8013e-06,0.0155541506,0.0190952513,0.0025392841
0.5677210093,-0.0028672491,-0.0107092196,-0.0008614265,0.0017203605,0.0126027316,0.0057782205
0.5777360201,-0.0056163347,-0.0087315375,-3.20279e-05,-0.017437622,0.0060369745,0.0058365432
0.5877820253,-0.0055313981,-0.0038480095,0.0026895797,-0.028044723,-0.0025863415,0.0069622616
0.5979650021,-0.0073497272,8.33937e-05,0.0035103953,-0.0376639292,-0.0015820633,0.0080244634
0.6076849699,-0.0071853078,-0.0009276203,0.0003553427,-0.0408133864,-0.0080191903,0.0080684051
0.6177179813,-0.0061704195,-0.001002603,8.81947e-05,-0.0440441966,-0.005875878,0.0123090902
0.6276730299,-0.0090549262,0.005746908,-0.0022137368,-0.0344834514,0.0005926741,0.0101356842
0.6377520561,-0.0099371048,0.0047332118,-0.0023955905,-0.0291265026,-0.0004656662,0.0058866111
0.6476789713,-0.0088205012,-0.0011154942,-0.004367312,-0.0163196251,0.0006840206,0.0037454297
0.658246994,-0.0067118085,-0.0029756955,-0.0023802125,-0.0034773303,-0.0013969736,-0.0015633157
0.6676980257,-0.0065373755,-0.006798618,-0.0013717019,0.0040032226,-0.0024079096,-0.0015619842
0.677670002,-0.004416374,-0.0037944845,-0.0042755804,0.0093701575,-0.0055821314,-0.002607408
0.6876569986,-0.0033583913,0.0031543442,-0.0002887451,0.0125795333,-0.0076676528,0.0005910485
0.6977009773,-0.0061664558,0.0022680827,0.0046923556,0.0104771005,-0.0109065892,-0.001512183
0.7076569796,-0.0050267852,-0.0015748672,0.001845876,0.0040133423,-0.0066178348,0.0059012584
0.7176350355,-0.0068452037,-0.002563887,-0.0030765736,-0.0077101579,-0.0077997455,0.0037944317
0.7276819944,-0.0038281356,0.0004390546,-0.0020971501,-0.0098923529,-0.0024635696,0.0048237434
0.7376500368,-0.0066285408,-0.001524084,-0.0051004491,-0.0163036473,-0.0004033484,0.00162795
0.7476739883,-0.0054916418,-0.003459566,-0.008072814,-0.0131051904,0.0017226534,-0.002637635
0.7576730251,-0.0053954995,-0.0014562539,-0.0071404777,-0.0194825288,-0.0004896346,-0.0058069294
0.7676240206,-0.0014791165,0.0015229054,-0.0004138552,-0.0120475162,0.0028015,-0.00264629
0.7776479721,0.0005393948,0.0054439972,0.002357105,-0.014126379,-0.0036358931,-0.0036657481
0.7876499891,-0.0012478505,0.0044512819,-0.0016883814,-0.0109031554,-0.0057576336,-0.0047166315
0.7976210117,-0.0049269176,0.0005722114,-0.0045957169,-0.0023831706,-0.0025040496,-0.0068681994
0.8075640202,-0.0077402568,0.0006390878,-0.0006743871,-0.0002433211,-0.0014550305,-0.011126061
0.8175810575,-0.0046329177,0.0017243095,-0.0025404894,-0.0044914633,-0.0046801185,-0.0089754257
0.8286479712,-0.0015682254,0.0038146444,-0.0014199816,0.0040197335,-0.0024494547,-0.0058086608
0.8378850222,-0.0013987694,-0.0009444288,0.0026650822,0.0062225671,-0.0099313399,-0.0078868587
0.847679019,-0.0022859846,0.0020372339,0.0046164193,-0.0033698725,-0.0121340407,-0.0068034846
0.8575890064,-0.0031732891,0.0039615105,0.0005925096,-0.0055191778,-0.0100213541,-0.0078784693
0.8675680161,-0.0050132549,0.0020149418,0.0005385674,-0.0087442659,-0.0068489965,-0.0089591797
0.8775960207,-0.0038914059,0.0001115867,-0.0014054978,-0.0077186804,-0.0015013694,-0.0089924699
0.8875969648,-0.0027380262,0.0021004148,-0.0073065958,-0.0067162681,0.0059970273,-0.0079794032
0.8974939585,-0.0026251052,0.0021454163,-0.0073064766,-0.0109653417,0.004863319,-0.0122207534
0.9076299667,-0.0025497053,0.0002691814,0.0004863537,-0.0045593735,0.0059544165,-0.0154194757
0.9175280333,-0.0013672088,-0.0045486619,0.0005202091,-0.000261032,0.0038212244,-0.0185950287
0.9275280237,-0.0003038917,0.0033516355,0.0043529668,-0.0013318891,0.003822023,-0.017531896
0.937556982,0.001822504,0.0024809905,0.0082748923,-0.0023670588,0.0005916087,-0.0196360592
0.9475389719,0.002017888,0.003562338,0.0121786986,0.0008931831,-0.006855655,-0.0185276512
0.9575330019,-0.0006405388,0.0006771752,0.006323854,-0.0034039607,-0.0036779712,-0.0174806304
0.9675190449,-0.0024083529,0.0007336804,0.0024806058,-0.0002297396,-0.0014885864,-0.0143098701
0.9775310755,-0.0022577916,-0.0001791052,0.0006059802,-0.0034443084,0.0006094519,-0.0164477229
0.9875360727,-0.003063408,-0.0020668439,0.0034934676,-0.0140953548,-0.0026702308,-0.0153566264
0.997516036,-0.0038313542,-0.0059724976,0.0013854302,-0.0226321165,-0.0037879595,-0.0132181076
1.0075310469,-0.0046738065,-0.0069875647,0.0011440313,-0.0247442704,-0.0049094167,-0.017458925
1.0173890591,-0.0035793458,-0.0040758182,0.0008719958,-0.0173127186,-0.0016092275,-0.0132359508
1.0275480747,-0.0034673486,-0.004132383,-0.0003761255,-0.0151129477,-0.0090828566,-0.0142514147
1.0374979973,-0.0043296493,0.0007450053,0.0013271368,-0.0172641166,-0.0080112005,-0.0121327359
1.0475590229,-0.0041843331,-0.0002300075,0.0011675155,-0.0108400388,-0.013241915,-0.0046665641
1.0574690104,-0.0051203049,0.004674382,0.0039578476,-0.0087064486,-0.0132208765,-0.0036035636
1.06754601,-0.005999831,0.0056558321,0.0057690539,-0.0108183343,-0.016434513,-0.0025188581
1.0776640177,-0.0048361695,-0.0001879863,0.0046931901,-0.0140454201,-0.013258161,-0.003601566
1.0875899792,-0.0065636612,-0.0040739705,0.0036157763,-0.0086700963,-0.0154086631,-0.0099657215
1.0974440575,-0.0024362479,-0.0059702923,0.0006056226,-0.0108002257,-0.015436626,-0.0110252611
1.1076129675,-0.0022087966,-0.0078986818,-0.0024326646,-0.0129491296,-0.0133247394,-0.0120998463
1.1173410416,-0.003979472,-0.0078772241,-0.0035406554,-0.0087217605,-0.0069067879,-0.0153314592
1.1273649931,-0.0009567116,0.0019820996,0.0021851456,-0.0119010424,-0.0101286797,-0.0142459543
1.1376149654,-0.0027724777,0.0049094032,0.0029580987,-0.0140691223,-0.0069209021,-0.0121404594
1.1476860046,-0.0025536094,1.94975e-05,0.0027455485,-0.0172167122,-0.0144086462,-0.0099649234
1.1573899984,0.0005179967,0.0020027228,0.0035153425,-0.0171864852,-0.0186715666,-0.0088763554
1.1672899723,-0.0011976038,0.0010298558,0.003275851,-0.0192704089,-0.0240498204,-0.0109648071
1.1772899628,-1.89219e-05,-0.0028552345,0.0050387778,-0.0235517081,-0.0230061281,-0.009905668
1.1872680187,-0.0007728611,-0.0038559369,0.0027918017,-0.0416851714,-0.024224259,-0.0109474966
1.1972609758,-0.0035029922,-0.0058551957,0.0043945112,-0.0385084189,-0.022039935,-0.0077742068
1.2074990273,-0.0053468919,-0.0040142466,5.69618e-05,-0.0449548662,-0.0177964531,-0.0056724399
1.2174379826,-0.0052983738,-0.0012203387,0.0005031622,-0.0599945337,-0.0092956433,0.0017180981
1.22744596,-0.0062394417,-0.0043089916,-0.0009432637,-0.0493767783,-0.0027916711,0.0027308983
1.2374089956,-0.0053225732,0.0023977228,-0.0023457611,-0.0386989675,-0.0037637248,0.0048564998
1.2474600077,-0.0033754979,-0.0015628866,0.0003213084,-0.0269981027,0.0016616671,0.0037507557
1.2573760748,-0.0014886532,0.0003710457,0.0041099587,-0.0034773313,-0.0034864896,0.0048277378
1.2675989866,-0.0044475175,0.0042535136,0.0021996892,0.0178529918,-0.0011839205,0.0047979113
1.2775490284,-0.0053564585,0.0014225312,0.0034445918,0.0360038988,-1.13307e-05,0.000528198
1.2874029875,-0.0033706103,0.0016259023,0.0087804589,0.047752168,6.13735e-05,-0.0016052605
1.2973899841,-0.0042098439,-0.0031263165,0.0053059258,0.0402800031,0.0010512704,-0.0037297972
1.3073890209,-0.0020830308,-0.010775798,-0.0001135074,0.0380994081,0.0074290084,-0.0058944146
1.3174020052,-0.0020235155,-0.0077124764,0.000200609,0.0274255909,0.007346184,-0.0058862921
1.327376008,-0.001934794,-0.0115171606,0.0043017068,0.008228194,0.0061107436,-0.0079896562
1.3373780251,5.79383e-05,-0.0143875415,0.0092024002,-0.009904338,0.002799103,-0.0037052962
1.3473989964,-0.0018668447,-0.0085875923,0.007035593,-0.0226725973,-0.0026345444,-0.0025987527
1.3573989868,0.0020368423,-0.00374692,0.0067485967,-0.0333820991,-0.0015799329,0.0048361272
1.367364049,-0.0028311883,-0.00488966,0.0044013062,-0.0355131589,-0.0036976784,0.0091009131
1.37756598,-0.0048298812,-0.0021220378,0.0020366705,-0.0419131368,-0.0048028901,0.0112398313
1.3876190186,-0.0039187348,0.0006994673,0.0026484525,-0.0419062115,-0.0048209997,0.0091151614
1.3992279768,-0.0029749845,0.0006301471,0.0072296062,-0.0333494768,-0.0058476483,0.0059270915
1.4076700211,-0.0019460295,-0.003340476,0.0070252218,-0.0194962453,-0.0025431979,0.0048335977
1.4173470736,-0.0009025012,-0.0043444564,0.0039602318,-0.0098890243,-0.0003785808,-0.0004981845
1.4276720285,-0.0008819674,-0.0004309944,0.0039019382,0.000779599,0.0007636491,-0.0015754331
1.437361002,8.61909e-05,0.0015430518,0.0029836691,0.0092963874,0.0029788662,-0.0005346697
1.4474409819,0.0001252617,-0.0003577403,0.0031358993,0.0167559013,0.0041144378,0.0005151485
1.4571549892,0.0011280503,0.0006882616,0.0023475683,0.0210081711,0.0062843822,0.0004983705
1.4671560526,0.0001198973,0.004662938,0.0035140908,0.0231307112,0.007378675,0.0015521834
1.4771499634,-0.0008704935,0.0047088335,0.0046357908,0.0124331927,0.0094498154,0.0036719264
1.4871220589,-0.0007909213,-0.0030943684,0.0027875698,0.0017872062,0.0072026392,0.0005067594
1.4971389771,0.0031188752,-0.0049819876,0.0077058473,-0.008864373,0.004970911,-0.0005324061
1.5071270466,0.0021960463,-0.0089238817,0.0076262155,-0.0120263435,0.001703745,-0.0047585764
1.5171899796,0.0022045996,-0.0040973355,0.0044840374,-0.0259184558,0.0026837881,-0.0026307106
1.5274159908,0.0022459354,-0.006117933,0.0023159778,-0.0291310269,0.0026861848,0.0005586911
1.5371040106,-0.004585979,-0.0043354561,-0.0029110515,-0.0344857164,0.0037357367,0.0026784341
1.5472810268,-0.0085344585,-0.000569456,-0.0051778159,-0.0259500183,0.0038108376,0.0037343774
1.5572800636,-0.0085978182,0.0042250822,-0.0073532066,-0.0163582414,0.0060148705,0.0026503375
1.5672980547,-0.0057318485,0.0090994304,-0.0064785681,-0.0120745469,0.0039194953,0.0037233254
1.577483058,-0.0047675646,0.0061551998,-0.0055468879,-0.0023920927,-0.0045693312,0.002711324
1.5878480673,-0.0009093259,0.0071982811,0.0032886064,0.0051060375,-0.0077177202,0.0027265041
1.5989090204,8.09159e-05,0.0052748988,0.0033525622,0.0104689784,-0.0119265793,0.0059384098
1.6074880362,-0.0018600796,0.0062415074,0.0004624522,0.0093840063,-0.0097973822,0.0059253601
1.6172389984,-0.0047689951,0.0052682827,-0.0023809278,0.0115101412,-0.0087124109,0.0059169717
1.6270849705,-0.0047673858,0.0062798928,-0.0022704208,0.0082570892,-0.0033754359,0.008009417
1.6371320486,-0.0038105224,0.0062963436,-0.0031682455,0.0018459288,-0.0023623696,0.0069434866
1.6470490694,-0.001839367,0.0014371343,-0.0030791366,0.0007572286,0.001868062,0.0026672487
1.6572049856,-0.0008833383,0.0053871344,-0.0001057588,0.0050523747,0.0007881501,-0.0026412301
1.667378068,-0.0008651291,0.0073602269,-0.0020337307,0.0060968664,0.0039935308,-0.0037251366
1.6777280569,-0.000836638,0.0093649691,0.0009848869,0.0146610597,0.0029477074,-0.0090373438
1.6874899864,0.0002273943,0.0094756549,0.0040381351,0.0125752715,-0.0013799294,-0.013257389
1.6972110271,0.0023312296,0.0076386998,0.0070769587,0.0072557405,-0.003558395,-0.0132396789
1.7075020075,0.0025110568,0.0028492876,0.0100737009,0.0040903073,-0.0068165064,-0.0164035149
1.7173290253,0.0017454352,0.0009513565,0.0081119929,-0.003362149,-0.0090152118,-0.0163823422
1.7274529934,0.0019555415,2.61136e-05,0.0041851797,-0.0044612354,-0.0047576167,-0.0174715742
1.7370960712,-0.0027418409,-0.0009556345,0.0040626326,-0.0130159743,-0.0026902047,-0.0174770355
1.7471910715,-0.0006311808,-0.0028905205,-0.0009120309,-0.0152261313,0.0048105884,-0.0132745672
1.7570179701,-0.0025034521,0.0010068484,-9.05597e-05,-0.0130640445,0.0016169257,-0.0143202571
1.7670329809,-0.0004496549,0.0010508366,0.0037032163,-0.0098392228,0.0005367477,-0.0185650699
1.7767809629,0.000683638,-0.0008897117,0.0026174581,-0.0109183369,0.0016052078,-0.017508328
1.7869600058,-0.0011441384,-0.0008728436,0.0054172077,-0.0098139225,-0.0037120595,-0.0153498352
1.7970000505,-0.0010135446,-0.0008765391,0.0023584759,-0.0066342428,-0.0025826129,-0.0111096827
1.8073190451,-0.0008917723,-0.0028028421,0.0032480157,-0.0108739939,-0.0058308705,-0.0121480497
1.8169400692,-0.0026814614,-0.0076947142,0.0031090176,-0.0183414984,-0.0069462024,-0.0110742627
1.8269870281,-0.0025881205,-0.0077111651,0.0039101043,-0.0226528887,-0.0047783889,-0.0036485707
1.8385289907,-0.0006334756,-0.0018784336,0.0027211702,-0.0226498283,-0.0058314027,-0.0015157781
1.8472850323,0.0013439681,-0.00193929,0.0015318191,-0.0248179063,-0.0026236256,0.0005897169
1.8600280285,-0.0005418931,-0.0069076945,0.000300268,-0.0354673564,-0.004861746,-0.001513115
1.867249012,0.0014407362,-0.0069745709,0.0009385145,-0.0408306941,-0.0016968455,-0.0015298929
1.8769719601,0.0004939165,-0.0070747067,0.0015812314,-0.0354974493,-0.0006012211,-0.0036673462
1.8872770071,0.00251511,-0.0041887094,0.0012802875,-0.0290387496,-0.0059224833,-0.0068245232
1.8969140053,0.0035779204,-0.0042017032,0.0058829584,-0.034373194,-0.0059688222,-0.0068179984
1.9071429968,0.0026708569,-0.0033098988,0.0035967028,-0.0322538503,-0.0069576539,0.0006236723
1.9172260761,-0.001229075,-0.0014563731,0.0052016773,-0.0311790016,-0.0080154613,0.0006284658
1.928153038,-0.0012617682,0.0004062125,0.0058917203,-0.0291177128,-0.0015322621,0.0069593322
1.9377959967,-0.0032457386,0.0022280284,0.0007767475,-0.0259223208,-0.0014896516,0.009081739
1.947198987,-0.0042520738,-0.0007866553,-0.0013234222,-0.0131276948,0.0007378163,0.0079959678
1.9569170475,-0.0043237186,-0.0017846159,0.0006053246,-0.0056780344,0.003991134,0.0069080666
1.9671549797,-0.0034494672,0.0011073418,-0.0032586658,0.0017077103,0.0136855729,0.0089648264
1.9773820639,-0.0044434941,-0.0047661592,-0.0050881705,0.0134984571,0.0105092209,0.0015392671
1.9871170521,-0.0015636955,-0.0036956004,8.086e-06,0.0156329796,0.0126179112,-0.0037878542
1.9969470501,-0.0005649005,-0.0036052398,0.002155999,0.0253110416,0.0041400045,-0.0037384527
2.0068888664,0.0014117982,-0.0025113157,0.0033789075,0.0263978764,0.0009601903,-0.001593809
2.0170631409,0.0014007415,-0.0004581741,0.0065427818,0.0264078639,-0.0011578217,0.0005440437
2.0269210339,-0.0014912162,0.0005709001,0.0067316093,0.0242799968,-0.0011924428,-0.0015790283
2.0375781059,-0.0043601668,-0.0033130578,0.0049301186,0.0136081791,-0.0044177976,0.0058860788
2.0471591949,-0.0033583019,-0.0052578975,0.0001456536,0.0050812699,-0.0055616247,0.0048370594
2.0573379993,-0.0033772562,-0.0023056201,0.0030689037,-0.0055812281,-0.0056734774,0.001659109
2.0671701431,-0.0023933325,-0.0023344092,0.001027683,-0.0141238496,-0.0057304692,0.0027278357
2.0768840313,-0.0014030014,-0.0024112395,-0.0040325127,-0.0205344781,-0.0057632262,0.0048579648
2.086935997,-0.0014680896,0.0004649826,-0.0003392302,-0.0162595734,-0.0067898752,0.0059240293
2.096848011,-0.003431556,0.0023394891,-0.0015385352,-0.0162244178,-0.0100200232,0.0027561984
2.1070399284,0.0014590945,0.0013582774,0.0002809561,-0.0140861655,-0.0100125661,0.0016922657
2.1170868874,-0.0004593406,0.0013086267,0.0020410812,-0.0129920058,-0.0132112894,0.0017126387
2.1270799637,0.0025043215,0.004257686,0.0038721955,-0.0097916853,-0.0121359043,-0.0004213522
2.1368570328,0.0006348218,0.0032571622,0.0037530458,-0.0087165674,-0.0131921144,0.0006495048
2.1469039917,-0.001221088,0.0022372671,-0.0031581724,-0.0023614671,-0.0067392746,-0.000459169
2.1567978859,-0.0011875306,0.0022494264,-0.0031632388,-0.0023914268,-0.0024790158,-0.0026132669
2.1672611237,-0.0001748775,0.0003350445,-0.0002395117,-0.0066926973,0.0017538124,-0.0037001031
2.1770560741,0.0008163776,0.002310104,0.0007481373,0.0029215794,0.0018084073,-0.0058311643
2.1869959831,0.0008288648,0.00334794,0.0046973624,0.0029127914,0.0028771334,-0.0058380887
2.1972219944,0.0018648233,0.0024052926,0.0047494569,0.003975525,0.0039437301,-0.0069074812
2.207103014,0.0009517397,0.0004718372,0.001889745,0.0103870854,0.0018829757,-0.0037114215
2.2175159454,-4.12737e-05,0.0034377642,0.0058597722,0.0093491189,-0.0023866042,-0.0026228542
2.2290210724,0.0029335346,-0.0013639859,0.0107938442,-0.0077273371,-0.003569314,-0.000478477
2.2370450497,-0.0009187732,-0.0033879809,0.0077563324,-0.0119769424,-0.0067893425,0.0027364909
2.246805191,-0.0009208594,-0.0005305937,0.0037016666,-0.0173211079,-0.0047203321,-0.0004603674
2.2570881844,5.82065e-05,-0.0005468658,0.0054783621,-0.0194469765,-0.0058079669,-0.0015175093
2.266767025,0.0010778334,-0.0025511316,0.0043134489,-0.0172788966,-0.0090157446,-0.0036230045
2.2769269943,0.0040995204,-0.004534476,-0.0016758643,-0.0098300353,-0.005760829,-0.0047117048
2.2866101265,0.0002312984,0.0012778707,-0.0018526518,-0.008734677,-0.0079171909,-0.00788566
2.3006839752,-0.002627996,0.0041933726,-0.0010173523,-0.0087723611,-0.0025903359,-0.0100456169
2.3069691658,-0.006407199,0.0022200414,-0.0030962431,-0.0023821061,-0.0004124029,-0.0111265937
2.3232831955,-0.0033239399,0.0003098914,-0.0060190759,-0.0002224157,-0.0025501223,-0.0121728173
2.327876091,0.0016254808,0.0014176436,0.0018480218,0.0007799985,0.0049482742,-0.0111597506
2.3370518684,0.0016890492,0.0034598776,0.0077525177,0.0093633663,-0.0003319753,-0.0121970512
2.3470458984,0.0008022513,0.0044659446,0.0048835077,0.00825922,0.0028931128,-0.0090300208
2.3568100929,-0.0010546718,0.0035156675,0.0001036323,0.0114181284,0.007215423,-0.0058708452
2.3667349815,-0.0030011211,0.0074580382,-0.001706978,0.0188741796,0.0083600506,-0.0037586924
2.3767440319,-0.0039428747,0.0065330933,-0.0034679973,0.0156813171,0.0072633601,-0.004814636
2.3867311478,3.847e-06,0.005685098,-0.0012535059,0.0199245326,0.0105025619,-0.0048386045
2.3967840672,0.0009893205,0.0048417519,0.0039262571,0.025264835,0.0105371829,-0.0048392704
2.4068310261,0.0020062055,0.0029656359,0.0012988246,0.0327840038,0.0052422867,-0.0058725765
2.4170088768,0.0001321758,0.0001312562,0.0006169475,0.0317150131,0.0062819854,-0.0090689026
2.4270269871,-0.00082126,0.0031867691,0.0047597089,0.0328053087,0.003093116,-0.007986594
2.4367830753,0.0002527263,0.0023084946,0.0011480249,0.0295811519,0.006263609,-0.0090663722
2.4475250244,-0.001614121,0.0023944445,0.0003894962,0.0210648961,0.003000438,-0.0079768728
2.456897974,0.0014019038,-0.0013859801,0.0054626265,0.0082566896,0.0039471919,-0.0100964829
2.4669089317,0.0014879729,-0.0042688777,0.0055351057,0.0018611085,0.0028289305,-0.010084765
2.4769849777,0.0025505747,-0.00325393,0.0045687952,0.0018814811,0.000683754,-0.0111339167
2.4866929054,0.000692847,-0.0051675965,0.007499496,-0.0012943381,-0.0025471929,-0.0111107472
2.4966900349,-0.0001525555,-0.0041758348,0.0044986405,-0.0076651527,-0.0058215493,-0.0132095851
2.506975174,-6.01683e-05,-0.0012349419,0.0043564239,-0.0140554076,-0.0079994826,-0.0121286083
2.5170168877,-0.0008768116,-0.0022142462,0.0042046704,-0.0108489599,-0.0090322569,-0.0110628121
2.5271019936,-0.0026968394,-0.0022303395,0.002061466,-0.0204693619,-0.0090703396,-0.0068062809
2.5369520187,-0.0016458605,-0.0022708706,0.0028024113,-0.0258091353,-0.0091038952,-0.0057392856
2.5469260216,-0.0016090546,0.0006406375,0.0083783064,-0.0257686563,-0.0144384736,-0.0046423292
2.5587940216,-0.0034999524,-0.0023536019,0.010059515,-0.0226161387,-0.0101012494,-0.0004237492
2.5670051575,-0.0034492884,-0.0014581613,0.0049651661,-0.015147835,-0.0100344038,0.0006329932
2.576734066,-0.0053790784,-0.0015299849,0.0018750227,-0.010941904,-0.0035607917,0.0037747247
2.586632967,-0.0043847836,-0.0005678466,-0.0020814145,-0.0024030115,-0.0014025662,-0.0015571903
2.5966629982,-0.0014604006,-0.0015109114,-0.0001013481,0.0007515019,0.0029306628,0.0026633875
2.6066770554,0.0014948572,-0.0034142069,0.000955025,0.0071502794,0.0061320486,-0.0037361886
2.6166229248,-0.0014063988,-0.0043789078,-0.000893315,0.0114078745,0.0072423206,-0.0026837075
2.6283278465,0.0015184905,-0.0033326678,0.0011882579,0.0124947112,0.0040625068,-0.0005390637
2.6374640465,0.0014949169,-0.0003595284,0.0032579696,0.0178063847,0.0062609455,0.0015669637
2.6474709511,0.004443171,-0.0071049263,0.005433003,0.0156803839,0.0051757079,0.0015754858
2.6573450565,0.0044388496,-0.0080485279,0.0055458941,0.0082014296,0.0051365593,0.003705482
2.6672010422,0.003442737,-0.0080619985,0.003694514,0.0092584379,0.0051719793,0.0068916879
2.6765890121,0.0013878073,-0.0031760267,0.0047303238,0.0092615001,0.0041189655,0.0090244804
2.686770916,0.0002685215,-0.0022156171,0.0077420869,0.0071496135,0.0009053291,0.0101091862
2.6966810226,-0.0017391716,-0.0051903059,0.0048991838,0.0071287085,0.0020046821,0.0132875359
2.7067918777,-0.0038168405,-0.0032894544,0.0039382377,-0.0014051246,0.0008789639,0.0143631874
2.7168409824,-0.0029805277,-0.0033596687,0.0029360449,-0.0056846915,0.0008723058,0.0175537877
2.7294430733,-0.0060497201,-0.0034456782,0.0028618968,-0.0045840079,-0.0023437273,0.0154490899
2.7382469177,-0.0033004258,0.0004209348,0.0047819414,-0.0056555308,-0.0023415969,0.0165115576
2.7466001511,-0.0024755273,-0.0006491474,0.0056727924,-0.0120614972,-0.0034326939,0.01971028
2.756567955,-0.0035553847,-0.0027187399,0.0016208685,-0.0109982304,-0.0013202747,0.0165116917
2.7677669525,-0.0017524038,-0.000836902,0.0015145935,-0.0088458639,-0.003441216,0.0165239424
2.7768499851,-0.0018919085,-0.0008940033,0.0053513446,-0.0046119709,0.0008677787,0.0164925177
2.7867898941,-0.0020305787,0.0029366084,0.0033513105,-0.0014116503,0.0019431629,0.0143585252
2.7974410057,-0.0021077667,-3.12856e-05,0.0005050696,0.013534409,0.0020515535,0.0132840723
2.8081531525,-0.0021930013,-0.0009778671,0.001642803,0.0166907869,0.0084705707,0.0111154616
2.8179001808,-0.0032395099,-0.0009968809,-0.0011310184,0.0198909752,0.0085014636,0.0121768638
2.8286399841,-0.0033787463,0.0019491978,-0.0009488665,0.0198715329,0.0116895335,0.0100314217
2.8368010521,-0.0005608771,0.0010486909,0.0041902461,0.023056142,0.0128048649,0.0121449064
2.8465518951,-0.000633565,-0.0008903674,0.0015073217,0.0188390259,0.008451662,0.0068641244
2.8565621376,-0.0017185484,0.0020582147,0.0026174581,0.0167319346,0.0041794195,0.0090175569
2.8667669296,0.0011438753,-0.0008332661,0.0027972853,0.0103134494,0.0062582828,0.0079461671
2.8768379688,0.003003421,-0.0008349351,0.0038581288,0.0007416494,0.0019098734,0.0079806549
2.8870048523,0.0038871195,-0.000865393,0.0038775599,-0.0013912767,0.000842745,0.0101138474
2.8965630531,0.0028112258,0.0020561882,0.0096521769,-0.0087888725,-0.0067278231,0.0069831675
2.9067490101,0.0056778514,0.0039700936,0.0095547233,-0.0119838677,-0.0088628791,0.010186418
2.9185051918,0.002761456,0.0009248921,0.0025409854,-0.0140906936,-0.0120908972,0.0091445893
2.9283959866,-0.0001198326,-0.0021274022,-0.0035006606,-0.0172824934,-0.0121428287,0.0059599807
2.9376759529,0.0017810788,0.0007613369,-0.001770457,-0.0268966369,-0.010103913,0.0038317158
2.9467520714,0.0008177783,-0.0022730164,-0.0030138099,-0.0247775577,-0.0090005649,0.0059478637
2.9565181732,-0.0002139185,0.0005760857,-0.0013048851,-0.0215745755,-0.0089795254,0.0048804688
2.9666361809,0.0026309814,0.0054171155,0.0014213717,-0.0173049979,-0.0089465026,0.004877273
2.9767420292,0.0006721641,0.0043506096,-0.0007416808,-0.0130355489,-0.0099579711,0.0080694705
2.9864690304,0.0015788402,0.0042835544,-0.000852009,-0.005567247,-0.0098911254,0.0091262134
2.9972090721,-0.0004967724,0.0052321027,0.0049376884,0.0018732259,-0.0076599298,0.0133562442
3.0067420006,-0.0054862774,0.0081132716,0.0069079199,0.0071803732,-0.0044034161,0.014393812
3.0166070461,-0.0055816746,0.008077926,0.0030830896,0.0125276009,-0.004389035,0.0112026799
3.0266580582,-0.003638414,0.0022237964,-0.0016382539,0.0103573911,0.0019615388,0.0058510574
3.0364861488,-0.001732317,-0.0006832412,0.0004470742,0.0071390946,0.0040691644,0.0047752741
3.0464291573,0.0011620249,0.0012824603,-0.0033719146,0.0092666941,0.0061959652,0.0015728227
3.0564720631,-0.0018396948,0.0061733793,-0.0013537609,0.0082343193,0.0040068468,-0.0026582743
3.0664181709,-0.0066897548,0.0022754737,0.0016343988,0.0029114597,0.0018371691,-0.0015780962
3.0764610767,-0.0047546006,0.0023179122,0.0055777826,-0.0002884623,0.0018057439,-0.0026392327
3.086771965,-0.0037897502,0.0072212289,0.0065106549,-0.0002708854,-0.0003317092,-0.0026253844
3.0969259739,-0.002756444,0.0062549184,0.0045509734,-0.0002518436,-0.0024720917,-0.0026100711
3.1066799164,0.0002512659,0.0013989874,0.0045921602,-0.0002816711,0.0007431426,-0.0015685088
3.1164221764,-0.0007460986,0.0062950323,0.0045717754,0.0039530215,0.0060952976,-0.0047946619
3.1264350414,-0.0046392954,0.0101730889,-0.0002826654,0.0082138125,0.0071970476,-0.0048047821
3.1363940239,-0.0055274344,0.0082309311,-0.0089035239,0.0188317038,0.0147455102,-0.0069873757
3.1466908455,-0.0045057214,0.0054236124,-0.0047285161,0.0231082067,0.0147604244,-0.0091152415
3.1564359665,-0.0005899046,0.006565399,0.0014259614,0.0295369457,0.012656793,-0.0101651931
3.1664030552,-0.0005408202,0.0076775621,0.0056161084,0.0295683704,0.0104831215,-0.0144006843
3.176527977,0.0015242423,0.0029551454,0.0088683758,0.0317379162,0.0062255254,-0.0143749844
3.1863708496,-0.0022487615,0.0030477711,0.007175962,0.0317642801,0.0030193462,-0.0143542122
3.1964230537,-0.0001850103,0.0041704248,0.0064911046,0.0296047218,0.0062058186,-0.0143717881
3.2070000172,-0.0010241244,0.0023219653,0.0047637024,0.0178615134,0.007165622,-0.0164945945
3.216711998,-0.0008909975,0.0004744002,0.0049639144,0.015660543,0.0135947596,-0.0133505994
3.2265720367,0.0011625018,0.0015761324,0.0051854053,0.0209975187,0.0136360377,-0.0133545948
3.236675024,0.0032095637,0.0036569901,0.0054186382,0.0167275406,0.0167423487,-0.0208067857
3.2465529442,0.0004580345,-0.003109806,0.0046082535,0.0113855051,0.0156685617,-0.0165465251
3.2567028999,0.001606765,-0.0069208075,0.0018483199,0.0113562103,0.0209743772,-0.0208296888
3.2663290501,0.0016808237,-0.0028968982,0.0058902302,0.0113756517,0.0177863073,-0.0186842456
3.2763381004,0.0027386274,-0.0008367828,0.007990459,0.0124482391,0.016733028,-0.0186817143
3.2863509655,0.0009347226,-0.0056319167,0.0100834165,0.0071394937,0.012434952,-0.0165253542
3.2967059612,0.0039856755,-0.0045942594,0.0052720704,0.0017857412,0.0134847704,-0.0133388815
3.3066720963,0.0002106752,-0.0055743386,0.0013582504,-0.0046045128,0.0113068372,-0.0122579047
3.3165969849,0.0022179808,-0.0055463244,0.0022999442,-0.0088563832,0.0080892062,-0.0101109976
3.3263759613,0.000359806,-0.0075208475,0.0002761877,-0.0078012394,0.0091752438,-0.0090563856
3.3368179798,0.0013725783,-0.0065214564,0.001224736,-0.0110249957,0.0113001801,-0.0069402382
3.3477120399,0.0013825621,-0.0065271189,0.0040541091,-0.0141989505,0.0070186155,-0.0047854744
3.3565201759,0.0004160132,-0.0046043326,0.0048850575,-0.0163189601,0.0048702434,-0.0047728242
3.3665649891,0.0024090733,-0.005610161,0.0018440878,-0.0141735189,0.0027674113,-0.0026359037
3.3762769699,0.0034126367,-0.007591777,0.0007757343,-0.0120202182,0.0006446056,-0.0026227213
3.3863139153,-0.0004549299,-0.0076423814,0.0006499088,-0.0130876144,0.0006363499,-0.0026219222
3.3965401649,0.0034121897,-0.0037201575,0.0025138056,-0.0109387087,-0.0035671834,0.0037779203
3.4066200256,0.0014256563,-0.0018123321,0.0033871329,-0.0045079747,-0.0067238281,0.003793899
3.4165048599,0.000418755,0.0001001426,0.0023339188,-0.0055865543,-0.0056564333,0.0048511741
3.4264540672,-0.001524416,-0.0028971962,-0.0006681883,-0.0088342791,-0.0013791305,0.0080128787
3.4380459785,-0.0015835438,-0.0019810132,-0.0046364269,-0.0024781125,0.0040246896,0.0090349996
3.446586132,-0.0016606126,-0.0029912523,-0.0055995784,0.0018109083,0.0008696427,0.0111772465
3.4565989971,-0.0008077894,-0.0030067496,-0.003587147,0.0028456794,0.005145614,0.010085484
3.4662330151,0.0010210003,-0.0039860536,-0.000589987,-0.0003932575,0.0083541907,0.0132541126
3.476293087,0.0008771147,-0.0030480556,0.0004167355,0.0038741925,0.0083914753,0.0132487863
3.4862470627,-0.0012301479,0.000813491,0.002407471,0.0092638973,0.0020203949,0.0132863373
3.4965181351,-0.0004138623,0.0027578541,0.0034774339,0.007139361,0.0009343578,0.014362121
3.5063509941,-0.0015116606,0.0037037798,0.0025956428,0.0103766993,-0.0033157812,0.0143874213
3.5165240765,-0.0015660797,-0.0002193383,0.0007352627,0.0039604786,-0.0012435756,0.0122524984
3.5262179375,-0.0016527448,-0.0012227825,-0.0001785957,-0.0003407933,0.0029892528,0.0111656617
3.5367288589,-0.0017392908,0.0006932088,-0.0001703107,0.0050093643,0.0029956442,0.0069116615
3.5463950634,-0.0007965241,-0.0041922261,-0.001089474,-0.0024482859,0.0008094553,0.0079934373
3.5565600395,-0.0028337513,-0.0032464198,0.0018167294,-0.002439497,-0.0002592714,0.0080003617
3.5661940575,-2.4942e-05,0.0006542274,0.0037523306,-0.0035226047,0.0008193089,0.0101189064
3.5764598846,-0.0010741029,-0.0003843239,0.001764635,-0.004627551,0.0061376421,0.0079598818
3.5861978531,-0.0011448835,-0.0004245571,0.0027043617,-0.0024488186,0.0008105207,0.0079929046
3.596280098,-0.0012270485,0.0014934011,0.0036404526,-0.0067077456,-0.0013418461,0.0101346187
3.6064469814,-0.0022592817,-0.0014758043,0.0036217964,-0.0002876632,-0.0023791473,0.0080120796
3.6161751747,-0.0033262346,0.001430697,0.0055487552,0.0018222267,0.0008406145,0.0079911742
3.6263520718,0.000561985,-0.0005227855,0.0026783145,-0.0013711695,-0.0002528795,0.0080004949
3.6363711357,-0.0004329358,-0.0044555594,0.0026725924,-0.0035075583,-0.0002661955,0.0080004949
3.6463930607,-0.0005710397,0.0013619729,0.0045617619,-0.0003157593,-0.0002142638,0.0111851031
3.6563248634,-0.000700203,0.0052352617,0.0055463114,0.0039329152,0.0030118898,0.0101007978
3.6663179398,-0.0027040516,0.0022667118,0.0055616298,0.0028865589,0.000857126,0.0090531101
3.6763870716,-0.001770762,-0.0006869963,0.0017059839,-0.0013896786,0.0018864376,0.0079857148
3.6863861084,-0.0018163596,0.0012275644,0.0006989635,-0.0013792925,0.0018592733,0.0047987099
3.6968741417,-0.0008324657,-0.002676361,0.0007179774,-0.0024111336,-0.001377799,0.002697875
3.7064080238,0.0020507004,0.0012341209,0.0006837047,-0.0045424625,-0.0014033653,0.0016371382
3.7165870667,0.00208995,-0.0036693148,-0.0012967193,-0.0055789649,-0.0056758747,0.0027271698
3.7283768654,0.0020107355,-0.0007433823,0.0064143934,-0.01094044,-0.003561591,0.0048419861
3.7364280224,0.0019334878,0.0050513218,0.0062174597,-0.017318178,-0.0078647267,0.006997549
3.7461881638,0.0029057886,0.0039944719,0.0030905402,-0.0247513279,-0.012206478,0.0059685037
3.75623703,-4.08266e-05,0.0028850504,0.0037445819,-0.0354320668,-0.0122711929,0.0081012957
3.7661039829,0.0009263481,0.0018059083,0.0034123457,-0.0343753248,-0.010143593,0.0059619788
3.7761569023,-9.62888e-05,0.0055877636,0.0010964668,-0.0354415253,-0.0101542454,0.0059639765
3.7864019871,-5.96319e-05,0.0015779205,-0.0001875364,-0.0322465301,-0.0080191903,0.0027607258
3.796309948,-5.90359e-05,0.0005209514,0.000528375,-0.023708567,-0.0079507474,0.0027531357
3.806096077,0.001858833,0.0043554376,-0.0016507709,-0.022678189,-0.0026169678,0.0005930457
3.8180480003,0.0028156962,0.0062437127,-0.0028116906,-0.0195572302,0.0059858421,0.0037217278
3.8262369633,0.0018218483,0.0032611557,-0.0048231683,-0.0024826406,0.0082191685,-0.0005542438
3.8387739658,0.0007998075,0.0052178572,-0.0047866902,0.0060168384,0.0115265483,0.0036684643
3.8463811874,-0.0002297734,0.003265328,-0.004645606,0.0145506719,0.0126522658,0.0025928132
3.8561060429,-0.0041996515,0.0003577539,-0.0015064084,0.0251959935,0.0159476623,0.0036275845
3.866063118,0.00058535,0.0014683672,0.0017937816,0.0348219872,0.0128338933,0.0057658367
3.8762540817,0.0014939036,0.0005854436,0.0021858013,0.0433735326,0.0118197622,0.0036383704
3.886329174,0.0034243788,-0.0061215688,0.004607121,0.0390901044,0.0118229575,0.0078909062
3.8960781097,0.0042701685,-0.0030953221,0.005962173,0.0391241908,0.0075523127,0.0089833345
3.9061770439,0.0031766619,-0.0001084737,0.0053363838,0.032707572,0.0085805589,0.0100435391
3.9161560535,0.0021508362,-0.0039716889,0.0046664872,0.0263451468,0.0052851634,0.0058214972
3.9262139797,0.0021221663,-0.0059100916,0.0009536541,0.0114210583,0.0019815124,0.0079781245
3.9363131523,0.0030178751,-0.0039622714,0.0010227358,0.0039622094,-0.0002022795,0.0090587027
3.9461510181,0.0029088582,-6.97902e-05,0.0029495752,-0.0056057284,-0.0045605428,0.0080312546
3.9569649696,0.0047892653,-0.0020475916,0.0058278837,-0.0098758424,-0.0066841473,0.0133591741
3.9666018486,0.0027256932,-0.0021270446,0.0086114202,-0.0098265735,-0.0130874515,0.014463054
3.9762811661,-0.0003378366,0.0026420422,0.0074409642,-0.0109199341,-0.0098903272,0.0144434804
3.9860100746,-0.0023503576,-0.0013810925,0.0043709078,-0.010905819,-0.0120187253,0.0155196646
3.9960110188,-0.0034227644,-0.0004990033,0.0032642877,-0.0098466799,-0.0098959189,0.013382744
4.0061841011,-0.0005578075,0.0013944574,-0.0007495486,-0.0087601095,-0.0109835546,0.0102018639
4.0162887573,-0.001611856,0.002333171,0.0030467308,-0.0098356279,-0.0088796569,0.0070008775
4.0260920525,-0.0016402279,0.0003488728,0.0058635273,-0.0076816631,-0.0099590365,0.003819199
4.0362620354,-0.0006864641,0.0032382079,0.0047668614,-0.0098161874,-0.0110229691,0.0059507936
4.0462627411,-0.0036066745,0.0051205228,0.001684407,-0.0076534329,-0.0131710749,0.0027760388
4.058175087,-0.0056005693,0.0050807069,0.0054598846,-0.0087453304,-0.0110237682,0.0048876596
4.0664377213,-0.0056306696,0.0089262789,0.0023729599,-0.0109187355,-0.0067563187,0.0059238952
4.0763120651,-0.0036888395,0.0088800853,-0.0006562673,-0.0055740373,-0.0088263946,0.0091212867
4.0859680176,-0.0066338456,0.0088151759,-0.0017192566,-0.0023545418,-0.0088469004,0.003807215
4.0959568024,-0.0046760119,0.0049148272,0.0011755025,-0.0076867221,-0.0088998973,0.0027502065
4.1057639122,-0.0046915091,0.0048922966,0.0039833584,-0.0098478785,-0.0057102293,0.0027310315
4.1159729958,-0.0027217243,0.0058377455,0.00094674,-0.0109135415,-0.0046771895,-0.0004619653
4.1260051727,-0.0026766334,0.0028904148,0.0008660353,-0.0098602623,-0.0025405351,-0.0015389477
4.1359419823,-0.0026304696,0.0038657852,0.0026855862,-0.0119894594,-0.0015277349,-0.0068588778
4.1457290649,0.0013108577,0.0077892612,0.0025567806,-0.0119963847,-0.0015096255,-0.0047342083
4.1559910774,0.0004305567,0.0048369239,0.0005087054,-0.0130620478,-0.000476585,-0.0079272054
4.1661171913,-0.0014212106,0.0019028254,0.0033115542,-0.0152074909,0.0016262471,-0.010064126
4.1759147644,-0.0004182432,0.0067766975,0.003172437,-0.0130830863,0.0016699228,-0.0068787187
4.1858520508,0.0015805389,0.0087382263,0.0030703938,-0.0109482976,0.0016864343,-0.0068803169
4.1959071159,0.0007129337,0.0018988319,0.0039826431,-0.0130932061,0.0027434432,-0.0058211777
4.2062597275,-0.0011517082,0.0009055802,0.0028899109,-0.0120364642,0.0048710424,-0.0079604946
4.2178897858,0.0008559551,0.0048234533,-9.41955e-05,-0.0024038116,0.0027865863,-0.0100769084
4.2267098427,-3.0671e-06,-2.02588e-05,0.0018862879,0.0050959168,0.0006797595,-0.0132556576
4.2362189293,0.0010540809,-0.000906401,0.0058765807,0.0093397982,0.002870742,-0.0111492304
4.2461652756,0.0040862882,-0.0017975501,0.0040669837,0.0125121549,0.0061107436,-0.0101100653
4.2559070587,0.0012386765,-0.0007731846,0.0022288954,0.0178651102,0.0050646542,-0.012231539
4.2659959793,0.0013292159,-0.001660519,0.0052791038,0.0104021328,0.0039381366,-0.012219022
4.2759370804,0.0014459218,-0.0025957159,-0.0004605257,0.0157126095,0.0061389729,-0.010114193
4.2858791351,-0.0003823314,-0.0054815938,-0.0032534802,0.0114835091,0.0007713723,-0.0090140421
4.2961587906,0.0015958871,-0.0044110348,0.0046369233,0.0008111577,0.0006856185,-0.0090044541
4.3060302734,0.0035914506,-0.0033972792,0.0046472945,-0.0023872992,-0.001440383,-0.0047388691
4.3161559105,0.0026738967,-0.006326132,0.0055690208,-0.0055619199,-0.0057206154,-0.0025847713
4.3264360428,0.002643856,-0.003407114,0.0093551073,-0.0108970311,-0.0068125115,-0.0004491822
4.3361692429,0.0026240672,0.0004762479,0.0092515741,-0.0055560619,-0.0099198874,0.005940007
4.3476200104,0.0016927149,-0.0015197925,0.0052563944,-0.0077033676,-0.0067664389,0.0016714928
4.3561339378,0.0016987945,-0.003515356,0.003242532,-0.0044907965,-0.008858352,0.0048731449
4.3658332825,0.0026771452,-0.001572483,0.0022302663,0.0008477764,-0.0077755107,0.0016752211
4.3761210442,-0.0002467905,-0.0025786094,0.004099051,-0.0055771004,-0.0056817336,0.0016632369
4.3860268593,-0.0031742726,-0.002632492,0.0010958111,-0.0023695892,-0.0067166379,0.0027300995
4.395840168,0.0007180895,-0.001660519,-0.0008881294,-0.002356939,-0.008839976,0.004870615
4.4060950279,0.0016481604,-0.0026215843,0.0049093761,-0.006647558,-0.0067264913,0.0059222979
4.4177851677,0.0006319012,-0.0036501221,0.0067461529,-0.0066149328,-0.0109942071,0.0070132609
4.4263887405,-0.0004046832,0.0001759597,0.0036836064,-0.006639434,-0.0088386443,0.0091240834
4.43608284,-0.0004495655,-0.0018359951,0.0026306903,-0.0055821594,-0.0088037569,0.0123105552
4.4458341599,-0.0014851962,-0.0048503806,0.0005705751,-0.0141301081,-0.0078010773,0.0123100225
4.4557962418,0.0003509845,-0.0010080866,0.0004271067,-0.0141768465,-0.0024518515,0.0122726047
4.4658479691,0.000246438,-0.0020691685,0.0002902544,-0.0152511662,-0.0024419979,0.0143980738
4.4757881165,0.0011001851,-0.0011542372,0.0031270778,-0.0099121947,-0.0013599558,0.01120055
4.485765934,0.001956078,-0.0002079538,0.0069547095,-0.0056093242,-0.0045512216,0.0090934569
4.4958572388,0.000926527,-0.0031917028,0.0078608785,-0.0045344718,-0.0056068986,0.0101640467
4.5060420036,0.0008622732,-0.0052028229,0.0077767172,-0.0119990464,-0.0077749779,0.0133704934
4.5164728165,-0.0011700664,-0.0043306281,0.0056726732,-0.0120404596,-0.0024385359,0.0122726057
4.526017189,-0.0002463136,-0.0063533117,0.0026413,-0.0131360823,0.0018100052,0.0101210373
4.5358729362,-0.0003717218,-0.0035170845,0.001540283,-0.0142543437,0.007163492,0.0122118853
4.5460252762,-0.0034277115,-0.0006893805,-0.002478143,-0.0089296205,0.0082825515,0.0132633019
4.5591182709,-0.0045337356,0.0011859604,-0.0025263035,-0.0057143858,0.0072279396,0.0122062918
4.5659389496,-0.0017565165,0.0002060004,0.0033640063,0.003936111,0.0019586096,0.012233723
4.5757269859,0.0010087218,0.0021750994,0.0083018932,0.007156671,-0.0001556743,0.0122459736
4.5857491493,-2.64321e-05,0.0011338659,0.0034451878,0.0007610898,-0.0012739355,0.0122576915
4.5957250595,0.0008517529,0.0001399585,0.0044606128,0.0050063017,0.0009122535,0.0132996524
4.60602808,0.0007319178,0.0010804601,0.004465858,0.0007753382,-0.0034047305,0.0122682108
4.615735054,-0.0002716754,-0.001901441,0.0025030768,-0.0045692278,-0.0023818107,0.0112006832
4.6257400513,-0.0032223139,-0.0059034158,-0.0034267509,-0.0077996412,0.0018502187,0.009050712
4.6357097626,-0.0023780738,-8.27245e-05,-0.0025276744,-0.0088706315,0.0018534143,0.0111795105
4.6457490921,0.0014122452,-0.001072698,0.0023200309,-0.007769946,-0.0013626188,0.0090748146
4.656334877,0.0032732214,-0.0011223487,0.0032011068,-0.0109798554,-0.0003207903,0.0090713529
4.6676177979,0.0041719996,0.0007885167,0.0021239317,-0.0077723432,-0.0013556947,0.0101382146
4.6787462234,0.0031189348,0.0026509829,5.94652e-05,-0.0098695839,-0.0056519061,0.0101699056
4.6860260963,0.0020656611,0.0006427833,0.0028598106,-0.0109351138,-0.0067107789,0.012302299
4.6957550049,0.0009536173,0.0044750641,0.0036973155,-0.0120187551,-0.0056332638,0.0133545147
4.7056617737,0.0008452262,0.0063387821,0.0006526507,-0.0120184887,-0.0077254437,0.0186800361
4.715719223,-0.0012051736,0.0022976466,-0.0004774534,-0.0173771679,-0.0045719938,0.0176021233
4.7256813049,0.0015687074,0.0022006698,-0.0025626624,-0.0152389156,-0.0045645377,0.0165381897
4.7357110977,0.0013635482,0.0079881614,0.0012172854,-0.005640083,-0.0034236391,0.0165251419
4.7456588745,0.0022653069,0.0040181945,-0.0007550918,-0.0013284255,-0.0076836315,0.0144249722
4.7556648254,0.0031453695,0.0010541149,0.0002211726,0.00079358,-0.0055413852,0.0133485226
4.7657032013,0.0030660357,-0.0009395412,-0.0007487737,0.0018239571,-0.0002076058,0.0111884316
4.7757968903,0.0039312565,1.47291e-05,0.0002312458,0.0018461952,-0.002358641,0.0090753473
4.7860088348,0.0038501944,0.0038731762,-0.0017571651,-0.0024076719,-0.0034785003,0.0069607971
4.7959728241,0.0057506585,0.0018982955,-0.0017944777,-0.0066590095,-0.005650308,0.0069785067
4.8061122894,0.0027861323,-0.0001063279,0.0010170734,-0.0162567757,-0.0067933369,0.0069926218
4.8159279823,0.0017389979,-0.0002152852,0.0017584956,-0.0290619209,-0.0079464857,0.0091355341
4.825469017,-0.0002720032,0.0006340214,0.0004944003,-0.0269271322,-0.0079299742,0.0091339359
4.835682869,-0.0023603116,0.005408294,0.0031180179,-0.0269095525,-0.0100674275,0.0091477847
4.8457121849,-0.0014277969,0.001381106,0.0018711484,-0.0354575031,-0.009064747,0.009147252
4.85587883,0.0004669155,-0.0016565255,-0.0003408396,-0.0247964691,-0.0079030758,0.0101940073
4.8659152985,-0.0006256376,0.0060610245,0.0003992117,-0.0151707381,-0.0089246649,0.0070067369
4.87566185,-0.0006864641,0.0060125659,0.0022227562,-0.0087883398,-0.0067267581,0.0080494974
4.8856258392,0.0011974897,0.0050242017,0.0031963384,0.0093573751,-0.0065864092,0.008035915
4.8957958221,0.0001178111,0.0108870333,0.0052066245,0.0136362752,-0.007623178,0.0080401767
4.9082951546,-0.00179821,0.0040518711,0.0024478829,0.0264484771,-0.0075331628,0.0069682538
4.9186859131,0.0001349177,0.001180894,0.0026689565,0.0264479443,-0.0075320979,0.006967721
4.9258751869,-0.0028127108,-0.0007234744,0.0057679811,0.0200363845,-0.0054713436,0.0037716618
4.9359149933,0.0001394178,-0.0016440682,0.0049469867,0.0115058795,-0.0055610919,0.0005893174
4.9455709457,0.0011423554,-0.0035794906,0.0040296116,0.0008300664,-0.0045930333,-0.0015342871
4.9555912018,0.0011437561,-0.0006475381,0.0039798417,-0.0045158304,-0.0025184308,-0.0036670798
4.9657449722,0.0011748995,-0.0016501478,0.0028960502,-0.0152177438,-0.0004363714,-0.0004859339
4.975897789,-0.0007704769,-0.0007380179,0.002707938,-0.0184391029,0.0016795099,-0.0004989835
4.985558033,0.001162621,0.0011804767,0.0025493896,-0.0184284505,-0.0004398335,0.001639535
4.9958667755,0.0011415209,0.0010981627,0.000402788,-0.0237868633,0.0016683247,0.0037574137
5.0058507919,0.0011338319,-0.0009147457,0.0011760986,-0.0237551723,-0.0025975266,0.0048474455
5.0158052444,-0.0018810604,0.0019335814,0.0058113136,-0.0259052757,-0.0015301316,0.0059013916
5.0266861916,-0.0029094194,0.0028196641,0.0065712132,-0.0162846055,-0.0035842278,0.0069703851
5.0366439819,-0.0048600412,-0.0011640124,0.0025871194,-0.0034740018,-0.0034888866,0.0069626612
5.045817852,-0.0058851815,-0.0021763972,0.0025529659,-0.0013426738,-0.00346332,0.008023398
5.055560112,-0.0049945391,0.0007296869,0.0025329387,0.0018701637,-0.0045131384,0.0069639934
5.0655241013,-0.0001469825,0.0017290779,0.0006467498,0.0061397436,-0.0044801151,0.0069607971
5.0755429268,-0.001115409,-0.0031577877,0.0026311076,0.0008697473,-0.0109707713,0.0027573968
5.0855150223,-0.0002134119,-0.0002105168,0.0074736872,0.0018934663,-0.0077110622,0.0080475006
5.0958251953,0.0017147388,0.0007379719,0.0045199194,-0.0055455407,-0.0120368348,0.0091441888
5.1055040359,-0.0012803052,0.0016525455,0.0092123542,-0.0172887519,-0.0110770315,0.0070213838
5.1155409813,0.0006822671,-0.0033076934,0.007044951,-0.0301038809,-0.0111590568,0.0091561731
5.126101017,0.0006615247,-0.0044096638,0.0028199351,-0.0322298817,-0.0122442953,0.0091646966
5.1361427307,0.0006096687,-0.001605504,0.001509527,-0.0322354734,-0.0111840907,0.0080951713
5.145731926,-0.00036898,-0.0036619238,0.0002318419,-0.0290790964,-0.0047650733,0.0059265583
5.1558909416,0.0034773673,-0.0007838539,0.0019444025,-0.0237157568,-0.0068852156,0.0027478093
5.1656661034,0.002461734,0.0040389965,0.0046339431,-0.0162370689,-0.0068455348,0.000617547
5.1754188538,0.0034705128,0.0020632811,0.0035387671,-0.0108759925,-0.0089590196,-0.0014976689
5.1855120659,0.0015910591,0.0010332533,0.0004594124,-0.01196629,-0.0057701506,-0.0025799775
5.1954641342,0.0016372229,0.0010007687,-0.0006370746,-0.0108878436,-0.0068372791,-0.0036373856
5.2055168152,0.0016565348,0.0029394098,-0.0007467472,-0.0087863421,-0.0035964784,-0.0015350862
5.2155609131,0.0026631679,0.0009957619,0.0002057946,-0.0056203762,0.0007074564,-0.000500448
5.2255220413,0.0007185962,-4.1655e-06,0.0001523889,-0.0035066251,0.0028704759,0.0005464407
5.2354459763,0.0016950394,-0.0009983114,-0.0008470022,-0.0045754863,0.00286728,0.0016115715
5.2454991341,0.0006703462,0.0019238063,0.000112573,-0.000328809,0.006097428,0.0005252683
5.2565670013,0.0016176428,0.0019418069,0.0001611508,0.0071473499,0.0050974106,0.0015880028
5.2657051086,0.0035384323,0.0029343434,-0.0007038318,0.0103671113,0.0029847252,0.0015994543
5.2757091522,0.0035129513,0.0020139285,0.0033175147,0.0093367351,-0.0013042955,0.0005640173
5.2857427597,0.002531084,7.05787e-05,0.0034291542,0.0135818142,0.0008842903,0.0026716429
5.2954311371,0.0025183882,8.22612e-05,0.0006271399,0.0146548012,0.0008792302,0.00161064
5.3054728508,0.0034150805,0.0040308307,0.002701143,0.0135770198,0.0008981386,0.0047984435
5.3156471252,0.004382106,-0.001798027,0.0047584572,0.0007505706,0.0018898996,0.0069237798
5.3263072968,0.0034258391,-0.0096650654,0.0008770025,-0.0024393639,0.000787351,0.005870766
5.3356971741,0.0004097547,-0.004842632,0.0008052982,-0.0045714909,0.0007655134,0.0058750259
5.3453979492,0.001237097,0.0010198422,0.0075604119,-0.010967073,-0.000352748,0.0058867438
5.3554301262,0.0041120374,-0.0009745291,0.0065190592,-0.0088537196,0.0007641816,0.0090629635
5.3653888702,0.0011538293,-0.0049678613,0.0054524937,-0.0099141905,0.0007378163,0.0069390927
5.3753771782,0.0001022543,-0.0001538924,0.0014158881,-0.0109657403,-0.0003575417,0.0048222793
5.3854169846,-0.0018971239,0.0007554957,0.0012736714,-0.0120437872,0.0017535458,0.0026845594
5.3953671455,-0.0048045195,-0.0051690866,0.0011889136,-0.0077491747,0.0006768298,-0.0015586552
5.4056758881,-0.0038673256,-0.0002880028,0.0020845926,-0.0066833766,-0.0003564765,0.0016344751
5.4154229164,-2.54188e-05,0.0046283673,0.0049930015,-0.001321502,-0.0024736896,-0.0015457388
5.4253540039,-0.0019339595,0.0006854006,0.0030201471,0.0018844111,-0.0045501562,0.0027150528
5.4355859756,0.0009690251,-0.0002996853,0.0020503199,-0.0024173921,-0.001361021,0.0048232106
5.4456319809,0.000888082,0.0045597623,0.0019885099,-0.0024120659,-0.0024206927,0.00589247
5.4577498436,-0.0030855511,0.004517443,0.004866878,0.0018368736,-0.0002419606,0.0069381599
5.4655971527,-0.0021162604,0.0015749403,0.0019954836,0.0060923384,0.0019194607,0.0058587813
5.4755320549,-0.0021296118,0.0005880662,-0.0008792483,0.0039559505,0.0029530337,0.003729051
5.4853291512,-0.0021361087,-0.0013596348,-0.0008170211,0.0018421998,0.0007900142,0.0026821624
5.4953961372,-0.0002626155,0.003549821,0.0040620961,0.001831281,0.0029098906,0.0005433778
5.5053157806,-0.0002232467,0.0016124912,0.0040978589,0.0019047838,-0.0035567973,-0.0057890862
5.5153779984,0.0008098211,-0.0003130964,0.0040991106,-0.0023576049,-0.0057001095,-0.0025850374
5.5255937576,0.0017862644,0.001645691,0.0059797564,-0.0087390719,-0.0089467689,-0.0014971361
5.5360431671,0.0018428292,-0.0003055862,0.0088040624,-0.0119192861,-0.0111199077,-0.0025422939
5.5455670357,0.0009482231,-0.0013176135,0.0066942968,-0.0172581244,-0.0101105701,-0.0046698931
5.5555677414,0.0029675688,-0.0003638795,0.0055012503,-0.0215776395,-0.004785846,-0.0036415134
5.5653390884,0.0010515775,0.0024988719,0.0033247864,-0.0205278192,-0.002640137,-0.0036561608
5.5752868652,0.0010961618,0.0034079619,0.0001793898,-0.0258797109,-0.0005492895,-0.0036633513
5.5852909088,0.0011778797,-0.0025187663,-0.0019467676,-0.0216452852,0.00375864,-0.0036942442
5.5952329636,0.0001926746,-0.0035254292,-0.0001707279,-0.01958373,0.011286065,-0.0005586382
5.6053247452,0.0001164998,0.0022987791,0.0026658571,-0.0067837778,0.0124538606,-0.0005751499
5.6152448654,3.57355e-05,0.0032738515,0.004614512,-0.0004013795,0.014651767,0.000467611
5.6252741814,2.61988e-05,0.0003296801,0.0008005298,0.0049339975,0.0136514837,0.0036575452
5.6353502274,-0.0019892131,0.0013004609,-7.59565e-05,0.0113305105,0.01581477,0.0015170297
5.6452860832,-0.000145105,0.0043120454,0.0079226885,0.02094239,0.0148294009,0.0025790983
5.6552639008,0.0007991518,0.0024077364,0.0062130489,0.0220603868,0.0094743166,-0.000577813
5.6653060913,0.0047663474,-0.0033999018,0.0015860593,0.0146061983,0.0072790724,-0.0005583719
5.6754851341,0.0038375582,-0.0063203503,-0.0031659806,0.0103759002,0.004007645,-0.0037188781
5.6852617264,-0.0001130973,-0.0023906163,0.0007715619,0.003961144,0.0039852746,-0.0005270797
5.6952352524,0.0046689832,0.0035208531,0.007605175,-0.0077965781,0.0039357403,0.0037285185
5.7056751251,0.0017770852,-0.0014246039,0.0055751004,-0.0109670721,-0.0003548786,0.0048209475
5.7154598236,0.0008177783,-0.0053980877,0.0034804142,-0.0237517096,-0.0015596927,0.0016553807
5.7254700661,0.0017836716,-0.0005949668,-0.0016350352,-0.0184147358,-0.0015184137,0.0016513858
5.7354311943,0.0037152495,0.0022866793,-0.0008684599,-0.02481924,-0.0015676823,0.0016560466
5.7473349571,0.0047118389,-0.0036163263,-0.0010224187,-0.0162643641,-0.0025884719,-0.0004680906
5.755466938,0.0027228023,0.0022103258,0.001737932,-0.0119660245,-0.0057685524,-0.001513914
5.7673630714,0.0046393001,0.0041731666,0.005576829,-0.0055438103,-0.0099486504,0.003820664
5.7754020691,0.0017214145,0.0011666485,0.0025726354,-0.0013121814,-0.006679886,0.0069825021
5.7851877213,-0.0012278829,0.0021003552,-0.0003817283,0.0072006132,-0.0034076604,0.0069553372
5.7952370644,-0.0022387777,0.0020905801,-0.0003173553,0.0114588756,-0.0012539617,0.0048129577
5.8051929474,-0.0032641564,0.0030669041,-0.0031460726,0.0157268569,-0.0022625008,0.0080036912
5.8152570724,-0.0033165191,0.0021081038,-0.0039715967,0.0189155918,-0.000110667,0.0069257771
5.8251690865,-0.0004916762,0.0041152905,0.0001290239,0.0178236961,0.0020366397,0.0090373978
5.8352432251,-0.0006085311,0.0051446031,0.0051818886,0.0200014971,-0.0022417281,0.0069397576
5.8451719284,0.0003341462,0.0012731024,0.0063405433,0.0168310031,-0.0065323468,0.0080321869
5.8552007675,-0.0045790351,0.0002459952,0.0025053418,0.0114761852,-0.0033887518,0.0058923373
5.8658742905,-0.001703528,0.0041624377,-0.0013149583,0.0072135297,-0.0034398844,0.0037708627
5.8754291534,0.002156588,0.0022692152,0.0036513603,0.0039881752,-0.001313883,0.0048196157
5.8853797913,-0.0007300649,-0.0026388697,0.0017397797,0.0051029744,-0.0066583147,0.0037911029
5.8953170776,0.0001904394,0.0022442408,0.0017397201,0.002968451,-0.0066753589,0.0037929669
5.9053058624,0.0011899199,0.0003085801,0.0017520584,-0.0012838189,-0.0067536556,-0.001515512
5.9154138565,0.0001942839,0.0022581883,0.0055641928,-0.0087654376,-0.0067853471,0.0016776181
5.9255199432,-0.0016708348,-0.0046343734,0.0015697278,-0.0055422122,-0.0089070881,0.0006267349
5.9353532791,-0.0036545668,0.0031213232,-0.0014627778,-0.0023654616,-0.0067248936,0.0027342276
5.9454159737,-0.0027720605,0.0099694198,0.0033513701,-0.0012645107,-0.0120331068,0.0059550549
5.9551372528,-0.0008316312,0.0060827802,0.0072320499,-0.0044738855,-0.0099475849,0.0027565979
5.9651551247,0.0002092745,0.0011657544,0.0022969639,-0.001261049,-0.0120421611,0.0048927194
5.9753251076,-0.0026962135,0.0030587383,-0.0017004811,-0.0033790609,-0.0121028814,-0.00041789
5.9853811264,0.0012161757,0.0040752362,0.002167443,-0.0055439435,-0.0068119792,-0.0047002528
5.9950971603,0.003209057,0.0021624037,0.0069888034,-0.0087396046,-0.007898815,-0.0036273985
6.0052580833,-0.0005946432,-0.0008199147,0.0029682911,-0.0108972965,-0.0047182017,-0.0047089085
6.0152482986,0.0014157619,0.001125104,0.0028438366,-0.0109019578,-0.0036598614,-0.0057775015
6.0252437592,0.002454194,-0.0007815293,0.0086178575,-0.0087778196,-0.0015240062,-0.0079176174
6.0354790688,0.0016199078,-0.00277149,-0.0002501213,-0.004479479,-0.004704087,-0.0089634415
6.0454831123,0.0007034268,0.0011407204,0.0006459153,-0.0055820271,-0.0004374366,-0.008990339
6.0552511215,0.0017440047,-0.0017219118,0.0065009394,-0.0013225665,0.0006669762,-0.0090017915
6.0652270317,0.0017973806,-0.0007253817,0.0064760842,-0.0120140938,0.0027218712,-0.0090076495
6.0752439499,0.0017816748,0.0051552127,0.0112873707,0.0061044558,0.0050252397,-0.0058472762
6.0856070518,0.0029082622,-0.0026489429,0.0026171601,0.0028671175,0.0092753777,-0.0058725765
6.0959358215,0.0019479122,-0.0006826452,-0.0002531611,0.0060325507,0.0125334887,-0.0027087412
6.1052970886,0.0010313417,-0.0045649339,-0.0020929778,0.0103159789,0.0125302933,-0.0069612768
6.1152172089,4.50339e-05,-0.0035391382,0.0019507802,0.007112063,0.0125111192,-0.0058948137
6.1254649162,0.0019246365,0.0004465648,0.0088968668,0.0092119658,0.0147103574,-0.0005985855
6.13586092,0.0038667049,-0.0014490418,0.0109710488,0.0071083349,0.0104290601,0.0004925115
6.1454110146,0.0057797157,0.0014932819,0.0081373248,0.0071048727,0.0104381144,0.0015548465
6.1576151848,0.0018210437,0.0004783937,0.0081658754,-0.0003514457,0.0082492623,0.002637954
6.1653652191,-0.0050027049,-0.0005870393,0.0032251871,-0.0024862355,0.00823275,0.0026395521
6.1753177643,-0.0050437427,-0.0005944899,0.0032557047,0.0028581964,0.0072079664,0.00264115
6.1850118637,-0.0031407748,0.0023539134,0.0023374355,0.0039711311,0.0029141514,-0.0005189572
6.1950149536,-0.0021514271,0.0004413196,0.0043737688,0.0050292052,0.0050390875,-0.0026569427
6.2049999237,0.0017674293,0.0014672347,0.0044304528,0.000782528,0.0018089397,-0.0015706393
6.2150630951,0.0008219208,0.0014507242,0.0044050612,-0.0034906473,0.0028299955,-0.0037007688
6.2250032425,-0.0001710926,0.0043796967,0.0062861242,-0.0077407863,-0.0003910977,-0.0015521304
6.234995842,-0.0020605002,0.0033584305,0.002292434,-0.0077483756,0.0006752319,-0.0015578563
6.245028019,-0.0020696793,0.0052750777,0.0002594984,-0.010989177,0.0049344255,-0.0005208214
6.2549791336,-0.0020910178,0.0043097804,0.004108707,-0.0078056334,0.0070987772,-0.0005381319
6.2650208473,-0.0020890508,0.0062404941,0.0021139777,-0.0035062265,0.0039165653,-0.0015828899
6.2749919891,-0.0001058255,0.0033348866,0.0031310117,0.0028905533,0.0060771876,-0.0047889361
6.2851800919,0.0009032812,0.0033824511,0.0022347963,0.0060890098,0.0082031898,-0.0090545211
6.2950201035,5.9332e-06,0.0014609166,0.0013502634,0.0082120821,0.0082516586,-0.0048046489
6.3049659729,2.75697e-05,0.0005537936,0.0044128695,0.0114070764,0.0103867147,-0.0080078989
6.3149528503,0.0029656019,0.0045442651,0.0064892569,0.0039243922,0.0114019122,-0.0080113616
6.3250207901,0.0020523395,0.0006791421,0.0095084701,0.0018159682,0.0081792213,-0.0079889912
6.3349518776,0.0001635875,-0.0012868575,0.0065775313,-0.0024733199,0.009243154,-0.0048062466
6.3449382782,0.0011925425,-0.0002922348,0.0036586917,-0.0014131153,0.0113616977,-0.0080078989
6.354932785,0.0002556767,-0.0012517504,0.0046394863,-0.0046047801,0.0092178537,-0.0058671171
6.3651981354,-0.0016281281,-0.002244883,0.0007132686,-0.0035392502,0.0102767264,-0.0079995096
6.3769741058,0.0003564383,-0.0012339286,0.002683202,-0.0035307268,0.0092106629,-0.0069270553
6.3853120804,-0.0016142402,0.0046249102,0.0036256111,0.0017923992,0.009288162,-0.0026817101
6.394947052,-0.0035550271,0.0046129297,0.000747124,0.0071280422,0.0093321037,-0.0026870363
6.404914856,-0.0016070877,0.0066120098,0.0008364714,0.0060659735,0.0082641756,-0.0016169783
6.4151110649,-0.0015936766,0.0037216016,0.002887646,0.0050140247,0.0071696164,-0.0037341914
6.4249691963,0.0004177417,-0.0040511419,0.0030144847,0.0018153023,0.0071357945,-0.0047941292
6.4346928596,-0.0014874612,-0.0030826263,8.58105e-05,-0.0003385292,0.0092596654,-0.0048078448
6.4449367523,-0.0024599109,-0.0021041564,-0.0018309557,0.0049968474,0.0082593821,-0.0016179105
6.4551100731,-0.0005399261,-0.0001016191,0.0021574295,-0.0013899449,0.0071192831,-0.0037289984
6.4651651382,-0.0005198393,-9.39301e-05,0.0002031124,-0.0013880813,0.0060686655,-0.0015974042
6.4747300148,0.0014715518,-0.0029971532,0.0021936691,-0.0013364153,0.0017522145,-0.0058163838
6.4851908684,0.0024465646,-4.48159e-05,0.0041330256,-0.0024176585,0.0017801775,-0.0015662451
6.4948921204,0.0014643993,0.0028967925,0.0041088858,0.0029370254,-0.0003183933,-0.0026220554
6.5048680305,0.0015175964,0.0009566614,0.0031609929,0.0029671192,-0.0056258067,0.0016619058
6.5152492523,0.0025203254,-0.0009928874,0.0021974242,-0.0002413234,-0.004586908,0.0016599081
6.5251889229,0.0034805264,-2.70537e-05,0.0021627343,-0.0045037121,-0.0067302203,0.0048639569
6.5350899696,0.0015457596,-0.003002756,0.0001430309,-0.0077399872,-0.0024843423,0.0037739256
6.5466508865,0.0034463729,-0.0030264787,0.0010539687,-0.008833481,-0.0013785978,0.009079475
6.5549559593,0.0024143781,-0.0030652813,0.0019752777,-0.0024229856,-0.0013455746,0.0069492124
6.5648508072,0.0032900895,-0.0001527599,0.0029220378,0.0007791994,-0.0013208073,0.0069468152
6.5749058723,0.0013014402,-0.003109508,0.0039269128,0.0061063203,0.0008382176,0.0048051011
6.5848278999,0.0003117051,-0.0050732424,0.0020478165,0.0103759002,0.0008712406,0.0048019057
6.5949077606,0.0021961655,-0.0031022958,0.0011663234,0.0071980832,-0.0034004697,0.0080186045
6.6048297882,0.0021419253,-0.0040955474,0.0012029803,0.0039958982,-0.003425237,0.0080210017
6.6149420738,0.0020462002,-0.0031545691,0.0021678603,-0.003474934,-0.0045317803,0.0101572555
6.6248140335,0.0029120173,-0.0022442869,0.0020732677,-0.0130689722,-0.0077760434,0.0144345593
6.635269165,-6.45195e-05,-0.0082188779,0.0018820561,-0.0237458497,-0.0078484816,0.0165712126
6.6450581551,0.002733859,-0.0092915231,0.0016628301,-0.0237069689,-0.0142246215,0.0208620969
6.655066967,0.0015566971,-0.0065097739,0.0042866864,-0.0279724188,-0.0163618084,0.0240630843
6.6650691032,0.002339008,-0.0017787747,0.0039795437,-0.0247457325,-0.0184926037,0.0219498668
6.6749711037,0.0002462592,-0.0019257001,0.0017596282,-0.0162210874,-0.0173442475,0.0229966231
6.684800148,0.0010762538,-0.0010868243,-0.0023425424,-0.0130066527,-0.0183972605,0.0219388139
6.6950941086,0.0009332623,-0.0012022785,-0.0044424734,-0.006623324,-0.0151543319,0.0208527781
6.7051301003,0.0027154412,-0.0012680821,-0.002575835,-0.0077186823,-0.01299797,0.0240267329
6.7152881622,0.0016122784,-0.0033209256,-0.0036272013,-0.0002505118,-0.0108392108,0.0197580848
6.7247719765,0.0004602994,-0.0014100007,0.0002435244,-0.0002646269,-0.0087108128,0.0186819006
6.734937191,0.0032441344,-0.0024144582,0.0022251999,0.0061515942,-0.0107830185,0.0208168253
6.7449293137,0.0011165168,0.0004372069,0.0012190139,0.0050788731,-0.0097316019,0.0197483636
6.7553329468,0.0019206728,0.0013551184,0.0012306964,0.0050431862,-0.0054556308,0.0197201353
6.7650198936,-0.0002141271,0.0032354661,0.0022054112,0.0040074829,-0.0097297383,0.0208109673
6.7751588821,0.0016010131,0.0022252866,0.0003070629,0.0072051403,-0.0076021389,0.0165445823
6.7850670815,0.0014806117,0.0031370588,-0.0016324723,-0.0002911249,-0.0055043669,0.0186609961
6.795042038,-0.0005982493,0.001126773,0.000295738,-0.001340677,-0.0066037197,0.0165461786
6.8047208786,0.000242057,0.002062089,0.0041518011,-0.0023713205,-0.0098453192,0.0133807464
6.8147830963,0.0020980563,0.0010634132,0.0050957599,-0.0023763804,-0.0098330686,0.0144414837
6.8247079849,0.0010147418,0.00198204,0.0059979358,-0.0087474603,-0.0131068928,0.0123423794
6.8347759247,0.0019121494,0.0028669902,0.0029358065,-0.0141341025,-0.0077888267,0.0144376215
6.8446998596,0.0018469419,-0.0001455477,0.001801411,-0.0151823228,-0.008892973,0.0112583404
6.8547477722,0.0007858004,0.0007397601,0.0016413725,-0.0120059708,-0.0056630913,0.0112357037
6.864689827,-0.0022186313,0.0025934048,-0.0004912817,-0.0130629791,-0.0056985114,0.0080494974
6.8747439384,-0.0032290493,0.0025335022,-0.0035067999,-0.0045500528,-0.0013817936,0.0048269397
6.884680748,-0.004277972,0.0025257536,0.0023303425,0.0008132877,-0.0045466945,0.0048437174
6.8947019577,-0.0043419874,0.0083822673,0.0023145473,0.0061710356,-0.0056045018,0.0016612397
6.9048852921,-0.0023925577,0.0084151691,0.0033712781,0.013619897,-0.0023495865,0.0005725396
6.9148850441,0.0005524482,0.0065128873,0.0006131328,0.0178938713,-0.0044191289,0.0048331972
6.9249711037,0.0024713899,0.0065612863,0.0007663763,0.0168211497,-0.0033677127,0.0037647376
6.9350528717,-0.0023945246,0.0055913995,0.0018361008,0.0136404037,-0.0044971593,-0.0015422768
6.9456071854,-0.0033357416,0.0036574074,0.001926104,0.0082911784,-0.0034606571,-0.0004828714
6.954928875,-0.0023296748,0.0027164884,0.0019709265,0.0008570971,-0.0067515252,-0.0025767817
6.9654312134,-0.0013303731,0.0037225552,0.0029447472,0.0008096928,-0.0013988378,-0.0015490679
6.9749951363,0.0016237523,0.0027706095,0.0058523812,-0.0055640517,-0.0057120938,-0.0004553075
6.9849147797,0.0036435451,-0.0001704625,0.0028663075,-0.0098022046,-0.0079187891,-0.0046876031
6.9949250221,0.0026640024,0.0007944771,0.0056525269,-0.0130484644,-0.0036444152,-0.0015244336
7.0046749115,0.0027124609,0.0007572838,0.0045571127,-0.010910213,-0.0036369585,-0.0025883664
7.0150609016,0.0027618732,-0.000246816,0.0015404618,-0.0045247525,-0.0024941959,-0.0004786102
7.0261068344,0.0008389677,0.0017093488,0.0024511016,-0.002344422,-0.0067797545,-0.0036395162
7.0359511375,-0.0001070474,0.0026838251,0.0014632143,0.0082893139,-0.0024079094,-0.0015486684
7.0449237823,0.0008673992,0.0046895216,0.0044818916,0.0125711439,-0.0034526675,-0.0026072748
7.0546188354,0.001840743,0.0066873501,0.0036256111,0.0189596675,-0.0023160307,-0.0004944559
7.0646438599,0.0009252157,0.001853592,0.0028257167,0.0157644078,-0.0023589074,-0.0026167291
7.0746002197,0.0009698297,-0.0020068816,0.0039539733,0.0189387612,-0.000169789,0.0005541637
7.0846271515,0.0028921093,1.09144e-05,0.0060232677,0.0125836609,-0.0066226283,0.0016628378
7.0948858261,0.00290859,-0.0009642771,0.0051165023,0.0019049179,-0.0056465799,0.0006021007
7.1046772003,0.0039432668,-0.0068186452,0.0050958195,-0.0066097416,-0.0078681884,-0.0015023293
7.114566803,0.0038663771,-0.0009779863,0.0088572297,-0.0141158607,-0.0057464484,0.0027358253
7.1247639656,0.0048454725,-0.0010353855,0.007717947,-0.0194562972,-0.0057786726,0.0038021551
7.134803772,0.0038592841,-0.0040353467,0.0075132647,-0.0216057338,-0.0036635902,0.003792834
7.1448330879,0.0028475251,-0.0021800927,0.0043867626,-0.0152258649,-0.0014584927,0.0058988621
7.1547250748,0.0008411731,0.0026173659,-0.0006559693,-0.0099067334,0.0007207722,0.0058807526
7.1648292542,-0.0011526023,0.0015843578,0.0011961854,-0.0077493079,-0.0003676619,0.0016367389
7.1756048203,-0.0002137099,-0.0003693036,0.0041009584,-0.005648206,0.0028739376,0.0037386385
7.1855840683,-0.0002914343,0.0025435754,0.0040917196,0.0028752405,0.00402682,0.0058499929
7.1945881844,-0.0051770485,0.0005315014,0.0002270735,0.0082200719,0.0040481258,0.0037222602
7.2045288086,-0.0033036147,0.0005405613,0.0003278053,0.0082008969,0.0051440164,0.0069023408
7.2147960663,-0.0034008895,0.0005616018,0.0043430724,0.0124738058,0.0051682512,0.0058366768
7.2246079445,-0.0024982963,0.0015623041,0.0044722953,0.013558777,0.0030390541,0.0058497265
7.2345261574,-0.0015995775,0.0025620528,0.0055590072,0.0103918798,-0.001260886,0.0058799535
7.2445220947,0.0003372754,0.0015917488,0.0046765604,0.0050759437,-0.0034486728,0.0048354617
7.2545690536,0.0032977487,-0.0023040108,0.0027376211,-0.0055275662,-0.009989663,-0.0004262791
7.2645201683,0.0013903107,-0.0042782356,0.0036020076,-0.0119636273,-0.0057733459,-0.0015115172
7.2747731209,0.0004043307,-0.001382523,0.0053961673,-0.0173232406,-0.00471181,0.0016690963
7.28480196,0.00039086,0.0014979907,0.0051911273,-0.0194404535,-0.0068657747,0.0016845423
7.2962369919,-0.0005763744,0.0023990341,0.0039812722,-0.0226468965,-0.0068777595,0.0038142726
7.3063611984,-0.0006112133,0.0062485407,0.0047398009,-0.0151980361,-0.0036228437,0.0027255723
7.3147993088,-0.0045050955,0.0061791609,0.0036043322,-0.0088144382,-0.0003825757,0.0005740044
7.3245000839,-0.0035340462,0.0061674784,0.0035874641,0.0029127905,0.0018366363,-0.0005109676
7.3345551491,-0.003553835,0.0081430739,0.0046105185,0.0071570706,0.0050737085,-0.0005338707
7.3444929123,-0.0035156582,0.005248792,0.0027836359,0.0135718267,0.0050960798,-0.0037256693
7.3545470238,-0.0015173529,0.0033639141,0.0029540455,0.0114338407,0.0061328486,-0.0058569973
7.3644762039,-0.0034168635,-0.0005189708,0.0030543602,0.0081983665,0.00933237,-0.0037507028
7.3745360374,-0.0043190992,-0.0005026392,-0.0007665955,0.0082190065,0.0082335491,-0.0069293189
7.3843121529,-0.0013884578,0.0015397735,0.002264241,0.0071603996,0.0071565667,-0.0069215959
7.3943581581,-0.0003852819,0.0006231138,0.0072065392,0.0029121256,0.0028848567,-0.0026413633
7.4043588638,-0.0013334427,0.0025714107,0.0062117376,0.0008369898,-0.0035621235,-0.00472289
7.4146661758,-0.0003135775,0.0035587021,0.0051934519,-0.0034312578,-0.0035978099,-0.0047183624
7.4247231483,-0.0012015079,0.0015987225,0.0041832128,-0.0034400467,-0.0025290833,-0.0047252867
7.4347791672,-0.000163344,0.0016042658,0.0031430519,-0.0087491916,-0.0057816021,-0.0057648518
7.444644928,-8.28777e-05,0.0015996166,0.0020426905,-0.0162052438,-0.0069262288,-0.0078770053
7.4544501305,2.29801e-05,-0.0003657869,0.0018947518,-0.0172886178,-0.0048002275,-0.0078884568
7.4644150734,0.0010751213,0.0006269881,0.0046537318,-0.0172675774,-0.0069467351,-0.0089369426
7.4745621681,0.0011877741,-0.0003866485,0.0024949706,-0.0226351805,-0.0037711817,-0.0078921849
7.4853658676,0.0012615647,0.0005484888,0.0022341406,-0.0279457904,-0.0070186406,-0.0078674173
7.4946498871,0.0023233022,-0.00146287,0.0028812087,-0.0397495851,-0.0006712623,-0.0047125034
7.5046262741,0.0024178948,-0.0034866862,-0.0003088319,-0.0226363763,-0.0027218962,-0.0100231133
7.5154190063,0.002410325,0.0052858065,0.0033292568,-0.0247879475,-0.0016494412,-0.007904835
7.5246758461,0.001566651,-0.0006206564,0.0011850393,-0.0204885378,-0.0048316522,-0.0089495927
7.5367088318,0.0025666382,0.0042572687,0.003916184,-0.0162398648,-0.0026502572,-0.006838372
7.5462722778,0.0036519791,0.0013374158,0.0038221872,-0.0076586269,-0.0068772263,-0.0089417361
7.5546960831,0.0037380185,0.0013332434,0.0017903841,-0.006614401,-0.0047182017,-0.0078961793
7.5644330978,0.0058088028,-0.0025465421,-0.0001916491,-0.0023815734,-0.0014518346,-0.0047331434
7.5744609833,0.0039373362,-0.0025589995,-0.0021882856,-0.0034353863,-0.0014957769,-0.0089819506
7.5848941803,0.0020089473,-0.000588291,-0.0021602118,0.0103829578,0.0039914004,-0.0047776178
7.5949602127,0.001017424,0.0014218756,0.0018528497,0.013575023,0.0050875572,-0.0047882707
7.6048951149,0.0010150995,0.0014650889,0.0020037091,0.0156853124,0.0072596315,-0.0026790469
7.6159610748,0.0029881324,0.0005166003,-0.0027010047,0.0188787077,0.0083531253,-0.0026883681
7.6267232895,0.0010259773,-0.0013931922,-0.0034440958,0.0241666809,0.0127055291,0.0015292801
7.6365299225,0.0009695615,-0.0013034872,0.0016761221,0.0188599322,0.0104929758,-0.002703415
7.6468520164,0.0019403722,-0.0041792919,0.0028804934,0.0220711716,0.0073568374,0.0026266358
7.6550269127,-2.41969e-05,-0.0041476418,0.0030619896,0.0135490568,0.0062012915,0.000516613
7.6651277542,-0.0020522748,-0.0002117089,0.0051250854,0.0114161307,0.0051341625,0.002649805
7.6751151085,-0.0001081799,-0.002145224,0.0042264857,0.0007911837,-0.0003042785,0.0016316788
7.6844701767,-0.0001052891,-0.0021568469,0.0041830936,-0.0077128224,-0.0046452312,0.001665767
7.6946730614,-0.000119475,-0.0012102656,0.0060325661,-0.013009184,-0.0089765964,-0.0004286759
7.7045879364,0.0047663176,0.0017377206,0.0068849125,-0.0119084986,-0.0121926302,-0.002533372
7.7150192261,0.0038735594,-0.0012426905,0.0057304897,-0.0204729587,-0.0080077378,-0.0046764179
7.7245578766,0.0020191397,-0.0022659234,0.0045189657,-0.0215070657,-0.011240283,-0.0067795161
7.7359199524,-0.0018321548,-0.0003733567,0.005251626,-0.015144106,-0.0069011953,-0.005752468
7.7445278168,-0.0027510498,0.0025297471,0.0021897352,-0.0066382363,-0.0036108594,-0.0036549624
7.7544879913,-0.0017805968,0.0064393948,0.0011768139,0.0018491242,0.0018187934,-0.0015722371
7.7643461227,-0.00077,0.00257755,0.0032349026,0.0103707071,0.0040222928,-0.0015924772
7.7742967606,-0.000761417,0.0035861202,0.0014169611,0.0188608654,0.0104911113,-0.002702483
7.7843551636,0.0001867141,0.0056230496,0.0016695058,0.0284586325,0.0116341403,-0.0027165976
7.7943162918,0.0001662101,0.0066886018,0.0029572046,0.0327407271,0.010588849,-0.0037749377
7.8043260574,0.000219437,-5.76905e-05,0.0023270643,0.0284554362,0.0116426619,-0.0016539963
7.8142852783,0.0011851515,0.00100661,0.003544966,0.0178246293,0.0072649582,-0.0037419149
7.8243250847,0.0031254019,0.002069778,0.0076334276,0.010344076,0.0082758944,-0.0037432462
7.8345751762,0.0041216337,0.000176675,0.0106676016,0.0029086638,0.0039408002,-0.0037087582
7.844329834,0.0032196965,-0.0037570528,0.0077091851,-0.0098737106,0.0006355511,-0.0036783982
7.854268074,0.0012982215,-0.0028228692,0.0065822997,-0.0184056796,-0.0004960262,-0.0036666803
7.8644871712,0.0013497497,-0.0019144348,0.0015073217,-0.0194608252,-0.0015820634,-0.0047212923
7.8745160103,0.0004177715,5.0732e-06,0.0032501018,-0.0237293392,-0.0005724588,-0.0079125576
7.8856811523,0.0014432396,0.0009622046,0.0020686781,-0.0194666833,-0.0005213261,-0.0057910839
7.8945770264,0.0024880494,-3.48023e-05,0.0029188192,-0.013068839,0.0005924078,-0.0058005378
7.9042377472,0.0024946954,0.0038782426,0.0037805235,-0.0087939324,-0.0004342408,-0.0047344747
7.9142980576,0.0045163953,-3.32526e-05,0.0027655757,-0.0045358054,0.0006749658,-0.0036814609
7.9244279861,0.0045995438,-0.0019761256,0.0017678536,-0.0013213689,-0.000378048,-0.0047392687
7.9363937378,0.003644767,-0.0029414229,0.0017767346,0.0050317352,0.0039871391,-0.0005246827
7.9444899559,0.0007288184,-0.0029549531,0.0008298553,0.0071454863,0.0061501586,0.0005222058
7.9545230865,-0.0002780531,-0.0029542975,-6.63006e-05,0.0060590501,0.008284416,0.0015734886
7.9642429352,-0.0013097201,-0.002963119,0.0019312298,-0.0014231009,0.0082537895,0.0047660861
7.974460125,-0.0023206149,-0.0069001247,0.0010045564,0.0028474107,0.0072380602,0.0068935528
7.9849128723,-0.0004845534,-0.0010415248,0.0010305441,0.0017765537,0.0072388593,0.0079566864
7.9946169853,0.0004014696,-0.0010394386,0.0039804378,-0.0035042288,0.0007761659,0.0069398917
8.0044584274,0.0003464248,-0.0020726852,0.0029576814,-0.0056161154,-0.0024374707,0.0080245975
8.0144805908,-0.0007062231,-0.0021206669,0.0038370884,-0.0098501425,-0.0056993105,0.0059261583
8.0241851807,0.001175734,-0.0001876882,0.007640461,-0.011979606,-0.0067754937,0.0069970163
8.0342197418,0.0021337594,-0.0002398423,0.00360165,-0.009820981,-0.0099601019,0.0070136609
8.0442256927,0.0040705227,-0.000285261,0.0025069511,-0.0108585469,-0.0131835919,0.0059728976
8.054186821,0.0011135365,0.0025870271,0.0033252633,-0.0087222941,-0.0131700095,0.005972764
8.0642118454,0.0010434713,0.007436044,0.0032120741,-0.0034468379,-0.0056476449,0.0059202998
8.0741949081,0.001006427,0.0093602007,0.0021862781,-0.0024212543,-0.0003021481,0.0048212139
8.0844478607,-0.0009350453,0.0024728246,0.0002434648,0.0007809307,-0.0002773807,0.0048188167
8.0951251984,0.0019316699,0.0044494341,0.0012553132,0.0028953478,0.0029290654,0.0026708441
8.1043739319,0.0018824663,0.0054353545,0.0041953125,0.0018244907,0.0029298645,0.0037339781
8.1151723862,-0.0010228429,0.0005331108,0.0013527668,0.0103362193,0.0072511099,0.0015760188
8.1243286133,-0.0019992564,-0.0014198355,-0.0004744136,0.0113665964,0.0125848884,-0.0005840713
8.1341428757,-0.0020700071,0.0035184689,0.0054682293,0.0039575491,0.0060883728,-0.0037243378
8.1441764832,-0.002078322,0.0006124445,0.0074974098,0.0060678381,0.0082604475,-0.0016151143
8.1554956436,-0.0050128079,0.0015636154,0.0036576784,0.0103428774,0.0072335326,-0.0005489176
8.1644210815,-0.0031088565,0.0064901183,0.0047206678,0.0093106367,0.0029503703,-0.0005204219
8.1745166779,-0.0011294161,0.0035982199,0.0038578308,0.0061128456,0.0029146844,-0.0015794277
8.1844549179,-9.87325e-05,-0.0022354655,0.0020264185,0.0082633477,0.00184436,-0.0036987714
8.1943397522,-0.0010662351,0.0007232496,0.003018359,0.0029659215,-0.0035296329,-0.0025987527
8.2046041489,0.0018745388,0.002721376,0.0059565702,-0.0034315242,-0.0035972772,-0.0047186287
8.2143449783,-2.08293e-05,0.0007860729,0.0097934995,-0.0076963101,-0.0046889069,-0.0036467065
8.2241668701,-0.0009076868,0.0007405945,0.0048166909,-0.0098382905,-0.0025951297,-0.0068459618
8.2343587875,0.0001517262,0.0016993948,-0.0011427008,-0.0098589296,-0.0004494209,-0.005797076
8.2443647385,-0.001757351,0.0026487776,-0.0012582146,-0.0120288739,0.0038089738,-0.005823175
8.2543640137,-0.0007487808,0.0026566454,0.0006210602,-0.0098753087,0.0016835046,-0.0068755234
8.2641201019,0.0012693729,0.0036686726,0.0024822748,-0.0130583197,0.0005628467,-0.0100532072
8.2751274109,0.0013403024,0.0046454738,0.0042987266,-0.0140736494,-0.0048074173,-0.0110754613
8.2847309113,0.0024203386,0.0056448053,0.0061164298,-0.0130115803,-0.0037394899,-0.0121455193
8.2943153381,0.001594397,0.005633242,0.0039921203,-0.0150789926,-0.0112530664,-0.0142211877
8.3041305542,0.002739283,0.0027176209,0.0037954247,-0.0182758495,-0.0123375058,-0.0131495316
8.3141260147,0.0038705494,-0.000207775,0.005551795,-0.0203830767,-0.0166094825,-0.0109962318
8.3242712021,0.0030269946,0.0036653348,0.0023283756,-0.0268172752,-0.0134437829,-0.009949876
8.3343105316,0.0012416567,-0.0002967647,0.0001221097,-0.0247494616,-0.0048862472,-0.011069336
8.3441028595,0.0023116793,0.0016460486,0.0018181599,-0.0215384886,-0.0059302063,-0.0110648079
8.3540964127,0.0053315484,0.0065270732,-0.0022382343,-0.0098361596,-0.0015546328,-0.0100393584
8.3640966415,0.0035034146,0.0036056705,-0.0032630169,0.0018979935,0.0006464699,-0.0132489996
8.3740959167,0.0006948437,-0.0012410812,-0.001256963,0.0093287453,0.0039482573,-0.0090268245
8.3840904236,0.0036498036,0.0047005485,-0.0021005475,0.0146183157,0.0093422234,-0.0080031054
8.3941287994,0.0027514424,0.0018466779,-0.0028813684,0.0210571736,0.0061650723,-0.0101105981
8.4040498734,0.0028076496,6.64e-08,0.0012765324,0.0253179651,0.0072668223,-0.0101207178
8.4140501022,0.0057667219,-0.0018126301,0.0074096718,0.0231904984,0.0051397551,-0.0069181332
8.4240446091,0.0029090371,-0.0036942295,0.0066587129,0.0264121257,0.0019764525,-0.0047750878
8.4339962006,0.001989695,-0.0055907895,0.0039908686,0.0285425223,0.0030507715,-0.0058450131
8.4439907074,0.0019942846,-0.0045472314,0.0022605455,0.0210640989,0.0009189111,0.0016107727
8.4540519714,0.0019805159,-0.0054828455,0.0033958948,0.0136109758,-0.0012805935,0.0005654821
8.4640321732,-0.0009238396,-0.0054833819,0.0024774468,0.0082774628,-0.0013309272,-0.000492858
8.4741430283,0.0010356631,-0.0044725467,0.0015719928,0.0061855493,-0.0066889408,-0.0004577043
8.484205246,0.0029830064,-0.0034760169,0.0025672114,0.0008557653,-0.0088405088,0.0027471439
8.4943161011,0.0019897546,-0.0025357537,0.0005497134,-0.0034156786,-0.0088676736,0.0038142723
8.5041742325,0.0039007391,-0.0005837611,0.0043584504,-0.009825374,-0.007857536,0.0027498065
8.5142660141,0.0009896483,-0.002586954,0.0061728754,-0.0108545534,-0.0131937116,0.0049110949
8.5267381668,-0.0029349003,-0.0016703538,0.0069544115,-0.0129946694,-0.0121505512,0.0038434339
8.5342130661,-6.4049e-06,-0.0016935996,0.0058782496,-0.0076280003,-0.0153242406,0.002797744
8.5442724228,2.18477e-05,-0.0007499984,0.002855221,-0.001258784,-0.0109997997,0.0027652534
8.5540065765,3.44838e-05,-0.0026893548,0.0067539015,0.0019366099,-0.0088655427,-0.0004375975
8.5639572144,0.0019268121,0.0041754316,0.0067848363,0.0104494039,-0.0055933166,-0.0004647619
8.5740041733,-0.0009852324,0.0051366757,0.0039260783,0.0125807319,-0.00556775,0.0005959752
8.5848836899,-0.0029041742,0.0002608963,0.0020809567,0.0082637481,-0.0002480859,0.001626885
8.5949516296,-1.17694e-05,0.0022659369,0.0051081576,0.0125090927,0.0029847254,0.00053925
8.6040658951,-2.30644e-05,0.0013384291,0.0081481729,0.0093260827,0.0018640673,-0.0026384338
8.613861084,0.0009641375,-0.0005613497,0.0111565981,0.0018368736,0.0028965748,-0.0005168265
8.6249933243,0.0019708897,-0.0025191836,0.0082790051,0.0028848276,0.0060929004,-0.002663068
8.634188652,0.0010112848,-0.0015335015,0.0082869325,-0.0002762116,0.0007322237,-0.0015630494
8.6453266144,4.86697e-05,-0.000588291,0.0053199925,-0.0024304427,0.0039037822,-0.0037068939
8.6541891098,0.0010710086,-0.001580768,0.0004350937,-0.0024280455,0.0038989885,-0.0037044971
8.6639537811,0.0001042809,-0.0005970529,0.0013866222,-0.0024157949,0.002821207,-0.0047599077
8.673956871,0.0030283656,-0.0005598,0.002403537,0.0007618889,0.005001537,-0.0026514833
8.6843423843,0.0010792341,0.0004236766,0.0043391981,-0.0024315072,0.0039080433,-0.0026421624
8.6939716339,0.0001076187,0.0004026958,0.0042975941,-0.0024706563,0.0071483115,0.0015874701
8.704246521,0.0001397456,-0.0015580587,0.0033077395,-0.0056520691,0.0070692152,-0.0047841426
8.7139520645,0.000136527,-0.0045068194,0.0042598047,-0.0067479592,0.008179754,0.0005190098
8.7238321304,-0.0018544171,-0.0035693578,0.004178504,-0.0110244621,0.0081648398,0.0026468758
8.7339277267,-0.0009686325,0.000310547,0.0041181841,-0.0099578667,0.0071299355,0.0058408054
8.749912262,-3.00978e-05,-0.0026646785,0.0040709176,-0.0088728946,0.0050007384,0.0058538541
8.7539730072,-0.0010810767,-0.0007585815,0.0039751329,-0.0088121742,-0.0024787497,0.0059015248
8.765007019,-0.0011042629,-0.0008165172,0.0019278325,-0.01096108,-0.0003668629,0.0048269397
8.7746248245,0.0007946219,-0.000836306,0.0037770069,-0.0109216655,-0.0056971796,0.0069886274
8.7860145569,0.0007426764,-0.0018346838,0.0066298642,-0.0023966208,-0.0035027352,0.0059060524
8.7942047119,-0.0012568508,6.61083e-05,0.0036731756,0.0007819962,-0.0013263999,0.0069496119
8.8038606644,0.0006512429,0.0020119019,0.0017565286,0.0060995296,0.0019029495,0.0048001744
8.8138990402,-0.0022832726,4.25049e-05,-0.0001144611,0.0114037469,0.0072612297,0.00264115
8.8238210678,0.0015374448,0.0049750279,5.225e-06,0.0114090731,0.0062015578,0.0037104089
8.8338632584,-0.0004073356,0.0010669299,-0.0017836295,0.0145932818,0.0094093345,0.0004982373
8.8436841965,-0.0004608307,0.0059865187,-0.0026332343,0.01246728,0.0083240969,0.0005067594
8.8542366028,0.001458409,0.0021340915,0.0004530943,0.0081922412,0.0083041228,0.0015702925
8.8644361496,0.0014431204,-0.0007727078,0.0044366517,0.0007942468,-0.0003125344,0.0005689443
8.8740921021,0.0033306207,0.0051103304,0.0073339143,-0.0034432421,-0.0046122079,0.0016625712
8.8838262558,0.0023756947,0.0040884088,0.0052896538,-0.0130250286,-0.008934252,0.0048844637
8.8941040039,0.0014227356,0.0020517178,0.0021878874,-0.0194026344,-0.0121907657,0.004910429
8.9038391113,0.0004480805,-0.0009516409,0.0019540584,-0.0247132443,-0.0154382242,0.0049351966
8.9138507843,0.0004336562,-3.49215e-05,0.0036486185,-0.0247397404,-0.0122317784,0.0049142912
8.9239273071,-0.0005621586,0.0018251606,0.0024161732,-0.0204667021,-0.0122078098,0.0038487602
8.9339923859,-0.0034798656,-0.0002275041,-0.0007035934,-0.0130388774,-0.0068063866,0.0038085466
8.9440002441,-0.0025849019,0.0075637172,0.0001443423,-0.0002370626,-0.0066892076,0.0059236297
8.9539527893,-0.0026250158,0.0085289543,-0.0007844769,0.0147289699,-0.0076761749,0.0027356923
8.9640865326,-0.001667497,0.0076239775,0.003283242,0.0211402643,-0.0076447492,0.0006062286
8.976518631,-0.0006771956,0.0086684292,0.0044010081,0.0190037433,-0.0076577989,0.0006060954
8.9850072861,0.000385734,0.0028564997,0.0016449487,0.0179749634,-0.011950016,-0.0004277437
8.9943599701,0.0004126753,0.0058402489,0.0027342236,0.0169013105,-0.0108967358,-0.0014971362
9.0043716431,0.0004584517,0.0029692717,0.0047895708,0.0072718533,-0.007773913,-0.0025730534
9.013917923,0.0014954533,0.0010368295,0.0048139491,-0.001297933,-0.0035762382,-0.0036556281
9.0242433548,0.0025453891,0.0010404654,0.0018176234,-0.0087891389,-0.0004459587,-0.0057954779
9.0339012146,0.0015995826,0.0029885836,0.0026986396,-0.0098508075,-0.001516816,-0.0057908176
9.0441789627,0.0006832208,0.0049306224,0.0035710728,-0.0087554492,-0.0036731774,-0.0089647733
9.0541000366,0.0007886018,0.0039672921,0.0025172031,-0.0066187968,-0.0026135056,-0.0110942367
9.0640544891,0.0018792476,0.004004247,0.0043837228,-0.0108604124,-0.0048111463,-0.0142641971
9.0740318298,0.0010418619,0.0011163421,0.007229785,-0.0065968242,-0.0037171193,-0.0153373182
9.0854377747,0.0011915292,0.0020967193,0.0022656715,-0.0033996999,-0.0047248593,-0.0110834502
9.0939836502,0.0012964334,0.0031098195,0.0022474921,-0.0002148254,-0.0036079299,-0.0079039028
9.1038360596,-0.0005878781,0.0041154097,0.0041547217,-0.0002148254,-0.0036079299,-0.0079039028
9.1139936447,0.0014241065,0.0061189006,0.0041889944,0.0040604798,-0.0035906194,-0.0100329667
9.1240291595,0.0005352821,0.0051659415,0.0042023459,0.0029720459,-0.0014523675,-0.008983681
9.1340007782,0.0016725387,0.0003396341,0.0013608135,0.010450202,-0.0014116209,-0.0111144762
9.1438970566,0.0027096595,0.0033446022,0.0043359199,0.0061718337,-0.0003759176,-0.0111182053
9.1555633545,0.0028606083,-0.0024606518,0.0034312403,0.0029531373,0.0017346374,-0.0111285914
9.1655216217,0.0030004706,-0.0053431322,0.0034588969,-0.0002386607,0.0016827059,-0.0143131996
9.1739683151,0.0060322606,-0.005274408,0.0054123201,-0.0066435626,0.0016342364,-0.0143089388
9.1839399338,0.0032009806,-0.0062217643,0.0102244411,-0.0077178823,0.0016440898,-0.0121834697
9.1953029633,0.0042574131,-0.0042551686,0.0062395134,-0.0066590095,0.000628893,-0.006865669
9.203953743,0.0014368023,-0.0062621762,0.0003231562,-0.0045750858,0.0060071466,-0.0047772182
9.2136573792,0.0014267291,-0.0033036403,0.002279321,0.0017962605,0.0103273261,-0.0048075784
9.2237100601,0.0003960456,-0.0003714493,0.0023575819,0.0124299964,0.0136522837,-0.0005870007
9.233707428,-0.001610962,0.0025954314,0.0044394531,0.0124387844,0.0125814257,-0.0016458738
9.2437133789,-0.0015997265,0.0026466914,0.0027200377,0.0252616387,0.0105520971,-0.0005792778
9.2537002563,-0.0015459631,-0.0080037052,0.0040352144,0.0316682719,0.0116418637,-0.0037773345
9.2636861801,0.0003627862,-0.0020415119,0.0043326416,0.0306378957,0.0063080839,-0.0016172446
9.2739133835,0.0022623863,-0.0009722046,0.0056260028,0.0348572731,0.0106546292,0.002600004
9.2861909866,0.0051541948,-0.0038078956,0.007893065,0.0167642906,0.0041019213,0.0026551313
9.2948760986,0.0051467144,-0.0067293574,0.0079880152,-0.0003313394,0.005061991,0.0058498587
9.303817749,-0.000733522,-0.0106959278,0.0098584685,-0.0120481821,0.0028156145,0.0037478262
9.3140439987,-0.003735808,-0.0030020408,0.0038195646,-0.0163374692,0.003881678,0.0079963673
9.3239240646,-0.0067443526,-0.0011591844,0.0006797708,-0.0206017233,0.0027889828,0.0090688225
9.3336687088,-0.001983491,-0.0002292923,0.0034641421,-0.0227399748,0.001732507,0.0111966878
9.3439083099,-0.0001408134,-0.0003070167,0.0033121502,-0.0141832381,-0.0003388997,0.0112041449
9.3536520004,-0.0021699939,0.0015650459,0.0021842516,-0.0131065231,-0.0003556774,0.0080152759
9.3635978699,-0.0013295088,0.0064098905,0.0040636458,0.0028886897,0.0008549956,0.0101210373
9.3736200333,-0.0014190052,0.0044521163,0.0041845837,0.016794119,-0.0022497177,0.0101343524
9.3836154938,-0.0005006169,0.0054444741,0.0023859537,0.0178386103,0.0009556629,0.0090504456
9.3962421417,0.0023587968,0.0045054625,0.0006352461,0.0157293864,-0.000171653,0.0048125582
9.4037876129,0.0023538198,0.0016028949,0.0027236736,0.0124936458,0.0051200478,0.001593329
9.4139575958,0.0014017846,-0.004216366,0.0067377486,0.0061253617,0.0007916121,0.0005609547
9.4237594604,0.0023309614,0.0006885597,0.0067483583,-0.0034953076,0.0028457083,-0.0005080381
9.4339351654,0.0052424395,0.0016639896,0.0057709613,-0.0066964272,0.0017740522,0.0026909506
9.4436168671,0.0023236598,-0.0042619039,0.0056955614,-0.0109958332,0.0049562636,0.0037357088
9.4535942078,-0.0006622646,0.0005456873,0.0016466773,-0.0142371664,0.0102591496,0.0005108872
9.4635381699,0.0012291397,0.00439126,-0.0013900006,-0.012068822,0.0049591931,0.0037309153
9.4735736847,0.0011890854,0.0024427839,0.0024976528,-0.0013950057,0.0071357945,-0.000536667
9.4835691452,0.0021248783,0.0044179033,0.0035109913,0.0028990759,0.0050132554,-0.0026506842
9.4934997559,0.0031448926,0.0034467049,-0.0003271901,0.0061185709,0.0029011022,-0.002639499
9.5035181046,0.0031171765,0.0044813822,0.0065786042,0.0093085049,0.0040036505,-0.0015864852
9.5136795044,0.0011815752,0.0005844304,0.0066799321,0.0103567261,0.0051056668,0.0005269994
9.5237083435,-0.0017170582,-0.0013785891,0.0038258827,0.0050021741,0.0072018406,0.0005171457
9.5336990356,-0.0007505093,0.000549204,-0.0019969547,0.0028768377,0.0061174016,0.0015921306
9.5437040329,0.0001814093,0.0025079318,-0.0019899809,-0.0099108629,0.0038718241,0.0005532317
9.5536899567,0.0021359648,-0.0023795895,0.0018605985,-0.0152554279,0.0048947446,-0.0005142966
9.5636844635,0.0001857604,-0.0043833186,0.0026603735,-0.0248286948,0.001596153,-0.0026110034
9.5741529465,0.0030399587,0.0053436826,0.0024443662,-0.0184613392,0.0048795645,0.0005501688
9.5838880539,-0.0008726094,0.0042674015,0.0012826122,-0.0163089726,0.0027586231,0.0005624194
9.5943202972,-0.0008713875,0.0042350958,0.0002143777,-0.004543528,-0.0003500849,0.0016379368
9.603767395,-0.0008757387,0.0042247842,-0.0007912123,-0.002393025,-0.0014204094,-0.0004814067
9.6137723923,0.001065823,0.0081772869,0.0021456277,0.0051023085,-0.0035163171,-0.0025987527
9.6236944199,0.0021267261,0.006244726,-0.0026520097,0.0115487557,-0.0077597983,-0.0047005191
9.6337747574,-0.0007672582,0.0043227146,0.001327852,0.0115041491,-0.0024148338,-0.004735806
9.6438093185,0.0012127187,0.0092690056,0.001414398,0.0093922624,-0.0056284703,-0.0036511007
9.6539239883,0.0022627439,0.0034484931,0.0014881289,0.0029471451,-0.0013876524,-0.0015480025
9.6636772156,0.0003730382,-0.0043523838,0.0044637122,0.0007982403,0.0007242344,-0.0026225878
9.6736717224,0.0013274278,0.0015135475,0.0015147127,0.0007728087,0.0028816611,-0.0005126987
9.6843204498,0.004276725,0.0015262433,-0.0023234689,-0.0002929885,0.0039149676,-0.0037058289
9.6936855316,0.0052368962,-0.0013432435,0.0055344501,0.003953421,0.0061008898,-0.0015968716
9.7047557831,0.0043295943,-0.0042585065,0.0026892817,0.0050628935,0.0018161302,-0.0036946437
9.7147655487,0.001376095,0.0035287209,0.0016919172,0.0018535182,0.0018100049,-0.0015678429
9.7237739563,-0.0005535756,0.001591272,0.002695719,0.0061494634,-0.0013631514,-0.0015502661
9.7334489822,0.0004146721,0.0006735393,0.0086369906,0.0082927756,-0.0024148338,-0.0015452062
9.7434873581,-0.0005032693,-0.0002891949,0.0047918954,0.0093654972,-0.0034662499,-0.0004767459
9.7538204193,0.0005325999,-0.0032279424,-0.0009974444,0.0072666598,-0.0077592656,-0.0004466523
9.7637825012,0.0015026655,-0.0031611256,0.0049161711,0.0051073683,-0.0056202146,0.001665767
9.7734622955,0.0024894204,-0.0031740598,0.002977649,0.0029723123,-0.0056361933,0.0016670988
9.7836999893,-0.0014382277,0.0007000634,0.0009814894,0.0008305982,-0.0056345956,0.0037933665
9.7937145233,-0.0004785929,-0.0012490682,0.0039111176,0.0018985262,-0.0045805164,0.0016633705
9.8053274155,0.0024234976,-0.0022029809,0.0058848658,0.0019003907,-0.0056311334,0.0037949644
9.8136930466,0.0014567103,-0.0051443507,0.0058886805,0.0029543359,-0.0045426991,0.0048483778
9.8238239288,-0.000530449,-0.0032225184,0.0029716289,0.0093323402,-0.001286985,0.0048228111
9.8351011276,-0.0016071473,0.0026431747,0.0039980807,0.0114390338,0.0019391684,0.0047987099
9.8445606232,-0.0006933485,0.0026720234,0.0070537725,0.0135703618,0.0019647346,0.0058594472
9.8535346985,0.0002895917,-0.0031623773,0.0062615671,0.0157208648,0.0008944101,0.0037401034
9.8634119034,-0.0026475464,-0.0041586687,0.0014881886,0.015703287,0.0030318631,0.0037262547
9.8733320236,-0.0008120213,0.004686303,0.0045294561,0.0157059506,0.0019796481,0.0058586476
9.883395195,-0.0018489037,0.0047038863,0.006603519,0.012533593,-0.0012603535,0.0048194826
9.8933992386,-0.0018275355,-0.0021214418,0.0057470598,0.0050313352,0.0018984219,0.005865972
9.9033889771,-0.0019045447,0.0027661391,0.0067672529,0.0071589346,0.0040252223,0.0026635206
9.9134788513,0.0009848203,0.0037799545,0.0078161154,-0.0003069704,0.0039514527,0.0005433778
9.9233789444,0.0010339941,-0.0020787648,0.0068678656,-0.0013639787,0.0039160326,-0.002642828
9.9333667755,0.0001198079,-0.0050375988,0.0029433167,-0.0056383535,0.0049416162,-0.0037083589
9.9431619644,0.0010882344,0.0008428165,0.0028970039,-0.0066865738,0.0038374697,-0.0068876403
9.9533967972,0.0001366462,-0.0011023215,0.0086768065,-0.0130909439,0.0037879345,-0.0068828468
9.9633150101,-0.0016995941,-0.0089695388,0.0046689906,-0.0163386688,0.0080652377,-0.003721142
9.9736766815,-0.004629401,-0.0032028488,-0.0033123696,-0.012065893,0.0070449812,-0.001591412
9.983537674,-0.0027957235,0.0055942605,0.0024722016,-0.0067427661,0.0071224794,0.0026539329
9.9954452515,-0.0028496061,0.0046141814,0.0072917142,-0.0099120606,0.0028273328,0.0026817631
10.0037631989,-0.0037962173,0.0006378957,0.0032873547,-0.0141448881,-0.0004390345,-0.0004812733
10.0134792328,-0.0008584235,0.0006523796,0.0022758639,-0.0013381476,-0.0003338396,0.0005729392
10.023516655,0.0010766711,0.0045453976,-0.0006583535,0.0007878542,0.0007513985,0.0005644169
10.0386714935,-0.00280982,0.0025577017,-0.0016490424,0.0007664161,0.0029008356,0.0026783012
10.0439310074,-0.0018502746,-0.0003429583,0.0022901094,0.0029344959,-0.0003069418,0.000572806
10.0536136627,0.001969489,0.0055632065,0.006228725,0.0018671006,-0.0013620862,0.0027033349
10.0635490417,0.0019491639,0.0036392875,0.0121054444,-0.0002378616,-0.0045938324,0.0016633703
10.0735626221,0.0019877877,0.0016622015,0.009135047,-0.0013369489,-0.0003362366,0.0005741375
10.0835056305,0.0049611353,0.0006890365,0.0032996333,0.0018228916,0.0060737263,-0.0026568095
10.0932617188,7.14685e-05,0.0065216492,0.0013237393,0.0028720442,0.0092676543,-0.0048018526
10.1032524109,-0.0028034125,0.0035775967,-0.0025032961,0.011402416,0.010402428,-0.0048151687
10.1134710312,-0.0027488742,0.0016707845,-0.002383908,0.0039128079,0.0145742688,-0.0101489481
10.123260498,0.0002097215,0.001769013,0.0026278293,0.0049993778,0.0134866349,-0.0133298272
10.1335458755,0.0050988519,0.006763346,0.0066094794,-0.0024857027,0.0145066259,-0.0133356862
10.1432857513,0.0051523172,0.0077965925,0.0095869098,0.002842484,0.0156166321,-0.013346605
10.1533966064,0.0043377602,0.0019431182,0.0038019812,-0.0003180234,0.0113017773,-0.0143757835
10.1634197235,0.0034604396,0.0019656487,0.0018477835,-0.0035463069,0.0123910103,-0.0090686362
10.173415184,0.0005909528,0.0029458471,0.0018000401,-0.0056918813,0.0134472204,-0.0090759601
10.1863651276,0.0016020264,0.003005869,0.0067103305,-0.0035184762,0.0091797709,-0.0101121962
10.1935358047,0.0016751613,0.0039912532,0.0047396817,-0.0088566495,0.0091430191,-0.0090436023
10.2044591904,0.004718157,0.0001172491,0.0018070138,-0.0056334259,0.0070212791,-0.0100944862
10.214179039,0.0018308486,0.0011013218,0.002767483,-0.0045706909,0.0080878744,-0.0111638783
10.2234954834,0.0009336795,0.0020603009,0.0007560647,-0.0077710133,0.0070124902,-0.0090298876
