0.0000000000,-0.0140328808,0.0011499856,0.0082849022,0.1572582275,0.0741028637,-0.0128490683
0.0098019838,-0.0111387474,-0.0256948136,0.0184157845,0.0602174327,0.0563787259,0.0022071125
0.0198150873,0.0014964535,-0.0295854472,0.0020900127,-0.0580082759,0.0223770831,0.0078221215
0.0297950506,0.0006117119,-0.03198817,0.0038340446,-0.2112391144,-0.0176779237,-0.0300245937
0.0396950245,-0.0096852584,-0.0416273139,0.0150905009,-0.3102263808,-0.0505538508,-0.0361205712
0.049759984,0.0090207355,-0.0192248486,0.013902938,-0.3677972853,-0.0720934942,-0.0030065579
0.0602530241,0.026694376,7.23336e-05,0.0123511907,-0.3783425987,-0.0902879462,0.0045589502
0.0699410439,0.0046511185,-0.0131722949,-2.25547e-05,-0.3389155567,-0.0835339054,0.0087371841
0.0798920393,-0.0106919808,-0.0076393154,-0.0187697653,-0.2631165385,-0.0840289816,0.0076267784
0.0899660587,-0.0173123591,0.0013420914,-0.0257840995,-0.143715322,-0.0565763228,-0.014944843
0.0999330282,-0.0208986215,-0.0008786585,-0.0218619946,-0.0273647457,-0.0567345135,-0.0139634684
0.1099489927,-0.0090252561,0.0063136551,-0.004100645,0.088787429,-0.0281382874,-0.0248539317
0.1201680899,-0.0292244665,0.016459737,-0.0128729586,0.1921004951,0.0014835197,-0.0293685235
0.1300799847,-0.0290235095,0.027054403,-0.0255150441,0.2698975503,0.0149561847,-0.024198262
0.1398910284,-0.0151738031,0.0185059048,-0.0217455868,0.308147341,0.0366292559,-0.0243661758
0.1499010324,-0.0170494132,0.0030627584,-0.0082097892,0.2759750187,0.0493240133,-0.0106149428
0.1599520445,-0.0161839537,-0.0096339248,0.0039868113,0.219339177,0.0501016565,0.0074838996
0.169885993,-0.0042792368,-0.0047784117,0.0148696657,0.1287147403,0.0334414542,0.0161543544
0.1799080372,0.0115868347,-0.0067851213,0.0197203513,0.0339401588,0.0070234272,0.0121411029
0.1898980141,0.0101756053,-0.0178078674,0.0164226647,-0.0938625485,-0.0281755719,0.0113962162
0.1998710632,0.0135900276,-0.0272656344,0.0183709618,-0.2568675876,-0.0657948554,0.0096298754
0.2098810673,0.0192078538,-0.049304571,0.0347364321,-0.3506441414,-0.0951596722,0.0353831723
0.2199060917,0.0287671275,-0.0222161077,0.0295665022,-0.4017643034,-0.1157253981,0.0514878444
0.2299010754,0.0260816403,-0.0019387867,0.0117653962,-0.4178050756,-0.1126339957,0.0525413901
0.2398819923,-0.0034559474,-0.0052088764,-0.0043151621,-0.3760401607,-0.1565905362,0.1239768267
0.2499220371,0.0139962034,0.0038940047,-0.0100182537,-0.272469312,-0.4305701554,0.4890189767
0.2598520517,-0.0216490738,0.0106354095,-0.0262264851,-0.089614667,-0.4990410805,0.5658268332
0.2699149847,-0.1246448234,0.0155057646,-0.0260591749,0.0230293199,-0.1489640474,0.1544573605
0.2799340487,-0.0755379274,0.02395216,-0.0082007889,0.0618314445,-0.0140416436,0.0228800345
0.2899130583,0.0189523585,0.0281570293,0.0045566317,0.2131866217,0.016973529,0.0130116902
0.2998790741,-0.018240016,0.0329344012,-0.0163077358,0.3080866337,0.0326057523,0.0054079657
0.3099130392,0.0018593266,0.0258595683,-0.0094889048,0.316614598,0.0389755033,-0.0073879901
0.319855094,-0.0053855884,-8.48438e-05,0.0005170461,0.3069506288,0.045325011,-0.0063612089
0.3299200535,-0.0013112233,0.0046930048,0.0013894793,0.2621466815,0.0396799073,-0.0009813571
0.3398350477,0.0023895099,-0.0086239241,0.0078318473,0.194944635,0.0285905041,0.0140153021
0.3498210907,0.0187856741,-0.0042321351,0.0205049869,0.0958667696,0.0043197861,0.015304273
0.3598850965,0.0222171731,-0.01041409,0.0245638844,-0.0447895415,-0.0277244337,0.0198586769
0.3698400259,0.0167985149,-0.0157227777,0.0295147058,-0.1321865022,-0.0527919717,0.0423924848
0.3798509836,0.0244092233,-0.012680199,0.0217092987,-0.228053242,-0.0749683753,0.0362311229
0.3898280859,0.0158904679,-0.0141148828,0.0161395427,-0.2781962752,-0.0775119588,0.0341578536
0.3998410702,0.0021996989,-0.0113933347,0.0066451784,-0.2611549795,-0.0741459951,0.0373110361
0.4098290205,0.0007477595,0.009974096,-0.0054289345,-0.2377210557,-0.071745418,0.0468406267
0.4198240042,0.0023539558,0.0112004615,0.0036384221,-0.1758792549,-0.0595888905,0.037155509
0.4298150539,-0.0012318001,0.0201673843,-0.0006544236,-0.0895153359,-0.0461226143,0.0338206999
0.4398610592,0.0021294251,0.0315424539,-0.0011676195,0.0033063488,-0.0348372012,0.0198727921
0.449794054,0.0059410227,0.0257197954,-0.0019261483,0.0854403675,-0.0204619933,0.001661564
0.4598330259,0.0026685491,0.0201134421,0.0029735919,0.1516316384,-0.0189373344,-0.0047681062
0.4697870016,0.0075007272,0.0148585178,0.0045799967,0.1953295767,-0.009016525,-0.0091125201
0.4798470736,0.0018879964,0.016618643,0.0024801847,0.2081013024,-0.0025471747,-0.0144769261
0.4898070097,-0.003922652,0.0114539601,0.0081208702,0.168594107,-0.0049085999,-0.0048725018
0.4997739792,0.0065959287,0.0128826238,0.0208350178,0.0958868787,0.0053136777,0.0067998669
0.5098090172,0.0122587578,0.0022504663,0.0261457916,0.0425528213,-0.0035583768,0.0175185576
0.519759059,0.0214925893,0.0049048993,0.0210439917,-0.0194005612,-0.0060122139,0.0367010422
0.5297650099,0.0102529721,-0.0026536251,0.001718199,-0.0781035572,-0.0085675167,0.0410081707
0.5397590399,-0.0067234444,-0.0132177137,0.005246615,-0.1313794255,-0.0186390597,0.0357962325
0.5497959852,-0.003443788,-0.0041657356,0.0173898097,-0.1526058912,-0.0348079093,0.0391030759
0.5597420931,0.005850513,0.0108147003,0.0264916178,-0.16629453,-0.0500446521,0.0200905055
0.5697610378,0.0030784502,0.0111663677,0.0228766557,-0.1396139264,-0.0435526669,0.0051562968
0.5797580481,-0.0065362561,0.0045882794,0.004789805,-0.0873428583,-0.0378383175,0.0008319893
0.5898060799,0.0060589206,0.0179003812,-0.0049704555,-0.052145455,-0.0322675183,-0.0045406716
0.5997470617,0.0058694673,0.0098519064,-0.0004965308,3.69186e-05,-0.0137705337,-0.0131944809
0.6097350121,0.0019248023,0.0168449618,-8.90139e-05,0.0457974821,0.0057672141,-0.0197274797
0.6197220087,0.0072351289,0.0124088861,-0.0022484306,0.0692278445,0.01340516,-0.0229817312
0.6297190189,0.0192392953,0.0050708386,0.0024139043,0.0937393084,0.0178790037,-0.0219654683
0.6397190094,0.0202445872,0.0013736222,0.0058481451,0.0926755071,0.0199530739,-0.0283521283
0.6496380568,0.0057951999,-0.010247793,0.0119612571,0.0563944653,0.0196452122,-0.0315119699
0.6597310305,0.0002878501,-0.0178658627,0.0103212353,0.028623024,0.0215733424,-0.0304408446
0.6697100401,0.0040696454,-0.0109209083,0.0144344326,-0.0055250935,0.0223326087,-0.0357338786
0.6797250509,0.007905324,-0.0061044958,0.0171073433,-0.0621150061,0.0208947677,-0.0282507949
0.6897150278,0.0060102534,-0.0161272548,0.0223000403,-0.0876773521,0.0090492936,-0.0154074337
0.699729085,0.0106268423,0.0001248453,0.0214403626,-0.1089548171,-0.0007106588,-0.0121404007
0.7096210718,0.010439028,-0.0081891082,0.018553054,-0.1121900231,0.0003966836,-0.0047085844
0.7196969986,0.0082152681,-0.0086577199,0.0138073321,-0.0790745392,-0.0025533,-0.004712712
0.729804039,0.0140948789,-0.0001041557,0.0024694558,-0.0470404476,-0.0033834074,-0.0057920911
0.739782095,0.0123492973,-0.0030709768,0.0031728502,-0.0245777462,-0.0085627232,-0.0068365829
0.7496850491,0.007595141,-0.0059763459,0.0137469526,0.0128633687,-0.0158091839,-0.0131900869
0.7597190142,-0.0010920868,0.0018447373,0.0079565402,0.0533583313,-0.0048646573,-0.0196626335
0.7698839903,-0.0028689012,0.0098115541,-0.0043754224,0.0735602751,0.0007263828,-0.0090890843
0.779728055,0.0029987588,-0.0036000276,0.0021270271,0.1035089791,-0.0075706956,-0.0069331229
0.7896550894,0.0009567632,0.0015820597,0.0038987156,0.1204275116,0.0107569136,-0.0038766125
0.7996770144,-0.0108679337,0.0027547216,0.0017261859,0.0840091854,0.0202201884,0.0109615885
0.8096730709,-0.002527307,-0.0020247961,0.0004663226,0.0380438231,0.0189956669,0.0343742371
0.8196300268,-0.0002544032,-0.0020810629,0.0134375449,0.0027654618,0.020957619,0.046073772
0.8298780918,-0.0006786392,-0.000487354,0.0100632068,-0.0728336871,0.0010619413,0.0377564542
0.8396999836,-0.004795264,-0.0214643739,0.0170440432,-0.102730602,0.0029463938,0.0345753059
0.8496470451,-0.0079614623,-0.0151434205,0.0005516168,-0.0813369006,-0.0032827398,0.0367255434
0.8596200943,0.0033666685,0.004934642,-0.0120145325,-0.1143318638,-0.0121513326,0.0293690898
0.8695989847,-0.0056076157,-0.0053120521,0.0063510891,-0.1335116774,-0.0155242262,0.0272795744
0.8796030283,-0.0028138564,-0.004710522,0.0179418679,-0.1163422912,-0.0281774364,0.032664489
0.8896070719,0.0106010931,0.0115936138,0.0151248332,-0.0832937956,-0.0204947498,0.0262172408
0.899592042,-0.0117403073,0.00815228,-0.0051510576,-0.0224074051,-0.0201416146,0.0123612126
0.9095920324,-0.004867177,0.0100803114,-0.0159184579,0.0213134456,-0.0134179322,0.0090999054
0.9196259975,0.0050035906,0.0084280111,-0.0057687405,0.058619272,-0.0035796822,0.0005093473
0.9295990467,0.0051996899,0.0077451798,-0.0138205532,0.0831291452,-0.0001474002,0.0047195386
0.939586997,0.0137989419,0.0101317503,-0.0097923521,0.1044651866,4.994e-05,0.0089548966
0.9495739937,0.0167229064,0.0065794322,-0.0030936841,0.075636737,0.00089576,0.0089695444
0.95956707,-0.0027795539,-0.0021892453,0.0078141447,0.0330160409,-0.0079981321,0.0069300956
0.9696700573,-0.0050205993,0.0045560929,0.0164450761,-0.009644337,-0.0146954497,0.0123152733
0.9795930386,-0.004076432,0.0092915632,0.01220355,-0.0534014069,-0.0192337427,0.0208730754
0.9895740747,-0.0040883827,-0.0036980773,0.0087404009,-0.0896419734,-0.0248761829,0.0188101903
0.9995820522,-0.0041675079,-0.0148652457,0.003054237,-0.0917992666,-0.0237880144,0.0230543371
1.0095430613,0.0082989531,-0.0053348807,0.0023980495,-0.0874162316,-0.0313718989,0.0071645873
1.0195500851,0.0158249624,0.0041333172,0.004560804,-0.0960764289,-0.0185714159,0.012401294
1.0295209885,0.0136496024,0.0076331231,-8.31726e-05,-0.0694181845,-0.0130666606,0.007035024
1.0395630598,0.0107102292,0.0182142593,0.0013330338,-0.0321038403,-0.0011580698,-0.0090038627
1.0495390892,0.0050882292,0.0024839973,-0.0008455756,-0.0044815335,0.0140368612,-0.0069969054
1.0595530272,0.0080283778,0.0064459178,-0.0027196053,0.0264261812,0.020672394,-0.0091872215
1.0695999861,0.0022072687,0.0134017803,-0.0043497924,0.0401774123,0.0367925093,-0.0114261415
1.0795900822,-0.0113163693,0.0106375553,-0.0077068452,0.0679788217,0.0326957703,-0.0156684238
1.0895190239,-0.0036786899,0.0159431435,0.0058640596,0.0872324035,0.0275097936,-0.0145858489
1.0995360613,-0.000911902,0.0074623558,0.0174438711,0.0680292845,0.0221067723,-0.0039128317
1.1095290184,-0.0029437051,-0.0050632623,0.0162129756,0.0723462701,0.016787108,-0.0049437415
1.1194490194,-0.0059916782,0.0047223303,-0.0009582284,0.0392455757,0.0196990091,-0.0091880206
1.1294690371,-0.0128806932,0.0066479179,-0.0056934599,-0.0066801067,0.0194164477,-0.0006549866
1.1394640207,-0.0062995064,0.0066261026,0.0030604955,-0.0269451626,0.0150368791,0.0057629654
1.1498770714,-0.0025463209,0.016239021,-0.0021214131,-0.04714524,0.0083952211,-0.0026789892
1.1622750759,-0.003356348,0.0053877565,0.0061800238,-0.0789244771,-0.0165396892,-0.0152448481
1.1700940132,0.0027980998,-0.0035822655,0.0121255275,-0.103287071,-0.0349975266,-0.0267944448
1.1800969839,0.0079854624,0.005909774,0.0138307568,-0.1063723415,-0.0478763096,-0.0298948959
1.190144062,0.0064568114,0.0182646252,0.0056864973,-0.1127556711,-0.0500723496,-0.0309385918
1.1999400854,0.002125968,0.0082339384,0.0036455747,-0.1042065248,-0.0510795563,-0.0320026539
1.2093100548,0.0064946306,0.0090836622,-9.7597e-05,-0.072281085,-0.0411680676,-0.0267772675
1.2194670439,0.0049640429,0.0080001093,-0.0045815948,-0.0307553466,-0.025935322,-0.0322139785
1.2292780876,-0.0084257824,0.010915909,-0.0067032818,0.0224016123,0.0011775224,-0.0345517024
1.239315033,-0.0062928307,0.0199318267,-0.0093181375,0.0499954224,0.0185381379,-0.0293721184
1.2492790222,-0.0090423031,0.0172770955,-0.0125250462,0.0936179981,0.035976246,-0.029515665
1.2593050003,-0.0138406856,0.0137421228,-0.0115501527,0.1116151065,0.056372866,-0.0360372104
1.2692750692,-0.0148221953,0.0112603046,-0.0055259708,0.1169206649,0.0585878193,-0.0318057165
1.2793290615,0.0066207242,0.0138774253,0.0035903808,0.1085076034,0.0456429906,-0.038090378
1.2892280817,0.0194996186,0.0036939716,0.0076712128,0.0926580653,0.0283652004,-0.0443416126
1.2992780209,0.0228040405,-0.0124622248,0.0143364426,0.054496035,-0.0019032223,-0.0494298488
1.3092230558,0.0233421512,-0.0141002201,0.0203787442,-0.0019376809,-0.0142054288,-0.0620593578
1.3192150593,0.0044929278,-0.0180356763,0.0160751101,-0.0370593145,-0.027296463,-0.0619529672
1.3292090893,0.009034683,-0.0102381371,-0.002016509,-0.0551855862,-0.0306248814,-0.0597939417
1.3392649889,0.0154305594,-0.0053527621,-0.0026527289,-0.0819387734,-0.0306499153,-0.0374605395
1.3492400646,0.0137988226,-0.0015859868,0.0100324508,-0.11828053,-0.0297532286,-0.0246922784
1.359224081,0.0090180831,-0.0059477356,0.0165312644,-0.1375081539,-0.0371839814,-0.0012579265
1.3691810369,0.0098244445,0.0003464554,0.014246678,-0.1258909106,-0.027356917,0.0124813216
1.3791880608,0.002737303,0.0056054327,0.008166587,-0.1121952087,-0.0090000145,0.0219143704
1.3892040253,-0.0062439549,-0.0056448248,0.0063565131,-0.064229548,0.0020044339,0.0154351667
1.3991960287,-0.0072473693,-0.0039325622,-0.0105594043,-0.0012668306,0.0056636175,0.0111168511
1.4093390703,-0.0015272007,-0.003761139,-0.0110320095,0.0659308434,0.017812958,-0.0038823383
1.4193450212,0.0023010566,-0.0111666583,-0.0031187776,0.1225140989,0.0213600229,-0.0145657416
1.4293299913,0.0080881314,-0.0027481581,0.0060124155,0.1577533185,0.0247299857,-0.0273608994
1.4393570423,0.0091115432,0.0037481522,0.0181130525,0.152494505,0.0171615481,-0.0336865708
1.449344039,0.0034727945,0.0013618801,0.0222815033,0.1396854967,0.0191546585,-0.0390025079
1.4593240023,-0.005953412,-0.0031304026,0.011595821,0.1076615155,0.0157769714,-0.0293940902
1.4693490267,-0.0055627334,-0.0116145276,-0.0013676527,0.0553873926,0.0111156404,-0.0272025745
1.4793400764,-0.0043026912,-0.0221336149,-1.00377e-05,0.0073863119,0.0033397428,-0.018621603
1.4891459942,0.0064894152,-0.02298465,0.0097191092,-0.0459072702,-0.0108668897,-0.0068059564
1.4991329908,0.0122854011,-0.0201549791,0.0228634831,-0.0790029019,-0.0152890692,0.0059945267
1.5091520548,0.000401844,-0.0060313013,0.0178317782,-0.1174056903,-0.0229677595,0.0177574437
1.5195660591,-0.0036746666,8.78904e-05,0.0094207283,-0.1750852168,-0.0222628228,0.0273544099
1.5293049812,-0.0144909425,-0.0095335506,0.0046970602,-0.1750942767,-0.0191019177,0.0220219623
1.5392950773,-0.011767189,0.000549588,0.001130676,-0.1665516645,-0.0221813284,0.0294740219
1.5492950678,-0.000178139,0.003004763,-0.001148546,-0.1451848596,-0.0210199244,0.0209524371
1.5592880249,-0.0040357518,-0.0052310494,-0.0011771562,-0.1014116779,-0.0186161548,0.0124070197
1.5693089962,0.0057110083,-0.0073681143,0.0001451132,-0.0639881343,-0.0237251632,0.0060396679
1.579282999,0.0116335647,-0.0123391412,0.0036829468,-0.0138147138,-0.0202145856,-0.0035786049
1.589359045,0.0039279354,-0.0075072912,-0.0051614884,0.0426640064,-0.0080300905,-0.0047594504
1.5993090868,0.003865768,0.0093188025,-0.0047075991,0.0799157694,0.0040420182,-0.0016765753
1.6093280315,-0.0017824576,0.0028451418,-0.0038048867,0.1182639599,0.0191836879,-0.0156126311
1.6192669868,-0.0093848808,0.0013597343,-0.0093899015,0.1555278301,0.0343615748,-0.0242358129
1.62926507,-0.0033888922,-0.0029011036,-0.0117540602,0.1469130367,0.0439050123,-0.0253540743
1.6393010616,0.0034131899,-0.0031566287,0.009239709,0.125469014,0.0565395802,-0.0286092572
1.6492730379,0.0013120666,0.0050204131,0.0150790568,0.0667862594,0.0445196703,-0.0061801141
1.6593310833,0.0059995246,0.0042509171,0.0215313789,0.0282919928,0.0496292077,0.001250505
1.6692759991,0.0009756579,0.0011992786,0.0089663621,-0.0324379317,0.0289977025,0.0184249654
1.6792650223,0.0123876827,-0.0117327236,0.010579085,-0.0942722708,0.0136834607,0.0334409326
1.6892520189,0.0131311314,-0.0249183439,0.0106422659,-0.1294134706,0.0016912462,0.0377928056
1.6993120909,0.0107867019,-0.0118814372,0.0054540392,-0.1506751031,-0.0133391023,0.0495927371
1.709338069,0.0074182046,-0.0037640596,0.0059929248,-0.1548884809,-0.0197935402,0.0485751443
1.7192360163,0.0012510612,-0.0044366387,0.007512426,-0.1302160323,-0.0314259604,0.0411980525
1.7292250395,-0.0029006407,0.0018264387,0.003356969,-0.0981470346,-0.0344387963,0.0348208472
1.7392690182,-0.0060005295,0.0024021601,0.0015492793,-0.0480564423,-0.020255331,0.0230068006
1.7492229939,-0.0119647188,0.0119396187,-0.0095520858,-0.0012551146,0.0045890315,0.0111267054
1.7592850924,-0.0197962634,0.0119162537,-0.0180976037,0.0585480332,0.0081126597,-0.0059361681
1.769231081,-0.0158825628,0.0113043524,-0.0143183712,0.1065648198,0.0116631864,-0.0091798985
1.7792100906,-0.0080190701,0.0098888613,-0.0091898683,0.1268201619,0.0192049928,-0.0209309645
1.7892150879,-0.0050140726,0.005504224,-0.0050900821,0.1129056811,0.0212894492,-0.0145604163
1.7991989851,-0.0020758912,0.0039506885,-0.0001980308,0.0883429497,0.0190417413,-0.004966245
1.8092710972,-0.0012813613,0.0217532851,0.0003569481,0.0445203669,0.0230415426,0.0024751595
1.8192030191,-0.0032351122,0.0130104758,-0.001341665,0.0093938019,0.008919864,0.0079037473
1.8291890621,0.0094122784,0.0062686536,0.0075213667,-0.0331720337,-0.0063906489,0.0059079742
1.8391840458,0.0037361577,-0.0056865481,0.0021185633,-0.0853360295,-0.0238881502,0.0071214433
1.8492929935,0.0028352633,-0.008958783,0.0040665623,-0.1194133088,-0.0358630531,0.0125348512
1.8591210842,0.0027210012,0.001365218,0.0116090532,-0.1246718466,-0.0486600734,0.020055484
1.8691660166,0.0084137516,0.0194383003,0.0054031368,-0.1342288703,-0.0572298616,0.0264920797
1.8791970015,0.0122997062,0.0091938116,0.0080417152,-0.1310832798,-0.0507828817,0.027510073
1.8891760111,0.0015412464,-0.0010652806,0.0137388464,-0.0830545053,-0.0462179594,0.0178854093
1.8991850615,0.0054821563,0.0132755376,-0.0103557948,-0.0275726039,-0.0373618789,0.0039807782
1.9091610909,-0.0022300885,0.0073307487,-0.0105086211,0.0225504842,-0.0274458677,-0.0067424402
1.9191820621,-0.0030806467,0.0095094778,-0.0052445773,0.0694414228,-0.0132943606,-0.0196173601
1.9291440248,-0.0028881535,0.0167491771,-0.0025143865,0.1088711247,-0.0002728351,-0.0324780308
1.9391460419,-0.0045734155,0.024054978,-0.0054677967,0.1226511151,0.0168174691,-0.0464100912
1.9491350651,-0.0120104952,0.0108147599,-0.0092581753,0.1161221117,0.0306885429,-0.0433083102
1.9591690302,-0.002034615,0.0045618149,-0.0041401628,0.1139902547,0.0285723954,-0.0390443206
1.9691540003,0.0147104757,0.0052007171,0.0115399119,0.0830973163,0.0208518915,-0.0389726833
1.9791160822,0.0177517422,-0.0051734713,0.0278079268,0.0276084915,0.0109712975,-0.018682057
1.989049077,0.0149515169,-0.0119433664,0.0327357426,-0.0299442839,-0.0032955229,-0.0100502195
1.9994220734,0.0043705297,-0.0093367957,0.0174861904,-0.0758553147,-0.0015242544,-0.0110909827
2.0093679428,-0.0179430656,-0.0118327998,0.00473479,-0.1100271344,-0.0048859627,0.0017033755
2.0191059113,-0.0092938049,-0.0004909899,0.0026719924,-0.1217414439,-0.0102759339,0.0070588593
2.0291061401,-0.0044407058,0.0030856465,0.0026559588,-0.1057078838,-0.0112570422,0.0028044595
2.0391230583,-0.0034991608,0.0105938651,0.0037295576,-0.0746784583,-0.0195810199,0.0007097502
2.0490851402,0.009211977,0.0114724971,0.0042207595,-0.044756785,-0.0194404032,-0.0099359695
2.0591640472,0.0075088632,-0.0032386447,0.003028905,0.0149974925,-0.0116059165,-0.0227770656
2.0690450668,0.000864078,0.0046639177,-0.0017372612,0.057624314,0.0004078689,-0.031383872
2.0791101456,-0.0085038645,0.002963159,-0.0109085087,0.0938182697,0.0176763367,-0.044268243
2.0890820026,-0.0080722673,0.0044641229,-0.0119041447,0.105555892,0.019868385,-0.0485402197
2.0991079807,-0.0028517351,0.0021421646,0.0017695186,0.0863026977,0.0240066722,-0.047492668
2.1089811325,-0.0054529714,-0.0042714742,0.0160851236,0.0469534285,0.0045003486,-0.0430891328
2.1190650463,0.0074876142,-0.0019390847,0.030033743,0.0054267584,-0.0107284049,-0.0365875512
2.129101038,0.0087329047,-0.0077498225,0.0308936592,-0.027688317,-0.0119625144,-0.0259325132
2.139029026,0.0041606319,-0.0099613927,0.0079428311,-0.0565515235,-0.0131153967,-0.0089035956
2.1489648819,0.002337028,-0.0102350377,-0.0044067148,-0.0758381337,-0.0067973137,-0.0025567499
2.1590352058,-0.0054693925,-0.0105529092,-0.0013168099,-0.1036957353,0.0037208411,0.0027063219
2.1690440178,-0.011389981,-0.0157975219,0.0046680328,-0.1016080827,0.006997861,0.0090579614
2.179172039,-0.0019406781,0.0034774875,0.004888868,-0.0749170855,0.0040492089,0.0143675059
2.1891570091,0.0056735468,0.0139963962,0.0062148329,-0.063140586,-0.0001348833,0.0143864136
2.1990351677,0.0075660539,-0.0037603641,0.0174905416,-0.0353040248,-0.0095512886,0.0133673558
2.2093601227,0.0094834166,-0.0029295946,0.0084390398,-5.57583e-05,-0.0093422299,0.0059046457
2.21935606,0.0056271744,-0.0009812977,0.0036401507,0.0298034698,-0.0006717767,-0.0069202064
2.2300181389,0.0038310185,-0.0066423086,-0.0007346514,0.071436666,0.0027748863,-0.0165331531
2.2415919304,0.0089276629,-0.0032815004,-0.0037316922,0.1162293106,0.0126323104,-0.0293774456
2.2501158714,0.0014277294,-0.0027719999,-0.0035325531,0.144994095,0.0224103723,-0.0368976817
2.2591249943,-0.0012620196,-0.0002423789,-0.0003343466,0.1299829334,0.031884037,-0.0401347503
2.2690238953,0.0018973842,0.0002889369,0.0017298218,0.1065825373,0.0241669938,-0.0464427136
2.2787950039,0.002221097,-0.0080280565,0.0084818359,0.0799143016,0.0186886042,-0.037889041
2.2891850471,0.0063720238,-0.0165349506,0.008982515,0.0116122151,0.0118565317,-0.0250483435
2.2990570068,0.0035267964,-0.0234781168,0.0077964421,-0.0577877611,0.0030047172,0.00268009
2.3090028763,0.0033373728,-0.0169585608,0.0099633094,-0.111188136,-0.0015109387,0.0229320973
2.3188471794,-1.58058e-05,-0.0038829709,0.0115940925,-0.1603085399,-0.0070697544,0.04105784
2.3287701607,-0.0071033943,-0.0192747973,0.0092046019,-0.1581961215,-0.0080404775,0.0506241806
2.3388130665,-0.0026614175,-0.0092143677,-0.0048114303,-0.1315357536,-0.0046316311,0.050585296
2.3489289284,-0.0050446498,-0.0048752096,-0.0086959247,-0.076001659,-0.0053253844,0.0441766642
2.3589038849,0.0003619685,0.009551201,-0.0051984433,-0.0130489226,0.0035903463,0.0302655138
2.3687670231,0.0059818816,0.0125109889,-0.0040270332,0.0414225757,0.0060130241,0.0142758936
2.3788230419,0.010820915,0.0088587143,-0.002356017,0.0884013996,0.0094793942,0.002536013
2.3889431953,0.0080412524,-0.0015120175,-0.0071224812,0.1428534687,0.0150901424,-0.0155990487
2.3989930153,-0.0014893219,-0.0059222248,-0.0126383547,0.1513795704,0.02041886,-0.025201343
2.4089710712,-0.0091098053,-0.0063697961,-0.0094191078,0.132068187,0.0309846886,-0.022069199
2.4189090729,-0.0110095246,-0.0029440189,-0.0004819873,0.0947748795,0.0211107507,-0.0187951084
2.4291419983,-0.0041739154,0.0003456209,0.0060301777,0.0307793859,0.0089861769,-0.0037983158
2.4389848709,-0.0061884332,-0.0084052943,0.0197922345,-0.0172157045,-0.0019402403,0.0122436341
2.4489359856,-0.0015423403,0.0030801033,0.0115390774,-0.0652335584,-0.0107166879,0.0293323398
2.4589250088,-0.0008661852,0.0055837962,0.0087689515,-0.1046635211,-0.021646034,0.0368674882
2.4689769745,0.0018348589,-0.0046952036,0.0067993756,-0.1195857525,-0.0260003023,0.0411557108
2.4789409637,0.0055026603,-0.0070792106,0.0067997333,-0.1035588458,-0.0259190761,0.0358307175
2.4889330864,0.0122014778,-0.0075021652,-0.0028709415,-0.0981640816,-0.031257648,0.0316120051
2.4988951683,0.0100936787,-0.0058874753,0.0011733529,-0.06833601,-0.0225057025,0.0283481684
2.5089650154,0.0039822948,0.0064559313,-0.0005137566,-0.0502182618,-0.0202007368,0.0315077454
2.5188820362,0.0019331768,0.008170519,-0.0048872475,-0.0235206038,-0.0168898944,0.0197823774
2.5289549828,-0.002029042,0.0041506025,-0.0021596793,-0.0053559821,-0.015753258,0.0112631917
2.5388960838,-0.0079295142,-0.0007828142,0.0036498066,0.0116263302,-0.001774858,0.0058496511
2.5489120483,-0.0069472897,0.0002352927,-0.0020315293,0.0265469551,0.0015378481,0.0047553582
2.5588588715,-0.0050759125,0.0081596114,-0.0027184132,0.0361296758,0.0079475436,-0.0048566558
2.5688591003,-0.0041105556,0.0005053018,0.0016332623,0.0339898244,0.0068985256,-0.0005987938
2.5788521767,0.0074301255,0.0124488808,0.0107530709,0.0297641885,0.0015218692,-0.000560977
2.5889129639,0.0065277112,0.0018058751,0.010104334,0.0318901911,0.0026071076,-0.0005694991
2.598829031,-0.0051345038,-0.0040840176,0.0035032984,0.028614901,0.0111398753,0.0004405046
2.6088280678,-0.0101056797,-0.0001348521,0.0018015859,0.0328091122,0.0186902024,0.0046381792
2.6188290119,-0.0112550957,0.0135923363,-0.0018518212,0.0209971946,0.0261049755,0.0077868337
2.6288099289,-0.0074769068,0.0019039247,0.003264701,-0.002478037,0.0217208788,0.0163307879
2.6388511658,-0.0076478827,-0.0010229017,0.0111422893,0.001916579,0.0088772541,0.0100354739
2.6487970352,-0.0038463876,0.0106472112,0.0013197418,-0.013991015,-0.0009285053,0.0026734322
2.6587810516,-0.0019144223,0.0105793215,0.0021133777,-0.0117780622,-0.0094817802,0.00060349
2.6688308716,0.0030315414,0.0027708744,0.0039981361,0.0022104578,-0.022217283,-0.0014484756
2.6788048744,0.0099739926,0.0057959887,0.003991222,0.0022639884,-0.0286333691,-0.0024719285
2.6888818741,0.0003961815,0.0008626316,0.0048258658,-0.0031680614,-0.0158770941,-0.0057380293
2.6988050938,-0.0102480156,0.00758836,-0.0041409973,-6.05518e-05,-0.0061919768,-0.0004893381
2.7087879181,-0.003389071,0.0154087283,-0.0129341725,0.0042021032,-0.0061408444,0.0016321358
2.7188138962,-0.0052696574,0.0105690695,-0.009950364,0.019144699,-0.0039317519,-0.003705238
2.7287590504,-0.0052596438,0.0058365199,0.0048812386,0.0159899183,-0.0093092071,-0.0047305552
2.7388591766,-0.0042249667,0.0059091779,0.0078858491,0.0171039198,-0.0146499109,-0.0046940697
2.7487449646,-0.0012019381,0.0098820068,0.0002075788,0.0245684944,-0.012481831,-0.0079005156
2.7588660717,-0.0012225613,0.0158211328,0.0032350179,0.0138412807,-0.0082426108,-0.0026093475
2.7687580585,0.0056515825,0.0110622384,0.0101917144,0.0096931411,-0.0242793672,0.0006847165
2.7787561417,0.0125735002,0.0131019093,0.0092624184,0.0010995213,-0.0168827046,-0.0014818982
2.7887601852,0.0010405078,0.0003251765,0.0082152244,-0.001060036,-0.0126514742,-0.004695002
2.7987370491,-0.0007537709,-0.0016593601,-0.002550507,0.0010312097,-0.006247371,-0.0079263486
2.8087639809,0.0022705689,0.004241738,-0.0064934734,0.0020754356,-0.0009498107,-0.0143357776
2.8187279701,0.0034116998,-0.0015135672,0.0023224708,0.0010943273,-0.007456712,-0.0238520503
2.8287959099,0.0133735137,0.0006129477,0.0081472751,-0.0159773342,-0.0055147349,-0.031289462
2.838737011,0.0088462727,-0.0100842975,0.0128938314,-0.0052906014,-0.0054662656,-0.0355478562
2.8488111496,0.0082339244,-0.0032012726,8.67602e-05,-0.0010109022,-0.0033682273,-0.0440635793
2.8587861061,0.0046666157,-0.0040828255,4.66463e-05,0.0032404363,-0.0022411775,-0.0408857614
2.8688001633,0.0059113991,-0.0068782833,0.0049345251,-0.0032475563,0.0021109604,-0.0260359775
2.8787419796,0.0051010442,-0.0048351553,0.0078787562,0.0030761193,0.0096905837,-0.0207794309
2.8887939453,-0.0035512254,-0.0038566256,0.0069043394,0.0009519821,0.0075547285,-0.0186393131
2.8987240791,0.0033491149,-0.0008166101,0.0060286876,0.0084149577,0.007636487,-0.015456303
2.9087519646,0.0043804538,-0.0046320227,0.0110029932,0.008446916,0.0012784562,-0.0090407478
2.9187049866,0.0102565186,-0.0034916664,0.0218990203,0.0192086156,-0.0082812272,-0.0121751558
2.9287571907,0.0123869972,-0.0092547201,0.0181707498,0.0181729123,-0.0125553338,-0.0110843256
2.9387149811,0.013551225,-0.0140863918,0.0076134559,0.0245635677,-0.0124698458,-0.0068396456
2.9487700462,0.0116560357,-0.0130479001,0.0029139277,0.0212700367,-0.0017982938,-0.0058441563
2.9588589668,0.0048851264,-0.0130307935,0.0039830562,0.015884459,0.0045624003,-0.0069433758
2.9689180851,-0.0047528553,-0.0227970146,0.0031371471,0.0146924276,0.0184747539,-0.0038455869
2.9790689945,-0.0077132988,-0.0189185999,-0.0084339622,0.014604276,0.0270709042,0.0014101616
2.9888119698,-0.0079427762,-0.0120322369,0.0004820582,-0.001460976,0.0323178656,0.0045745298
2.9987049103,-0.012142281,-0.0072171954,0.0150075909,-0.018488029,0.0236868262,0.0110184476
3.0087530613,-0.0085452301,-0.0043477681,0.0236972924,-0.0206084382,0.0194497369,0.0174217522
3.0186581612,-0.0088071031,0.0013468597,0.0206033941,-0.0258965436,0.0119590638,0.0206589568
3.028755188,-0.0060218978,-0.0056535271,0.0155807491,-0.0300785061,0.0033309544,0.0154058728
3.0386800766,-0.0070368159,-0.0087502263,0.0094499942,-0.0310018249,-0.0116943335,0.009129867
3.0487380028,0.0037016466,-0.0009805228,0.0052709337,-0.03306311,-0.0181775335,0.0027990001
3.0585360527,0.0057028425,-0.0030008818,0.0079055186,-0.0340913571,-0.0235155728,0.0049612205
3.0687198639,0.0068159592,-0.00800189,0.0046534892,-0.0276747383,-0.0245438199,0.003901016
3.0786581039,0.0011826053,-0.0081578754,-0.0083920602,-0.0105793737,-0.0223648213,-0.006748965
3.0886490345,-0.0035303638,-0.0101848505,-0.0144312028,0.002164918,-0.0189599693,0.0049063591
3.0986890793,0.0002749457,-0.0091419481,-0.0017619374,0.0148334429,-0.0049006101,0.012241371
3.1086850166,-0.0106504662,-0.0042792824,0.0051647779,0.0349754617,0.0092130788,0.0195725206
3.1186590195,-0.0100639863,0.0152321197,-0.0013934616,0.0358954519,0.0190191045,0.040757034
3.1286950111,-0.0027812526,0.0143114068,0.0088093039,0.0304551441,0.0286597479,0.0481350534
3.1387910843,-0.0071379947,0.0044501754,0.0101444479,0.0251352154,0.0254351906,0.0502820984
3.1486330032,-0.0045698392,-0.0074064997,0.000655925,0.0027862331,0.0209054202,0.0407655574
3.1586251259,-0.0067257392,-0.0153876208,-0.0061639789,-0.0184653923,0.0163069405,0.0227518026
3.1686480045,-0.0157285444,-0.0145873092,-0.0034066681,-0.0214846171,-0.0072026467,0.026093537
3.1788380146,0.0025247231,-0.0057583121,0.0081554409,-0.0309356432,-0.0244170539,0.0208974425
3.1886320114,-0.0005002723,0.0008738373,0.0086235162,-0.0447606444,-0.031978298,0.0241433028
3.1985778809,-0.0035322413,0.0152306296,-0.0017769578,-0.0414455421,-0.0437505357,0.0199701302
3.2086060047,0.003183414,0.0228705145,-0.0013194922,-0.0393054262,-0.0447936952,0.0210377909
3.2187039852,0.0050576818,0.0226860382,0.0040079113,-0.0511390492,-0.0352310874,0.025234269
3.2285661697,0.0069675935,0.0127114393,0.0045165177,-0.0469413772,-0.0276898108,0.0283696074
3.2385869026,0.0078921216,0.0153963305,-0.0104778055,-0.0246981233,-0.0019682036,0.016501762
3.2485818863,-0.00855581,0.0054230425,-0.0185305718,-0.0214618482,0.0021503749,-0.0047750301
3.2586221695,-0.0075556743,0.0005552504,-0.0136836413,0.0008780779,0.0129774567,-0.0091117211
3.2685709,-0.0055428552,0.0025995111,-0.0135450605,0.017931629,0.0173572917,-0.0123392064
3.2785711288,-0.0056053805,0.0066723558,-0.000613356,0.0210676361,0.0248745959,-0.0113289356
3.2885739803,0.0001510872,0.0087605454,0.0016696807,0.0285170302,0.0239451528,-0.0017665901
3.2985639572,-0.0038537488,0.0137105919,-0.0009159687,0.0413297638,0.0250788592,-0.0060335072
3.3086280823,-0.0078805787,0.0177414156,0.0033403989,0.0392780676,0.0112503963,0.0036191205
3.3185510635,0.0056767059,0.0091694929,0.0135665294,0.0234281272,-0.0091629997,0.005888267
3.3285479546,0.0057182503,0.006299946,0.01273725,0.0043220781,-0.0210947599,0.0027918094
3.3386189938,0.0048552048,0.0052714678,0.0096635576,-0.0243909266,-0.0351916701,0.0050273999
3.3485200405,0.0117207067,0.0032956337,0.0190657731,-0.0468166023,-0.0353378765,0.0082311835
3.3585259914,0.0020514324,0.0069014761,0.009624457,-0.0479067713,-0.0311023854,0.0050192773
3.36855793,0.0001566305,0.0163919665,-0.0056210402,-0.0500362366,-0.0321785696,0.0060901344
3.3785209656,0.0021854534,0.0142814852,-0.0080444459,-0.0340885594,-0.0214316491,-0.0014270369
3.3886010647,-0.0054604816,0.009278927,-0.010312641,-0.0149478894,-0.0095904367,-0.0089539289
3.3985171318,-0.0082975728,0.0102091171,-0.0105098132,-0.0160668176,-5.23254e-05,-0.0175142605
3.408577919,-0.0081055863,0.0073280069,-0.0095753316,0.0052347435,0.0106913988,-0.0303475
3.4185152054,-0.0079233451,0.0143012144,-0.0123681072,0.0222243797,0.0225592442,-0.0325600542
3.4285721779,0.00587358,0.013649378,-0.0031937603,0.0276247375,0.0140688196,-0.0303839855
3.4384989738,0.0090987878,0.0002678368,0.0079465862,0.0352148786,0.0023122954,-0.0377522856
3.4485630989,0.0054176939,-0.0004763867,0.0189506169,0.0245342739,0.0001556675,-0.0302941054
3.4584870338,0.003725548,0.0025506353,0.0073958989,0.0192011595,-0.0019871118,-0.0260267891
3.4685258865,-0.0018143461,0.0016445253,-0.0003046039,0.0138623193,-0.0009777738,-0.0281543881
3.4784832001,0.0023561611,-0.0040511754,0.0017754195,0.0032589436,-0.0137939695,-0.0174402259
3.4885220528,0.0180798061,-0.0087121986,0.0174445268,-0.0180463437,-0.0224364605,-0.0088701732
3.4984810352,0.0103557007,-0.0058495668,0.0229869243,-0.0223679878,-0.0160563253,-0.0078420592
3.5084700584,-0.0090152426,-0.0042039421,0.006911492,-0.0277134851,-0.0171210561,-0.0025194658
3.5184650421,-0.003995161,-0.0033633972,-0.0070933942,-0.0362654291,-0.0119270943,-0.0131745068
3.5285301208,-0.0096048815,-0.0063988832,-0.0113666896,-0.0213629119,-0.0022925765,-0.0249336958
3.5384550095,0.0003027215,-0.0033290053,-0.0045987014,-0.0117580891,-0.0001210349,-0.0292020775
3.5485239029,0.0181382485,-0.0089309476,-0.0005356911,0.0053111762,0.0031719636,-0.0345473066
3.558423996,0.0204095431,-0.0116391443,0.0045224186,0.0213744324,-0.0020710013,-0.0377136692
3.5685119629,0.0245536454,-0.0113672875,0.0135451313,0.0299418215,-0.0062617515,-0.0355676934
3.5784502029,0.0189393051,-0.0082835816,0.0166114327,0.0234321244,0.003376761,-0.0271250755
3.5884990692,0.0026384189,-0.0151772164,0.0068992134,0.010503009,0.0109127071,-0.0091042649
3.5984320641,-0.0051505971,-0.0132466219,0.004963791,-0.0087326039,0.0108218938,-0.0027176049
3.6084909439,-0.0101612313,-0.0074496535,0.0106916185,-0.022641493,0.0097544994,0.0100477245
3.6184210777,-0.0083936555,-0.0036609436,0.0114478823,-0.0332950726,0.005435118,0.0143318195
3.6285262108,-0.0094691319,-0.0126441382,0.0092661139,-0.0375505388,0.0032736966,0.0154111981
3.6384160519,-0.0085929735,-0.012816038,0.0031277891,-0.0278610233,-0.0031418586,0.0069494033
3.6484570503,-0.0038144693,-0.0080645941,-0.0039493684,-0.0246412624,-0.0052545443,0.0069608549
3.6584129333,-0.000992398,-0.0052251485,-0.0032142047,-0.0203984492,-0.0009697843,0.0037409603
3.6684670448,-0.002988796,-0.0014034774,-0.0014642122,-0.0192940347,-0.0062870514,0.0058994521
3.6784081459,0.0096854465,-0.0043165949,-0.0015620831,-0.0192156043,-0.0179937743,0.0123521583
3.6884310246,0.0155794816,-0.015066769,0.0051493999,-0.0116895102,-0.0233067814,0.0091941822
3.6983840466,0.0058102501,-0.0132469796,0.0049081799,0.0021565296,-0.0220753346,0.0155503489
3.7083930969,-0.0030965016,-0.0016202595,0.0047729965,0.015958894,-0.0134091442,0.0165469032
3.7183849812,-0.0197344832,0.0002044771,-0.0010695698,0.0265811794,-0.0069163563,0.0164984334
3.7284450531,-0.028657686,0.006955001,-0.0106979255,0.0286107734,0.0038326939,0.0217392687
3.7383480072,-0.0201467089,0.0099812485,-0.0064838771,0.0200569667,0.0038044644,0.0259942003
3.7484350204,-0.0135364039,0.0051709744,-0.001277292,0.0275582932,0.0027391999,0.0196215231
3.7583608627,-0.0116761727,0.0022763943,-0.0049101356,0.0244542435,-0.0069549726,0.0133104967
3.7683749199,0.0009069933,0.0023939346,0.0001386162,-0.0031470237,-0.0242964122,0.0102550518
3.7783541679,0.0135935443,-0.009256687,0.0127435084,-0.027610153,-0.0362164527,0.0135372654
3.7884180546,0.0136248069,-0.0064889458,0.0113079306,-0.0435808636,-0.0395826884,0.0093206819
3.7983360291,0.0049913418,-0.0068317917,-0.0030938033,-0.0670349225,-0.0461135618,0.0168162826
3.8083970547,0.0060873521,-0.0080630444,-0.0058143977,-0.0744435713,-0.0526108742,0.0136764152
3.8183140755,0.0012449517,-0.0063920883,-0.003728712,-0.0637613684,-0.0546407364,0.0168703459
3.8283519745,0.0031564429,0.0031900739,0.0004727599,-0.040289335,-0.0523397662,0.0147142494
3.8382968903,0.0001403286,0.0147988535,0.0078300592,-0.0126517117,-0.0382308699,0.0146030616
3.8483090401,0.0010219112,0.0225843526,0.009699678,0.0224948246,-0.0272983275,0.0113204494
3.8582601547,0.0010886684,0.0187198259,0.0011325832,0.0426652059,-0.0090751154,-0.0004969279
3.86835289,-0.0085219247,0.0011809204,-0.0071713571,0.0702118799,0.0157293007,0.0003853773
3.8782920837,-0.0046087014,-0.0024879838,-0.0113480333,0.0531288981,0.0166534167,-0.00173623
3.8882961273,0.0001517429,-0.0031854773,0.0047961827,0.033926174,0.0164776482,-0.0049088537
3.8983080387,-0.0097265942,0.0066501233,0.0156777855,0.013727298,0.0056503015,-0.002699096
3.9082689285,0.000976701,0.0067738625,0.021667039,-0.0043305326,-0.0051773125,-0.0026162716
3.9182682037,-0.0008242236,-0.0020817781,0.0166517254,-0.017020626,-0.0191807449,-0.0035780724
3.928260088,-0.0083888574,-0.0032404328,0.002630448,-0.0210976619,-0.0364492163,-0.019399114
3.9383201599,0.0025075569,-0.0003053214,0.0012809989,-0.047843121,-0.0333618112,-0.0098419599
3.9482169151,0.0124983089,-0.0052138832,0.0085810181,-0.0606433377,-0.0324374288,-0.0151509717
3.9582791328,-0.0059338617,0.008201275,0.0107402559,-0.0532285646,-0.0280461423,-0.0077455202
3.9682400227,-0.003856729,0.011910174,-0.0015078428,-0.0458987504,-0.0140224695,0.0006575524
3.9782428741,-0.0106056435,0.0107301213,-0.00877955,-0.0224984828,-0.0042135147,0.0016401254
3.9884018898,-0.0164806955,0.0106218792,-0.0108736996,0.010531106,0.0024728838,0.0036984829
3.9982640743,-0.0058978903,0.0186434127,0.0001489875,0.0425918363,-0.0015639355,0.0026401428
4.0082449913,0.0019741252,0.0091991164,0.0124673601,0.0661477596,-0.0057568164,-0.0090354215
4.0182199478,0.0011821284,0.0026415323,0.0140649434,0.0736734569,-0.0089773769,-0.0175190549
4.0282840729,0.0073287976,-0.0019250776,0.0098285433,0.0684834868,-0.0219520312,-0.0301799886
4.0381760597,0.0029345944,-0.0065349606,0.0063055512,0.0461293161,-0.0222859923,-0.04928644
4.0480880737,-0.0015396879,-0.0082330965,0.0152764674,0.0172116458,-0.0138866482,-0.0408215821
4.0580019951,0.0046060574,0.0007381771,0.0142909046,-0.0083858594,-0.0214572176,-0.0280059166
4.0682749748,0.0155780809,0.0076124999,0.009149408,-0.0468753278,-0.0184510387,-0.0163110439
4.0782299042,0.0031202033,0.0005403493,0.0075289961,-0.0576082692,-0.0152429957,-0.0067642783
4.088162899,0.005111475,-0.0006233122,0.0079456326,-0.0598216206,-0.0098253274,0.0038260482
4.0982751846,0.0109490948,-0.0027427936,0.010310268,-0.0630312562,-0.0087840315,0.0038228522
4.1082038879,0.0041208756,-0.0079111718,0.0077737924,-0.053494744,-0.0022520963,0.0090857912
4.1182012558,0.0040185642,-0.0051800874,0.0025292989,-0.0258323606,0.0086559448,0.0100595765
4.1281642914,0.0038729205,-0.0022835399,0.0063563343,0.0040211412,0.0142035764,0.0068155797
4.1382679939,-0.0030145154,-0.0062138108,0.0065335985,0.0349327177,0.0218740106,0.0003678002
4.1482992172,-0.0012138591,-0.0011630919,0.0080283638,0.0669527054,0.023172304,-0.0017877624
4.1580691338,0.0065757525,-0.0028048421,0.0088108536,0.0744881108,0.0178342629,-0.0081338082
4.1681890488,0.0057406914,-0.0190977715,0.0135103818,0.0723775625,0.0177543685,-0.0155685563
4.1781821251,-4.90652e-05,-0.0189258717,0.0101876017,0.0628144145,0.010247983,-0.0091362223
4.1882143021,0.0067720306,-0.0128078721,0.0135907289,0.0287406016,-0.0017359758,-0.0047851503
4.1981468201,0.0018750324,-0.0127794407,0.0195046421,-0.0032483554,-0.0083435448,0.0016553057
4.2081599236,-0.0019739077,-0.0178078674,0.0163095351,-0.0383930281,-0.0203267038,0.0070695123
4.2181272507,-0.0058630216,-0.0053879884,0.0019984599,-0.0597196221,-0.0247305073,0.0113625275
4.2281837463,-0.008814971,-0.0028423334,-0.010484362,-0.0768203139,-0.0258498341,0.0209432505
4.2381467819,-0.0022338436,-0.0001459386,0.0024294611,-0.0757907331,-0.0246977508,0.0294328742
4.2481899261,0.0015042319,-0.0033524896,0.0018388984,-0.0491689742,-0.0180518311,0.0325583592
4.258149147,0.0080166953,0.0062189433,-0.0004832986,-0.0279612932,-0.0007878905,0.0324319936
4.2681388855,-0.0038796768,-0.0017797615,0.0033232328,0.0168053806,0.0122749154,0.0195673257
4.2781410217,-0.007914911,-0.0018640425,-0.0120445732,0.0413010046,0.0188806206,0.019505674
4.2881340981,-0.0061555016,-0.0046336916,-0.0085037593,0.0721990019,0.0276336297,0.0151777714
4.2981901169,-0.0112292273,-0.0034854675,-0.0087096337,0.0882272273,0.0256226771,0.0162451677
4.3081221581,-0.0017909512,0.0056698653,0.0019559022,0.089352414,0.0202510823,0.0120296497
4.318116188,-0.0058566737,0.0029926633,0.008639073,0.0818969011,0.0191053897,0.0099180294
4.3281087875,-0.000170301,0.0139194466,0.0023978706,0.041448541,0.0038566624,0.0132323336
4.3381428719,0.0056633544,0.0013134811,0.0027318951,0.0170681011,-0.0156017244,0.0091236085
4.3481068611,0.0076746834,-0.0065037278,0.000805473,-0.0105768424,-0.0296917092,0.0113590658
4.358092308,0.0087614255,-0.013512101,-0.0045068506,-0.0648856163,-0.0482262447,0.0178912673
4.3680891991,0.0018815293,-0.0148301981,0.0014741775,-0.0809383541,-0.0461492464,0.0253257472
4.3781599998,-0.0080696149,0.0003454421,0.0003954527,-0.1022501737,-0.0526849106,0.0296298154
4.3880977631,-0.0073070633,0.0107142664,0.0138247367,-0.1118729711,-0.0474880189,0.0211037062
4.397919178,-0.0093414588,0.0084546544,0.0275065657,-0.0723657757,-0.0482629985,0.0200200658
4.4081120491,-0.0015526519,0.0178854801,0.0024602767,-0.0383497551,-0.0308991875,0.0198837109
4.4180841446,-0.0102868183,0.0069246027,-0.0085122231,0.0062840292,-0.0038928699,0.0133051695
4.4280872345,-0.0181712322,0.0087845065,-0.0229372624,0.0541780517,0.0125276484,0.0152900247
4.4380640984,-0.0116113527,0.0129207112,-0.0221926216,0.0774973556,0.0309141129,0.0194039419
4.4481363297,-0.0070853936,0.0141870119,-0.0114934687,0.0912943929,0.0406399779,0.0193312373
4.4580593109,-0.0015151307,0.0086978413,0.0032100435,0.0967470855,0.0278296396,0.0162231959
4.4681239128,0.0148552256,0.0022729372,0.0159307476,0.0787366554,0.0116493385,0.0152783068
4.4781932831,0.0167934187,-0.0111689232,0.022462463,0.0649880916,0.0007519494,0.0036738485
4.4881153107,0.0080507891,-0.0091368221,0.0159951802,0.050200887,-0.0175500922,0.0016780754
4.4980401993,0.0052498472,-0.0031594301,0.0123151895,0.0236515664,-0.0275241621,-0.0163017232
4.5080461502,-0.0012779341,-0.0002287294,0.0072647091,-0.0360913947,-0.02806798,-0.0258179959
4.5181732178,-0.0058841216,0.0093853809,0.0026753899,-0.0680683628,-0.0357527994,-0.0204332191
4.528011322,-0.0008060441,0.0171078779,0.0059044119,-0.0606525317,-0.0313657746,-0.0140924985
4.5380301476,0.0042139781,0.0237627961,0.0031793471,-0.0873926654,-0.0282911547,-0.0055958163
4.5481290817,-0.0052196491,-0.0029166604,0.0033896919,-0.0671686158,-0.0196207017,-0.00991573
4.5583219528,-0.0109406812,0.0124354102,-0.0167576317,-0.0341368988,-0.0077105113,-0.0217012819
4.5680427551,-0.007958035,0.0153788067,-0.0091998819,-0.0171230268,-0.0042726365,-0.0100491541
4.5780119896,0.0037711754,0.0155833699,0.009375548,0.0053677694,-0.0116168363,-0.0142666698
4.5880470276,0.0010017052,0.0166755058,0.0133735891,0.0234727375,-0.00404973,-0.0207027309
4.5982217789,-0.0084696515,0.0069812867,0.0077669378,0.0458295755,0.0025517135,-0.0186351836
4.6079750061,-0.0053641605,0.0101288892,-0.0005299094,0.0585730672,0.0122331027,-0.0229564309
4.6179881096,-0.0031454966,-0.0013360645,-0.0057527665,0.0660384372,0.0143974544,-0.0272278748
4.6280403137,-0.000983964,-0.0058552292,-0.0011648777,0.0670565665,0.0208090134,-0.0283325538
4.6381931305,0.0001398816,-0.0055353311,0.0034049507,0.0574085973,0.0250285268,-0.0251619276
4.6479701996,-0.0016702816,-0.004314926,0.0029427763,0.0457341,0.0163969547,-0.024035411
4.6579651833,0.0033188357,-0.0041132239,0.0061904546,0.01267788,0.010823492,-0.0218553469
4.6679992676,0.0034279122,-0.009857025,0.01986227,-0.0160376541,-0.0053578746,-0.0132312328
4.6781377792,0.0064318669,-0.0040398506,0.0233688708,-0.0543225892,-0.025892444,-0.0045702327
4.6880283356,0.0056211841,-0.0042682556,0.0197405573,-0.0745346546,-0.0335485004,-0.0066312533
4.697906971,-0.0029317841,-0.0074967411,0.0111726876,-0.0585281253,-0.0313220993,-0.0109070912
4.7079563141,0.0031738773,-0.0017140772,0.0086244103,-0.0605934039,-0.0336118825,-0.0268266704
4.7181739807,-0.0014960573,0.0020742153,0.0186263081,-0.0637922585,-0.0378287323,-0.0172362272
4.7279672623,-0.0021210716,-0.0039408472,0.010243034,-0.0425551459,-0.0237792246,-0.0184045546
4.7379322052,-0.0155461235,0.0016953681,-0.0077848081,-0.0181600619,-0.0064524342,-0.0142849125
4.7480049133,-0.012539546,0.0056048962,-0.0146550182,0.0136652458,0.0152240982,-0.0080733551
4.7579112053,-0.0134552522,0.0017909739,-0.0163156632,0.035958834,0.0324486233,-0.0135109974
4.7679948807,-0.0134182973,-0.0068155196,-0.0147686843,0.0615414232,0.0348294899,-0.0082323458
4.777944088,0.0060041142,-0.0053871539,-0.0041264538,0.0764956027,0.0349173732,-0.0114302691
4.787935257,0.0029964938,-0.0050159362,0.0113503691,0.0925768465,0.0264914017,-0.0113868602
4.7979111671,0.0097744064,0.0012386177,0.0142178889,0.0969340354,0.0158398207,-0.0102552827
4.8079781532,0.0137497084,-0.0032660032,0.019008195,0.0820203424,0.012509007,-0.0112856589
4.817896843,0.0023262396,-0.0216781162,0.0127786156,0.0479365364,0.0026409293,-0.0101382369
4.8279571533,0.0033877089,-0.0205869935,0.0100642797,-0.0032294467,-0.0094389031,-0.0015250413
4.8378901482,0.0150309103,-0.0069600609,0.0058864709,-0.0586867146,-0.0204508081,0.0102689005
4.8479499817,0.0120805399,-0.0101254843,0.0158694144,-0.0981592834,-0.0229027811,0.009249975
4.8578801155,-0.0005871461,-0.0135857128,0.0088683125,-0.1237613186,-0.029415274,0.0209971797
4.8679542542,0.00710531,-0.0033257271,0.001698589,-0.1439768523,-0.0370622762,0.0199984945
4.877822876,0.0001587762,-0.0048688916,0.0090275761,-0.1439876258,-0.0349426642,0.0178598408
4.8879489899,-0.0048401165,0.0004341338,0.0095423218,-0.1301921904,-0.0262583625,0.0209810659
4.8978672028,-0.001980643,0.0049296352,0.0026955362,-0.073707208,-0.0130437575,0.0155451549
4.9078607559,-0.0011502907,0.0135085322,-0.0026014093,-0.0130065773,0.0066186269,0.0100633046
4.9179291725,-0.0070457268,0.0047038528,-0.0053215269,0.0456026718,0.0219688211,0.0024874101
4.9278182983,-0.0032103166,0.0088447072,-0.0133121256,0.1063717455,0.0341320112,-0.0050706407
4.9379119873,-0.0023009286,0.0093222596,-0.0071627144,0.149027735,0.0408402458,-0.0093944166
4.9478130341,0.0025448098,0.0011836026,0.0052368399,0.1725506335,0.0377794765,-0.0136405602
4.957903862,0.0016240373,-0.0031043554,0.0078153964,0.1576517075,0.033363685,-0.0167896152
4.9677839279,0.0027391806,-0.0123808645,0.0052808281,0.1224436536,0.0299122315,-0.0135554718
4.9778962135,0.005621661,-0.0070556668,0.0140870567,0.0851562023,0.0189796891,-0.0081457924
4.9878349304,0.0104762809,-0.0029318,0.0165125486,0.0085096331,-0.0082966732,-0.0036658235
4.9978251457,0.0116022127,-0.014733579,0.0172073003,-0.0628609508,-0.0290986244,0.0028919445
5.0078802109,0.0039115441,-0.0171045922,0.0093667861,-0.1279049367,-0.0402351655,0.0093839318
5.0178179741,0.0009974733,-0.0060121086,-0.0020256285,-0.1801552176,-0.0480976142,0.0115936901
5.0278482437,-0.0067718732,-0.0134103559,0.0109754559,-0.1482004821,-0.0372170024,0.0051264698
5.0378217697,-0.0145969493,0.0026408767,0.0017465708,-0.1173489615,-0.025202686,0.008218267
5.0478720665,-0.0116754277,0.0110040046,-0.0158596281,-0.0897338465,-0.0078974655,0.0070243711
5.0577392578,-0.0234012417,0.0047924253,-0.0194317941,-0.0407532528,0.0053437715,0.011153603
5.0678601265,-0.0226642899,0.0076902839,-0.0107323769,0.0125022437,0.0196500067,0.0110236406
5.0778970718,-0.0112980409,0.0176545121,0.0024139043,0.0615511462,0.0233006682,0.0184017941
5.0878548622,-0.0008641587,0.0296919085,0.0013786312,0.1031316146,0.0331596918,0.0087473029
5.0978388786,-0.0076458561,0.0065661403,0.000680184,0.1373791993,0.0237752423,0.0055985153
5.1077480316,0.0029864206,0.0051563117,0.0030812379,0.1480616629,0.024881253,0.0002719264
5.1177768707,0.0039892686,0.0007750724,0.0025382992,0.1491929889,0.0184462592,-0.0039393301
5.1277651787,0.0050083292,-0.0007208254,-0.0020289663,0.1257611662,0.0129028875,-0.0060118018
5.1377301216,0.0031672611,-0.013006296,0.0039350148,0.0937789828,0.0062774755,-0.0016961494
5.1477088928,0.006964047,-0.0068196324,0.0133989807,0.0564329512,0.0007263829,0.0079274494
5.1577568054,0.0146173136,-0.000877824,0.0136338826,-0.001189732,-0.0049914238,0.0165042933
5.1677398682,0.0087038176,-0.014784839,0.0104349013,-0.0427630097,-0.0169607345,0.0293596387
5.1777238846,0.0056796265,-0.0151763223,-0.0019740704,-0.0918048546,-0.0216766596,0.0219866764
5.1877202988,-0.0040782797,-0.0205894373,-0.0041908268,-0.1429822743,-0.0253606103,0.0124847833
5.1977190971,-0.0110974116,-0.0123048685,0.0061411615,-0.1291349232,-0.0251765866,0.0220378097
5.2077269554,0.0002115263,0.0195267536,0.0107512232,-0.1280989349,-0.0229946598,0.0262725018
5.2177352905,-0.0038575337,0.0160711147,0.0114932414,-0.1227226853,-0.0293324497,0.0294939931
5.2276940346,-0.0049072313,0.0097960569,0.0095848199,-0.0672186837,-0.0247187894,0.0188014023
5.2377262115,-0.0088389916,0.010490749,-0.0045422558,-0.01175729,-0.0168558061,0.0134007772
5.2476830482,-0.0077765989,0.0016835068,-0.0170763973,0.0512341931,-0.0132711921,0.000584848
5.2577710152,-0.0057019102,-0.003846314,-0.0143590812,0.1056457683,-0.003370624,-0.0154516427
5.2675919533,-0.0094668074,0.0014989708,-0.0084243063,0.1387400776,-0.0020821868,-0.0197326727
5.2777171135,0.00527506,0.0060989591,-0.000228906,0.1494021714,-0.003014293,-0.013359597
5.2876729965,0.0053095114,0.0095277168,0.003962731,0.1418638378,0.0033764944,-0.0091462098
5.2976617813,-0.0033256814,0.0001153682,0.0030437466,0.1088496819,-0.0106711481,0.0026531918
5.3076572418,0.0025356307,-0.0074198511,0.0086135026,0.0416235104,-0.0164715126,0.0101744914
5.3176531792,0.0005028142,-0.0103002451,0.020378029,-0.0127984509,-0.0200699754,0.0134222154
5.3276729584,-0.0083476705,-0.0105187558,0.0248027202,-0.0586346462,-0.0299982391,0.0188305639
5.3376441002,0.0004370107,-0.0059663323,0.0083573814,-0.1076377407,-0.0410879105,0.0168141499
5.3478388786,-0.0033065185,-0.0181502365,0.002369618,-0.1203854904,-0.0444837064,0.0062211622
5.3576140404,-0.0061170566,-0.0098421834,-0.0049093608,-0.1384747475,-0.0479095988,-0.003306563
5.3677248955,-0.0002328859,0.0005897615,0.0045442339,-0.1139300019,-0.0466600433,-0.0043941978
5.3776540756,0.0056364727,0.0179248191,0.0026271697,-0.0702995583,-0.0302887894,-0.0045317505
5.3879270554,-0.0050342786,0.0264525153,-0.001952255,-0.034127444,-0.0171471555,-0.0003926654
5.3976559639,-0.0039364803,0.0215394236,-0.0021299366,0.0053488608,-0.0126131251,-0.0057610655
5.4076728821,0.0049633873,0.0168786384,0.0030632969,0.0501035526,-0.0005647176,-0.0122447973
5.4176340103,0.0041594398,0.0122508742,0.0027030464,0.0799479932,0.0081438189,-0.0208212417
5.4276752472,-0.0004997955,0.0077087018,0.003506517,0.0948686227,0.011456525,-0.0219155345
5.437693119,0.0055481088,0.0091063119,0.0024559256,0.0874718279,0.0038843593,-0.0250454154
5.4475717545,0.0097179012,-0.0041837362,0.007135367,0.069352746,-0.0015543482,-0.0196855366
5.4576883316,0.006959219,-0.0079023503,0.0037094112,0.0511761382,-0.0005689786,-0.0133061996
5.4676189423,0.0050391746,-0.001875427,0.0069756862,0.0297387559,0.0089116087,-0.010165534
5.47768116,-0.002681087,-0.0009085204,-0.0007009152,0.0158342589,0.012014457,-0.0101779178
5.4876232147,0.0012695387,-0.0037612582,-0.0015381816,-0.0001854543,0.0129593471,-0.0101728579
5.497677803,0.0062016738,-0.0076140431,0.0004592892,-0.0086646918,0.0043706526,-0.0069240676
5.5075979233,0.0159539469,-0.0113830231,0.0131681319,-0.0139348228,-0.0042113839,-0.0058023445
5.517660141,0.0111046629,-0.0055948761,0.017720079,-0.0373461396,-0.0119001968,-0.0089238351
5.5275840759,0.0053477478,3.6392e-05,0.0141739603,-0.0670872554,-0.0302906539,-0.0077214185
5.5376009941,0.0016656413,0.0027500128,0.0114257094,-0.0713306069,-0.0293462984,-0.0183480959
5.547577858,-0.0107184751,-0.0082441829,0.0116779562,-0.0639059842,-0.026027998,-0.0120004527
5.5575733185,0.0019969835,0.0082311966,0.0061431881,-0.0671925843,-0.0206026081,0.000716408
5.5676341057,0.0031316772,-0.0055625108,0.0105539914,-0.0394757353,-0.0140208714,-0.0046575847
5.5775737762,-0.0026286349,-0.0056982306,0.00442723,-0.0032416983,-0.007316363,-0.0036651576
5.5876150131,-0.0006020473,-0.0056537655,-0.00034138,0.0265572108,0.0056942441,-0.0090822931
5.5975580215,-0.0073279548,-0.0075177816,-0.004887009,0.0553098954,0.0155050624,-0.012351457
5.6076192856,-0.003468822,-0.0023444558,-0.0012895111,0.0776727274,0.0199986137,-0.007084257
5.6175508499,0.003270407,-5.25381e-05,0.0082411524,0.0627118871,0.0199261755,-0.0028271941
5.6275749207,0.0052001071,-0.012495067,0.0224849936,0.0349830538,0.0123300422,0.0089277327
5.637553215,0.006140579,-0.0202558897,0.0198648926,0.0222868323,-0.0016568799,0.0100914007
5.647600174,0.0002365901,-0.0203582905,0.0111169573,-0.0012113042,-0.0028438508,0.0175522473
5.6575350761,-0.0038575039,-0.0195122026,0.0119665023,-0.0129903331,0.0003026741,0.0217921305
5.6675992012,-0.0031116114,-0.0128221773,0.009807026,-0.0289906058,-0.0019405065,0.0239426345
5.6775259972,0.0005532398,-0.0032343531,0.0065195914,-0.0428411737,-0.0052524135,0.0239729956
5.6875329018,-0.0044420469,-0.0103315972,0.0032115933,-0.0353113525,-0.0126666538,0.0250782073
5.6975040436,0.0002635016,-0.0026933814,0.0008870718,-0.0374159142,-0.0117180357,0.0123223308
5.7075109482,-0.0094761951,-0.0058295396,0.0014108774,-0.0395232737,-0.0097148065,-0.0015002741
5.7174949646,-0.0085288091,0.0057642194,-0.0009547118,-0.025636619,-0.0106796697,-0.0015020052
5.7274971008,-0.0094400747,0.005737755,0.0008370635,-0.0053510554,-0.0094903018,-0.0057734493
5.7375650406,-0.0200865977,0.0086338259,0.0036123749,-1.67442e-05,-0.0083968081,-0.0079098372
5.7474951744,-0.0199233703,0.0047598812,-0.0002786163,0.008543455,-0.01047727,-0.0089647146
5.7575540543,-0.0138819916,-2.04708e-05,-0.0049804095,0.0170533191,-0.005105407,-0.013254269
5.7674841881,-0.012795846,0.0039665434,-0.0097539667,0.0159334615,-0.0007934831,-0.0079694912
5.7775478363,-0.0020499632,0.0051162574,-0.004668558,0.0127280802,-0.0049930215,0.0037460201
5.7874860764,0.0037487641,0.0032973026,0.0033532139,0.0191063508,-0.0038294867,0.0090459771
5.7975349426,0.0007714822,-0.0006120469,0.0035156962,0.0222608652,-0.0005431459,0.0153962849
5.8074502945,0.0102685587,0.0063057276,0.0066599604,0.0179830287,-0.0036918013,0.0260436032
5.8175311089,0.0110278027,0.0014041398,0.0107338186,0.0157759339,0.0027538473,0.0313130654
5.8274569511,0.0010667935,-0.0045754579,0.0118120667,0.0125085022,0.012311399,0.0270038042
5.8374819756,0.0046678674,0.0031697487,0.0060544368,-0.0002226057,0.0015540933,0.0313355699
5.8474450111,0.0064249528,-0.0018314387,0.0059866663,-0.0214634445,-0.0103941783,0.0282407105
5.8574991226,-0.001553844,-0.0098788403,0.0095537659,-0.0427753925,-0.0158826876,0.0304149147
5.8674440384,0.0040044677,0.0054713222,0.0031438228,-0.0544991642,-0.0181109533,0.0304375533
5.8774652481,0.0038047328,0.0111224391,0.0046073552,-0.0394818634,-0.0181876533,0.0081183985
5.8874311447,0.0057733548,0.0091148354,0.0130598899,-0.0276797954,-0.0193013866,-0.0078184903
5.8974161148,0.0088263946,0.023727987,0.0068474766,-0.0191243924,-0.013003544,-0.0291133933
5.9074459076,-0.0014666722,0.0109397508,-0.0050736908,-0.0160204768,-0.0022643469,-0.0259980261
5.917429924,0.0036958649,0.011005912,-0.0129343513,-0.0054100454,0.0094887149,-0.0356412008
5.9274120331,-0.0008252666,-0.0045147208,-0.0137582663,0.0179903526,0.0172057562,-0.0293332357
5.9374079704,0.0023039475,-0.0004685189,-0.0222838167,0.022219453,0.0204795823,-0.0261739288
5.9474449158,-0.0035533116,-0.006083515,0.00342164,0.0328270905,0.0249185376,-0.0166485999
5.957400322,-0.0144112809,0.0096396543,0.0095252749,0.0391893834,0.0282163303,-0.011360894
5.9673900604,-0.0135304732,0.0185378529,0.0040889736,0.0477679595,0.0177218784,0.0035746456
5.9774470329,-0.0078743799,0.0216083266,0.0065053459,0.0424115434,0.0166853759,0.0120837111
5.9873700142,-0.005953561,0.0060860249,0.0069638845,0.0361690894,-0.0047024707,0.0164763294
5.9975242615,0.0086293416,0.0013698075,0.0044395681,0.0309614111,-0.0165862944,0.0059311441
6.0073747635,0.0096798139,-0.0043945578,0.0066076275,0.017216837,-0.0306323394,0.0007198702
6.0174388885,0.0077987504,-0.008278098,0.0124082919,-0.0158127509,-0.0404551439,0.0071822964
6.0273709297,0.0126953321,0.0033667421,0.0158242937,-0.0541356355,-0.0504342727,-0.0001629677
6.0374341011,-0.0065651047,0.0049540135,0.0099858399,-0.0796991885,-0.0528638735,-0.0107515631
6.0473642349,-0.0120480163,0.0046087834,-0.0056495313,-0.0818377063,-0.0507791527,-0.0150131537
6.0574250221,-0.012639801,0.0014365051,-0.0153202061,-0.0798009261,-0.0358654484,-0.0225472357
6.0673942566,-0.0181797855,-0.0036303068,-0.015060449,-0.0553578958,-0.0238924101,-0.0194547735
6.0773611069,-0.0063575613,0.0061875912,-0.0105337147,-0.0202542357,-0.0065736077,-0.0259664692
6.0873527527,-0.0121335788,0.016026888,0.0010245201,0.0031232573,0.0043405588,-0.0207416117
6.0974388123,-0.0120435162,0.0152381994,0.0120217558,0.0436005071,0.0153290285,-0.0229686797
6.1073732376,-0.0177303962,0.0183199383,-0.0001785997,0.0712630302,0.02728156,-0.0251902901
6.1173658371,-0.0193991475,0.0049615237,-0.0061711315,0.0861261338,0.0370204747,-0.0241993293
6.127322197,-0.0026878819,-0.0003804233,-0.0002451185,0.0766285062,0.0241123997,-0.0251713805
6.1373271942,0.0140744345,-0.0086726211,0.0094468947,0.0681900084,0.0101885945,-0.0208253674
6.1497678757,0.0258873291,-0.0034083987,0.0149067398,0.0362826735,-0.0060447045,-0.0153858624
6.1578230858,0.0241003223,-0.0110475682,0.0296904203,-0.0009784112,-0.0170470215,-0.0184761956
6.1673669815,0.014683296,-0.0209241174,0.0216281172,-0.0243870635,-0.0278796945,-0.014140036
6.1779823303,0.011002888,-0.0113201998,0.007423019,-0.0489474013,-0.0259510335,-0.0162597783
6.1879730225,-0.0042165923,-0.0175034665,-0.0070210937,-0.0756043047,-0.0283220466,-0.0194129609
6.1979370117,-0.0058741081,-0.0147475861,-0.0078318361,-0.0777325779,-0.0262642223,-0.02686169
6.2073221207,-0.0007229553,-0.0109204911,-0.0046063308,-0.062838316,-0.019745335,-0.0279767551
6.2172780037,0.0052439165,-0.0001629855,0.003681099,-0.034101475,-0.0130307078,-0.0184777938
6.2271251678,0.0130889313,0.009715531,0.0162002202,0.003229117,-0.0084849587,-0.0206581242
6.2371683121,0.0112224417,0.0166480877,0.0182071682,0.0244652964,0.003474765,-0.0165021271
6.2471079826,0.0094506936,0.0030773019,0.0146590229,0.0403289497,0.0186241567,-0.0091747055
6.2571549416,0.0096326964,-0.0163241886,0.0045090076,0.055153966,0.032643836,-0.0082143694
6.2671108246,-0.0039115953,-0.020133879,-0.0075596813,0.0690050721,0.0390910842,-0.0167649798
6.2771601677,-0.006818186,-0.0208547972,-0.0077790264,0.0647318959,0.0380226187,-0.0125040561
6.2870998383,-0.001107435,-0.0205158852,0.0094811674,0.0390656777,0.0400434285,-0.002937715
6.297164917,-0.0051535177,-0.0204406045,0.0147016998,0.0178370886,0.0217871927,0.0056922575
6.3070869446,-0.0004382835,-0.018511679,0.009945726,-0.0023462111,0.0056899823,0.0164346509
6.3171429634,0.0031878843,-0.0185663961,0.0205631014,-0.0310951658,-0.0072668288,0.0271625295
6.3270459175,0.0058238399,-0.0206886195,0.0328802839,-0.0459401608,-0.0201890171,0.0293814745
6.3370709419,0.0007876648,-0.014217224,0.0196108576,-0.0479885302,-0.030887736,0.0305166505
6.3470129967,-0.0022506819,-0.000910547,-0.0005530957,-0.0490298271,-0.0320099927,0.0252126977
6.3571052551,-0.0100593073,-0.0031239057,-0.0020910148,-0.0468668044,-0.029975336,0.0113876946
6.3670282364,-0.0109430654,-0.0033102299,-0.0074857119,-0.0447274894,-0.0247419588,-0.0035212138
6.3772549629,-0.0108253164,-0.0005006458,-0.013721073,-0.0224149935,-0.0117513249,-0.0046842163
6.3871941566,-0.0029462681,-0.000417855,-0.0146689061,0.0180211123,0.0045751831,-0.0069431094
6.3972072601,-0.0001224683,0.0143679716,-0.0115265492,0.0339578688,0.0101201516,0.0015064348
6.4071788788,-0.0011692152,0.0124810077,-0.0083368663,0.0222186539,0.0068865409,0.0089723412
6.4171581268,-0.0139445467,0.0007248853,0.0054267403,0.0051407344,0.0036193747,0.0185721032
6.4272432327,-0.0084037585,0.0036197042,0.0084123965,-0.0013137031,0.0026550442,0.0366435163
6.4371681213,-0.0087958379,0.0132363774,0.0083282348,-0.0119895171,0.000484568,0.0419748984
6.447177887,-0.0168897621,0.0080452897,-0.0016191248,-0.0129477214,-0.0144496402,0.0463219769
6.4571671486,-0.006474446,0.005019817,-0.0035707001,0.003086105,-0.0164781697,0.0441975743
6.4671812057,-0.0048119533,0.0049364897,-0.0035022143,0.0170147046,-0.0206910241,0.0389032103
6.477145195,0.0056640399,0.0050058099,0.0016148445,0.0341742486,-0.0259984378,0.0283043589
6.4871473312,0.0114162164,0.0031667685,0.0019994136,0.0534078665,-0.0238119829,0.0165904462
6.497136116,0.0142473774,0.0062890979,0.0083181616,0.0662324503,-0.0248021483,0.0133974496
6.5072050095,0.0151499407,0.005547795,0.0147593971,0.0778736621,-0.0129462862,0.014374828
6.5171790123,0.0112407701,0.0017820928,0.0114174243,0.0607581884,-0.0067057009,0.0100984583
6.5271239281,0.0016335144,-0.0050419238,0.0019308683,0.018189691,-0.0146890581,-0.0100054778
6.5371279716,-0.008774261,-0.0158000849,0.0008626935,-0.0106279757,-0.0096900389,-0.0248937476
6.5471959114,-0.0135115488,-0.0109132789,0.0055085178,-0.0287819467,-0.0129460199,-0.0142360423
6.5570750237,0.007966985,0.0038756465,0.0130721088,-0.0416391566,-0.0035048474,-0.0227845237
6.5671019554,-0.0045918929,0.010565374,0.0183843728,-0.0513301343,0.0070990613,-0.0239089094
6.5771269798,-0.002580385,0.0240651108,0.0090145227,-0.0694311038,-0.0025698114,-0.0132093942
6.5871090889,0.0074399901,0.0034615134,0.0143123027,-0.0917923376,-0.0060218009,-0.021670524
6.5971679688,-0.0011139915,-0.0105320476,0.0134531613,-0.092925638,-0.0016744568,-0.0121360067
6.6069097519,0.0009648098,-0.0068810848,0.0010354277,-0.0641480535,0.0028414656,-0.0100606056
6.6169881821,4.5289e-05,0.0027461385,-0.0033452157,-0.0374791622,0.0062268758,-0.0132883573
6.627163887,-0.0047868895,0.0055926773,-0.0035683159,-0.0097978674,0.0108093778,-0.0027146754
6.6371359825,0.0028436079,0.0154300071,-0.0005514863,0.0168264173,0.0153564578,0.0046728002
6.6470212936,0.002736856,0.011602018,0.0046407934,0.0392049626,0.0187631752,0.0078222547
6.6571412086,0.0006947412,0.0097467639,0.0012399909,0.0670042336,0.0125811789,0.0099688955
6.6671261787,0.0016111627,0.0021714305,0.004902577,0.0787732825,0.0125995539,0.0014614272
6.6770677567,-0.0081566973,-0.0044599441,0.0114402529,0.0798747614,0.0093819229,-0.0006424696
6.6870589256,-0.0091874702,0.0026011204,0.0091914888,0.0755489916,0.0157703143,0.0003815158
6.6970829964,-0.0112430258,0.0145121552,0.0058638211,0.0563312173,0.0166779179,-0.0017384938
6.7071461678,-0.0130896671,0.0019050572,-0.0005261544,0.0211649742,0.0110256262,-0.0059268475
6.7170729637,-0.0012683079,-0.0047983197,0.0034736153,-0.027778998,-0.0023101533,-0.0206774306
6.7271871567,-0.0069575417,-0.0029132629,0.0089052673,-0.0479700193,-0.0121127162,-0.0237869378
6.7370548248,0.0049082828,0.0097529627,0.0054357406,-0.0649119914,-0.0314254276,-0.0172765739
6.7471227646,0.0110007422,0.0105680563,0.0017661807,-0.0830449164,-0.0368279144,-0.0076673562
6.7570490837,0.0043598604,-0.0014270212,0.0106058475,-0.0948100984,-0.0368561484,-0.0002218236
6.7672390938,0.0054440987,-0.0007447269,0.0058427807,-0.0725545958,-0.0184872579,0.0028306916
6.7770500183,-0.0062573957,0.0155145265,-0.0104987863,-0.0385725275,0.0052407072,-0.0026574177
6.787088871,-0.0033416257,0.0135143735,-0.0096482877,-0.0077040903,0.0151167735,-0.0006182352
6.7970499992,-0.0013312206,-0.0049037007,0.0023384448,0.024311766,0.0174702108,-0.0049076555
6.8072161674,-0.0013711557,-0.0018011596,0.0056812521,0.053039819,0.030481616,-0.0092616575
6.8170232773,0.0015092983,0.001386616,0.0073634144,0.0754303411,0.0349027291,-0.0124931373
6.8270640373,0.004515518,-0.005134311,0.0053188559,0.0851000175,0.0285375081,-0.0156457871
6.8370351791,0.0085078971,-0.0115755461,0.011098003,0.0862318575,0.0221035779,-0.0187907144
6.847217083,0.0076913428,-0.016131904,0.0099664684,0.0830893219,0.0156483408,-0.0208714418
6.8569979668,0.0097904699,-0.0158666633,0.0037816521,0.048987817,0.0068753553,-0.0154766757
6.8670377731,0.0020929172,-0.0167137645,0.0127414819,0.0053897398,-0.0127183199,-0.0174439531
6.876996994,-0.0026068792,-0.0119070671,0.0114006754,-0.0563998595,-0.030241387,-0.0109133497
6.8872199059,0.0004439249,-0.0052641896,0.010614669,-0.0894627348,-0.0337034948,-0.0108678099
6.8969888687,-0.0012737915,-0.0104663037,0.0038447734,-0.0905466452,-0.034714967,-0.0034248072
6.9070210457,0.0083612399,0.0175842978,-0.0010816696,-0.104506664,-0.0283284374,0.0061050486
6.916987896,-0.0051850188,0.0063586566,-0.0041372422,-0.1046186537,-0.0175780561,0.0134722833
6.927148819,-0.0081876321,-0.0017511513,0.001950359,-0.0642019883,0.0019365234,0.009067948
6.9369850159,-0.0034102604,6.60155e-05,0.0025990363,-0.0280592963,0.0235206448,0.0004029539
6.9469771385,-0.0170989148,-0.0010327365,-0.002319837,0.0167324096,0.030243529,-0.0039214869
6.9569768906,-0.012210439,-0.0018733408,-0.002948368,0.0339104645,0.0207030214,-0.0102460943
6.9669718742,-0.0210034363,0.0032481884,0.0073457118,0.0648521334,0.0262045786,-0.0198649
6.9770212173,-0.0090992851,-0.005254474,-0.0084403995,0.0744614825,0.0231347531,-0.0124143073
6.9869632721,0.0024849072,0.0078349449,-0.0017653349,0.0819630772,0.0199773088,-0.0134614622
6.9969921112,-0.0023160086,0.0041857692,0.0008883235,0.0724113882,0.0103478516,-0.0059556095
7.0070471764,0.0123445885,-0.0042284993,0.0084860083,0.0607512668,-0.0025042978,0.0015726145
7.0170331001,0.012412508,-0.0138201378,0.0119025465,0.0416221805,-0.016468849,0.0101731597
7.0269317627,0.0075029326,-0.0147667788,0.0149394628,0.0085718185,-0.02310092,0.0144888125
7.0369791985,0.0024944439,-0.0099759959,0.0215600487,-0.0223577339,-0.0286331028,0.0209223442
7.0469269753,-0.0024460659,-0.003421929,0.0131748673,-0.0618020818,-0.0353418738,0.0220557861
7.0569591522,-0.0082427068,-0.0105866455,0.0133181568,-0.0905429125,-0.0409994945,0.0114888949
7.0668969154,-0.0082349284,-0.0089686774,0.0123717543,-0.088394016,-0.0431113802,0.0125634801
7.0769147873,-0.0005818413,0.0122455694,0.0085762497,-0.0692466795,-0.0365179256,0.015691895
7.0869750977,-0.0054613757,0.0070233676,0.002974486,-0.0650913492,-0.0225914568,0.0155986845
7.0969429016,-0.0083616478,-0.0029999281,0.0014127847,-0.0523365363,-0.0139838532,0.0112868939
7.1069698334,0.0013500049,-0.004107621,-0.0076354984,-0.0193772577,0.0012523573,0.0132898577
7.1168937683,0.0060203266,0.0046360227,-0.0096023325,0.0114720007,0.0143159609,0.0131838638
7.1269187927,0.0029263988,0.0017432902,-0.0034967903,0.0338028744,0.0251675434,0.0120355086
7.1371121407,0.0017546609,0.0018863414,0.0028875228,0.064725101,0.0307186358,0.0077262474
7.1470770836,0.0084146755,0.0012089346,0.0095608588,0.0775162578,0.0329551585,0.0077028116
7.156894207,0.0073070717,-0.0053971079,0.012344515,0.0839408785,0.0319066718,0.0045190025
7.1668710709,0.0062449467,-0.0091263317,0.0063180681,0.0754565746,0.0222854707,0.0120240571
7.1769380569,0.005139966,-0.0108770393,0.0070333239,0.0733687878,0.0179639589,0.0088678114
7.1868538857,-0.0018290386,-0.0117305778,0.009550726,0.0446178354,0.0081496779,0.0121387057
7.1968917847,0.0028506115,-0.007726517,0.0175781604,-0.0033193296,-0.0050204527,0.0154452873
7.2068538666,0.0027628138,-0.0078723691,0.0182543155,-0.055453103,-0.0246892292,0.0124220662
7.2169017792,0.0084953206,0.0016456578,0.0165310856,-0.0853655934,-0.0238077231,0.0177498534
7.2268929482,-0.0013380155,0.0031401252,0.0097241756,-0.086452432,-0.0206279084,0.0156052094
7.2370429039,-0.0033114657,0.0037916636,0.0021612998,-0.0587018952,-0.0172733907,0.007061922
7.2470998764,-0.0081459386,0.0015044544,-0.0149883274,-0.052489005,0.0052375114,0.0090363892
7.2576761246,-0.0140360398,-0.0045519141,-0.0201570038,-0.0163496435,0.0268325526,0.0024996607
7.2669138908,-0.0132919056,0.006256375,-0.0112354998,0.0209159702,0.0388684422,0.0013331964
7.2789793015,-0.0017926798,0.0093898512,-0.0039367322,0.0412177779,0.0358313732,0.0023995261
7.2869548798,-0.0067546773,0.0046202275,-0.0053102616,0.0668299347,0.0370891839,0.0013110922
7.2969303131,-0.0069344747,0.0106495358,-0.0094886664,0.071136795,0.0297045056,0.0087927105
7.3066020012,0.0027187958,-0.0046616462,-0.0007893685,0.0711615607,0.0254567638,0.0120074125
7.3167047501,0.0074010384,-0.0044334796,0.0038088914,0.0584261939,0.0157527365,0.0131393876
7.3269147873,0.0004080131,-0.0004800226,0.0032087918,0.0329530574,-0.0036462611,0.0175325386
7.3368902206,0.0012253716,0.0034336781,0.007186925,-0.0106800403,-0.0200100541,0.0187332258
7.346683979,-0.0017509267,-0.0015756156,0.0108331796,-0.0298105925,-0.0297862515,0.0177475885
7.356564045,0.003114064,0.0050672623,0.000584161,-0.0509772636,-0.0482025445,0.0083209313
7.3666563034,0.0052311313,0.002899382,-0.0011568312,-0.0882170349,-0.0592602529,-0.0011428777
7.3766212463,0.0016191795,-0.0032824541,-0.0022192243,-0.0999265611,-0.0615255423,-0.0053691813
7.3866710663,0.0018256202,0.0012968514,-0.0091101769,-0.0841215029,-0.0347197615,-0.0098036109
7.3966021538,-5.07937e-05,0.0079916455,-5.36683e-05,-0.0382714532,-0.0279662479,-0.0120063117
7.406648159,0.0019433096,0.0226886012,0.0084201451,-0.0106017441,-0.018124003,-0.011027067
7.4166069031,-0.0056718099,0.0225782134,-0.0063488726,0.0116461702,0.0023581018,-0.0101100076
7.4267988205,-0.0219750814,0.0029995774,-0.0177980904,0.0520455241,0.0219179541,-0.0092026684
7.4367551804,-0.0103624268,0.0081712939,-0.0190344099,0.0711035058,0.037112087,0.0002460938
7.4467611313,-0.0086782975,0.0055449936,-0.0054759029,0.0774082765,0.0447423086,0.0118785156
7.4567899704,-0.0089807017,0.0096268989,-0.0065982584,0.0817047507,0.0373847932,0.022547137
7.4667491913,0.0033446744,0.0090327598,0.0109495874,0.0765536651,0.0180339999,0.0141770886
7.4767751694,0.0110175507,0.0005533431,0.0311371442,0.0437258109,-0.0100959046,0.003756806
7.4867548943,0.0130817192,-0.0139650963,0.0363034382,0.019372534,-0.0338068269,0.0028651797
7.4968099594,0.0161536224,-0.0061887172,0.0225018617,-0.0093418024,-0.044760406,-0.0012897513
7.5067300797,0.0019190207,-0.0161992572,0.0034894701,-0.0380861014,-0.0525006168,-0.0054690498
7.5166778564,0.000185956,-0.0114767216,-0.001064265,-0.0626213998,-0.0537754744,-0.0075693522
7.526640892,0.0032899275,-0.0048331288,-0.0009351614,-0.0797119737,-0.0528297871,-0.0065011578
7.5367450714,0.0025125935,-0.0040421751,0.0031222459,-0.0691634566,-0.0356886163,-0.0119337402
7.5467200279,-0.0070675719,0.0015691255,-0.0005712155,-0.0500435606,-0.0237930734,-0.0130866226
7.5567679405,-0.0069645452,0.0014683936,-0.000965679,-0.0171993244,0.0032465323,-0.0058492161
7.5667009354,-0.0128969057,0.0083275177,0.0040026065,0.0401502512,0.0368681438,-0.0007953353
7.5767393112,-0.0160368197,0.0163315274,0.0113980528,0.0667915791,0.0476475507,-0.0136297736
7.586684227,-0.0200359337,0.0176503994,0.0210931059,0.0987766832,0.0511285737,-0.0104875099
7.5968670845,-0.0180171244,0.0130586959,0.0036572572,0.1041046008,0.0532859974,-0.0126284249
7.6066522598,-0.0236440413,-0.0091041587,-0.0098082665,0.1030369401,0.055369921,-0.01795315
7.6166582108,-0.0237184577,-0.0028743411,-0.0039586667,0.0732516125,0.041276738,-0.0146558899
7.6265478134,0.0074655009,-0.0169459246,0.0184393879,0.039278198,0.0154355541,-0.0059654629
7.6369099617,0.0142092006,-0.0089290403,0.033274807,-0.005315369,-0.0148131624,-0.0036154897
7.6466369629,0.0153059559,-0.0149150155,0.0300079938,-0.0532402843,-0.0332443677,0.0092861941
7.6567268372,0.0143771963,-0.0093692206,0.0203920361,-0.08195436,-0.0462901294,0.0104567865
7.6666240692,0.0037682548,-0.0059328941,0.0104912277,-0.0989607722,-0.0539304726,0.0073310351
7.6766991615,0.0010446801,-0.0102454685,0.0005963203,-0.1000187099,-0.0550109148,0.0062736263
7.686645031,0.0031850233,-0.0105268024,-0.0042606834,-0.0775898322,-0.0527815856,-0.0033180146
7.69668293,0.0004373982,-0.0048567322,-0.0069357399,-0.0413868204,-0.0407656692,-0.0055446834
7.7066102028,0.0005497529,0.0028485393,-0.0102837924,-0.0158676114,-0.0298530981,-0.0024460955
7.7166500092,-0.0014368102,0.0116227008,-0.0046513323,0.0042938488,-0.0157910753,-0.001490287
7.7265892029,-0.007310878,0.0145266391,-0.0056169871,0.0211812183,0.0026180265,0.0111272372
7.7366662025,-0.0035937831,0.0097225048,-0.0003689173,0.0434344597,0.0199466832,0.0173730161
7.746614933,-0.0077526676,0.0089148618,0.0081018563,0.0806366876,0.0405142754,0.0140264872
7.7566571236,-0.0080508692,0.0139200427,-0.0017984752,0.0761902779,0.0597683974,0.0202811882
7.7665863037,-0.0093640191,-0.0015021827,0.0117888805,0.0613207854,0.0490017682,0.0246109553
7.7765889168,-0.0018257007,-0.0003506209,0.0133677479,0.0337922201,0.0293785334,0.0045717331
7.7866311073,0.0010099604,-0.0041440991,0.0128265973,0.0338553376,0.0229390115,0.001426274
7.7965593338,0.006846596,-0.001168039,-0.0005288962,0.0147471549,0.011013641,-0.0006065171
7.8066391945,0.0118124979,-0.0098807476,-0.000378454,-0.0043240078,-0.003100846,-0.0090008005
7.8165750504,0.0129453437,-0.0118459724,-0.0025053266,-0.0286629032,-0.0278959405,-0.0120115047
7.82665205,0.0111178057,-0.0099259876,0.0116299149,-0.049884297,-0.0430322811,-0.012960921
7.8365569115,0.0035553172,-0.0110957287,0.0119227525,-0.0552626923,-0.0398287661,-0.0087295575
7.8466200829,-0.000208895,0.0062305066,-0.001517022,-0.0468268618,-0.0300807972,-0.0013619227
7.8565559387,-0.0058713662,0.0021465754,-0.0117093567,-0.0181059986,-0.0170486197,-0.0025257242
7.8666138649,-0.0174686424,-0.0019011762,-0.0186839346,0.0138053289,-0.0050087343,0.0016234806
7.8765630722,-0.0136288209,0.0011571978,-0.0174241904,0.0414534658,0.0059341942,0.0057804091
7.8866043091,-0.0031487152,0.0082494952,-0.0013311746,0.0381918922,0.0102477167,0.0131914532
7.8965740204,0.0013354316,0.0162443854,0.0176617261,0.0444639027,0.0221480504,0.0247985739
7.9066271782,0.0030076101,0.0144144632,0.0192346927,0.0637134984,0.0211554915,0.0162924379
7.916516304,0.0029399588,0.0058681103,0.0277815815,0.0831536427,0.0029314801,-0.0080399327
7.9266309738,0.0021505847,-0.0036006237,0.0246504303,0.0906642899,-0.0033868693,-0.0037546398
7.936548233,-0.0024176047,-0.0093612932,-0.005958939,0.0597587079,-0.0068923878,-0.0111487741
7.9466080666,-0.0129313571,-0.0161280297,-0.0086080674,0.0202704184,-0.0082575241,-0.0100499531
7.9565329552,0.0056117368,-0.0187547468,0.0063208099,0.0052991915,-0.0093475562,0.0005896415
7.9665288925,0.0200528391,0.0028311943,0.0178743955,-0.041671779,-0.0065589608,-0.0057699871
7.9765357971,0.0046316874,-0.0170086287,0.0211046692,-0.0810575336,-0.022830341,0.0028658453
7.9865670204,0.0105629461,-0.0211891197,0.0145067926,-0.0779237896,-0.0153063787,0.0049396488
7.9965109825,-0.0010883317,-0.0187252425,-0.0020430926,-0.0843191072,-0.0195637085,0.0124066193
8.0065364838,-0.0069994139,-0.0161763094,-0.0068102125,-0.0768595934,-0.0184281357,0.0134564387
8.0165119171,-0.0042949426,-0.0036824609,0.002268767,-0.0619364381,-0.0161673799,0.0144944042
8.0265111923,-0.000614743,0.0098284818,0.0066367742,-0.0352441072,-0.0201634523,0.0230008084
8.0364942551,0.0098559754,0.0166499354,0.0143187996,0.0030967575,-0.0102309268,0.0250350647
8.0465574265,-1.91138e-05,0.0174895264,0.0084582921,0.0265964903,-0.0080023939,0.0143802883
8.0565013885,-0.0068608928,0.0106330253,-0.0010016207,0.0510885194,-0.0003404794,0.0132511081
8.0665559769,-0.0078737838,0.0058819982,-0.0110546593,0.0903602839,0.0298259463,0.0055913245
8.0764427185,-0.009924422,0.0022684073,-0.0129405502,0.11698737,0.0375038385,0.0044608125
8.0865135193,-0.0013282404,0.0009215806,0.0069962498,0.1437470913,0.0343772843,-0.0104110781
8.0964651108,0.0014035299,0.0063981744,0.0231062528,0.1458174288,0.0376995802,0.0012522361
8.1065359116,-0.002481024,0.014463637,0.0055723544,0.0851578042,0.0221128985,-0.0166649781
8.1164569855,-0.0237258784,-0.0030514861,0.002134895,0.0361403301,0.010013625,-0.0123028541
8.1265506744,-0.0130086644,0.0019311045,-0.0016123893,-0.0139699765,-0.0051645292,0.0080159996
8.1364240646,0.0043871296,-0.0019915367,0.0088933464,-0.0694742501,-0.0118693039,0.0240335818
8.1464471817,0.0051723015,-0.008193519,0.0168484803,-0.1174396425,-0.0249659307,0.035838306
8.1564741135,0.014691581,-0.0086398385,0.0176993962,-0.1280249059,-0.0357373506,0.0359163396
8.1664085388,0.0105973678,-0.0053411988,0.0104986783,-0.1301282644,-0.0379275344,0.0316824466
8.1764993668,0.0056596887,-0.0098168515,0.0024032947,-0.1140908524,-0.0410101451,0.0316913687
8.1864423752,0.0094281035,-0.0072863367,0.0004403946,-0.083194986,-0.0291143358,0.0199063495
8.1964607239,0.002485384,0.0022136306,0.0026499983,-0.040622361,-0.0096383737,0.0091268038
8.2064180374,0.0034296408,0.0041254493,0.0025552269,0.0169266872,0.006729681,-0.0037682219
8.2164239883,-0.005190115,0.0002607439,-0.0107375626,0.0691507459,0.0230260957,-0.0198446605
8.2264575958,-0.0167317204,0.0033831333,-0.0227356199,0.0957631767,0.0349250995,-0.0273771454
8.2364063263,-0.0225601308,0.0077225897,-0.0119638685,0.1138107553,0.0489160195,-0.032793615
8.2464675903,-0.0273866169,0.0091746785,-0.0049498323,0.117992714,0.0575441271,-0.027540531
8.2564020157,-0.0168028586,0.0204887129,0.0099202748,0.0988523066,0.0436086021,-0.0157539118
8.2664728165,0.0016455844,0.0219806172,0.0255528446,0.0659795851,0.0145513853,-0.0091681806
8.2763633728,0.0046400023,0.0202417709,0.0298567768,0.0224012136,-0.0092735207,-0.0047284244
8.2864246368,0.0028244152,0.0132868625,0.0189398881,-0.0478934534,-0.0321801677,0.0050307289
8.2963848114,-0.0056853699,-0.0017159845,0.0074658152,-0.0841192305,-0.0409992263,0.0061744237
8.3064460754,-0.0074819732,-0.0050621894,-0.0100719575,-0.0979966968,-0.0442402922,0.0147042628
8.3163738251,0.0100502269,-0.001393583,-0.0128819589,-0.1013709232,-0.0229022466,0.0124403089
8.3264598846,0.0052811694,-0.0085135959,-0.0088821892,-0.0746871158,-0.0143271349,-0.008881757
8.3363647461,-0.0023338005,-0.0135802887,-0.0045926813,-0.0415866897,-0.010961432,-0.0195477176
8.3463830948,0.0075162244,-0.0027557279,0.000983989,-0.0074108783,-0.0117931375,-0.0227533635
8.3563451767,-6.60525e-05,0.0051652524,0.0048824307,0.0277174152,0.0065062414,-0.0398965292
8.3664178848,0.0003116025,-0.0044461158,-0.0074449424,0.0425578803,0.0142115653,-0.0272081681
8.3763513565,0.0092114406,0.0037185287,-0.0049148444,0.0627506375,0.0261023138,-0.0294221863
8.3863763809,-0.0110875769,0.0019031499,-0.0053909663,0.0606760308,0.0154709741,-0.0208526663
8.3963460922,0.0016195073,0.0032527184,0.0049840566,0.0372029319,0.0110804867,-0.0133723794
8.4063987732,0.001633872,-0.0014668371,0.0160267111,0.0105484165,0.0034744991,-0.0037429219
8.4163007736,0.003508915,0.0035099124,0.026802158,-0.0022553969,0.0012717983,0.0005310522
8.4264249802,0.0063940776,0.0044865343,0.0277436133,-0.0096603166,-0.0073267501,0.0016543737
8.4363193512,0.0142664807,0.0084253289,0.0247649904,0.0022350913,-0.0201876871,-0.0131438803
8.4463806152,0.0096291797,0.0054771635,0.014955556,0.0053443322,-0.010508162,-0.0089592552
8.456319809,0.0002581968,-0.003483441,-0.0183026437,0.001084473,-0.007430613,-0.0206645131
8.4663763046,-0.0170100741,-0.0201081894,-0.0134617332,0.0019776979,0.0149937365,-0.0239977278
8.4763298035,-0.0189069025,-0.0170896314,-0.0065697078,0.0051071784,0.0193919465,-0.0123416027
8.4863395691,-0.0014924512,-0.0051391986,0.003397679,0.0008077715,0.0225741584,-0.011296845
8.4962902069,-0.0082291765,-0.010021057,0.0082744118,-0.0098043941,0.0181463864,-0.019760903
8.506362915,-0.0042491662,-0.0177372359,0.0171121713,-0.0012561791,0.0150515269,-0.014434848
8.5162878036,0.0025935068,-0.0069509414,0.0083696004,0.0094473315,0.0098277358,-0.0101594087
8.5263118744,-0.0031687126,-0.0069569615,0.0035334583,0.0127166286,-0.0007804336,-0.003718554
8.536280632,0.0017761483,-0.0137102865,0.0056280848,0.0042642877,-0.0146680204,0.004876798
8.5463542938,0.0055986238,-0.0077611473,0.0144434925,0.0074560861,-0.014616088,0.0080614062
8.5562763214,0.0054247868,0.004909608,0.0182796475,-0.0021785637,-0.0167087987,0.0218921341
8.5663318634,0.0130175846,0.0097182728,0.0171767827,-0.0181378238,-0.0284709167,0.0357906409
8.576259613,0.0138326781,0.0046630236,0.0188462492,-0.0244561732,-0.0371123403,0.030537555
8.5862989426,0.0020883277,-0.0005432036,0.0115165468,-0.0350931063,-0.0425204225,0.0327048339
8.5962581635,0.007838835,-0.0027181769,0.0052442309,-0.0426318496,-0.0329903029,0.0294628348
8.6063156128,-0.0020653114,-0.0059405235,0.0047805067,-0.0300148558,-0.0083376858,0.0261069871
8.6162500381,-0.0120198233,-0.0032358433,-0.0013059024,0.0018410776,0.0143053085,0.0206272639
8.6263237,-0.0103156073,0.0045516822,-0.0050435904,0.030584842,0.0262298789,0.0141555173
8.6362771988,-0.0036712096,0.0027413701,-0.0006833914,0.035883598,0.0368292592,-0.0007892101
8.6462974548,-0.012493263,0.011504326,-0.0179096702,0.0410986021,0.0570586324,-0.0147351194
8.6562232971,-0.0231927149,0.00380728,-0.0193479303,0.0464285165,0.058165174,-0.0147443078
8.6662626266,-0.0008954511,-0.0026099349,-0.0010116341,0.0304373018,0.0527610891,-0.0072613573
8.6761856079,0.0059062135,-0.0131362937,0.0053780433,0.0273175407,0.0441537499,-0.0114546372
8.6862392426,0.0030108585,-0.0199044608,0.0008655545,0.0198918507,0.0356095321,-0.0039573065
8.6961946487,0.0066963625,-0.0071405438,0.0039764401,0.0061041317,0.0206305832,0.0067733685
8.7062759399,0.0123543637,-0.0070540574,0.0187105294,-0.0108562093,0.0045038103,0.0111393547
8.7162094116,0.0150678055,-0.0012949373,0.025288498,-0.0427137427,-0.0202255044,0.023008531
8.7262496948,0.0168899484,-0.0054312614,0.0238554832,-0.0437105633,-0.0308757517,0.0283902474
8.7361879349,-0.0025556788,-0.0117221735,0.0037857648,-0.0297851581,-0.0350800827,0.0241584834
8.7462568283,-0.0094188554,-0.0071009663,-0.0083642844,-0.0190973617,-0.0350337438,0.0199011546
8.7561855316,-0.0046213674,-0.0081042908,0.0012089369,-0.0095332842,-0.0275292229,0.0134697547
8.7661781311,-0.0067002284,-0.0013122227,0.0030533429,0.0116670765,-0.0102463728,0.0154676577
8.7761573792,-0.0088744266,0.0094339587,0.0032040831,0.0414273664,0.0060034366,0.0142806871
8.7862501144,-0.0099251373,0.0145031549,0.0085772034,0.0724806264,0.0049387044,-0.0133562675
8.796169281,-0.0148039265,0.0205484368,0.001394963,0.0808795691,0.0158286374,0.0025027234
8.8062353134,-0.0117447479,0.0032064056,-0.0075254682,0.0755388662,0.0178885926,-0.0017564702
8.816157341,-0.0119696064,0.0102913119,0.0067355391,0.0455335639,0.028424589,0.0077584721
8.8262500763,-0.007371645,0.0114243962,0.0159893986,0.0187738538,0.0315511413,0.0226303618
8.8361501694,0.0070155156,0.0084836222,0.0112861153,-0.0292109828,0.0237342305,0.0269643907
8.8462085724,-0.0028522715,-0.0103758238,0.0070998427,-0.0505170673,0.0213682782,0.0195578728
8.8559494019,-0.0108200414,-0.0068360236,-0.0070867781,-0.0568440706,0.0117036663,0.0196232535
8.8661766052,-0.0022691891,-0.0021526481,-0.0065747146,-0.0642386079,0.0030779545,0.0175595693
8.8761034012,0.001451303,-0.0013436343,0.0017212388,-0.0503137372,-7.84243e-05,0.0111975456
8.8861761093,0.0042253626,0.0102662183,0.0033194181,-0.0246350057,-0.0052691917,0.0059013171
8.8960561752,0.0051745665,0.013158951,0.0051272865,-0.0022122534,-0.0030254782,-0.0026306529
8.9061422348,0.0032810464,0.012194667,0.0042030569,0.0244952571,-0.0039240289,-0.006893042
8.9160814285,0.0082560973,0.014332328,0.0044922587,0.0384520851,-0.0092551447,-0.0174900256
8.9261932373,0.0065436852,0.008686278,0.006808674,0.0512975752,-0.0123894196,-0.0206658468
8.9362449646,0.0067678285,0.0031162237,0.0160422679,0.0448055901,-0.0027991098,-0.0186002962
8.946144104,0.0029728308,0.0013180111,0.0183763262,0.0381767154,0.0207448322,-0.0091868229
8.9560680389,-0.0067985165,0.0052816602,0.0090273973,0.0572955459,0.0326446369,-0.0092749735
8.9661302567,-0.0068998146,0.0152393319,0.0076297875,0.0498136654,0.0305218268,-0.0007568527
8.9763040543,-0.0088514788,0.0113624074,-0.0037480239,0.0092698317,0.0301631019,-0.0060383007
8.9861354828,-0.0195066147,-0.0013659265,-0.0007111672,0.0061129206,0.0279284418,-0.0145207345
8.9960670471,-0.0156156523,0.0035913324,0.0003242251,-0.0151147358,0.0107172318,-0.0080195591
9.0061159134,0.0048088026,0.0008035634,0.0149135347,-0.0406864099,0.0041248426,-0.0058341692
9.0163621902,-0.0029010579,-0.0071837571,0.0135719534,-0.0353482366,0.0041615944,-0.0069027627
9.0261154175,-0.0018105016,-0.0024659301,-0.0052531008,-0.0235770624,0.0010371739,-0.0079531129
9.0361261368,0.0041652215,-0.0034295584,-0.0073753837,-0.0224795733,0.0009660673,-0.0175159909
9.0460281372,-0.0034707591,-0.0083363913,-0.0007280353,-0.0117441062,-0.0064324602,-0.0174755119
9.0562763214,0.0005459382,-0.0004705455,-0.0037405733,-0.0032727243,0.0011314497,-0.0154050374
9.0660305023,-0.0052200067,0.0015405748,0.0040716883,0.0138162477,-0.000855801,-0.013279302
9.0760154724,-0.0070278156,-0.0022715593,0.0042407271,0.0244593043,0.0013993637,-0.0090512671
9.0860643387,-0.0020920143,-0.0020876194,0.009409165,0.0276825279,-0.0007223766,-0.010102151
9.0962638855,0.0028347864,0.0010114048,0.0144995209,0.0149146691,-0.0061568231,-0.008995208
9.1060037613,0.014573087,-0.0007660057,0.0186019894,0.008443987,-0.001849959,0.0005429031
9.1160411835,0.0136178033,-0.0046524671,0.0206337329,0.0030525494,0.005571472,-0.0016261084
9.125992775,0.0058572185,-0.0047371653,0.0156698581,-0.0033238567,0.0033573196,-0.004794471
9.1361293793,3.91497e-05,0.0011477802,0.0137703773,0.0254838225,0.0077938796,-0.0122811496
9.1460170746,-0.0046106684,0.0001132224,-0.0085867289,-0.0002303291,0.019351732,-0.012338141
9.156003952,-0.0269142203,-0.0088266395,-0.010660911,-0.0098627172,0.0224825442,-0.0123511907
9.1658554077,-0.0210988037,-0.0019442107,-0.0125578288,-0.0003067618,0.0258264095,-0.0049428092
9.1759090424,-0.0017845139,0.0050163004,-0.0104467515,-0.0153267235,0.0280022118,0.0131142223
9.1860809326,0.0018307462,-0.0028227235,0.0071170088,-0.018490294,0.0195101909,0.0227324925
9.196105957,0.0093188183,-0.0028584863,0.0110626575,-0.0014623078,0.0239560716,0.0269400235
9.2059926987,0.0052025807,-0.0039574173,0.0062462445,0.0147219887,0.0079403538,0.0142838815
9.2159776688,0.0022308126,-0.0176210664,0.0093887802,0.0244015139,-0.0005404828,0.0143347485
9.2260160446,0.0051005972,-0.0175215267,0.0096694585,0.0297890883,-0.0037687668,0.0069151819
9.2359762192,-0.0026969418,-0.0097347163,0.0010154006,0.0266545489,-0.0102442428,0.0027108495
9.2460317612,0.0021629229,0.0020840501,-0.001800919,0.012913703,-0.0263915211,0.0017627641
9.2559661865,0.0051302505,-0.002714243,0.010871565,-0.0094274227,-0.0361714475,0.0029027301
9.2660398483,0.0101396041,-0.002744999,0.0105754491,-0.0349397063,-0.0471021272,-0.0023205278
9.2759590149,0.011321892,-0.0009873774,0.0002027508,-0.0563079827,-0.0440773107,-0.0044509233
9.2859716415,-0.0011820302,-0.00128248,-0.0044338349,-0.0531830229,-0.0354846194,-0.002384044
9.2959833145,0.0018107786,0.0005320046,-0.0059366468,-0.0479921252,-0.0204201806,0.0049525648
9.3059473038,-0.0012194321,0.0062336656,0.0004546401,-0.0300344322,0.0021724794,0.0058559095
9.3160181046,-0.011961977,0.0031715964,0.0002774355,0.0040867892,0.0067121042,0.0058023799
9.325928688,-0.0071916091,0.007113907,0.0013723132,0.0051065134,0.0141652264,0.0015037714
9.3359670639,-0.0141346259,-0.0035679007,0.0162348505,0.0315722078,0.0389970727,0.0066364827
9.3459243774,-0.008484493,0.0014542077,0.0070886966,0.0634814054,0.0541797541,0.0033285695
9.3559875488,-0.0047687995,0.0026048755,0.0010333416,0.0561641082,0.0359392315,0.00132534
9.3659143448,-0.00778247,-0.0049940017,0.0104363319,0.0454984084,0.038972307,-0.0093107931
9.3759841919,-0.000847827,-0.0185323022,0.0050004479,0.0060992055,0.0258706193,-0.0060118018
9.3859195709,0.0107447999,-0.0115556978,0.0138640758,-0.016215954,0.0139321992,-0.0069811922
9.3959703445,0.0040759933,-0.0117121004,0.0018937942,-0.032044448,-0.0033983209,-0.0185403768
9.4058980942,0.0014526441,-0.021571245,-0.0004718545,-0.0554323345,-0.0142853241,-0.0205782279
9.4158935547,0.0075430763,-0.0235798024,0.0057870504,-0.0648941472,-0.0335634127,-0.0172624588
9.4259567261,0.0135604339,-0.0119616054,0.0080018397,-0.0627050251,-0.038917698,-0.0204164404
9.4358930588,0.0097851055,-0.0013730194,0.0121341702,-0.0606132448,-0.0387874693,-0.0066056866
9.4459495544,0.0176592954,0.0024195646,0.0164144393,-0.0563692302,-0.0418248028,0.0093469145
9.4558525085,0.00985377,-0.0007818606,0.0196717735,-0.0533271059,-0.0267403964,0.0209343266
9.4659423828,-0.0107590659,-0.0002203252,0.0064630266,-0.0130856745,0.0099643562,0.0270425528
9.4758720398,-0.0208837204,0.0073962542,-0.0012774708,0.0347231254,0.033926148,0.035350021
9.4859352112,-0.0174766295,0.0114222504,0.0129167195,0.0421331078,0.0435572006,0.0299704336
9.4958553314,-0.0206600539,-0.0032043124,0.011521196,0.0432087556,0.0435446836,0.0278462954
9.5058660507,-0.0180658214,-0.0041992334,-0.0034913067,0.0462772548,0.0606509708,0.0256084409
9.5158691406,-0.0135674579,0.0036884879,-0.0097543839,0.0389040262,0.0530146211,0.0139757553
9.5258426666,-0.00620247,0.003863964,0.0121787544,0.0156096201,0.0282885022,0.0184019282
9.5358858109,0.01898681,-0.0047818688,0.019246256,-0.0237031635,0.0076410142,0.0143137099
9.5459032059,0.012174,-0.0108376406,0.0140258428,-0.0449128449,-0.0043887505,0.0016578357
9.5559177399,-0.0051958668,-0.0161294602,-0.0080526117,-0.0533545315,-0.0151654985,-0.0003885375
9.5658311844,-0.0012510822,-0.0075561074,-0.0193845276,-0.0651147887,-0.0162525997,0.0081258547
9.5758886337,0.0093906121,-0.0067224172,-0.0102602486,-0.0790194198,-0.0162880197,0.0155683244
9.5858268738,0.0041786623,0.0076805088,0.0113860723,-0.0726408809,-0.0172166638,0.026193805
9.5958919525,0.0039223623,0.0093350746,0.0127163883,-0.0534798354,-0.0148381954,0.037854854
9.6058082581,0.0056256843,0.0071325037,0.0123144742,-0.035362348,-0.0104410509,0.0356889032
9.6158733368,-0.0073320973,0.0057959887,0.0079890247,-0.0215027276,-0.0092452914,0.0377954654
9.6258001328,-0.0096140606,0.0115077831,0.0098443385,0.0125601683,0.0069501903,0.0259803534
9.6358699799,-0.0127418144,0.0143855549,-0.0034815315,0.0571934171,0.032910686,0.02153101
9.6457920074,-0.0022375688,0.0098275281,0.003295755,0.0860543624,0.0351171121,0.0034358953
9.6558628082,-0.0004054115,0.0034251546,0.0219055768,0.1074838862,0.0319314376,-0.0135568036
9.6657934189,-0.0003791557,0.0077261063,0.0181159731,0.1170568839,0.0373222083,-0.0167856198
9.675784111,0.0056579602,0.0041006538,-0.00914892,0.0743016899,0.0455135629,-0.0199955292
9.6858301163,-0.0175718181,-0.010534551,-0.0174591783,0.0359092988,0.037807703,-0.0114196166
9.69576931,-4.2002e-05,-0.0103118084,-0.0189686064,0.0114275264,0.0259355996,-0.0028270609
9.705789566,0.0075134528,-0.0014372136,-0.0043164138,-0.0312586874,0.0182601027,0.0131883901
9.7158269882,0.0023430481,-0.0045689014,0.0099354144,-0.0589586273,0.0053589516,0.0292260814
9.7257413864,0.0020255938,-0.0078197382,0.0142279621,-0.0771091357,0.0020939163,0.0388214476
9.7357873917,-0.0032188699,-0.0014764335,0.0056455489,-0.0727904141,-0.0074125035,0.0484427847
9.7457513809,-0.0026367411,0.0020839905,0.0031502005,-0.0343434215,-0.0071696229,0.0420400128
9.7558135986,-0.0078294678,0.0076870057,-0.0029972438,-0.0086585693,-0.0113300141,0.0324885845
9.7656135559,-0.0061185467,0.0096156336,0.0019633528,0.0308749918,-0.0121747684,0.0229049344
9.7758026123,-0.0053276527,0.0234051086,0.0004103538,0.0725089908,-0.0066380566,0.0079675298
9.7857522964,-0.0111010177,0.0186756589,-0.0087010507,0.0842620507,-0.0034406651,-0.0037477156
9.7957963943,-0.0051041353,0.0073101255,-0.0059346799,0.0757433996,-0.0046073962,-0.0079858694
9.8057842255,-0.0010591552,-0.0001830127,0.0024760123,0.0512875915,-0.0113182953,-0.0206739679
9.8157911301,0.0069745076,0.0021326279,0.0164634939,0.0247133709,-0.0201807618,-0.033347819
9.8257284164,0.0081641572,0.0100919344,0.023255026,-0.0126270782,-0.0288837068,-0.0173294377
9.8357801437,0.0181124397,0.0110773183,0.0171771403,-0.0319878608,-0.0150507158,-0.0067805233
9.8458852768,-0.0069959569,0.0067328545,-0.0078261141,-0.0557182208,0.0136504378,-0.0037628957
9.8557682037,-0.0255579464,-0.0063171652,-0.0093408469,-0.052669704,0.025581399,0.0142200999
9.8657112122,-0.0092705889,-0.0014515783,-0.0026579145,-0.0432232022,0.0459433943,0.0119566787
9.8757667542,-0.0153760416,0.0003245805,0.0020157453,-0.0315805301,0.0609306023,0.0033489431
9.8859148026,-0.0097652776,-0.0035630132,0.0137906428,-0.0122955143,0.053570956,0.0001960264
9.8957223892,0.013436039,0.0073058936,0.0081388112,-0.0047092345,0.0418264121,-0.0050445423
9.9056940079,0.0028464689,-0.0122504495,0.0102457758,0.0147422282,0.0183453243,-0.0187169462
9.9157419205,0.0049573076,-0.0130919479,0.0065827128,0.0298090633,0.0055898475,-0.0239561796
9.9256916046,0.0071189594,-0.008961644,0.004977202,0.0491308272,-0.0050031417,-0.0302753299
9.93567276,0.0024548664,0.0020195579,0.0062710401,0.052421432,-0.0198499989,-0.0195574388
9.9457092285,0.0035860732,0.0100848414,0.0114568826,0.0374901518,-0.0210433602,-0.0206016637
9.955663681,-0.0078404946,0.0052362415,0.0076214429,0.0097064571,-0.0211759862,-0.0110201426
9.9657278061,-0.0085923774,-0.0016387369,-0.0002691391,-0.0107034761,-0.010536924,0.0016738144
9.975651741,-0.0036839948,-0.0104121231,0.0026368257,-0.0064843632,-0.0051429579,0.0037610671
9.9857254028,-0.0019555495,-0.0045453575,0.0152980443,0.0030771848,-0.0049509439,0.0175642315
9.9956321716,0.0083907144,0.007275972,0.0329423323,0.0008995179,-0.0006728419,0.0196620021
10.0056228638,-0.006322484,0.0206538178,0.0092510935,-0.0204158891,0.0022142911,0.0015975148
10.0156679153,-0.0285507254,0.0056513282,-0.0115636829,-0.026964739,0.0203189924,-0.0006420703
10.0258541107,-0.0197762363,0.0016920302,-0.0194282774,-0.0227284469,0.0235763043,0.0014586314
10.0356884003,-0.0004282997,0.0056882235,-0.0145603064,-0.0291145761,0.023481762,-0.0027815208
10.0456237793,0.0005026652,-0.0021738077,-0.0049823169,-0.0407909378,0.0159008075,-0.0037865979
10.0556545258,0.010361244,-0.0168382786,-0.0022079591,-0.0375847593,0.019051861,-0.0133715803
10.065618515,0.0065086675,-0.0071367887,-0.0024979953,-0.0225448217,0.0095036291,-0.0186321232
10.075627327,0.0153326886,-0.0002143647,0.0042022821,-0.0118341204,0.0053059547,-0.0196766146
10.0856113434,0.0174599774,-0.0040402678,0.0090364572,-0.0031857714,-0.0095539512,-0.0153367277
10.0956325531,0.0146926539,-0.0010608699,0.0099513289,0.005353787,-0.0105334623,-0.0121471919
10.1056070328,0.0020498231,0.0116212107,0.0079850908,0.0319931209,-0.0060249968,-0.0090078581
10.1156721115,0.0041113389,0.0127268769,0.0005349275,0.0437392592,-0.0080396784,-0.0058181901
10.1255559921,0.0004326596,-0.0007616546,-0.0018853787,0.0660786554,0.003835357,-0.0122851441
10.1355981827,-0.0091580553,-0.0103068016,-0.000288153,0.068168968,0.0102434559,-0.0144516258
10.145565033,-0.0033576295,-0.0041530994,0.0071127769,0.0457368977,0.0059309984,0.0015278733
10.1556148529,0.0053406847,-0.0009843375,0.0163477417,0.0372404829,0.0036622519,-0.0058872993
10.1655378342,-0.005380671,0.004888806,0.0135799404,0.0222918913,0.002514163,-0.0016198501
10.1756048203,-0.0033749447,0.0155124404,-0.0090214852,-0.0298959482,-0.0117843486,-0.0014904203
10.1856021881,-0.0090236468,-0.0148441456,0.0063183662,-0.0469321907,-0.0162094571,-0.0035746102
10.1955718994,-0.0090098782,-0.0091951154,0.0018520709,-0.0608710349,-0.0130144628,0.0081024189
10.2055244446,0.0036591187,-0.0113102458,-0.0035193805,-0.0587309226,-0.0140576232,0.0091700796
10.2155895233,-0.0021773682,-0.0077029732,-0.0148713831,-0.0545292534,-0.0065286006,0.01017782
10.2255210876,-0.0022848353,-0.0059029129,-0.0084635857,-0.033151526,-0.0095787188,0.009120279
