0.0000000000,0.0048193070,0.0057448908,-0.0051781083,0.0667960197,0.0059327595,-0.0189650934
0.0098049641,0.0124439923,0.0080129663,-0.0017877365,0.0688152313,0.0176501349,-0.0147125572
0.0198379755,0.0122621385,-0.0091639003,0.0065450524,0.0634822473,0.0176381506,-0.0094022136
0.0299398899,0.014077249,-0.0089256009,0.0139344782,0.0475031212,0.0164810084,-0.0019613421
0.0399628878,0.010179284,-0.0088298162,0.0049199318,0.0198446494,0.0078069591,0.0065348078
0.050041914,0.0092480807,-0.0137066683,0.0048701023,-0.0024782326,-0.0008560375,0.0097215464
0.060100913,0.0064138207,-0.0088787517,0.0106993178,0.0007159635,0.0002530359,0.0129073532
0.0704829693,-0.0032448142,0.0133944908,-0.0001291181,0.0060500083,0.0002788685,0.0097206142
0.0806279182,-0.010047731,0.0124430219,0.0007356261,0.0188342463,0.0024629273,0.002287199
0.090405941,-0.0100956233,0.0076831146,0.0005488847,0.0316637568,-0.0007120934,-0.0136446301
0.1007390022,-0.008302209,0.0020529788,0.0100636343,0.024272209,-0.0093198307,-0.0221423768
0.1106929779,0.0002971621,-0.0093952259,0.0147499293,0.0210660286,-0.0094101112,-0.0316977985
0.1206378937,-0.0008847682,-0.0033880312,-0.0020775343,0.0285053551,-0.0061836913,-0.0348824076
0.1309239864,0.0018015237,0.0026481908,-0.0101224333,0.0337264836,0.0055685723,-0.0295688678
0.1408969164,0.0084251193,0.0067510172,-0.0103479167,0.029450167,0.0066766469,-0.0168269072
0.1509469748,0.0112317232,0.0029941362,-0.0036188508,0.0144123612,0.0172669739,0.0001709848
0.1609719992,0.026628796,-0.0117583117,0.0013261889,-0.0016501499,0.0235542301,0.0097356606
0.1710449457,0.0248750485,-0.0147277554,0.0068662022,-0.0230337344,0.027632596,0.012928525
0.1809829473,0.0228075422,-0.0190695953,0.0034090136,-0.0218711589,0.0181072671,0.0150465369
0.1911360025,0.0155155687,-0.008695229,-0.0029316093,-0.0249772016,0.0085233497,0.0139807407
0.2012549639,0.0092031984,-0.0035141546,0.0009434675,-0.0248686783,-0.0020731683,0.0160993524
0.211435914,0.0021849901,0.0107551375,-0.0106610805,-0.0185410082,0.0054028574,0.0150396796
0.2213718891,-0.0041598645,0.0097346464,-0.0156351477,-0.0186923556,0.0202505793,0.0139847351
0.2314349413,-0.0085968943,0.0121305743,-0.0198614746,-0.0230274498,0.0265446939,0.0086799841
0.2414859533,-0.0057742265,-0.0005283194,-0.0127527863,-0.026262816,0.0296435487,0.0001887613
0.2517719269,-0.0004386275,-0.012196525,-0.0073386575,-0.019800391,0.0244775489,0.0129261278
0.2616639137,-0.0006044476,-0.0065431432,-0.0069589163,-0.0300037861,-0.0054853437,0.3134020269
0.2716048956,0.129734993,-0.0041889981,-0.0240852386,-0.0674952343,-0.081356138,0.6074919701
0.281801939,0.1873556972,0.014516429,-0.0262816101,-0.0618469864,-0.0263964832,0.2411989123
0.2920399904,0.042156402,0.0119846025,0.0012526964,-0.0151969306,-0.009541871,-0.0030182838
0.301880002,-0.0158879124,0.0044531389,0.0019779657,0.007934913,0.0245669633,-0.0104398476
0.3119679689,0.0122325448,-0.0021473605,-0.0096048256,0.0272545498,0.0141870268,-0.0008937471
0.3220208883,0.0065498087,0.0015396638,-0.0113617331,0.0356763452,0.025960397,0.003357124
0.3323349953,0.0062786969,0.004669623,-0.0145074865,0.0323748216,0.0366255566,0.016104877
0.3421509266,0.0060686502,0.0048138662,-0.0126161724,0.0184208192,0.0438982509,0.0108015919
0.3522429466,0.0041180286,0.0030650657,-0.0001159455,0.0131597435,0.0364246219,0.0107991947
0.3622759581,-0.0025096505,0.0057242676,0.0120401233,-0.0017056763,0.0288173687,0.0033678431
0.3725559711,-0.0034837096,0.0080823461,0.0199931711,-0.0186577626,0.0158600248,-0.0083141131
0.3824129105,-0.0121587785,0.0144401351,0.0070276116,-0.0079169925,0.0084426552,-0.0210616663
0.3925409317,-0.0191698037,0.0183096696,0.0052575325,-0.0078882314,0.0052181003,-0.027434079
0.4025239944,-0.0201486014,0.010427312,0.0074722623,-0.0014854595,0.005224226,-0.0348669589
0.412612915,-0.0221017562,0.0131805697,-0.0039212252,-0.0003874376,0.0020366884,-0.0369924307
0.4227159023,-0.0211383663,0.0159702469,-0.0104481122,-0.0121500622,0.0040856577,-0.0327430256
0.4327429533,-0.0104788216,0.0160446931,-0.0075186635,-0.0079124402,0.0073198006,-0.0306188855
0.4428158998,-0.0017445354,0.0142953554,-0.0049297954,0.0016618911,0.010614397,-0.0263724755
0.4528889656,0.0041112932,0.0087486068,-0.0026041414,0.0069959359,0.01064023,-0.0295592137
0.4629579782,0.0023807914,0.0165321399,-0.002912059,0.0304520205,0.0129172988,-0.0369950905
0.4730889797,0.0037204653,0.0116633931,0.000604019,0.0433092266,0.007703362,-0.0401863568
0.48307693,0.0039879116,0.0059673353,0.0058960174,0.0485780537,0.0141454823,-0.0359390825
0.4931418896,0.0004139574,0.0058907433,0.0056495522,0.0401086695,0.0077533633,-0.0285075307
0.5032509565,0.0007309349,-0.0030417878,0.0087070921,0.0176722296,0.0107885674,-0.0210671928
0.5132910013,0.0008986028,-0.0042209462,0.009978638,-0.0121493163,0.0052848794,-0.0115061775
0.5233669281,-0.0019990175,-0.0121943196,0.005534098,-0.0334237628,-0.001247722,-0.008317708
0.5333509445,-0.006953117,-0.0075194077,-0.0067299749,-0.0483710207,-0.0002756682,-0.001942633
0.5434849262,-0.0127785476,0.0038699668,-0.0159784704,-0.0451602079,-0.0013296143,-0.0051292386
0.5535589457,-0.0177386366,0.0105611244,-0.0215286165,-0.0270850696,0.0051671672,-0.0093777794
0.5636339188,-0.017934259,0.0135830799,-0.0117726475,-0.010101025,0.0137420129,-0.0189340003
0.573679924,-0.0161825083,0.0215041805,-0.0109151155,0.0058899252,0.0148735903,-0.0295554847
0.5837659836,-0.0165713392,0.0130818645,-0.0102343103,0.023883095,0.0287360102,-0.0433574505
0.5938448906,-0.0092664333,0.0047794743,-0.0018540169,0.0292267278,0.0276869908,-0.0486683249
0.6039578915,-0.0039399234,0.0013320012,0.0046109413,0.0291842502,0.0318953842,-0.0539742075
0.6139678955,0.0004994305,-0.0033134061,0.0036343788,0.0121352244,0.0296727084,-0.0465383977
0.6240599155,0.0051700505,0.001512186,0.0069050048,-0.0027818047,0.0274766013,-0.0380423144
0.6340819597,0.0061955485,0.0119570652,0.0084308237,-0.0177024323,0.0263958909,-0.0210502818
0.6441379786,0.002482,0.0106759826,0.004022405,-0.0240277331,0.0189332478,-0.0178665388
0.6542229652,-0.0031433075,0.0035489958,0.0015964364,-0.0250511859,0.0146937603,-0.0157447979
0.6642919779,-0.0069055525,-0.0025281149,0.007872209,-0.0303529538,0.0114492308,-0.0178676024
0.674407959,-0.0128189893,-0.001650496,0.0022215103,-0.0154706771,0.0168293491,-0.026363086
0.6844379902,-0.0120651098,-0.0025055844,0.0012218808,0.0005418193,0.0158744063,-0.0316774957
0.6945099831,-0.0084969373,0.0035958451,0.0029443358,0.0293857157,0.0129361413,-0.0327480845
0.7045679092,-0.0059250561,0.0107190767,-0.0042869593,0.0421511829,0.0173124466,-0.0295634083
0.7146539688,-0.0042424169,-0.0006502109,-0.0046410109,0.0410765931,0.0184056759,-0.0231917948
0.724703908,-0.0005129544,0.0044362708,0.0028685187,0.0304623004,0.0130559159,-0.0157591794
0.7347649336,0.0032859773,-0.0051228241,0.0153903216,0.0145096993,0.0076249321,-0.013634243
0.7448219061,-0.0006159513,-0.0079498133,0.0122098178,0.0113821356,0.0001702115,-0.0136374393
0.7549169064,-0.0044248668,0.0008183283,0.0061141108,0.0220763255,-0.0018378119,-0.0104557602
0.7649829388,-0.0062389341,-0.0001162725,0.002959237,0.0178307146,-0.0039763302,-0.0072703538
0.7750339508,-0.0032283037,-0.0088056764,0.0105702737,0.0209996104,-0.0007722811,-0.0083313566
0.7851428986,-0.0002632706,-0.0116937598,0.0095208148,0.0284030102,0.0056527946,-0.0093925595
0.7952439785,-0.0012723772,-0.0058011846,0.0015359973,0.033667814,0.0131748933,-0.0019575469
0.8052510023,-0.0002910464,0.0020985764,-0.0046142484,0.0421336815,0.0207108408,0.0033533289
0.8153969049,0.000586036,0.0013796849,0.0007416462,0.0400010236,0.0207129717,0.0065392684
0.8254439831,-0.0004165141,0.001591043,0.0061620926,0.0283174962,0.0153190708,0.0086633395
0.8355139494,-0.0032640069,-0.0051579908,0.010817931,0.0166339427,0.0099322945,0.0118490122
0.8457399607,-0.00507265,-0.0051942305,0.0097128013,0.0080592576,0.0141213145,0.0150398789
0.8554919958,-0.0107985111,0.0025612873,-0.0031464244,0.0068674926,0.0268855784,0.0214173514
0.8654789925,-0.0146214934,0.0064209863,-0.015936628,0.0035830159,0.0353733413,0.0256696194
0.8755578995,-0.010661629,0.0005318088,-0.0089811822,-0.0007606,0.0427561551,0.0246126112
0.8858169317,-0.0047469107,-0.0015296178,0.0010765647,-0.0146293314,0.0415763743,0.0246131439
0.8959259987,0.0040713879,-0.0104001006,0.0112024993,-0.0306165516,0.0392937772,0.0214306656
0.9059519768,0.008030626,-0.0115300855,0.013517186,-0.0401335433,0.0306998249,0.0182446595
0.9160139561,0.0081551699,-0.0058649615,0.010842368,-0.0411133245,0.0222301744,0.0224878751
0.9260540009,0.0053920778,0.0065570041,-0.0035594846,-0.0379624292,0.0275692791,0.0235523395
0.9361139536,-0.0021786063,0.0150042931,-0.0119984299,-0.0305548497,0.034021318,0.0267390776
0.9461969137,0.0019790262,0.0117735425,-0.0114941746,-0.0198848397,0.0341078714,0.0256743468
0.9562638998,-0.0008055834,0.0057498976,-0.0082946569,-0.0060462561,0.0373843573,0.0214252733
0.9663639069,-0.0017258493,-0.0011337238,-0.0032692696,-0.0103382859,0.0394627564,0.0203650035
0.9763718843,0.0021014244,-0.0078785857,0.0035821055,-0.0027863607,0.0309984311,0.0139880637
0.9864269495,0.0019996196,-0.0039043266,0.0054360484,-0.0016921731,0.0288908072,0.0150503982
0.9965479374,-0.0019518702,-0.0019725997,-0.0013533379,-0.0124454852,0.0373271666,0.021428138
1.0066959858,-0.006833252,0.0027300876,-0.0059315111,-0.0167673435,0.0426162742,0.0246166736
1.0166209936,-0.0067084995,-0.003329857,-0.0025539543,-0.0198840406,0.0340933576,0.0235514082
1.0267189741,-0.0017707614,-0.0142056784,-0.0011656429,-0.008085384,0.0277671516,0.0139894616
1.0367069244,0.0002265008,-0.0162452292,-0.0009576823,-0.0026442809,0.0171898752,0.011859199
1.0468629599,0.0022316605,-0.0104392013,0.0019888734,0.0070083463,0.0119562298,0.0097292028
1.0568269491,0.0003006191,-0.0006942588,-0.005979016,0.0113082863,0.00880358,0.0086647375
1.0668638945,-0.001601067,0.0090624252,-0.0120185763,0.0112934792,0.0109801823,0.0171610191
1.0768899918,0.002425316,0.0148872295,-0.0062640454,0.0113366228,0.006743093,0.018220691
1.086992979,0.0026030869,0.0060987039,0.0044234847,0.0103273634,0.0014413384,0.020343164
1.0970818996,0.0008828671,0.0108764926,0.0033823703,0.0006624861,0.0077650142,0.0267195702
1.107041955,-0.0077367392,0.01367201,-0.0005161311,-0.0089556007,0.0087717557,0.0309677795
1.117215991,-0.0085452469,0.0028641385,-0.0013865377,-0.0185512342,0.0075991657,0.0267224349
1.1272219419,-0.0083807679,-0.0031159956,0.0007409905,-0.0270453058,0.0032875747,0.0277841706
1.137280941,-0.006250855,-0.0033030945,-0.0029235031,-0.0121726179,0.009742545,0.0214128233
1.1473919153,-0.0080757113,-0.0005294519,-0.0046867277,-0.0036575077,0.0119037665,0.0161034781
1.1574739218,-0.0050582853,-0.0006301242,-0.0055230404,-0.0025605513,0.0087023806,0.0118544055
1.1675409079,-0.0030386716,0.0071257516,-0.0006685401,0.0017371513,0.0055505293,0.0107891411
1.1774669886,-0.0019803613,0.0071049496,-0.001688018,0.0091852136,0.0077308593,0.0097265402
1.1876759529,-0.0018251507,0.00705363,-0.0027029659,0.0113308178,0.0066526788,0.0044176616
1.1976679564,-0.0027113527,0.0031569165,-0.0037680413,0.009207746,0.0055799577,0.0054794638
1.2078299522,-0.0055624512,0.0041141673,-0.0048394944,0.004967832,0.0023608613,0.005477733
1.2178559303,-0.0025945574,0.0021835726,-0.0048849131,0.0103024105,0.0023936182,0.0033527964
1.2279649973,0.005302194,0.0012371702,0.0008951281,0.017713137,0.0088516511,0.0076022693
1.2379989624,0.0073451432,0.0031724137,0.0008320664,0.0123588508,0.0109616732,0.0129136778
1.248067975,0.0123726157,0.0030867618,-7.1838e-05,-0.0069092792,0.0172082521,0.0203544162
1.2581009865,0.0096003441,0.0009856982,-0.0047812606,-0.0111964364,0.019327594,0.0256655589
1.2681789398,0.0088025955,0.0007881087,-0.0055272724,-0.0144794211,0.0278148223,0.0299183596
1.2782469988,0.0060173604,-0.0052251057,-0.0023044492,-0.0209466405,0.034117993,0.0288613513
1.2883549929,0.0002996357,-0.0074188546,-0.0009501125,-0.0327105708,0.0361176245,0.0256790072
1.2983759642,-0.0015609829,-0.0008210379,0.0013956879,-0.0252832808,0.0404268876,0.0256792735
1.3084878922,-0.0035128861,0.0107029239,-0.0022621895,-0.0050828559,0.0480027124,0.0214313306
1.3185869455,-0.0016021101,0.0126201669,-0.000176325,0.0035377955,0.0395684838,0.0182395354
1.3286099434,0.0032161803,0.0145580927,-0.0010473276,0.0110602668,0.034314733,0.0161115341
1.3386399746,0.0041708383,0.0204195548,-0.0010635401,0.0218279585,0.0248658378,0.0171658807
1.3487169743,0.0031575889,0.015624837,0.0027310704,0.0261997785,0.0142586669,0.011850277
1.3588159084,0.0040992829,0.0118432799,0.0064539169,0.0315103866,0.0163788088,0.0044173952
1.3688669205,-0.0047498015,0.0071302219,-0.0016925479,0.0497437716,0.0069255196,-0.0051477472
1.3789058924,-0.0116491588,0.0121653834,-0.0089566251,0.0411742553,0.010027037,-0.0062058214
1.3889759779,-0.0097215744,0.0006134671,-0.0052418257,0.0294357315,0.0099530015,-0.0019564815
1.399107933,-0.0058000949,0.0016461177,-0.0044157053,0.0166946352,0.0034820524,-0.0008946791
1.4091039896,-0.001872298,0.0026391309,-0.0073971297,0.0166766588,0.0056099845,0.000169187
1.4191589355,0.0001173051,0.0094278613,-0.009334757,0.0027954644,0.0065775109,0.0044203908
1.4292289019,0.0001553924,0.0084306756,-0.0093289763,0.0081002153,0.0098209754,0.0065442622
1.4393239021,-0.0027583211,0.0123625556,-0.0045727636,0.0176825356,0.0120199472,0.0054811281
1.4493889809,0.0001683266,0.009554998,0.0049648141,0.0497252084,0.0090607759,-0.003022478
1.459430933,0.0002020331,0.0106651941,-0.0022674347,0.0668195114,0.0070740571,-0.0051514092
1.4695199728,0.003110531,-0.0017096834,0.0020885919,0.072246708,-0.0024695136,-0.0115287481
1.4795899391,-0.0008623271,-0.0033511359,-0.0064284946,0.093671836,-0.010805741,-0.0168473478
1.4898149967,0.0020077259,0.000906424,-0.0052670385,0.0905019566,-0.0139952078,-0.0136634707
1.4996329546,0.0019473763,-0.0026631195,0.0018816446,0.06708958,-0.0205593687,-0.0125990063
1.5099819899,0.0009790094,-0.0005116301,-0.0015539075,0.0553971566,-0.0249142367,-0.0136586111
1.520015955,-0.0028970211,-0.0003572541,-0.0059185172,0.0457530506,-0.0207194909,-0.0083450722
1.5301269293,-0.005826172,-0.0011588769,-0.0043838168,0.0297209825,-0.0187572744,-0.0115262177
1.540137887,-0.0097335549,-0.0001216965,-0.0074953581,0.0136085926,-0.0082732067,-0.0093932925
1.5502519608,-0.0127347382,-0.002007528,-0.0144310147,0.0112976339,0.0097649824,-0.0061972989
1.5602909327,-0.0079712244,0.0038809341,-0.0056077982,-0.0037465636,0.0202722177,-0.0019410353
1.5703779459,-0.0041854349,0.0019130869,0.0024351333,-0.0198318698,0.0275821295,0.0012501641
1.580403924,-0.0042584506,0.0027817052,-0.0069945599,-0.0273630247,0.0339175202,0.0065642358
1.590520978,-0.0033207505,0.0045402809,-0.0065179016,-0.0507790521,0.0284332074,0.0108165713
1.6005629301,0.0025317699,-0.0024683315,-0.0040009166,-0.0464072078,0.0178189129,0.0044393661
1.6106259823,0.0064700874,0.0031916064,0.0061592315,-0.0494229719,-0.001312037,0.0033667781
1.6207019091,0.0094540147,0.0030631584,0.0084103197,-0.0205412582,-0.0085566342,-0.0072621643
1.6307868958,0.0036556751,0.0185165573,-0.0071652676,0.0051261308,-0.0136532579,-0.0093933595
1.6408119202,0.0026517243,0.0156839658,-0.0063712145,0.0243429691,-0.0145741794,-0.0136458948
1.6509429216,-0.0022434264,0.0119413892,-0.0077051069,0.0328509696,-0.0113034183,-0.0115221571
1.6609669924,-0.0062071052,0.0013750953,-0.010883823,0.020002814,-0.0071712583,-0.0115168309
1.6710869074,-0.004283872,-0.0082815131,-0.0080047995,-0.0013721688,-0.0041531641,-0.0083252313
1.6812078953,-0.0043722955,-0.0005065041,-0.0098917633,-0.0153199416,0.0031457616,-0.0093798432
1.6911739111,-0.0015594928,-0.0005193191,-0.0087332865,-0.0292551704,0.0093758944,-0.0114959246
1.7012349367,0.0031231672,-0.0044174627,0.0023294543,-0.0431076027,0.0071188649,-0.0136171328
1.7113479376,0.0049523446,0.000321762,0.0086228102,-0.0409119874,0.000758171,-0.0157449991
1.7213579416,0.0067967209,0.0060631796,0.0109307617,-0.0312753394,-0.0023340252,-0.0146871898
1.7315119505,0.0067347023,0.0118366638,0.0072084521,-0.0014356049,0.0021842271,-0.0125683127
1.7414729595,0.0076339575,0.0186793972,0.0072070812,0.0103246477,0.0001716763,-0.0115105053
1.7516309023,0.0036491484,0.0109817544,-0.0075615789,0.0326807387,0.0056654448,-0.012575171
1.7616289854,0.002581063,0.0169468094,-0.0117265135,0.0379972085,0.0078617539,-0.0083282273
1.7717009783,0.0063690874,0.0025563997,-0.0002379562,0.0316434912,0.00248097,-0.0115156323
1.7817679644,0.0062448415,0.0036992591,0.0034153913,0.0146131087,-0.001898332,-0.0093898969
1.7918359041,0.0012399586,-0.0030211646,0.0072064851,-0.0078084441,-0.001061101,-0.0136306472
1.8018889427,-0.0037582784,-0.0039827065,0.0043721651,-0.0280205049,-0.0076111457,-0.0146905854
1.812237978,-0.0028991073,-0.0108079752,0.0104321102,-0.0354346372,-0.0130036473,-0.0178753268
1.8219799995,-0.0020063787,-0.0079595884,0.0048221801,-0.0385417491,-0.0226014126,-0.0210647285
1.8322908878,-0.0001197426,0.0026533764,0.0031465744,-0.0374359787,-0.0268204603,-0.0189453196
1.8423229456,-0.0011004774,0.0083899656,-0.0064318324,-0.0107875895,-0.0233767256,-0.0147031695
1.8523929119,-0.0001564293,0.014256672,-0.0162743479,0.0105556501,-0.023169199,-0.0115234219
1.862533927,-0.0031564801,0.0124680558,-0.0068152095,0.0307778306,-0.0176870823,-0.0115258181
1.8723748922,-0.0022402673,0.0097663561,-0.0072416211,0.0413768403,-0.0101818945,-0.0136471596
1.8824669123,-0.004260656,0.0002629918,-0.0086464426,0.0445249639,-0.0048489152,-0.0136452951
1.8924928904,-0.0063237813,-0.0024039585,-0.0091338893,0.0466575138,-0.0048225494,-0.0125848241
1.9025559425,-0.0005609362,-0.0099508008,-0.0007299925,0.0274396129,-0.0039154771,-0.0104558934
1.9126249552,-0.0054940549,-0.0118000945,0.0010339473,0.0061529921,-0.0093794176,-0.0062058209
1.9227099419,-0.0064290729,-0.0079544028,-0.010646536,-0.0098619265,-0.0084236097,-0.0008922823
1.9328089952,-0.006375399,-0.0041870908,-0.0055419351,-0.0269341748,-0.0085591646,0.0012358496
1.9428349733,-0.0043679443,-0.0014095145,-0.0032994892,-0.0355361849,-0.002281561,-0.0008824286
1.9528919458,-0.0033968061,-0.0005849439,-0.0019680406,-0.0366157219,-0.0012577088,-0.0051287059
1.9630008936,-0.000470665,0.0022155207,0.0002803062,-0.0270307418,0.0009758844,-0.0008828281
1.9732769728,0.0004828007,0.0079848925,-0.0024799253,-0.0110034905,-0.0010415269,-0.0061963005
1.9831138849,0.0033619434,0.0060646697,0.0014929031,-0.0109800547,-0.0031358367,-0.0019501565
1.9932299852,0.0014367731,0.0011543793,-0.0072659994,-0.0035339631,-0.0009263449,0.0012329867
2.0032567978,0.0034182102,0.0040492578,-0.006274655,-0.0013352577,-0.0072667985,0.0022910605
2.0133039951,0.004450086,0.0050257011,0.0005392884,-0.0034559313,-0.0083332621,0.0044153309
2.0233898163,0.0075168642,0.0040139719,-0.0014524604,0.004090135,-0.0156742651,0.0075951451
2.0334458351,0.0086476533,0.0040062233,0.0071840738,0.0031543002,-0.0283955205,0.010775093
2.0435268879,0.0059108171,-0.0008680659,0.0099665383,7.06259e-05,-0.0400875956,0.0118318358
2.0539629459,0.0012427302,0.0039318963,0.0019466137,0.0117519964,-0.0347142704,0.0065221582
2.0637319088,-0.007356104,0.0029455584,-0.0119939595,0.0191366747,-0.0261609945,0.0065245545
2.0737249851,-0.0092083784,-0.0028390724,-0.0151299387,0.0201177299,-0.0176846851,0.0033434087
2.0838561058,-0.0082246633,-0.002767964,-0.0123971254,0.0231982097,-0.0060341549,-0.0040841475
2.0938458443,-0.0053768721,-0.0045641498,-0.0116357356,0.0315610915,0.0109608741,-0.0125719747
2.1039118767,-0.0007008283,0.0014549656,-0.0059580351,0.0261508822,0.0183412917,-0.0125669148
2.1139860153,0.0049576792,0.0074414178,-0.0011890079,0.0080343559,0.0160596296,-0.0125622544
2.1240611076,0.0076922807,0.0065539642,0.0066722487,-0.0165404938,0.0190421026,-0.0104309265
2.1341228485,0.0066081318,0.0045473739,0.0030505513,-0.0324864089,0.0125657618,-0.0061847158
2.1441378593,0.0065286788,0.0024746221,0.0063788746,-0.0398716256,0.004005563,-0.0072489148
2.1542639732,0.0045479271,0.0033022326,0.0077301716,-0.0419098213,-0.005562176,-0.0072531095
2.1643199921,0.0025779337,0.0041498705,0.0041161631,-0.0258187372,-0.0139242364,-0.0093849702
2.1743869781,0.0005828174,0.0128762284,0.0041740988,-0.0023966059,-0.0084278705,-0.0115119033
2.1843857765,-0.0004709928,0.0129462043,0.0040938114,0.0115367854,-0.0147142615,-0.0178893749
2.1945238113,0.000393811,0.0004511041,0.0019422625,0.0243952982,-0.019928664,-0.0210801754
2.2045960426,0.0022126765,0.0026102227,0.0035369252,0.0350447483,-0.0177203715,-0.0221435763
2.2146658897,-0.0037484735,0.0057131811,-0.0085589429,0.0297325402,-0.0198612865,-0.0178961009
2.2246899605,-0.0038348406,0.0029516977,-0.0117808729,0.0179541782,-0.0156851839,-0.0125820283
2.2347929478,-0.0019183723,0.0050158068,-0.0032137181,0.0073407623,-0.0210708268,-0.0104571581
2.2448768616,-0.0019171207,0.0070167347,-0.0043070461,-0.0002010437,-0.0136744305,-0.0051425542
2.2549579144,0.0010313721,0.0050929352,-0.002394333,0.004054795,-0.0125825349,-0.0062054219
2.2649729252,-0.0009188025,0.0032286209,-0.0006551291,0.0286088735,-0.0134360772,-0.0072738817
2.2751259804,-0.0009503929,-0.0005159813,1.90591e-05,0.0264803693,-0.014549545,-0.0125836926
2.2851479053,-5.73366e-05,-0.01007907,0.0007265662,0.0285597648,-0.0092466595,-0.015766969
2.2952280045,-0.0001498132,-0.000197454,-0.0015282775,0.0433906429,0.0014876109,-0.0168278404
2.3052940369,0.0026713044,0.0038816493,-0.0018429304,0.0401482433,0.0057244338,-0.0136395032
2.3154129982,0.0006271036,0.0030628007,-0.002121761,0.0295154676,0.0024885603,-0.0072664255
2.325401783,-0.0013681619,0.0070494576,0.0015892242,0.0135309082,0.000240586,-0.0051398911
2.3354678154,-0.0013712017,0.0012278719,0.0015532826,-0.0034644539,-0.0072943624,0.0012317883
2.3455018997,-0.0042523113,-0.0056021647,0.0035304879,-0.0119689936,-0.0105450163,0.0022941232
2.3556659222,-0.0051537422,-0.007614179,0.0016345237,-0.0119086187,-0.0169097725,0.0022896626
2.3656778336,-0.0031249493,-0.0037391621,-0.0033006216,0.0083657596,-0.016746521,0.0001609978
2.375729084,-0.0040471521,0.002144174,-0.0083983084,0.0275412649,-0.0134167708,-0.0030273388
2.3856189251,-0.0001367299,0.0081069628,-0.0126551539,0.0477826223,-0.0100843571,-0.0072780102
2.3958940506,0.0007908674,0.0122339884,-0.0180620104,0.0743757263,-0.0013917987,-0.0115268175
2.405960083,0.0036381513,0.0115941921,-0.0138328215,0.0765099823,-0.0013731564,-0.0115273502
2.4160470963,0.0044566127,0.0003035826,-0.0027917172,0.0797179714,-0.0024687811,-0.0210846364
2.4260399342,0.0013386043,0.006515102,-0.0025858427,0.0819038898,-0.0077759284,-0.0242732391
2.4362020493,-0.0026995509,0.0087950984,-0.0013001706,0.0542359427,-0.0154036209,-0.0178993605
2.4466500282,0.0040774974,0.0002650184,0.0051286076,0.0371778607,-0.016544519,-0.0072776107
2.456307888,0.0031261474,-0.0064416365,-0.0019851471,0.0200645216,-0.0124437176,-0.0062084179
2.4661231041,0.0002552302,-0.0055003599,-0.002003565,-0.0183142945,-0.0158861205,0.0054793973
2.4764590263,0.00036079,-0.0066514448,0.0002626632,-0.0492521003,-0.0172025859,0.0076091937
2.4864621162,-0.001477745,-0.0020449597,-0.0021758224,-0.0600197986,-0.0077536912,0.006554848
2.4966020584,-0.0004553764,0.0035519165,-0.0026496197,-0.0600435808,-0.0056663724,0.0012469683
2.5065960884,-0.0033842891,0.0111525217,-0.0042104269,-0.0376067124,-0.0087159574,-0.0083164424
2.516700983,-0.0034372776,0.0130561152,-0.0069773342,-0.0077225827,-0.0095706992,-0.0168195162
2.5268208981,-0.0055533615,0.0083195725,-0.0022412683,0.0147265345,-0.0136605166,-0.0231980532
2.536883831,-0.0037586361,0.0075394078,-0.0024706866,0.024320066,-0.0125227468,-0.0242615212
2.546861887,-0.0039188233,0.0009265703,-0.0027441527,0.028569404,-0.0103357593,-0.0200143121
2.5569779873,-0.002117154,0.0011174245,-0.0050145532,0.0328188241,-0.0081701428,-0.0189519096
2.5670490265,0.0017119081,0.0012769861,-0.0042892243,0.018982904,-0.0114120087,-0.0093938243
2.577092886,0.0094941286,-0.0073705153,0.0092394808,0.0040633967,-0.0136428047,-0.0062066866
2.5870790482,0.0095486669,-0.0044371919,0.009167538,0.0072786305,-0.0146343,0.0001627955
2.5972490311,0.0057202014,-0.004451199,0.0061445092,0.0115299411,-0.012476474,0.0001642603
2.6073179245,-7.8824e-05,0.0004349512,0.0030307029,0.0179002229,-0.0092444625,-0.0008975421
2.6173830032,-0.0029747754,0.0043801828,0.0057390784,0.0200741347,-0.0134758931,-0.0019628732
2.627409935,-0.0019774109,0.0044755503,0.0045178388,0.0317683406,-0.0091501195,-0.005149079
2.6375050545,-0.0058634845,0.0055343076,-0.0016416456,0.0306603611,-0.0048875972,-0.000899606
2.6476230621,-0.0068418351,0.0026878279,-0.0135587603,0.0305117555,0.0099733742,0.0001696531
2.6576919556,-0.0049681631,0.0047665997,-0.0147547275,0.0261290167,0.0216131862,0.0012392452
2.6676809788,-0.0021724075,0.0010184807,-0.0061062719,0.0217427909,0.0332400128,0.0001843671
2.6778249741,-0.0043070284,-0.0018161969,-0.0031962539,0.0088372193,0.0426431,-0.0051171877
2.6879019737,-0.002558884,-0.0027442414,0.0047920798,-0.0188772343,0.0392038971,-0.007235466
2.6978750229,0.0031207234,-0.0056890086,0.0198249072,-0.0475502908,0.0251588505,-0.0072348667
2.7078449726,0.0078939823,-0.0097215613,0.0242616981,-0.0581049323,0.0133876801,-0.0082998648
2.7180318832,0.0030100972,0.0016803307,0.0101691345,-0.0601504222,0.0049295472,-0.0008710437
2.7281329632,0.0020961792,0.006276445,-5.33606e-05,-0.0505111143,0.0018719716,0.0054957755
2.7381680012,0.0041043195,0.0080386559,-0.0006454731,-0.0312303863,-0.0054078456,0.0023016466
2.7482118607,0.0041605267,0.0079497257,-0.0014501954,-0.0141035961,-0.0105706491,0.0012329201
2.758357048,-0.0006894438,0.0079566995,-0.0074019576,0.0232105665,-0.0071028806,-0.0051456834
2.7683858871,-0.0026814907,0.0110163251,-0.0048328782,0.0349356644,-0.0059739668,-0.0104570929
2.7784581184,-0.0028015941,0.0035122794,0.0015140628,0.0520467944,-0.0101308953,-0.0200199708
2.7884299755,-0.0039594141,0.0077375933,0.002835915,0.0594517142,-0.003713476,-0.0221422445
2.7986218929,-0.0051083532,0.0051140352,-0.0016131545,0.0604894385,-0.000507829,-0.0200167745
2.8086268902,-0.0052332846,0.0063270493,-0.0079190871,0.0508245602,0.0058158468,-0.0136403684
2.8187680244,0.0004994901,-0.0031753618,-0.0053141261,0.0464764461,0.0143072698,-0.0072633624
2.8287489414,0.0062713656,-0.005948408,-0.0016428377,0.0272606742,0.0152420383,-0.0008872222
2.8388988972,0.0120964078,-0.011701568,0.0090622157,0.0091536026,0.0119211432,0.0023013139
2.8488898277,0.0131270913,-0.0087937554,0.0050893878,0.0220033564,0.0078097554,0.0054813945
2.8590369225,0.0122041432,-0.0009540158,0.0058447574,0.0252229031,0.0057097198,0.0044167959
2.8689570427,0.0024844438,0.0029795927,0.0036305045,0.0263635367,-0.001721831,0.0022891965
2.8791699409,-0.0052545634,0.010786132,-0.0122577697,0.0348804854,0.0004956501,0.0054734051
2.8891677856,-0.0120356055,0.0108419219,-0.0164205581,0.0294702724,0.0078760684,0.005478465
2.8992469311,-0.0120462449,0.0040968223,-0.0145850331,0.0060020988,0.0065964861,0.0033598538
2.9092879295,-0.0111270221,-0.0036748487,-0.0096255094,-0.0132919699,0.0149098095,0.0023071063
2.9193720818,-0.0112200947,-0.0056727366,-0.0093671819,-0.0368321091,0.0210563187,0.0001931555
2.9295079708,-0.0054462519,-0.0058005289,-0.0079240939,-0.0464565009,0.0231082849,0.0023202223
2.939511776,0.0042347047,-0.00396107,0.0032575582,-0.0420814604,0.0125355348,0.0023138307
2.9495799541,0.0091174273,0.0036915105,0.0064939712,-0.0302674118,0.0052248915,0.0044307774
2.9596347809,0.0072223577,0.0074465438,-0.0030264999,-0.0078275651,0.0022240416,0.0022997158
2.9697380066,0.0053223702,0.00252469,-0.0058678533,0.0007195845,0.0012306826,0.0012352504
2.9799458981,0.0043900046,-0.0033162672,0.0009516929,0.0072199078,-0.0082630198,0.001229458
2.9899849892,0.0064331922,-0.0052531795,0.0028133844,0.0072763669,-0.0135264918,0.007597609
2.9999728203,0.0036491782,-0.0013798909,-0.0022477056,0.0179709829,-0.0155488979,0.0086562149
3.0099930763,0.0018811853,0.0044111176,-0.0112154633,0.0104632657,-0.0113078132,0.0182164311
3.0201289654,-0.0048041907,0.0053745671,-0.0113883168,0.0168175939,-0.0070413621,0.0129068196
3.0299611092,-0.0056695607,0.0102380076,-0.0096253892,0.0114830164,-0.0070741186,0.0150317568
3.0402650833,-0.0065699187,0.0015050335,-0.0067742015,0.0135946106,-0.0049685575,0.0097237434
3.0502669811,-0.0026097863,-0.0003974872,-0.0030185725,0.0210506618,-0.0038838517,0.003351598
3.060379982,-0.0035595864,-0.0003421145,-0.0022113468,0.0146186762,-0.0007435188,0.0054789977
3.070306778,0.0013564558,-0.0012883382,0.0016721939,-0.0046615442,0.0065503465,0.0107965311
3.0805330276,0.001406941,0.000568108,-0.0011516954,-0.0068923691,0.0161165558,0.0161096714
3.0905249119,0.0014943512,0.0043198033,-0.0058100964,-0.0197293386,0.0191946365,0.0171762668
3.1006009579,0.0054970714,-0.0026062566,-0.0026241685,-0.0047762478,0.018256072,0.0161113348
3.1104049683,0.0036301047,0.004114823,-0.0015688087,-0.0004677847,0.0140147209,0.0107991276
3.1207170486,0.0026995868,0.001181261,0.0042893742,0.0103136227,0.0023824996,0.0022951886
3.1308341026,-0.0002158253,0.0129080573,0.0030940031,0.0306929294,-0.0080850553,-0.0030242093
3.1408669949,-0.0021740764,0.0159686971,0.0007678722,0.0446270145,-0.0143574653,-0.00727821
3.1507399082,-0.0080534788,0.0161694456,-0.0046298052,0.053216774,-0.019594837,-0.0083448049
3.1610031128,-0.0070745912,0.007631497,-0.0090407273,0.0542876571,-0.0195939727,-0.0094053429
3.1711378098,-0.0041754213,0.0029873413,-0.0036461498,0.0382801965,-0.0197407138,-0.0104631502
3.1811380386,-0.0012367932,0.0001924199,-0.0029640938,0.0180185214,-0.0209158994,-0.0009030016
3.1910147667,-0.001146075,-0.001737638,-0.0080160638,0.0062614633,-0.0188618023,0.0044100047
3.2012720108,0.0009149046,0.0002045793,-0.0002977396,-0.0065213628,-0.0210748222,0.0075974758
3.2114157677,0.0010421904,-0.0027637321,0.0007180427,-0.016159609,-0.0180033986,0.0033542612
3.2214069366,-0.0018052129,-0.0038008529,-0.0002367045,-0.0044020191,-0.0200505704,-0.0008969429
3.2312879562,0.0002567799,0.0029714268,-0.0022548581,0.0041126385,-0.0178678446,-0.0030216128
3.241517067,0.0042147073,0.0030058783,0.0025191163,0.012641279,-0.0167401955,-0.0040840143
3.2516729832,0.0032693774,0.0069515272,-0.0015991475,0.0243365504,-0.0124005741,-0.0051466152
3.261674881,0.0033087165,0.0109024206,-0.0096338531,0.0253168605,-0.0038741976,-0.000896743
3.2717227936,0.0023412735,0.0090348879,-0.0088627487,0.0273903981,0.0025520099,0.0054767341
3.2818388939,-0.0005456774,0.009115533,-0.011084035,0.0316399783,0.0047246832,0.0076008048
3.2919631004,-0.000532475,0.0023951691,-0.0083685061,0.0262910165,0.0057044602,0.0022936573
3.3019449711,0.0013629826,-0.0052512721,0.0070674871,0.0156758185,-0.0008017754,-0.0051409565
3.3120040894,0.0012677343,-0.0051368908,0.0157091469,0.0146257337,-0.0029884968,-0.0136361737
3.3221468925,-0.001752284,0.0036870402,0.0028381799,0.01886639,0.0002303326,-0.013634176
3.3321349621,-0.0018719999,0.0086494246,-0.0002278234,0.0124316607,0.0033574163,-0.0136309806
3.3422739506,-1.65372e-05,0.0048243566,-0.0012222673,0.0049529988,0.0043951836,-0.0072582359
3.3522100449,0.0047968957,0.0028926891,-0.0011255289,-0.0067726327,0.0032593454,-0.0030086297
3.3623781204,0.002840224,0.0028233689,-0.0058500315,-0.0153075056,0.0032053497,0.0001791073
3.3724119663,0.0008972021,0.0056553646,-0.0095990449,-0.0142180054,0.0011065126,0.0023013805
3.382529974,0.0028565258,0.0046497746,-0.0055886055,-0.0162801966,-0.0063667172,-0.0019491579
3.3923840523,0.0057573351,-0.0001537638,0.002194271,0.0061896909,-0.0125854649,-0.0093905628
3.4026548862,0.0037632615,0.0086577097,-0.0018893625,0.011526905,-0.0125607634,-0.0125761693
3.4127249718,0.0036852092,0.0048732325,0.0028376435,0.0136803379,-0.014691826,-0.0168249775
3.4228179455,-0.0012925236,0.00498064,-0.0051545049,0.0125338202,-0.0072795148,-0.0178843159
3.4325799942,-0.0014194815,0.0030986827,-0.0090959817,-0.0035471451,1.46166e-05,-0.0168147907
3.4427628517,-0.0054626432,-0.000753327,-0.0129391104,-0.0089339223,0.0053007249,-0.0125635853
3.452767849,-0.0026205152,0.0001667303,-0.0087874681,-0.0324586853,0.0104699209,-0.0019370404
3.4631869793,0.0022002489,-0.0096546849,-0.0035245563,-0.034600243,0.0115110837,-0.0019347768
3.4730877876,0.0060269865,-0.0126470169,0.0016860818,-0.0388069712,0.005080082,-0.0061841169
3.4831559658,0.0040355357,-0.0088743409,6.01863e-05,-0.0355344005,-0.002310656,-0.0051282397
3.4932858944,0.0039955112,0.0027288955,0.002205119,-0.0215775743,-0.0106913578,-0.0072595677
3.5032877922,0.0030282766,0.0084981481,-0.0045355107,-0.0055886451,-0.008416485,-0.0051380936
3.5132460594,0.0020415813,0.013391451,-0.004603758,0.0157336891,-0.0060942089,-0.0030187499
3.5234229565,0.0010556312,0.0095714489,-0.0028361226,0.0264198892,-0.0070564095,-0.0019588117
3.5335240364,9.61752e-05,0.0038349789,0.0037910198,0.0147038437,-0.0092670992,0.000166657
3.5435819626,-0.0037631362,0.0009445113,0.0016841148,0.0072828131,-0.0146073364,0.0044107372
3.553609848,-0.0056295064,-0.0039150552,-0.0013522054,-0.0022760704,-0.018900618,0.0097200153
3.5636909008,-0.0035847991,-0.0107390126,0.0044664596,-0.0075801555,-0.0221727788,0.0033499333
3.5738267899,-0.0034883588,-0.0039575533,0.0014631604,0.0041779662,-0.0242130235,0.0001605317
3.5838348866,-0.007299569,0.0067297383,-0.0065273191,0.0148380669,-0.0230657347,-0.0009034012
3.5937049389,-0.0052743522,0.0135978023,-0.0116583845,0.0296915825,-0.0144610619,-0.0030264729
3.6039600372,-0.0033200353,0.0069351955,-0.0051251198,0.0296493173,-0.0102100577,-0.0019626068
3.6140971184,-0.0004036395,-0.0016641455,0.0033905362,0.0327963755,-0.0048909262,-0.0040843473
3.6240949631,0.0015496047,0.0003817243,0.0021406864,0.0242492259,-0.0038975673,-0.0030198814
3.6339788437,0.0005771549,-0.0034237939,0.0028962945,0.0232257731,-0.0081370529,-0.0008981413
3.6442317963,-0.0013366906,0.0053908392,-0.0022674943,0.0211069081,-0.0091899335,0.0033500001
3.6543288231,0.0026311309,-0.0032829482,0.002435491,0.0179156438,-0.0102858245,0.002288464
3.6643669605,0.0046719345,-0.0003223854,0.0032147025,0.0211270675,-0.0113044176,0.0044101379
3.6742320061,0.0047841701,-0.0003061729,0.0010641669,0.0328340605,-0.0080119511,0.0054706088
3.6844949722,0.0038912327,0.001765923,-0.0022875215,0.0605662987,-0.0067504123,-0.0009063305
3.6946029663,0.0009180339,8.75754e-05,0.0048891162,0.0690687075,-0.0035274546,-0.006215875
3.7046349049,0.0008498164,-0.0016006666,0.0043341373,0.06050843,-0.0015077796,-0.0104598217
3.714509964,-0.0001931755,0.0024843973,-0.0020011212,0.0487513728,0.0005463165,-0.0051468154
3.7247691154,-0.0021767586,-0.0032143432,-0.0013235356,0.0263204202,0.0025081343,0.0001679221
3.7349028587,0.0007824631,-0.0032000977,-0.0033149864,-0.0121558672,0.0085939895,0.0086751245
3.7449150085,0.0018386276,-0.0014017062,-0.0030532028,-0.0441437848,0.0062476117,0.0171765983
3.7547559738,0.0029383332,0.0022455018,0.0013522957,-0.0655065998,0.0081970459,0.0193065945
3.7650389671,0.0020814568,0.0009743136,-0.0048806812,-0.0548881479,0.0135808922,0.0171835236
3.7751479149,-0.0027255982,0.0065934821,-0.0074361707,-0.0324811116,0.0137420129,0.0118689202
3.7852420807,0.0002300174,0.0045474335,-0.0032472755,-0.0282025039,0.0126686925,0.0044358373
3.7952280045,-0.0007846324,0.0064321919,-0.0050200964,-0.0057858797,0.0117549617,-0.0030029044
3.8054049015,0.0001246662,0.0132513801,-0.0040139104,0.0038256561,0.0107576754,-0.0061918395
3.8153939247,0.0078131584,0.0055683418,0.0037844633,0.0113259172,0.0076191397,-0.0093807084
3.8254580498,0.0057752761,0.0075484677,0.003762648,-0.0078221308,0.0011151014,-0.0051339655
3.8354229927,0.0047538015,-0.0012015539,0.0008951877,-0.0013559759,-0.0052019167,-0.0062005618
3.8455920219,0.0008360477,0.0046283766,-0.00107713,-0.0108595202,-0.0148080727,-0.001954817
3.855661869,-0.0049774316,-0.0022054154,0.0009140824,-0.0086826524,-0.0190334432,-0.0019574801
3.8657279015,-0.0088250013,0.006481783,-0.0147572309,0.0019376613,-0.0136502627,-0.0040798867
3.8756871223,-0.0107829245,0.0074864789,-0.0128851086,0.0072072581,-0.007265334,-0.0083252313
3.8858828545,-0.0049710241,0.0046690865,-0.0071228887,0.019956477,-0.0018758285,-0.0125733064
3.8959307671,0.0007285507,-2.65675e-05,-0.0004595066,0.0262521878,0.0087832073,-0.0136313802
3.9059720039,0.0015577705,-0.0018197136,-0.0016526128,0.0369135663,0.0099371551,-0.0136332437
3.9159359932,0.0053482088,0.0002879662,-0.0009138728,0.0252113715,0.0067070071,-0.0051374938
3.9261240959,0.0072394046,-0.0025447446,0.0038550948,0.0018105749,-0.0009184887,-0.0040732287
3.9362521172,0.0092312722,-0.0006181436,0.0077830409,-0.0088047851,-0.0062820949,0.0012357831
3.9463157654,0.0034312338,0.0041358038,9.61875e-05,-0.0205430668,-0.0063704452,0.0033619844
3.9561889172,0.0015336903,0.0069239899,0.0022892808,-0.0301589426,-0.0054071802,0.0012413091
3.9664540291,0.0005646379,0.004913704,0.0024645184,-0.0131129529,-0.0031691925,-0.004072363
3.9765000343,0.000541869,0.0126627246,-0.0004082466,-0.009911567,-0.003141229,-0.0040731621
3.9865860939,0.0024632842,0.0087858001,0.0045150374,-0.0024492834,-0.0020302921,-0.006196633
3.9965028763,0.0004602404,0.0068831011,-0.0004213597,0.0167489126,-0.0007945851,-0.005139092
4.0066652298,0.0013855727,0.0089216391,-0.0006164457,0.0220815726,-0.0007469144,-0.0051414887
4.0167551041,0.0003539951,0.0041630431,-0.0017895843,0.0231178068,0.0024592653,-0.0030165529
4.0268249512,0.0012874933,-0.0025223929,-0.0010132934,0.0263214298,0.0024864294,-0.0030165527
4.0367498398,-0.0026304096,-0.0014769273,-0.0041588689,0.0209975056,0.0013926692,-0.0008921493
4.0470046997,-0.0016553967,0.0005266828,-0.0072360779,0.0178073589,0.0002963787,-0.0019532857
4.0570640564,-0.0046034721,0.002529518,-0.0044444944,0.008193614,0.001287341,0.0001732484
4.0670628548,0.001269135,0.0044643446,-0.0005076672,-0.0142277274,0.002167183,0.0023022459
4.0768680573,0.0032566816,-0.0004718738,0.0035871719,-0.0259448364,-5.73555e-05,0.0023041102
4.087264061,0.0081940917,0.004264669,0.0058091735,-0.0333922058,-0.002223704,0.0054901829
4.0973310471,0.00338206,0.005085127,-0.0027260925,-0.0302009396,-0.001127813,0.0065517188
4.1073508263,0.0014786454,0.0039829179,-0.0044186856,-0.0291796178,0.0031337775,0.0076140538
4.1172647476,0.0015063317,-0.0029298502,-0.0061403657,-0.0142840249,0.0074875131,0.0044270488
4.1276049614,-0.0033971637,-0.0020048458,-0.0069920565,-0.0100546069,0.0117248688,-0.0019403028
4.1373558044,-0.0044728485,-0.0039413408,-0.0059191729,0.003762139,0.0171164386,-0.0072501134
4.1477060318,-0.0074870554,0.0067858859,-0.008863165,0.010134045,0.0203620996,-0.0061881114
4.1576399803,-0.0027335852,0.004941897,-0.0060184742,0.0207739063,0.0236452445,-0.0051273745
4.167798996,-0.0028528243,0.0098946253,-0.00120528,0.0090038804,0.0267825127,0.0033701733
4.1778717041,0.0020034641,0.0030611914,-0.0030460502,-0.0037787594,0.0245694295,0.0065577109
4.1878662109,0.0039284858,-0.0008903581,0.0010828828,-0.0218635146,0.0191048216,0.0065607075
4.1978440285,0.0019733042,-0.0019493537,0.0013334607,-0.0154074803,0.0138557311,0.0065564457
4.2080340385,0.0019814998,-0.001029058,-0.0024605538,0.0006797714,0.0054736971,0.0012383796
4.2180709839,0.0038864941,-0.0048851208,0.005340979,0.0060537639,0.0012208952,-0.0072595011
4.2281918526,0.0028916032,0.0010044737,0.0022636508,0.0253184065,-0.0038889786,-0.0030194155
4.2380867004,1.2548e-06,0.0078627029,-0.011653617,0.0306652337,-0.0048964522,-0.0019594776
4.248339653,-0.0009279816,0.0050226613,-0.0148487836,0.0253004823,-0.001725493,0.0033525301
4.2583217621,-0.0038293272,0.0002252025,-0.0160401016,0.0284928121,-0.0006157539,0.0065376703
4.2684350014,0.0020663769,-0.0084473928,-0.0064225341,0.0049851164,0.0023689172,0.0076071294
4.2783708572,0.0031020672,-0.0133167347,0.0023841714,-0.0163047258,-0.003129445,0.0065479903
4.2885799408,-0.0007475583,0.000193612,-0.0004265453,-0.0205657296,-0.0042337244,0.0054857889
4.2986087799,-0.0016771822,0.0030309123,-0.0012778188,-0.0226808116,-0.0064020706,0.0012380467
4.3086748123,-0.0016697018,0.0010395212,-0.0021507288,-0.0035142824,-0.0020119161,-0.0019491578
4.318625927,-0.0065482822,0.0068694516,-0.0129575878,0.0177750271,0.0034795222,-0.0019518209
4.3288459778,-0.0036782592,0.0020818275,-0.010124281,0.0187776536,0.0098621873,-0.0008874886
4.3389186859,-0.0007892518,-0.0027264196,-0.0023549343,0.0112789925,0.0130214952,0.0054867873
4.348859787,0.0021317333,-0.0027140218,-0.002343073,0.0016333163,0.0171883442,0.0065533165
4.3588142395,0.0031417639,-0.0027476985,-0.0012818123,-0.0132164694,0.0086321402,0.0161090046
4.3690800667,0.0062038335,-0.0028573114,-0.0011448408,-0.0130676534,-0.0062360223,0.0139782093
4.3792238235,0.0063489708,0.0009436769,0.0057376479,-0.0140181351,-0.0179233048,0.012910815
4.3892130852,0.0055488977,0.0057462021,0.0056394194,0.0074512572,-0.0304970182,0.0086522875
4.3990039825,0.0018412502,0.0115429917,-0.0004128958,0.0128066074,-0.0325931944,0.0054644831
4.409348011,0.0019913942,0.0009007615,0.0012780284,0.027749896,-0.0335496031,0.0012112154
4.4194936752,-0.0037450462,0.0048721,-0.0060016657,0.0415703729,-0.0281095617,0.0033340212
4.4294800758,-0.0055791703,0.0049807592,-0.0171885639,0.0467383415,-0.0110807791,0.0044038128
4.4394512177,-0.0045672026,0.0060960217,-0.0136973402,0.0444975607,-0.0004893867,0.0044096718
4.4496150017,0.0012974771,-0.0024993259,-0.0061757709,0.0304994509,0.0121277384,0.0054819938
4.4596538544,0.0022194416,-0.0053451494,0.0035058712,0.0004925514,0.0246057119,0.0065576443
4.4731650352,0.0041320059,-0.0072927312,0.0133891553,-0.0101475501,0.0213368833,0.0076200459
4.4803237915,0.0031742484,0.0062185689,0.0057334756,-0.0091011943,0.0234751329,0.0086826468
4.4903688431,0.0022234351,0.0071139499,0.0019984101,-0.0079699634,0.0171183683,0.0086792512
4.5005078316,0.0042038891,0.0021838706,0.0001880382,-0.0057627363,0.0096892146,0.0054895841
4.5107049942,0.0032390088,0.00408663,0.0022402261,-0.0025666775,0.0096977372,0.0023020462
4.5200810432,0.0022599727,0.0040517612,0.0003400897,0.0059799398,0.0086974539,0.0001757784
4.5299720764,0.0022451908,0.0069922968,-0.002638414,0.0081511624,0.0055384119,0.0012370481
4.5402159691,0.0012466343,0.0060401722,-0.0016981508,0.0060270252,0.004451842,0.0001752458
4.5501241684,0.0041711959,0.0060492917,-0.0056269909,-0.0004184376,0.0086613018,0.0033637821
4.5601387024,0.0012591513,0.0030841392,-0.0104071051,-0.0153369326,0.0064087994,0.0033664452
4.5702581406,0.0061527523,-0.0028205353,-0.0023391987,-0.0366365761,0.0019924797,0.0054929792
4.5803918839,0.0071469578,0.0009141726,0.0028875922,-0.0461677611,-0.0055392059,0.0023062406
4.590420723,0.0042411122,0.0056327744,-0.0016801502,-0.0334170274,-0.0001573572,-0.0030029039
4.6003727913,0.0002842279,0.0114131728,0.0023996686,-0.0215864666,-0.009652325,-0.0104432441
4.6105241776,0.0001896651,0.0133550921,0.0064135049,-0.010949268,-0.006403801,-0.0146915186
4.6206450462,-0.0018627016,0.0153339664,-0.0014060284,0.0039894674,-0.0062871547,-0.0168188512
4.6306600571,0.0009411903,0.0115438262,-0.0044324542,0.0168053713,-0.007257544,-0.0200075209
4.6406388283,0.0037633211,0.0068185492,-0.0065321471,0.0232001543,-0.0061059934,-0.0146995736
4.650783062,0.0017205806,0.0010936422,-0.0145468265,0.0242572948,-0.0050145634,-0.0115142344
4.6609182358,0.0045313868,-0.0046124295,-0.0127679259,0.0135652358,-0.0029788432,-0.0104487035
4.6709327698,0.0005432399,-0.0074622468,-0.0099387318,0.0071635293,-0.0030209213,-0.0083235009
4.6808891296,0.0005170138,0.0052107139,-0.0070680524,-0.005639351,-0.003098153,-0.003011293
4.6910676956,0.0024488003,-0.0006161171,0.0018006419,-0.0120732822,1.44166e-05,-0.005131036
4.7013559341,0.0024251372,-0.0006628471,-0.0010054852,-0.0131185744,-0.0021099872,-0.0040700324
4.7117967606,-0.0015118985,0.0012414021,-0.001875117,-0.0120832175,0.0010822776,-0.0040686349
4.7211999893,-0.0054885712,-0.0036458212,-0.0105359107,-0.0120667052,-0.001102047,-0.0136259208
4.7316608429,-0.002690491,-0.0104363402,-0.0054988409,-0.0141723584,-0.0043025007,-0.0136281839
4.7414178848,0.0001142652,-0.000671907,-0.0025261785,0.0017935578,0.0001021014,-0.0104446411
4.7514710426,0.0039441022,0.0071721836,-0.006487384,0.0145548126,0.0044585671,-0.0104463063
4.7614889145,0.003849867,0.0043317839,-0.0026758458,0.0135004669,0.0034159394,-0.0061993632
4.7716016769,-0.0001157491,0.0151100913,-0.001883402,0.0188383758,0.0034546214,-0.0072614979
4.7817349434,-0.0002260177,0.007461743,0.0038079475,0.0210035257,0.0002764051,-0.0093872333
4.7917370796,-0.0012619464,-0.0070039467,0.0006841277,0.034908127,-0.0027783071,-0.0083306916
4.8017292023,-0.0042387214,-0.0010403829,-0.0045224573,0.0328063592,-0.0059730355,-0.0072699538
4.8118720055,-0.0032787293,0.0019728702,-0.0018406655,0.0094062034,-0.0135703012,-0.0019590114
4.8219838142,-0.0051861373,-0.0019110279,-0.0048276926,-0.0034073293,-0.0125865303,0.0033537284
4.8320059776,-0.0021900504,0.0019196434,-0.0057289745,-0.0183989294,-0.0074054161,0.0044222553
4.8420619965,-0.0031095117,-0.0079042157,-0.0025860216,-0.0301277563,-0.0085827997,0.0023010476
4.8521428108,-0.0020897358,-0.0060594515,-0.0023608352,-0.0300552119,-0.0160660166,-0.0061963005
4.8622570038,-0.0040369001,0.0045378967,-0.0070886756,-0.0290211085,-0.0128875338,-0.0083185742
4.8722648621,-0.0011228292,0.0054651662,-0.0049760486,-0.0215308312,-0.0149439592,-0.0083218357
4.8822698593,-0.000181046,0.006419973,-0.0039026286,-0.0130268261,-0.0117002297,-0.0104459729
4.8923912048,0.0046587023,0.0064522191,0.0019851779,-0.0076893996,-0.0116329184,-0.0072618313
4.9025039673,0.0076015028,0.0006054205,0.0049602841,-0.0056142639,-0.005185938,0.0022970526
4.9125537872,0.0057261023,0.0015166564,-0.0047753598,-0.001396643,0.0002195467,0.011854006
4.9225258827,0.0038920671,-0.0024529535,-0.0086283227,-0.002536742,0.007658022,0.0150434077
4.932682991,0.004981223,-0.0073822574,-0.0066126729,-0.004688656,0.0097814268,0.018231146
4.942802906,0.0031758577,0.0012705488,-0.0055910493,-0.0035986248,0.0076895137,0.0214152206
4.9527878761,0.0023173124,0.0041109486,-0.0045815851,-0.0014517447,0.0055181058,0.0107944012
4.9627971649,-0.0005766122,0.0011788172,0.0022442793,0.0103383362,0.0002948476,0.0076034013
4.9729690552,0.0013859303,0.0031933349,0.0069985245,0.0188536067,0.0024133255,-0.0040755589
4.9830698967,-0.0016397206,-0.0015923815,0.0029587601,0.0156181324,0.0055406755,-0.0083203707
4.9930911064,-0.0046503511,-0.0005566317,-0.0088795563,0.0219542459,0.0119493734,-0.0104429778
5.0030770302,0.0010830195,0.0024603766,-0.0060075666,0.0101545788,0.0182474833,-0.0051278407
5.0132188797,0.0048898491,-0.0023667056,0.0018796776,-0.0111317486,0.0128047802,0.0023071729
5.0233530998,0.0078621833,0.0043465062,0.0020823334,-0.0249479618,0.0074201352,0.0086787855
5.0333557129,0.0089581041,0.0110067884,0.002294824,-0.019456923,-0.0073183975,0.0192883536
5.0432538986,0.007192913,0.0099180499,0.003354535,-0.0140680159,-0.0125768092,0.0192843582
5.0534896851,0.0034900934,0.0049658581,0.0053052162,-0.005480974,-0.0178345535,0.0150319561
5.0636210442,-0.0031789511,0.0078119799,-0.006536081,0.0137129612,-0.0166542418,0.007595079
5.0736260414,-0.0050620404,0.0049317642,-0.006724372,0.0168812703,-0.0134926699,0.0001641936
5.0835971832,-0.0030823916,0.0020964306,-0.0020355131,0.0200379156,-0.0092483908,-0.0040816842
5.0937600136,-0.0040621427,0.0060668155,-0.0091295987,0.0285751577,-0.0091810124,-0.0051453505
5.1039056778,-0.0041012731,0.0071507855,-0.0123101622,0.0231851861,-0.0039364491,-0.007264961
5.1138949394,0.0007107885,-0.0034453708,-0.0104590794,0.0124363489,0.0033984289,-0.0072596343
5.1238799095,-0.0032584041,-0.0063099698,-0.0124645969,-0.0003675967,0.0033073488,-0.0040710317
5.1342496872,0.0025731355,-0.0082647642,-0.004536822,-0.0280575473,-0.0022123191,0.0001804389
5.144258976,0.0035737783,-0.0044824318,0.002553687,-0.0376063138,-0.0075735287,0.0044273818
5.1543650627,0.0036357671,0.0060756966,0.0018252586,-0.0343956873,-0.0086274082,0.0012407099
5.1642928123,0.0036868483,0.0069435998,0.0049708937,-0.0236929748,-0.0117241312,0.0001746465
5.1744966507,0.0017737182,0.0107372561,-0.0007271315,-0.0184096601,-0.0063728425,0.000176311
5.1845312119,-0.0020904213,0.0106687108,-0.0084748408,0.0007986538,-0.0062050628,0.0001715174
5.1945700645,-0.002063629,0.0126168886,-0.0095095774,0.0071833692,-0.0039998326,0.0044185934
5.2045760155,0.0038250119,0.0009898705,0.0011945223,0.0060736299,0.0002348598,0.0044209901
5.2147660255,0.0048384103,0.0029444259,0.0021238183,0.0050380072,-0.0029359665,0.0076043336
5.2248110771,0.0058521661,-0.0009404856,0.0059910272,0.0028701946,0.0002076291,0.0044210572
5.234940052,0.001991573,-0.0038610536,0.0059523438,-0.0003311643,0.0001725417,0.0033602533
5.2448596954,0.001047972,-0.0009824472,-0.0008911039,0.0038936744,0.004439991,0.0012377138
5.2550339699,-0.0028908222,-0.0009851294,-0.0038139964,0.0038161213,0.0118182786,-0.0061909077
5.2651357651,-0.0020192533,-0.0058067278,-0.0037518884,0.0016376553,0.0160228778,-0.0093736509
5.2751450539,-0.0021755665,0.0020181697,-0.0007762457,-0.0004775859,0.013847474,-0.0146830613
5.2851371765,0.000600669,0.0088836113,-0.0036581303,0.0027461704,0.0117672794,-0.0125613222
5.295375824,0.0053698155,0.012816445,-0.0016762759,-0.0004413938,0.0107269818,-0.0051286388
5.3053951263,0.0062695476,0.0099324742,-0.0045820619,0.0081174728,0.008686468,-0.0040700324
5.3154411316,0.0061992737,0.0100035826,0.000208721,0.0145632019,0.0045053717,-0.0030120255
5.3253831863,0.007097784,0.0013629956,0.0059202765,0.0231518969,-0.0007458492,-0.0062022256
5.3355751038,0.0040884349,-0.0004741388,0.0047427868,0.0241956413,0.0013435336,-0.0125718415
5.3456602097,0.0029990405,0.0015976591,0.0045560454,0.0178573187,-0.0050714887,-0.0115116369
5.3556990623,0.0029261142,0.0026571911,0.0063693379,0.0124644171,0.0002096931,-0.0083242329
5.365489006,0.0009259017,0.0046278401,-0.0044273878,0.008121334,0.0075994325,-0.0083194394
5.3758349419,0.0008559258,0.0046380921,-0.0004586126,-0.0175369158,0.0127425957,0.0012463025
5.3859200478,-0.0021227568,-0.0032259065,-0.0011525895,-0.0240147896,0.0201067701,0.0001898266
5.3959579468,-0.0031163662,0.0024697345,-0.0106030842,-0.0271690637,0.0158758704,0.0065597752
5.4058570862,-0.0031379729,0.0023684066,-0.0044544484,-0.0346080735,0.0126137659,0.0044364366
5.4161109924,-0.0002316503,0.0003358883,-0.0022324468,-0.0217593871,0.0084387278,-0.001938372
5.4261388779,0.0006927581,0.0022595685,0.0008335565,-0.0109837037,-0.0021057921,-0.0061935708
5.4362277985,0.000611964,0.0032860201,0.0008023833,0.0071643805,-0.0030496833,-0.0125696445
5.4462161064,0.0034292967,0.0053517385,0.0006490205,0.0231798328,-0.0039985678,-0.0168213807
5.4562950134,0.0013687344,0.006446199,-0.0044658924,0.0305822492,0.0024410891,-0.0157597121
5.4664587975,-0.0007169215,0.0114422003,-0.0115315467,0.0251848213,0.008788201,-0.0115079759
5.4765338898,0.0020798177,0.0028103155,-0.0057624723,0.0112726539,0.0129241571,-0.0093780458
5.4863858223,0.00297952,-0.0029868919,-0.0027681137,-0.0089878775,0.0117414463,-0.0008790998
5.4965949059,-0.00098249,0.0008264941,-0.0074803974,-0.0197434761,0.0201430544,0.00018976
5.5067148209,-0.0049004522,-0.000235899,-0.0121128699,-0.0197509341,0.0212456025,0.006561107
5.516726017,-0.0010215013,-0.0022608477,-0.0030672695,-0.020778276,0.0170003902,0.0076198461
5.5268239975,0.0038533539,-0.0061999396,0.0059308861,-0.0111661302,0.0159886554,0.0023079051
5.5369567871,0.0018729301,0.0034669202,0.0021373485,-0.0057424158,0.0075319875,0.000180106
5.5469942093,0.0028591782,0.0024694961,-0.0007174755,0.0028686486,0.0001726083,-0.0008875553
5.5570898056,0.0018789204,0.0063611432,-0.00858666,0.0124378661,0.0034405733,-0.0008894195
5.5669698715,-0.0010696022,0.0024854701,-0.0135096461,0.0028454261,0.0023095289,0.0012360493
5.5771989822,-0.0010584561,-0.0033523876,-0.0105314394,-0.0120387133,-0.0031197243,0.0022995826
5.5872559547,-0.0049406555,-0.0005163389,-0.0113530308,-0.0248671602,-0.0011303432,-0.0008815632
5.5973248482,-0.0049289134,-0.0006444293,-0.016945079,-0.0365747623,-0.0044083614,0.0001809716
5.6073198318,-0.0020446747,0.0012312693,-0.0078799864,-0.0365657099,-0.0054901377,-0.0030049677
5.6174612045,0.0018468829,0.0021371406,-0.0076888944,-0.0109110791,-0.0095605794,-0.0104444418
5.6274929047,0.0017653139,0.0109442035,-0.0028426195,0.0029813005,-0.0115821846,-0.0136343762
5.6375570297,0.0085117249,0.0081348578,-4.0486e-05,0.0211102366,-0.0103834961,-0.0168237779
5.6476230621,0.0083874492,0.0082881013,0.0016912674,0.0253159013,-0.0039663431,-0.0146980425
5.6577658653,0.0043829116,0.0074225827,-0.0053312923,0.0230643321,0.0077216714,-0.0093836384
5.6677970886,0.0004129441,0.0045587583,-0.0083528897,0.0038485592,0.0086564403,-0.0030074979
5.6778969765,-0.0006365745,-0.0032681662,-0.0012755538,-0.039955698,0.0135859512,-0.0019318473
5.6876530647,-0.002644357,-0.0131553253,0.0021397327,-0.0569338799,0.0038877847,-0.0019323798
5.6980128288,-0.003621307,-0.0045812563,0.0025940393,-0.0588998571,-0.0131274844,-0.0051259762
5.7080287933,-0.0006644396,-0.002813204,-0.0009204294,-0.0427448526,-0.0278555639,-0.0072610322
5.7181692123,0.0042525562,0.0058863922,-0.0047231461,-0.0010861708,-0.0317638181,-0.0115206912
5.7280640602,0.0081752567,0.0156971384,-0.0088985702,0.0362425596,-0.0293086506,-0.0104671447
5.7383008003,0.0062069329,0.0158839393,-0.0083914539,0.0510745272,-0.0185676552,-0.010466014
5.7482991219,0.0081063537,0.004470007,-0.0030502225,0.0563771464,-0.0153518887,-0.0125893522
5.7583761215,0.003156367,-0.0011384325,-0.0035481001,0.0445986539,-0.0111899674,-0.0093985517
5.768321991,0.0001337559,-0.0038741666,-0.0029160525,0.0252816789,-0.0007754103,-0.013635641
5.7785048485,-0.0019711524,-0.0057104663,0.000877664,-0.0014615171,0.0053437348,-0.015749393
5.7886099815,-0.0021829873,-0.0085598072,0.0058498238,-0.0121897962,0.0105070714,-0.0231766831
5.7986469269,-0.0024012595,0.0031514328,0.006970868,-0.0217591468,0.0072747264,-0.0178668052
5.8086090088,0.0013681086,0.0128408829,0.0160273165,-0.035584949,0.0029649327,-0.0093710553
5.8187570572,0.0023111731,0.0088244239,0.00563179,-0.0323994085,0.0051485253,-0.0040607783
5.8289051056,-0.0006774334,0.0057890578,0.0001040553,-0.0302763358,0.0062212469,-0.0051225806
5.8389072418,-0.0016902654,0.0027932685,-0.0016006972,-0.0227775648,0.003133045,-0.0008806976
5.8488807678,-0.0007207958,0.0027032059,-0.0043174173,-0.0217104368,0.003142366,-0.000880964
5.8591060638,0.0031743676,0.0016786022,-0.0061030532,-0.0120955734,0.0021510043,-0.0030070986
5.8691058159,0.0021476776,0.011400179,-0.0109522492,0.0028197272,0.0043619606,-0.0093805753
5.8792266846,0.0049593481,0.0075873896,-0.0129319578,0.0070316768,0.0096414108,-0.0189346652
5.8891530037,0.0017985733,0.0048171445,-0.006202891,0.0134429708,0.0086086374,-0.0231840052
5.89935112,0.0005603464,0.0010863108,-0.0023752595,0.0112725468,0.0117531642,-0.0263682157
5.9093847275,-0.0006734697,0.0012021823,-0.0023831273,-0.0068265609,0.0073437691,-0.0274276212
5.919511795,0.004939917,0.001298861,0.0113960952,-0.0163422767,-0.0011937262,-0.0221202727
5.9294309616,0.0057861838,0.004212813,0.0047255014,-0.021644365,-0.004402569,-0.0189351309
5.9396500587,0.0066247019,-0.0006493765,0.0039114808,-0.0163353253,-0.0011606363,-0.0168097299
5.9496469498,0.0045647058,0.0041841432,0.0011538123,-0.0163843278,0.0041997745,-0.0083126472
5.9597840309,-0.0023305386,0.0041216179,-0.0104182502,-0.0079406947,0.0138580613,-0.0030010398
5.9696941376,-0.0014338164,0.0050714775,-0.0043932344,-0.0154095311,0.0138066616,-0.0008755709
5.9798798561,-0.0034610897,0.0001895589,-0.000305369,-0.0153507814,0.0074282577,-0.0030038361
5.9899158478,-0.0025605231,0.0069698258,0.0027432297,-0.0089283027,0.0053414046,-0.0061919061
5.9999680519,-0.0036302775,0.0021468562,-0.0001578475,0.0028165318,0.0043204152,-0.0157513898
6.0098876953,-0.0037616759,0.0031514328,-0.0030443217,-0.0153219933,0.0041965782,-0.0104378508
6.0199079514,-0.0039062765,-0.0007452208,-0.0008708383,-0.0313843153,0.0093340818,-0.0146784019
6.0300707817,-0.0060110358,0.0040224358,-0.0142184049,-0.0282782726,0.0189180002,-0.0136126047
6.0404047966,-0.0052320329,0.0049493476,-0.017777279,-0.0294405818,0.02842189,-0.0189153589
6.0501089096,-0.0035643547,-0.001853271,-0.0066710259,-0.0272860825,0.0263046771,-0.0210405607
6.0603709221,0.0019999177,-0.00373195,0.0053214883,-0.0250718761,0.0178016033,-0.0263552982
6.0705370903,0.0026903779,-0.0017468171,0.0104356268,-0.0174981151,0.0072221956,-0.0316715017
6.0805196762,-0.0004832117,0.0070533319,-0.0002255584,-0.0057231346,0.0041543008,-0.0295511577
6.0904049873,-0.0016908018,0.0081064859,-0.0040818001,-0.0003858935,0.0042216787,-0.0263670832
6.1006660461,-0.0008822946,0.0043041869,-0.0109350234,0.0091995951,0.00646932,-0.0199977998
6.1107931137,0.0009056659,0.0014642639,-0.0080049774,0.0006971871,0.0032463628,-0.0146882553
6.1207990646,0.0037344724,-0.0052836374,-0.0050507928,0.006055282,0.0012132386,-0.0083205709
6.1306638718,0.0066147479,0.0006035728,-0.006099775,0.0135363676,0.0002244068,-0.0072611654
6.1409406662,0.0065302881,-0.0031640965,0.0005652164,0.0231281947,0.0013698991,-0.0072636288
6.1510162354,0.0045229825,-0.0059555606,0.0012798761,0.02317187,-0.0028602658,-0.0051421546
6.16106987,0.0015698703,0.0009122056,-0.0028097774,0.0136116277,-0.0071886349,-0.0051414222
6.1711139679,0.0005947085,-0.0019771296,-0.0058097388,0.0008060839,-0.0073004877,-0.0051382268
6.1811656952,0.0005505414,-0.0107558211,-0.0056721116,-0.0333262384,-0.0097401422,-0.0083175749
6.1913208961,0.0004787476,-0.0205839705,-0.0023725177,-0.0493166596,-0.0120642837,-0.0178708658
6.2013292313,-0.0045458642,-0.0070758299,-0.00690408,-0.0503611006,-0.0142174494,-0.0210560076
6.2112870216,-0.0066836444,-0.0003244715,-0.0065878774,-0.0332598761,-0.0173136406,-0.0306180883
6.2214641571,-0.0039597121,0.0007123512,-0.0035737897,-0.0139776561,-0.0245939903,-0.0338116847
6.2316040993,-0.0022491484,0.0037802022,0.00319849,0.0030852174,-0.0233907737,-0.0348772146
6.2415819168,-0.0013996331,0.0135986367,-0.0086695105,0.0158955008,-0.023202356,-0.0232009832
6.2516527176,0.0014211567,0.0098806778,-0.0079491884,0.0276371129,-0.0230582803,-0.0168330986
6.2617349625,0.0072314474,0.0071191951,-0.0062933112,0.0254542269,-0.0177166443,-0.0083353519
6.2718119621,0.0053058895,0.0072190925,-0.0095057627,0.025459554,-0.0176474005,0.0022826716
6.2819018364,0.0063661369,0.0053275987,-0.0097568771,0.018985834,-0.0102491397,0.0065357396
6.2918348312,0.0015631946,0.0043735071,-0.0069697644,0.0061685713,-0.0093138376,0.0044158637
6.3020720482,-0.0003390281,0.0024480384,-0.0109862834,0.0104229189,-0.0082712099,-0.0040788213
6.3120689392,-0.0013530819,-0.0003978449,-0.0033151652,0.0104410276,-0.0104347626,-0.0104507003
6.322136879,0.0005066426,-0.0031923491,-0.0005269791,0.0210850704,-0.0082743391,-0.0189473163
6.3319730759,0.0003300638,0.0018241567,0.0061266874,0.0082454383,-0.0052308789,-0.0231897328
6.3422708511,0.0020629198,0.0038760465,0.0031619524,-0.001412861,-2.36665e-05,-0.0253082104
6.3524150848,0.0038440854,0.0117025534,-0.0045926119,-0.0057202578,0.0042315321,-0.0178723987
6.3624048233,0.0046627256,0.0117066065,-0.0014923955,-0.027080195,0.0062083965,-0.0114949262
6.3724431992,0.0035642714,0.0048312708,0.0027507399,-0.0462443009,0.0018173766,-0.0083068563
6.3825101852,0.0015445681,0.0066213175,-0.0007071639,-0.057854034,-0.011045957,-0.0125564616
6.392583847,-0.0014455883,-0.0003200608,0.0006804918,-0.049192369,-0.0237449743,-0.0189357977
6.4026651382,-0.0005494921,-0.0003718572,-0.0059394385,-0.0224643238,-0.0288441963,-0.0231927931
6.4126167297,-0.0006459622,0.0064620539,-0.0127964765,0.0009693624,-0.0244020447,-0.0242583249
6.4228129387,0.0031689436,0.0133986035,-0.0159573108,0.0308209732,-0.0209238883,-0.0189547054
6.4329490662,0.0050156745,0.0184930731,-0.0164044052,0.0531337373,-0.0111929644,-0.02107911
6.4429459572,0.0068229469,0.0080744186,-0.0109880706,0.0456400551,-0.009121092,-0.0189538412
6.4528112411,0.0037183196,-0.0033631164,-0.0006306912,0.0338510387,-0.0038839853,-0.0136392359
6.4630827904,0.0016708405,-0.0042192177,-0.0018034126,0.0071405997,-0.0009125632,-0.0104462393
6.47315979,-0.002320674,-0.0148832044,0.0011628722,-0.0194518641,-0.0096266922,-0.0093820402
6.4832129478,0.00056735,-0.0149309477,0.0052759503,-0.0375923067,-0.0097854175,-0.0093772467
6.4931731224,0.002471748,-0.012124165,0.0026908969,-0.0429497845,-0.0077169393,-0.0104366522
6.5033512115,-0.0034609109,0.0003925723,-0.0048492099,-0.0248412471,-0.0043894532,-0.0125630526
6.5134859085,0.0003341468,0.0081812302,0.0011434411,-0.0024965275,0.0021584611,-0.0146890543
6.523516655,-0.0037010878,0.0072680279,-0.0028141285,0.0187936611,0.0076638144,-0.0125681795
6.5334339142,-0.0037819713,0.0102541605,-0.0078064944,0.0081282333,0.0076467698,-0.000885691
6.5436182022,-0.0028443902,0.004441516,-0.0019073631,-0.0046528904,0.0054260264,0.0012407765
6.5537538528,0.0030546815,-0.0052970485,-0.0008597518,-0.0141270859,-0.0073622069,0.005483991
6.5637521744,0.0070138606,-0.0121696433,0.0139779299,-0.0428443775,-0.017176887,0.0033629164
6.5737190247,0.0022218854,-0.0055464343,0.0064459299,-0.0449477397,-0.0203923881,0.0012382464
6.5838899612,-0.0025516122,0.0088602463,-0.0030622031,-0.0396052822,-0.0214267597,-0.0019498237
6.5940260887,-0.0054333773,0.0116654197,-0.0048489715,-0.0151348244,-0.0137715042,0.0001713842
6.604033947,-0.0053756502,0.0096699754,-0.011634781,0.0018955301,-0.0093850773,-0.0008927484
6.6139669418,-0.0063417521,0.0028867882,-0.0087518236,0.0050862636,-0.0082961107,-0.0008930147
6.6241579056,-0.0004968314,-0.0038336355,-0.0010616924,0.0188931022,-0.001843804,-0.0062020263
6.6342949867,0.003372702,-0.0027761299,-0.0041585113,0.0188728627,0.0002920511,-0.0040773563
6.6442918777,0.0033569962,0.0021454256,-0.0111564547,0.0199130923,0.0035252618,0.002295455
6.6541156769,0.0092005162,0.0071239634,-0.0064966227,0.034799099,0.0089538489,0.0012325873
6.6644601822,0.0130674569,-0.0014947491,0.0030598496,0.0240737498,0.0141801694,0.0033608524
6.6744947433,0.0101347296,-0.0014543968,0.0039379452,0.0123246824,0.0151386419,0.0033643146
6.6846299171,0.0032609731,-0.0004841524,0.0029340242,0.003807147,0.012928484,0.0012415089
6.6945447922,0.0022375912,-0.0053666667,0.0049992059,-0.0206840821,0.0074021588,0.0001831686
6.7047629356,-0.0026808053,-0.0122394403,0.0091215232,-0.0301822182,-0.0033058128,-0.0019431657
6.7147641182,0.0002535017,-0.0065118507,0.0035059904,-0.0269270372,-0.0085759424,-0.0008848256
6.7248978615,0.0051801833,0.0002030892,0.0027240966,-0.0215488635,-0.0127519788,0.0022965202
6.7348799706,0.0072205099,0.0117889205,-0.0040341164,-0.0045477748,-0.0051550451,0.0054813945
6.7450046539,0.0082552461,0.0175993014,-0.0030771638,0.0007680012,-0.0029727179,0.0076048663
6.7550506592,0.0043907496,0.0098315636,0.0007511829,0.0082480218,-0.0039753979,0.0065406668
6.7651472092,-0.0004473893,0.0059657856,-0.007198825,0.0242129527,0.0003939837,0.0044157971
6.7751507759,-0.0023555427,0.005057828,-0.0054847146,0.0199652109,-0.0017722314,0.0033539948
6.7854766846,0.0005986424,-0.0074752406,0.0040553068,0.0242981743,-0.0080940425,0.0044115363
6.7953629494,0.0026379258,-0.0006094414,-0.0001221444,0.034960404,-0.0069190566,0.0075948127
6.8053851128,0.0007886918,0.0013911886,-0.0033112909,0.0210388638,-0.0017154394,0.0107873436
6.8154811859,-0.0001073448,-0.0112178763,-0.0024926211,0.0231092051,0.004669223,0.0107900063
6.8258161545,-0.003917214,-0.0034453708,-0.0084743043,0.0102850199,0.006713998,0.0161032788
6.8357300758,-0.0077151326,-0.0044813589,-0.009442105,-0.0046744887,0.008726282,0.0192934815
6.8457307816,-0.0075991717,-0.0045763091,-0.0044464613,-0.0142705245,0.0075609493,0.0161096044
6.8554267883,-0.0045367745,0.0030828279,0.0015789722,-0.0259338357,3.83183e-05,0.017170608
6.8658237457,-0.0024735003,-0.0019315319,0.0067425226,-0.0397686139,-0.0043607573,0.0118621951
6.8758788109,-0.0003752677,0.0036953848,0.0012224172,-0.0439961106,-0.0086628282,0.0086757233
6.8859210014,0.0016778739,0.0083888331,-0.0033424641,-0.0301564652,-0.0053724926,0.0065502543
6.895860672,0.0027176768,0.0121945301,-0.0012622024,-0.0087931193,-0.0073150024,0.0054820599
6.9060850143,0.0066952142,0.0102365175,-0.0042128707,0.0177976377,0.0014068505,0.0054788645
6.9161157608,0.0077007744,0.0103049437,-0.0073707248,0.0422984511,0.0058583245,0.0044130674
6.926170826,0.0057706567,0.01336296,-0.0038613821,0.0476805717,0.0016737657,0.0065342085
6.9368457794,0.0067944559,0.0008760852,0.0006494974,0.0434115231,0.0016295572,0.0054734712
6.946390152,0.0048626396,-0.0048352317,-0.0006503607,0.0316832513,0.000451974,0.0033524635
6.9564657211,-0.0009728341,-0.0028341252,-0.0028059627,0.0082165422,-0.000821017,0.0022959877
6.9665079117,-0.0029338866,-0.0057774023,0.0001731967,-0.0174589939,0.0053143734,0.0012437726
6.9763040543,-0.0058830348,-0.0039326982,-0.0005611922,-0.027137721,0.0126575073,0.0012498979
6.9865951538,-0.0049067107,0.0017660422,-0.0051369215,-0.0314052477,0.0126554444,0.0065593757
6.9967169762,0.0048581692,-0.0022281844,0.0050353264,-0.0377968363,0.0115454383,0.0076222429
7.0067830086,0.0078548221,-0.0014133292,0.0004770611,-0.0206566751,0.0053420039,0.0097387908
7.0166530609,0.0089403419,0.0111015597,-0.0091553479,-0.0099529,0.0022591285,0.0107963318
7.026881218,0.0090262322,0.0061940714,-0.0121059567,0.0178146809,0.0003791365,0.0107886745
7.0369167328,0.0052432152,0.0139808813,-0.0171778947,0.0231087804,0.0046836035,0.0129130781
7.047000885,0.0062671634,0.004331009,-0.0085773608,0.0262756236,0.0078883851,0.0118513433
7.0569829941,0.0053361687,0.0053779646,-0.0029415633,0.0252074301,0.0078652157,0.0097280052
7.0671877861,0.0053842696,0.0015316767,0.0017943834,0.0113885812,0.0024388253,0.0097290026
7.077272892,0.0025109381,0.0024980467,0.0017402028,-0.0025069937,0.0044188853,0.0065481234
7.0873231888,0.0025464923,0.0043913289,0.0008352851,-0.0131744202,0.0043385252,0.0086753899
7.0971989632,-0.0042484966,0.0013865394,-0.0039211656,-0.0120460391,-0.0020527951,0.0033629164
7.1073207855,-0.0051916209,-0.0006348329,-0.0086759469,-0.0120716318,7.07426e-05,0.0033624503
7.1176419258,-0.0022754341,-0.0045637325,0.001242206,-0.0163199063,-0.0021023969,0.0012388458
7.1276140213,-0.0042130915,0.0012153549,-0.0045461203,-0.0034929775,-0.004133923,-0.001950223
7.1375751495,-0.0032144755,0.0128923813,-0.0094851395,0.0061857495,-0.0114770569,-0.0019563483
7.1476588249,0.0036172897,0.0110231796,0.0011483287,0.0072852098,-0.0146508794,-0.0019580794
7.1577048302,0.0065712365,0.0120408693,0.0019934629,0.0094184019,-0.014646085,-0.0040822169
7.1677618027,0.0075827572,0.0140213529,-0.004001155,0.0136860106,-0.0146155916,-0.0051452173
7.1777567863,0.0076073739,0.0092060724,-0.0041460539,0.0083098868,-0.0103904866,-0.000894546
7.1879668236,0.0017702313,0.0043494864,-0.01009716,0.0093325935,-0.0061507351,-0.0030165527
7.1979780197,0.0007761152,0.0024811786,-0.0112288743,0.0200129356,-0.0071393005,-0.0062051555
7.2081308365,0.0016630919,-0.002249344,-0.0006489302,0.0156709161,0.0002144868,-0.0115080411
7.2180480957,0.0024991364,-0.0040948824,0.0021917676,0.0156160556,0.005498731,-0.0146907857
7.2282528877,0.0023313791,0.0018596215,0.0001163338,0.0186972003,0.0171703659,-0.0189332664
7.2382621765,0.0050450596,-0.0009295779,0.0108321765,0.0016678823,0.0128049133,-0.0146839274
7.2483978271,0.0039503607,2.39772e-05,0.0031713103,-0.0196968988,0.0147835091,-0.0083081881
7.2583026886,0.0009366305,0.0067347451,-0.0014149095,-0.0346425585,0.0157763362,0.0012522946
7.2684650421,-0.0039775339,0.0114165703,-0.0049246694,-0.0453111306,0.0157034993,0.004440764
7.2785310745,-0.0049554077,0.0024740261,-0.0083185574,-0.0506259985,0.0135279614,0.0033792283
7.2886080742,-0.0040402082,-0.0015418964,-0.004984274,-0.0249958728,0.0115877818,-0.0029987094
7.298432827,-0.0050655571,0.0023262065,-0.0146634132,0.010259321,0.007616743,-0.0083186403
7.3087649345,-0.0051891473,0.0053610369,-0.0119279772,0.0316620022,0.0014100462,-0.0125749707
7.3188009262,0.0064247283,0.0075676008,-0.0035469676,0.0573465899,-0.0058071204,-0.014708695
7.3288927078,0.0131649701,0.011774973,0.0007023071,0.0829940811,-0.0087608984,-0.0136534842
7.3388228416,0.0091593293,0.0082535306,-0.0001498009,0.0947330296,-0.0086514428,-0.0125946114
7.3490619659,0.0052249464,0.0027035635,0.0001355265,0.0573548749,-0.0057318197,-0.0030280042
7.3590631485,-0.0006524889,-0.0136648854,-0.0012201811,0.0338583365,-0.0037941034,0.0001643269
7.3692069054,-0.0015575854,-0.0097551784,-0.001364782,-0.009877,-0.0051754848,0.0097314669
7.3791117668,-0.0014473764,-0.0137814125,0.0057089184,-0.0408333167,-0.0043709436,0.0118633276
7.3893427849,-0.0012956826,-0.0081626019,0.0031397198,-0.0461684838,-0.0043963776,0.0150496662
7.3993301392,-0.0050713387,0.0022917551,0.0006034826,-0.0536607504,-0.0023534666,0.0129289916
7.4093818665,-0.0118063064,0.0069056316,-0.0097113987,-0.0388099775,0.0062379576,0.0086817155
7.4192957878,-0.0117396386,0.0096510807,-0.0230984241,-0.0122169852,0.0149590112,0.0086793182
7.4295530319,-2.97396e-05,0.0038336676,-0.0112521788,0.0048046606,0.0203844029,0.0044315765
7.4395837784,0.0087130098,0.0029158157,-0.0034598853,0.0155281452,0.0151587483,0.0023026452
7.4496870041,0.0115958182,0.0020232361,-0.0045617367,0.0272621922,0.0152343819,-0.0019482924
7.4597258568,0.0105420379,0.0040867492,-0.0008788849,0.0241247229,0.0088403989,-0.0019506891
7.4698119164,0.008520755,-0.0045455531,0.0087116221,0.0220135823,0.0067133321,0.0001726493
7.4799499512,0.0016708405,-0.0103159389,0.0007053469,0.0284163523,0.0067692585,0.0001710514
7.4899458885,-0.0051369336,-0.0015448766,-0.0082764765,0.0156331267,0.0045634955,0.0044199917
7.4999051094,0.0007883938,-0.0034669477,-0.002478912,0.0124866022,-0.0007487121,0.0076035345
7.5100798607,0.0028454692,0.0052764579,-0.0045340802,0.0156652983,0.0014230958,0.0107881427
7.5202169418,-0.0009742348,0.0091554681,-0.0134670278,0.0177473575,0.0067606033,0.0129138771
7.5302138329,4.91173e-05,0.014048175,-0.00771971,0.016662918,0.0088505186,0.0097317994
7.5401601791,-0.0009409754,0.0034249586,-0.0039469744,0.0241706353,0.0046094349,0.000171584
7.5503530502,-2.33619e-05,0.0025417965,-0.0031394507,0.0177635495,0.0045123622,-0.0061980318
7.5604290962,-0.004027125,0.0006753964,-0.0052005793,0.0124257756,0.0044380603,-0.0104439091
7.5705571175,0.000788811,0.0094735185,-0.002309456,-0.0025097383,0.0043558348,-0.0030073649
7.5804648399,0.0085871844,0.0046048327,-0.000250652,-0.0099780401,0.0043113604,0.0001799063
7.5906720161,0.0115412502,0.0035652679,0.0028645848,-0.0238187015,0.0010427297,0.0054898495
7.6006937027,0.0125767021,0.0034365219,0.0060587977,-0.0344670862,-0.0011517149,0.0086768549
7.6108217239,0.0087882904,0.0012896819,-0.0004280354,-0.0366187841,0.0009644992,0.0108030559
7.6205458641,0.0049579176,0.0011335177,-0.0040648724,-0.0227796696,0.0042479103,0.0076157846
7.6309599876,9.00359e-05,0.0010438127,-0.0029270793,-0.0185042825,0.0031899698,0.0023047761
7.640955925,-0.001898524,0.0049234196,0.0020158147,0.0059832153,0.0086678257,-0.0040694997
7.6510066986,-0.0048704115,0.0136971036,-0.0048694159,0.0102743944,0.0065683899,-0.0061943699
7.6609930992,-0.0010520188,0.0050221249,-0.0019964124,0.0177538823,0.0055587851,-0.0083203707
7.6711659431,0.0037655265,0.0070656701,-0.0070231105,0.0231309123,0.0013902722,-0.0040778229
7.6812820435,0.0056758854,0.0013236565,-0.0032720114,0.0188741144,0.0003058331,-0.0019536852
7.6912961006,0.0105791716,0.0023713273,-0.0034425999,0.0200506989,-0.0102816969,0.0001649925
7.7012667656,0.0056993398,0.0043667122,-0.0055777575,0.0136063807,-0.0060797618,0.0022923257
7.7114300728,0.0057401094,0.0053442284,-0.0076013352,-0.0002665576,-0.0062292973,-0.0019507557
7.7215662003,0.0017816456,0.0034313959,-0.0037254239,-0.0024045436,-0.0062964093,-0.0093828402
7.7315607071,-0.0031915575,0.0073477193,0.0001726006,-0.0056745857,1.48825e-05,-0.0136269853
7.7414979935,-0.0023872822,0.0035182994,0.0031828736,-0.0057523493,0.0074003609,-0.0199940708
7.7516970634,0.0003085764,0.0035890501,0.0032877182,-0.0089223897,0.0041540344,-0.0253031496
7.7618308067,7.45685e-05,0.0094725648,0.0034023379,-0.0143214157,0.0104803741,-0.0242368206
7.7718319893,0.002799216,0.0104674259,-0.0061863209,-0.0111084189,0.0094896778,-0.017868137
7.7819027901,0.0055575403,0.0134042064,-0.0030784751,-0.0164717603,0.0126814758,-0.0093707889
7.7919678688,0.0113126067,0.0056153699,-0.0028785015,-0.0047115069,0.010668925,-0.0083129816
7.8020658493,0.0082455305,0.0037030142,-0.0028184797,-0.004671026,0.0063972147,-0.0125623206
7.812128067,0.0100491373,-0.0010665493,0.0040006493,0.0124447634,0.0022884232,-0.0146922506
7.822054863,0.0079711108,9.4337e-06,-3.53004e-05,0.0177468508,0.0054972661,-0.0178773906
7.8322381973,0.002910319,0.0001082582,-0.0069951559,0.0166473649,0.0086782128,-0.0168140568
7.8423199654,-0.0040710536,0.0069935485,-0.0080382964,0.0016686823,0.0128402002,-0.0093755824
7.8523731232,-0.0012652247,-0.0017586189,-0.0088590523,-0.0165241696,0.0180075318,-0.0061829844
7.862364769,-0.000404325,-0.0018032627,-0.0037254239,-0.02935954,0.0211063866,-0.0019309816
7.8724770546,-0.0024365454,0.001003818,-0.0092294356,-0.0282897763,0.0211076513,-0.0029919185
7.8825120926,0.0003809066,0.0019015236,-0.0118382117,-0.0208001696,0.0190301202,-0.0061802552
7.8926172256,0.0031405718,-0.0019510227,-0.0009169127,-0.0122055085,0.0126768816,-0.0157423336
7.902589798,0.0048759612,-0.0018781858,0.0089397887,-0.0025598062,0.0085029099,-0.0178704672
7.9127721786,-0.0011829702,0.0030334156,0.0001913165,-0.0025720298,0.0095360167,-0.0221169442
7.9228720665,-0.0062528816,0.0040247007,-0.0085208556,-0.0015459135,0.0138101242,-0.0189296734
7.9329090118,-0.0093490751,0.0040269061,-0.0210833102,-0.0058752811,0.020166222,-0.0146778692
7.9427452087,-0.0056251851,-0.0124659976,-0.0170003325,-0.0090740034,0.0201728828,-0.0093680583
7.9530129433,-0.0008506445,-0.0114719113,-0.0090327403,-0.0111632012,0.0159520376,-0.0029991092
7.9633741379,0.0020117194,-0.0085764369,-0.0069174911,-0.0090071056,0.013855597,-0.0019389045
7.9731798172,1.819e-07,0.00695111,-0.0039315964,-0.0026153047,0.015008213,0.0033679763
7.9831519127,0.0019425185,0.0118177691,0.0009889458,0.0006814227,0.0054802219,0.0023005814
7.9933156967,-1.51067e-05,0.0079409042,-0.0029709483,0.0188572295,0.0024404901,0.000172183
8.0033931732,-0.0058913198,0.0041507049,-0.0051737572,0.0338795893,-0.0059516635,-0.0051448182
8.0134506226,-0.0039824811,-0.0034620601,0.0003842567,0.0339277647,-0.0112904357,-0.0104573583
8.0234212875,-0.0020836561,-0.007189794,0.0010260795,0.0340225734,-0.0208533145,-0.0125857564
8.0335836411,-0.0021213859,-0.0021884877,-0.0061648036,0.0308013484,-0.0187526811,-0.0115217566
8.0437202454,-0.0040991572,-0.0030309993,-0.0123406798,0.0318381153,-0.0155395772,-0.0083350185
8.0537204742,-0.0031019419,0.0038606685,-0.0106447488,0.0083915927,-0.018884372,-0.0019616745
8.0635995865,-0.0020626157,-0.0039062339,-0.0116771609,-0.0066201137,-0.0115532223,0.0033547939
8.0738544464,0.0009630354,-0.0029990512,-0.0086807748,-0.022608269,-0.0127355997,0.006545993
8.0839614868,9.70395e-05,-0.0031322676,-0.0055182124,-0.0375571251,-0.0117843188,0.0097356606
8.0939884186,-0.0027148693,-0.0004030901,-0.0081673404,-0.0387089401,-0.0032986887,0.0108019905
8.1038646698,-0.0006723671,-0.0015267568,-0.0049290801,-0.0387403667,-0.0001087543,0.0118653914
8.1141386032,0.0032998652,0.0002719921,-0.0007079388,-0.0281150751,0.0041869911,0.005493978
8.1242218018,0.004307929,0.0059935614,-0.0024268175,-0.0227687769,0.003172593,0.0054921135
8.1342582703,0.0072660479,0.0039880439,0.003609166,-0.0131467227,0.0011001212,0.0001793737
8.1441259384,0.0092320768,0.0078439275,0.00562124,-0.0077365115,-0.0062802974,0.0001743137
8.1543912888,0.0053319964,0.0068418547,0.0007570838,-0.003435079,-0.00943348,-0.0008896191
8.1645002365,0.0024290711,0.0019864005,-0.0100364229,0.0168606043,-0.0113922348,-0.0030193492
8.1745281219,0.0034224719,0.0030414027,-0.0053855325,0.0221840516,-0.0102698468,-0.0008974756
8.1845808029,0.0053748223,-0.001698895,-0.0007475759,0.030750908,-0.0134059843,-0.0051484136
8.1946611404,0.0053952369,0.008153812,-0.0060255076,0.045692917,-0.0132691655,-0.0040897401
8.2047710419,0.0034792752,0.0121905962,-0.0054747607,0.0371702723,-0.0143562667,0.0033444739
8.2147960663,0.0015600653,0.0074730678,-0.0039184834,0.045676142,-0.0111132022,0.0012210025
8.2246685028,0.0035533637,0.0086038271,-0.0072902585,0.0446196645,-0.0121835265,0.0012207363
8.2349300385,0.0015882583,-0.0029013592,0.0050421809,0.0285879932,-0.0102285668,-0.0030218791
8.245059967,0.0055242213,-0.0096226772,0.0028893803,0.0221340898,-0.0049517793,0.0012295912
8.2551326752,0.0006788404,-0.0047364072,-0.0001847292,0.0049921209,0.0012878738,0.0044204579
8.2648611069,0.0046170386,-0.0086732348,0.0008872007,-0.014309939,0.0106968209,0.0086772544
8.2752685547,0.0076040658,-0.0107521852,0.0031483029,-0.0335858986,0.0179962795,0.0150579223
8.2853498459,0.0067083272,-0.003186031,-0.0003394033,-0.048545938,0.0200016405,0.0171863213
8.2953939438,0.0048354301,0.0043400093,0.0021224474,-0.0538790226,0.0199683495,0.0193117894
8.3053817749,0.0029644996,0.008967177,0.0045741056,-0.0421326235,0.0189752579,0.013999315
8.3155355453,-0.0008943049,0.0117148319,-0.0009721066,-0.0228620134,0.012763368,0.0118675213
8.3255805969,-0.0057705608,0.0097021619,-0.0037976648,0.0049104942,0.0097603882,0.0023027784
8.3356685638,-0.0077623096,0.0068500205,-0.0058638002,0.0241681598,0.0045747473,-0.0051373611
8.3455171585,-0.0068553654,0.0089449445,-0.0051661278,0.0390978381,0.0057731699,-0.0040787547
8.3557682037,-0.0020247072,0.0052198931,-0.0045164372,0.0401212387,0.0100269038,-0.0040772902
8.3658370972,-0.000122544,0.0005008143,-0.009668841,0.0358442031,0.0110783186,0.0001715173
8.3758859634,0.0057224366,-0.0042725042,-0.0020031477,0.0081631998,0.0045053717,0.0054834587
8.3858251572,0.0096527664,-0.0207993817,0.0038997983,-0.0046306262,0.003346364,0.0076097259
8.3960409164,0.0039081606,-0.0092447242,-0.003834262,-0.0205782726,-0.0020650458,0.0129212681
8.4060630798,0.0001592667,-0.005514665,-0.0075664665,-0.0269368365,-0.0063442132,0.0161061417
8.4161567688,0.0003149541,-0.001772924,-0.0024774815,-0.029008856,-0.0127282767,0.0161028802
8.4260444641,-0.0024065047,0.0029307168,-0.0062821056,-0.0119039062,-0.0157759972,0.0139734158
8.4362945557,-0.0042136875,0.0116347829,-0.0102707287,0.0168770887,-0.0123699475,0.0097215464
8.4463787079,0.0017851623,0.0087827006,-0.0046737338,0.0308024921,-0.0175607149,0.0086536184
8.4564533234,0.0038461715,0.0059676333,-0.0011029388,0.0307915211,-0.0165138263,0.0065308129
8.4663553238,3.51401e-05,0.0069969459,-0.0102329394,0.0338975638,-0.0069299084,0.0075966101
8.4766225815,-0.0047751931,0.0061091348,-0.0154236108,0.0327977054,-0.0037488295,0.0086598108
8.4866790771,-0.002787289,0.0013325972,-0.0117665678,0.0220923312,-0.0006867268,0.0044168625
8.4967479706,0.0030955106,-0.0053937868,0.0008151387,0.0082266629,-0.0018889448,0.0012336526
8.5066604614,0.0060085687,-0.0033968526,0.0065884446,0.0103273634,0.001291935,-0.0019506891
8.516793251,0.0089433221,0.00340213,0.0026870822,-0.0088460632,-0.0020456715,0.0001767771
8.5269212723,0.0108917383,0.0053029223,0.0076927994,-0.0185040161,0.0031685317,-0.0008799651
8.5369796753,0.0147988824,0.0062129064,0.0059403633,-0.0227944218,0.0052605774,0.0001835681
8.5469684601,0.0089581935,0.0060773059,0.0003261422,-0.0270373709,0.0031566801,0.0086779865
8.5571174622,0.0041727456,0.0146940509,-0.0024246122,-0.0078599481,0.0065213181,0.0107983956
8.5671815872,0.0013144644,0.0068931147,-0.004411533,0.0135460077,0.0003347949,0.0097280713
8.5771598816,-0.0025607615,0.0039916201,-0.0006062533,0.0050176335,-0.0008142926,0.0076057315
8.5870704651,-0.0005591778,0.003035323,-0.0036275531,0.01676457,-0.0018004612,0.00335506
8.5972328186,-0.0005472271,0.0079437057,-0.0066957022,0.0145434942,0.0066481512,0.0001744468
8.6072845459,-0.0005970268,0.0001970691,-0.0067130472,-0.0025747716,0.0107222553,-0.0030045684
8.6176996231,0.0012769134,0.002145068,-0.0095449835,-0.006893673,0.0159676168,-0.0061846492
8.6273603439,0.0021297664,0.0079642693,-0.0123082548,-0.0186427385,0.0169260874,-0.006181187
8.6376600266,0.0059055421,-0.0008261639,-0.0032140161,-0.0303644855,0.0146960914,-0.0072425897
8.647772789,0.0106794862,-0.0047598318,0.0019782637,-0.0323922187,0.0040674149,-0.0072473842
8.657793045,0.0096159903,0.0010029835,0.0041647409,-0.024882637,-0.0001245337,-0.0093756486
8.6677923203,0.0105325012,0.0019699496,0.0032979106,-0.0066583576,-0.0084817987,-0.0136316465
8.677895546,0.0046336683,0.0029436511,-0.0025860812,0.0104241176,-0.0082929814,-0.0072632297
8.6879577637,0.0055464241,0.0011115236,0.0001492952,0.0285519883,-0.0071081407,-0.0125762355
8.6980962753,-0.0004144876,0.0051459237,-0.0001453902,0.0306321308,-0.00175572,-0.008327961
8.7080078125,-0.0072976318,0.0081644813,-0.010196045,0.0348804034,0.0004174195,-0.0062043569
8.7181606293,-0.005419251,0.0053847595,-0.009460344,0.0273278393,0.0088535156,-0.0040740939
8.728266716,-0.0045226482,-0.0032607752,-0.0086251646,0.0155052682,0.0172528587,-0.0019432987
8.7382936478,-0.0065564183,-0.0051968531,-0.01246728,-0.0090485169,0.0181276407,0.0023101023
8.748254776,-0.0017606287,-0.0052218274,0.00143306,-0.02931384,0.0168826133,0.0012528272
8.7583990097,0.0021114976,-0.0014501052,0.0047036265,-0.0346044786,0.0125982519,0.0023144963
8.7685670853,0.0059987339,0.004275219,0.0040283059,-0.0259822272,0.0041847941,0.0023081049
8.7785615921,0.0108947782,0.0110491673,0.0119671673,-0.0066568917,-0.0073255212,0.0012357831
8.7885169983,0.0109418957,0.0110562006,0.0089275697,0.0211731419,-0.0155781247,0.0001627954
8.7986984253,0.004188362,0.0111470381,0.000770316,0.0425782725,-0.0217430089,0.0022770124
8.8088436127,0.0013600023,0.0083497325,-0.0035872008,0.0436145067,-0.0185368303,0.0044019488
8.8188171387,-0.0053829518,0.0006671709,-0.0098283431,0.0350462645,-0.0154286548,0.0044059432
8.8288011551,-0.0092177363,0.0007288617,-0.0160033852,0.0274496004,-0.0027480135,0.0065378039
8.838968277,-0.0081473263,-0.0021647054,-0.019060865,0.0039099986,0.0034552207,0.0129169403
8.8490228653,-0.0110231014,-0.006089373,-0.0082829148,-0.0111262091,0.0128668323,0.0118636601
8.8591461182,-0.0090218158,-0.0013055044,-0.0071489359,-0.0164915994,0.0160095617,0.0129289916
8.8690853119,-0.0041304496,-0.0013980704,-0.0010432745,-0.0250414126,0.0169683006,0.0086844452
8.8793067932,-0.0012305944,-0.0014675694,0.007024393,-0.021863196,0.0190691352,0.0012527606
8.8893117905,0.0016607674,-0.0035021144,0.0043927883,-0.0228882469,0.0148088755,0.0001890942
8.8994398117,0.0006878109,0.0051430031,-0.0002820636,-0.0132806785,0.0149271199,0.0054959753
8.9092493057,0.0026837618,0.0108959237,-0.0060039903,-0.0014660982,0.007623401,0.008674724
8.9195375443,0.0046978625,0.0060004159,-0.0049723531,0.0017346488,0.0076729357,0.0118585341
8.9295730591,0.0018642576,0.0069322153,-0.0069757844,0.0093100108,-0.0028856988,0.0097277388
8.9396934509,0.0019675524,0.0118073979,-0.0061516906,0.020024173,-0.0070579406,0.0065382035
8.9496154785,0.0020208389,0.0031353992,0.0004640673,0.0200737081,-0.0124114268,-0.000897076
8.9598445892,-0.000889775,0.0032091301,-0.0036894227,0.0253653303,-0.0081416462,-0.0040816176
8.9698295593,-0.0047883955,0.0101003805,-0.0127648264,0.0285251699,-0.0038558221,-0.0019566813
8.9799146652,-0.0018595128,0.0053379103,-0.0110235959,0.0188772287,0.0003189489,0.0001706518
8.9898729324,0.0020566017,0.0005092186,-0.0120618492,0.0071068564,0.0033994275,0.0001751792
9.0000181198,0.0050049159,0.0024445218,-0.0061728503,-0.0131534599,0.0022095274,0.0076125888
9.0101261139,0.008961889,-0.0034492451,0.0027982448,-0.0195146874,-0.002104261,0.0054884516
9.0201711655,0.0080518154,-0.001580699,-1.43196e-05,-0.0130220335,-0.0116379112,-0.0008897523
9.0300655365,0.0090729026,0.0061457916,0.0029572104,-0.0161909293,-0.0148419607,0.000171251
9.0403938293,0.0071796211,0.0090359012,0.003911898,0.0062430343,-0.0167621672,0.001227261
9.0504322052,0.0052911672,0.010992662,-0.0011142637,0.0136990864,-0.0156774614,-0.0051448848
9.0604534149,0.0082335798,0.0091179172,-0.000297382,0.0179548971,-0.0145784412,-0.0051461495
9.0703458786,0.0023719699,0.0179389287,-0.009317711,0.0210598782,-0.0050083715,-0.0062039569
9.0805873871,0.0042861733,0.006319718,-0.0152446777,0.0028474238,0.0022732436,-0.0040712976
9.0906944275,0.0022537739,0.0005207819,-0.0113020092,-0.0100321565,0.0095953383,-0.0030025714
9.1007509232,0.0031557113,-0.000494464,-0.0150305768,-0.0218007453,0.0126467217,-0.0072438549
9.1105909348,0.0030115277,-0.0092674335,-0.0108623644,-0.0260607377,0.0115207378,-0.0114905313
9.1208534241,0.0028216273,0.0014258189,-0.0047868635,-0.0238825362,0.0061878902,-0.0189283416
9.1309919357,0.0045356187,0.0043715402,0.0032258485,-0.0206230935,-0.0002263333,-0.0306121614
9.140996933,0.005227867,0.0093382159,0.0052371477,0.0029285969,-0.0074768551,-0.0348680913
9.1509380341,0.0059353742,0.0104769627,0.0031798338,0.0125865508,-0.0126910582,-0.0338113494
9.1611242294,0.0086269407,0.006787376,0.0049089645,0.0445997976,-0.0123969791,-0.0316963345
9.1711902618,0.0055370363,0.0108931223,-0.0082151433,0.0360808782,-0.0134356115,-0.0168295037
9.1812677383,0.0015428694,-0.0045472221,-0.0132814199,0.011532845,-0.0125557696,-0.0115124369
9.1912317276,0.0025036365,-0.0093470654,-0.0153738409,0.0126159517,-0.0135382107,-0.0008952118
9.201461792,0.0044924947,-0.0170879792,-0.0027424837,-0.0129563063,-0.0179903489,0.0012309229
9.2114295959,0.0036314458,-0.0181338619,-0.0026592757,-0.022502942,-0.0233238619,0.0097250752
9.2215976715,0.0008693667,0.0001967115,-0.0055103446,-0.0257588942,-0.0180463418,0.0097280713
9.2313585281,-0.0048692194,0.0049500628,-0.0093334457,-0.0151211638,-0.0147908945,0.0065415986
9.2416610718,-0.0057670739,0.0049131676,-0.0132593066,0.0093403962,-0.0060966057,0.0054791309
9.2517271042,-0.0057485071,0.0020251435,-0.0104180118,0.0103404131,0.0002371904,-0.0008887536
9.2618637085,-0.0057894853,-0.0047000484,-0.0046558524,0.0155762956,0.0098270997,-0.0019482924
9.2717761993,-0.0019386975,-0.0046451525,-0.002779081,0.0091735236,0.0097711738,-0.0019466945
9.2820014954,-0.002007988,-0.0036222774,0.0050220941,-0.0015015453,0.0107934279,0.006551852
9.2920055389,0.0019154282,-0.0036616165,0.0080323676,-0.0089810332,0.0118030319,0.0086778533
9.3021326065,0.0059173438,-0.0057006911,0.0043006395,-0.0195876304,0.0053862124,0.0150472699
9.3120355606,0.0001788767,0.0028897088,0.0015909527,-0.0281448979,0.0074474989,0.0171740707
9.3222694397,0.0042302045,0.00367953,-0.00301291,-0.01962566,0.0096499333,0.0182358716
9.3322649002,0.002380851,0.00162466,0.0059666489,-0.0227753818,0.0042961808,0.0150486017
9.3423690796,0.0054323408,-0.0023898918,0.0051967953,-0.0152835893,0.0022320978,0.0139842685
9.3523197174,0.0026519925,0.0052530332,-0.0083978912,0.0028581293,0.00239748,0.0150415432
9.3624515533,0.0037702948,0.005219297,-0.0123655945,0.0166840106,0.0067855036,0.0182235539
9.372549057,0.0048570666,-0.0006030041,-0.0105550438,0.0198417194,0.0110436324,0.0161012821
9.3825759888,0.0049337777,0.0003815455,-0.0047978307,0.0091719516,0.0109427646,0.015042875
9.3924884796,0.0069729718,0.0032633704,0.0010516499,0.0038150037,0.0130181666,0.0150452722
9.4027404785,0.0050935182,0.0071228906,0.0079126814,-0.0057765841,0.0118583599,0.0129245976
9.4128780365,0.0051344666,0.0070444508,0.006088004,-0.0080072489,0.0213818233,0.0118681211
9.4228725433,-0.0017016499,0.004046218,0.0033169244,-0.0101899756,0.0255808309,0.0076222429
9.4328193665,-0.0036841601,-0.0047610835,0.0025515412,-0.0123039922,0.0234263334,0.0054981057
9.4430084229,-0.0007756917,0.0010039372,0.0066668247,-0.0187098533,0.0244500507,0.0086877737
9.4530544281,0.0021860034,0.0018336339,0.0011133407,-0.0218973905,0.0234026294,0.0150588537
9.4631175995,0.0012822779,0.0036360186,-0.0034931446,-0.0197728015,0.024517497,0.0203672647
9.4733581543,0.0052878591,0.006425099,-0.0042513157,-0.0079805898,0.0193219353,0.0214234777
9.4835100174,0.0044320556,0.003401832,-0.0070656086,-0.0068570292,0.0129252225,0.0150476685
9.4940299988,0.0025355846,0.0062548681,-0.0060315276,-0.0035842704,0.0054846164,0.0086723277
9.5040960312,-0.0013650326,0.010134534,-0.0031277682,0.0050290329,-0.0019253632,0.0001741805
9.5137109756,-0.0023670166,0.0121311108,-0.0032080556,0.0051083947,-0.0104895569,-0.0115099065
9.5240077972,-0.0034326285,0.013187007,-0.0013688351,0.0062319548,-0.0168862697,-0.0178857129
9.5335645676,-0.0045292345,0.0123291174,-0.0034843232,0.0158126764,-0.0147080701,-0.0221342538
9.5435771942,-0.0027033954,0.0075966879,-0.0095303198,0.0211292244,-0.0125331329,-0.0210721195
9.5534286499,0.0020916492,0.0028526944,-0.0106710931,0.0178900231,-0.0082547646,-0.0115129687
9.5637197495,0.0049557718,5.78923e-05,-0.0098684579,0.0210503694,-0.003954892,-0.0072646281
9.57371521,0.0097925095,-0.0027674276,-0.0041276957,0.0093028992,-0.0029756473,-0.0040757586
9.5838527679,0.0058525237,0.0011481208,-0.0032228972,-0.0013882536,-0.0009331359,-0.0019482923
9.5937776566,0.0009634526,0.0059778257,-0.0031890417,-0.0120595396,-0.0010263463,-0.0019456291
9.6039924622,0.0018753441,0.0001354975,0.0037588929,-0.0163209438,-0.00217317,-0.0093776453
9.6140146255,-0.0001098482,0.0049476787,-0.003919139,-0.0184669197,-0.0011446574,-0.0115001854
9.6244087219,-0.0050980118,0.0088009397,-0.0066868211,-0.0195776708,0.0030619386,-0.0157445986
9.6340332031,-0.0003739862,0.0078323642,-0.0045189406,-0.0196314678,0.008360032,-0.0168037377
9.6441907883,0.0003916056,0.0039400621,-0.004260018,-0.0218437277,0.0157411825,-0.0210471526
9.6542577744,0.0001454981,0.0049402877,-0.0079671293,-0.0069465376,0.0201156903,-0.0210487507
9.6643257141,-0.0010934143,0.0049984618,-0.0107303998,-0.0112269027,0.0211113803,-0.0252940282
9.6744718552,0.0025216371,-0.0036862332,-0.0026989128,-0.0186323561,0.0146870362,-0.0242335573
9.6846265793,0.0032765896,-0.0036533314,0.0004221653,-0.0249346457,0.0050946628,-0.0221118834
9.694732666,0.0040437016,0.0002352757,0.0026011323,-0.0237812325,-0.0033701947,-0.019992806
9.7047576904,0.004904035,0.0050831004,-0.000168636,-0.0204535294,-0.0160666145,-0.018938927
9.7147359848,0.0038297803,0.0021882814,0.0008689021,-0.0065180082,-0.0223253109,-0.0210691895
9.7248916626,0.0017938645,0.0081005851,-0.0041667367,0.0137871569,-0.0253304206,-0.0210766457
9.7350320816,-0.0012032358,0.008197383,-0.0102168461,0.0169608463,-0.0220640525,-0.0125814285
9.7450580597,-0.0021880537,0.0063368245,-0.0153446347,0.0285911635,-0.0102296993,-0.0030207471
9.7550029755,-0.000227627,0.0044954582,-0.0146045834,0.022126073,-0.003898832,0.0001694534
9.7652359009,0.0036737949,-0.0119510135,-0.0029829289,-0.0003190218,-0.0008889942,0.0033602533
9.7752532959,0.0066088769,-0.0129242381,0.012731418,-0.0237852,-0.0021550609,0.0033655795
9.7853775024,0.0076363119,-0.0159684252,0.011024639,-0.0343800783,-0.0096688364,0.004426783
9.7953739166,0.0018424423,-0.0015216904,0.0112057775,-0.0312015973,-0.0075396397,0.0012416419
9.8054504395,-0.002962169,-0.0007064777,-0.0031905319,-0.0312343277,-0.0043492396,0.0023045763
9.8155145645,-0.0039184359,-0.0018297272,-0.0126389414,-0.0292390846,0.0094555225,0.0012491654
9.8255825043,-0.0059243408,0.0038814109,-0.020117417,-0.0283194967,0.0242898613,-0.0029895217
9.8355998993,-0.0050871936,-8.33111e-05,-0.0168453008,-0.0188447684,0.0370850191,-0.0061709341
9.8457145691,-0.0013755528,0.0018506212,-0.0097209355,-0.0209384393,0.0328159742,-0.0072348672
9.855837822,0.0101546375,0.001884417,0.0061669801,-0.0176624842,0.0254169106,-0.0072393944
9.8658752441,0.011960092,0.0067430302,0.0073166345,-0.012209449,0.0137852896,-0.0083081201
9.8756723404,0.0089658527,0.0086555639,0.0006108736,-0.0121007934,0.0032029529,-0.0040662377
9.8860054016,0.0059931311,0.0057361289,0.0035688733,-0.0002581421,-0.0072895023,-0.0019520874
9.8960552216,0.0060510072,0.0038068455,-0.0014061476,0.0148004368,-0.018809272,0.0012237323
9.9060916901,0.0012565287,0.0009142918,-0.0065189744,0.0254965164,-0.0208250862,0.0033444739
9.9161081314,0.0003860624,0.0039253398,-0.0097930571,0.0415135659,-0.0217531975,0.0022781445
9.9262466431,0.0004616411,0.0030954045,-0.0112225562,0.0457255431,-0.016431069,-0.0009062641
9.9363451004,-0.0044074622,-0.0035732228,-0.0106225153,0.0285769142,-0.0091531817,-0.0008982745
9.946434021,-0.0034668415,-0.0141509017,-0.00889106,0.0189306252,-0.0050216871,-0.0051400242
9.9562969208,-0.0025504797,-0.0053401426,-0.008031561,0.0029210337,-0.0051961243,-0.0104450416
9.9665117264,-0.0016406743,-0.0004293757,-0.0061273123,0.0050183795,-0.0009141611,-0.0072565721
9.9766082764,0.0002824993,0.003492133,-0.0120185763,0.0028734701,0.0001282,-0.0072555067
9.9866371155,0.0050982269,0.0025440615,0.001722679,-0.0258557778,-0.0085752103,-0.0019452297
9.9966115952,0.0060954723,-0.0033814746,0.0068464135,-0.0312111285,-0.0064790356,0.0012425742
10.0067806244,0.0042488608,0.0003110332,-0.0094476482,-0.037634436,-0.0043705446,0.0076151853
10.0168304443,0.0033569962,-0.0037089426,-0.0033154632,-0.0333110578,-0.0096175056,0.0107968645
10.0270290375,0.0122894971,0.0019968313,0.0047038053,-0.0257620346,-0.0169524495,0.0150393462
10.0373210907,0.0125051765,0.0047566458,-0.0029908563,-0.0129969735,-0.0125688855,0.0192854889
10.0471115112,0.0049026939,0.0085051218,-0.0107741496,-0.0044601569,-0.0124871265,0.0203448944
10.0573348999,0.0031347007,0.0074762865,-0.0079162261,0.0073293908,-0.0177173093,0.0160920937
10.0672578812,-0.0025593608,0.0074568554,-0.011037305,0.0179638192,-0.0144749107,0.0107812183
10.0771045685,-0.0044177738,0.0026509326,-0.0083483001,0.0221971795,-0.0112961615,0.004410937
10.0873861313,-0.0082932087,-0.0079676351,-0.0105165383,0.0242755637,-0.0060213716,-0.0030191494
10.0973920822,-0.0122349532,-0.0020502645,-0.0146585852,0.0210416876,-0.0028732484,-0.0040785549
10.1074695587,-0.0093550058,-0.0019431548,-0.0079588434,0.0081875408,0.0023182507,-0.0040710312
10.1174354553,-0.0035714477,-0.0038559276,-0.0089361211,-0.0003505535,0.0022298337,-0.0061925054
10.1275758743,0.0032448501,0.0039518042,-0.0010894681,-0.0077695344,-0.0031111357,-0.0019476932
10.1376409531,0.0101024834,0.0058881207,0.0058024977,-0.0076832473,-0.0115853138,0.0001716506
10.1477575302,0.0140797822,0.0048561855,0.0078680376,-0.0193771347,-0.0158969723,0.0054811947
10.1576852798,0.0102814464,0.0076488419,0.0021183942,-0.0225790516,-0.0159318596,0.0044201915
10.1678371429,0.0064482125,0.0046609207,-0.0036618854,-0.0002337201,-0.0093983933,0.0001711844
10.1779594421,0.006495032,0.0017569227,-0.0027645375,0.0061802366,-0.0103965458,0.0012308562
10.188000679,0.0026116401,0.0027607244,-0.0019149925,0.0146735897,-0.0060918122,-0.0008927484
10.1978130341,0.0006666513,0.011564509,-0.0099252015,0.0241930597,0.0024870287,0.0001709181
10.2083272934,0.0006497832,0.0077604814,-0.0032675411,0.0198998842,0.0045729494,0.0001718502
10.2182302475,0.0065092775,0.0029902023,0.0004857038,0.0209787302,0.0035351156,0.0022946559
10.2282447815,0.0035948188,0.0040054484,-0.0025969888,0.0146125508,0.0003016389,0.0033579229
10.2381696701,0.0026156337,0.0001308483,-0.0046268846,0.0049844244,0.0023051349,-0.0019476265
10.2484340668,-0.0022856861,0.0001397294,-0.0075581218,-0.007767057,-0.0031262492,-0.0040700324
10.2585201263,-0.0062411991,-0.0037542421,-0.0084713846,-0.0098927915,-0.0042335913,-0.0083172414
10.268529892,-0.0024462908,-0.0017890768,-0.0005570794,-0.0226927418,-0.0054473267,-0.0146860583
10.278506279,0.0003516705,-0.0027716595,0.001598761,-0.0237731878,-0.0044302656,-0.0199942701
10.2886638641,0.006101999,0.0079106847,-0.0041287686,-0.008789924,-0.0085227452,-0.0168149881
10.2987918854,0.011895421,0.009911553,0.002700076,0.0018968089,-0.0094282199,-0.0072619645
