0.0000000000,-0.0055524907,-0.1088257581,0.0649652109,-0.5740382671,-0.0777443275,0.0286479592
0.0099509954,-0.0162089374,-0.0705965906,0.0666014776,-0.7675928473,-0.0391063914,0.0297782049
0.0199210644,-0.0121988859,-0.0464822203,0.0364113674,-0.7113295794,-0.0112547828,-0.0052615376
0.0301530361,-0.0013319157,-0.0314580351,0.0052023744,-0.5113700032,0.0560806505,-0.0350037888
0.0404610634,0.0142942462,0.0274637211,-0.0207078829,-0.2866283357,0.0993578807,-0.0456578285
0.0502990484,0.0249686036,0.0603980869,-0.0496364012,-0.0233213305,0.1280883253,-0.0605755262
0.0603660345,0.0208928976,0.0605801791,-0.0689143315,0.1993608475,0.1638700217,-0.0786639825
0.0705289841,0.0039683678,0.0616032332,-0.0802145377,0.3036768734,0.1913570464,-0.0712441504
0.0806410313,-0.0063043139,0.041791901,-0.0810963288,0.3878358603,0.205810219,-0.0829380229
0.0909199715,-0.0018615328,-0.0040134327,-0.0542819276,0.3751645386,0.1918499321,-0.09143617
0.100990057,0.0027627742,-0.023826493,-0.0239233747,0.2891379595,0.1497103274,-0.0924986377
0.1107090712,-0.0040838621,-0.0510842949,-0.0079540396,0.1625006497,0.1135810912,-0.0935463235
0.1208289862,-0.0019992494,-0.0887242109,0.0101124858,0.028515609,0.0668777004,-0.0786677077
0.130859971,0.0080084,-0.1241995245,0.019380711,-0.1428404301,0.0220697504,-0.0489162058
0.1409059763,0.0151482914,-0.1459734589,0.0040222025,-0.3088991046,-0.019513445,-0.020228304
0.1509540081,0.0105541442,-0.1335119158,-0.0173994675,-0.447355777,-0.0460023098,0.0084621971
0.1610289812,0.010932276,-0.0697356015,0.0135085201,-0.480620563,-0.0259325299,0.0392739736
0.1710979939,-0.0008616351,-0.013985767,0.0250286087,-0.4135645628,-0.0072043817,0.0551932827
0.1811800003,-0.0035318041,0.0231469143,0.0303680524,-0.2858041227,0.0236993395,0.0668551326
0.1912130117,0.0025583601,0.0425256938,0.0233014449,-0.0918514431,0.0507421419,0.0487688072
0.2013580799,0.0122720096,0.0638850182,0.0103488183,0.1362750679,0.0748312995,0.0200540051
0.2113410234,0.0048485496,0.1010086387,-0.0085785771,0.322845757,0.0933554545,0.0072742943
0.2214180231,-0.0134873893,0.1231517047,-0.0154201174,0.4111795723,0.1174083874,-0.002291847
0.2314640284,-0.0140770581,0.0993299931,-0.0122626806,0.4168161452,0.0853825435,-0.039472241
0.2416700125,-0.0105020609,0.0590407103,-0.002998986,0.3827489614,0.0765052959,-0.0532704741
0.2516540289,-0.0091340747,0.031286642,0.0072772121,0.3496748805,0.0751068667,-0.0606953688
0.2616909742,0.0342342369,0.0060306056,0.0119558787,0.2852850556,0.1202460527,0.1134778261
0.2717430592,0.2230797857,0.014952288,0.0403189287,0.1463074535,0.1505581588,0.2292643487
0.2818300724,0.1500041038,-0.0210315716,0.0439046249,0.0295535773,0.0749665871,0.0211435035
0.2919449806,0.0062162974,-0.0586702973,0.021494709,-0.0561125949,-0.0069232183,-0.0553251728
0.3020200729,0.0098551605,-0.0416651517,0.0156393871,-0.0798113942,0.0163872298,-0.0287628677
0.312054038,0.0270100627,0.0167273153,0.0061861491,-0.0710810199,-0.0014160008,-0.0043526008
0.3221809864,0.0087721143,0.0579539984,0.0044951057,-0.0030144081,0.0237488747,0.0211267937
0.332234025,-0.010136595,0.0689548105,0.0075379228,0.106659092,0.0491674133,0.0296060313
0.3422909975,-0.0141067412,0.0744431466,0.010370872,0.2344776392,0.0748070627,0.0476366319
0.3523110151,-0.017135581,0.0786257237,0.002516947,0.3772294819,0.1004799306,0.0507986024
0.3624039888,-0.0066242418,0.064800486,-0.0132787013,0.5159446001,0.1015463993,0.0284659993
0.3726980686,-0.0030101442,0.0547543615,-0.0277859941,0.5479750037,0.1008411944,0.0401373021
0.3825320005,-0.0159284975,0.0395006984,-0.0184901729,0.4925871193,0.0896979943,0.0327132083
0.3925780058,-0.0157378223,-0.0129209897,-0.0065203095,0.4297298491,0.0772969872,0.0051162019
0.4026670456,-0.0073696277,-0.0494173914,0.0178201422,0.3252615929,0.064601101,-0.0118517969
0.4129199982,-0.0028799677,-0.0445860177,0.0340445861,0.1633041054,0.0387950689,-0.0096999621
0.4228270054,-0.0157104637,-0.0574348718,0.0459949598,-0.0009445185,0.0277560651,-0.0181590263
0.4328500032,-0.0227956083,-0.0785770565,0.0562286004,-0.1588183045,0.0199759062,-0.0234318189
0.4428800344,-0.0219178107,-0.0771190077,0.0700962171,-0.2860094011,0.0401827097,-0.0085232444
0.4532730579,-0.0106257703,-0.0444558412,0.0643429384,-0.3905384839,0.0351152457,0.005304154
0.4630590677,-0.0091416743,-0.0168348085,0.0418190584,-0.4142419994,0.0583918057,0.0265567116
0.4731299877,-0.0115450528,-0.0105859181,0.0229161605,-0.3652392924,0.0685080886,0.0477853045
0.4832160473,-0.0060655973,0.011046038,0.0044831848,-0.2628602982,0.0769475773,0.0658141747
0.4935040474,-0.001797577,0.0408407301,-0.0194366351,-0.1454745382,0.0791931599,0.0902068615
0.5033620596,-0.0091835167,0.0683146566,-0.0347319618,-0.01644646,0.0909978822,0.1008003801
0.5133860111,-0.0156993177,0.0673985928,-0.0392907038,0.090073593,0.1110142022,0.0986597314
0.5234429836,-0.0134720411,0.0665278882,-0.0350215212,0.1147167757,0.100578472,0.0922760069
0.5337259769,-0.0050087771,0.0370539874,-0.032976903,0.1022047177,0.069496721,0.0614714883
0.5435889959,0.0102239344,0.0129650095,-0.0367473736,0.0673928857,0.0264440607,0.0147399344
0.5536490679,0.0143335853,0.0023128255,-0.0171077624,0.0355910137,0.003731024,-0.0086229127
0.5637190342,0.0129049513,-0.0212780964,0.0043414449,-0.0079295114,-0.0200420842,-0.0160559285
0.5739500523,0.0147300754,-0.0520222336,0.0206594095,-0.0697723776,-0.0259223431,-0.021352157
0.5838090181,0.0149642918,-0.0783195645,0.029836379,-0.0922443345,-0.0196957383,-0.0128498822
0.5938850641,0.0181247685,-0.069605425,0.0195186958,-0.0912022442,-0.0164133925,0.0009548793
0.6039860249,0.0023154712,-0.023765577,0.0119861579,-0.0562847108,0.0148015851,0.0221977849
0.6142430305,-0.003478905,0.0092064003,0.0127912378,0.0053653354,0.0397660583,0.0253799949
0.6241250038,0.0018427469,0.0400553197,0.0143333888,0.0841126367,0.0627498701,0.0274959411
0.6341570616,-0.003970345,0.0566714257,-0.0043012286,0.1787952036,0.0933706313,0.0402287804
0.6442600489,-0.0121350791,0.0484325141,-0.0206497684,0.2276638597,0.1161357984,0.0487222001
0.6544960737,-0.0109544601,0.0376488417,-0.0143999243,0.2371236831,0.129936561,0.0370469019
0.6643890142,-0.0040667257,0.023022281,0.0064050769,0.1870250851,0.1230355129,0.0221909918
0.674478054,0.0100621376,0.0146702388,0.0043592071,0.1040399224,0.0967820734,0.0126427608
0.6845190525,0.0075059035,-0.0054981248,0.0004469372,0.0039251512,0.0756497532,-0.0022074247
0.6948080063,0.0084683392,-0.0256744158,-0.0102129364,-0.0939470828,0.0439538769,-0.0128163928
0.7046229839,0.0165975187,-0.0495053083,-0.0226203576,-0.1800667644,0.0113125108,-0.0213043541
0.7147700787,0.0173107479,-0.0523643643,-0.0178970471,-0.2757695913,-0.0235061888,-0.0255446397
0.7247570753,0.007483969,-0.0369635969,-0.0075742388,-0.3353817165,-0.0388316847,-0.0181066301
0.7350870371,0.0023588634,-0.025400294,-0.0012060785,-0.3236891031,-0.0333271958,-0.0032416631
0.7448780537,-0.0012284421,-0.0047156946,-0.0023895882,-0.2457749099,-0.0325520821,0.0116063915
0.7549730539,-0.0142676737,0.0255429614,0.0116560673,-0.1372772008,0.0046389624,0.0370805934
0.7650489807,-0.0109813716,0.0470197052,0.0171256885,0.0076722717,0.0240073353,0.0466083176
0.7753139734,-0.0059007308,0.0627047867,0.0083837127,0.1612019092,0.0391633809,0.0497622974
0.7851340771,-0.014805546,0.0707272142,-0.0097391987,0.3241898715,0.0692704171,0.0550457463
0.7952929735,-0.0082427766,0.0601311773,-0.0151595855,0.4639203548,0.0768644214,0.0560758561
0.8052940369,0.0024356341,0.0430727452,-0.0121946717,0.5472658277,0.0669946149,0.0581740253
0.8155930042,-0.0003861093,0.0211133827,-0.0150766158,0.5536814332,0.0660172328,0.0624191053
0.8254350424,0.0038407242,-0.0128275296,-0.0279512182,0.507989943,0.045431532,0.0581713617
0.8355289698,0.0025808013,-0.0417781621,-0.0135562802,0.3885950744,0.03160014,0.0497003794
0.8457770348,0.0103142951,-0.0590456873,0.0055071926,0.2405233681,0.0036966023,0.0369821899
0.8558750153,0.0153584871,-0.062691167,0.0244112834,0.0667997748,-0.020173043,0.0263963901
0.8656949997,-0.0008045636,-0.0555615574,0.0383736715,-0.0826959759,-0.0119780973,0.0190065186
0.8757580519,-0.0073846779,-0.0509905368,0.0485272035,-0.216179207,-0.0035457308,0.0264772177
0.8858300447,-0.0045235059,-0.0468164235,0.0453263149,-0.2953731716,0.0191891417,0.0392508022
0.8960939646,-0.0116733219,-0.0290881526,0.0369416103,-0.3286246061,0.0358762443,0.039267581
0.9059950113,-0.0191230085,0.002598153,0.0375247821,-0.3118367195,0.0646790639,0.0403398387
0.916031003,-0.0051972172,0.0287920106,0.0200657472,-0.2404637337,0.0768776685,0.0254626181
0.9260960817,0.0075689354,0.0477686971,0.0042373752,-0.1124576181,0.0821430087,0.0105678253
0.9363480806,0.010496268,0.0624762028,-0.0176779404,0.0059835347,0.0842455775,0.0116005987
0.9462260008,0.0107103679,0.0687205046,-0.0458318368,0.0742532164,0.0869233161,0.0052130739
0.9563150406,0.0179829095,0.049784109,-0.0755870119,0.1202350855,0.076568678,-0.0171015523
0.9663619995,0.0195835624,0.0135080079,-0.0709622279,0.1236616224,0.0531297997,-0.0362263806
0.976631999,0.0195284877,0.0012645585,-0.0461410657,0.0662827492,0.0282372311,-0.0341006443
0.9865350723,0.0189269576,-0.0144958636,-0.0276773348,0.015293627,0.0032487256,-0.0553366244
0.9965480566,0.0126231406,-0.0431252271,-0.0016131782,-0.000645658,-0.004408129,-0.0691397861
1.0066599846,0.0033369756,-0.0524784476,0.0251342282,-0.0657514185,-0.0027445853,-0.0521329716
1.0169160366,-0.0070026121,-0.0621277839,0.0329218134,-0.1256187558,0.0085221836,-0.0340615585
1.0267990828,-0.0184575226,-0.0737857372,0.0405348763,-0.1557287127,0.0316800997,-0.0223632269
1.0368360281,-0.0232762303,-0.0541933328,0.0384425744,-0.1793717295,0.0485064834,-0.0138544263
1.0469030142,-0.0185701754,-0.0121365329,0.0119821047,-0.1667390168,0.0667378157,-0.0011062741
1.0571870804,-0.0199930575,0.0038434132,-0.0085275555,-0.123160392,0.0840544924,-0.0074794847
1.0670189857,-0.0146943834,0.0170907844,-0.012335577,-0.1168244034,0.0904490054,-0.0117253624
1.0770950317,-0.011499187,0.0410566181,-0.0152959013,-0.1232436895,0.0925774053,-0.0021664787
1.0871430635,-0.0043586097,0.016349243,-0.0113952542,-0.0953667611,0.0788797736,-0.0244766437
1.0974700451,0.0159258936,-0.0063875453,-0.0139281536,-0.0694009438,0.042932421,-0.0393663794
1.1072859764,0.0198768768,-0.0018150943,-0.0240338221,-0.0286334306,0.0209582821,-0.0468214974
1.1173620224,0.0182523523,-0.0098183891,-0.0279628411,0.002553517,-0.0032368042,-0.0563976914
1.1274349689,0.0159854386,-0.0275617968,-0.0297527686,0.0048754737,-0.022378806,-0.0659637675
1.1377360821,0.0100135896,-0.0404391438,-0.0284839049,0.013580814,-0.0393079892,-0.0702216327
1.1476330757,0.0030743277,-0.0454719216,-0.0087085748,0.012543913,-0.0424854755,-0.0681003556
1.1576230526,0.0049551227,-0.0331480056,-0.0046514655,0.0029472122,-0.0424724258,-0.0532327257
1.1677650213,-0.0023234689,-0.0254733097,0.0013916112,0.0315402411,-0.0187346041,-0.0309290197
1.1779639721,-0.0140628126,-0.0192448627,0.011608026,0.0793644935,0.0019200745,-0.019251056
1.1878230572,-0.0211400297,0.0153995613,0.0326047763,0.0684672296,0.0253153443,0.0030601746
1.1979579926,-0.0333784111,0.0432145447,0.0417270884,0.0500368252,0.054982692,0.0211302545
1.2079380751,-0.0350496657,0.0185158718,0.0265350565,0.0380551592,0.0792612657,0.0179612264
1.2182509899,-0.0269067492,-0.005488588,0.0071479892,-0.0388670564,0.0870297104,0.0105520468
1.228126049,-0.0245462861,-0.0192999374,0.0055445647,-0.1176309511,0.0650023073,-0.007489671
1.2381449938,-0.0062737069,-0.0384071022,0.005502305,-0.1474695355,0.059277039,-0.0319063328
1.2482870817,0.021212915,-0.0208689701,-0.0034428022,-0.1524762511,0.0251403078,-0.0531585589
1.2584980726,0.0206872318,-0.0035452382,-0.0261257663,-0.1503068358,0.0208179988,-0.0680264533
1.2683730125,0.0272996817,-0.0166027676,-0.0440211669,-0.1511522084,-0.0026996445,-0.0935210958
1.2784340382,0.0274414215,-0.0259863865,-0.0415764228,-0.1668848395,-0.0304601695,-0.098839961
1.2885279655,0.0079765115,-0.0118907234,-0.0293690339,-0.1701843292,-0.0197886154,-0.0850298703
1.2987810373,0.0078669284,-0.0139755746,-0.031297721,-0.1190436408,-0.010804709,-0.077605769
1.3086590767,0.0045604506,-0.0184593331,-0.0190597549,-0.0423078835,0.0006012771,-0.0585073791
1.3187090158,-0.0090718772,-0.0047645704,0.008212707,0.0268035419,0.0279191844,-0.0298427138
1.3287969828,-0.0251211431,0.0267988909,0.0366407856,0.058616519,0.04954971,-0.0096650748
1.3390330076,-0.0315313824,0.044891879,0.052588962,0.0699549317,0.0900326893,-9.15432e-05
1.3489040136,-0.0165947583,0.0250724424,0.0433023795,0.0324365795,0.1067032814,0.0031117068
1.3589459658,-0.0056460998,0.0097918371,0.0295828804,-0.0581484437,0.0942884237,0.0105611011
1.3691700697,0.0017179943,-0.0139269372,0.0113061881,-0.1231510639,0.0829512775,-0.0138501665
1.3795820475,0.0103487764,-0.0332135111,-0.0132154608,-0.1859294921,0.0631786361,-0.032956481
1.3912050724,0.0132741723,-0.017877413,-0.0285445228,-0.2412419915,0.0446365774,-0.0361375622
1.3993070126,0.0124846194,-0.0077898637,-0.0365135446,-0.2603288889,0.0316536687,-0.0488807894
1.4093910456,0.0158877168,0.0020853742,-0.0426494256,-0.2240850031,0.0350634456,-0.0626915395
1.4194020033,0.0125631485,0.0101742605,-0.0407156721,-0.1545847654,0.0218554996,-0.0659011826
1.4292759895,0.0140450392,0.0275797118,-0.0380708352,-0.0851218998,0.0129395025,-0.0616755448
1.4397820234,-0.0002369188,0.0397384018,-0.036615707,0.0343869179,0.0150583135,-0.0595812351
1.4496400356,-0.0078887548,0.0150850872,-0.0219352618,0.2370984554,0.022251578,-0.0415780693
1.4596760273,-0.0031648779,0.0122272233,0.0012716867,0.4291363358,0.0305377375,-0.0044597266
1.4695370197,-0.0114813056,0.0413761586,0.018589817,0.5314358473,0.0487409756,0.0464897379
1.4795860052,-0.0181981232,0.0331078023,0.0043382263,0.6037390828,0.0771616995,0.0772777423
1.4896720648,-0.0124434438,-0.012776806,0.0030413487,0.5897971392,0.0845367908,0.0879029557
1.50030303,-0.010739794,-0.0145194074,0.0230081901,0.3698787093,0.0922702774,0.1038889214
1.5100290775,-0.0078856852,-0.0032236711,0.0390101299,0.0844067335,0.0365136713,0.0720802546
1.5200060606,0.0015908576,-0.0422867686,0.0357381925,-0.1501639634,0.0118426792,0.0200993456
1.5301049948,0.0144192073,-0.0515130311,0.0445684418,-0.3536720574,-0.0230219588,-0.00959743
1.5403690338,0.0187636111,-0.0318336636,0.0343342051,-0.526540041,-0.0268409327,-0.0382240154
1.5502740145,0.0165784452,-0.0297777187,0.0247016773,-0.6854492426,-0.0390341468,-0.0679196641
1.5603200197,0.0068338909,-0.0264412891,0.018082343,-0.7995888591,-0.0454680808,-0.0880680755
1.5703700781,-0.0058468482,-0.0233374368,0.0081195449,-0.8232787848,-0.0256809946,-0.1135346144
1.580638051,-0.0068333349,-0.0112024089,0.0120339012,-0.7018333077,-0.0045216461,-0.1231110767
1.590520978,-0.0021546984,0.0029404028,0.0221241936,-0.4459958673,0.0253927112,-0.1093589067
1.6005610228,0.0070318677,0.0284172166,0.0158637986,-0.1539115757,0.0599152669,-0.0881798565
1.6106179953,0.0168399606,0.0524485558,-0.0243786946,0.1328261346,0.0954381078,-0.0691222697
1.6209100485,0.0127053652,0.0353118628,-0.0564882532,0.4548992515,0.1184467524,-0.0638835654
1.6308289766,0.013231704,0.0208420027,-0.0532105342,0.7151731253,0.1325017959,-0.0469527245
1.6408190727,0.0174902771,0.0569982976,-0.0360528007,0.8252003193,0.124134399,-0.0130072758
1.6509020329,0.0109837148,0.0606975406,-0.0287986174,0.9320761561,0.1092428043,0.0007602023
1.6611740589,0.0084687863,0.0326101631,-0.0181730762,0.9204900861,0.0943277702,0.0071264887
1.6710489988,-0.002905091,0.0252730716,-0.0174013749,0.7222767472,0.0673302338,0.0379560404
1.6810870171,-0.0180895831,-0.02403952,-0.0094175125,0.4942856729,0.0270216987,0.0199432168
1.6911730766,-0.0124252941,-0.0716378838,0.0389402732,0.2280206531,-0.0273458026,0.0125506818
1.7014560699,-0.0073546967,-0.0662102252,0.0631525144,-0.0319811031,-0.0666929409,0.0221532434
1.7112960815,-0.014851233,-0.0641186982,0.0457266793,-0.2569284737,-0.0898312852,0.0296313986
1.7213550806,-0.0203551259,-0.0661284477,0.0403110608,-0.4446925223,-0.0968114287,0.0243665949
1.7314209938,-0.0228630807,-0.0583087951,0.0472948775,-0.5929561853,-0.1044600233,0.0265248213
1.7418590784,-0.0234518852,-0.0363493115,0.0496633872,-0.6453088522,-0.0985438153,0.02760287
1.7515599728,-0.0241253283,-0.0104580065,0.0558851585,-0.5997562408,-0.065307498,0.0191137102
1.7616130114,-0.0170050766,0.0151307443,0.0474530086,-0.4122468233,-0.0340489112,0.0052783214
1.771707058,-0.0033167505,0.0389489383,0.0258998498,-0.1779094934,0.0104009109,-0.0011303758
1.7820529938,0.0022841787,0.0716693848,0.0057458496,0.0425690822,0.053688731,-0.0043501379
1.7918560505,0.0088224802,0.0762919635,-0.0011766934,0.2195277363,0.0720393062,-0.0309312157
1.8019590378,0.0224323366,0.0418513268,-0.0193333998,0.3850003481,0.0659670308,-0.0447796546
1.8120260239,0.0214887056,0.0167285074,-0.0385731235,0.4788391888,0.0730695501,-0.0575408526
1.8222510815,0.0304852817,0.0054722889,-0.0476850048,0.5216920972,0.0552322343,-0.0841056183
1.8322280645,0.0515909307,-0.0077662603,-0.0313176289,0.4976801872,0.0007826383,-0.1032396927
1.8422430754,0.0584722869,0.009526656,-0.0194645301,0.3647274673,-0.0450623482,-0.1212794185
1.8522980213,0.0373745374,0.0064553483,-0.0184107199,0.2114362866,-0.0847614184,-0.1456802338
1.8625310659,0.0126289222,-0.0334721953,-0.010558405,0.0526386574,-0.1062816307,-0.1414034665
1.872402072,0.0044959583,-0.0615196377,0.0011183239,-0.0975601673,-0.1329214871,-0.1201426536
1.8824430704,-0.0097111966,-0.0734665543,0.0188369974,-0.1978345811,-0.1357327253,-0.0914500207
1.8925219774,-0.0301464107,-0.0554866344,0.033930622,-0.2738154829,-0.1127606332,-0.0468246937
1.9028060436,-0.032440234,-0.0356263071,0.0390019044,-0.2900311947,-0.0904254988,-0.0170790497
1.9126390219,-0.0145719256,-0.0107370159,0.030478619,-0.2528282702,-0.0751821026,-0.0075254906
1.9227620363,-0.0114641394,0.0193168987,0.019329153,-0.1654196233,-0.0648687407,-0.0075425347
1.932831049,-0.0210772362,0.0421720594,0.0235609636,-0.03232079,-0.0351615809,-0.0234872792
1.9431129694,-0.0060731671,0.0452982634,0.0114845848,0.0988284424,-0.0246183928,-0.0468748957
1.9529839754,0.0119211767,0.0382957906,-0.0191502944,0.2023815662,-0.0279508065,-0.0458415896
1.9630880356,0.0036830998,0.0161477197,-0.0491505042,0.2920603156,-0.0326459594,-0.0724116787
1.9730219841,-0.0062705777,-0.0009035604,-0.0534248725,0.3346707225,-0.0260455143,-0.093655251
1.9833920002,0.0074454644,0.0023977025,-0.0459982529,0.3134788871,-0.0422646962,-0.1117085516
1.9931640625,-0.0041751466,-0.0120204827,-0.0301075354,0.2750347555,-0.0405685306,-0.1255010515
2.0032219887,-0.0205539968,-0.0229848158,-0.0196063891,0.2002633214,-0.0349657722,-0.1424680501
2.0133039951,-0.0221757498,-0.03060068,-0.0020093105,0.106328547,-0.0326117352,-0.1435030401
2.0235471725,-0.010087898,-0.0338309556,-0.0015343212,0.0370061919,-0.037482392,-0.1466732621
2.0336041451,-0.0039202175,-0.0140097281,0.0004146315,-0.048243057,-0.0497866608,-0.1296706498
2.0435409546,-0.0037037933,0.0142697552,-0.0156429186,-0.1145333946,-0.0364399627,-0.1094729602
2.0538449287,0.0169814918,0.0102630714,-0.0454755202,-0.1527290046,-0.0578846037,-0.0924853906
2.0640611649,0.0229592118,0.0323464125,-0.0873208418,-0.1739336252,-0.0706714988,-0.0723122135
2.0737559795,0.0012766815,0.056614086,-0.0921897069,-0.1249345392,-0.059439823,-0.0425876714
2.0838460922,-0.0080283191,0.0561862439,-0.0827889815,-0.0248135272,-0.0382314734,-0.0160575267
2.0939021111,-0.011766484,0.0545795411,-0.0725025311,0.1246099696,-0.0377722792,0.0168199297
2.1041479111,-0.0216360297,0.044214651,-0.0610533729,0.2769925892,-0.0140682794,0.0305964611
2.1139900684,-0.0346438475,0.0402958244,-0.0392445698,0.3270639181,-0.0051000183,0.0369584225
2.124063015,-0.0328500755,0.0266659129,-0.0337635651,0.326079905,-0.0148245506,0.0114706373
2.1341261864,-0.0130070951,-0.0104498407,-0.0349622145,0.2996974587,-0.0472491346,-0.0437510051
2.1444029808,0.0084015522,-0.0372376591,-0.0207452551,0.2413105965,-0.080978334,-0.0936575755
2.1542229652,0.00871397,-0.0402808934,0.0074213361,0.1591745764,-0.0860788897,-0.1148749143
2.164345026,-0.0064296923,-0.0622478873,0.0243922696,0.1258682907,-0.065307036,-0.1392774582
2.1743679047,-0.0001701914,-0.0737032443,0.0420956239,0.1158266813,-0.0219037663,-0.1413766891
2.184679985,0.0119190011,-0.0463707,0.0546675548,0.1017659903,-0.0040778969,-0.1551676095
2.1945710182,0.004463444,-0.0202702414,0.0484267101,0.0957713425,0.0593151264,-0.1891129911
2.204665184,0.0047034719,0.0086339572,0.0419361815,0.0814880133,0.0994359106,-0.2007691115
2.2146110535,-0.0091785397,0.0095211724,0.0442235097,0.1140372232,0.1527960747,-0.1975656003
2.2250208855,-0.0155942943,0.0096375803,0.0251824483,0.1171730906,0.1603687704,-0.1795120239
2.2366120815,-0.0241576936,0.0319647044,-0.0155920172,0.095592618,0.1858748645,-0.1444543898
2.2454659939,-0.0352104492,-0.0018215912,-0.0329149738,0.1222532615,0.1906773448,-0.0945541933
2.2555141449,-0.0173505452,-0.0294519197,-0.0188924447,0.0991029292,0.1611311734,-0.0382877328
2.2658720016,0.0014411904,-0.0241847765,-0.0148842121,0.0751917437,0.0995724648,-0.0085820341
2.2754690647,0.0305274222,-0.0180036556,-0.0417167321,0.0974496454,0.0085271103,-0.0065102279
2.2849450111,0.0317041092,0.0221674312,-0.0538925305,0.0576502979,-0.0660211593,0.0051424336
2.2952640057,0.0136334989,0.0582510084,-0.0545646325,0.0346547812,-0.1139934063,0.0019401824
2.3052890301,0.0026936925,0.0340974182,-0.0315077677,0.0528524294,-0.1214974001,-0.0341693535
2.3151841164,0.0077094533,0.0304275621,0.005399785,0.0709859729,-0.1214358136,-0.0490391813
2.3252060413,0.0019045569,0.0572267622,0.0455361232,0.12516132,-0.095399417,-0.0341747478
2.3352890015,-0.0122813191,0.059129402,0.0654441938,0.1809992343,-0.0215094835,-0.0054831794
2.3455429077,-0.0202659573,0.0263297427,0.047525607,0.2229285687,0.0554010086,0.0168423653
2.3554139137,-0.0367354937,-0.017867757,0.0402829275,0.2277068794,0.1117849275,0.0327960327
2.3654489517,-0.0378152914,-0.0395599753,0.03984382,0.2722061872,0.1439995915,0.0317390226
2.3755521774,-0.0192544665,-0.0310329925,0.0434335694,0.2849962115,0.1450745612,0.0168720614
2.3858861923,-0.002511313,-0.0100673577,0.0302699432,0.2507404983,0.1553724706,0.0147623047
2.3956739902,0.0103448424,-0.0284012686,-0.0017695806,0.1826327443,0.1345080137,-0.0022215394
2.405752182,0.0206537936,-0.0377755314,-0.011270442,0.057140328,0.0886036381,-0.0393755659
2.415831089,0.0305866096,-0.0343760997,-0.0098339701,-0.0510531701,0.0217094924,-0.0638009459
2.426115036,0.033216279,-0.0275648963,-0.0009369038,-0.1207986996,-0.0479678586,-0.0786832273
2.4359378815,0.0216403697,-0.0084399721,0.0038461306,-0.1886493415,-0.0931401327,-0.0808124244
2.4471430779,0.0082194302,-0.0031770007,-0.0032610081,-0.2226323336,-0.1092842147,-0.0701938719
2.4562849998,0.004440675,-0.016379429,0.006148777,-0.2266903222,-0.1293625236,-0.0521526113
2.4665410519,0.0044907131,-0.0119487783,0.0350648984,-0.2254128009,-0.1494084001,-0.0362359621
2.4763731956,-0.0102978256,-0.0032499568,0.0691701993,-0.1486749053,-0.1379747093,-0.0128903622
2.4865121841,-0.0234287288,0.0061425432,0.0826010928,-0.0230552014,-0.1048092991,0.0231954698
2.496491909,-0.0400387533,0.0289262403,0.0782032236,0.0820251703,-0.0452469699,0.0667318255
2.5068540573,-0.062360663,0.0357870907,0.0760511979,0.1472715586,0.0489831269,0.110296078
2.5166449547,-0.0608608015,0.0012746913,0.0732863769,0.1979360282,0.10576085,0.1251765639
2.5267720222,-0.0311608221,-0.021389557,0.0726226792,0.1988641471,0.1195562929,0.1241214201
2.5367879868,-0.0051817796,-0.020018531,0.0503024086,0.1490601599,0.0828844309,0.0996947661
2.5470640659,0.0026359952,-0.0201951396,0.0177088603,0.0693003461,0.0533720814,0.0742171034
2.5570821762,0.0158233736,-0.0325968415,-0.0181692019,0.0323249139,0.0134828538,0.0274886172
2.5670440197,0.0276749823,-0.0337138921,-0.0367182866,-0.0247833803,-0.0402783789,-0.0043777013
2.5770421028,0.0252779219,-0.010947003,-0.0362138525,-0.0821220875,-0.0706064552,-0.0224299375
2.5873939991,0.0194316898,-0.0041014091,-0.0387670174,-0.1073347703,-0.1124308631,-0.0564219952
2.5971770287,0.0129988287,0.0026212796,-0.0325202122,-0.1167779416,-0.1296510696,-0.0808485746
2.6072368622,0.0124246869,0.0181654561,-0.023259379,-0.0858008415,-0.132584542,-0.0840433016
2.617372036,0.0018559791,0.0030619367,0.01172652,-0.030466672,-0.1161148176,-0.0734318718
2.6275701523,-0.0100338664,-0.0117371222,0.0410769209,-0.0339871012,-0.0819067806,-0.0298801325
2.6374690533,-0.0097532477,-0.0234418642,0.0654972419,-0.0225680023,-0.0475966111,0.0094213346
2.6475129128,-0.0107803848,-0.0388842374,0.0588432178,-0.0036478406,-0.0175891779,0.0296056997
2.6576240063,-0.0101504829,-0.0193362366,0.0480569229,-0.0433419123,0.0045485478,0.0604182743
2.6678819656,-0.0186112132,0.0057672723,0.040582858,-0.1054553539,0.0263374653,0.0678775236
2.6777439117,-0.015256932,-0.0045221583,0.0259648189,-0.1661316305,0.0097594224,0.0477106012
2.6877789497,-0.0077463887,-0.0085143587,0.0049906587,-0.244939357,-0.0068453872,0.047722321
2.6978969574,-0.0030255818,-0.0050717131,-0.018303372,-0.2500613332,-0.0292761941,0.0317846984
2.708122015,0.0127769802,-0.014179959,-0.0363806859,-0.2005894035,-0.0682361126,0.0115784947
2.7179889679,0.0309262369,0.0061633452,-0.0568495169,-0.1178779528,-0.1217288896,-0.0033320112
2.7280590534,0.0279150102,0.0231569279,-0.0647900477,-0.0257118084,-0.1613977402,-0.0267348047
2.7381219864,0.0262914691,0.0317441076,-0.075929679,0.0460590236,-0.1895503402,-0.0469428077
2.7483811378,0.0140973721,0.0077589019,-0.055171527,0.1410803497,-0.1941088736,-0.0597108006
2.7583179474,0.0047142901,-0.0242597591,-0.0219003335,0.2582945526,-0.1749437749,-0.0438028723
2.7683081627,-0.0020002031,-0.0437863618,0.0229444131,0.3723569512,-0.1611174345,-0.0289597437
2.7784409523,-0.0168011691,-0.0306252372,0.0663519725,0.4284782708,-0.1158944368,-0.0034688977
2.7886538506,-0.0311377551,-0.0143783232,0.0775769576,0.4161118865,-0.0521913655,0.0188638382
2.7985801697,-0.0400912054,-0.031538859,0.0677489266,0.300270915,0.0063015735,0.0316637233
2.8085720539,-0.037620116,-0.0660316497,0.0752293691,0.1281665117,0.0345297493,0.03490692
2.8187050819,-0.0183450188,-0.105601564,0.0745983943,-0.0658071414,0.006017481,-0.0096536893
2.8289299011,0.0016251303,-0.0873078853,0.0403608903,-0.2608019114,-0.0267066434,-0.0478452854
2.8388390541,0.0062631764,-0.0642805845,0.0136420941,-0.4078822136,-0.0472659133,-0.0743613765
2.8488280773,0.0062367716,-0.0285879504,-0.0122816944,-0.551792264,-0.0645362437,-0.0891986489
2.8589639664,0.0074552693,-0.0101308366,-0.035067834,-0.6124241948,-0.0864303634,-0.111494638
2.8691759109,0.0110163484,-0.0170912277,-0.0539422408,-0.5874200463,-0.133010909,-0.1285130233
2.8790819645,0.0011350311,-0.0061689154,-0.0645155087,-0.5018633008,-0.1502899677,-0.1264182627
2.8890910149,-0.0029317045,0.0200884212,-0.07711301,-0.3597881794,-0.1627325267,-0.1094717607
2.8992328644,-0.0081805196,0.021374749,-0.0667437688,-0.1283321083,-0.1489841491,-0.1010285467
2.9094429016,-0.0069001815,0.0075848564,-0.0351452604,0.0869588926,-0.1194113493,-0.0851414576
2.9193768501,-0.0078375246,0.0086049894,-0.0001758717,0.2747192085,-0.1112303808,-0.0586414076
2.9293940067,-0.0167719927,0.0116302231,0.0097782826,0.4546655416,-0.0692539066,-0.0459245443
2.9395070076,-0.0230683889,0.0194461811,0.0100380993,0.5822143555,-0.0171733256,-0.0406211913
2.9497179985,-0.0170389321,0.0258926023,0.0127644753,0.6116539836,0.0277467445,-0.0257410482
2.9596281052,-0.0062900386,0.0059709414,0.0181433782,0.5219863057,0.0301741492,-0.0214695372
2.9697899818,0.0007813968,-0.0266645681,0.0106801605,0.3013106585,0.0047156611,-0.0500947908
2.9798951149,0.0043953755,-0.0666210204,-0.0033142946,0.0776454955,-0.0419762097,-0.0766070932
2.9903669357,0.0123697314,-0.0884812027,-0.0080880309,-0.1256961673,-0.0926942527,-0.0967549682
2.9997401237,0.0146682058,-0.0638858229,-0.0124313021,-0.2889603376,-0.0952154621,-0.1020242944
3.0099260807,0.0191542003,-0.0460371524,-0.0313800946,-0.4038847983,-0.1291755736,-0.1115682721
3.0200109482,0.0091476236,-0.0326184779,-0.0344578996,-0.4837934077,-0.1426843107,-0.1232330501
3.0303421021,-0.0095651057,-0.0107082864,-0.0301684514,-0.4998371005,-0.1397034377,-0.1327836663
3.040158987,-0.00976195,0.0075278147,-0.0323911682,-0.4167426229,-0.1251964718,-0.1349218488
3.0501799583,-0.0062168143,0.0111074904,-0.0179821029,-0.2515981495,-0.0983499363,-0.1445065737
3.0603170395,-0.0117148664,0.021664666,0.0055057025,-0.0801689476,-0.0585908741,-0.1349739879
3.0705299377,-0.0215079095,0.0370643586,0.0135422563,0.0708914027,-0.0094251912,-0.1201226115
3.0804228783,-0.02564626,0.0348555893,-0.0045770789,0.2572528124,0.0303532463,-0.127582252
3.0904560089,-0.0083489623,0.0151049355,-0.0243113413,0.3818272054,0.0589952767,-0.1329085827
3.1005129814,-0.0050004623,0.0162181128,-0.0223430768,0.399792403,0.0784738436,-0.0989263132
3.1108498573,-0.0057150624,-0.0265497696,-0.0225122347,0.3324509263,0.0884204805,-0.1105840355
3.1206479073,0.0045243897,-0.0536211282,-0.0090948725,0.1334424764,0.0326084793,-0.1041912436
3.1307270527,0.0062835314,-0.0518259555,-0.0185835734,-0.0497329347,-0.0061575593,-0.1084112898
3.1408009529,-0.003502717,-0.0589176565,-0.0236178413,-0.2340777218,-0.0342746153,-0.1051929221
3.1511311531,0.0064225593,-0.0495286137,-0.0298617259,-0.3769099712,-0.0513971448,-0.0987944156
3.1609320641,0.0106279347,-0.0562878996,-0.031922318,-0.4704796076,-0.0862110481,-0.1051588356
3.1709899902,0.0061431625,-0.038077727,-0.0179669037,-0.5257934332,-0.1047881991,-0.1136484593
3.1810569763,0.0037799871,-0.0054416195,-0.0236256495,-0.5043824315,-0.1120835245,-0.1221526042
3.1914019585,0.0013886787,0.0238500703,-0.0179005042,-0.3679529727,-0.0950169191,-0.1285495162
3.2011899948,0.0018420614,0.0445005745,-0.0214575306,-0.1388647854,-0.0591448769,-0.1413303614
3.2112379074,-0.000939896,0.0674255341,-0.0156546012,0.0612520613,-0.0063604927,-0.1254278272
3.2213549614,-0.0020966136,0.076902017,-0.0191400424,0.2690146863,0.0284041464,-0.1169693619
3.2316660881,-0.0043404899,0.0546358675,-0.0344667807,0.5174255967,0.0527739339,-0.1297618598
3.2414660454,-0.0127403345,0.0492001623,-0.0337533131,0.6877971292,0.0926198885,-0.1053630412
3.2515230179,-0.0156797376,0.0485164374,-0.0321616307,0.7932495475,0.115018934,-0.0660920665
3.2615909576,-0.0149983373,0.0160408486,-0.0274294987,0.7547848821,0.1200790033,-0.0522769839
3.2719421387,-0.0202299561,-0.0160589349,-0.0168025866,0.5895035267,0.1070462912,-0.0394999348
3.2817239761,-0.0096232202,-0.0590664893,-0.0094683552,0.3690679073,0.058321964,-0.056457147
3.2918019295,0.0054173567,-0.0725072771,-0.0019685409,0.1114661768,-0.0087380297,-0.0691668168
3.3018798828,0.0101659987,-0.065067485,-0.0019734285,-0.086521253,-0.0604021549,-0.0786975995
3.3121991158,0.0133967195,-0.0616351515,-0.0089797163,-0.2675187588,-0.1045792028,-0.1020332873
3.3220410347,0.0041521885,-0.0340755731,-0.0096398974,-0.4565021694,-0.0967277437,-0.1094147041
3.3320741653,-0.0159906056,-0.0160582792,0.0060612177,-0.5473982692,-0.0784012005,-0.1061970741
3.3422009945,-0.0127930548,-0.0088293096,0.0187283978,-0.5314728618,-0.0697533116,-0.1030106694
3.3524119854,-0.0107803252,0.0260019768,0.0248561725,-0.4444642365,-0.019059509,-0.0934512466
3.3623290062,-0.0111091342,0.0490652174,0.0105830049,-0.2516199052,0.0135023613,-0.0775587708
3.3723959923,-0.0059040091,0.0695577115,-0.0040847445,-0.038583003,0.0546929426,-0.0669743046
3.3824710846,-0.0088890996,0.0999647826,-0.0106194401,0.1488481611,0.0956721306,-0.0542583093
3.3926980495,-0.007245352,0.0869020671,-0.0281597748,0.3845621645,0.1105472222,-0.0415691435
3.4025468826,0.001151929,0.0527029485,-0.0392504111,0.541356504,0.1193867847,-0.0352345482
3.4126219749,0.0007464386,0.040393278,-0.0361986533,0.5734891295,0.1080161482,-0.0320629925
3.4226808548,0.0004311896,0.021174239,-0.0352223888,0.5161111951,0.0831090063,-0.0320601277
3.4329440594,0.0042135217,0.0002543194,-0.0263440982,0.340254426,0.0592345595,-0.0405217893
3.4428110123,0.0053134062,-0.017129017,-0.0083634639,0.093124032,0.0124757793,-0.0457918532
3.4529218674,0.016585717,-0.0572249442,-0.0005424403,-0.0878830403,-0.0306264181,-0.0670033991
3.4629731178,0.0213373993,-0.0723299533,0.0271776542,-0.3318564594,-0.0719842464,-0.0616523139
3.4732198715,0.0006672241,-0.0470365435,0.043207489,-0.5538522005,-0.0695543736,-0.0424823463
3.4830720425,-0.0132180061,-0.0537485629,0.040634118,-0.6595784426,-0.0631191805,-0.0530704707
3.4931340218,-0.0115073826,-0.0364701301,0.0472684726,-0.6938788891,-0.0474054627,-0.0381887257
3.5031299591,-0.0140325334,-0.0005614298,0.0411976799,-0.6377079487,-0.007550193,-0.0222563669
3.5135469437,-0.0188483503,0.0174947251,0.0367447957,-0.512126565,0.0275156479,-0.0201471429
3.5233840942,-0.008125117,0.0393695086,0.0179041252,-0.3181598485,0.0535389259,-0.0318631232
3.5334711075,0.0035174286,0.0682864636,-0.006157496,-0.0921831876,0.0797934383,-0.0510197729
3.5434498787,0.0091910157,0.0877896994,-0.0159099475,0.124343738,0.0911934897,-0.0574402548
3.5537009239,0.0120782647,0.0811741799,-0.0279428139,0.3388493657,0.0908342302,-0.0744836926
3.5636360645,0.0112885926,0.0620677322,-0.0509617701,0.5396122932,0.077656582,-0.086221233
3.5736761093,0.0036149418,0.0429898351,-0.0591038838,0.6827332377,0.067345351,-0.0692739412
3.5837421417,0.0038800335,0.004262255,-0.0564813986,0.7929959297,0.0332578234,-0.0746280923
3.5940470695,0.0111532006,-0.0127397915,-0.0320806876,0.7581066489,0.0012032179,-0.0618936568
3.6038961411,0.0008264281,-0.0136577627,0.0032268383,0.6196011305,-0.0211460963,-0.0491274633
3.6139221191,-0.0065311394,-0.0331410319,0.0342911705,0.3892104924,-0.033734858,-0.0437662564
3.624022007,-0.0098989215,-0.0551575571,0.0527513847,0.1077194288,-0.0583583117,-0.0256571583
3.6342999935,-0.0192566421,-0.0829062015,0.0571635589,-0.242460683,-0.044328779,-0.0085724462
3.6441731453,-0.0346043594,-0.098052159,0.0852241144,-0.5838012695,-0.0611195415,-0.0106166229
3.6542491913,-0.026249608,-0.1100216061,0.1054398641,-0.8110682368,-0.0674943551,-0.032859873
3.6642971039,-0.0138392951,-0.0833249241,0.1055671796,-0.9914435148,-0.0658728853,-0.0306895319
3.6745829582,-0.0122864451,-0.0370884687,0.0742058381,-1.1005787849,-0.0381834693,-0.0317097902
3.6843969822,-0.0186412837,-0.0204318892,0.0449677333,-1.1478618383,-0.0068666926,-0.0476097912
3.6944999695,-0.0132516827,-0.0037453906,0.0243684873,-1.1021276712,0.0071471268,-0.0752211809
3.7045631409,0.0031379557,0.0222802628,0.0015977838,-0.9378826618,0.0157671142,-0.1124214157
3.7147769928,0.0139055345,0.0621909946,-0.035001196,-0.6260818839,-0.001711745,-0.1188801154
3.7247419357,0.0179005656,0.0964277238,-0.0850907937,-0.2121853083,0.0167518165,-0.1200376526
3.7347400188,0.0079276953,0.1153402179,-0.0962217823,0.1430396289,0.0337734111,-0.1010069698
3.744866848,0.007478545,0.1051544994,-0.1025091186,0.5005832911,0.0328180715,-0.0756149963
3.7550668716,0.0217302535,0.0562781543,-0.114330329,0.9096552134,0.0003069977,-0.0767969042
3.7648491859,0.0282252226,0.0466650575,-0.0928862467,1.2589880228,-0.0336694792,-0.0599136651
3.774998188,0.0179080758,0.0893004388,-0.0695920363,1.4372587204,-0.0349288844,-0.0036842139
3.7851340771,-0.0045928559,0.0883120149,-0.0326626673,1.5267834663,-0.0212196,0.0260298718
3.795345068,-0.0118444469,0.0350192636,0.0235694274,1.3760861158,0.0020353892,0.0515629277
3.8051760197,-0.0083633568,-0.0059142248,0.0545785055,1.0894632339,-0.0427800193,0.0717869774
3.8152709007,-0.000683447,-0.0690376312,0.0590641722,0.7877764106,-0.0773656964,0.0537957251
3.8253970146,0.0043968358,-0.0999908596,0.076783441,0.4605283737,-0.1163505763,0.0464274883
3.8355998993,-0.001129856,-0.0970274359,0.0861237869,0.137202248,-0.1201943159,0.0528784655
3.8454751968,-0.0115350094,-0.0862562805,0.0950536355,-0.1530505121,-0.1238032952,0.0508255661
3.8556010723,-0.0238945987,-0.0761758238,0.1058779582,-0.3988341987,-0.0932360664,0.0232964717
3.865596056,-0.0264080074,-0.0549819022,0.0915405378,-0.5997442007,-0.066447258,0.0074359486
3.8759598732,-0.0181669202,-0.0338624865,0.0506462082,-0.7088634968,-0.040949095,-0.0042033978
3.8857369423,-0.0157772806,-0.0110655567,0.0161481127,-0.6757294536,-0.0471503325,-0.0233277567
3.8958301544,-0.0161447134,0.0222383011,-0.016417183,-0.4516841471,-0.0410666093,-0.0414321944
3.9058640003,-0.002883842,0.0648288578,-0.0344797149,-0.2128581852,-0.0176953711,-0.0319259055
3.916203022,0.0061154165,0.1184375733,-0.0500952378,-0.0337781794,0.0052914368,-0.0011677267
3.9259991646,0.011096308,0.0983846635,-0.0757687464,0.1851950437,-0.014045842,-0.0054798503
3.9361329079,0.0172758494,0.0542786568,-0.0851552859,0.3466121554,-0.0413754694,-0.0193378758
3.9461331367,0.0137548838,0.0556999296,-0.0673860088,0.4493063092,-0.0648213997,-0.0098194713
3.9564340115,0.0103202853,0.0460361689,-0.0537304059,0.5102418661,-0.0748655125,-0.0045309663
3.9662761688,0.0087331925,0.037290141,-0.0169023648,0.4089227915,-0.0809724107,0.0082327658
3.9764771461,-0.0015368365,0.0054716929,0.0113402223,0.2959184647,-0.0937076509,-0.0034246892
3.9864640236,0.001051823,-0.0573303849,0.0270088539,0.1454837918,-0.0982541963,-0.0108205536
3.9966988564,-0.0032418573,-0.0844078809,0.0537114367,-0.0999334157,-0.1013067067,0.0125998175
4.0065422058,-0.0154194441,-0.0877823979,0.0599327907,-0.3582928181,-0.0930207521,0.0020507034
4.0165157318,-0.0187927987,-0.0944663435,0.0741974935,-0.5633951426,-0.0747967437,-0.0201858934
4.0267300606,-0.0192971136,-0.086693421,0.0860580429,-0.7089086175,-0.0378823318,-0.0222539045
4.0369100571,-0.0149735417,-0.0602687746,0.0608459935,-0.7977929115,-0.0079353526,-0.0296489708
4.0467090607,-0.0106926467,-0.0292058717,0.0294043645,-0.770154655,0.0017106168,-0.0519489497
4.0567121506,-0.0072049699,-0.0034866468,-0.0023697398,-0.6325616241,0.0080449451,-0.0785256922
4.0668029785,-0.0007690095,0.0398266762,-0.0367222205,-0.4256569147,0.0215104185,-0.0806951076
4.077434063,0.0026270843,0.0689928979,-0.072160162,-0.1632413864,0.0344531164,-0.0743826181
4.0871510506,0.0087880585,0.0764525384,-0.0879938975,0.0981455818,0.0431794971,-0.0627653822
4.0971541405,0.0189182553,0.078664884,-0.1046162024,0.3792355955,0.0021090256,-0.0660426691
4.1072530746,0.0224828515,0.0738318413,-0.1208157316,0.708227396,-0.0268845428,-0.0714499429
4.1174678802,0.0212041531,0.0643325299,-0.1070858613,1.0489044189,-0.0492782667,-0.0566824526
4.1273918152,0.0168195758,0.0653787702,-0.067986466,1.2206296921,-0.0380056351,-0.0227441899
4.1374168396,-0.000704547,0.0737700313,-0.0306054726,1.158611536,-0.023373697,0.0261216201
4.1475248337,-0.0175092425,0.0299704541,-0.0059038782,0.9685932398,-0.0175863169,0.0293594245
4.1577377319,-0.0167320278,-0.0259561073,0.0237980708,0.6634535789,-0.0254809912,0.0411127508
4.1676359177,-0.0129713621,-0.0595342666,0.0549891815,0.3446595073,-0.0558186546,0.0464867465
4.1776580811,-0.0041184328,-0.0939380676,0.0656694993,0.102656737,-0.0812627673,0.0486590862
4.187787056,0.0019330181,-0.0996510535,0.083420001,-0.1254694313,-0.1065444127,0.0571990423
4.1980051994,-0.0155472066,-0.0698818713,0.0953875408,-0.3541518748,-0.0766744018,0.0625810251
4.2078142166,-0.0302373972,-0.0531820804,0.0901175961,-0.5487543344,-0.0414020978,0.037165083
4.2178239822,-0.0213631298,-0.0473231226,0.0642106757,-0.6684964895,-0.0213644765,0.0159695148
4.2279920578,-0.0192885008,-0.0321401507,0.0425823554,-0.6644189358,-0.0045785713,-0.0190635696
4.2383317947,-0.0100478139,-0.001110627,0.0136080598,-0.5428882837,0.0056937737,-0.0711174533
4.2481331825,0.0062438049,0.0627939552,-0.0182797089,-0.3820610642,0.0366496257,-0.0955637321
4.2582001686,0.0086212847,0.1113543957,-0.0391385332,-0.1730561703,0.0544885434,-0.0807427093
4.2682719231,0.0041340389,0.0980082601,-0.0709162131,0.0531015918,0.0627059937,-0.0999084115
4.2785491943,0.0085606668,0.0608232468,-0.0939762369,0.2945917249,0.0329755284,-0.1010463834
4.2884449959,0.0229063425,0.0513948649,-0.100588657,0.5265929103,-0.007345262,-0.0862599835
4.2984580994,0.0206246469,0.0375841707,-0.0899456516,0.7146424651,-0.0278404169,-0.0640201941
4.3086032867,0.0045023658,0.0285060871,-0.0648513213,0.7520817518,-0.0347332135,-0.0321794376
4.3188858032,-0.0108953323,0.0153471688,-0.0343252793,0.627191484,-0.0302971844,0.001832058
4.328728199,-0.0234893467,-0.0269959699,-0.0001713418,0.4074726403,-0.0428142399,0.0040059299
4.3387241364,-0.0174659099,-0.0604211837,0.0367874727,0.0778209791,-0.05410631,0.0157637857
4.3488502502,-0.0122643914,-0.0755460411,0.0644995198,-0.2516354322,-0.0856473893,0.0137080252
4.359058857,-0.0087699201,-0.1136701852,0.0953273401,-0.4500100315,-0.1003277972,-0.0191647019
4.3689279556,0.003753463,-0.1228540689,0.1092056856,-0.6292694211,-0.1040359885,-0.0223069657
4.3789720535,-0.0005260013,-0.0759226829,0.1019053087,-0.8419507742,-0.071703352,0.0138643524
4.3890519142,-0.0247305389,-0.0621553212,0.078474842,-0.9811409116,-0.0273611825,0.003303854
4.3993349075,-0.021548992,-0.0701872855,0.0584126338,-0.9866475463,-0.0116381459,-0.0189846735
4.4092597961,-0.0016530209,-0.0428378731,0.0328869447,-0.8715083599,-8.39543e-05,-0.0285641309
4.4192647934,0.0113488231,0.0215195883,-0.0051736021,-0.6356809139,0.0030716253,-0.0233134422
4.4294052124,0.0077391067,0.0653400868,-0.0525471345,-0.2612364292,0.0168363731,-0.0414529629
4.4396090508,-0.0029963607,0.0958642811,-0.0669963136,0.083100982,0.0549432784,-0.0287797805
4.4495401382,-0.00813221,0.1331951469,-0.0848134533,0.4042108059,0.0684476346,-0.0150498534
4.4595351219,-0.0015280448,0.1054746956,-0.1105565205,0.7736296654,0.0525815859,-0.0140897837
4.4696407318,0.0140529368,0.0712017864,-0.1120558158,1.0911476612,-0.0018893115,-0.0057027573
4.4799051285,0.0151077453,0.0766905993,-0.1046932116,1.3380516768,-0.0377522372,0.0218234099
4.4898042679,0.0053157308,0.0554857701,-0.090872921,1.4927558899,-0.0331189334,0.0366498269
4.4998102188,-0.0088617112,0.0258794893,-0.0237425342,1.3026641607,-0.0174419731,0.0919194743
4.5099411011,-0.0221715476,0.0005088908,0.0120751476,0.9967865348,-0.0583007224,0.0941016674
4.5201230049,-0.0047033033,-0.0929498821,0.0284248218,0.6756005287,-0.0656481162,0.0485221967
4.5300741196,0.0110434238,-0.1188395768,0.0662151203,0.2355271131,-0.1329628527,0.0783294961
4.5400800705,-0.0042224429,-0.1172237545,0.0884040222,-0.0897686929,-0.1550769359,0.0518560782
4.5502071381,-0.0112993922,-0.136022225,0.100868009,-0.3479968905,-0.1607308239,0.0190035868
4.5604901314,-0.0085129943,-0.0914909989,0.1277610809,-0.6438392401,-0.138944298,0.0137805957
4.5703401566,-0.0303861853,-0.0624231845,0.1242204532,-0.8824484944,-0.0773909912,0.0096253334
4.5803360939,-0.0397655405,-0.0735149533,0.0919690952,-1.0215991735,-0.0373343863,-0.0073081106
4.590473175,-0.0217622872,-0.0588733107,0.0589995012,-1.0452136993,-0.0249248557,-0.0253467653
4.6006689072,-0.0134869274,-0.0048422948,0.034143649,-0.8704282641,-0.0023146181,-0.0466158353
4.6106200218,0.0015350826,0.0537077636,-0.0035001419,-0.5527688265,0.0343952589,-0.0498644225
4.6206030846,0.0114180539,0.1267814487,-0.03612075,-0.2819834054,0.0645012259,-0.0265585706
4.6306738853,0.0004395045,0.1421705335,-0.0784534588,-0.0143505251,0.0891619697,-0.0202419516
4.6410112381,0.0051851221,0.0912680477,-0.1116243973,0.2782845199,0.0660718232,-0.0479345657
4.6508059502,0.0239606146,0.062696144,-0.1170477644,0.5925218463,0.0177879874,-0.0629045293
4.6608810425,0.0321981274,0.0892875642,-0.1166042462,0.8062878847,-0.0131073445,-0.0428000614
4.6709260941,0.013895819,0.1052067131,-0.0976948515,0.8585683107,-0.0103694154,-0.0183905214
4.6812849045,-0.0036430561,0.0579097122,-0.0633190051,0.7476546168,-0.017656358,-0.0109334057
4.6910619736,-0.0024000609,-0.0234922301,-0.0300643817,0.5463309288,-0.0566352494,-0.0236443393
4.7011408806,0.0159951095,-0.0974332839,-0.0029588125,0.3666562438,-0.1262670457,-0.0469930731
4.7111949921,0.022124717,-0.1123843938,0.0382231101,0.1278779656,-0.153841421,-0.0501300097
4.7215452194,0.0037689602,-0.0852555782,0.0724546537,-0.1390256435,-0.1433565468,-0.0373154134
4.7313270569,-0.013753226,-0.0908016115,0.0961978063,-0.3622790873,-0.1230165288,-0.0361869
4.7414169312,-0.0216549244,-0.0928055197,0.1164050326,-0.5537366271,-0.0812461823,-0.0456736088
4.7514610291,-0.0277773347,-0.077508226,0.1166568622,-0.7036226988,-0.0337314606,-0.0434878841
4.7618088722,-0.0234211888,-0.0493860394,0.0789289102,-0.7850637436,0.0007325042,-0.0190286152
4.7716069221,-0.021181589,-0.0202043783,0.0275378451,-0.6805161238,0.0036647113,-0.0349812843
4.7816720009,-0.0111361798,0.0014081461,-0.0020571731,-0.4535596669,0.0383888707,-0.0583811477
4.7917399406,0.0005195983,0.0624437779,-0.0193883553,-0.2372753769,0.0766043663,-0.02019215
4.8020362854,0.0070341625,0.1169250458,-0.0469720736,-0.0334314331,0.0762765333,-0.018120477
4.8119401932,5.1952e-06,0.0949495286,-0.0776186362,0.2100091279,0.0633819029,-0.0436723083
4.8220157623,0.0109850708,0.0647912472,-0.106176056,0.4815381169,0.0167909656,-0.067124106
4.8320279121,0.030237237,0.0761847347,-0.1151063219,0.7564380765,-0.0455696136,-0.0725337863
4.8423461914,0.0301475767,0.095170483,-0.0996434465,0.9979409575,-0.0763333812,-0.0694250762
4.8522000313,0.0154580269,0.0970070809,-0.0662305728,1.1207941771,-0.0878887698,-0.0535359271
4.8622660637,-0.0073689125,0.0709391683,-0.0385847464,1.0308229923,-0.0534093603,-0.0152710946
4.8723049164,-0.0296537187,0.0041271909,-0.0102227116,0.79171592,-0.0456870608,0.0251437724
4.8825702667,-0.0267245974,-0.0615546256,0.0150848841,0.4759348035,-0.0568856522,0.032650955
4.8924188614,-0.0108435657,-0.1009101421,0.0587806925,0.2372976989,-0.0993183255,0.028442096
4.9024810791,0.0072485455,-0.109481886,0.0845819339,0.068949692,-0.1262205094,0.0337804034
4.9125571251,0.0047950097,-0.0715364963,0.1002292261,-0.1125240996,-0.1202260777,0.0571893863
4.922826767,-0.0145529415,-0.0358871967,0.0968292579,-0.3147003651,-0.0731677487,0.0593878292
4.9326910973,-0.0321657248,-0.0433604866,0.0900435671,-0.5018485188,-0.0356533341,0.042466037
4.9427571297,-0.0194185134,-0.0548535138,0.0685307011,-0.6246215701,-0.0326197296,0.0212627482
4.9528241158,0.002370382,-0.0328511745,0.0279475078,-0.6342829466,-0.0286251195,-0.0042166463
4.9630823135,-0.0022229159,0.017591523,0.0010642625,-0.5491576791,-0.0046758428,-0.0254622791
4.9730420113,-0.0087937918,0.0631432384,-0.0267271176,-0.363514781,5.98563e-05,-0.0361251123
4.9831600189,-0.0035879815,0.098327741,-0.0665707961,-0.1309276074,0.0062804678,-0.0446754582
4.9931459427,-0.0110572483,0.1029438227,-0.0861954466,0.1133908182,0.013677598,-0.051103726
5.0034170151,-0.0029668862,0.08385019,-0.1000554338,0.3450520039,0.0073299534,-0.0331151374
5.0132479668,0.0041300603,0.0507674664,-0.0897705331,0.5672584176,-0.0150769521,-0.0246903636
5.0233540535,0.0071901479,0.039365992,-0.0529355183,0.662124753,-0.0024586287,-0.0066575669
5.0334100723,-0.0008382403,0.0465507954,-0.02010528,0.5896612406,-0.0102301985,0.0379540436
5.043680191,-0.0100454148,0.0226900447,-1.4685e-06,0.3855445981,0.017739119,0.0443906374
5.0534467697,-0.00745522,-0.0280786287,0.0174452886,0.1137136221,-0.0132703297,0.0465671048
5.063574791,0.0100315604,-0.0806434304,0.0340145454,-0.1624505967,-0.037986327,0.0434394889
5.0736279488,0.0168837551,-0.1098145396,0.0533318147,-0.4694471359,-0.0723504275,0.0668617263
5.0839242935,0.0140480939,-0.1125387698,0.0638427958,-0.7008829713,-0.0882630795,0.052047357
5.093752861,0.0035878515,-0.104902938,0.0699359402,-0.8812428713,-0.0899823532,0.0297931191
5.10389328,-0.0137821939,-0.0545748025,0.0784946308,-1.0266466141,-0.0636293069,0.0351521969
5.11414814,-0.019470742,-0.0204461943,0.0551136956,-1.0568677187,-0.031130353,0.0150015224
5.1241469383,-0.0114373025,-0.0103365919,0.0232868418,-0.9384484291,-0.0281121936,-0.0062630195
5.1340441704,-0.0101937857,0.0154909948,-0.0034611009,-0.7104023099,0.004527309,-0.0254173391
5.1441192627,-0.0081701782,0.0624328107,-0.0244825259,-0.4151544273,0.0421846732,-0.0159173105
5.1541662216,-0.0063983849,0.1055387706,-0.0441213027,-0.1154343411,0.0585274287,-0.0266029779
5.1644487381,-0.0065000555,0.1076537818,-0.0633860603,0.2227410376,0.0709204525,-0.0436714441
5.1743097305,0.0092608873,0.086673066,-0.0826650038,0.6061717868,0.0402112044,-0.0597115979
5.1843781471,0.0203262214,0.0816972703,-0.0912716761,0.9799134135,0.0190912709,-0.0566316508
5.1944441795,0.0175857488,0.0741199702,-0.0789196864,1.2509617805,0.0237874892,-0.0248430949
5.2047262192,0.0036883599,0.0541351885,-0.0528802648,1.2819654942,0.0212002285,0.0250522941
5.2144970894,-0.0124330427,0.0154127339,-0.0390994921,1.1229076385,0.0263025127,0.0442071445
5.224694252,-0.0148061123,-0.0412258655,-0.0133504653,0.8254914284,-0.0082181804,0.0304620378
5.2346758842,-0.0021920109,-0.0843266398,0.0169720277,0.487652868,-0.0546116419,0.0400807112
5.2450079918,0.0016768671,-0.0986036807,0.0553891286,0.1134481058,-0.0916207954,0.0730730146
5.2548351288,-0.003154909,-0.1016175896,0.0718218908,-0.2022438645,-0.1112661362,0.0869470239
5.2649087906,-0.0108612832,-0.1190879494,0.0795084462,-0.4434074759,-0.1144752428,0.0806358606
5.2749428749,-0.0157744195,-0.1088754088,0.1058653221,-0.6783322692,-0.0993982926,0.1040634215
5.2852950096,-0.0208914783,-0.0690381676,0.1041535959,-0.8813013434,-0.0787705109,0.1221758425
5.2950758934,-0.0222063567,-0.0379785448,0.0749789104,-0.9722234011,-0.0595269054,0.103094697
5.3051767349,-0.0156303849,-0.0051657096,0.0474528298,-0.9371998906,-0.0413207375,0.0818589106
5.3152198792,-0.0080514755,0.0411119312,0.0120042777,-0.702452898,-0.0372050218,0.0733085051
5.325553894,0.0045636692,0.0836073607,-0.0433471575,-0.290755868,-0.0136072868,0.0487943739
5.3353452682,0.0101097319,0.1423117369,-0.0559500828,0.0642276406,0.0255096238,0.0391663797
5.3454809189,0.0038202202,0.1961743087,-0.07403294,0.3734307587,0.0535660237,0.0221130941
5.3554468155,0.0104127172,0.155766055,-0.0972805396,0.7096482515,0.0466272905,-0.0278798975
5.3658089638,0.0330480002,0.1175137013,-0.0955365077,1.035687089,-0.0067629628,-0.027989354
5.3756008148,0.0323346667,0.0959109515,-0.0974292532,1.3207532167,-0.0179763343,-0.0142648872
5.3856782913,0.0099138711,0.0766786188,-0.0971758142,1.3931506872,0.0008745838,0.0133329183
5.3957800865,-0.0176575836,0.0401481241,-0.0552759543,1.2997493744,-0.0485369749,0.046247527
5.4060301781,-0.0207093712,-0.0216809642,-0.0242185965,1.0380860567,-0.0296490379,0.0388908088
5.4159359932,-0.0189799424,-0.0478066355,0.0353690013,0.5999481678,-0.0756163299,0.0856991261
5.4259347916,-0.0063694469,-0.0884276778,0.0561408624,0.2481222153,-0.110432364,0.0995744616
5.4360017776,0.0055476823,-0.1670544893,0.0788875446,-0.0266957413,-0.1627045572,0.099618338
5.4462842941,0.0069580176,-0.1543192416,0.1014341936,-0.3178109527,-0.1852974743,0.1166697592
5.4562029839,-0.0172144976,-0.121074453,0.119013153,-0.5667368174,-0.1587875783,0.1220552102
5.4662027359,-0.0337348767,-0.0980506092,0.1389265805,-0.7558684349,-0.1360966414,0.1125583723
5.4763460159,-0.0238060858,-0.0575822145,0.1334751397,-0.8362032771,-0.1083148867,0.0871095434
5.4865579605,-0.0187307056,-0.0124998828,0.0897683129,-0.7874216437,-0.0782818869,0.0711851716
5.4964709282,-0.0147645976,0.0265738834,0.0419290885,-0.6085195541,-0.039622575,0.0647884533
5.5064687729,-0.0042573414,0.0486606807,0.0014227248,-0.3518363535,0.0113676377,0.0551925525
5.5165200233,0.0021848178,0.0724481791,-0.0295224562,-0.1097632498,0.0293293279,0.0445220657
5.526884079,0.0026865101,0.090070352,-0.0558236018,0.1474371105,0.0294675454,0.0465804227
5.5366392136,0.0043434151,0.0774403661,-0.0887390748,0.4497357011,0.0012181316,0.0284394342
5.5467791557,0.0072024562,0.082293734,-0.1010690108,0.7123596072,-0.0082499385,0.0145646306
5.5568041801,0.010046104,0.0914580077,-0.0925501958,0.8201003075,-0.0029945232,0.0251571555
5.5677671432,-0.0019719356,0.0736099929,-0.0625680462,0.7594246864,-0.017159611,0.0495868623
5.5770401955,-0.0031296366,0.0141574601,-0.0313845053,0.5781599879,-0.0348254889,0.0241409596
5.5870027542,0.002876187,-0.048824206,-0.0046447897,0.2999818921,-0.0711896196,0.0273788311
5.5969619751,0.0070154765,-0.0836551934,0.0200016722,0.0132054687,-0.1000139415,0.0592908226
5.6071720123,0.0004061557,-0.1307329684,0.0518107042,-0.1808825135,-0.1144216433,0.0625183061
5.6170787811,0.0016872532,-0.1449339539,0.08046671,-0.3472216129,-0.1285384744,0.0731714144
5.6271061897,-0.0059080026,-0.1059367806,0.0969853029,-0.5427075028,-0.1088718176,0.0965904593
5.637237072,-0.0196547862,-0.0711061507,0.0936026201,-0.7095600367,-0.07210242,0.1008987203
5.647480011,-0.022810271,-0.0537638813,0.0765244588,-0.8241022825,-0.038190525,0.0850177631
5.6573829651,-0.0094036367,-0.0301268827,0.0471870527,-0.855302155,-0.0141686806,0.0680490285
5.6673440933,0.0049493858,0.0072741969,0.0081587648,-0.7829595208,0.0075675072,0.0499909297
5.6775131226,0.0056659379,0.0552297682,-0.0330026522,-0.6047814488,0.0110722268,0.0234032646
5.6877288818,0.0006368853,0.0968251079,-0.0696763173,-0.3446768522,0.0385613777,-0.0148738185
5.6976308823,0.0034637845,0.1265066713,-0.097602047,-0.082132183,0.037664555,-0.0160028655
5.7076292038,0.0013759233,0.1355076879,-0.1119711772,0.1728423238,0.046189066,-0.0266813431
5.7177829742,0.0053409436,0.1053244919,-0.1272337884,0.4504998922,0.0272889473,-0.0426886044
5.7279849052,0.0141734574,0.0710284561,-0.1104441062,0.6575548053,0.0271137115,-0.0215052906
5.7379221916,0.0050910064,0.0436868519,-0.0761499777,0.7310954928,0.0385961942,0.0135203395
5.7479162216,-0.006225442,0.0173660386,-0.0439532772,0.6424626112,0.045422677,0.0400912277
5.7580461502,-0.0058796606,-0.0235697161,-0.0099060917,0.4324530959,0.0223728176,0.0411953069
5.7682671547,-0.001315599,-0.0572043806,0.0168413743,0.2247550488,-0.0187296104,0.0369803235
5.7781162262,-0.0063659153,-0.0815603286,0.0362565145,0.0102255773,-0.0163185839,0.0434077941
5.7881770134,-0.0134980138,-0.0899671465,0.0568621978,-0.2373589277,-0.0162205808,0.0647066981
5.798248291,-0.0079781469,-0.0960702449,0.062192522,-0.4668929875,-0.0086878287,0.0626435429
5.8085823059,-0.0034638846,-0.0861112028,0.0532833561,-0.6623623371,0.0075950045,0.0552687161
5.8183951378,-0.0069504878,-0.0636702329,0.0381298885,-0.8036572337,0.0498931929,0.0595731847
5.8284621239,-0.0106803235,-0.0408250242,0.0182616338,-0.8552101851,0.0823299661,0.0585406758
5.8385658264,-0.0107287969,0.0072104796,0.0039366102,-0.8449619412,0.123712562,0.04475509
5.8487911224,-0.0089504328,0.054773137,-0.0138898874,-0.7066043615,0.1609083861,0.0309351496
5.8587007523,0.0006266929,0.082073912,-0.0508350506,-0.4997361302,0.1774731278,0.016026374
5.8687291145,-0.0035557502,0.1068431586,-0.0794943348,-0.2802197635,0.210120827,0.0096161449
5.878800869,-0.003946071,0.1038645357,-0.102622427,-0.0572007373,0.2130801827,0.0021296663
5.8890528679,0.0075779059,0.0858036727,-0.1141698733,0.1790208519,0.1757791638,-0.0138759315
5.8989801407,0.0213793311,0.0816582888,-0.1153765097,0.3381891251,0.1590082198,-0.0330390409
5.9089808464,0.019611964,0.0926892012,-0.0965328589,0.356441617,0.1486189663,-0.0234926734
5.9191179276,0.0080128554,0.0576608032,-0.0819865242,0.2401732355,0.1433923841,-0.0181555655
5.9293107986,0.0035599417,-0.0286200773,-0.0505205765,0.126594469,0.080676809,-0.0457648225
5.9392490387,0.0053659477,-0.0801065713,-0.0086499238,-0.1334737241,0.0476752482,-0.0393448062
5.949259758,-0.0103112515,-0.0749526173,0.0204757676,-0.360576123,0.0266471915,-0.0308032483
5.9593820572,-0.0199289378,-0.1194308549,0.044673644,-0.4650740623,0.0160193816,-0.0562660657
5.9695672989,-0.0138434228,-0.1168047339,0.0837513432,-0.5654272437,0.0205797777,-0.0360641256
5.9795160294,-0.0158638116,-0.0779078156,0.0926104411,-0.6777483225,0.0484419689,-0.0062912488
5.9896259308,-0.0249971803,-0.0600323826,0.0733966455,-0.7495383024,0.0776017234,0.0054213335
5.9996652603,-0.0352634676,-0.0501008779,0.0518990979,-0.7424304485,0.1125415266,-0.0157989338
6.0098638535,-0.0299549308,-0.0290866625,0.0288565978,-0.6316882372,0.136790663,-0.0253711343
6.0197792053,-0.0159850325,0.012401388,0.0001521923,-0.428029269,0.1556438506,-0.010548112
6.0298242569,-0.0178882387,0.0494796485,-0.0239700451,-0.1732252091,0.1823439002,1.85119e-05
6.0399160385,-0.0239273813,0.0793724507,-0.0355288759,0.0657120869,0.1951104999,0.0105828056
6.0501213074,-0.0124366488,0.0709163994,-0.0606037155,0.3519107997,0.1775256544,0.0221811384
6.0599970818,0.0050726929,0.0486524552,-0.085313715,0.648055315,0.1260865629,0.0358835012
6.0700631142,0.0119609926,0.0506908149,-0.0969556943,0.9719167352,0.0781142414,0.0559514873
6.0801868439,0.0062702694,0.0384254307,-0.0797390118,1.298926115,0.0354535989,0.0728364587
6.090405941,0.0062701204,0.0474037379,-0.0480648652,1.4450262785,0.0486716665,0.1142161265
6.1003198624,-0.0195675399,0.0298139323,-0.0015364074,1.4226307869,0.0486700684,0.1439519227
6.1103229523,-0.0338719077,-0.0148336431,0.0301810727,1.1351796389,0.0854267478,0.1451050639
6.120434761,-0.032459069,-0.0569812804,0.0649712309,0.6960049868,0.0326976962,0.1324481815
6.1306619644,-0.0156816747,-0.1165095121,0.0824058875,0.3240500093,-0.020782575,0.0773023814
6.140586853,0.012559453,-0.1560901552,0.0858237371,0.0032321699,-0.0641564131,0.0391382165
6.1505799294,0.014784256,-0.121063903,0.0974893793,-0.3157077432,-0.0808264688,0.0254074913
6.1607170105,-0.0132623818,-0.1006359011,0.1001536474,-0.5816236734,-0.0641456991,0.0106175598
6.1709370613,-0.0266498532,-0.0964908153,0.1107210144,-0.8316540122,-0.0357308313,-0.0158497337
6.1808519363,-0.030206969,-0.0840312988,0.1176982746,-0.9920940399,-0.0023437797,-0.0508322865
6.1908531189,-0.0190713312,-0.0606320649,0.0907424316,-1.0223619938,0.0355290323,-0.0603618734
6.2009868622,-0.0071041188,-0.0078916093,0.0578770265,-0.9511505961,0.0647787973,-0.063549675
6.2111759186,-0.0138500836,0.0330867022,0.0267826542,-0.7635852098,0.0907669887,-0.0720787197
6.2210559845,-0.0128932502,0.0666916817,-0.0037466667,-0.5323073864,0.1214372814,-0.0721226558
6.231127739,-0.0014283262,0.089254722,-0.0285434499,-0.26772663,0.1312728822,-0.0573197454
6.2412509918,0.0021753407,0.0842946023,-0.050362207,-0.0039937049,0.118762739,-0.0510222353
6.2514610291,0.0058579841,0.0596678704,-0.0767996684,0.2886791527,0.0937652439,-0.0458000451
6.2615351677,0.0263616834,0.0525069684,-0.093046464,0.5880783796,0.0370206013,-0.0363475531
6.2715549469,0.029336581,0.0596059412,-0.0860330239,0.7547656298,0.0184818078,-0.0109159611
6.2816820145,0.0036793745,0.0566081852,-0.0591643229,0.7272211909,0.0004727794,0.0304918643
6.2919549942,-0.0092968848,0.0053800805,-0.0183434859,0.5460746288,-0.0276507325,0.0284002181
6.3017549515,-0.0061356327,-0.0354525,0.0056327796,0.3556560576,-0.0899280831,0.0082434183
6.3118228912,-0.0037346983,-0.0611084849,0.0455755815,0.1026640087,-0.0836145282,0.0136198085
6.3219561577,-0.0122364666,-0.0816603452,0.0708015785,-0.1703630239,-0.0995588154,0.0497828089
6.3322181702,-0.0138512161,-0.1280328184,0.0730384216,-0.3763065934,-0.1035974994,0.0317825004
6.3420352936,-0.0183062758,-0.1395831853,0.0903666839,-0.5429771543,-0.0871932879,0.0042249747
6.3521800041,-0.0179198589,-0.0947882086,0.1092903242,-0.689527452,-0.0534848608,3.18277e-05
6.3622050285,-0.0157322194,-0.0469442159,0.1037635431,-0.7892305851,-0.0087562725,-0.0041677109
6.3724498749,-0.0086770263,-0.0267337095,0.0831414089,-0.8055257201,0.0173451044,-0.047684297
6.3823032379,0.0015175141,0.001337455,0.046087347,-0.7289565802,0.0421557762,-0.0880393088
6.3923788071,0.0079265032,0.0378801674,0.003037534,-0.5593550205,0.0498999842,-0.1040054858
6.4024248123,0.0026354885,0.0727498978,-0.0355964079,-0.3268418312,0.0635402948,-0.1136135161
6.4127430916,-0.0067531071,0.090661332,-0.0529888049,-0.1008017659,0.0846213475,-0.1125985831
6.4226169586,-0.0004891955,0.1011746377,-0.0734441653,0.1354046166,0.0507036597,-0.0978098437
6.4326519966,0.0098331366,0.0860811919,-0.0791043416,0.4219532907,-0.0019150772,-0.0894144997
6.4428648949,0.0174586866,0.0698357671,-0.0834252611,0.7117506862,-0.0586234964,-0.0619113706
6.4530858994,0.0211897884,0.0659957379,-0.0964192525,0.9500634074,-0.0880703405,-0.0152674345
6.4635958672,0.0030825234,0.0383943766,-0.0835385695,1.1114569902,-0.1097213626,0.0282148626
6.4730920792,-0.0084393527,0.0095817903,-0.0360503569,1.0741494894,-0.1118995622,0.0696334094
6.4830451012,-0.0182773378,0.0131671289,0.0132241463,0.867334187,-0.1314200014,0.1195812672
6.4930720329,-0.0220653322,-0.0292230379,0.0426676497,0.6765189767,-0.1544677913,0.0951968282
6.5029459,-0.0217927899,-0.0730464011,0.075350605,0.4215659797,-0.1651215106,0.1048126966
6.5132060051,-0.0244500842,-0.0775818974,0.088681303,0.2071088105,-0.1701295823,0.1122972444
6.5235581398,-0.0280489232,-0.1047495753,0.1006630287,0.0297752041,-0.1537788361,0.0911149979
6.5337457657,-0.0267450418,-0.0845366269,0.1170591936,-0.168880105,-0.1397221386,0.0720600858
6.5434322357,-0.0293047931,-0.0462545305,0.1095288619,-0.3475560248,-0.0968738124,0.0477034114
6.5534939766,-0.0270207431,-0.0304768216,0.0745459422,-0.4675697684,-0.0503803492,0.0159031358
6.563475132,-0.008083215,-0.0269800555,0.046705924,-0.5306901336,-0.0362574048,-0.011679423
6.573788166,0.0021316505,0.010291324,0.0223788843,-0.519071579,-0.0257179458,-0.0382220857
6.5836548805,-0.0032016241,0.0537847728,-0.0035133741,-0.3913002908,0.0017043584,-0.072218664
6.5937318802,0.0070469775,0.0808018297,-0.0243033543,-0.201662451,0.0341049097,-0.0764978305
6.6037902832,0.0368781202,0.1226324886,-0.0475501195,-0.0147060845,0.0155960731,-0.0733674243
6.6140317917,0.0453045778,0.1238498539,-0.0732478276,0.1692080945,-0.018798653,-0.0617515109
6.6237602234,0.0342237167,0.0873160809,-0.0995058194,0.3435229063,-0.0532149486,-0.0405769832
6.6336979866,0.0181109104,0.0449579805,-0.1091614142,0.4138761759,-0.04280838,-0.0034266864
6.6438970566,0.0064900913,-0.0028810636,-0.0758339539,0.3832271695,-0.0703947395,0.0379774794
6.6545658112,0.0123571698,-0.0366175324,-0.0382139459,0.2307108045,-0.0789798349,0.0645551607
6.6642198563,0.0064416775,-0.0540087372,0.0076812124,0.0164643247,-0.1040716693,0.0837102756
6.6742162704,-0.0002837979,-0.0766031891,0.0308265314,-0.1487904042,-0.1215561181,0.0646311268
6.6843380928,-0.0039730123,-0.0683282763,0.0574146137,-0.3611237705,-0.1254846156,0.0721157417
6.6946401596,-0.0116270985,-0.0496058613,0.0845003352,-0.5361866951,-0.1217151806,0.0711002797
6.7044229507,-0.0182487722,-0.0465026051,0.0909645781,-0.6827507615,-0.0881441012,0.0456699505
6.7145590782,-0.0171172228,-0.0335567743,0.0769303665,-0.7973926663,-0.0435321629,0.0435977466
6.7246170044,-0.0152617153,-0.0221226942,0.0436405167,-0.8522535563,-0.0005559998,0.0362016819
6.734896183,-0.0017222367,-0.0039163963,0.0033920028,-0.805395782,0.0082036695,0.0149581796
6.7446908951,0.005990664,0.0285957325,-0.0108681107,-0.6465144157,0.0200297683,-0.0116215665
6.7547869682,0.0118525419,0.0710902065,-0.0382155553,-0.3883464932,0.0296778679,-0.0169912968
6.7648139,0.0087996665,0.0928187221,-0.0694618598,-0.1207382903,0.0564689375,-0.0096132094
6.7751169205,0.0065057375,0.1005328149,-0.0969025269,0.1204221249,0.0608359873,0.0115637146
6.7849550247,0.0082364175,0.0854839534,-0.1203451529,0.3983017504,0.0196482725,-0.0055169347
6.7950339317,0.0162043069,0.0800129026,-0.1317292303,0.7039996386,-0.0275738351,-0.0088035427
6.8050832748,0.0213946197,0.090275988,-0.1143361107,1.0363699198,-0.0722899064,0.0112652406
6.8154091835,0.0186199192,0.092026338,-0.0818850771,1.3330966234,-0.0736518502,0.0557847731
6.8252148628,0.0095512811,0.0683591217,-0.0535284653,1.5035640001,-0.0421056412,0.108846657
6.8353500366,-0.0168991592,0.0335020274,-0.0068427706,1.3708581924,-0.0014460946,0.1757940054
6.8453578949,-0.0389457233,-0.0025712983,0.0137625551,1.0846782923,0.016388163,0.2024204284
6.855629921,-0.0286536124,-0.0524557382,0.0426774845,0.6912246943,-0.0201155208,0.1759571284
6.8654961586,-0.0158817377,-0.0680195242,0.0698536262,0.3257628381,-0.0795880333,0.1696500778
6.8755578995,-0.0125252213,-0.0789413601,0.076343976,0.0676801652,-0.0989236459,0.1537789702
6.8856477737,-0.0158512201,-0.076804772,0.0870607123,-0.1329901367,-0.0965146869,0.1410891563
6.8959093094,-0.0152468588,-0.0712446123,0.0885265693,-0.348612994,-0.092017673,0.1432697475
6.9058113098,-0.0253690984,-0.0622915775,0.0767163858,-0.5440622568,-0.0790772364,0.1114720032
6.9158182144,-0.0362655707,-0.0583114177,0.0706278309,-0.6509237289,-0.0675473511,0.0700947344
6.9259161949,-0.027447274,-0.0167920124,0.0573199615,-0.6297447085,-0.052636914,0.0499210916
6.9361820221,-0.0107311513,0.0339537114,0.0260533914,-0.4816359282,-0.0302389283,0.0318440832
6.9460992813,-0.0009904109,0.0694222301,0.001908324,-0.260032177,0.0077159116,0.023315046
6.9560880661,0.005569885,0.0762747377,-0.0167038217,-0.0276537873,0.0352119841,0.0232697725
6.9661951065,0.0072126784,0.0679766983,-0.0357389823,0.1697419733,0.0379235484,0.0115388799
6.9764451981,0.0099216793,0.0455267876,-0.0512140766,0.4089460373,0.0229938664,0.0050998898
6.986366272,0.0196028445,0.02948259,-0.0503764525,0.6171512008,0.0131056169,-0.0002667126
6.9964990616,0.0202463362,0.0367522091,-0.0292840376,0.6405438781,0.0242115315,0.0443284512
7.0065121651,-0.0027877891,0.0311028231,-0.0135159278,0.5328070521,0.0201755781,0.0581587143
7.0166950226,-0.0061546764,-0.0193827879,0.0158055052,0.3175059259,-0.0095287887,0.0220973827
7.0266361237,0.0174989197,-0.0608662516,0.0271284208,0.0758771077,-0.0732581019,0.0104461852
7.036605835,0.039675694,-0.1019335538,0.0185364708,-0.1188737303,-0.12800017,0.0125918947
7.0467472076,0.0268308017,-0.121785596,0.0387891158,-0.2989115417,-0.1603580415,0.0104975179
7.0569639206,0.003365556,-0.1163813621,0.0696163997,-0.4364001751,-0.1785295904,0.0115851536
7.0667948723,-0.0103045013,-0.0942654759,0.0830397233,-0.534733057,-0.1634659618,0.0126802456
7.0769701004,-0.018216094,-0.0736355931,0.0803261027,-0.5682028532,-0.1256280243,0.0020896522
7.0869598389,-0.016470274,-0.0462561995,0.0570734367,-0.5301636457,-0.0881699324,-2.61627e-05
7.0973129272,-0.0208086874,-0.0105138561,0.0313726291,-0.4067229629,-0.0532058291,-0.0106580351
7.10704422,-0.0205509271,0.027189659,0.0105486726,-0.2354562283,0.0023909877,-0.0127961533
7.1172332764,-0.0107245352,0.0679742545,-0.0217315331,-0.0702270567,0.0207425654,-0.0234469324
7.127240181,-0.0146898534,0.0796763748,-0.043124117,0.097090438,0.0433508717,-0.0351589173
7.1376290321,-0.0087400582,0.0585324019,-0.0727572814,0.322493732,0.0208383705,-0.0469071865
7.148045063,0.0131894145,0.0553584546,-0.0919254199,0.5416996479,-0.0218973067,-0.0597245097
7.1574149132,0.0117954705,0.0738229603,-0.0923573151,0.6699249744,-0.0365622714,-0.0395902134
7.1674337387,-0.0091905501,0.0560558289,-0.0745864287,0.7341969013,-0.0603915714,-0.0374955051
7.1779870987,-0.0105807986,-0.0005626815,-0.0401776806,0.6391159296,-0.0506111085,-0.0374664776
7.1876688004,-0.0100388136,-0.0281521808,-0.0041393423,0.4014828205,-0.0843195394,-0.0066302698
7.1976981163,0.0004957713,-0.0749687105,0.0098102903,0.1585098207,-0.1205076352,-0.0235754307
7.2078051567,0.0036946631,-0.1087814122,0.0270943865,-0.0639621019,-0.1787576824,-0.0341664888
7.2179832458,0.0022658354,-0.0922974497,0.054718934,-0.2153926343,-0.1907536387,-0.0436902195
7.2292928696,-0.0020819211,-0.0679227859,0.0726825818,-0.32327196,-0.1810164601,-0.0330393091
7.2398209572,-0.0115917381,-0.0325566083,0.0800671205,-0.4123480618,-0.1307719201,-0.0191882048
7.2487192154,-0.0263445582,-0.0083577177,0.0625220165,-0.4534055889,-0.0801498294,-0.0117195705
7.2589879036,-0.028754076,0.0168074239,0.0360767469,-0.4294064939,-0.0258450434,-0.0148839382
7.2689299583,-0.0158099737,0.0346585363,0.0042644357,-0.3070810735,0.014491193,-0.0138333216
7.2786750793,0.0007564671,0.0525848716,-0.0187768117,-0.1495247483,0.0529296622,-0.0255339183
7.2881298065,0.0073771575,0.0715489239,-0.0417325273,0.0082316427,0.0712383687,-0.0329990275
7.2985911369,0.0111236516,0.0817572922,-0.0752882734,0.177938655,0.0683586895,-0.0510941409
7.3082718849,0.0102475379,0.0736492723,-0.0938897505,0.3756898046,0.0359775089,-0.0745189711
7.3183259964,0.0214462373,0.0715668052,-0.1062552705,0.5275294185,0.006511231,-0.0777576417
7.328482151,0.0220335815,0.0770548433,-0.0983870402,0.5982632041,-0.0225336701,-0.070357047
7.3386669159,0.0140312109,0.0498825163,-0.0842133537,0.6218928695,-0.038333673,-0.0841743276
7.3485908508,0.0049725571,0.0098659853,-0.0401705876,0.5014813542,-0.0551221073,-0.0565452315
7.3585958481,-0.0060384176,-0.0086913249,-0.0165878907,0.358705014,-0.0775150284,-0.0448403731
7.3686900139,-0.0042961291,-0.0389978439,0.0059681749,0.1739744991,-0.0674351603,-0.0416036323
7.3789429665,-0.0135070141,-0.0454010516,0.0405729637,-0.0575066507,-0.0755399615,0.0019848568
7.3888030052,-0.0170832034,-0.0686922222,0.060190402,-0.2369021922,-0.0642351136,0.0232717693
7.3988451958,-0.0159902778,-0.0852861553,0.0844421014,-0.3981919885,-0.0496444479,0.0360616036
7.4089412689,-0.0171114858,-0.0601738244,0.0908625945,-0.5479389429,-0.0147021795,0.0626620501
7.4192051888,-0.0224208441,-0.0281558763,0.0699990615,-0.6443517208,0.021614816,0.0658900663
7.4291119576,-0.0201394465,-0.0004450219,0.0505116209,-0.6884493232,0.0551365577,0.0584851503
7.4391269684,-0.0071710399,0.0146043161,0.0251483545,-0.6566000581,0.0712689236,0.0489289276
7.4492349625,0.0087691639,0.0271747578,-0.0046472931,-0.5626347065,0.0656398609,0.0361608714
7.4594488144,0.0121514145,0.0424263924,-0.0326703563,-0.4195307791,0.0551070645,0.0191304889
7.4693760872,0.0059396871,0.0586958975,-0.0615123883,-0.2444723397,0.0501397364,-0.001092226
7.4793710709,-0.0050203851,0.076098308,-0.0803382173,-0.071444653,0.035644684,-0.0149467885
7.4896569252,-0.0060109994,0.074264273,-0.0860607997,0.1251614541,0.0118249701,-0.025625132
7.4999008179,0.005007396,0.0514172763,-0.0852145329,0.3495876491,-0.0191225596,-0.0278211758
7.5097789764,0.0141886268,0.0311503876,-0.0777625218,0.59955585,-0.0423430614,-0.0183401871
7.5198020935,-0.0012121849,0.0219719876,-0.0485619083,0.7189341784,-0.0263273437,-0.0003119198
7.529861927,-0.0237919893,0.0182770956,-0.0092089558,0.7562611103,-0.0215081517,0.0379061066
7.5402040482,-0.0242270436,-0.0137495538,0.0143734431,0.6351541281,0.0306341443,0.0602606796
7.5500440598,-0.026979452,-0.0372619182,0.040348731,0.3939657509,0.0318903551,0.0879295915
7.5600681305,-0.0138900783,-0.0778476149,0.0454542264,0.2150018364,-0.0027813369,0.0550419502
7.5702171326,0.0016038812,-0.0972979218,0.0620319471,0.0316929184,-0.028891569,0.0391485356
7.5804219246,-0.0033909434,-0.0654896647,0.0859380588,-0.1613875926,-0.036868535,0.050873369
7.5903158188,-0.0152378585,-0.0495860726,0.0812555179,-0.3386591375,-0.025733456,0.0434925519
7.6003389359,-0.0133067276,-0.0542719513,0.0657764301,-0.4753272235,-0.0207128674,0.0201701857
7.6104059219,-0.0023419464,-0.0519999415,0.0543554649,-0.5628176332,-0.0248245876,-0.0052946275
7.620716095,0.0088163856,-0.028672291,0.0348010287,-0.5626951456,-0.0376258716,-0.0159190428
7.6305389404,0.0113244001,0.0085300067,0.0047906255,-0.4719969034,-0.0369660035,-0.0361150578
7.6406130791,0.002125079,0.0339556783,-0.0223820582,-0.3088870943,-0.0208381675,-0.0595079958
7.6506948471,-0.0051930002,0.0499208421,-0.0336424485,-0.1169785708,-0.0022041632,-0.0627337471
7.6609487534,-0.0018071138,0.0603029579,-0.0406172052,0.0793049186,0.0058215391,-0.0712739751
7.6708841324,0.003661046,0.0458497852,-0.0469382182,0.3227992654,-0.0112214936,-0.081961371
7.6808748245,0.0072121569,0.0302336682,-0.046496667,0.5799958706,-0.0099322572,-0.0660990551
7.6910820007,0.0036935306,0.033684358,-0.0377337113,0.7741112709,0.0024722142,-0.0512780286
7.7014560699,-0.0020352805,0.0429916829,-0.011596241,0.8239861131,0.0316543318,-0.0364109352
7.7110748291,-0.0081518199,0.0287410486,0.0131848669,0.6947414875,0.0445271209,-0.0045175836
7.7211489677,-0.0075775585,-0.0208958518,0.02097442,0.4224915504,0.0560263842,0.0082988786
7.7311992645,-0.0048922352,-0.0794457346,0.0247269496,0.0943769664,-0.0031688935,-0.0054495572
7.741563797,-0.0016687416,-0.114814952,0.0429975614,-0.1836828887,-0.0523897037,-0.0213305186
7.7513489723,0.0066837468,-0.1081920415,0.0633786544,-0.4278161228,-0.0777755529,-0.0074785529
7.7614779472,-0.0045420877,-0.0748366266,0.0791877136,-0.6263723373,-0.0720268488,0.001069129
7.7714729309,-0.0187521335,-0.07083942,0.084047161,-0.7779141665,-0.0722898394,0.0011078779
7.7817559242,-0.0172283854,-0.0551570207,0.0742814168,-0.8975252509,-0.0649427101,-0.0137232654
7.7916150093,-0.0185932424,-0.0254506599,0.0550427064,-0.928599894,-0.0536519773,-0.0306993201
7.8016591072,-0.0130273309,0.0026664599,0.0283651575,-0.8049504161,-0.0399633273,-0.0498362631
7.8117408752,-0.0006220393,0.0397168249,-0.0010162973,-0.5960114598,-0.0169998202,-0.0626190379
7.8220949173,0.0096797738,0.0860691518,-0.031744875,-0.3583044112,0.0116523299,-0.0552324951
7.8319468498,0.0109399948,0.1067411155,-0.061762847,-0.1205445752,0.0337930508,-0.0701469928
7.8419570923,0.00254857,0.0938740224,-0.0774190202,0.1195343286,0.0367643423,-0.0988750458
7.8520269394,0.0060144761,0.0651634187,-0.076525189,0.3801451623,0.0156762991,-0.1021376178
7.8623123169,0.016420478,0.0506949276,-0.0708665028,0.6139688492,0.0061158184,-0.0915837735
7.8721961975,0.0091524962,0.0386556238,-0.057889618,0.8029839993,-0.00376178,-0.0693371296
7.8822288513,-0.012069976,0.0197123159,-0.0295752659,0.8177991509,0.0103417886,-0.0417270698
7.8924350739,-0.0256347414,0.0149240354,-0.0164679661,0.6748533845,0.0050170645,-0.0162123889
7.9026150703,-0.0275067743,-0.0310055744,-0.0017550371,0.4304745197,0.0027994502,-0.0288930312
7.9124441147,-0.0193522032,-0.0728337914,0.0257653818,0.1579652131,-0.0663888752,-0.02248713
7.9225101471,-0.0019957626,-0.10173513,0.0380637869,-0.0551622435,-0.0979611874,-0.02244878
7.9325838089,0.0027310646,-0.0891669542,0.0459779128,-0.2374932766,-0.1132447943,-0.0064825974
7.9428548813,-0.011266863,-0.0689128786,0.0574800596,-0.3860856891,-0.0879530236,0.0031239574
7.952755928,-0.0186331477,-0.0601602942,0.0612901077,-0.487595439,-0.0749480128,0.0180208813
7.9628257751,-0.0095345285,-0.0344204456,0.0654506907,-0.5539368987,-0.0574680865,0.0212318543
7.9729070663,-0.0063216439,0.0017742378,0.0420453772,-0.5296483636,-0.0318466127,0.0127456924
7.9832010269,-0.0013018899,0.0248452295,0.0133047914,-0.4178992212,-0.0011736534,0.0106090382
7.9930047989,0.002500037,0.0527322739,-0.0125865126,-0.2730377018,0.0266623721,0.0169552173
8.0030927658,0.0011838473,0.0748661011,-0.0383935943,-0.1120514572,0.0429100506,0.0147988554
8.0131378174,0.006771008,0.075657174,-0.0610224381,0.0491522029,0.0367579497,-0.0054183314
8.0234079361,0.0106375013,0.0755206794,-0.0746678486,0.2222747207,0.0127000175,-0.0214012917
8.0332298279,0.0166768972,0.0668027848,-0.076243557,0.3985249698,-0.0038534591,-0.029949706
8.0433206558,0.0178917442,0.0455244035,-0.0582136288,0.5245969296,-0.0175868496,-0.0268031806
8.0534029007,0.0024801886,0.035570547,-0.0318216458,0.5716392994,-0.0256090891,-0.0183250085
8.0636806488,-0.014949834,0.0195615161,-0.0144681716,0.4486771524,-0.0022433118,-0.0129731204
8.0735359192,-0.0227254387,-0.0064068572,0.0044904565,0.2237035781,-0.0221935846,-0.0044296994
8.0836181641,-0.0134918299,-0.0668123513,0.0095705604,0.0596773624,-0.0567624792,-0.0415682793
8.0936584473,0.0069224932,-0.0913849026,0.0213333592,-0.1170986667,-0.0954642743,-0.0447295196
8.1039447784,-0.0029618794,-0.060645774,0.0434106216,-0.2686431706,-0.0945481434,-0.0266399961
8.1137590408,-0.0218378212,-0.070644632,0.0674782619,-0.392621398,-0.0765528306,-0.0297841914
8.1238708496,-0.0133529808,-0.0659245402,0.0653732643,-0.4984817803,-0.0562763214,-0.0329325795
8.133928299,-0.0058845184,-0.0461709648,0.0548554286,-0.5434963703,-0.0375969745,-0.0371594839
8.1442070007,-0.0092604961,-0.0168072712,0.0372773036,-0.5298159719,-0.0183846653,-0.0382151604
8.1540670395,-0.0078504886,0.0118746022,0.0151273822,-0.4543309808,0.0097864531,-0.0498994477
8.1641378403,0.0022590852,0.0373924226,-0.0140300179,-0.3189361393,0.0236676484,-0.0552358888
8.1741952896,0.0152633581,0.0639287084,-0.0420394912,-0.1599159837,0.0229214281,-0.0574010387
8.1844892502,0.0028015024,0.0876145214,-0.0543969646,0.0085369479,0.0391928107,-0.0659300834
8.1943292618,-0.001807382,0.0910894126,-0.0682747737,0.2178099751,0.0293634161,-0.0638654009
8.204372406,0.0054072537,0.0776451677,-0.0802761093,0.4848488569,0.0062434501,-0.0618211553
8.2144441605,0.0018476046,0.0766920298,-0.072880663,0.7368021607,-0.000954675,-0.0385279506
8.2247581482,-0.0109155681,0.0761875957,-0.0602478161,0.8569536209,0.0460333377,0.0092459656
8.234582901,-0.0282287207,0.0331382006,-0.034968175,0.7628327608,0.0688109547,0.048568204
8.2446699142,-0.0212218519,-0.0225498807,-0.0233937874,0.5602088571,0.0543425344,0.0539214239
8.2546672821,-0.0043819151,-0.076091364,0.0145220971,0.215714097,0.0321853682,0.0465651751
8.2649917603,-0.0038759911,-0.0902574211,0.043978475,-0.1231289357,-0.0206043422,0.0529956445
8.2747955322,0.0039226064,-0.1297235042,0.0560353622,-0.3628843427,-0.0589629188,0.0243690591
8.2849740982,0.0100731049,-0.1153853685,0.0780206546,-0.6134427786,-0.0823249668,0.0318536088
8.2949724197,-0.0063244007,-0.0793211013,0.0864399895,-0.8345615864,-0.0619593039,0.0340433232
8.3053264618,-0.0217469838,-0.0853805095,0.0769340619,-0.9936996102,-0.050719969,0.0181623623
8.3151168823,-0.0194970723,-0.0687579066,0.0646605119,-1.0428909063,-0.0416823998,0.0054373788
8.3252439499,-0.0094340052,-0.0161157381,0.0366987213,-0.970577538,-0.0167285781,-0.0073101078
8.3352718353,-0.0033739114,0.0452360958,0.0105626201,-0.771271646,0.009347165,-0.0179645494
8.3455810547,0.002587015,0.0848691911,-0.0234529153,-0.4685709178,0.0480476916,-0.0212074816
8.3553466797,0.0092654917,0.1216886491,-0.0542008057,-0.1752737463,0.0664916784,-0.0265820064
8.3654708862,-0.0007886045,0.14265953,-0.0665272847,0.0593017489,0.0876265168,-0.0287546124
8.3755092621,-8.6181e-06,0.108755514,-0.0856100693,0.3456466794,0.0540247522,-0.0330933034
8.3858671188,0.0216136072,0.0632619709,-0.1059970036,0.685377121,0.0187927298,-0.0331971683
8.395658493,0.0256385747,0.0550281256,-0.1044922844,1.0142071247,0.008021377,-0.0099249324
8.4057741165,0.0117801521,0.0469602793,-0.0755893961,1.2501608133,0.0008231184,0.0346071124
8.4157819748,-0.010374045,0.0349911898,-0.0275627747,1.2113251686,0.0442242548,0.0707396865
8.4261131287,-0.0289480295,0.0104719261,0.0202028379,0.9671945572,0.018844597,0.0856541917
8.4359054565,-0.0117982086,-0.0469885617,0.0234543905,0.6954930425,-0.027267972,0.0495981127
8.4460554123,0.0067904391,-0.097629264,0.0383097753,0.3821768761,-0.0725315884,0.0369134769
8.4560251236,-0.0017416083,-0.095883444,0.0625667796,0.0965536237,-0.1110486239,0.0454614274
8.4663133621,-0.0119812842,-0.1006090194,0.0842349753,-0.0827788487,-0.1097292975,-0.0001497333
8.4762506485,-0.0034586543,-0.0871204287,0.114405416,-0.2697454095,-0.0902307555,-0.0138955722
8.4862413406,-0.0068304292,-0.050808683,0.1108189449,-0.4793356359,-0.0485080816,-0.0063889208
8.4963760376,-0.0181779172,-0.0517916828,0.0727519616,-0.629049778,-0.0191125069,-0.0169548783
8.5066003799,-0.0138622727,-0.051513508,0.0427097902,-0.6792703271,-0.014404837,-0.0413611531
8.5164403915,-0.0056183538,-0.0123185059,0.0222971067,-0.62498492,-0.0001294278,-0.0403060727
8.5264291763,-0.0014228426,0.0392539948,-0.0091323042,-0.4778527319,0.0150399376,-0.0265324712
8.5365343094,-0.0052706054,0.069659397,-0.0325529948,-0.2892481983,0.0442546159,-0.0297507029
8.5468549728,-0.0102765765,0.0779542774,-0.0555922166,-0.1079545915,0.0586958714,-0.0106771421
8.5567588806,-0.0076230816,0.0631985515,-0.0684701577,0.0714658499,0.0465027876,-0.005419197
8.5667829514,0.0079836939,0.0389700383,-0.0739924088,0.268255353,0.0035310872,-0.0246030111
8.5768795013,0.0327608399,0.0442608446,-0.0682773963,0.453348875,-0.0426018536,-0.0246727187
8.5871248245,0.0272578094,0.0651344508,-0.047962226,0.5505433679,-0.0490352511,-0.0024028341
8.5969800949,-0.0028270984,0.0532387346,-0.0303446427,0.5162594318,-0.0354987383,0.0039832261
8.6071243286,-0.0223816689,0.0200517047,-0.0039884234,0.2930569351,-0.0192989931,0.0210367795
8.6171178818,-0.0203201082,-0.0321040899,0.0072741723,0.0991555825,-0.0528811887,0.0125751169
8.6274108887,-0.0023575628,-0.078547135,0.0359678492,-0.0565141737,-0.0681320503,-0.0022581581
8.6372289658,0.0077869096,-0.0648136288,0.0672322139,-0.2219788432,-0.0630842224,0.0168968271
8.6473865509,-0.0047828159,-0.069484666,0.0770105347,-0.3246634305,-0.0395136513,0.0264908653
8.6573753357,-0.0135801937,-0.0720375329,0.073253952,-0.4572672248,-0.0131606087,0.0148589769
8.6677207947,-0.0155947413,-0.0453894287,0.0635022148,-0.5823939443,0.0121908206,0.0021618239
8.6775131226,-0.004872357,-0.0417209417,0.0444010124,-0.635956645,0.0317642577,-0.0158635154
8.6876487732,0.0206835512,-0.0207027923,0.022203885,-0.6198410392,0.0201222468,-0.0328622051
8.6976461411,0.0258617196,0.0182635058,-0.0141557837,-0.4907343984,0.0211205985,-0.0530707389
8.7079143524,0.0134824459,0.0524613112,-0.0512896553,-0.3031535745,0.0449106209,-0.0732806697
8.7178497314,0.0048794546,0.0907611698,-0.0657658949,-0.1357174367,0.0570041649,-0.0701310784
8.7278556824,0.0069760927,0.1164857,-0.0809454694,0.030731732,0.0605594851,-0.0733569637
8.7379684448,0.0122178886,0.1074464172,-0.1013611928,0.2604493201,0.0326894373,-0.0989125967
8.7481832504,0.0167449657,0.0873667449,-0.0965358391,0.5071802735,0.0125684571,-0.0979234949
8.7581005096,0.0170211885,0.082278654,-0.0815732852,0.6295205951,0.0543123074,-0.0437826328
8.7681150436,-0.0098443087,0.0600168556,-0.0529748574,0.5652734041,0.078488484,0.0072121094
8.7782487869,-0.0164645668,-0.0123805543,-0.0317818299,0.4329178929,0.0816581175,0.0199905559
8.7884616852,-0.0035055333,-0.0451879054,-0.0061640525,0.1792065203,0.0541002527,0.0391535982
8.7983140945,-0.0070461682,-0.0369051844,0.0174826011,-0.0468845814,0.0371808596,0.0253984369
8.8083896637,-0.0015609913,-0.0532740504,0.0252594575,-0.2134040594,0.0399084687,0.0158858914
8.818479538,0.0184806678,-0.046478942,0.0297726616,-0.4088608921,0.0563717969,0.0361174606
8.8287267685,0.0020370579,-0.0449348241,0.0383735523,-0.6343946457,0.0915817171,0.0425631069
8.8386487961,-0.0076497844,-0.0631601363,0.0386651382,-0.8074710965,0.1090238914,0.0203184579
8.8486480713,0.002276147,-0.0356035978,0.0407735929,-0.8994082212,0.124081932,0.0118549317
8.8587732315,0.0052771368,0.042258665,0.02577921,-0.9082038403,0.1506150812,0.0246124715
8.8689861298,-0.0096702334,0.095231697,0.0012907601,-0.789031148,0.1867483109,0.0362800471
8.8788766861,-0.0148748215,0.0987554044,-0.0412840024,-0.5712968111,0.184392482,0.0340994522
8.8889036179,-0.0084599163,0.111496374,-0.0734265223,-0.3568908274,0.1959327459,0.052101355
8.899020195,-0.0071468554,0.1313616484,-0.1118616834,-0.1604146659,0.186109364,0.0722197369
8.9092359543,-0.0125978198,0.1117031425,-0.1321068257,0.0491340384,0.1486445367,0.0668388233
8.9191703796,-0.0040690503,0.0867115706,-0.1309357136,0.3068771064,0.0946291089,0.0625001341
8.9291687012,0.0165992472,0.084781751,-0.1256449074,0.587037921,0.0397493467,0.0581543855
8.939286232,0.0217100177,0.0844361037,-0.1097130552,0.7930464149,0.0374572314,0.0814599022
8.9495191574,0.0029886758,0.0480517596,-0.0560154691,0.7841860652,0.0703637749,0.0952819809
8.9594488144,-0.0101556983,0.0128458003,0.0179727301,0.5376542807,0.0714480877,0.103840448
8.9694538116,0.0062767663,-0.0494628698,0.0394816026,0.2685929835,0.081609644,0.0699362829
8.9795827866,0.0269597862,-0.1183937937,0.0639457926,0.0022900505,0.0303205568,0.0466190353
8.9897947311,0.0393251441,-0.1257388741,0.0710119233,-0.1897659302,0.0241979491,0.0158725753
8.9996814728,0.0282382462,-0.0885530859,0.0736455545,-0.356647402,0.0630422831,0.0127478894
9.0098400116,-0.0048157922,-0.0320005566,0.0825212821,-0.5376754999,0.1305499524,0.0308781583
9.0198688507,-0.0265566763,-0.0202911031,0.0705840215,-0.6856702566,0.2012933046,0.0129013536
9.0300502777,-0.0053451858,-0.024848653,0.0501013026,-0.7541028857,0.2133180052,-0.0040640477
9.039981842,0.0081409309,0.0113096097,0.0215211138,-0.7147226334,0.2231719643,-0.0104415193
9.0499801636,-0.0019018851,0.0626333207,-0.0182025805,-0.5750763416,0.239267841,-0.0072835428
9.0601263046,-0.0189718511,0.1228200644,-0.0703287497,-0.3733842075,0.2422415316,0.0160276387
9.0703277588,-0.0451771654,0.1455455273,-0.1100971475,-0.1494959891,0.2666738927,0.0457133614
9.0801906586,-0.0462385602,0.1288804859,-0.1217598096,0.0597768575,0.2579942644,0.0615832731
9.0902490616,-0.0100127961,0.0960414857,-0.1296101063,0.2823148668,0.2038383484,0.0827356949
9.1003923416,0.0107310507,0.0685379356,-0.1268568486,0.5165615678,0.1529743075,0.1049491912
9.1105995178,0.0040494897,0.0677679032,-0.1040497795,0.7120804191,0.1325374842,0.1261253059
9.1204843521,-0.0087873843,0.0545419902,-0.0440239683,0.7982426882,0.1621414423,0.1569093317
9.130525589,-0.0359206386,0.0381635278,0.0366783366,0.5666012168,0.1711442471,0.2206805795
9.1406602859,-0.0492162295,-0.0061634318,0.0600574836,0.3291173577,0.1190330461,0.1952309459
9.150850296,-0.029414108,-0.1188645512,0.0688454136,0.1758215427,0.076929532,0.1272937208
9.160782814,-0.0250024404,-0.1316723377,0.1022626981,-0.0682754889,0.0495728776,0.1645054072
9.1707754135,-0.0353098698,-0.1081198007,0.1084094867,-0.3180059493,0.0494999103,0.1624451727
9.1809062958,-0.0465188511,-0.1084325463,0.1118464097,-0.5380875468,0.070658192,0.1221638024
9.1911239624,-0.0468662269,-0.0974515826,0.1107536182,-0.7229554057,0.0933240876,0.1031096801
9.2008018494,-0.0522326119,-0.0631227642,0.0859443769,-0.8301450014,0.1401717663,0.1084692925
9.2108774185,-0.0510117002,-0.0397654921,0.070308648,-0.848667562,0.1770376414,0.0915036276
9.2209415436,-0.0281231012,-0.0075948969,0.0382444486,-0.767551899,0.1755270958,0.0766170844
9.231595993,-0.0178312566,0.0139955143,-0.0051179314,-0.5039613247,0.1755905449,0.0584987327
9.2413339615,-0.0134407785,0.0314315408,-0.0201050416,-0.2288706452,0.2002212405,0.0499465913
9.2513065338,0.0104481373,0.0804493874,-0.0439756885,-0.0025530932,0.1949226111,0.0732460544
9.2613925934,0.0187384579,0.0754025429,-0.0737114325,0.2400004119,0.1651103199,0.0583055206
9.2716655731,0.0204477999,0.0359369963,-0.0856972113,0.5211361647,0.1198373884,0.0613969192
9.281586647,0.0282077882,0.0108473161,-0.0963757411,0.8149752021,0.0853631049,0.0761696696
9.2915725708,0.0319366865,-0.0028208629,-0.083664991,1.0158179998,0.0672195181,0.116457969
9.3016233444,0.0020012951,-0.0048818723,-0.0314235464,1.0040392876,0.0737804845,0.1621218622
9.3119544983,-0.0302358177,-0.0376136452,0.0257312879,0.7884266376,0.0784090534,0.1844767034
9.3217735291,-0.0400212295,-0.0895072967,0.0623811111,0.4535582662,0.0565768592,0.2142824084
9.3318586349,-0.0330186971,-0.1396979839,0.0731573328,0.0965441912,0.0056399112,0.2037296295
9.3419513702,-0.0283905771,-0.1501674801,0.0923240408,-0.2038090527,-0.0566112772,0.1719195694
9.3522567749,-0.0193613376,-0.1020913869,0.1007862911,-0.4331687391,-0.0672625899,0.1475511044
9.3621606827,-0.0161502864,-0.056367293,0.0978305563,-0.6521986127,-0.0426689014,0.1444334239
9.3721818924,-0.0210107472,-0.0643984228,0.0971704349,-0.8596060872,-0.0062949117,0.1423806548
9.3822193146,-0.0102975573,-0.0968512446,0.0980565175,-0.9944036007,0.0241116621,0.1042051017
9.3925075531,0.0203151498,-0.0724816471,0.0690549836,-0.9870375395,0.032422591,0.0670444146
9.4023218155,0.0255524609,0.0126399854,0.0364810452,-0.8273237944,0.0687570274,0.0553428866
9.4123897552,0.012040386,0.0767638534,-0.0110164667,-0.5181782246,0.1032625362,0.0510344245
9.422454834,0.0080905054,0.1010216922,-0.0531170741,-0.1878970116,0.1580369025,0.0350513943
9.4327335358,0.0108301733,0.1114882678,-0.0686029568,0.0872581229,0.1763014048,0.0264962595
9.4425945282,0.0077470937,0.0944258422,-0.0721477643,0.392560333,0.1671943814,0.0104851341
9.452671051,0.0106777344,0.0665321201,-0.0790155903,0.7141250372,0.1350838542,0.0252526272
9.4627218246,0.0028456247,0.0464710444,-0.0863085166,1.0588749647,0.1317486465,0.0283494852
9.4730205536,-0.0011483632,0.0167870391,-0.0862774029,1.3428153992,0.1269256622,0.0473873578
9.4828691483,0.0014517404,0.0011306269,-0.0489266887,1.3996337652,0.1044025719,0.0972667038
9.4929122925,-0.0177275445,-0.0138262054,-0.0026717565,1.142318368,0.1171625778,0.1206979901
9.5030326843,-0.036077369,-0.0417520553,0.0435263738,0.6518294811,0.0747688487,0.1346046776
9.513253212,-0.0165447798,-0.1048222333,0.0516446456,0.2183534205,-0.0163940843,0.0783938766
9.5231266022,-0.003042897,-0.1684564501,0.0698384866,-0.1215318069,-0.073686935,0.046598129
9.5332632065,0.0009669758,-0.1416648775,0.1012277231,-0.4146939218,-0.1047588363,0.0678930357
9.5432853699,-0.0117601361,-0.105806604,0.1140857562,-0.6411414146,-0.0843568891,0.082825914
9.5535564423,-0.034452904,-0.1052737981,0.1146149263,-0.8442596793,-0.0500745513,0.079709217
9.563419342,-0.0367901213,-0.0999806076,0.1146700606,-1.0035921335,-0.0185793415,0.0787037313
9.5734863281,-0.0186971631,-0.0603946596,0.0835525617,-1.0561903715,0.0117330234,0.0787322298
9.5835533142,-0.0114757922,-0.005036904,0.0504724607,-0.9411799908,0.0359982178,0.0659740269
9.5938367844,-0.0110906865,0.0388976783,0.007183752,-0.6468858123,0.060727261,0.0467992648
9.6036996841,-0.0010442637,0.0807936639,-0.0279972926,-0.3314886689,0.1101577356,0.0446191356
9.6137247086,0.0048349299,0.1234247535,-0.055309929,-0.0755178779,0.1261670589,0.041376736
9.6238012314,0.0069615045,0.1061832756,-0.0777151361,0.1637288034,0.1057440713,0.0062677525
9.6340904236,0.0193387661,0.0679612011,-0.0960441008,0.4279375374,0.0442407653,-0.0161278341
9.643954277,0.0233233068,0.0585096329,-0.0976721421,0.6961245537,0.0114370128,-0.036387831
9.6540193558,0.0225550029,0.0437891334,-0.0866470709,0.9246748686,-0.0045568664,-0.0290212631
9.6640930176,0.0187991653,0.0020814999,-0.0518546477,1.0296099186,-0.0374160782,-0.0014569458
9.6743612289,0.0081636999,-0.0337383896,-0.0210606232,0.8813306689,-0.0428380072,0.0166285802
9.6842269897,-0.0172671583,-0.0447220355,0.0213087425,0.5433971882,-0.0784904063,0.0464273542
9.6942968369,-0.0168908145,-0.0983992368,0.0336048827,0.3408627212,-0.104989931,-0.0034390036
9.7043552399,0.0073813,-0.1463499218,0.068164669,0.1608123183,-0.1363216937,-0.0108415922
9.7146377563,0.0080252383,-0.0904600173,0.1233791932,-0.0643949732,-0.1316523701,0.030628087
9.7244548798,-0.008052161,-0.0670304447,0.1254345924,-0.2460570335,-0.1088889316,0.0221908595
9.7345991135,-0.0290425625,-0.0602558404,0.117431961,-0.3863148093,-0.0657625049,-0.0106677553
9.7446050644,-0.0423815437,-0.0406158715,0.1055386886,-0.46909374,-0.0060518323,-0.0180491712
9.7548408508,-0.0354961939,-0.0106524369,0.0843150839,-0.4994521439,0.0414392538,-0.0169559438
9.7647533417,-0.016953757,0.006658481,0.0542929396,-0.4612913132,0.0660252273,-0.0403125994
9.7747344971,-0.0120526757,0.0243643988,0.0179109797,-0.3450930715,0.0774919987,-0.0647577569
9.7849216461,-0.0070203743,0.051718697,-0.0192573443,-0.148714602,0.074805066,-0.0892316028
9.7951383591,0.0030453897,0.0735058039,-0.0383112803,0.0755597875,0.0586769618,-0.0967292041
9.8050231934,0.0123236571,0.1062719077,-0.0761086717,0.290478617,0.0192956682,-0.077690728
9.8150568008,0.0070892074,0.1024170369,-0.1102661267,0.4883277714,-0.0213646758,-0.0692668855
9.8251914978,0.011822084,0.0512810796,-0.1163826361,0.6917153001,-0.0821589157,-0.0640392378
9.835392952,0.0275804494,0.0072663291,-0.1023875251,0.8586118221,-0.1219662502,-0.0460509136
9.8453226089,0.0264698956,-1.16961e-05,-0.064486064,0.8683786392,-0.1353638917,0.0017209377
9.8553295135,-0.0091928449,-0.0026183859,-0.0106933499,0.7059902549,-0.1163931191,0.0368110128
9.8654050827,-0.0323832519,-0.0153570315,0.033578001,0.4200083017,-0.1187803745,0.0538712218
9.875670433,-0.0212549176,-0.0658434182,0.0604819879,0.168222934,-0.1274361908,0.0401274487
9.8855237961,-0.0050135455,-0.1196919829,0.0956130251,-0.0417864658,-0.1516499668,0.0253030285
9.8956613541,0.0025284386,-0.1030300409,0.1290010959,-0.2693197429,-0.1303002089,0.0243096706
9.9056549072,-0.0115945246,-0.0809713751,0.1402297169,-0.4714771807,-0.086555399,0.0063312026
9.9160060883,-0.0170187559,-0.0583548695,0.1323084384,-0.672712028,-0.0291269924,-0.0296901818
9.9257888794,-0.0097475555,-0.0446664244,0.1007045731,-0.7830305099,0.008981579,-0.0583101772
9.9359169006,-0.0063477657,-0.0304702651,0.0694506392,-0.8130549788,0.0224305429,-0.0710374191
9.9459209442,-0.0127467122,0.023528086,0.0291705951,-0.7856041193,0.0512583964,-0.0805869177
9.9562530518,-0.0172968712,0.066456601,-0.0163620487,-0.6225960255,0.0780585855,-0.0944183096
9.9662103653,0.000592152,0.0737210959,-0.0612318888,-0.391015321,0.079083167,-0.0849210173
9.9763116837,0.0104357097,0.0951143354,-0.0947174206,-0.1677516252,0.0600812472,-0.043577034
9.9863204956,-0.001310309,0.1013625115,-0.1168520823,0.0407437794,0.0227444619,-0.0277205072
9.9965982437,-0.0030236149,0.0768857449,-0.1292751282,0.2856765687,-0.0314095877,-0.0363041386
10.0063438416,0.0220171902,0.0609091371,-0.1131223813,0.5680939555,-0.0978653133,-0.0289767217
10.0165195465,0.0286325607,0.0613154024,-0.0763621703,0.8193005919,-0.1368462592,0.0027939919
10.0265026093,0.0204230342,0.0561334938,-0.050957121,0.9090557694,-0.1441640407,0.0622287542
10.0367145538,0.000132779,0.0208545793,-0.0296605006,0.7725346684,-0.1504267305,0.0983614624
10.0466470718,-0.0144549813,-0.0342818648,-0.0071956301,0.4319440424,-0.1353220046,0.1048267558
10.0566711426,-0.0132187512,-0.0828834921,0.0225103125,0.094218716,-0.1946415156,0.0847086981
10.0666255951,0.0003186263,-0.1272244602,0.0642812476,-0.0464711748,-0.2163683921,0.0327035561
10.0770606995,0.0033297038,-0.1159646064,0.096373938,-0.1427561641,-0.1927834302,0.0359251797
10.0868940353,-0.0136390235,-0.0490566045,0.114595972,-0.288466841,-0.1344625354,0.0625370145
10.0969753265,-0.0377909429,-0.0346599966,0.0946474895,-0.4108502865,-0.0646594837,0.0286253896
10.1069793701,-0.0286981966,-0.0560106188,0.0876156911,-0.4976878464,-0.0286466889,-0.0276095867
10.1173372269,0.0039873519,-0.0330888182,0.0703380927,-0.5161214471,-0.0002203747,-0.0371468998
10.1271286011,0.0111569259,0.0152121047,0.0374155864,-0.4490747452,0.0183545742,-0.0445863754
10.1372652054,0.0066517391,0.049702391,-0.0111229206,-0.24860847,0.0336991772,-0.0754217803
10.1476373672,0.0060564079,0.074797079,-0.0454168692,-0.0278939791,0.0525231287,-0.0882115513
10.1576118469,0.0112169478,0.0984076113,-0.0731673613,0.2028577477,0.0314229056,-0.0532413125
10.1673660278,0.0096107814,0.1039100736,-0.1089535728,0.4198739529,-0.00484036,-0.0469428711
10.1775312424,-0.0005129181,0.0914774388,-0.1175437346,0.6786102057,-0.0525764562,-0.0661447942
10.1875305176,0.007173846,0.0682290047,-0.1025034562,0.9575328827,-0.0892542452,-0.0439372919
10.1977615356,0.024511883,0.0495992154,-0.0798055306,1.1476852894,-0.1053413376,0.0006019439
10.2076330185,0.0082355831,0.0355956405,-0.0411720648,1.0899325609,-0.090699479,0.0452191457
10.2176027298,-0.0269730296,0.0225916374,0.0096169328,0.7857291102,-0.0846948475,0.0718443692
10.2277145386,-0.0309048798,-0.0324480683,0.0357390866,0.4401233196,-0.1015169695,0.070864059
10.2380990982,-0.002121737,-0.1059936434,0.0512702093,0.1952669621,-0.1632501036,0.0443504229
10.2479448318,0.0113508496,-0.1226968914,0.0865475163,-0.0340397283,-0.1779855192,0.0444006212
10.2580652237,-0.0066302321,-0.0855819136,0.116911374,-0.2904584706,-0.1482401341,0.0678401664
10.2682390213,-0.0189181473,-0.0745169669,0.1181785688,-0.5394484401,-0.1165707484,0.0509305596
10.2783842087,-0.0312245693,-0.0660519749,0.1059915647,-0.7490925193,-0.071948953,0.0149049172
10.2881984711,-0.0279083159,-0.0442114025,0.0865690932,-0.8914291263,-0.034111362,-0.012647016
10.2982778549,-0.0030761266,-0.0083784601,0.0489310846,-0.8970641494,-0.0056632105,-0.0359909534
