0.0000000000,-0.0374811031,-0.0334069431,0.0352788754,-0.1776884049,0.0918585956,-0.0316874869
0.0097409487,-0.0356156267,-0.1148774922,0.0471723862,-0.1746803671,0.1097643524,-0.0561006851
0.0198199749,-0.0098930914,-0.067038089,0.0844919905,-0.1596135348,-0.0101324879,-0.0752767697
0.0298199654,0.0369026922,0.0069424813,0.0901131853,-0.151953727,-0.0292215571,-0.0837817788
0.0399819613,0.0114241224,0.0397752821,0.0213183369,-0.2044657767,-0.007354877,-0.0773875266
0.0500160456,-0.0162948091,0.0414450467,-0.0177492294,-0.2462356091,0.0083005158,-0.0614421181
0.0600409508,-0.0177915413,0.0129978368,-0.0452770405,-0.2488666028,0.058197435,-0.0539838709
0.0715529919,-0.0302768666,-0.0182380974,-0.0524233393,-0.2287434936,0.0731870383,-0.0603522882
0.0803519487,-0.010440262,-0.0249505937,-0.0114975963,-0.2025687248,0.0171209723,-0.0688801333
0.0909680128,0.0105639677,-0.0266745389,0.0474041291,-0.1564952433,-0.0016386013,-0.0784573928
0.1032170057,0.0005665103,-0.0207089484,0.044233758,-0.1315813661,-0.03857252,-0.0806064233
0.1138379574,-0.0064725894,0.0146406004,0.0483846255,-0.0546660796,-0.0452314876,-0.0657640994
0.1206660271,-0.0185386259,0.0443350971,0.009182116,-0.0122095663,-0.0202550963,-0.0349698998
0.1308020353,-0.0279860217,0.0490566194,-0.0044315257,0.0101878839,-0.0178196356,-0.0169237852
0.1407049894,-0.009218784,0.0082512209,0.0085895862,0.0239916854,-0.0114018163,-0.0275419429
0.1507019997,0.0077809673,-0.010280936,0.0040837727,0.0199308991,-0.0327284113,-0.0381695554
0.1610939503,0.0181179326,0.0217353404,0.02096208,0.0063697631,-0.0647692978,-0.0519859008
0.1713060141,-0.0019322953,0.0407020748,-0.0165399108,-0.0130771725,-0.0416503958,-0.0604638048
0.180997014,-0.0238209683,0.045879215,-0.0378845744,-0.0281750038,-0.0258380119,-0.0562050119
0.1909669638,-0.0294174571,0.038780123,-0.0497928075,-0.0015782807,-0.0170684904,-0.0487747937
0.2010689974,-0.0253071506,0.0243180096,-0.0423899107,0.0475542173,-0.0196636077,-0.0243670549
0.2112619877,-0.0049700458,0.0159544051,-0.0258094463,0.0753171369,-0.0203922484,-0.0105710821
0.2212370634,0.0102232974,-0.0033487971,0.0078448262,0.0668330491,-0.0257859491,-0.012694953
0.2313020229,0.0188803654,-0.0038637216,0.0543333478,0.0312106106,-0.0918919966,-0.0137807233
0.2413289547,0.0223469716,0.0364337862,0.0518331118,-0.0106207244,-0.0698643252,0.003230351
0.2515220642,-0.0050241072,0.0457802117,-0.018020967,-0.0627909899,0.0169206355,-0.1241289377
0.2614530325,-0.0181536991,0.0062899892,-0.0293710623,-0.0066856118,-0.169433862,-0.4640124142
0.271682024,0.1561264098,0.0412349999,0.0235046949,0.0250318386,-0.0273390375,-0.3577696085
0.2817640305,0.1165996194,0.0581212342,-0.021978477,-0.0229096152,-0.0159242637,-0.0073582437
0.2920019627,0.018228678,0.0132715413,-0.0132859144,-0.0168003235,0.0151015632,0.0234478712
0.3017469645,0.0165923517,0.0016857688,0.0104616489,-0.0062698126,-0.0783069432,0.0042856284
0.3119679689,0.0418772362,0.0228272974,0.0259730425,0.0277190469,-0.0620866977,0.0053468985
0.3220419884,0.0120960157,0.0445086658,-0.0219761524,0.0234629158,-0.063199833,0.003224825
0.3321920633,-0.0066655595,0.0384290516,-0.029446641,-0.0142892553,-0.0231802445,0.0075015957
0.3421859741,-0.0235870797,0.0190189779,-0.0353880934,-0.0262169428,-0.0041500283,0.0128230574
0.352238059,-0.0235455651,-0.0029401476,-0.0228161011,0.0021630339,0.0396581739,0.0213321224
0.3623100519,-0.0275753755,0.002249748,-0.0084876809,0.0367989615,-0.0077063469,0.0340419933
0.3723490238,-0.0005690178,0.0077070897,0.0314535685,0.0637003481,-0.0297613181,0.0329623446
0.3824959993,-1.79431e-05,-0.0037011201,0.0093444195,0.0764583796,-0.0254392717,0.027651472
0.3925440311,-0.003837975,0.003281862,-0.018376926,0.0787593573,-0.042445153,0.0202098005
0.402592063,-0.0073297638,0.0004303162,-0.0274114404,0.0411152542,-0.0130503792,0.0223585721
0.4125670195,-0.0181212742,0.0050803726,-0.0491608791,0.0112351198,-0.0133182928,0.0213042255
0.422737956,-0.0209307391,0.0010428731,-0.0443849973,-0.0135258622,0.0077030361,0.0234428123
0.4327470064,-0.0320117213,-0.0029000337,-0.0263417754,-0.0188327413,0.004431875,0.0170717314
0.4429010153,-0.0204053242,-0.0042403634,-0.018513063,-0.0187535919,-0.0030252426,0.0128231905
0.4527449608,-0.0109438319,0.0069861715,-0.0074637928,-0.0079523446,-0.0156363752,0.0170613453
0.4630349874,-0.0093920548,0.0011942093,0.0038367712,0.0101935565,-0.0165439136,0.015992552
0.4730329514,-0.0133039672,-0.0053046639,0.0036519968,0.0402057841,-0.028952647,0.0255349241
0.483093977,-0.0121920425,-0.0058656032,-0.0115627442,0.0562406741,-0.0309229866,0.0276554674
0.4931670427,-0.0194212217,-0.0209272802,-0.0221940074,0.0624596886,-0.0128646242,0.0223539099
0.5032479763,-0.0226980764,-0.0399684608,-0.0194619689,0.0419274382,0.0112303924,0.0021963785
0.5133379698,-0.0316802002,-0.0292213857,0.0019362174,0.0470351167,0.0335026756,-0.0062881862
0.5233830214,-0.0360696055,0.0136022279,0.0063796244,0.0426846519,0.0408239029,-0.0169021469
0.5334980488,-0.0289172251,0.037748009,0.0140571799,-0.0020271568,0.0298362337,-0.0147726843
0.5435069799,-0.014074536,0.0354619324,0.0104877558,-0.0436031744,0.0251933448,-0.0200727079
0.5536060333,-0.0040371139,0.0009370749,-0.0204345379,-0.0480730236,0.0453289747,-0.0179379173
0.5634759665,-0.0008723757,-0.0197249353,-0.0372403078,-0.0369735025,0.0030097468,-0.0137146767
0.5735249519,0.015004186,-0.0380035341,0.0101103988,-0.0269016922,-0.0424048714,0.0053724647
0.5836060047,0.0102727991,-0.0445404947,0.0090692844,0.023994511,-0.0090109631,0.0138706118
0.5947079659,-0.0148074944,-0.0387012661,-0.0303255711,0.074183777,-0.0117140049,0.0202269778
0.6039509773,-0.0121817309,-0.0124860099,-0.0074283876,0.0733477101,-0.0351282507,0.0106598381
0.6140249968,-0.0075410623,0.0028405492,0.0082788076,0.071937032,-0.0012200852,0.0053681368
0.6238820553,-0.0198611934,0.0308481157,-0.0005319513,0.0549901351,-0.0140725672,0.0096122175
0.6339310408,-0.0041984934,0.036958009,0.0060193143,0.0154738864,-0.0112413606,0.0085618664
0.6440420151,0.002551941,0.0022902195,-0.0144724641,-0.0008040993,0.0150673427,-0.0031002495
0.6540789604,0.0009299496,-0.0316040218,-0.0400050096,-0.0050118947,0.0086224917,-0.0094731934
0.6641499996,0.0042503159,-0.0313647091,-0.0264835153,-0.0050761569,0.0149317198,-0.0179630183
0.6742169857,-0.0054367501,-0.0262081921,-0.0024032986,0.0025759041,-0.0030262412,-0.0158503316
0.6842809916,-0.0022366962,-0.0057134326,0.0300342049,0.0178012494,-0.031534981,-0.0148075717
0.6943459511,-0.0058718342,0.0097510526,0.0359028764,0.0347735733,-0.0207134932,-0.0052502858
0.7044219971,-0.0179167707,0.0181924403,0.0144894924,0.0167246405,-0.0292984564,0.0043070004
0.7145490646,-0.0068698544,-0.0063783224,-0.0012579954,0.0026543606,-0.0091982502,0.0138768032
0.7245160341,0.00189477,-0.0161011517,-0.040046256,-0.0124976141,0.011905238,0.0160147231
0.7346249819,-0.0003729185,-0.0176532567,-0.0355027728,-0.0209845789,0.0064841066,0.0096433759
0.7447539568,0.0031613091,-0.0162768662,-0.0136151109,0.0089333747,0.0024456892,0.0011393701
0.754776001,0.0021474042,0.0111112902,-0.008432189,0.0296658166,-0.043014206,-0.0010121977
0.7648700476,0.0159757715,0.0324128568,-0.0113968048,0.0445028208,-0.0334246941,-0.0148145612
0.7748780251,-0.0062755961,0.0205098689,-0.0243732128,0.047371842,-0.0005333228,-0.0190460589
0.7850010395,-0.0126042087,0.0164147913,-0.0126735363,0.0390277356,-0.0197205991,-0.0211763214
0.7950160503,-0.0016928038,0.0069126193,0.0326560922,0.0370394215,-0.0334353447,-0.0063174809
0.8050490618,-0.0065211076,0.0043181484,0.0199588742,0.0218575634,-0.0091069033,0.0021924505
0.8151400089,-0.0173275191,-0.0304419696,0.0011370385,0.0098634847,0.0162546467,0.002208163
0.8253999949,-0.0117306728,-0.043794781,0.0131820049,0.0314263813,-0.0046819951,0.0170573499
0.8383910656,0.0214447062,-0.0076057012,0.0184794869,0.0318231918,-0.0439044982,0.0223466549
0.8457790613,0.0253067594,0.0031801169,0.012813231,-0.0034723738,-0.0368399285,0.0138642192
0.8557729721,0.011009125,-0.0018983181,-0.0377293043,-0.0102565112,0.0001284729,-0.0031043771
0.8657419682,-0.0023226461,0.0055456464,-0.0827544704,-0.0138499141,0.0382356457,-0.0126419552
0.8757369518,-0.0151018221,0.0208241045,-0.0613029413,-0.0223166365,0.0306786578,-0.0211379714
0.8858510256,-0.0102061052,0.0226632059,-0.0014905728,-0.0168083124,0.0137484111,-0.0211470257
0.8958500624,-0.0042401869,0.0198233426,0.0317884274,0.0176098477,-0.0124299303,-0.013736248
0.9059590101,0.006496368,-0.0004003341,0.0390842147,0.0624721274,-0.015154209,-0.0031290113
0.9160300493,0.0062288325,-0.013763397,0.0142308082,0.081825316,-0.0286963843,0.0096008983
0.9260679483,0.0108119827,-0.0076067741,-0.0085546169,0.0860396326,-0.0233039483,0.0170334466
0.9361490011,-0.0030765852,-0.0060566957,-0.0102737341,0.0924029946,-0.0189624652,0.0234047957
0.9461929798,-0.0128324348,-0.0005114967,-0.0144051109,0.0912445486,-0.0093959225,0.0276579298
0.9562669992,-0.0096718986,0.0144663164,-0.0248352084,0.0561890937,-0.0256185681,0.0276587289
0.966479063,0.0011628845,0.0184209049,-0.015864173,0.0007705474,-0.0335792229,0.020236697
0.9764059782,-0.0027500114,0.0132749984,-0.0117077027,-0.0549049675,-0.0160753299,0.0128269857
0.9865469933,-0.006861629,-0.0094338944,-0.0098492298,-0.0751620904,-0.0184231736,0.0053986302
0.996538043,0.0057202857,-0.0232536495,-0.0055998364,-0.0528264195,-0.0107934838,0.0064585684
1.0066139698,-0.0003670177,-0.0116079142,-0.0059087672,-0.0167354494,0.0086284839,0.0075208368
1.0166779757,-0.007346781,0.001221091,0.0253792014,0.0231371336,-0.0291535147,0.018109832
1.0267410278,0.014193831,0.0287170112,0.0406056829,0.0477037802,-0.0309833735,0.0297808684
1.0367610455,0.0045092385,0.0308094919,0.0119830575,0.0198939871,-0.0248666257,0.0287291873
1.0468740463,-0.0043543298,0.003653497,0.0014417374,-0.0229493231,-0.0093605695,0.023440348
1.0569319725,-0.0142843742,-0.012988179,-0.0164231453,-0.0499881282,0.0265012905,0.0266505219
1.0670100451,-0.0184347946,-0.0179726779,-0.031517785,-0.0574607998,0.0264299177,0.0255897846
1.0770750046,-0.0032370409,-0.0120613864,-0.0124242697,-0.0539286509,-0.006426299,0.0266342778
1.0871440172,0.0092532318,0.0025145118,0.0018432343,-0.0601287261,-0.0266698524,0.0223794114
1.0972189903,0.0023865977,-0.008488982,9.01424e-05,-0.0740615875,-0.0215760246,0.0085821059
1.1072750092,-0.0123258252,-0.0118441274,-0.0127119813,-0.0665315762,-0.027903894,0.0043292376
1.1174230576,-0.0112363417,0.0072828834,-0.0163422022,-0.0559774712,-0.016139647,0.0043324335
1.1274030209,-0.0141311605,0.013926954,-0.0205890331,-0.0209948011,0.0075307293,0.0075208368
1.1375069618,-0.0092533249,0.0091797421,-0.0183486734,0.0281596929,0.001628099,0.0128144016
1.1475499868,0.0152218323,0.0007887786,0.0010599697,0.0571686812,-0.017198652,0.0159841627
1.1576770544,0.005278198,0.0167829692,0.0174412336,0.0818441957,-0.0296678375,0.0234042611
1.1676830053,-0.0066308696,0.013279886,0.0240012016,0.0670296773,-0.0425436907,0.0212774612
1.1777700186,-0.0126437265,-0.0136787584,0.0225758161,0.0398901999,0.0028048831,0.0149362087
1.1878190041,-0.0351546146,-0.0145899942,-0.0064224997,0.0058251997,-0.0059664375,0.0170629434
1.1979010105,-0.0243749935,-0.0019325311,-0.0082953367,-0.0186633654,-0.0114581417,0.0213136151
1.2079180479,-0.0125525314,-0.0215423405,-0.028867105,-0.0425195917,0.0253817644,0.0075348183
1.2180370092,-0.0066142399,-0.0479798615,-0.0573339276,-0.0136778206,0.0224158019,0.0022170183
1.2280709743,0.012746213,-0.0022013481,-0.0399244837,0.00387068,-0.0241070259,0.0043145902
1.2381520271,0.0235277992,0.027982682,0.0018372142,0.0028829128,-0.0326805376,-0.00736923
1.2483129501,-0.0008063039,0.0016947095,0.0319115706,0.0103306295,-0.0304573998,-0.0020622821
1.2582759857,-0.0123755652,0.0045425002,0.0261143651,0.0147605315,-0.0463143922,0.0011140701
1.2683249712,-0.0100883562,-0.0031771357,0.024696907,0.0432779267,-0.0163130853,0.007492607
1.2783889771,-0.0177125055,-0.0127800396,0.0077613792,0.0615730472,-0.0309463553,0.017036844
1.288596034,0.0008726695,-0.0143487146,-0.0058101215,0.0784900039,-0.0148546714,0.0212879814
1.2985390425,0.0037236491,-0.0137861064,-0.0258437786,0.0870989412,-0.022241747,0.0159731098
1.3086899519,0.0084575992,-0.0191031396,-0.0130798612,0.076347515,-0.0149628622,0.0074846176
1.3186600208,0.0005522647,-0.0072374041,-0.0001323021,0.0284247324,-0.0261031315,-0.0094975624
1.328758955,-0.0012447557,-0.0064086015,0.0016160213,-0.0069878278,-0.0073675932,-0.0179740712
1.3388049603,-0.0067891497,0.0069058244,-0.0075249472,-0.0259292945,-0.0340535305,-0.0169207901
1.3488990068,-0.001702579,0.0075878804,0.0026797259,-0.0646150112,-0.0067702462,-0.011586478
1.3590209484,-0.0113044698,-0.0141552379,-0.0008955992,-0.071015656,-0.0067984755,-0.0073376708
1.3690359592,-0.0005625209,-0.0278732479,0.0114723053,-0.0357102081,-0.0149166565,0.0022055665
1.3791019917,0.0052559357,-0.0132445982,0.0066499314,-0.0058929212,-0.0082688732,0.0053867125
1.3891509771,-0.0016693792,-0.0004569585,0.0088517275,0.0211129971,-0.0409473889,0.0021778033
1.3992830515,0.0091165882,0.0036254232,0.0277908053,0.0264177471,-0.0377039276,0.0043016742
1.4092819691,0.0004413703,0.0104314396,-0.0002320207,0.0145285977,-0.0229731835,0.0011266535
1.4194270372,-0.0003483912,0.0103417942,-0.0244433079,-0.0015214747,-0.01887591,7.09764e-05
1.4295010567,-0.0012255928,0.0063835089,-0.0244995151,-0.0112484312,-0.0073294435,-0.006292447
1.4395610094,0.0018516162,0.0063057248,-0.0303537641,-0.006905348,-0.0147191817,-0.006297241
1.4495899677,0.0066957753,0.0063262885,-0.0225912724,-0.0006047096,-0.0040334486,-0.003107107
1.4596250057,-0.000227066,0.0015346711,0.0007574164,-0.0088120392,-0.0370060466,-0.0041832905
1.469727993,0.0047941487,-0.0062639411,0.0105527844,0.0039387774,-0.0315957703,-0.0052459585
1.4797719717,-0.0078475494,-0.0073466594,-0.0070940056,0.0134257562,-0.0198408403,-0.0052424958
1.4898539782,-0.0096478183,0.0023809378,-0.0069394507,0.0062775118,-0.0516942441,0.0011138037
1.4999140501,0.0041927975,-0.0004254873,0.0012757385,0.016694732,-0.0261161812,0.0043093306
1.5099430084,-0.0104321558,-0.0090871742,-0.0139927063,0.0282776468,-0.0100503284,0.0117472066
1.5200519562,-0.011494996,-0.0059311087,-0.0106043015,0.0336702801,-0.0152602699,0.0191758275
1.5301280022,-0.0046866257,8.57418e-05,-0.0063245692,0.0133753419,-0.0145012699,6.92453e-05
1.5401669741,-0.004646929,-0.0144961169,-0.0101287756,0.0066822856,0.0140552735,-0.0052237874
1.5503129959,-0.0036651811,0.0135993669,-0.0288233552,-0.0038954969,0.0043996507,-0.007349988
1.5603530407,0.0022985318,0.0309941471,-0.0231789742,-0.039167732,0.009348603,-0.0147711532
1.5703890324,0.0014370361,-0.0012684162,-0.0001634157,-0.0550666451,-0.0014017795,-0.0147719523
1.5804550648,0.0034291127,-0.0208481252,0.0141397323,-0.0240192488,-0.010618181,-0.0052282484
1.5905230045,-0.0004278144,-0.0189410746,0.0014792883,-0.0006967215,0.0055782325,0.0064535746
1.6006079912,-0.0072627384,-0.0188929737,-0.0003490246,0.0145541374,-0.025032673,0.0106816087
1.6107610464,0.0074351709,-0.0168333352,0.0067933402,0.0155978575,-0.0229361653,0.0053735962
1.6207220554,-0.0003081283,-0.0071000154,-0.0232018027,0.0101322513,-0.0102784289,0.0011341104
1.6308059692,-0.002084764,-0.0051871235,-0.0366505198,0.0015601469,-0.0072329035,-0.0084177833
1.640879035,-0.0019427261,-0.0022912319,-0.0316949897,0.0110444631,0.0044874018,-0.0137233324
1.650941968,-0.0047469456,0.017180413,-0.0296273027,0.0376838781,0.0078418525,-0.0232853461
1.6610059738,-0.0115868766,0.0124615142,0.0017270051,0.0460110493,0.0279785469,-0.038142588
1.6710710526,-0.0163855273,-0.0048964913,0.0429206677,0.03127639,0.0077022365,-0.0360247754
1.6811469793,-0.0093008,0.0106842229,0.0674827918,0.013283276,-0.0073241172,-0.0381513089
1.6911710501,-0.0148727912,0.0017789309,0.0421883054,0.0013191849,0.0148337828,-0.0413227342
1.7013150454,-0.0232510585,-0.0247555077,-0.0006471074,-0.0083094742,0.0168303549,-0.0476900861
1.7113759518,-0.0100347716,-0.0299312174,-0.0512272529,-0.007524427,0.0443493314,-0.0593560636
1.7214330435,-0.0056746025,-0.030230552,-0.0766777769,-0.0214951057,0.0537494905,-0.0635950193
1.7314419746,-0.0062907059,-0.0051552351,-0.0332022719,-0.036028184,0.0133357542,-0.0583027862
1.7415280342,0.0057467204,0.0112364003,0.0375214405,-0.0485770032,-0.0110268425,-0.0349521898
1.7516219616,-0.0076952595,0.013779969,0.062045116,-0.0773249716,-0.0176020544,-0.0285783112
1.7616260052,-0.0141831655,-0.0295798481,0.0533322282,-0.0697506741,-0.0281745382,-0.0328327119
1.771739006,-2.2671e-06,-0.0310994089,0.0079834666,-0.0355630666,-0.0309837051,-0.0211624075
1.7817380428,0.0062925797,0.0017021005,-0.0290702973,-0.0067356788,-0.031737648,-0.012675711
1.7919260263,0.0065484326,0.0056807105,-0.0382890515,0.0104710059,-0.0442582332,-0.0031301433
1.8019269705,0.011660127,0.0136550972,-0.0511368923,0.0253106728,-0.0346341021,-0.0116234962
1.8120709658,0.0030653158,-0.0008109505,-0.0496398024,0.0282130633,-0.0049049016,-0.0126712508
1.8220570087,-0.0077359993,-0.009523659,-0.0215099249,0.0100393854,-0.0018872737,-0.0137269283
1.8321380615,-0.0008570275,0.0079580257,0.031765718,-0.0024976851,-0.0285036378,-0.0105514405
1.8422150612,-0.0037525615,0.0059393351,0.0539207645,-0.0154283969,-0.0158488285,-0.0052328417
1.8522360325,-0.0046494026,0.0067230766,0.0108940806,-0.0271085147,-0.0212083738,0.0022005066
1.8623490334,0.0013006309,-0.006958216,-0.0007816351,-0.0301495772,-0.0371444635,0.0032551182
1.8724000454,0.0034202316,-0.0148257306,-0.0260069761,-0.0091312192,-0.0051832017,-0.0052287807
1.8825320005,-0.0023344776,-0.009028404,-0.0570123009,0.0121687427,-0.0007527671,-0.0052319765
1.8925709724,0.0104274135,0.0252457559,-0.0282839928,0.0211743284,-0.0473196059,0.0011120727
1.9025959969,0.021215586,0.0429692566,0.009106895,0.0059176115,-0.0155853759,0.0064407918
1.9126640558,-0.0071450192,0.0341160595,0.0059127412,-0.0089897523,-0.0189275108,0.0021966449
1.9227529764,-0.0101062972,0.0194382966,0.0182758179,-0.0131043354,-0.0337565243,0.0117464745
1.9327939749,-0.0002254566,0.0183513463,-0.0080424938,-0.0026592845,-0.0114026815,0.0085692564
1.9429540634,-0.0061109383,-0.007935374,-0.0352340154,0.0165058877,-0.0069978135,0.007504791
1.9529310465,-0.0022496006,-0.000854283,-0.0201021228,0.0500625968,-0.0533243641,0.0180917233
1.9630349874,0.0104196053,0.0074090664,-0.0112048779,0.0892970785,-0.0274323151,0.0308362804
1.973064065,-0.0082871635,0.014596493,-0.03954212,0.0998840779,-0.0188514087,0.0308382101
1.9831540585,0.003247408,0.0101461122,-0.0261337552,0.0700843707,-0.0276696682,0.0202233829
1.9931919575,0.0050981026,0.0045711105,-0.0042583146,0.0473121107,0.0081590358,0.0128156664
2.0033249855,-0.0116501469,0.0135038802,0.0211576428,0.0168287698,-0.0376651771,0.0234185103
2.0133371353,0.0185908955,0.0291912258,0.0350327082,-0.00780153,-0.0293413345,0.0308597814
2.0234730244,0.0018664279,0.0165412128,-0.0068005123,-0.0165931582,-0.0039379741,0.0329983011
2.0336308479,-0.0100857932,-0.0038801725,-0.0322003178,-0.0123724714,0.0014450732,0.0393715128
2.0438740253,-0.0105172712,-0.0144452741,-0.036231678,-0.0051784758,0.0291102566,0.0415071025
2.0536370277,-0.0197023768,-0.0171612203,-0.0187011156,-0.0124138044,0.0056957444,0.0404357091
2.0636780262,-0.0014409146,-0.0150572946,0.0026849711,-0.0325592868,-0.008385187,0.0234450083
2.0737729073,0.0003850141,-0.0093059829,0.00431635,-0.0442481413,-0.0138483299,0.0149510559
2.0838098526,0.0033448616,0.0137709687,-0.0098891053,-0.0549721606,-0.0086295987,0.0160181858
2.093888998,-0.0017286858,0.0213264525,-0.0222799573,-0.0360303968,0.0180775784,0.0181498453
2.1039459705,-0.0117432196,0.0271675885,-0.0274070296,0.0098822331,0.0164186954,0.0276935492
2.1140041351,0.0036663988,0.0236085951,-0.0142237935,0.061249122,0.0019994101,0.0255485065
2.1240689754,0.0033906975,-0.0021543796,0.0090253558,0.076170817,0.0042934571,0.0319166556
2.1342220306,-0.0105246622,-0.0046037729,0.0224602427,0.0795217901,-0.0105541321,0.028723726
2.1443140507,-0.0097451527,-0.0149196675,0.0212421622,0.0743027925,-0.0222786982,0.0276573971
2.1543149948,-0.0058979709,-0.0117799928,-0.0102565084,0.0582845993,-0.0213928651,0.0223536454
2.1643509865,-0.0030347428,-0.0058612521,-0.0518131666,0.0205420144,0.017551871,0.0245062783
2.174487114,-0.012043925,-0.0057874615,-0.0567315035,-0.0009480966,0.0310905837,0.0138991745
2.1845040321,-0.0043780226,-0.0134438565,-0.0255417619,0.0066384505,0.0194778703,0.0128296483
2.1945929527,0.0013513842,0.0080601284,0.0026446187,-0.0123713817,-0.0008973768,0.0053916397
2.2046220303,0.0012567618,0.0002824371,0.0248517599,-0.0187549777,-0.0031030069,0.0011449627
2.2146749496,-0.0125299413,-0.0104592135,0.0440276451,-0.0219139904,-0.0062109823,0.0170720629
2.2247591019,-0.0136592705,0.00604865,0.0369769521,-0.0165069774,-0.0124334581,0.0319327712
2.2348020077,-0.0080427248,-0.0055762227,0.0106753316,-0.0018374063,0.0153732058,0.0457462519
2.2449221611,-0.0083983559,-0.0112669757,-0.0222720299,-0.0027431482,-0.0005303931,0.0489239357
2.2549481392,0.0079681557,-0.0091138771,-0.0239843521,-0.0189205725,0.015120605,0.0298230797
2.2650370598,-0.0099751968,-0.0392070115,-0.020335475,-0.0320856422,0.0499180034,0.0139168175
2.2750930786,-0.0111187417,-0.0198595822,-0.0207968149,-0.0284481384,0.0064165955,0.0096475035
2.285161972,0.0092757028,0.0151036093,-0.0006981886,-0.0199025869,0.005402464,0.0053976313
2.2952108383,-0.0073359627,0.0197988451,-0.003047446,-0.0133873494,-0.0062465356,8.04306e-05
2.3053178787,-0.0112149734,0.0138432691,-0.0101065431,0.0014587073,0.0034606867,0.0043287054
2.3154330254,-0.0180974323,0.001212806,-0.0159181152,0.0216003545,0.0174220428,0.0032706312
2.3254299164,-0.0182557423,-0.0276655257,0.0098402705,0.0452737287,-0.001408637,0.0128114056
2.3355531693,0.0001930276,-0.0205661952,0.0182372537,0.0432631448,-0.0141436066,0.0149272876
2.3455700874,-0.0018743596,-0.0183466971,0.0216521826,0.0303952843,-0.0078686662,0.0181190856
2.3557071686,-0.0057788808,-0.013429909,-0.0092431698,0.0205394849,0.0163319446,8.39594e-05
2.3656978607,-0.0087836105,-0.009525626,-0.016054729,0.0035192231,0.0108847143,0.0011473596
2.3757710457,-0.0028622767,0.0089000771,-0.0161776934,-0.0092009138,0.0022847678,0.0011463608
2.3858129978,0.0001664439,0.0175385773,-0.0250559244,-0.016758699,0.0106729269,-0.0041565257
2.3959059715,0.0031874755,-0.0029726918,-0.0319254212,-0.0040342472,0.0181643311,-0.0115896082
2.4059858322,0.0022467056,-0.0117394021,-0.0164094362,-0.0059959311,0.0011973325,-0.007350388
2.4161100388,0.00221589,0.003859431,0.0097993221,0.0004034312,0.0012189042,-0.0126612643
2.4260959625,-0.011458816,-0.0117361834,0.0165180173,0.0087801376,0.0172015987,-0.0137172071
2.4362168312,-0.0192413349,-0.0097995093,0.0077998242,0.01409618,0.0205121748,-0.0009731824
2.4462938309,-0.0123904366,0.0067739193,0.0020756924,0.0067972541,0.0034777974,8.1962e-05
2.4563210011,-0.0094980318,-0.0106483391,0.0148595776,0.0088238129,0.0141211208,0.0022095614
2.4663591385,0.0002832094,-0.0125561049,-0.0112274084,0.0291365422,0.011184453,0.0128209265
2.4764690399,0.0187962633,0.0041526263,-0.0147063527,0.0294448845,-0.0196271222,0.0064355987
2.4864969254,0.0314483307,-0.0024503763,0.0003166401,0.0218146592,-0.0037842433,0.0053836498
2.4966220856,0.0147629362,0.0053897207,0.0080837216,-0.0047477083,-0.0156807173,0.0064455853
2.5066218376,0.0029821077,-0.0005350406,0.0106842127,-0.0404348671,0.0306542907,0.0001069957
2.5166950226,-0.0234692711,-0.0095061352,0.0013420784,-0.0413704887,0.0179258455,0.0022254072
2.5267570019,-0.0146843512,0.0049152081,-0.0039229193,-0.0328318588,0.0180211868,0.0054086838
2.5368909836,-0.0168258864,-0.0019551213,-0.0032867587,-0.0147238048,0.0214271024,0.0149598438
2.5469031334,-0.0082050283,-0.0009144837,-0.004255394,0.0026176348,-0.004934995,0.0170658734
2.5570280552,0.0200553816,-0.0036871727,0.0037815177,0.0007986166,-0.036867559,0.0043095304
2.5670719147,0.0249877553,-0.0007270867,0.0049355826,0.0018588211,-0.0369482525,-0.0094941659
2.5771000385,0.0154089313,0.0020512049,-0.0223499928,-0.0025927583,-0.0189691205,-0.0126695856
2.5871520042,-0.0030778369,0.0156244943,-0.0214648638,0.0067802365,0.0044983877,-0.0062894514
2.5972781181,-0.0119310934,0.0254316032,-0.0116594825,0.0259393379,0.0111834547,0.0170696676
2.6072850227,-0.0111218411,0.0363143384,-0.0075167813,0.0409915224,0.000780082,0.0287404377
2.6174180508,-0.0074721593,0.0035766666,0.0056521497,0.0515760966,0.009361852,0.0287415031
2.6274330616,-0.0106741507,-0.0224045813,0.0012055838,0.0556720383,0.0263474938,0.0245017502
2.637583971,-0.0081433672,-0.0200781524,0.0200811829,0.0454098396,-0.0140155749,0.0319169909
2.6475749016,0.0140791219,-0.0100412657,0.0399822779,0.0136718852,-0.0418951437,0.0297875255
2.6577191353,0.0110668819,-0.0042234953,0.0068819127,-0.0420159847,-0.0233225226,0.0234393496
2.6676700115,-0.0035801551,-0.0113166859,-0.0316157751,-0.0754554346,0.0113116186,0.0096617518
2.6778521538,-0.0065886695,-0.0144951036,-0.0400696807,-0.0573648475,0.016809715,0.0149688991
2.6878240108,-0.0008327088,0.0164819658,-0.0182477031,-0.0624304451,-0.0097135054,0.0223895311
2.697963953,0.0048156362,0.0174077451,0.0065961084,-0.0476582646,0.0073849214,0.0213337205
2.7079758644,-0.007170232,-0.0010469253,0.0238340106,-0.0207973551,-0.0103983376,0.0245034155
2.718059063,-0.0025117716,0.009807975,0.0404510684,0.0232173204,-0.0353901759,0.0382830761
2.7281088829,0.004083572,0.0197473466,0.0232289042,0.0583585277,-0.0276486296,0.0393398181
2.7381949425,-0.0049085934,0.0093796561,0.0005368196,0.0797857344,-0.0359927155,0.0329603478
2.7483139038,0.0009089091,0.0009876792,-0.0238191281,0.077454403,-0.0169825368,0.0223524477
2.7583250999,-0.0050171632,-0.0045557315,-0.0464719348,0.0560842417,-0.0150589366,0.0202333704
2.768460989,-0.0040754694,0.0005587047,-0.0381619744,0.0443293154,-0.0141766313,0.0085570058
2.7784609795,-0.0032019636,-0.0070397551,-0.0193938408,0.0154490387,-0.0069681192,0.0138784014
2.7885990143,-0.0130780656,0.0008219784,0.0029166543,-0.0142505327,-0.0252800137,0.0117531987
2.798596859,-0.013227107,-0.0137846759,0.0260350313,-0.0314746611,-0.0105249705,0.0191958696
2.8087291718,-0.0172239263,-0.0256423056,0.0109736528,-0.043397367,0.00736801,0.0128370384
2.8187298775,-0.0183534343,-0.0363585651,0.0321006365,-0.0218605176,-0.011523189,0.0160078648
2.8287968636,0.0001598874,-0.0110030463,0.0273293462,0.00925133,-0.0270986874,0.0266101751
2.8388471603,0.0109015387,0.0143720219,-0.0112311039,0.0230404064,-0.018475838,0.0287347771
2.8489990234,0.0118537229,-0.0011360343,-0.045042675,0.0087533453,0.0215964802,0.0096460395
2.8590369225,-0.0019842705,-0.015669018,-0.0489814691,-0.0062520746,0.027789928,0.003282682
2.869122982,0.0008363405,0.0183627307,-0.028797308,-0.0263022166,0.0053525297,0.006461964
2.8791639805,0.0007369199,0.0202320516,0.0038888061,-0.0582865626,0.001848076,9.78077e-05
2.8892879486,-0.0119995493,-0.0150428703,0.0051968894,-0.0809327587,0.0249667112,-0.0041320911
2.8992819786,-0.0129728038,-0.0260954201,-0.0131048951,-0.0616528578,0.0177085325,-0.0041416786
2.9093399048,-0.0052592475,-0.0262552798,-0.0116246138,-0.0104919337,0.0245565847,0.001157746
2.9194250107,-0.0083825607,-0.0203639567,-0.0029813445,0.0108032878,0.0301099401,0.0107117034
2.9294891357,-0.0007505438,0.0051915352,0.0167979207,0.0368553959,-0.013112098,0.0191778913
2.9395470619,0.002046881,0.0171498358,0.0212261882,0.0334832445,0.003821878,0.0170638748
2.9496159554,-0.0175198633,-0.0042178328,0.001877328,-0.0081331711,0.0022796413,-0.0009769108
2.9597430229,-0.0125290472,-0.0121577671,-0.018718997,-0.0104426648,0.0191747341,-0.0105240773
2.9698591232,-0.0114317853,0.0119526098,-0.0462505035,-0.0201128703,0.0254291687,-0.0147656929
2.9801678658,-0.0084608216,0.0137946913,-0.0435408168,-0.014844737,0.0318075046,-0.0200731736
2.9901480675,0.006307004,0.0050103371,-0.0337711386,0.0131333675,0.0086870063,-0.0232772231
2.9999690056,0.0103544872,0.0031359498,-0.0130861197,0.0292719621,-0.0038852438,-0.0201014038
3.0100500584,-0.0022383055,-0.0006494815,0.0153699126,0.0358142853,-0.0176085122,-0.0179863218
3.0201029778,-0.0109124798,-0.0122165373,0.0235045161,0.0633321404,0.0060303709,-0.009486177
3.0301640034,-0.0206096191,-0.0100719025,0.0124070253,0.0816171393,-0.0075349724,0.001120395
3.0402531624,-0.0088952798,0.0038890545,0.013231596,0.0847887993,-0.0042251963,0.0159845613
3.0502970219,-0.0001192114,0.0090825269,0.0023586953,0.0655810237,-0.0043860511,0.0170511585
3.0603818893,0.0115819257,-0.005337208,-0.0224549565,0.0183055457,0.0269849207,0.0096467715
3.0704550743,-0.0022774956,-0.0130985072,-0.0235612188,-0.0244254079,0.0308145452,0.0032887408
3.0805258751,-0.0014717302,-0.0073337252,-0.0103641544,-0.0520876907,0.022063598,0.0001057973
3.0905618668,0.0023529807,-0.0017164047,0.0035907829,-0.0723551363,0.020790875,-0.0051986868
3.1006541252,-0.0045662541,-0.0156092336,0.0164149608,-0.0745836496,0.0303349104,-0.0030695563
3.1106081009,-0.0065543372,-0.0081465533,0.0001047456,-0.0459069982,0.0444142446,0.0022391891
3.120798111,-0.0018126091,0.0033463542,-0.0150346551,-0.0246469285,0.053059265,-0.0020073545
3.1308670044,0.0146733206,-0.007397383,-0.0016640222,-0.0137407519,0.029817326,-0.0009599332
3.1407518387,0.0184134822,0.0131599018,0.0246159639,0.0047988445,-0.0092259469,0.0075102504
3.1507780552,0.0203987639,0.0297473967,0.0170112457,0.0070827715,-0.0240544286,0.0085640633
3.1610770226,0.0087121706,0.004433841,-0.018862525,0.0162546989,0.018414868,8.78875e-05
3.171254158,-0.0148318429,-0.0130691221,-0.0451304726,0.0269749872,0.0143471565,0.0128247216
3.1812269688,-0.0081453044,0.005660445,-0.0117496643,0.0401620008,-0.0237435047,0.0117400158
3.1912708282,0.0015076676,0.0020394032,0.0033220851,0.0347145051,-0.0120498296,0.0223652311
3.2013511658,-0.0063557047,-0.0046809609,-0.0159357581,0.0099340584,0.0099004768,0.0043305694
3.2113828659,0.0012976804,-0.0395600498,0.00752004,-0.001787846,0.0076136198,-0.0052237874
3.2214109898,0.0081170481,-0.0181530416,0.0472766943,-0.0248915106,-0.0297622476,-0.0105445171
3.2315058708,0.010238139,0.0185874403,0.0401226468,-0.0315504782,-0.0043610176,-0.0115919383
3.2416119576,-0.0052379388,0.0251151025,0.0017963849,-0.0305908117,0.0062586702,-0.0115872109
3.2516741753,-0.0021777472,0.0211061537,-0.0148243699,-0.0083163977,0.020289002,-0.0052150656
3.2617111206,-0.0070724804,0.0259114206,-0.0314757042,0.0139158294,0.038548965,-0.0009638615
3.2718110085,-0.0082709212,0.0055595343,-0.0247508679,0.0030645132,0.0565066598,0.0011714612
3.2818398476,0.0042700451,-0.0128296902,0.0083049145,-0.0263004042,0.0042164251,-0.0052194595
3.2919769287,0.0149786156,-0.0129169514,0.0313334651,-0.0596301295,0.0282820798,-0.01263157
3.3019771576,-0.0045661647,-0.0173107684,-0.0018887913,-0.1016611531,0.068140015,-0.0274664406
3.3120760918,-0.0016050658,-0.0168885291,0.0075021586,-0.1363949031,0.0201149657,-0.0232344121
3.3221180439,0.0218866449,0.0099194357,0.0520701595,-0.1352068186,0.0096371565,-0.0041258326
3.3322119713,0.0092263799,0.0229454339,0.008024117,-0.100339368,0.0450063311,0.0033155722
3.3422510624,-0.0084839184,0.0041489308,-0.02101616,-0.061674051,0.0210015308,0.0128495554
3.3523230553,0.0060274284,0.0031106775,-0.003855387,-0.0530304983,0.0104660653,0.0128420992
3.3624191284,0.0038573125,-0.0203398764,0.0005063021,-0.0437279157,0.0401951969,0.0032989276
3.3724541664,-0.005083086,0.0018970673,-0.0028983748,-0.0322113447,-0.0434823893,0.0106868027
3.382584095,0.0213449281,0.0486632288,0.0254084077,-0.0286829751,-0.0751733407,0.0276584625
3.3925859928,-0.0001750311,0.0339169204,-0.0234451685,-0.0199347567,0.0097423512,0.0202660598
3.4027309418,-0.0376131274,-0.0148194125,-0.0686507598,-0.0039636493,0.0142020145,0.0319443531
3.4127240181,0.0071110409,0.0009531682,-0.0499137454,0.027506128,-0.0375029929,0.0340341367
3.4228181839,0.0244646352,0.0033942168,0.0043711266,0.0671622753,-0.0541064031,0.0382629
3.4328169823,0.0037348547,0.0028923457,0.0168650355,0.0863940269,-0.0560329333,0.042504251
3.4429850578,-0.0111261029,0.0189142525,0.0002678239,0.1065305322,-0.0420412831,0.0456907935
3.452986002,-0.0220901389,0.0271532238,-0.030841032,0.1169157997,-0.013280211,0.0488879159
3.4631228447,-0.0273888428,0.0237592757,-0.0465959124,0.1059518233,0.0163326766,0.0489074923
3.4731230736,-0.0249246676,0.0174949467,-0.0409470014,0.0908730105,0.0299883001,0.047856342
3.4832110405,-0.0165206511,0.0015636389,-0.0040368834,0.0667364597,-0.0116948299,0.0340378657
3.4933240414,0.0037878433,-0.0145293167,0.0288449135,0.0348008983,-0.0205525048,0.0202381629
3.5033299923,-0.0071040411,-0.0212132633,0.012476882,0.0154365487,-0.0059135742,0.0128166657
3.513463974,-0.0179067571,-0.0163730681,-0.0060756602,0.0099608228,0.0078120921,0.0096395146
3.5234599113,-0.0268305261,0.004131109,-0.0109211002,0.0355051979,0.0155525031,0.0234406143
3.5335950851,-0.0348362066,0.0276974142,-0.0077165165,0.0462446585,0.0093350876,0.0319291726
3.5436000824,-0.0380359329,0.0095170448,0.0043401918,0.0310807824,0.031485796,0.0319439545
3.5536899567,-0.0236089248,-0.0126770427,-0.0167764816,0.0319300666,0.0526528656,0.0223981198
3.5637340546,-0.0043304879,-0.0252488554,-0.0187637601,-0.0275256187,0.0213139206,0.0149643719
3.5738620758,0.0120548289,-0.0272746384,0.0205392446,-0.0980168283,0.0259068049,0.0001193794
3.5838618279,0.0060840528,-0.0237695873,0.011756381,-0.0893817395,0.0164457951,0.0022364594
3.5939700603,-0.0017762503,-0.0007500345,0.0002328955,-0.0754920244,0.0155890547,0.0149740921
3.603992939,-0.0098226387,0.0010060971,-0.011129776,-0.0470791087,0.0562494658,0.0287899729
3.6140699387,-0.0160051603,-0.0087930253,-0.0252428446,-0.0096209468,0.0459933653,0.0330225341
3.6241719723,0.0120181125,-0.0183289945,-0.0008584655,0.0173433181,0.0175514054,0.0287544876
3.6341979504,0.0284340065,-0.017180711,-0.0035347736,0.0248542316,0.013351866,0.0255650841
3.644315958,0.0155672114,-0.0024813707,-0.0180061255,-0.0015474949,-0.0145382211,0.014941602
3.6543388367,0.0065645557,-0.0228932798,-0.006571094,-0.0542453304,0.0252747051,0.0075422749
3.6644539833,-0.0239900667,-0.0289464891,-0.0268317256,-0.0502874702,0.0560959354,0.0096792616
3.6744661331,-0.0272404272,-0.0163804591,-0.0263899956,-0.0182693508,0.0564309582,0.0181656927
3.6846020222,0.0027853528,-0.0241060555,-0.0158780608,-0.0130285937,0.0648623332,0.0022409866
3.6946070194,0.0143334549,-0.0376775563,0.008322617,-0.0052859858,0.0372860953,-0.0062691444
3.7047381401,0.0220704358,-0.0045148428,0.0384535976,0.0122015271,-0.0039574155,-0.0084181167
3.7146840096,0.0191685241,0.0100264261,0.0180138554,0.0085159782,0.043697454,-0.01794957
3.7248489857,-0.0218776185,-0.0076545174,-0.0105606709,-0.0130100604,0.0614849068,-0.0274905432
3.7349081039,-0.0258762259,-0.0048153098,-0.001148442,-0.0086424761,0.0520147085,-0.0211255886
3.7449951172,-0.0112064201,0.0155111263,-0.0033308661,-0.0184582472,0.0731646046,-0.0189888012
3.7550010681,-0.000438573,-0.0001834924,-0.000718335,-0.0394290425,0.0358292125,-0.0211257227
3.7651319504,0.0230286997,-0.0090859821,0.0222619381,-0.0724474415,0.0291818287,-0.020059526
3.7751369476,0.0122273248,-0.01240608,0.020256957,-0.1164580509,0.0542291254,-0.0253448337
3.7852830887,0.0072942954,-0.0148632815,0.0305990186,-0.1363570839,0.0169583205,-0.0189874712
3.795263052,0.0151008349,0.0041593616,0.0527421422,-0.1265963316,0.0022851008,-0.0041320911
3.8053619862,0.0004681328,0.0143390605,0.0301646199,-0.1255985498,0.009769382,0.0033045202
3.8153691292,-0.0053438861,-0.0065874155,0.0076669655,-0.1256859004,0.0182297137,-0.0009384282
3.8255338669,-0.0014354906,-0.0225557387,-0.0068890252,-0.0818570629,0.0111983679,0.0011708619
3.8355331421,0.0162565988,-0.0033890302,-0.0219971929,-0.0664277673,-0.0374842174,8.08301e-05
3.8456721306,0.0319428109,0.0061488454,-0.0078980122,-0.0846275687,-0.0323499739,-0.0020371154
3.8556761742,0.0115528386,0.0145395705,-0.0134889279,-0.0824357867,-0.0387804434,-0.0147824716
3.8657619953,0.0058706682,0.017180115,-0.0198051725,-0.0303246547,-0.0202734713,-0.0126621956
3.8759789467,-0.009705158,0.0335842073,-0.0162396226,-0.0217604619,-0.0222447421,-0.0009855662
3.8858671188,-0.0068095345,0.0238943994,0.0138828363,0.0027819518,-0.0208658911,0.0149362758
3.8959569931,-0.0060610492,-0.0011307294,0.0220306125,0.0634053499,0.0010170366,0.0351059921
3.9060280323,-0.0083180685,0.0051243608,0.013996562,0.0912797004,-0.0114375027,0.0404011533
3.9161438942,0.0020573416,-0.0079061678,0.0305722561,0.0903926045,-0.0294977278,0.0382687598
3.926158905,0.01456788,-0.022059828,0.0333949514,0.0554743521,-0.0595698766,0.0297692847
3.9362449646,0.0165500324,-0.0073399241,0.0037033164,0.0156779382,-0.0291941278,0.0223619677
3.9462640285,-0.0127862114,0.0032669012,-0.0295608435,-0.0272277184,-0.0084438436,0.00751804
3.9564218521,-0.010755809,0.0050595109,-0.0376108699,-0.0390652008,0.0009611101,0.0011549495
3.9664111137,-0.0176095683,0.0320975482,-0.0322987251,-0.0634244978,-0.0172489192,0.0075229667
3.9766960144,-0.0156761725,0.0308613479,-0.0261878762,-0.0988533273,0.0036566285,0.0064806063
3.9865720272,-0.0227056462,-0.0006077582,-0.0291881952,-0.1110625118,0.0502389781,0.0065062391
3.9966249466,-0.0249118824,-0.0347892344,0.0312410202,-0.1015560925,-0.0462377593,0.0064556389
4.0066809654,0.0061516445,-0.0453365147,0.1157512292,-0.0256630573,-0.0571081862,0.0276665837
4.0168070793,0.0023072639,-0.0017299349,0.0329777189,0.0073375031,-0.0482688881,0.0372188091
4.0268287659,-0.0025137982,0.0031729047,-0.0075254836,0.0192513671,-0.0662867725,0.0244654641
4.0369620323,0.0121585708,-0.0170256793,-0.0117653999,0.0318795443,-0.0480893888,0.0319039412
4.0469722748,0.008334009,0.0112365196,-0.0503394417,0.0189782064,-0.0386735834,0.0287271217
4.057103157,0.0044033211,0.0200412571,-0.0802643672,0.0303517692,-0.002531559,0.0234332904
4.0671019554,-0.008409949,0.0212449133,-0.0837322846,0.0623842962,-0.0044156788,0.0170536209
4.0772352219,-0.0115850586,0.0236190856,-0.0451324992,0.0837588236,-0.0074122678,0.0170466974
4.0872321129,-0.0089003164,0.0171800554,-0.0115636382,0.0499053076,-0.0374315493,0.014915769
4.0973391533,0.0076825898,-0.0292905271,0.0141952243,0.0196944103,-0.0060147736,-0.008420446
4.1073570251,-9.48629e-05,-0.0593024194,0.0301419701,0.049799636,-0.0279999673,-0.0031303428
4.1175279617,0.0117363613,-0.0201033652,0.0387182422,0.0950307623,-0.0678365976,0.0106416624
4.1275658607,0.0178085249,0.0026384299,0.0126992669,0.124653317,-0.0421394855,0.0064000455
4.137526989,-0.006500246,-0.0144955209,-0.0191888008,0.1168515906,-0.009334404,0.0032330141
4.1476149559,-0.0201594848,-0.0150901368,-0.0192476902,0.0688249394,-0.0086305309,0.0128017515
4.1577062607,-0.0153326113,0.0046008532,-0.0129601154,0.0300626289,0.0249237008,0.0032721628
4.1678490639,-0.0212714989,-0.0206482112,-0.0100077186,-0.0062142862,0.0234907214,-0.0052140667
4.1778430939,-0.0096105058,-0.0178638399,-0.0152239595,-0.0595504753,0.0208888128,-0.0073254206
4.1880431175,-0.0037355742,-0.0221225917,-0.0161269698,-0.1172775552,0.0298157949,-0.0253558867
4.1979637146,-0.0026389083,-0.0401951969,-0.016365448,-0.1226419583,0.0317942575,-0.0402187221
4.2080869675,-0.0093404371,-0.0328570306,0.0156373587,-0.0968632549,0.0150002297,-0.0466043167
4.2181129456,-0.0021667203,-0.0021486576,0.0101214256,-0.0372052491,0.0262014847,-0.035995882
4.2282428741,-0.0028201065,0.0355302393,-0.0163430963,0.0152225634,0.0129078515,-0.0296461731
4.2382907867,-0.0047246534,0.0210305154,0.0081736054,0.036186967,0.0513596348,-0.0190143008
4.2483959198,-0.0038092455,-0.0069508846,0.0241958704,0.0750236586,0.0103286458,-0.0169197917
4.2583827972,0.0138443392,0.0089747617,0.0358591266,0.1118871346,-0.0465724543,-0.0052777827
4.2684431076,0.01794043,0.0024606292,0.0135081615,0.0943419412,-3.65765e-05,-0.0052509513
4.2785820961,-0.0014803133,-0.0177175701,-0.0283759031,0.100116469,-0.0434634127,-0.0010269118
4.2885742188,0.0134702008,-0.0097855022,-0.0557780676,0.0761612058,0.0028768552,-0.0222333316
4.2987208366,-0.0197227914,-0.0223058164,-0.0680999532,0.0650845841,0.0430948474,-0.0232722312
4.3087120056,-0.0215384979,0.0196090043,-0.0406140499,0.0249456856,0.0013414097,-0.026468955
4.3188562393,0.0049146097,0.0119425366,0.0266663041,-0.0125737265,0.0179981515,-0.02538931
4.3288531303,0.0011732259,0.0010752981,0.0458749719,-0.0357974507,-0.0077341106,-0.0349516571
4.3389229774,0.0111670773,-0.0176362097,0.0571977682,-0.0476610325,0.0049300194,-0.0296333227
4.3490271568,0.0065097492,-0.0072795446,0.0314026065,-0.0400027931,-0.0129376613,-0.0137174735
4.3591151237,0.0037294307,-0.0035357173,0.0186093654,-0.0070144851,-0.0030581325,-0.0073501216
4.3691601753,-0.0167265851,-0.0006072218,-0.0026441014,0.032568451,-0.0121994326,0.0021909191
4.3792490959,-0.0146866757,0.0199463069,-0.0284287129,0.0389445908,-0.0088912547,0.0128089422
4.3892602921,-0.0136660058,0.0210227072,-0.0281362329,0.0046953531,0.0002688882,-0.0009805727
4.3993320465,-0.0156787951,-0.0072499807,-0.0254118238,-0.0276881512,0.0359664299,-0.015819706
4.4093837738,-0.002823951,-0.0114074042,-0.0258918796,-0.0497670844,0.0016870213,-0.0360054038
4.4194717407,0.0247529428,0.0038919155,0.0183339324,-0.0815029144,-0.0261648502,-0.0338876583
4.4295301437,0.0250558536,0.018101424,0.0293680634,-0.0708176196,-0.0270840395,-0.0264583696
4.4395971298,0.0067376476,0.0109637091,-0.0031808412,-0.0196162183,-0.0233082101,-0.0041717053
4.4496660233,-0.0019277653,0.0186398923,-0.0372218303,0.0282211863,-0.0036869713,0.0117530655
4.459733963,-0.0079033691,0.0023308699,-0.0426142029,0.0685307905,0.021118775,0.0191878136
4.4697990417,-0.0150320847,-0.009860306,-0.0108072553,0.0846465677,0.0106761884,0.0234257672
4.4798717499,-0.0025707206,0.0003865664,0.0328389592,0.072040759,-0.0096293492,0.0181098301
4.4899420738,0.0071472209,0.005549938,0.038371224,0.0508208275,-0.0226028729,0.0096140141
4.5000600815,0.0140644293,0.015325875,0.013383707,0.0103056235,-0.0272911005,-0.004181426
4.5101661682,0.0103107076,0.0102474997,-0.0112088714,-0.0540365055,0.0028424338,-0.0158296935
4.5201940536,-0.0052201767,-0.0027775462,-0.0362491421,-0.0691771135,0.0228917766,-0.0126304384
4.5302629471,-0.0051870067,0.0086544463,-0.0387303643,-0.0444803946,0.0083290786,-0.0009649931
4.5402832031,-0.0013922176,0.0086801359,-0.0194270406,-0.0093216086,0.0150996316,0.0138946474
4.5503168106,-0.0143570025,0.0039961641,0.0020105445,0.0206198841,0.010137897,0.0266269539
4.5604372025,-0.0097476263,-0.0035368497,0.0294692721,0.0315457694,-0.0152468216,0.0244879015
4.570497036,0.00865045,0.0005653804,0.0327121802,0.0284548253,-0.0258364156,0.0319160558
4.5805449486,0.0104741137,0.0210298002,0.0036069953,-0.0100385044,-0.0187726468,0.0276821647
4.590610981,0.0015128532,0.0015495722,-0.0015158452,-0.0497696698,0.0052294917,0.0192105155
4.6007328033,-0.0054822285,-0.0092805913,-0.0272165332,-0.0380935743,0.0117188161,0.0223961882
4.6108608246,-0.0046505649,0.0218167007,-0.0410224013,-0.0142717864,-0.021972768,0.0308676381
4.620880127,-0.0019351563,0.0141609022,-0.0264374409,-0.0113505647,0.0055997376,0.0245098732
4.6308879852,-0.0247160215,-0.0139419725,-0.0100540314,-0.015601662,0.0034347209,0.0234468728
4.640994072,-0.0160904247,-0.0177322328,0.022011539,-0.0131632714,-0.0273780525,0.0138746724
4.6510491371,0.0014642754,-0.0206481516,0.0355718322,-0.0281910077,-0.0190906953,0.0032655713
4.6611061096,-0.0003809652,-0.0024048383,0.008922061,-0.0453758538,-0.0086851921,-0.0052192602
4.6711659431,0.0035995224,0.0061660712,0.0182770696,-0.0633858517,-0.0215270873,0.0022113589
4.6812362671,0.0065118652,0.0040693586,0.0207979288,-0.0497102588,-0.0011776078,0.01283604
4.6913180351,-0.0042654891,0.0097676227,-0.0290548597,0.0279612876,0.0229140799,0.0234464072
4.7013530731,-0.0191915352,0.0090400288,-0.0462205224,0.0632985085,0.0116129555,0.032987982
4.7114090919,-0.0018430671,-0.0031996067,-0.0251134429,0.0538568795,-0.0055224216,0.0213012975
4.7214999199,-0.0010866246,-0.014559119,0.0083877649,0.0357673615,-0.0110066691,0.0181177557
4.7315301895,-0.0032198152,-0.0016660984,0.0349366255,0.012701082,-0.0514749996,0.026598325
4.7416658401,0.0114130061,0.0061416333,0.0262763705,-0.028096417,-0.0274468958,0.023435289
4.7519278526,0.0104825776,-0.0058408673,-0.0384176783,-0.0552305132,0.0167571846,0.0043522744
4.7623448372,0.0075086039,-0.020634383,-0.0408943705,-0.0434766486,0.0146615431,-0.0073315464
4.7724909782,0.0133488458,0.0143512795,-0.0032015836,-0.0185897294,-0.0190342367,-0.0009843012
4.7825317383,0.0143222492,0.0397458375,0.0280564036,0.0081396196,-0.0229344368,0.0159957483
4.7923088074,-0.0053797979,0.0321338475,0.0253377166,0.0219245665,-0.0131533109,0.0329857841
4.8020467758,-0.0233110506,0.0089591453,0.0079195704,0.0066923518,0.0165004544,0.0446842536
4.811961174,-0.0295659024,-0.0240996778,-0.0137759242,-0.0362121835,0.0372503437,0.0298407227
4.8219890594,-0.0162180383,-0.0552814901,-0.0200864468,-0.0500582233,0.0338769183,0.0192245655
4.8321051598,0.0070943516,-0.0174736679,-0.0234634075,-0.0633930713,-0.020389054,0.0138908513
4.8421168327,0.0178598445,0.0212732852,-0.0092844758,-0.0761517435,-0.025889013,0.0011497564
4.8522539139,0.0042535942,0.0112409303,-0.0352029018,-0.0529973693,0.0061187213,-0.0030875993
4.8622341156,-0.0064264555,0.015838176,-0.0570912771,-0.0081790332,0.0064963573,-0.005222389
4.8723840714,-0.0094966907,0.0199079812,-0.0131870303,0.048369091,0.0091936067,0.0075080534
4.8823881149,-0.0076650102,0.0183024704,0.0165901389,0.081633307,-0.0085268002,0.011737952
4.892455101,-0.006823333,-0.0074029858,0.0624017306,0.1074275151,-0.0262839589,0.0202161241
4.9025840759,1.29023e-05,-0.0011508162,0.0343367644,0.1180220991,-0.0187914222,0.0159699805
4.9125828743,1.58826e-05,-0.005616575,0.0042799911,0.1052830294,-0.0252559781,0.0180941187
4.9226641655,0.0008925477,-0.004335552,-0.0057284036,0.0505851619,0.0018893549,0.0234305598
4.932762146,-0.0060767848,-0.0061997469,-0.0405863933,0.0150511628,0.0322903357,0.0138967764
4.9427881241,-0.0043116529,-0.0178036392,-0.0610044412,0.0095562628,0.0481657088,0.0149678998
4.9529190063,0.0022825876,-0.0216161907,-0.0387761407,-0.0318043046,0.022309009,0.0107196923
4.9629201889,0.0088579636,-0.0197188556,-0.0052616396,-0.0576609373,0.0464814603,0.0096765328
4.9730577469,-0.0021217784,-0.005319267,0.0095067229,-0.0594788864,0.0146125406,0.0064750798
4.983150959,0.0026251951,-0.0035081799,0.0468067117,-0.0806201249,-0.005746793,0.0043466813
4.9933590889,-0.005296858,-0.0027870233,0.0441432185,-0.0733788088,0.0177082662,0.0117898844
5.0033550262,-0.0142240841,0.0076740687,0.0094704833,-0.0358727127,0.0032773945,0.0266383383
5.013458252,-0.0046766121,0.0087316344,0.0045839152,0.0026361188,-0.0047993073,0.0383047163
5.0235209465,-0.0039831419,0.0021621888,-0.017446259,0.0474597812,-0.004352429,0.0467879474
5.0336122513,-0.0042767245,-0.0003693993,-0.0333435349,0.0710104331,-0.0127238091,0.0329728015
5.0436291695,-0.000586482,-0.0252639353,-0.0229067001,0.0634441301,-0.0044464385,0.0106810769
5.0537347794,0.0042811912,-0.0231475532,-0.0215147529,0.0293671191,-0.0122416439,6.8513e-05
5.0637741089,0.0141403358,0.0060562198,-0.0039117732,-0.0057170996,-0.0264392216,-0.0147948554
5.0738959312,0.0045177024,0.0127427289,0.008522531,-0.0220472552,0.0051812218,-0.0253923051
5.0838937759,-0.0109034199,0.002845854,0.0102670994,0.0056554773,0.0096675828,-0.0253970996
5.0939879417,-0.0098879058,0.0039598052,0.0368535705,0.0624060035,-0.007694629,0.0021857927
5.1040358543,-0.0021108112,0.0159313977,0.0278264489,0.0847608447,-0.0010151549,0.0202340353
5.1142339706,-0.0130883176,-0.0060600932,0.0285247173,0.0623338036,0.0009452644,0.0255501699
5.1242828369,-0.0191776473,-0.042692095,0.0465275235,0.021852158,-0.0069052018,0.0149385389
5.136947155,-0.0025515875,-0.0407753885,0.0135209169,-0.0198695883,0.0022404264,0.0085812407
5.1460928917,0.0033743063,-0.0050856168,-0.0297991429,-0.0699767023,-0.0035719229,-0.0020269286
5.1544551849,0.0133050662,-0.0016478593,-0.0423260741,-0.1213622838,0.0117689501,-0.0211164672
5.1645359993,0.0036633888,-0.0041091139,-0.0473406129,-0.0991022512,0.0268118139,-0.0221764054
5.1743268967,0.0106359702,0.0255915225,-0.0570292287,-0.068123512,0.0239346698,-0.0168776475
5.1848020554,0.0165128689,0.0273853242,-0.0166685972,-0.0379461721,-0.0055193594,-0.0179618206
5.1947822571,0.0116553586,0.0001991098,0.0348555632,0.0027477844,-0.0188886933,-0.007361107
5.2045469284,0.0018778124,0.002245218,0.0418971963,0.0551308319,-0.0268092006,0.0096104201
5.2145547867,-0.0030452332,0.0006578868,0.0475565977,0.0883918256,-0.0434143431,0.022336401
5.2247257233,-0.0021523854,0.000126571,0.0320495553,0.1022075042,-0.0368371345,0.0361395627
5.2347450256,0.0017012933,0.0160265267,-0.0147031341,0.0798829719,-0.0455066562,0.0382640995
5.2448458672,0.0074348133,-0.0031208689,-0.0353853516,0.0356891416,-0.0024499998,0.028740637
5.2548828125,-0.0103380997,-0.0195420086,-0.0537644438,-0.0060071712,0.0045650331,0.0213221349
5.2649559975,0.0031573155,-0.0068311389,-0.041193407,-0.0102373352,0.0002283414,0.0128266523
5.2752261162,0.0059450548,0.0019815271,-0.0082472358,-0.0196180567,-0.0221649818,0.0085713202
5.2852420807,0.0069232862,0.0077654426,0.0071124635,-0.0315439552,-0.0043135472,-0.0041583227
5.2953619957,-0.0047875959,0.0027150218,0.0066823564,-0.0400516912,-0.0075559458,-0.0020355172
5.3054051399,-0.0076827724,0.0045339172,0.0228777137,-0.038975507,-0.0086284,-0.0052217231
5.315694809,-0.0096324999,0.0014858549,0.0196799245,-0.0199975558,0.0149582857,0.0064643607
5.3255310059,-0.0185134131,0.0121802399,-0.0076060691,0.0291814432,0.0069751935,0.0181276761
5.3355970383,-0.0079198796,0.0134113738,-0.0187570248,0.0739016384,0.0180096682,0.0234324913
5.3456897736,-0.0072059054,-0.0008386666,-0.0444171242,0.080029577,0.0456793793,0.027691951
5.3557291031,-0.0104607064,0.0014621322,-0.0390992574,0.0429812223,0.0145227918,0.0181285404
5.3658499718,0.0030135789,-0.0100136688,-0.0029390848,-0.0156458691,0.0064584743,-0.0009729827
5.3758687973,-0.0018664619,-0.0150186112,0.0044750771,-0.0583117083,0.0039003079,-0.010518617
5.385966301,-0.0076302011,-0.0085265329,0.0038128698,-0.0732227489,0.0005452576,-0.0168873016
5.3959589005,-0.0084913988,-0.0136667779,0.0051996908,-0.043371588,0.0040449174,-0.0083990078
5.4060668945,-0.007457288,-0.0049944813,0.0002298557,0.0208468139,-0.013308241,0.0106884008
5.4161801338,-0.0036599955,0.0020864313,0.0084989872,0.0699974224,-0.0180669092,0.0287242588
5.4261960983,-0.0028549156,-0.0091537526,0.0054730377,0.0880549848,-0.0093996515,0.0319093987
5.4363369942,-0.0050059874,-0.0282339752,0.0032685006,0.0516606793,0.0007957945,0.0170592815
5.4463329315,0.002709476,-0.0338930786,0.0103621092,0.004743238,-0.0039414363,0.0043272404
5.4564580917,0.0007737556,-0.0028375085,0.0101872291,-0.0273627937,0.0041840677,-0.0084023364
5.4664697647,-0.0059172828,0.0114320824,-0.018531302,-0.0510356352,0.0230216701,-0.0168813094
5.476568222,-0.0126669127,0.0140457461,-0.0308219586,-0.0563969761,0.0250772983,-0.0200653169
5.4865899086,-0.0047952551,0.0166588128,-0.0382504873,-0.0544528663,0.0442147739,-0.0168708544
5.4967470169,-0.0077886898,-0.0039352472,-0.0144910607,-0.0531817153,0.0240786802,-0.0147574376
5.5067481995,0.002947835,-0.0360686481,0.0290921535,-0.0187576953,-0.0032229822,-0.0169034135
5.5168228149,0.0147710722,-0.0398989022,0.0467851348,0.0219859257,-0.0218818206,-0.0041834237
5.5269360542,0.0149126928,-0.004879504,0.0129982438,0.040154811,-0.0237622783,0.0085526118
5.5369439125,0.0032409707,5.4543e-06,-0.018892685,0.0238314439,0.0078841969,0.0022040352
5.5470438004,-0.0095601398,-0.0193684399,-0.0168639217,0.0045815837,0.0119742798,0.0043345643
5.5570678711,-0.0086385626,-0.0047065313,-0.0022346771,0.0003894214,0.004530678,0.0075173741
5.5671367645,-0.0155627448,0.0166970789,-0.0091501269,-0.0041464744,0.03100463,0.0054081511
5.5772647858,-0.0194952209,0.011716635,-0.0201092754,-0.033972811,0.0242391359,-0.0158236343
5.5872759819,-0.0038687906,-0.0117864897,-0.0010475314,-0.0501768142,0.0431281403,-0.0264280755
5.5973720551,0.0030811706,0.0033995216,-0.0047642388,-0.086181581,0.0141036771,-0.0359914862
5.6074090004,0.01993954,0.0117307613,0.0158251133,-0.0968464762,0.0128940688,-0.0444837771
5.6175460815,0.0035903135,0.0006170576,0.0238179173,-0.081727393,-0.0038763888,-0.032815136
5.6275472641,0.006847946,-0.0085047772,0.0223214831,-0.0697498247,-0.0270536132,-0.0232735611
5.6376891136,0.0099910181,-0.0244015157,-0.0102354679,-0.0329656079,0.0306913089,-0.0041415449
5.6476788521,-0.0173830707,-0.0080556562,-0.0524297766,0.025623139,0.0418555476,0.0022199475
5.6578159332,-0.0068340022,-0.0009677703,-0.0170748625,0.054652527,0.0209497996,0.0117579922
5.6677889824,0.0027064362,0.0227948129,0.0360343046,0.0540882014,-0.0288989842,0.0159804337
5.6779117584,0.0017523745,0.0376382172,0.0511836596,0.0435851738,-0.0460314974,0.0064192861
5.6879472733,-0.0059119184,0.0171715915,0.0028285587,0.0175985824,-0.0091547072,0.0011353086
5.6980919838,-0.0125662405,0.0004458134,-0.0555865578,-0.0048575904,-0.0051690871,-0.0084128557
5.7080898285,-0.0027195534,-0.0161804855,-0.0663692132,-0.0041015204,0.0255816355,-0.0126448851
5.7179841995,-0.0047257263,-0.0181072056,-0.0518068485,0.0056320676,0.0129542565,-0.0094682667
5.7280158997,0.0050958078,-0.0033271606,-0.0047858157,0.0348024704,-0.0229235832,-0.0179879852
5.7383489609,0.0101518016,-0.0010406072,0.0486034341,0.0970099121,-0.0542110652,-0.0180214085
5.7483930588,0.0065563601,0.0089455554,0.0418374725,0.1192944497,-0.0412486643,-0.0127115976
5.7584562302,-0.01171601,0.0208002627,0.0163736548,0.0914255902,-0.028767623,-0.013758353
5.7684803009,-0.022278877,0.010269613,0.0102349725,0.0665295571,0.006024179,-0.0147964535
5.7786312103,-0.0152889807,-0.0013090069,-0.0174796972,0.0365576781,0.0153963091,-0.0020435734
5.788672924,-0.0035783967,0.0006777947,-0.0231994186,-0.026391726,0.0137922876,-0.0009665911
5.7987580299,0.0080653112,-0.031468004,-0.0039462247,-0.0532189459,0.0283776876,-0.0062604891
5.8087568283,0.0060197394,-0.0472190678,0.0022553408,-0.060613744,0.0208923407,-0.0052005509
5.8188328743,0.0030323246,-0.0240664184,0.0327351876,-0.0688336715,-0.0110470159,-0.0105233453
5.8288898468,0.0080325883,-0.0146308234,0.037008483,-0.0529013127,-0.0034801771,-0.0105236107
5.8390431404,0.0043471735,0.0074266498,0.003505727,-0.0154765463,-0.0105669815,-0.0084131891
5.8491640091,0.0015684047,0.020930022,-0.0072844424,-0.0006107818,-0.003002539,-0.0073513873
5.8592882156,-0.0071285088,0.0121493051,-0.0140166078,0.0164650604,-0.0028326961,-0.0041701738
5.8692512512,-0.0070314128,0.0092858979,-0.0215391312,0.0271901432,-0.0080375783,-0.003113698
5.8792829514,-0.0021529517,-0.0119875958,-0.0153901968,0.0142306155,0.0066565461,-0.0105360607
5.8893399239,-0.0089688022,-0.0323570073,-0.0045486488,0.0174495783,0.0045140334,-0.0179705415
5.8993778229,-0.0020330867,-0.0148344925,0.0052936873,0.0143694198,-0.0071721836,-0.0158509314
5.9094409943,0.0069799703,-0.0100096157,0.0248319115,-0.0005400209,-0.0117059499,-0.0402707905
5.9195690155,0.0102684181,-0.0189005435,0.0181478467,0.0355931595,0.0034792621,-0.0381491818
5.9295988083,-0.0040244777,0.0286803544,-0.0049630203,0.0486272052,-0.018627638,-0.0286073405
5.9395780563,0.0080368798,0.0209243,-0.0054818192,0.0345749855,-0.0018264204,-0.0370915085
5.9497327805,-0.0082663614,-0.0131482771,-0.0032498038,0.0249852054,-0.0029228441,-0.0296570249
5.9597969055,-0.0109404642,0.0052743261,-0.0137773547,0.017542256,-0.0050765425,-0.0243461486
5.9698410034,-0.0107557494,0.0158943236,-0.0196087752,-0.0156862717,0.009509325,-0.021145029
5.979924202,-0.0166126508,-0.0085175326,0.0063585839,-0.066784896,-0.0025189088,-0.0073348745
5.9901151657,0.008868305,-0.0137678673,-0.00606213,-0.0938290358,0.0332737081,-0.0147427237
6.0000700951,0.0049189609,-0.0296879113,-0.0050297179,-0.0831150562,0.0291015357,-0.0179323256
6.0101161003,0.0118630212,-0.0007524783,0.0167484488,-0.0452835225,-0.0182827581,-0.012656603
6.0201730728,0.0149588268,0.0312305391,0.0224234071,-0.0046456028,-0.0264030024,-0.0105471127
6.0302352905,-0.0023859462,0.0272086561,-0.0115344916,0.027337363,-0.0229265112,-0.0084298998
6.0403299332,-0.0090291817,0.0360585749,-0.0430993252,0.0892155096,-0.0201735366,0.0053588161
6.050383091,-0.0128814895,0.0373544395,-0.0577566437,0.1051265672,-0.0104846898,0.0053596152
6.0605130196,-0.0148650724,0.0047071283,-0.0393152647,0.0880382359,-0.0095999874,0.0011166666
6.0705862045,-0.0031836948,-0.0152768185,-0.0110890064,0.0934580341,-0.0180552583,-0.0010125308
6.0806407928,0.0046599191,-0.0167905986,0.027802607,0.0714552104,-0.0585769862,-0.0020880483
6.0906739235,0.0145851355,-0.0184381902,0.0529466458,0.0680913702,-0.04272452,-0.0073882714
6.1007418633,-0.0027943572,-0.0017938907,0.0243325438,0.0724294782,-0.0489770211,0.0042872261
6.1108059883,0.0004026869,0.0294899046,0.0007072293,0.0670608059,-0.0458544679,0.0021665513
6.1208667755,-0.0043367166,0.0199213326,-0.0239330921,0.0591654666,-0.0034584722,0.0053747948
6.1309490204,-0.0160336215,0.0005969708,-0.0420307927,0.0239209272,-0.0005484361,0.0106941927
6.1410140991,-0.003414931,-0.0138475588,-0.0223444495,0.0024122531,0.0150757302,-0.0052189268
6.1510791779,0.0004489401,-0.032199353,0.0118530598,0.0080584204,-0.0156259891,-0.0020502978
6.161149025,0.0053622704,-0.0087659052,0.0334454365,0.0198337473,-0.0197867788,-0.0052422294
6.1712069511,-0.00337437,0.0057941382,0.0207892265,-0.0036313646,-0.0210389979,-0.0031132987
6.1812572479,-0.003243359,0.0046419208,0.0098433103,-0.0496257544,-0.0108719803,-0.0094666686
6.1913537979,-0.0001707992,-0.0053850706,-0.0033069646,-0.0604786649,0.0070649423,-0.0105167534
6.2013807297,-0.0069316346,0.0089257071,-0.0203895364,-0.0466303378,0.0104233213,-0.0020230007
6.2114510536,0.0038507858,0.0068293517,-0.0303910766,-0.0137746539,0.0329725742,-0.0052054781
6.2215380669,-0.0021566174,-0.0018338854,-0.0167600904,0.0281145275,0.0069088805,0.0096351206
6.2316179276,0.0113798659,0.0120961377,0.0138928499,0.0571746752,-0.0172079057,0.0149246911
6.2416801453,0.0034106055,0.014340193,0.0163381305,0.074066706,0.0009786205,0.0149291512
6.2517161369,-0.0152430851,0.0175048411,0.0042083464,0.0604390427,-0.0235456321,0.0149203632
6.2617888451,-0.0074709672,-0.0017169411,0.0183093157,0.0207918994,-0.0080595482,0.0021975772
6.2718877792,0.0053544324,-0.0241728723,-0.0282563362,0.0162006095,0.0236917231,-0.0041561928
6.2819180489,0.0113030355,-0.0057847197,-0.0603488497,0.0089178234,0.004522955,-0.0052271825
6.2918930054,0.0220589023,0.0001527374,-0.0242097173,-0.0038254019,-0.0019756907,-0.0084125893
6.3020591736,0.0044243615,0.0011790697,0.0010192001,-0.001753144,0.0044438588,-0.0031011812
6.3121261597,-0.0180486161,0.0050995653,0.0214027967,0.0017779414,-0.0284262076,-0.004180294
6.3222208023,-0.0199819226,-0.0075163539,0.0360602327,-0.0027949987,0.0023466863,0.0022074974
6.3322558403,-0.0336239971,-0.003745764,0.0037821734,-0.0049175387,0.0012808894,0.0043311021
6.3423471451,-0.0180360992,-0.018258065,0.0301335063,-0.0131455623,-0.0295343474,0.0085642636
6.3523778915,0.0073794406,-0.0328206122,0.028317472,-0.0123234428,-0.0051219491,0.0085762478
6.3625020981,0.0084412973,-0.0232334435,-0.0262174997,0.0036861757,-0.0050044376,0.0053883772
6.3725218773,0.0074940007,-0.003802448,-0.0291298423,-0.0101087317,-0.0137105761,-0.0094776545
6.3826651573,0.0036286393,-0.0086858561,-0.0039412179,-0.0230554491,-5.68831e-05,-0.0137149431
6.3926582336,-0.0167880375,0.0144712636,0.0044125519,-0.0368966982,-0.0033679914,-0.0147748822
6.4027891159,-0.0156920869,0.0220571458,0.0089103188,-0.0473933071,-0.0203249361,0.0022065653
6.4127912521,-0.0008663258,0.0101291249,-0.0147573743,-0.0465962216,0.0061609987,-0.0052130013
6.4229249954,-0.0028598031,-0.0395945609,-0.0150314365,-0.0125909047,0.0213608574,0.0022194816
6.4329280853,0.0058215242,-0.0229257643,0.002597233,0.0413551517,-0.0364798047,0.0096094869
6.4429988861,0.0263603609,0.0095514962,0.0326084085,0.0662227347,-0.0680329353,0.0191433374
6.4531049728,0.0177119952,0.0028938954,0.0040306053,0.0285339486,-0.0355857834,0.0011185309
6.4631299973,-0.012439372,-0.0205435455,-0.0290031824,-0.0007041786,0.0054314923,-0.0158429425
6.4732651711,-0.0240356047,-0.009982436,-0.0398856811,-0.0040664189,0.0213047322,-0.0179577582
6.4832501411,-0.0190522987,0.0200047195,-0.0469566397,-0.0074551059,0.040380355,-0.0168841705
6.4933958054,-0.0122710187,0.023922354,-0.0266242418,0.0118858349,0.0278784111,-0.0073391367
6.5033960342,0.0151034873,0.0211347044,-0.0097712073,0.0324444547,-0.0006469064,-0.0158530623
6.5135359764,0.0249335747,-0.0059458311,0.007186552,0.0388259217,0.0015310267,-0.015853595
6.5235161781,0.0103655141,-0.0213820636,0.0308232512,0.0252722949,-0.0304271709,-0.0169279147
6.5336732864,-0.0041818339,-0.0349104702,0.0544471331,0.0102701755,-0.0241708755,-0.0137355831
6.5436649323,-0.0235118289,-0.0185025036,0.0174879041,0.0016537569,-0.0156741273,-0.0009877632
6.5538048744,-0.0194046218,0.0085635493,-0.0428464822,0.0109298136,0.0173285659,0.0032735607
6.5638198853,-0.0145708937,-0.0061118896,-0.0701975599,-0.0141590806,0.0711690336,-0.005186636
6.5738801956,-0.0079065282,-0.0207303464,-0.0471723489,-0.0224660151,0.047696989,-0.0136906421
6.5839500427,0.0253075641,0.0133426497,-0.0025024808,-0.0080423327,-0.0073671937,-0.0158460718
6.5940098763,0.0322830342,0.0269195735,0.0363199301,-0.0483082607,-0.0364031047,-0.0211593434
6.6041107178,0.0060344022,-0.009356766,0.0493445583,-0.0893318057,0.0098855626,-0.0274968687
6.6141438484,-0.0299798567,-0.0215270221,0.0182233658,-0.0573866591,0.0176683851,-0.0158213042
6.6241989136,-0.0220653135,0.0123187015,-0.0005734957,0.0047177244,-0.0018392701,0.0011419667
6.6343507767,-0.0152309258,0.0279510319,-0.00912706,0.0323437601,0.0112459054,0.0181302726
6.6443200111,-0.0192997176,0.0106472084,-0.0252985153,0.0441456921,0.0049896743,0.0191856157
6.6544952393,0.0050708335,-0.0182397664,-0.02072368,0.0506805554,-0.0088305343,0.0064354655
6.6644859314,0.0177440923,-0.0239189565,-0.0271656308,0.0270562656,0.0057680495,-0.0009819042
6.6745967865,0.0021425763,0.0071450775,-0.0244293008,-0.0335735232,-0.0149984816,-0.0126566701
6.6846160889,0.0041704457,0.0098748514,-0.0005327857,-0.0552211627,0.0144473575,-0.0243165884
6.6947813034,-0.0152343828,0.0076077883,-0.0098876152,-0.0382626876,0.0262883045,-0.0211295821
6.7047481537,-0.0152065475,0.0104647586,0.0064665279,0.0163381621,0.0098990118,-0.0041634496
6.7148008347,-0.0074593443,0.0088002989,0.0371235795,0.0784446746,-0.0095809465,0.0170470309
6.7248558998,-0.0026531538,-0.0044068391,0.0341388769,0.1072678566,-0.010404529,0.0149161015
6.7349610329,0.0101164859,-0.0283587277,0.0079534259,0.097753711,-0.0201136135,0.0032338798
6.7450661659,0.0092903059,-0.0232754052,-0.0029991067,0.0359425694,-0.0303620566,-0.0211773869
6.7550959587,-0.0021617732,-0.0214642584,0.0018438303,-0.0487105325,0.0027359738,-0.0391899422
6.7652139664,-0.0155222137,-0.0015563662,-0.0174881015,-0.0916431397,0.0267741997,-0.0381063037
6.7752280235,-0.0122997481,0.0290301144,-0.0320626311,-0.083179608,0.0342896394,-0.0359811001
6.7853250504,-0.0092068035,0.0276788771,-0.0288888607,-0.0501478687,0.0399035178,-0.0328004174
6.7953619957,-0.0032910428,-0.0026278789,-0.0020264781,-0.0200402997,0.0179388281,-0.0243246444
6.8054637909,0.0074234288,-0.0219708383,0.0515529104,0.0154296244,-0.0060533895,-0.0084180487
6.8154668808,0.0094194096,-0.024762243,0.0635415539,0.0423139669,-0.0259309579,-0.001002211
6.825548172,0.0105983298,0.0006203359,0.0319575854,0.0648901165,-0.0427382998,-0.0052642012
6.8356280327,0.0138220172,0.0103877494,-0.0112311635,0.0517937578,-0.0142446076,-0.0116174379
6.8457212448,-0.0045413394,0.0122753093,-0.0431491546,0.0172656067,0.0225236602,-0.0222089626
6.8557748795,-0.0112861414,0.0209813416,-0.0364023261,-0.0144861974,-0.003136962,-0.009472128
6.8659090996,0.0083393734,0.0364764631,-0.0199854169,-0.034734793,-0.0053740172,8.83535e-05
6.8759050369,0.0053427797,0.006220371,-0.011548439,-0.0487976223,0.0136236418,0.0032868101
6.8860378265,-0.0124811549,-0.0347054899,0.0161138382,-0.0689849108,0.0049716975,0.0054118792
6.8959999084,-0.0019304475,-0.0445745289,0.0408062525,-0.0719567314,-0.0172611699,0.0170813184
6.906170845,0.0176027399,-0.0214606225,0.0266527142,-0.0633057505,-0.0288920589,0.0117641175
6.9161729813,0.0108282845,-0.0012627537,0.0096780863,-0.0472594015,-0.0330378041,0.0053871786
6.9263067245,0.0012057999,0.0208899081,-0.0110530052,-0.0356858373,-0.0170611013,-0.0009792411
6.9363069534,-0.0123953242,0.0303932726,-0.040638905,-0.0371572338,0.0232546311,0.0001030675
6.9464330673,-0.022250684,0.0380686224,-0.0361388735,-0.0209990926,0.0085823452,0.0064620306
6.9564418793,-0.015585931,0.0332930982,-0.0215714965,0.0087020798,0.0269150138,0.01177264
6.9665412903,-0.0138154943,-0.0006495411,-0.0273183975,0.0236124806,0.0301920325,0.0064633619
6.9765720367,-0.001248928,-0.0238029659,-0.0143545065,0.0506054834,-0.0014673597,-0.0031154961
6.9866342545,0.0153780263,-0.0215578973,0.0125552621,0.0637372062,-0.0342593975,-0.0052598729
6.9968738556,0.0146223586,-0.0107212355,0.0218582358,0.0318352021,-0.0462793075,-0.0158757661
7.0067873001,0.0041490179,-0.0029742415,0.0104304161,0.0102826394,-0.0252182968,-0.011612244
7.0169129372,-0.0033566675,0.0192328393,-0.0323115401,0.0100141931,0.0012790916,-0.015846137
7.0269141197,-0.0091308672,0.0006946033,-0.0371765308,0.0011075167,0.0383811854,-0.0094545512
7.037045002,-0.0180988032,0.0027967994,0.0065983138,0.0143173281,-0.0006325254,0.0106967892
7.0470552444,0.0012621561,0.0215218365,0.0321954675,0.0271307286,-0.0003811894,0.0319286399
7.0571432114,-0.0058003087,0.0012198989,0.0041595302,0.0131035931,0.0142824417,0.021321537
7.0671811104,0.0038289705,-0.0512581766,-0.0229930077,0.0044443775,0.0257739816,0.0054035569
7.0772600174,0.0076720398,-0.0434899032,-0.0269832406,-0.0049515218,0.0044077067,-0.0041609192
7.0873260498,0.0106757563,0.0002356475,-0.0095881019,-0.0132597582,-0.019063862,-0.0126653919
7.0973820686,0.0138521474,0.0273235142,-0.0193584356,-0.0069533931,-0.0094658313,-0.0137239983
7.1074781418,-0.0055434424,0.0330152214,-0.0409230404,-0.0062717563,0.0287260953,-0.0158290267
7.1175179482,-0.0192819554,0.0134863565,-0.0333966427,-0.0012892475,0.0637650415,-0.0189981889
7.1276640892,-0.0174355228,-0.0029583271,0.0112923589,0.0182632282,0.0300008841,-0.0158340223
7.1376552582,-0.0067838151,-0.010477691,0.0709932074,0.0537043102,0.0080551058,-0.0116067845
7.1477870941,0.0011464634,0.0090813944,0.0296843257,0.0803697929,0.0105066784,0.0032532541
7.157790184,-0.0046856124,0.0102150748,-0.0135699306,0.053656958,0.0134220403,-0.0020475015
7.1679182053,-0.0056934077,-0.0188351572,-0.0142066274,0.0289454591,0.0290543307,-0.0126522761
7.177918911,-0.0057214815,-0.0227435529,-0.0220581684,-0.008453045,0.0340885036,-0.0041458728
7.1879901886,-0.0009202084,0.0044113104,-0.0126580391,-0.0446488932,0.0252830945,-0.0041406127
7.198059082,0.0049100202,0.0013400023,0.0034470165,-0.057414487,0.020892607,-0.009448559
7.2082018852,0.005960403,-0.0077367718,0.0027471983,-0.0861981735,0.0174092595,-0.0168753825
7.2181882858,-0.002865704,-0.002264529,0.0115347113,-0.0872908682,0.0206660386,-0.0041318908
7.2283201218,-0.0077326912,0.0139026353,0.00093629,-0.0733203813,0.0112659456,0.0001069957
7.2383317947,-0.006846698,6.5655e-05,-0.0064416328,-0.0445883311,0.0200679582,0.0096602868
7.248459816,-0.0138363857,-0.0018827613,-0.0037410653,-0.0017477646,0.0056485403,0.0191989318
7.2584457397,-0.007193001,-0.0007362062,0.000359913,0.0397621281,0.0166013222,0.0160084646
7.2685141563,0.0024709979,0.0024066274,-0.0108377133,0.0655379072,-0.0001560859,0.0149298841
7.2785978317,0.0219264906,0.0172899663,-0.0043908753,0.0560269579,-0.0098236268,0.0096184751
7.2886867523,0.0229114573,0.0106306383,-0.0001446999,0.0122693842,-0.0102821561,-0.0020502314
7.2987408638,0.0112167876,-0.0001170332,-0.008016983,-0.0093863765,0.0202451274,-0.010523878
7.3088750839,-0.0063262898,0.0094352076,-0.030669013,-0.0062145246,0.0234552342,-0.0105222128
7.3188667297,-0.0073372144,0.0036371057,-0.0083337221,0.0056101764,0.0150835868,-0.0084057981
7.3289289474,-0.0122864861,-0.0098900488,0.0150867905,0.0163737144,0.0067502898,0.0011442968
7.3390340805,-0.0114048738,-0.0087426594,0.0328434296,0.0325473584,-0.00893493,0.0149357431
7.3490991592,-0.003687056,-0.0095202615,0.0312595554,0.0335495844,-0.0025450077,0.0170615446
7.3591599464,-0.0008264503,-0.0250405967,0.0109672751,-0.0090998737,-0.0072518783,0.0032666365
7.3692712784,0.0119509082,-0.0212527812,0.0069362721,-0.0272873715,-0.0032219167,-0.0052209245
7.3793010712,0.0022044161,0.007767946,-0.0118629728,-0.0167854633,0.0138611961,-0.0030914608
7.3893790245,-0.0085077304,0.0319634378,-0.0237996969,-0.0168098584,0.0159629639,-0.0062763351
7.3994197845,-0.0075879414,0.0183021724,-0.0220360551,-0.0062514897,0.0277826041,0.0022212793
7.4094829559,-0.0126284976,0.0193798244,0.0032473409,-0.0004469696,-0.0176981948,0.0170634743
7.4195508957,0.0028464773,-0.0067310031,0.028707942,0.003628199,0.0014163777,0.0138865905
7.4296178818,0.0018315592,-0.0427110493,0.00349172,0.0154583324,-0.0080642095,0.0085693235
7.4396619797,0.0116009992,-0.029938966,0.0086724963,0.0286047608,-0.0419044644,0.008549083
7.4497561455,0.0077261608,-0.0035371478,0.0274197664,0.007258567,-0.0421180502,0.0043066675
7.4598178864,-0.005845787,0.0042301123,0.0129451957,0.0081770904,-0.0272477567,0.0053756605
7.4699420929,-0.0184831936,0.0217364132,-0.0151640568,0.0208750702,-0.0153971566,0.0159978792
7.4800128937,-0.0224535782,0.0237898529,-0.0236761365,0.0228378195,0.0015836908,0.0138822626
7.4900827408,-0.0108422954,-0.0140611222,-0.0390842371,0.0160886236,0.0354178213,0.0043444177
7.5001173019,0.0076629203,-0.0363476574,-0.0253232513,0.011140204,-0.0039759241,-0.0094773881
7.5101618767,0.0223251265,-0.0089887073,0.0205326881,-0.0121480208,-0.0232850406,-0.0105438512
7.5202498436,0.0107558649,0.0084224055,0.0446956344,-0.0514544174,-0.0417154469,-0.0179756694
7.5302848816,-0.0076650698,-0.0152274063,0.0334279723,-0.0701548904,0.0143858381,-0.0136945695
7.5403118134,-0.0330151059,-0.0098088076,-0.0004694856,-0.0562534593,0.0124819446,0.0011661348
7.5504441261,-0.0173746068,0.0075795953,-0.0056076446,-0.0081658224,0.0065983566,0.0107065104
7.560505867,0.0050566178,-0.0050442512,-0.0249489937,0.0248203576,0.0164501891,0.0128266523
7.5705890656,0.0167036634,-0.0174739063,-0.024477819,0.0623985715,-0.0065992046,0.0074955365
7.5806498528,0.0264276545,0.0014182632,-0.0051522055,0.0947415978,-0.0392245241,0.0053474312
7.5906910896,0.0216603559,0.0221557915,0.0044347248,0.0619115084,-0.0650469959,-0.0052749198
7.6007499695,0.0072642248,0.0154076526,5.027e-06,0.0179094262,-0.041088406,-0.0148079721
7.610845089,-0.0208682138,0.0162641108,-0.0165918861,-0.0143866483,-0.0126730762,-0.0073523847
7.6209139824,-0.0286035854,0.0112437317,-0.017846385,-0.0466875955,0.015701307,-0.0062682126
7.63098526,-0.0287489612,-0.0315296948,0.0189389791,0.0108420094,0.0257606003,-0.0052159978
7.6410570145,0.0005590001,-0.0225014985,0.0080053415,0.1689203382,0.0134093901,0.0042938842
7.6511287689,0.0407435559,0.0444464386,-0.0103117023,0.2914155722,-0.0693191737,0.0084682563
7.6611790657,0.0635020435,0.0875627697,0.0356728025,0.3148266077,-0.1688577533,0.0084125958
7.6712460518,0.0513274036,0.073197633,0.0574199148,0.2808610201,-0.1871793717,0.0105358018
7.6813192368,0.012844203,0.0428003371,-0.0236738119,0.2436801046,-0.098420471,0.003156981
7.6913328171,-0.0317345597,0.0035159294,-0.0878764167,0.1750365645,-0.0639413893,0.012747623
7.7013978958,-0.0170886535,-0.0065813954,-0.0942506567,0.1104751527,-0.0102648456,0.0319032073
7.7115001678,-0.0115637202,-0.0011579688,-0.0613190345,0.0794048756,0.0022451533,0.0393501408
7.721558094,-0.0161063988,-0.0082381656,0.0084600653,0.074031949,0.0065118037,0.0499716252
7.7316279411,-0.0166175384,-0.0105729988,0.0654831156,0.0412669741,-0.0256984644,0.0361616686
7.741765976,-0.0159468371,-0.019939214,0.1173573956,-0.0021353606,-0.0611145124,0.0329696015
7.7517499924,-0.0169610102,-0.000581115,0.1015836224,-0.0588451922,-0.046732109,0.0361749828
7.7618699074,-0.0170090813,0.0029012267,0.0162288751,-0.0862461925,0.025203865,0.0394032672
7.7718830109,-0.0221292693,0.0082875798,-0.060662549,-0.1141232848,0.0387948453,0.0457891971
7.7820181847,0.003768591,-0.0104404381,-0.0694324747,-0.113468945,0.0790184289,0.0298821349
7.7920722961,0.014067499,-0.011581867,-0.0537823252,-0.0577006713,0.0507529005,0.0139261391
7.8021612167,0.0254226904,0.0285080373,0.028681716,-0.0098154377,-0.0410819463,0.0234243032
7.8121519089,0.0205056351,0.0394364893,0.1144846305,-0.0324455947,-0.1262293309,0.0138310641
7.8222899437,0.0002105513,0.0023156707,0.0823778734,-0.0140314354,-0.0464239791,0.0234224387
7.8322992325,-0.044658456,4.3218e-06,-0.0444837026,-0.0003948789,-0.0217890758,0.040420197
7.8424358368,-0.0361289717,-0.013448148,-0.0540863089,0.0047106668,0.0016549968,0.0489250012
7.8524599075,-0.0249083359,-0.0297147334,-0.0549427681,0.007672342,0.0261624046,0.0606160797
7.8624849319,0.0029142776,-0.0333102047,-0.0518465452,0.004700521,0.0027300483,0.0510489382
7.8726000786,0.0229319017,-0.032895714,0.0154912677,-0.018433908,-0.032584466,0.0361713879
7.8826360703,0.0130054634,-0.0201105177,0.0621696897,-0.0213908125,-0.0582219213,0.0138615565
7.8927841187,0.0082469862,-0.0047493274,0.0259534921,-0.0015175352,-0.0177347455,0.0128160659
7.9027757645,-0.0072777588,0.0378467143,-0.0336015038,0.0124941543,-0.0313996933,0.0138674825
7.9128732681,-0.0004222116,0.0399465263,-0.0215963516,0.0165919345,-0.0143577913,0.0181212816
7.9229230881,-0.0171965677,0.0012552445,-0.0183591042,0.036517974,0.0208601169,0.0223810077
7.9330472946,-0.0253033359,-0.0228431523,-0.02493749,0.001434207,0.0078903222,0.0330008306
7.9430427551,-0.0011394939,-0.0450850427,0.0022607648,-0.0637921989,0.0188058205,0.0043542716
7.9531979561,-0.0052910168,-0.083201617,0.0403974243,-0.1159619838,0.006648757,0.0001158507
7.9631791115,-0.0072423238,-0.0321422517,0.0479448028,-0.1370478272,-0.0189878978,0.0022319984
7.9731888771,-0.0042201299,0.0080439756,-0.0010205305,-0.1267275959,0.0161395967,0.0054319194
7.9833111763,-0.0237829704,0.0025893156,-0.0499424152,-0.1130567938,0.0364267603,0.0065003801
7.9933819771,-0.0239721257,-0.0025439556,-0.0449186973,-0.054286927,0.0295468159,0.0117912153
8.003610611,-0.0173737723,-0.0005545313,-0.0218269024,-0.002944909,0.0183578115,0.0170815848
8.0135154724,-0.011681648,-0.0159139931,-0.0040689507,0.0388598219,-0.0004247322,0.0096285287
8.0236110687,0.0069546681,-0.0206198394,-0.0035641587,0.0381229259,-0.0345246457,-0.0116242953
8.0336437225,0.0081460159,-0.0059377844,0.0084898677,0.0168109518,-0.0379291661,-0.0169291124
8.0437421799,-0.0013647994,0.0046509807,-0.0002321995,-0.0100611411,-0.0190918259,-0.0211600773
8.0538539886,-0.0198017079,-0.0052470858,-0.0121444855,-0.0212309193,0.0307453703,-0.0115770912
8.0638532639,-0.0295980293,-0.0082395962,-0.0123551879,-0.0135415737,0.009673642,0.0011520201
8.0739917755,-0.0149487574,-0.0169426501,0.0120249595,-0.0071627172,0.0118027059,-0.0062807291
8.0839881897,-0.016876312,-0.0549719632,0.0011642182,-0.015015048,0.0487479381,-0.0253726654
8.0940876007,-0.0088948924,-0.0648679435,0.0039156876,-0.0144500304,-0.0074996194,-0.0275239665
8.1041231155,0.037375655,-0.0163387954,0.0312198009,-0.0279179029,-0.0479389243,-0.0275407452
8.1142520905,0.0417118333,0.0143994996,0.0084516015,-0.0730259418,-0.0197114125,-0.031761989
8.1242666245,0.0166812818,0.0118857929,-0.0215907488,-0.0967834666,0.0076211435,-0.0391748995
8.1343269348,0.0051862281,-0.0022709067,-0.0361673646,-0.1034163609,0.0309698097,-0.0296055581
8.1444253922,0.0004097799,0.0040831869,-0.0332263522,-0.0917269513,0.0364327505,-0.0211114064
8.1544380188,-0.0173574109,-0.0146186044,0.0038534605,-0.0715958998,0.0515404642,-0.0094295843
8.1645956039,-0.028218599,-0.0215923488,0.0217480864,-0.026567705,0.0306564886,-0.017945841
8.174574852,-0.0046520848,-0.0167727768,0.0169541445,0.0377243571,0.0046700281,-0.0211606752
8.1846618652,0.0239553135,0.0172617733,-0.0050545135,0.0475596786,-0.0186297018,-0.027545603
8.1947278976,0.0291919988,0.0211509168,-0.0008032716,0.0144709935,-0.0190510806,-0.0477107279
8.2048139572,0.0228219014,0.0082928846,-0.0133800302,-0.0048326626,-0.0096629057,-0.0466393381
8.2148618698,0.0204053801,0.0429703295,-0.0446658544,-0.0271112584,-0.0225207135,-0.0360228457
8.2249984741,0.0147716384,0.0242863595,-0.0342334323,-0.0427301638,0.0452876277,-0.0306760166
8.2349967957,-0.0224656183,-0.0167308748,-0.0211844239,-0.0341942534,0.0465620831,-0.0094419681
8.2450828552,-0.0128929038,0.0018193428,0.0146312322,0.0151493261,0.0227262601,0.0117695769
8.255150795,-0.005258115,0.0107818553,0.0343241878,0.0377943702,-0.0004346527,0.0096293949
8.2652711868,0.0005606094,-0.0104622534,0.0278718676,0.0387917273,0.0058645224,-0.0020475015
8.2752799988,0.0025765279,-0.0026082094,0.0126077738,0.0295522343,-0.0302587952,0.0032457307
8.2854013443,0.0134833734,0.032455951,0.0041288934,0.0061606248,-0.038951885,0.0032473286
8.2952270508,0.0097247045,0.0245226324,-0.0387049727,-0.0188030489,0.0021574686,-0.0052201916
8.305305481,0.0049448889,0.0058502262,-0.0719764009,-0.0114204995,0.0106830467,-0.0094650043
8.3155632019,0.0058990996,0.0097857425,-0.0428075604,-0.0017202804,0.0012676402,-0.0020408437
8.3257303238,-6.23187e-05,0.0079666087,0.0097138491,-0.0133415163,-0.0105059287,-0.0020437732
8.3356456757,-0.0168427546,-0.0239304006,0.0788132176,-0.0057692714,-0.0199279934,0.0075063892
8.3457736969,-0.0217468459,-0.0113337329,0.0544515438,0.0101897214,-0.0144139184,0.018123081
8.3558073044,-0.0129170734,-0.0064918096,0.0108015146,0.0209567212,-0.0238767955,0.0170539543
8.3659439087,0.0066344421,-0.0112514189,-0.0102274809,0.0379460901,-0.0152327064,0.018115757
8.3759393692,0.0085259955,0.0006175941,-0.0205205474,0.0444485173,-0.0246915892,0.0234187767
8.3860082626,0.0173157137,0.0154285738,-0.0316291265,0.0403147601,-0.0385703892,0.0159803014
8.3961038589,0.0183457714,0.0097083757,-0.0341981463,-0.006766865,-0.02741234,6.98445e-05
8.4061422348,-0.0011273941,-0.0147398403,-0.0295813475,-0.0424620137,0.018818805,-0.0221957806
8.4162788391,-0.0167098064,-0.0062184627,-0.0291551147,-0.0285160206,0.0125990575,-0.0179526322
8.4262628555,-0.0127255935,0.0364644229,0.0035766566,-0.0294744931,0.0020073995,-0.013710483
8.436422348,-0.0166687686,0.0208181441,0.0169598069,-0.0062977485,0.031956777,-0.0083940141
8.4464197159,-0.0284976084,-0.0014331634,0.0258332696,0.0422018766,-0.0141763641,0.0117448093
8.4565458298,-0.008111747,-0.0068546231,0.0451272912,0.0871674046,-0.0274810493,0.0265919995
8.4665441513,-0.0062212665,-0.0250003636,0.0138445701,0.0806133673,-0.0127106272,0.0223538447
8.4766788483,-0.0013210496,-0.0364442766,-0.0117697511,0.0435113274,-0.0385976173,0.007484884
8.4866819382,0.0027544179,-0.0237414539,-0.0114286337,-0.0015003579,-0.0210974533,-0.0147927245
8.4968204498,-0.010694297,-0.0094189933,-0.0428863578,-0.0468149483,0.0272550322,-0.0243133921
8.5068330765,-0.0261873323,0.0154893706,-0.0417015366,-0.0734095424,0.0185132064,-0.0274964031
8.5169372559,-0.0143881161,0.0230239928,0.0014257036,-0.0722924545,0.014354147,-0.0158184413
8.5269527435,-0.0035509786,0.0178686678,0.0008505785,-0.0582871512,0.0018055985,-0.0062720738
8.5370836258,0.0052689891,-0.0270217955,0.0112685766,-0.0304402895,-0.0085674142,-0.0073477244
8.5470743179,0.0013397613,-0.0571496785,0.0248927679,0.0121420585,0.0024639319,7.95651e-05
8.5572252274,-0.0123230536,-0.0337024033,0.0202682223,0.0540613867,-0.0268959533,-0.0020678749
8.5672245026,0.0084502976,-0.0121814897,0.0072513423,0.0508972853,-0.031237172,-0.0126872296
8.5773591995,0.0126703065,0.0130507061,-0.0410395078,0.0291028246,0.0130903441,-0.0200924166
8.5873708725,-0.0086810309,0.0352630913,-0.0558243804,-0.0318422839,0.0242093094,-0.0232567843
8.5974254608,-0.0106235463,0.0292418897,-0.0232852492,-0.0599319711,0.0578989647,-0.0264188871
8.6075639725,-0.0156104881,0.0163487494,-0.0210560951,-0.0375345275,0.0603344254,-0.0083727753
8.617559433,-0.009946974,0.0046813791,0.0194584336,-0.0285564773,0.0169134457,-0.0073336097
8.6276807785,0.0105608981,-0.0312526524,0.0477417894,0.0068233525,0.0001688199,-0.0190307461
8.6377058029,0.0029249468,-0.0312458575,0.0363208838,0.0562440604,-0.0322303958,-0.0095040863
8.6478300095,0.012997983,0.0194044411,-3.94381e-05,0.0702605397,-0.0458330251,0.0011035507
8.65782547,0.0083128493,0.0282809436,-0.0296268854,0.0453721583,-0.0121438392,-0.0063058296
8.6679382324,-0.0072327275,-0.0018427069,-0.0565994792,0.0330563672,0.0450201146,-0.0105213476
8.6779670715,-0.0161235649,0.0050580208,-0.0409788303,0.0162409563,0.0194556322,-0.0030975193
8.6881046295,-0.0015769324,0.023706466,0.0116437282,-0.0071075093,0.0065254522,-0.0020362497
8.6980991364,-0.0015670976,0.0071599786,0.0358556099,-0.0273676403,0.0041359975,-0.0158353522
8.708237648,-0.0014523587,-0.0164058506,0.0180536713,-0.0252445675,0.0052087186,-0.016897155
8.7182369232,0.0006906667,0.0067270105,-0.0084408317,0.000433364,-0.0009204131,-0.0147824716
8.7282762527,-0.0002075156,0.0096053192,-0.0142655764,0.0140727432,0.022556683,-0.0126506109
8.7383766174,-0.0100094993,-0.0009831483,0.002427479,0.034651231,-0.0069048684,-0.0020527614
8.748497963,0.0027669945,0.0148060033,0.0146717038,0.0509702787,-0.0374926031,0.0042986115
8.7585020065,0.0028206387,0.0051890318,-0.0140698347,0.0449196845,0.0335271098,0.0011503557
8.7686281204,-0.0109360833,-0.0317222774,-0.0324788503,0.0098104347,0.0226025563,9.20155e-05
8.7786388397,0.0006079951,-0.0256949961,0.0308166947,-0.0079699205,-0.0136153018,0.0022011725
8.7887325287,0.0104252677,0.0102199027,0.0306773987,-0.0145569826,0.0043242835,-0.0041589886
8.7987699509,0.0096412282,0.009014518,-0.0093912277,-0.0070734993,0.0021920234,-0.0158424098
8.8089056015,0.0077696126,0.0138382027,0.0002907717,-0.0091502331,-0.0030762421,-0.0073501216
8.8188791275,0.0058891755,0.0244638622,0.0021111572,-0.0059867194,0.0012224994,-0.0031006488
8.8290281296,-0.0019932708,0.013793976,-0.0085588489,0.0259195492,0.0132978037,0.0160096623
8.8390207291,-0.000201585,0.0081124017,-0.0122295413,0.0154304225,-0.0048186155,0.0181268752
8.849111557,0.0093879383,-0.0228308141,0.0093778577,-0.0007618628,0.0130232321,0.0096455067
8.8592472076,0.0063368063,-0.025724262,0.0054092011,-0.0048566861,-0.0039628083,0.0138856582
8.8692874908,0.0062368196,0.0034640138,0.0217709746,-0.0324880481,-0.0159177389,0.0075159101
8.8793811798,0.0062392037,0.009094269,-1.51194e-05,-0.0477297418,0.0136326971,0.0032868101
8.8894433975,-0.0083792526,0.0117179463,-0.0297778044,-0.0508837253,0.0082235504,-0.0083948793
8.899515152,0.0033591071,0.0164774954,-0.0232093129,0.0002920302,0.0140375644,0.0011519536
8.9095573425,0.0032710114,0.0418426096,-0.0192696247,0.0271140561,0.000546789,0.0117563941
8.9196357727,0.0030733624,0.0382662117,0.0132510867,0.0432868488,-0.0151594691,0.0223626997
8.9296751022,0.0048445147,0.011316807,0.0127537455,0.0389741249,-0.0109735131,0.0191804878
8.9397125244,0.0007787624,-0.0264739692,-0.0025494492,0.0141063789,0.0206223615,0.0160162542
8.9498271942,-0.0170529801,-0.0400312841,-0.0017340578,-0.0146533633,0.0150587531,0.0149589786
8.9598722458,-0.0172110219,-0.0156616271,0.0175880995,-0.0154092489,-0.0156920347,0.0191910733
8.9699258804,-0.0094409604,0.0018086736,-0.0029127991,0.0025487123,0.002475783,0.0149483932
8.9799938202,-0.0231419522,0.0095703313,-0.0301360283,0.0121701816,0.0004106348,0.0106970556
8.9900665283,-0.0154207367,-0.0049298699,-0.0241807494,0.0140855266,0.0215731785,-0.0009726499
9.0001316071,-0.0076617319,-0.0214076936,-0.0085814986,-0.0038482528,0.0012609822,8.51577e-05
9.0102958679,0.0109057706,-0.0008920724,0.0255832281,0.0028751632,-0.0304993447,0.0021911855
9.0202951431,0.0100238603,0.0010689204,0.0169677343,0.0133295618,-0.0092060398,-0.0009870308
9.0303287506,-0.0191743691,-0.0135882189,-0.0112277064,0.0120887952,0.007719148,-0.0073490562
9.0404443741,-0.0063505787,-0.0233919322,-0.0451779775,0.0320570432,0.0375008099,-0.0232665706
9.0504989624,-0.0064073522,-0.0182602108,0.0106755104,0.0466983058,-0.0375499986,0.0011136041
9.0605783463,0.0062578004,0.0025707786,0.0736232623,0.051901456,-0.0236199982,0.0149222938
9.0706481934,-0.0083506424,-0.0032031233,0.0243552532,0.0284049176,-0.0216822829,0.0181146245
9.0807142258,0.0181702655,-0.0197852552,-0.0298487935,0.0046366053,0.0066472921,0.0011476924
9.0907258987,0.010271458,-0.0364294946,-0.0350324921,-0.0374591835,0.0528502055,-0.016869124
9.1008224487,-0.0113423783,0.0003569429,-0.0094707999,-0.0510115549,0.0209555905,-0.0083884876
9.1108932495,-0.0006178936,0.0507685244,0.0143314805,-0.0583094135,0.0039350623,-0.0052097389
9.1209583282,-0.0083507616,0.0300644934,0.0118623581,-0.0816830769,-0.0069286376,-0.0126416897
9.1310319901,-0.0052818973,-0.0150988987,-0.0199475084,-0.0693478435,0.0398465917,-0.0158068575
9.1410675049,-0.0072396714,-0.0193025172,-0.0555797629,-0.0115848426,0.0277209524,0.0001002046
9.1511650085,0.0013362446,0.0178234279,-0.025392333,0.0314023048,-0.0003663423,0.0287438333
9.1612081528,0.0019434073,0.027918011,0.0031807029,0.0294408873,-0.0173049793,0.0372295938
9.1712970734,-0.0031706414,-0.0213534534,0.0182734933,0.0525043942,0.0219079368,-0.0009814382
9.1813545227,-0.0060934741,-0.0425567329,-0.0122903977,0.1069922447,0.0160171576,-0.000998083
9.1914463043,0.0067276638,0.053055495,-0.0057310262,0.0766857341,-0.047899507,0.0011012868
9.2015075684,0.0087499004,0.059076339,0.0345156975,-0.0274206121,0.0094622532,-0.0126477489
9.2115955353,-0.023492964,-0.017051369,0.0319970436,-0.0788244084,0.0270449761,-0.0136877131
9.2216415405,-0.0087641198,-0.0144516518,-0.0064437189,-0.027469743,0.0159581695,0.0075313561
9.2317390442,0.0058365148,0.0204625428,-0.0397283845,-0.0039545661,0.0130633134,0.0202655271
9.2417373657,-0.0041537602,-0.0174097121,-0.0290963445,-0.0064099217,0.0436829403,0.0001065297
9.2518768311,-0.0102613289,-0.0494323075,-0.0117428098,-0.0008686818,0.0236120261,0.0064658923
9.2618722916,-0.0016394577,0.0052326624,0.0456864424,-0.0161259845,-0.050756745,0.0128036821
9.2720050812,0.0062912386,0.0100305388,0.0737980232,-0.0622021332,-0.0332312807,-0.0041646482
9.2820072174,-0.015996905,0.0027289693,-0.0066877999,-0.0509049222,0.0115165487,0.0085963542
9.2920789719,-0.0012147746,0.0265727937,-0.0852099434,-0.0619431958,0.0474351346,-0.0009390941
9.3021707535,0.0014486292,-0.0017227824,-0.0575730018,-0.0386828519,0.0688330308,-0.0051819757
9.3122110367,-0.0027927777,0.0110560367,-0.0014040268,0.0097517911,0.0290520657,0.0128364395
9.3222846985,0.0155560654,0.0337152183,0.0387945361,0.0326573737,-0.0195319802,0.0170548856
9.3325777054,0.0086118262,0.0018613641,0.0499281473,0.0313953012,-0.0004847865,0.0106939264
9.3424139023,-0.0197714884,-0.0379762352,0.0228187051,0.0291849058,0.0057958132,7.71683e-05
9.3525562286,-0.0158429462,-0.02336815,0.0025412643,0.0241539273,-0.0238757972,0.0128052142
9.3625469208,0.0008020678,0.0126875946,-0.0089298282,0.0112813255,-0.0165277347,0.0181228798
9.3726882935,0.0007470229,0.0068829362,-0.0399250202,0.0111550912,-0.0037749223,0.0213146787
9.3826789856,0.005544303,0.0012411182,-0.0453574471,0.0508719571,-0.0267360993,0.0266007222
9.3928184509,0.023012219,0.0093650529,-0.0417737775,0.06674999,-0.0138780894,0.024479514
9.4028158188,0.0061635058,-0.0096870949,-0.0033117926,0.0423840657,-0.0321568958,0.0202290416
9.4129552841,-0.0018838367,-0.0218835175,0.0624460168,0.0489263833,-0.045880165,0.0223441236
9.4229917526,-0.0155860502,-0.0022508795,0.0463057347,0.0464321747,-0.009875292,0.0149322813
9.4330873489,-0.0243330617,-0.0012449916,0.0037806833,0.0377923474,-0.0004908452,0.0011357749
9.4430856705,-0.0076972563,-0.0011595781,-0.0095607433,0.0311192926,0.0259441584,-0.0041587893
9.4532260895,-0.0047692973,0.0106329629,0.0042857132,0.0239998624,-0.0091480492,-0.0062981066
9.4632167816,0.0177623909,0.0107167074,0.003620764,0.0183636826,0.0205711648,0.0022102273
9.473323822,0.0030432323,0.0047954624,-0.0306017194,-0.0275031403,0.0180275775,-0.0009647935
9.4833536148,-0.0039089043,-0.0370969474,0.005989512,-0.0701988861,0.0186516903,-0.0105080977
9.4935016632,-0.0207150895,-0.05089733,0.0383278318,-0.0701387003,0.0134366881,0.0032926688
9.5034809113,-0.0157357771,-0.0084689548,0.0074477992,-0.055994302,-0.0140690384,-0.003096188
9.5135879517,-0.0068351049,-0.0164720714,-0.0006429351,-0.0327108204,0.0052133128,-0.0062778662
9.5236253738,-0.0008120558,-0.0020805295,-0.0368256383,-0.0005730176,-0.0061449362,-0.0009812386
9.5336914062,0.0011312643,0.0222915709,-0.0221868549,0.0015852079,-0.0082136793,0.004326175
9.5437612534,-0.0058213193,0.0039248173,0.0090028252,0.0078065917,0.0087581798,-0.0052253185
9.5538368225,0.0010530034,-0.0154601624,0.0072627864,0.0250324495,-0.0059121093,7.19751e-05
9.563911438,0.0138094705,0.0061043804,0.0270878281,0.020058997,-0.0420328304,5.51972e-05
9.5739507675,0.0090369862,0.0022105877,0.0291548576,-0.0080522653,-0.0062495312,-0.0073523857
9.5840206146,-0.0084029753,-0.0213877261,-0.0081156287,-0.0380883291,0.0093606543,-0.0137054231
9.5941104889,-0.0132511575,-0.02342996,0.0081783142,-0.0271677691,-0.0148938196,-0.0052259178
9.6042098999,-0.0013689718,-0.0031366642,-0.008478025,-0.0080359681,-0.0072769793,-0.0020428412
9.6142988205,-0.0081399102,-0.0003300602,-0.0377272777,-0.0048628105,-0.0040175365,0.0053905742
9.6242742538,-0.0013213477,-0.0120702079,-0.033059638,-0.0414484926,0.0252758376,-0.0094498247
9.6344299316,0.0055043679,-0.0306981504,-0.01011304,-0.0529903695,0.0049380753,-0.0211368408
9.6443996429,0.0114212316,-0.0064172442,0.0587094016,-0.0406312495,-0.0564132296,-0.0084302993
9.6545524597,0.0155659597,0.0128488252,0.0526905842,-0.0239513386,-0.0170069709,-0.0084148534
9.6645650864,-0.0174193103,0.0134302089,-0.027521709,-0.0286166351,0.0221711248,-0.0147646945
9.6747074127,-0.0183254797,-0.0101121357,-0.0405205302,-0.0266432334,0.0380909704,-0.0168808438
9.6847019196,-0.0174670238,-0.0033304985,-0.0174553189,-0.0085374406,0.0425548926,-0.0073261531
9.6948394775,-0.007705899,0.0141480276,-0.0068745413,0.0001977282,0.0224150028,-0.0158328228
9.7048368454,0.008082239,-0.0053238566,0.003990849,0.0100563513,-0.0041429047,-0.0339001715
9.7149734497,0.0142862778,-0.0044079716,0.0032600963,0.0273216255,-0.0230987538,-0.034975823
9.7249307632,0.0078345519,0.0197760761,-0.0015162624,0.0050331224,-0.0349456258,-0.0317898169
9.7363414764,-0.0026113412,0.0079984376,-0.0091853533,0.0281062163,0.0055914149,-0.0296518318
9.7485847473,-0.0111783464,0.0041372483,-0.0340881161,0.0784855559,-0.0150096007,-0.0020690733
9.7559490204,0.0065226834,0.0405145586,-0.0243590269,0.0926959217,-0.0476825908,0.0127761858
9.7658557892,0.0064545851,0.0097548673,-0.0167681966,0.0621106327,0.0220337715,0.0053865793
9.7760047913,-0.013227107,-0.0376866758,-0.0076582232,0.0218154043,-0.0037845096,0.0053839162
9.7858505249,-0.005588891,-0.0237506926,0.0665582046,-0.0023514498,-0.0410786197,0.0138658183
9.7952747345,-0.0103932936,-0.0005121524,0.0527997203,-0.0386822931,-0.0372276902,0.0021971776
9.8055553436,-0.0170179326,-0.0184569061,-0.0168032441,-0.0650751516,0.039910838,-0.01155998
9.8154306412,-0.0110395867,-0.0140731027,-0.0643102303,-0.067171596,0.0355858654,-0.021117799
9.8254852295,0.0045590084,0.0189059079,-0.0044926801,-0.0509616509,0.0156019712,-0.0158236343
9.8355016708,0.0065276604,0.0304481685,0.0301180091,-0.0443559438,-0.0044942424,-0.0147735504
9.8456659317,0.0263305884,0.0155541012,-0.0100088511,-0.0274856724,0.0157859959,-0.0190146342
9.8556842804,0.0196373146,-0.0070486958,-0.0317157917,-0.0317872092,0.0189178735,-0.0211355761
9.8657922745,-0.0009129366,-0.0256904066,-0.0127168093,-0.0256161056,0.0423433706,-0.0168780461
9.8758068085,-0.0234290082,-0.0102172783,-0.0062768855,0.0035937112,0.0033794604,-0.010534131
9.8858795166,-0.0086140651,0.0112583349,0.0105776396,0.0443860963,-0.0206752773,-0.0116193686
9.89594841,0.0003700534,0.0114741633,-0.0090620313,0.1114708558,-0.0051716836,-0.0020724689
9.9060573578,-0.0034701547,0.0371135175,-0.0304893646,0.1221347973,-0.0039546192,0.0074810889
9.9160804749,-0.0066590626,0.0172097981,0.0014952624,0.0676531717,0.0020121932,0.019177692
9.9262294769,0.0040868204,-0.0166189373,0.0078400578,0.0092364978,-0.0273139365,-0.0063050971
9.9362316132,0.0276408773,-0.0535614192,0.002237221,0.0098104086,0.021459993,-0.0126516763
9.9463500977,-0.00939578,-0.0030716951,-0.0163709912,0.0198229626,-0.0187399574,-0.0073649683
9.9563541412,-0.0073716957,0.0223359168,0.0120430794,0.0143152783,-0.0018312808,-0.0105405226
9.9664850235,-0.0288010258,0.0144565413,0.0099613871,-0.0306239929,0.0094207749,-0.0147708869
9.9764852524,-0.0188767631,0.012150676,-0.0265807901,-0.0588534996,0.056861259,-0.0242962167
9.9866275787,-0.0071894843,-0.0007974798,-0.0011253154,-0.1204327345,0.0256279074,-0.0126165897
9.9966192245,0.0033419707,-0.0030656154,0.059954185,-0.1485221535,0.0604956113,0.0022731442
10.0068693161,-0.0145047028,-0.0153313568,0.0156210866,-0.1091501489,0.0725522712,0.0086407624
10.0170679092,0.0059123319,-0.0205636919,-0.013440052,-0.0722121,0.0070246616,-0.0009575364
10.0269899368,0.0372180007,-0.006260484,-0.0353650264,-0.0427930728,0.0528812334,-0.0051894323
10.0370883942,0.001028029,0.0187122524,-0.0662710443,-0.0361607298,0.029532766,-0.0147589697
10.0471162796,-0.0059249122,0.0158925951,0.0084777083,-0.0038814638,0.0032805237,-0.0158422105
10.0572948456,-0.0184541065,0.0304791033,0.0153981652,0.0442437232,-0.006937759,-0.020106731
10.0674762726,-0.0074537713,0.034368962,-0.040546041,0.0801837742,0.0284672379,-0.0084171835
10.0774736404,-0.0045155603,0.0277500451,-0.0400811248,0.0494580865,0.0058812341,-0.013729658
10.0874032974,0.0001981536,-0.0291865766,0.0480868407,0.0441908315,-0.0004333875,0.0011326456
10.0972986221,-0.0018170199,-0.0202266872,0.0446440168,0.0551279038,-0.0256726984,0.0212914441
10.1074390411,0.0030602494,-0.0045091207,0.0052271686,0.0389623791,-0.0099192336,0.0181190204
10.1177110672,-0.0145743806,-0.0521331728,-0.0150742922,-0.0243220516,0.0201060418,-0.0115802865
10.1276712418,-0.0262906272,-0.0757025182,-0.0117287431,-0.0545534305,0.0537227914,-0.0232374091
10.1377067566,-0.0154541451,0.0007863348,-0.027031878,-0.029801745,0.0338473544,-0.0126356315
10.1479167938,0.0050854962,0.06683442,0.0105409231,-0.0549478158,-0.0119166048,8.96852e-05
10.1578111649,0.0147818606,0.0317847431,0.0618165918,-0.0635429025,-0.0067484751,-0.0094617419
10.1683616638,0.0149308126,-0.0210032761,0.0371743627,-0.0323969685,-0.0255290866,-0.0020451047
10.1798372269,0.0161042195,-0.0114639094,-0.0008907116,0.0112258783,-0.0124356551,-0.0052350387
10.1881551743,-0.0003329834,-0.0028399522,-0.0388590507,0.0130961891,0.0129717672,-0.0169034805
10.1981554031,-0.0149404723,-0.0203056633,-0.0251284633,0.0247999839,0.0162226874,-0.0222138222
10.2081880569,-0.0158516485,0.0022381847,-0.0023852384,0.0602697469,-0.0077765882,-0.0073688971
10.2181034088,-0.0099105556,0.0413453877,-0.0008599556,0.0602947809,-0.0098501258,6.2654e-05
10.2284536362,-0.0039164741,0.0181130469,-0.0120706353,0.0409067534,0.0068476284,-0.0169131346
10.238535881,0.0050020497,-0.029435426,-0.0058103004,0.0495721474,-0.0058029201,-0.0158598535
10.2483587265,0.0080563705,0.0027983491,0.0072291098,0.0339287147,-0.0419675149,-0.0084422175
10.2583580017,0.0042396169,0.004788131,0.0122807827,-0.0123695415,-0.0009407196,-0.0009773769
10.2684621811,-0.0113392491,-0.0362748206,-0.0085000787,-0.0648912862,0.0207800213,-0.0168804433
10.2784967422,-0.0094624478,-0.058786124,0.0318097658,-0.0765274316,0.0112115499,-0.0041406797
10.2885627747,-0.0026596508,0.0012979214,0.053512115,-0.0739295259,-0.0331954584,0.0170744602
10.2986860275,-0.0005753955,0.0204179585,0.0440976806,-0.112239629,-0.045340538,-0.004157857
