0.0000000000,-0.0007880744,0.0060509555,-0.0025546509,0.0335282572,-0.0119863525,-0.0106657855
0.009765029,-0.0006315451,0.0014177079,-0.0002548055,0.0441990122,-0.0119000664,-0.01173025
0.0198169947,-0.0014625009,-0.001235116,0.0011277242,0.0527056791,-0.008621715,-0.0085453764
0.0298810005,-0.0014045801,-0.0029127484,0.0044477028,0.0409623384,-0.0055010887,-0.0010999102
0.0413399935,0.0005407739,-0.007527519,0.0106300162,0.0377019644,0.0008636663,0.0031522922
0.0506789684,-0.0014345463,-0.0063987859,0.0050432128,0.0259417109,0.002876217,0.0020944849
0.0609099865,-0.0024712202,-0.0111340173,0.0013324661,0.0205869451,0.0049650674,0.0042208857
0.0725870132,0.0004365179,-0.008128155,-0.0004732566,0.0142374365,-0.0003958759,0.0042198207
0.0808879137,-0.0015419092,-0.0061003454,-0.0013465838,0.0099448729,0.0016755975,0.0020977473
0.0909069777,-0.0035131914,-0.004131604,-0.0042129117,0.0024968106,-0.0005047324,0.0031603486
0.1005430222,-0.0044793603,-0.0070506819,-0.0042176801,-0.0048784399,-0.0101399161,-2.78547e-05
0.1105909348,-0.0014843236,-0.00511216,-0.0003206687,-0.003790007,-0.0122526018,-2.91863e-05
0.1207219362,-0.0033664671,-0.0002637391,0.0035210294,-0.0070050554,-0.0112611735,-0.0063986019
0.1309709549,-0.0022807983,0.0026013369,0.0015357776,-0.0016997717,-0.0080107851,-0.0032129288
0.1408989429,-0.0012255575,-0.0022821908,0.0015202804,-0.0049570845,-0.0027683529,-0.0085184779
0.1507419348,-0.003095251,-0.0071704872,-0.000447567,0.0025240015,-0.0037571846,-0.0074590724
0.1607840061,0.0028207931,0.0043791048,-0.0016758995,0.0121606505,-0.0068493802,-0.006401265
0.1710569859,0.0046942341,0.0057916753,0.0059117121,0.0164728407,-0.0110422615,-0.0042808563
0.1809589863,0.0033369693,0.00142492,0.0105993794,0.0196218677,-0.00570249,-0.0032170564
0.1909819841,0.0020325738,0.0021593089,0.0063078445,0.0249282159,-0.002438254,0.0020922213
0.2012349367,0.0021713856,-0.0054722913,0.0022566956,0.0163838919,-0.0014530174,0.0020960828
0.211566925,0.0031198743,-0.0060217865,-0.0033856588,0.0195650384,0.0007108008,0.0042199539
0.2213699818,0.0009555403,0.0015823955,-0.0007799821,0.0077594304,0.0069541158,0.0010400728
0.2314599752,0.0009779815,-0.0012107973,0.005241279,-0.0029033339,0.0057722051,-0.0032050058
0.2415950298,0.0005095113,-0.0003272777,0.0069394154,-0.025386164,0.0130172018,-0.0010719472
0.2519569397,-0.002752569,-0.0056965835,0.0071336073,-0.0085406061,0.0293876529,-0.1168041453
0.2615069151,-0.1293062568,-0.0100767501,-0.0047193724,0.1676559895,-0.0999587476,-0.3367065489
0.2715399265,-0.2315438837,-0.0367669947,-0.0105559779,0.1906310916,-0.0487008914,-0.3175743818
0.2815469503,-0.0839584395,-0.0260015018,-0.0061397511,0.0252623651,-0.037729729,-0.0403960496
0.2917659283,0.0286255218,-0.0081834681,-0.0072826105,-0.0241280869,-0.0061068251,-0.0063901469
0.3017039299,-0.0182729624,0.0015855546,-0.0034912187,0.0239822362,-0.0140844574,0.0073961061
0.3117729425,0.0053296345,0.0074927919,-0.0071862894,0.0326012895,-0.022539461,0.0010189008
0.3218089342,-0.0034490866,0.0026967044,0.0064871949,0.0346136279,-0.0108765466,-0.0032239142
0.3318049908,-0.0072474373,0.0047853701,0.0125149535,0.0473259613,-0.0011810421,0.0020866953
0.3419619799,0.0032372358,0.0056950562,0.0106815146,0.0376923494,0.001895841,-0.0010932523
0.3520319462,0.0122044273,-0.0058154352,0.0126575278,0.0301771741,0.0060399859,-0.006398269
0.3621100187,0.0152282156,-0.0035426503,0.0077593965,0.0163159799,0.0048859715,-0.0021485966
0.3720469475,0.015968632,-0.0041668303,0.0021332544,0.0067959786,-0.0036997937,-0.0042740651
0.3822609186,0.0159889944,-0.007170666,-0.0018629985,-0.0027872464,-0.0059055565,-0.0042728665
0.3922629356,0.0132054947,-0.0062726028,-0.0040461379,-0.0102065457,-0.0113104414,-0.0095826769
0.4023489952,0.010796424,-0.0036302095,-0.0025861817,-0.005936808,-0.011302053,-0.0138297528
0.4125629663,0.0105438419,-0.0010698324,0.005584721,-0.000601165,-0.0112554478,-0.0138310846
0.4224879742,0.0131283887,-0.0042596944,0.0071049971,0.0025850683,-0.0101577593,-0.0127713475
0.4325460196,0.0138244964,-0.0043569095,0.0117856311,0.0089857094,-0.01012953,-0.0170201547
0.4426259995,0.0155641548,0.0005173797,0.0078761624,0.0186174847,-0.0121627869,-0.0159597509
0.4528059959,0.0143169947,-0.0002618318,0.0003405256,0.0304096956,-0.0173583478,-0.0149035389
0.4629909992,0.0140818991,-0.0028592234,-0.0011586504,0.035683848,-0.0109465877,-0.014900811
0.4732189178,0.0109435059,-0.0044177063,0.0061415476,0.0431196578,-0.0077260267,-0.0191482864
0.4831719398,0.010811951,0.0026871676,0.0113984393,0.0356599838,-0.0088378964,-0.0170238819
0.4933329821,0.0117169581,-0.0059845932,0.0095714377,0.0313690975,-0.0067670224,-0.0191453565
0.5033419132,0.0125131346,-0.0088482387,0.0028303906,0.0228517763,-0.0089345686,-0.0148984138
0.5133169889,0.0113191195,-0.0079459436,0.0007591291,0.0121480003,-0.0058516939,-0.0159559548
0.5233659744,0.0110702477,-0.0051168688,0.0025141877,-0.0016895719,-0.0091498867,-0.0148913572
0.5333069563,0.0099407695,-0.0032330041,0.002412979,-0.0069943219,-0.0123933498,-0.0170152262
0.5435569286,0.0107717626,-0.0003573184,0.0003818317,-0.013429584,-0.0092731901,-0.0180738326
0.5535600185,0.00872932,-0.0014528518,0.0031117841,-0.0123826955,-0.0071280138,-0.0159494299
0.5636049509,0.0076489183,-0.001670528,0.0027858657,-0.0113255009,-0.0060508316,-0.0148872947
0.5736409426,0.0074932459,0.001146924,0.0055149239,-0.0102999173,-0.001783649,-0.0127618257
0.5839459896,0.0062894034,-0.0075819381,0.0064917249,-0.0028710831,0.0025606325,-0.0074529476
0.5941179991,0.0109991841,-0.0065665729,-0.0012204008,0.0046952246,-0.0069162259,-0.0063978033
0.603894949,0.0108778588,0.0002838487,-0.0070172506,0.0079597272,-0.0132397693,-0.0042788591
0.6139509678,0.00682174,0.0013100619,-0.0021344381,0.0026235515,-0.013293298,-0.0053393301
0.6240289211,0.006727207,0.0013749117,0.0027916476,0.017610969,-0.0174014904,-0.0042817886
0.6340879202,0.007693659,0.0101910345,0.0019154592,0.0143738976,-0.014294913,-0.0117120072
0.644127965,0.0038059982,-0.0062768944,0.0058898968,0.0133029325,-0.0143242087,-0.0148979472
0.6541889906,0.0068276632,-0.0053166039,-0.0008853035,0.0186257921,-0.0132442955,-0.0191459563
0.6642699242,0.0079043321,-0.0023360734,-0.002730127,0.0175662544,-0.0132420994,-0.0170197543
0.6743659973,0.008864332,-0.0051296838,-0.0005887704,0.0122401984,-0.0143635571,-0.0191425607
0.6844329834,0.007931482,-0.0021263247,-0.0004696803,0.0079633752,-0.0144192167,-0.0223292988
0.6945480108,0.0060716677,0.0008139128,-0.0004332619,0.0090107964,-0.0122671165,-0.0191430915
0.7045409679,0.0041766944,0.0027564878,0.0005220218,0.0067819972,-0.0027443178,-0.0201989021
0.7145730257,0.0012249384,-0.0031502133,0.005279426,0.0024170764,0.0067605041,-0.0212548468
0.7248020172,0.0051822322,-0.0041478164,0.0004002495,0.0045545828,0.0068064434,-0.0170077719
0.7357079983,0.0080660395,0.0007635469,-0.0072849947,0.0142183946,0.001668407,-0.0042712023
0.7472590208,0.008910384,0.0028194899,-0.0051988917,0.0184990019,0.0006584032,-0.0021490625
0.7550309896,0.0097497441,0.0068653338,-0.0021063644,0.0217541829,-0.0046117259,-0.0010907222
0.7650879622,0.0067074928,0.004071068,-0.0019520478,0.0163564608,0.0017141467,-2.39266e-05
0.7748349905,0.0007026676,-0.0065862425,-0.0019167619,0.0003399439,0.0026491825,0.0021042055
0.7849760056,0.0035284641,-0.0066262968,-0.0048831063,0.0024507651,0.0048119356,0.0052888133
0.7950119972,0.0053751427,0.0060141198,-8.24885e-05,0.0002946695,0.0069083762,0.0042286091
0.8050749302,0.0052035335,0.0030942673,-8.03428e-05,0.0003297171,0.0037456062,0.0074129505
0.8152329922,0.0049870196,0.0041337125,0.0028677029,-0.0007688366,0.006926219,0.0084766168
0.8253859282,0.0018020828,-0.0046311505,0.0028356358,-0.0103625022,0.0057742689,0.0074168122
0.8364059925,0.0026120874,-0.0027516966,-0.0002065854,-0.0028537195,0.0015470334,-1.97986e-05
0.8456509113,0.00349516,0.0127853863,-0.0022217589,-0.0017563365,-0.0016189325,0.0010393405
0.8555489779,0.0044815573,0.005998861,-0.0060495096,0.0025222981,-0.0026495759,-2.40597e-05
0.8659549952,0.0034642401,0.0031662101,-0.0040077525,-0.0006806068,-0.0026698825,0.0010378092
0.8758659363,0.0004818547,-0.0017098074,-0.0040259319,0.0089437915,-0.0047218478,-0.0010892577
0.885972023,0.0004542056,0.0041836612,-0.0049297768,0.0175065473,-0.0067566363,0.0010323497
0.89585495,-0.0005520996,0.0071715824,-0.0019368486,0.0164175797,-0.004650875,-2.81211e-05
0.9062809944,-0.0015585389,0.0014631862,0.0030939621,0.0227956381,-0.0024574955,0.0020933528
0.9160779715,0.0023097578,-0.0023006683,0.001366262,0.0259869024,-0.0013616045,0.003154889
0.926052928,0.0012636591,-0.0031722074,0.0005286379,0.0259944685,-0.0013429623,0.0063424264
0.936087966,0.0030745747,-0.0040008314,0.0045820517,0.0099246874,0.0048970906,0.0084732212
0.9461289644,0.0038961205,-0.005925823,0.0036358878,-0.00185546,0.0090524871,0.0106018204
0.9569000006,0.0027495134,-0.0010654812,0.0026281518,-0.0071570147,0.0058505684,0.0148487631
0.9680099487,0.0006386075,-0.0049950965,0.000594501,-0.0072238054,0.0121891582,0.0106044821
0.9762300253,0.0005186606,-0.001173008,-0.00145721,-0.0040005818,0.0101020392,0.0116644204
0.9865429401,0.0023700851,-0.0002268439,-0.0044339853,0.0088916197,0.00173958,0.0137807019
0.9975159168,0.008164648,0.0027576203,-0.007239576,0.0153657645,-0.005673063,0.0074045616
1.0072399378,0.0032040062,-0.0010351425,-0.0080860807,0.0143880127,-0.0141363228,0.0127101112
1.0165590048,0.0089886524,-0.0047881491,0.0008441849,0.0197582766,-0.0172381047,0.0180161931
1.0264849663,0.0059421915,0.0021703953,0.004900102,0.025062548,-0.0140158143,0.0169550572
1.0366690159,0.0038293037,-0.0015638953,0.0060764593,0.0271041282,-0.0044065965,0.0233301315
1.0468919277,0.0026684287,-0.0072439201,0.0052971882,0.0163760874,0.000792227,0.0212109871
1.0569620132,0.003475118,-0.0051796921,-0.0013519482,0.02703619,0.0019395167,0.0201470554
1.0670800209,0.0052693742,0.0017588253,-0.0040987688,0.0195459146,0.0039461423,0.0127190324
1.0770850182,0.0011030767,-0.0019829755,-0.0010338383,0.0162603743,0.0124200545,0.0148476977
1.0871139765,0.0028638127,0.005905401,0.0029768986,0.0066737123,0.0101870606,0.0106012207
1.0970020294,0.0035956162,-0.0037668233,0.0049510044,0.0024169153,0.0091026211,0.0127253579
1.1073030233,0.0023991796,-0.0067349561,0.0029222411,-0.006078328,0.0048056776,0.015909899
1.1171039343,0.0061203795,-0.0126723535,-0.0030723766,-0.0188945234,0.005754828,0.015913628
1.1272319555,0.0039760205,-0.0127769597,-0.0032529789,-0.018895803,0.00574817,0.014851559
1.1372489929,0.0008251924,-0.0031216627,0.0014362378,-0.0210497659,0.0078723077,0.0180385653
1.1474230289,0.0015911047,-0.007121671,0.0002845569,-0.0253069624,0.0067453235,0.0137928864
1.1573599577,0.0034134495,-0.0004337912,-0.0028152424,-0.0199617334,0.0057170773,0.0116674174
1.1674189568,0.0003372613,0.003348958,0.0028156086,-0.0156935118,0.005733123,0.0084814113
1.1774020195,0.0011617426,0.0013497586,0.0017261548,-0.0092566507,0.0026337362,0.012725424
1.1877310276,0.0029736641,-0.007409025,0.0007560892,0.0024910858,0.0016828545,0.0137830982
1.1976389885,0.0047773751,-0.012157727,-0.0010247187,0.0142721105,-0.0024586271,0.0137780383
1.2079780102,0.0075563374,-0.0071371682,-0.0018085198,0.0143096615,-0.005593833,0.0212097224
1.2178900242,0.0064397189,-0.0099668391,0.0031588119,0.0121855233,-0.0066804034,0.0201479197
1.2280409336,0.0033600884,-0.0049908049,0.0032727763,0.012149252,-0.0034887379,0.0212095901
1.2381019592,-0.0017174002,-0.0078412183,0.0052716774,-0.0017569764,-0.0004476742,0.0180292428
1.2494199276,-0.0018472638,-0.0108260997,0.0061259312,-0.016741652,0.0036239661,0.0116646206
1.258458972,-2.947e-07,-0.0041640289,0.0058884067,-0.0285146888,0.0066698231,0.0063601364
1.2683849335,0.0018601228,0.0005138034,0.0027070087,-0.0413545072,0.0097133508,0.0021176543
1.2783750296,0.0027214545,-0.0026333218,0.0013940377,-0.0552623272,0.0127336411,-0.0042480994
1.2884999514,0.0007345561,-0.0058387406,-0.0029142457,-0.0445064381,0.0043034717,-0.0095633026
1.2983130217,-0.0002233949,0.0007454867,-0.0032426075,-0.0359172113,-0.0009408251,-0.0116917016
1.3084329367,0.0008201483,0.0024861807,-0.0025366503,-0.0316497087,-0.0009316371,-0.0159395766
1.3185639381,3.3412e-06,0.0033090825,-0.0027447897,-0.0209358111,-0.0050824396,-0.015944371
1.3286299706,0.0011146177,0.0032319541,-0.0018532233,-0.0070846826,-0.0028249451,-0.0138236284
1.3386110067,0.0021622959,0.0022499079,0.0059071821,0.0025216052,-0.0027133587,-0.0095788166
1.3490079641,0.0041726786,0.0022680874,0.0059582037,0.0100459941,-0.0079322224,-0.0063980692
1.3587110043,0.0042167339,-0.0005441194,0.0031949326,0.0228217095,-0.0046096621,-0.0021524583
1.3687969446,0.0062187496,0.0015559907,-0.001412745,0.0292621925,-0.0077316859,-0.0010919872
1.3788319826,0.0052850577,0.0027083273,0.0007837458,0.0282174349,-0.0098491665,0.0010308184
1.3888959885,0.0033316198,-0.0010307913,0.0029348179,0.0197008848,-0.0120241027,0.0042164251
1.398976922,0.0043038013,1.34224e-05,0.001099412,0.0079326425,-0.0089159273,0.0084681613
1.4090479612,0.0042811367,-0.0009175425,0.0050450009,0.0036923839,-0.0121420147,0.0074046948
1.4191039801,0.0013283897,-0.0009453779,0.0040096086,-0.0037769834,-0.0122003378,0.0084683616
1.4292140007,0.0013116408,-0.0039382465,2.53959e-05,-0.0101127252,-0.018609168,0.0105911009
1.4393429756,0.0032506618,-0.0049758442,-0.0020046192,-0.0101239104,-0.0175550878,0.0095298309
1.449450016,0.0032192725,0.000828516,-0.0010837273,-0.0015660273,-0.0195810217,0.0127113089
1.4595799446,0.0041272598,0.00084902,0.0008678479,0.0016683815,-0.02272222,0.0148325171
1.4696040154,0.0001854483,-0.0020146256,0.0019109292,0.0144329928,-0.0183669534,0.0148320515
1.4795110226,-0.0018285926,0.0019735212,0.0020307344,0.0175917689,-0.0140949758,0.0148333833
1.4897450209,-0.0039003533,-0.0027700549,0.0070319218,0.015405206,-0.0088160587,0.0137753095
1.4995459318,-0.004928675,0.0060520284,0.0071052355,0.0132581657,-0.007801394,0.009529165
1.5097060204,-0.002026197,0.0012618417,0.0004375024,0.0132583519,-0.0078014606,0.0095292311
1.5197739601,0.0008650828,-0.0044663437,-0.0023270804,0.0154021969,-0.0088576712,0.0074045621
1.5298299789,0.0017952804,-0.00437342,-0.0022022682,0.0175594632,-0.0109189562,0.0137732448
1.5398979187,0.0017371882,-0.0071725138,-0.0010712104,0.0197587013,-0.0172524862,0.0158931222
1.5499939919,-0.0002914932,-0.009981323,-0.0018705087,0.0176177863,-0.0161830951,0.0201420616
1.5601329803,-0.0032839146,-0.0108440407,0.0021376652,0.0186929051,-0.017269399,0.0148322508
1.5700989962,-0.0032953662,-0.004907418,0.0042054695,0.01547,-0.0151681639,0.0158956517
1.5803369284,-0.0003427085,-2.69299e-05,0.0023090881,0.0100789629,-0.0099374484,0.011652437
1.5904029608,-0.0003355857,-0.0048464425,0.0023570103,0.0036846073,-0.0111033805,0.0042214184
1.6004499197,-0.0003228601,-0.0087190755,-0.0014839725,0.0047080601,-0.0068638953,0.0020996779
1.6103829145,-0.0012848045,-0.0057773478,-0.0014426665,0.0014929324,-0.0058510951,-0.00108493
1.620423913,0.0026417258,-0.0076673515,0.0015738053,0.0110438261,-0.0004621884,-0.0010846637
1.6305149794,0.0026593241,-0.0085500367,0.0016887231,0.0089294091,-0.0026094285,-0.0021473316
1.6405659914,0.0037236544,-0.00944959,-0.0049908715,0.0228766501,-0.0099152783,-0.0021545221
1.6506599188,0.0057866382,-0.0102832206,-0.0057303268,0.0293240845,-0.0141040981,-0.0021575182
1.6606999636,0.0039338949,-0.0072458871,-0.0045773941,0.0207859911,-0.0141925141,-0.0042789923
1.6709369421,0.0049923989,-0.0042173155,-0.0015060859,0.0164827742,-0.0110600386,-0.006400533
1.6810059547,0.0041150185,-0.0070391186,-0.0013577895,0.010090122,-0.0121838925,-0.0074612694
1.6910719872,0.0032586637,-0.0137963779,-0.0061024386,0.0090387594,-0.0132275848,-0.0032132617
1.701135993,0.0023493278,-0.0088526495,-0.0040426212,0.0153872035,-0.0078804903,-0.0053358013
1.7112079859,0.0014040802,-0.0087627657,0.001899962,0.00575929,-0.0058343839,-0.0042716023
1.7212740183,0.0024216953,-0.0145414956,0.0029696268,0.0089393705,-0.0036844136,-0.0042713359
1.7313289642,0.0043921205,-0.0057345517,0.0011072202,0.0025043478,-0.0005785685,-0.0074530812
1.7414159775,0.003471199,-0.0164332874,0.0001520558,-0.0017449921,-0.0027655563,-0.0117002903
1.7514619827,0.001580048,-0.0145336278,-0.0076483446,0.0035788529,-0.0016504242,-0.0106398854
1.7615269423,-0.0003253188,-0.003813315,-0.0086135222,0.0003987718,-0.003800394,-0.0106401518
1.7715879679,-0.0022152406,-0.0056877024,-0.0026878077,0.002500752,-0.0006128568,-0.0127624245
1.7816519737,-0.0060437215,-0.0027558689,-0.0055736261,0.0067128078,0.0046878988,-0.0191316418
1.7917100191,-0.0030034524,-0.0026835685,-0.0064139324,0.0216619819,0.0037507326,-0.0201979708
1.8017849922,-0.0057910201,-0.0015951877,-0.0110954,0.0237834565,0.0048026815,-0.0244451817
1.8118879795,-0.0007659611,-0.0005090719,-0.0079868985,0.0206590109,-0.002638923,-0.0223240387
1.8219269514,0.0033008787,0.0015588517,-0.0048527676,0.0174363181,-0.0005448796,-0.0223221742
1.8319979906,-0.0014163296,-0.0080596693,-0.0095279766,0.0163701493,-0.0005616576,-0.0233831778
1.8420609236,0.0007186789,-0.0089547522,-0.0093826009,0.0121021671,-0.0005920175,-0.0223203097
1.8521280289,0.0018206869,-0.004988838,-0.0024759728,0.0045387363,0.0089122709,-0.019127978
1.8621969223,0.0019507963,0.0028007741,-0.0005210595,0.0002925927,0.0067668292,-0.0170043744
1.8722559214,9.00883e-05,-0.0011027341,-0.0014848666,-0.0061603002,0.0120219123,-0.0159373786
1.8824179173,0.0001813654,-0.007017184,-0.0015691476,-0.0179530438,0.0172105487,-0.0180553906
1.8923939466,-0.0007681441,-0.0042011626,-0.0036570386,-0.0158981495,0.0246436968,-0.0201771315
1.9024459124,-0.0027446863,0.0015210623,-0.0028503495,-0.0190990008,0.0246226583,-0.0191145297
1.9125289917,0.0021844613,-0.0004963761,-0.003916617,-0.0168347023,0.011915585,-0.0180590525
1.9226620197,0.0002991739,0.0023262615,-0.0108305169,-0.0146349305,0.0055889795,-0.0148773734
1.9326789379,0.0033616754,0.0003087039,-0.0138015701,-0.0081177233,-0.0060393806,-0.0170090348
1.9427589178,0.0054747197,0.0041789524,-0.0089586927,-0.0016478393,-0.0123079289,-0.0106430156
1.9528529644,0.0007131878,0.0041800849,-0.0041012722,0.0025568651,-0.0059331199,-0.0148872957
1.96309793,0.0008162591,-0.0045130141,-0.0020450312,0.0089431256,-0.0036928693,-0.0053316066
1.9730470181,-0.0020973724,-0.0024704223,0.00194097,0.0131159537,0.005893379,-0.0053278115
1.9830319881,-0.0050715772,0.0005453939,0.0098425196,0.016222531,0.0154842203,-0.003200212
1.9930889606,-0.0031722453,0.0045191161,0.0079950141,0.0065928856,0.0174953733,-0.0074446918
2.0031609535,-0.000279088,-0.0013020521,0.0041433019,-0.0019867541,0.0216648187,-0.007440431
2.0132279396,-0.0013193231,-0.0071871169,-0.0046644169,-0.0126783857,0.0236861575,-0.008497972
2.0232868195,0.0015512366,-0.0053580292,-0.0096613122,-0.020063065,0.0151328836,-0.0085003693
2.0333189964,0.0054555195,-0.0015680676,-0.0059353071,-0.0199897774,0.0076992018,-0.0095661655
2.0435729027,0.0025313082,0.0022432918,-0.0002373414,-0.0157212615,0.0077364859,-0.0095672309
2.0537137985,0.0005859021,0.0031331296,0.0035346192,-0.0093387021,0.0099211438,-0.0085057616
2.0635328293,0.000636268,-0.0037500148,0.0024715108,-0.0039716335,0.0067778146,-0.0095704943
2.0736498833,-0.0012690987,0.0039755218,-0.0005239801,0.0002524592,0.0110455304,-0.0116932988
2.0837259293,-0.0002617654,0.0059139244,0.0043062014,-0.0030037872,0.0163018107,-0.0148752443
2.0937559605,0.0027064416,-0.003798533,0.0043535274,0.0024186745,0.0078811627,-0.0116954297
2.1037809849,0.0027487609,-0.0067074187,-0.0014197783,-0.0018711453,0.0099658845,-0.0116932988
2.113697052,0.0027376893,-0.0086379535,0.0044137281,-0.0029260237,0.0089163333,-0.0085081579
2.1238040924,0.0046854052,-0.006744016,0.0033741039,-0.0071929414,0.008899821,-0.0053216866
2.1338720322,0.0027333009,-0.0038989072,0.0032609147,-0.0103746187,0.0067290785,-0.0085073588
2.1440811157,0.0027321535,-0.0020297056,0.0041182083,-0.0147085143,0.013051223,-0.0095652342
2.1541509628,-0.0011777323,-0.0040649064,0.0049434942,-0.0115049174,0.0130855115,-0.0085036308
2.1640589237,0.0027559134,0.0006961937,0.0028781933,-0.0093711922,0.0130972294,-0.0095659662
2.1742749214,0.0008035484,0.0006188268,0.0008370919,-0.0061083157,0.006760038,-0.0095708268
2.1843338013,0.0037564742,-0.0013241654,-0.0020832974,0.0014281645,0.0004938864,-0.0042668749
2.1944069862,0.0027640196,-0.0013256555,-0.0020663696,0.0003454555,0.0026187559,-0.0021402743
2.2044689655,0.0037328932,-0.0042227991,0.0018439336,0.0025095409,-0.0005733089,-0.0063896137
2.2145700455,0.0018106733,-0.0022579913,0.0008954449,0.0089348424,-0.0026184835,-0.0032070032
2.2245929241,0.0018744726,0.0074980967,0.0009419961,0.0089849103,-0.007965046,-0.0095804809
2.2347140312,0.0010142807,0.0017067904,0.0029459042,0.004682201,-0.004818521,-0.0095786154
2.2447800636,-0.0008455333,0.002668571,0.0048804325,0.0003668144,-0.0006671855,-0.0180698391
2.2548499107,0.0012552027,0.0045673959,0.0009773417,0.0014540767,-0.0027652234,-0.0159483645
2.2648649216,0.002352837,0.0036143775,-0.0038396076,0.0099495612,0.0015672068,-0.01382476
2.2750029564,0.0063484493,0.0017280693,-0.0046939808,0.015259292,0.0048231212,-0.0095758867
2.2850840092,0.0034125554,0.0037378187,-0.0036508993,0.0067025553,0.0068913316,-0.0063872836
2.2950620651,-0.0005294349,0.0018079395,0.0012246413,-0.0040108096,0.0110490592,-0.0053206878
2.3051249981,-0.0005660471,0.0017923827,0.0031280559,0.0002811411,0.0089920331,-0.0010756089
2.31518507,0.0003667656,0.0056396239,0.0040202183,-0.0115106171,0.0141660888,-0.0053164931
2.3252639771,0.0013177503,0.0016218538,0.0009434266,-0.0157578252,0.0120067978,-0.0053164931
2.335367918,0.0051892581,0.0073235147,-0.0021596509,-0.0242991969,0.0119480081,-0.0031926888
2.3454020023,0.0022012922,-0.0045051463,-0.0014200764,-0.0306902491,0.0108449273,-0.001068019
2.3555049896,-0.0008130338,-0.0027050858,0.0022268337,-0.0253291726,0.0087609375,-0.0021305536
2.3655269146,0.0010927428,-0.0008995419,0.0020309729,-0.0231395215,0.0035022595,0.0021134599
2.3756639957,0.0020281258,-0.0029804592,0.0008595033,-0.0242059045,0.0034926722,0.0021139926
2.3856759071,-0.001899537,0.0066242926,0.0016381784,-0.0145921605,0.0025017099,-1.25415e-05
2.3957800865,0.0009993498,0.0075222366,0.0054147881,-0.0092146518,-0.001695432,-1.627e-05
2.4057779312,-0.0019255545,-0.0051617511,0.0014908357,-0.0006659059,-0.0026680182,0.0021046714
2.415927887,-0.0009129014,0.0103769414,0.0033834619,0.0003861766,-0.0016672688,-0.0085127521
2.4259181023,0.0010775287,0.0016664381,0.006381039,0.0099929972,-0.0015487585,-0.0032061376
2.4360439777,0.0001171264,0.0007537121,0.0035601896,-0.0006476892,-0.0048102653,-0.0010823333
2.4461040497,0.0030873301,-0.0011287814,0.0075519723,0.020665057,-0.0014131365,0.0031611475
2.4561469555,0.0030786651,-0.0019990688,0.0018551393,0.0131612532,0.0016768625,-0.001082533
2.4660968781,0.0020770091,-0.0068353303,0.0048060459,0.0025022179,0.0005434211,0.0021050044
2.4762690067,0.0039821523,-0.0009952073,0.004811768,0.0067513711,0.0027304755,0.0063521471
2.4864029884,0.0010009516,0.0029190297,0.0019131942,0.0046394849,0.0006036751,0.0084752189
2.4963841438,0.0009448263,-0.0116685517,-0.0009953337,0.0035858043,-0.0004676478,0.0084759519
2.5064530373,-0.0001019132,-0.0048496611,0.0009502216,0.0036294805,-0.0046978127,0.0105974255
2.5165281296,0.0008226964,0.0039193146,0.0048347753,0.0015024403,-0.0058046896,0.0063497503
2.5266909599,-0.0001575094,-0.0009572392,0.0009278102,0.0036446871,-0.006881672,0.0010396733
2.5366578102,-0.0011209886,0.0019794221,-0.0029228884,0.0090021677,-0.0089501487,0.0020990788
2.5467338562,-0.0011141117,0.0049847476,0.0069017452,0.012158813,-0.0047058687,-0.0021467987
2.5567998886,-0.00108007,0.0021593089,0.0080039548,0.0164658632,-0.0089182574,-0.003213062
2.5669398308,0.0009256038,0.0012546296,0.0061831516,0.0164786465,-0.0099515636,0.0010336147
2.5769369602,2.6334e-06,-0.0054712184,0.0014718814,0.0090264287,-0.0110660968,0.0031606813
2.5870051384,0.0009975914,-0.0093385465,-0.0004293279,0.0004798127,-0.0100658135,0.0052869497
2.5971078873,0.0009904165,-0.0083811171,-0.0004576402,0.0005025025,-0.012159857,0.009532827
2.6071410179,-8.6841e-06,-0.0035045629,0.0014892264,-0.0005955184,-0.0089723198,0.011658296
2.6172759533,0.0009013597,-0.007414151,0.0063157124,-0.0124106864,-0.0016612767,0.0095409499
2.6272749901,-0.0020932001,-0.0094454773,0.0022877497,-0.0060302848,0.0005028078,0.0074168122
2.6374049187,-0.0040894491,0.0011918659,0.000232224,-0.0060394192,0.0015561547,0.0063562747
2.6474130154,-0.0041273278,-0.0007793193,0.0040657562,-0.005030348,0.0068081748,-0.0031975491
2.6575319767,-0.0002002459,0.0059951656,0.0001381083,0.0014337311,0.0004990129,-0.0032032747
2.6675291061,0.0057354155,0.0079791062,-0.0084888292,0.018603662,-0.0089008808,-0.0032123295
2.6776399612,0.0048266011,0.0042407624,-0.0082607223,0.0335663669,-0.0108716199,-3.17163e-05
2.6876740456,0.0048889476,-0.0003787165,-0.0040328461,0.0410575718,-0.0129283797,-3.46458e-05
2.6978099346,0.0030386928,-0.0020802503,-0.0055993753,0.0485691279,-0.0170996878,0.0010226292
2.7078061104,0.0001688111,0.0050298683,-0.0051857191,0.0528493598,-0.0181095582,0.0031446358
2.7179460526,-0.0007252213,-0.0024359112,-0.0027931887,0.051772479,-0.017051084,0.0042073703
2.7279419899,0.0003236565,-0.0031407361,-0.0052899676,0.0485396683,-0.0138891144,0.0052715694
2.7380681038,0.0013171021,-0.0038619523,-0.0010418253,0.0357091203,-0.0107848672,0.0105869062
2.7480168343,0.0002222914,-0.0075484402,0.0040698093,0.0206766408,-0.0013247863,0.0169662423
2.7581739426,-0.0018632602,-0.011351157,0.0022411984,0.0142505933,0.0007206546,0.0137833655
2.7682118416,0.0009315122,-0.0045276172,-0.0026190239,-0.0081585757,0.0005318364,0.0148507608
2.7783050537,0.0017827261,-0.004611481,-0.0017874198,-0.0327187032,0.0013590808,0.0116706137
2.7882449627,0.0016672943,-0.001950789,-0.0031348423,-0.048779428,0.0065173572,0.010615468
2.7984099388,-0.0003763702,-0.0022420173,-0.0074699479,-0.0573053509,0.0053602802,0.0074323919
2.8084731102,-0.0024151993,-0.0005830412,-0.0049831229,-0.0488013439,0.0086040106,0.0053082546
2.81854105,-0.0034655896,0.0078923218,-0.0044134217,-0.0445260406,0.007567442,0.0031820533
2.8286049366,-0.002578978,0.003810596,-0.0017879562,-0.0274397302,0.0066763479,0.0063626664
2.8387150764,-0.0026376736,0.0104863159,-0.0049073654,-0.0168125723,0.0109714279,-8.0807e-06
2.8487849236,-0.0017245527,0.0075195543,-0.0049768644,-0.0017859517,0.0026346683,0.0031693368
2.8588080406,0.0011854653,0.003664505,-0.0078308536,0.007882975,-0.0036264232,0.0063488847
2.8688759804,0.0001714039,0.0008311386,-0.0067454535,0.0142841497,-0.0035912695,0.0031618797
2.8789420128,-0.0028401581,4.0645e-06,0.0002200647,0.0185045935,0.0018060923,0.0116582289
2.8890190125,-0.0010175075,-0.0018079167,0.0062387628,0.0152936196,0.002852981,0.0137831653
2.899107933,-0.0011240806,-0.0055971034,0.0034484905,0.0152522866,0.0071036527,0.0148473643
2.9091310501,-0.0003413376,-0.0026217585,0.0025261086,0.0013178289,0.013376195,0.0191012323
2.9192759991,0.0013835464,-0.0094325431,0.0054039401,-0.0114764217,0.0122315688,0.0233505704
2.92928195,-0.0027775583,-0.0085661896,-0.0015873866,-0.0254018251,0.0174223371,0.0244184993
2.9394090176,-0.0020848406,-0.0038309579,-0.0008610444,-0.0286060572,0.0173598174,0.0191102196
2.9494018555,-0.0023561534,-0.006865073,0.0018533511,-0.0232693516,0.0174202714,0.0212324914
2.9594941139,-0.0025668857,-0.0050544031,0.0006609602,-0.022120811,0.0089144688,0.0169801582
2.969974041,0.001201633,-0.001276124,-0.0033941227,-0.012409593,-0.001604751,0.0180342365
2.9798760414,0.0050116661,-0.0012900119,-0.0073084789,0.0015450772,-0.00890614,0.01909131
2.9897370338,0.0039606648,0.0036240334,-0.0082250787,0.0133362236,-0.0141155496,0.0180239156
2.9997859001,0.0029217708,-0.0011443978,-0.0032312826,0.0091178557,-0.0194709674,0.0158979818
3.0098128319,-2.07391e-05,-0.0087935217,0.001782064,0.0176431667,-0.0183492433,0.0137727791
3.0198769569,-0.0049653468,-0.0047827251,0.0038666769,0.016495185,-0.00984364,0.0180253144
3.0299270153,-0.0070519862,-0.0124334581,0.0146974372,0.0089166276,0.0006734498,0.0137852961
3.0400140285,-0.002265994,-0.0075146444,0.0109033631,0.0152750043,0.004952684,0.0106003555
3.0500850677,-0.0003872481,-0.0055140741,0.0012610598,0.0067246594,0.0059044976,0.0052940063
3.0602099895,-0.0024216291,-0.0142457373,0.0013006373,-0.0050384961,0.0078967419,0.001050326
3.0701470375,-0.0014865365,-0.0094197281,-0.0016758995,-0.0028951839,0.0068336078,-0.0021361462
3.0803098679,0.0014485676,-0.0065299757,-0.004626866,-0.007100529,0.0004305698,-0.0021385429
3.090348959,-0.0004993793,-0.007526923,-0.0017594652,-0.0092134802,-0.0017100791,-0.0021390757
3.1004171371,-0.0034054336,-0.0085873492,0.0019975943,-0.0199423954,0.003474829,-0.0063817576
3.110432148,-0.00435051,-0.0106567033,0.0037568852,-0.0188321248,-0.0007529391,-0.0053223521
3.120527029,-0.0033040014,-0.0059099682,0.0026398939,-0.0113844099,0.0014204,-0.0074466886
3.1306810379,-0.0022802842,-0.0079135187,0.0016149326,-0.0049811052,0.0014832506,-0.0063864845
3.1406769753,0.0017067675,-0.0069273002,-0.0022295672,0.0100242896,-0.0047528739,-0.0063928096
3.150744915,-0.0011594783,-2.34132e-05,-0.0021096426,0.0185293611,-0.0014952952,-0.0063933423
3.1608190536,-0.001075026,-0.0028277521,0.0019480033,0.0110853994,-0.0047769751,-0.0117032863
3.1709508896,-0.0038990197,-0.0047230609,0.0030053302,0.0046384195,-0.000609661,-0.0148849655
3.1809458733,-0.0027816114,-0.001797307,0.0030273243,0.0014201747,0.0014899087,-0.0138198994
3.191010952,0.0012535785,-0.0066878088,0.0001300616,-0.0039261216,0.0025043066,-0.0138180358
3.2010769844,-0.0005922433,-0.0028344875,-0.0028286532,0.003565724,0.0004757768,-0.0095742885
3.2112579346,0.001437876,-0.006697882,0.0001467509,0.0046104826,0.0025932561,-0.011697094
3.2213377953,0.0024821046,-0.0115476139,-0.001754518,0.0035537658,0.0015372463,-0.0095742224
3.2312850952,0.0025591808,0.0001290555,-0.0056171375,0.0099378955,0.0037498004,-0.0042657428
3.2413809299,0.0025592181,0.0001793618,-0.0036270574,0.0013827849,0.0057818592,-0.0063846204
3.2514219284,0.000643197,-0.001767922,-0.000704463,0.0002932856,0.0078806961,-0.0085068932
3.2615571022,0.0006776932,0.0030655975,-0.0017172055,-0.0039800499,0.0078380192,-0.0095691625
3.2715449333,0.0046003419,0.0030265565,-0.0037102655,-0.0072229821,0.0120679177,-0.0074426276
3.2816779613,0.0045853811,-0.0018654948,0.0001549764,-0.0071980013,0.0099588279,-0.0053191567
3.2916769981,0.0035998109,0.0019727463,-0.0067383009,-0.0071868161,0.0089047477,-0.0042578867
3.3018131256,0.0085123591,0.003857028,-0.0106838299,-0.0071452428,0.0046397625,-0.0074452246
3.3118100166,0.0055718455,0.0009303803,-0.0116771413,-0.0018069362,0.0047209887,-0.0021375443
3.3219490051,-0.0003435132,0.0067702644,-0.0029656845,-0.005031093,0.0068084411,-0.0031978155
3.3319621086,-0.0013642575,0.0067613237,0.0008859677,-0.0060966229,0.0068198927,-1.21421e-05
3.3419561386,-0.0013987388,0.0038113112,-0.0040187198,-0.000805296,0.0111182341,0.0010496601
3.3520770073,-0.0005240109,-6.25139e-05,-0.0049728113,0.0034664143,0.0111970641,0.0074194088
3.3622059822,0.000312801,0.0019196982,-0.0039569098,0.008849781,0.0070262877,0.0116642211
3.3722119331,0.0001326758,0.0010243172,-0.0009794192,0.0077965013,0.0059975088,0.0180347692
3.3823139668,-0.0030123633,-0.0008454805,-0.0009167151,0.0078165019,0.0038759678,0.0180332363
3.3923540115,-0.0031795171,0.0060151331,-0.0028159574,0.0067605586,0.0028125676,0.0190947726
3.4024670124,-0.0033234027,0.0041425936,0.0001846595,0.0142611917,-0.000326101,0.0159060378
3.4124760628,-0.0043981639,0.0081241243,0.0002810402,0.0131796822,0.000677112,0.0084742205
3.4226131439,-0.0005372431,0.0062577836,0.0013638182,0.0078558102,-0.0004308964,0.0084754191
3.4325640202,-0.0005815219,0.0024007673,0.0043151421,-0.0039055068,0.0015678061,0.0052940063
3.4427537918,-0.0026156721,-0.0044387467,0.0042683524,-0.0103299301,0.0036268956,0.0042349342
3.4527568817,0.0012306083,-0.0113168843,0.0012775703,-0.0103288665,0.0036407441,0.0063585388
3.4628310204,0.0050666141,-0.0123247989,-0.0007039862,-0.0028561149,0.0037405458,0.0116657531
3.4729659557,0.0039312723,-0.0093593486,0.0070825857,-0.0039429516,0.0058740042,0.0148524912
3.4830260277,-0.00013141,-0.0054799803,0.0108962106,-0.0050543956,0.0101164198,0.0159158912
3.4930500984,-0.0041814861,-0.0162237771,0.0030657095,-0.0029563569,0.0132626789,0.0074225385
3.5030961037,-0.0032903668,0.0022311325,0.002014522,0.0002695555,0.0111532547,0.0052986005
3.5131449699,-0.0013790022,0.0002923722,0.0049293679,-0.0018604407,0.0099905189,-0.0074430276
3.5232520103,-0.00133599,0.0012223239,-0.000947948,0.0024224296,0.0078727063,-0.0127557004
3.5332970619,0.0016880665,-0.0026413088,-0.0037949041,0.0099775512,-0.0005500729,-0.0127618257
3.5433700085,0.0036974433,-0.0084181316,-0.0027196365,0.0056704739,0.0036694396,-0.0106339604
3.5534129143,-0.0011655058,-0.012288738,0.0041016382,0.0014030244,0.0036460038,-0.0085092904
3.5635118484,-0.0011461343,-0.0093454011,0.0060800952,0.0099186953,0.0058568269,-0.0063871508
3.5735669136,-0.002093744,-0.0044094212,0.003256087,0.0152218482,0.0090795178,-0.0074486863
3.5836319923,-0.0030469266,-0.0014281755,0.0052951616,0.0152075728,0.0101133576,-0.0116958953
3.5936849117,-5.91468e-05,-0.0033116823,0.0044180793,0.0109928539,0.0047779805,-0.0106356908
3.6037809849,0.0010112781,-0.0033017879,-0.0013400273,0.0110273696,0.0016082862,-0.0085131517
3.6138830185,0.0029903757,-0.0051786788,-0.0002727465,0.0110294996,0.001635983,-0.0042659426
3.6239418983,0.0010636185,-0.0090103634,0.000770752,0.0035993857,-0.0026651553,-0.0032056049
3.6339449883,-0.0008587432,-0.0070305951,0.0008226676,0.0089776404,-0.0068625631,-0.003209067
3.6440169811,-0.001771402,-0.0011159068,0.0038479012,0.0174965337,-0.0046671201,-0.0032090007
3.6540808678,-0.0007062521,-9.25546e-05,0.0068435711,0.0079211369,-0.0079755653,-0.0095790159
3.6641850471,0.0013854537,-0.0127028115,-0.0008099036,0.0165133215,-0.0131640024,-0.0032134613
3.6742169857,0.0024887803,-0.004858721,0.0002606554,0.0101286583,-0.0153834801,-0.0095837424
3.6843180656,0.002639662,-0.0057699569,0.0032893461,0.0133280465,-0.0153690325,-0.0117084794
3.6943888664,-0.0011118095,-0.0018081551,0.0033850712,0.0153983887,-0.0089843711,-0.0117058167
3.704460144,1.52472e-05,-0.004657913,0.0035171551,0.0089947907,-0.0090684593,-0.015950961
3.714468956,0.0021550539,-0.0046048053,0.0007280154,0.0153432339,-0.0037213648,-0.0180735011
3.7246279716,-0.0006372374,0.0032256956,0.0066143316,0.0066917157,0.0078527993,-0.0212493874
3.734691143,0.0024085077,-0.0065212734,0.0076026958,-0.0008207951,0.0120315664,-0.021245392
3.7446830273,0.0014899556,-0.0085094459,0.0056098741,-0.0093663735,0.0130528212,-0.015933916
3.7547039986,0.0015524138,-0.0056944378,0.000609879,-0.0178938173,0.0119034005,-0.0180559233
3.7648420334,0.0026043016,-0.004899431,-0.0064141708,-0.0263792854,0.0065315389,-0.0169954523
3.7749238014,0.0076467576,-0.0012047177,-0.0153853847,-0.019825777,-0.008245809,-0.0138191003
3.7849740982,0.0068251523,-0.0042467602,-0.0145633174,-0.0186609905,-0.0177648123,-0.0106386878
3.7950100899,0.0011230294,-0.0023632532,-0.0049323994,-0.0069326963,-0.0165943522,-0.0095792823
3.8051548004,-0.0006646779,0.0024843926,0.0018407149,0.0005576042,-0.0186579041,-0.0106441472
3.8152170181,-0.0044308496,-0.0003767496,0.0058112782,0.0143764811,-0.0132386368,-0.011706748
3.8252849579,-0.00428718,0.0064956658,0.003998403,0.0196239986,-0.0047243112,-0.014889691
3.8352818489,-0.0041608331,0.0056363456,0.0090096043,0.0153006231,0.0005226484,-0.0180713702
3.8454120159,-0.001106989,-0.0011109596,0.0042790216,0.0120717278,0.0036832215,-0.0170057714
3.8554930687,0.0018781755,-0.0020627265,-0.0034180835,0.0024617109,0.0047226534,-0.0074466225
3.8654708862,0.0008867714,-0.0078993924,-0.0043929773,-0.0082001742,0.0036044586,-0.0021368787
3.8755559921,-0.0010610934,-0.0069871433,-0.0025451141,-0.0135256983,0.0024899256,-0.0031978821
3.885653019,-0.003998932,0.0006628151,-0.0027458626,-0.0284990817,0.0055287918,-0.0053163599
3.8956928253,-0.0049505946,0.0004589076,0.0008606954,-0.0370259918,0.004386296,-0.0063765645
3.9058218002,-0.0039566276,0.0002383704,0.0053782505,-0.044538077,0.0085506812,-0.0084956419
3.9158189297,-0.0029474166,0.0018932337,0.0011106773,-0.03917953,0.0064960523,-0.0053126318
3.9259560108,0.0009814535,0.0026517028,-0.0011137681,-0.0306068659,0.0034005269,-0.0031918231
3.9359519482,0.000977907,-0.0023257618,-0.0022532898,-0.0167001076,0.0003663874,0.001050326
3.9460890293,-2.18194e-05,-0.0023751145,-0.007188316,-0.0017047776,-0.0047662561,0.0074144155
3.9560871124,0.0009457949,0.0054305904,-0.0071523148,0.0090192389,-0.0099849869,0.0063472865
3.9661550522,0.0029238197,0.006490957,-0.0041211802,0.0122589478,-0.0141995065,0.0063428259
3.9764518738,0.0009849999,0.0075442307,-0.0020696479,0.0100906026,-0.0110628344,0.0020977473
3.9863300323,6.55684e-05,-0.0011591201,-0.002943154,0.0122520775,-0.013154082,0.004221485
3.9963488579,0.0011085902,0.0028177614,-0.0037869171,0.0186521858,-0.0131327752,-0.0010891244
4.0063939095,0.002165291,0.0077703111,-0.0046104151,0.0154163921,-0.0099697392,-2.59905e-05
4.0165290833,0.0012323443,9.18025e-05,0.0013644738,0.0111137889,-0.0068517108,-0.0042705368
4.0265278816,0.0002691108,0.002107572,0.0005005641,0.0088674389,0.0048344396,0.0010457321
4.0366392136,-0.0017411601,-0.005638469,0.0044292253,-0.0029024007,0.0079218419,0.0021120617
4.0467576981,-0.0018103461,-0.0046745427,0.0024658483,0.0045357011,0.0111771571,0.0031734644
4.0567650795,0.0010430549,0.0050503127,-0.0014485078,-0.0007898221,0.0100626238,0.0021124613
4.0668849945,0.0019599753,-0.0018109565,-0.0063707787,-0.0157325789,0.0099260705,0.0010535218
4.0768527985,0.0028887424,-0.0009496694,-0.0084736301,-0.0146004707,0.0035832198,0.0031736642
4.0869860649,0.0018989403,0.0028580541,-0.0124809695,-0.0124333231,0.0004185189,0.0031718668
4.0970191956,-0.0020322618,0.0018438215,-0.0047947126,-0.0081445677,-0.0016800519,0.0010461316
4.1071481705,-0.0020686802,0.0028239603,0.0010292573,0.0014430247,0.0005526089,0.0052929414
4.1171531677,-0.0031136987,0.0057751052,0.0039652628,0.0045911474,0.0058855889,0.0052948054
4.1272549629,-0.0012545477,0.0019130821,0.0069205207,0.0045262193,0.0122733144,0.0084824758
4.1372289658,-0.0004248884,0.0009809847,0.0050213379,0.0077068331,0.0144302081,0.0095445449
4.1474246979,0.0014034096,4.49533e-05,-0.0007696109,0.0077327183,0.0123279085,0.0127299521
4.1574101448,0.0021794471,-0.004763294,-0.0036179975,0.0056213643,0.010208033,0.0159148257
4.1675310135,0.00202598,-0.0085905679,-0.0054938155,0.0099319564,0.0059943795,0.0148498286
4.1775660515,0.0018590648,-0.0036346202,-0.0034559921,0.0131754205,0.0017714048,0.0137850959
4.1876916885,-0.0021639285,-0.0084006079,0.0015168233,0.0142082497,0.0049432293,0.010600755
4.1976780891,-0.0022536558,-0.0025026088,0.0015628381,0.0035667904,0.0016393118,0.0063546104
4.2078180313,-0.0023147208,-0.0015070324,0.004496519,0.0045878189,0.0058796639,0.0042320043
4.2178182602,-0.0013775941,0.0023957009,0.0045040888,-0.0017856583,0.002606106,-0.001077007
4.2279119492,0.0005581785,-0.0024723297,0.0045158905,0.0024746275,0.0037035281,-0.0010766742
4.237953186,0.0025040987,-0.0004872566,-0.0012652235,0.0089008361,0.0016651445,0.0031678719
4.2480897903,0.0024707201,-0.002371717,-0.0011736708,0.0120649366,0.0048566768,-1.80675e-05
4.2580871582,0.0014316175,-0.0052182563,0.0008652253,0.0099109719,0.006980814,0.0031689373
4.2681589127,0.0032900306,-0.0090111978,0.0058454317,0.012057852,0.0059590926,0.0063534118
4.2782249451,0.0032305527,-0.0060284622,0.0020448011,0.0152491182,0.0070549832,0.0074149482
4.2882900238,0.0041193846,-0.0030478125,0.0050191921,0.0046419082,0.0006028095,0.0084760841
4.2984361649,0.0030666995,-0.001113463,0.0059627336,-0.0039169583,0.0026433235,0.0074174781
4.3084321022,-0.0008893948,-0.0021520739,4.14891e-05,-0.0124498606,0.0025601666,0.0063594705
4.3184900284,0.0010133643,-0.006097544,-5.04808e-05,-0.0124088489,-0.0017046195,0.0031719333
4.3285560608,0.0009778325,-0.0051763542,-0.0020663696,-0.0059865294,-0.0037487289,0.0063534789
4.3386898041,0.0019127909,-0.0051737316,-0.0001165824,0.0025515659,-0.0036603119,0.0084749525
4.3486981392,0.0018328164,-0.0041143186,0.004835729,0.0153767634,-0.0056769913,0.0074084895
4.3587598801,-0.0021221307,0.0018115754,0.0020413441,0.023923913,-0.0066703502,0.0063440241
4.3688240051,-0.0060896245,-0.0009394174,0.0080504464,0.0185707994,-0.0045749745,0.0095326267
4.3789610863,-0.0081049465,-0.0095820911,0.0082213925,0.0216938891,0.0028315426,0.0021029403
4.3889970779,-0.0042211977,-0.0016652828,0.0045207185,0.0270207413,0.0039384854,0.0021028072
4.3989329338,-0.0032838401,-0.0063834079,0.0076484722,0.019472545,0.0112517923,-0.0053242166
4.4090919495,-0.0042838273,-0.0082314499,0.0029226583,0.0173261706,0.0122875618,-0.0063852863
4.4192199707,-0.0003873077,-0.0072199591,-0.0047737318,0.0066346447,0.0143302064,-0.0042579533
4.4292259216,0.0015314404,-0.0033203249,-0.0038059908,0.0013049403,0.0131887086,-0.0095668985
4.4392929077,0.0015259717,0.0034690613,-0.0048061567,0.0002266262,0.0142334681,-0.0106279021
4.4493718147,0.0015269254,0.0053559653,-0.0058696228,-0.0104760854,0.0173301902,-0.0095618386
4.4594349861,0.0005327347,-0.0063902028,-0.0030499655,-0.0136551009,0.0151940696,-0.0074385004
4.4695401192,0.0034508067,-0.0074393041,-0.0050795036,-0.0082601225,0.0099548325,-0.0042554899
4.4795589447,0.0044034752,-0.0035874133,-0.003200765,-0.003935148,0.0047286451,0.0021115956
4.4896969795,0.0024350467,0.0003014321,-0.0032216865,0.0024762508,0.0037171766,0.0010471303
4.4996910095,-0.0005318042,0.0012873525,-0.0022509056,-0.0049606254,0.0004827676,0.0031710011
4.5098280907,-0.000537042,-0.001655746,-0.0042111832,-0.0006739749,-0.0016008229,0.0031677389
4.5198249817,-0.0024955538,0.0042188279,-0.0002907471,0.0099957138,-0.0015283851,-2.03314e-05
4.5299081802,-0.0024931175,0.0072063915,-0.001178916,0.011044519,0.0006018775,-1.84671e-05
4.5399570465,-0.0005650636,0.0034182782,-6.77066e-05,0.0131585365,0.0027563747,0.00210567
4.5500950813,0.0013594959,0.0083585493,-0.0019041257,0.0121106897,0.0006186555,0.0010425362
4.5600919724,0.0013150681,0.0016214366,-0.0046931463,0.0164042376,-0.0014175978,0.0084730219
4.5702280998,0.0022119242,-0.0041038282,-0.0055218893,0.0121604903,-0.0035567817,0.0116590951
4.5802259445,0.0021447274,-0.0030882244,-0.0064331847,0.0047007091,-0.004689957,0.0105986241
4.5903272629,0.002097446,-0.0030667668,-0.0073901373,-0.0037837997,-0.0100692762,0.0105978251
4.6003599167,0.0020782608,0.0017871375,-0.0015875058,-0.0048503969,-0.0100716725,0.0116598941
4.6104950905,-0.0038507995,0.0017758126,0.003205423,-0.0070104087,-0.0079738339,0.0105982907
4.6204791069,-0.0048730192,0.0007761235,0.0070524258,-0.0102346977,-0.0059005637,0.0074147484
4.6306300163,-0.0039135185,-0.0041538961,0.0069767279,-0.0070569068,-0.0037853473,0.0021061362
4.640627861,-0.0039167819,-0.0032368188,0.0020283503,-0.011367498,0.0004283059,0.0031711343
4.6507797241,0.000988539,-0.0052477606,-0.0028915363,-0.0103003168,0.0004233792,0.0010476628
4.6607599258,0.0009579841,-0.0023670082,-2.71754e-05,-0.0060318029,0.0004606633,0.0010465976
4.6708879471,-0.0020074439,-0.0013842469,0.0038322252,-0.0017921301,0.0036940738,0.0031714672
4.6808919907,0.000896025,-0.0052779801,0.0028752133,-0.0007255338,0.0036964705,0.0021093986
4.6908049583,-0.0001157266,-0.0014083271,0.0008922858,-0.0007127505,0.0026631642,0.0063560749
4.7009129524,0.0017883066,-0.0014121418,0.0008938356,0.0046223598,0.0027028453,0.0052929414
4.7110757828,0.0007689926,0.0005512352,-0.0010458188,0.003610705,-0.0026051675,0.0063529462
4.7211790085,-0.0001851883,-0.0004014855,-0.0039254385,0.0036629029,-0.0079240324,0.0042266781
4.7312750816,0.0027483362,-0.0013384705,-0.0029138285,0.0004847925,-0.0100533627,0.0074119521
4.7412967682,-0.0002080467,-0.0052137859,3.60651e-05,0.0025870921,-0.0068517104,0.0074130171
4.7514219284,-0.0002506864,-0.0012940054,0.0058791679,0.002584137,-0.0068577696,0.0063503492
4.7614459991,-0.0012828227,-0.0051600821,0.0049436134,0.0014648102,-0.0015482255,0.0084768841
4.7715229988,-0.0013793077,-0.0090144761,0.0049572033,-0.0006993013,0.0016509632,0.0137878256
4.7816419601,0.0004682574,-0.008056093,0.0049502891,-0.0049805995,0.0026469855,0.0095422147
4.7916340828,-0.0025513959,-0.0051736124,0.0048745912,-0.0114382319,0.0078753028,0.0063610687
4.8016958237,-0.0025977758,-0.0023487692,-0.0011001782,-0.0156662669,0.0035663086,0.0021127942
4.8117609024,-0.0006712493,-0.0034034138,-0.0051085907,-0.0134907309,-0.0006514725,0.0031712675
4.8218970299,0.0002999115,-0.0054279454,-0.0051950174,-0.0081124771,-0.0048488807,0.0031678053
4.8318948746,0.0003127861,-0.0015686636,-0.0052528339,-0.0016750842,-0.0079911444,0.0010423366
4.841963768,-0.0025905189,-0.0044668801,0.0015789313,0.0015358888,-0.009038033,-0.0010825995
4.8520278931,-0.0015452843,-0.0034748202,0.0025891704,0.0025882907,-0.0079733683,-0.0021454007
4.8621749878,-0.0014900829,0.0023904557,0.0035897535,0.0036229286,-0.004787961,-0.0032058714
4.8721628189,-0.000462566,-0.0014866476,0.0075029177,-0.0006775437,-0.0016422351,-0.0032032083
4.8822317123,0.0005687955,-0.008314658,0.0016704841,0.001393863,0.0047562756,-0.0010769404
4.8922967911,-0.000439119,-0.0063822158,-0.0012505011,-0.0018469114,0.0089569464,-0.0031960844
4.9024190903,0.0034279111,-0.0102751143,0.0006868882,-0.00713728,0.0047009485,0.0021121283
4.912460804,0.0043782773,-0.0054486282,-0.00228643,-0.0060367296,0.0015338508,0.0031723995
4.9224967957,0.0023706066,-0.0015926843,-0.0033370212,-0.0081587369,0.000474978,0.0063578063
4.9325637817,0.0023292038,-0.0103991516,-0.0033811883,-0.0081083216,-0.0048147924,0.0084773498
4.9426999092,0.0042377072,-0.003633905,-0.0073328572,-0.0048206504,-0.013261009,0.0105958944
4.9527630806,0.001337241,0.0061290376,-0.0053785997,0.0101389643,-0.0153017882,0.0031592832
4.9628362656,-0.0025204537,0.0003571028,-0.0013810353,0.0079567702,-0.0111456588,-0.0074560773
4.9728441238,-0.0004452732,0.0013835544,-0.0061383205,0.0165142007,-0.0131500876,-0.0010899233
4.9831109047,0.0016036663,0.0034485573,-0.0040109116,0.021805102,-0.0088871652,-0.005336334
4.9930119514,-0.0022423831,0.0006597752,0.0010100646,0.0185531955,-0.0036466632,-0.0106399525
5.0030660629,-0.0001988601,-0.0002362614,-0.001753922,0.0174658261,-0.0015201292,-0.0085150152
5.0131149292,-0.0020913822,-0.0117899664,-0.0015664058,0.0195348375,0.0048721228,-0.0074512162
5.0231819153,-0.0030763117,-0.0097381361,0.0005117698,0.0130899874,0.0090671349,-0.0063856859
5.0332360268,-0.0020968211,-0.0067697652,0.0044577164,0.004531146,0.011100525,-0.0085058948
5.0433168411,-0.002056655,0.0009743685,0.0005452676,-0.0018615061,0.0099766701,-0.0095666321
5.0549869537,-0.001045477,0.0028346891,-0.0063598114,-0.0189146809,0.0077199079,-0.007440364
5.0641860962,-0.0020148125,-0.0089788921,-0.0055863815,-0.0285284296,0.0087108705,-0.00531383
5.074119091,-0.0010466318,0.0025328512,-0.0038924771,-0.0263846666,0.0076760324,-0.004253692
5.0836868286,0.0018838678,0.0023731703,-0.0041024643,-0.0263079666,0.0002767057,-1.02113e-05
5.0941410065,0.0009065602,-0.0006589179,-0.0052452045,-0.015622911,-0.0006779712,0.0021109299
5.1035337448,-7.7967e-05,0.002230298,-0.0052974182,0.0057308478,-0.001545629,0.0031668735
5.1138277054,-0.0020703641,0.0090394728,-0.0072456556,-0.0048965495,-0.0058761952,0.0042294748
5.1236758232,-0.0030768109,-0.0016235595,-0.0003929691,0.0003661234,0.0016182063,0.0074172784
5.1337451935,-0.003114548,0.004240524,-0.0042495686,0.0110692866,-0.0015000224,0.0031665405
5.1438798904,0.0027267816,0.0014416093,-0.0079551889,0.0174427629,0.0017735353,0.0084755514
5.1539497375,-0.0003347438,0.0025481696,0.002864246,0.0152084529,0.0112769585,0.0042329365
5.1641049385,-0.000468817,0.0075057857,0.0029900118,0.013077924,0.0113067869,0.0116660856
5.1742048264,0.0003717426,0.002709877,0.0011299892,0.0108302953,0.0218365919,0.0021149912
5.1842808723,-0.0017365258,-0.0108196624,0.0002567215,0.008784988,0.0133783929,0.009543879
5.1943378448,0.0010622774,-0.0010463481,0.00030971,0.0077074985,0.0144015122,0.0052983342
5.2043700218,-0.0010477494,-0.0068130977,0.0032811209,0.0045066448,0.0143804736,0.0063609355
5.214425087,-0.0031121266,-0.0048949607,0.0003081603,-0.0072130468,0.0121497437,0.0053002648
5.2247037888,-0.0012654777,-0.0107891448,-0.0007483916,-0.0168401077,0.0141670881,0.0021183202
5.234664917,-0.0042784628,-0.0031317954,0.0019633216,-0.022178974,0.0140860621,-0.0031895593
5.2446489334,-0.0062475693,0.0015852565,0.0026943129,-0.0200260766,0.0119480751,-0.008500169
5.2547249794,-0.0042882678,0.0034218545,0.0054606241,-0.0157771073,0.0140853962,-0.0116843777
5.2648248672,-0.0042561931,0.0013880248,0.0053522629,-0.0061532427,0.0120265055,-0.0148732476
5.2750449181,-0.000299659,0.0023438449,-0.0004783826,0.0077996706,0.0047968887,-0.0032006782
5.2849469185,0.0036080885,-0.0034277325,-0.0003693657,0.0099467114,0.0037822246,0.0010454657
5.2949867249,0.0035787406,-0.0043160804,-0.0012263613,0.0185368713,-0.001412604,0.0063486854
5.3050851822,0.0035504284,-0.0012492423,-0.0029693202,0.0271596536,-0.0098191388,0.0074040955
5.3151502609,0.0015931908,-0.0030125862,0.0011696859,0.031451337,-0.0119045265,0.007402631
5.3251562119,-0.0032908809,-0.0057343729,0.0053131622,0.030393796,-0.0129886996,0.0052787601
5.3353171349,-0.0003307727,-0.004593242,0.0065267128,0.0271464959,-0.0087856986,0.003157286
5.3453111649,-0.001290467,-0.0044644363,0.0096278833,0.0174880102,-0.0035784198,0.0010387413
5.3553781509,-0.000323255,-0.0102271922,0.0097345756,0.0078316554,0.0016565559,0.003167406
5.3653507233,0.0016285066,-0.0121403821,0.006888811,0.0035823155,-0.000530432,-0.0010798033
5.375579834,-0.0012761321,-0.008266557,0.0019897264,-0.0028620288,0.0036288265,-0.0053221523
5.3855867386,0.0026887017,-0.0131896026,-0.0048495489,-0.0123692472,-0.0059902454,-0.0032009445
5.3957071304,0.0037438008,-0.0025986319,-0.0011088209,-0.018766826,-0.0071407971,-0.0085098902
5.4056987762,-8.41584e-05,-0.0046359785,0.0026367945,-0.0166197848,-0.0081554614,-0.0042637456
5.4158420563,-0.0009467792,-0.0067148097,-0.0014054732,-0.0165678784,-0.0134955663,-0.0095749535
5.4258899689,0.001104537,-0.0038254743,0.0043951315,0.0026830463,-0.0175717995,-0.0095818778
5.4359416962,-0.0026131463,0.0029548521,0.0053227586,-0.0016841395,-0.0081088562,-0.0170083027
5.4459810257,-0.0004801568,0.0010199661,0.0063495082,0.005818252,-0.0112196952,-0.0159499627
5.4561090469,0.0036383006,-0.0038415676,0.004468922,0.0005157655,-0.0144212805,-0.0117033524
5.4661040306,0.0008700151,-0.0106320865,-0.0003286557,0.0100874333,-0.011161305,-0.0127659533
5.4762392044,0.003942545,-0.0017863398,0.0017561956,0.019715745,-0.0131648686,-0.0074603381
5.4862370491,0.0050601619,-0.003623951,0.0048509878,0.0132911354,-0.0111057106,-0.0085194772
5.4963722229,-0.0036593047,-0.0026146059,0.0078132199,-0.0007076906,0.001504556,-0.008509025
5.5063638687,-0.0045817313,-0.0026560908,0.0067722243,-0.0092995819,0.0067142313,-0.0116896369
5.5165052414,-0.0015415516,0.0049815886,0.0017579837,-0.0221092515,0.0065611666,-0.0180575885
5.5264902115,0.0034311446,0.0018997903,0.0005915208,-0.0263644494,0.0054974998,-0.012748044
5.5366411209,0.0054852772,0.0007356519,-0.0006348448,-0.0295122005,0.0001643868,-0.0127497753
5.5466461182,0.0036433521,-0.0042957552,-0.0095868064,-0.0187636837,-0.0071348045,-0.0074471552
5.5567040443,0.001738805,-0.0072384365,-0.0057463604,0.003667457,-0.0089970874,0.0021007434
5.5667700768,0.0007750202,0.0063746683,-0.0018779592,0.0004863115,-0.0111609055,-2.31275e-05
5.5768408775,0.0028084996,-0.0003944521,0.0030633255,0.0143932318,-0.0142377894,-0.0021505938
5.5869588852,-0.0040022698,0.0132994168,-0.000745769,0.0186340492,-0.0109621007,0.006344357
5.5969839096,-0.0010503869,0.0046725981,0.0023634476,0.0207035374,-0.0045984774,0.0031618797
5.6070489883,-0.0020356667,0.007730972,0.0025495333,0.0281718411,-0.0045540025,-2.53912e-05
5.6171078682,0.0009338889,0.0088536851,0.0008431716,0.027145993,-0.0087997466,0.0010338811
5.6272439957,0.0039198729,0.0012050981,-0.0038144544,0.0164954774,-0.0110218888,-2.63234e-05
5.6372346878,0.0010272,-0.0026132946,-0.0085548116,0.0079329628,-0.0079015289,0.0021029403
5.647310257,0.0010332797,-0.0015983467,-0.0016954498,0.0015078196,-0.0058492972,-1.80011e-05
5.6573739052,7.9203e-05,0.0080951564,0.0011704011,-0.0102238832,-0.0070043099,0.0010446003
5.6675052643,-0.0008693006,0.0002421255,0.0020302576,-0.0177049711,-0.0060154782,-1.48052e-05
5.677508831,0.0001190487,0.0010557885,0.0008631988,-0.0273492336,-0.0018277909,0.0042370646
5.6874809265,-0.0008469042,0.0028219337,-0.0032831386,-0.0326103084,-0.0093014203,0.0042346679
5.6977310181,-0.0008559194,0.0016297216,-0.0026334482,-0.042223867,-0.0083105238,0.0063612685
5.70773983,-0.0018708076,-0.0005068665,-0.0028987485,-0.0272792727,-0.0081177112,0.0159137603
5.7178440094,-0.0009818416,0.007137727,-0.0041016298,-0.0283449106,-0.0081275655,0.0159145594
5.727845192,-0.0031234887,-0.0075034387,0.0035804554,-0.015563868,-0.0047357632,0.0307781957
5.7380719185,-0.0052923528,0.00308783,0.0072585982,-0.0241486467,-0.0006356267,0.0201644972
5.7481870651,-0.0005583432,0.0058931224,0.0002901597,-0.0166430622,-0.0037049197,0.0275936536
5.7581539154,0.001238804,0.0126061551,-0.0057073194,-0.0219610482,-0.0058935722,0.0244077798
5.7684230804,0.0040612402,0.0027772302,-0.00776815,-0.0144522646,-0.0101208081,0.016971169
5.7782821655,0.0039455998,0.003723752,-0.0107384874,-0.0015783841,-0.0163125247,0.026520865
5.7882728577,0.0018976365,-0.0001271849,-0.0048944908,-0.0036939988,-0.0184877925,0.0212113205
5.7983207703,0.000832941,0.0018635506,-0.0009627299,0.0101592047,-0.0162381567,0.0222711917
5.808257103,-0.0012088608,0.0009968395,0.0010938687,0.0154724773,-0.0140833929,0.0201473217
5.8183088303,-0.0022806195,0.0001483078,0.0032142445,0.0250339992,-0.0097483648,0.0212086588
5.8286848068,-0.0014255609,-0.0016112213,0.0063536209,0.0260143094,-0.0012717894,0.018027246
5.8389511108,-0.004487705,-0.003418315,0.0045840186,0.0195906833,0.0007727859,0.0148452343
5.8485970497,-0.0016614165,-0.001390565,0.0008211179,0.011031284,0.0028063757,0.0127248252
5.8585777283,-0.0017890077,-0.0042729862,-0.0010936217,-0.0050198277,0.0068826769,0.0084839407
5.868639946,-0.0009052199,-0.0033735519,-0.0051058489,-0.0199282058,0.0035622474,0.0074242693
5.8787579536,0.0009612102,-0.0083741434,-0.0043166834,-0.0284351632,0.0003124585,0.0084857391
5.8887319565,-0.0001202491,-0.0094621666,0.0003349228,-0.0241655856,0.0003635911,0.0106082782
5.8988962173,-0.0021979851,-0.005694557,0.0011029287,-0.020974746,0.001473863,0.0137928855
5.9089050293,-0.0013726618,-0.0096701868,0.002925579,-0.0124126822,-0.0005251057,0.0212223064
5.9190001488,0.0004282254,-0.0058213957,-0.0010476665,-0.0059647961,-0.0046856292,0.0254659206
5.9290308952,0.00125863,1.25284e-05,-0.0039981562,0.000480053,-0.0088806413,0.0244003888
5.9391598701,0.0011057291,-0.0038475876,-0.0059189158,-0.000532588,-0.0141740721,0.0275832675
5.9491539001,-0.0009673503,0.0020616765,-0.0009925918,0.0112361871,-0.0172753222,0.0243933331
5.9593758583,-0.0020645079,-0.006562639,0.0001464529,0.0155073116,-0.0172389727,0.024393199
5.9694600105,-0.0080671571,-0.0103260763,0.0031847996,0.0154647008,-0.0129949572,0.0243953299
5.9795160294,-0.0062082005,0.0004444236,0.0042532724,0.0079436414,-0.008870054,0.0159033742
5.989839077,-0.0033610431,-0.0102031119,0.0024006409,0.0015509892,-0.009993908,0.0148426378
5.9997062683,-0.0014284666,-0.0004665141,0.0004495425,-0.0005739471,-0.0111157652,0.0084724892
6.0096597672,0.0005260963,-0.0034129506,-0.0024757343,-0.009120563,-0.0101154819,0.0105987573
6.0198717117,-0.0004848954,-0.0121673234,0.001389925,-0.004853487,-0.0100919129,0.0084739542
6.0298271179,-0.0005160909,-0.0063326247,0.0004009051,0.0047192462,-0.0068180887,0.0095349578
6.0399217606,0.0014281232,-0.006300915,-0.0024514156,0.0068632509,-0.0078672413,0.0084719565
6.0499920845,0.0023958716,-0.006223727,0.0034596964,0.0047044922,-0.0058054216,0.0021027406
6.0600748062,-0.0005229231,-0.007178653,0.0015605731,0.0078520831,-0.0004793659,0.0010428026
6.0701961517,-0.0004883226,-0.0052106865,-0.00421619,0.0099410657,0.0037486688,-0.0042646108
6.0801911354,0.0014793013,-0.0070645101,0.0036618754,0.0067009041,0.0079348916,-0.0085067609
6.0902547836,-0.000441153,-0.004131902,0.00176156,0.0067323293,0.0047449572,-0.0095701609
6.1003017426,0.0054726112,-0.007019747,-0.0010932641,0.0024833614,0.0026076373,-0.0063859522
6.1103277206,0.0035399231,-0.014780093,-0.0010439114,0.0056858128,0.002649449,-0.0042631463
6.1204190254,-0.0023039249,-0.0069589503,-0.0010291295,0.0067534214,0.0026301409,-0.0085096899
6.1305141449,-0.0022577685,-0.0069125779,0.0029317185,0.0078306701,0.0015715344,-0.0095722917
6.1405830383,-0.0031408188,-0.0049543269,-0.003818746,0.0110727753,-0.0026367258,-0.0085142842
6.1507101059,-9.28607e-05,-0.0029439812,-0.0066130119,0.0153839011,-0.0068434551,-0.0085174795
6.1607260704,-0.0009509068,7.87491e-05,-0.005500074,0.0196924172,-0.011049252,-0.0085216081
6.1707911491,-0.0047283438,-0.0027294045,-0.0062830406,0.025038179,-0.0120705739,-0.0095852744
6.1808681488,-0.0026291278,-0.003566969,-0.007999952,0.0240270831,-0.0173787884,-0.0085250698
6.190969944,-0.0034537879,-0.0053717382,-0.0029376703,0.0197143592,-0.0131928306,-0.0117072808
6.2010331154,-0.0052560833,-0.0043009408,-0.0008412556,0.0164507367,-0.0068553733,-0.0117026865
6.2110600471,-0.0031937477,-0.0081040151,0.0041651172,0.0153207574,-0.0004848253,-0.0095756203
6.2211098671,-0.0031320122,-0.0061080344,0.0042574448,0.0099211177,0.0058559612,-0.0063862852
6.23127985,-0.0031206277,-0.0041453131,0.0052493257,-0.0072072698,0.010997992,-0.0085029658
6.2412610054,-0.0011444207,-0.0090992935,0.00125349,-0.0178985018,0.0130120749,-0.0106219761
6.2513132095,-0.0001308214,-0.006318856,-0.0047691423,-0.0178526957,0.0088096065,-0.0042532925
6.2613801956,0.0019076053,0.0071055405,-0.0089194728,-0.0221228078,0.0076018632,-0.0212429278
6.2715468407,-0.0009363782,-0.0037712341,-0.0139895035,-0.0241675824,-0.0008494121,-0.0127522387
6.2815217972,-0.001813453,-0.0018899327,-0.006310578,-0.0102494769,-0.0049305735,-0.0063871508
6.2916049957,0.0002913806,0.0107026212,-0.0024890858,0.0025075972,-0.0006508734,-0.0180680417
6.3016967773,-0.0025128392,-0.0038383489,0.0005238099,0.0142804468,-0.0036966642,-0.0127636241
6.3117399216,-0.0004243072,0.0040154569,0.0006482644,0.021759402,-0.0047131926,-0.0159514267
6.3218598366,-0.0003165122,0.0012267346,-0.0010880189,0.0281457156,-0.0024871896,-0.0085189445
6.3317747116,-0.0012345206,0.0043205135,0.0010907693,0.0280823335,0.0038857548,-0.0074539464
6.3419628143,0.0036724242,-0.00332408,-0.0035300211,0.0248703994,0.0049401,-0.0042677401
6.3519940376,0.0016979683,-0.0031694656,-0.0004208045,0.0216919184,0.0028109031,-0.0010825996
6.3620977402,-0.0012532513,-0.0030528193,0.001677279,0.0131047936,0.0080402195,-0.0010766741
6.3721237183,-0.0062200096,-0.0117750652,0.0056040329,-0.0018994557,0.0142688202,-0.0021315522
6.3822698593,-0.0033343327,-0.0079389699,0.0006681724,-0.0093793431,0.0152856819,0.0010559188
6.3922710419,-0.0004697781,-0.0022120362,-0.0033950764,-0.0253772177,0.0140640903,-0.002126026
6.4023790359,0.0043473351,0.0005302543,-0.0036330775,-0.030679252,0.0108409999,-0.0010640908
6.4123959541,0.0013896633,0.0003861899,-0.0019026952,-0.0167096406,0.0014269914,0.0010512582
6.4225230217,-0.0015520122,0.0003292675,0.0028639478,-0.0070648706,-0.0027466479,-0.0010772068
6.4325289726,-0.0005790111,-0.000659216,0.0038043302,-0.0006727511,-0.0016297183,-0.001078272
6.4426369667,0.0004145983,0.0003357048,0.0048096222,0.0100447964,-0.0057604806,0.0021030735
6.4526658058,0.0004367862,0.0042944066,0.0039357585,0.0164044239,-0.0014674652,0.0010418039
6.4628267288,0.0014270876,0.0024570341,0.0050712866,0.0196002722,-0.0014517526,-0.0010841975
6.4728326797,-0.0005173948,0.0035379047,0.0032725376,0.0185555127,-0.0035692318,0.0010386081
6.4828882217,-0.0005036112,0.0017070884,0.000532393,0.0207340848,-0.0078023267,-2.50584e-05
6.4929900169,0.0014988218,0.0027903432,0.0026438278,0.0142982891,-0.0046890914,-0.0021454673
6.5030441284,-0.0014173429,0.0018912668,0.0075821918,0.0046416139,0.0005317698,-0.0021401409
6.5131011009,-0.0024147746,-0.0010300761,0.0066137356,0.0003097169,0.0068674302,-0.0010740776
6.5231361389,-0.0014928918,-0.0030066853,0.0075418991,-0.0103943264,0.0099717434,0.0010531223
6.5332150459,-0.0025643003,-0.0011382585,0.0103237676,-0.0168413073,0.0141390581,-0.0021285564
6.5432801247,-0.0026129675,0.0006834383,0.0081964778,-0.0168205611,0.012017251,-0.0021298211
6.5534110069,-0.0016683828,0.0024705643,0.0002006931,-0.0242803413,0.0108840764,-0.003190292
6.5634317398,-0.0036560413,-0.0016037708,-0.0020161825,-0.0360299125,0.0118284989,-0.0053102346
6.5734319687,-0.0007557836,-0.0017933135,-0.0022729593,-0.0274145864,0.0045245141,0.0021165225
6.583548069,0.0001926902,0.000995409,-0.0024573761,-0.016630251,-0.0059448387,0.0095421486
6.5936598778,0.0011006031,0.0038733596,0.0003749771,-0.0026702275,-0.0142839951,0.0137816332
6.6037559509,8.82703e-05,0.0019565339,-0.0024970728,0.0069666607,-0.0173407048,0.0201475881
6.6137228012,-0.0029215184,8.26234e-05,-0.0004801111,0.0133156367,-0.0119866859,0.0190868508
6.6238818169,-0.002016407,0.0021370763,0.0054972214,0.0165356118,-0.0141011011,0.0158991795
6.633890152,-0.0030241129,-0.0006692295,0.0036909624,0.0196927898,-0.0098498985,0.012715104
6.6439781189,-0.000111815,-0.0005479937,0.0038712067,0.0154358596,-0.0109485183,0.0127159702
6.6538591385,0.0008529532,-0.0043893941,6.93841e-05,0.0025850423,-0.0068509784,0.0074122846
6.6640648842,0.0027959528,-0.0082585104,-0.0018268185,0.0036198925,-0.0036727623,0.0052902782
6.6741719246,0.0047434676,-0.0014373546,0.0001323266,0.000394538,-0.0016133399,-1.68692e-05
6.684237957,0.0047669518,-0.0024125462,-0.0008383946,0.0014501354,-0.0005569307,-0.0021401411
6.6942577362,0.0008880604,0.000504982,-0.0027977184,0.0004043113,-0.0026882584,-0.0021409397
6.7043809891,0.0018796508,-0.002412725,-0.0037611085,0.0024977699,0.0015879796,-1.5471e-05
6.7144126892,-0.0020775315,-0.0033496504,0.0059833569,0.0024434412,0.0068791481,-0.0021364125
6.7244668007,-0.0050468487,-0.0013850217,0.0040457291,0.0098813046,0.0101487767,0.0010481289
6.7345290184,-0.0021735099,-0.005207289,0.0012308402,0.0130944084,0.0091295857,0.0031704018
6.7445988655,0.0016693134,-0.0061060674,-0.0044807154,0.017439222,0.0017748002,0.0084742866
6.7547030449,0.0016348396,-0.0001860147,-0.0092224432,0.0154114915,-0.0088538751,0.0084694931
6.7647571564,-0.0003265184,0.0008924718,-0.0110276891,0.0165684745,-0.0173271224,0.0095282327
6.7748222351,-0.0042290878,0.001000237,-0.0079801632,0.0112333652,-0.0173668042,0.0105913673
6.7849068642,-0.0081207566,-0.0028149968,-0.0001054959,0.0047806846,-0.0132187959,0.0042228168
6.794989109,-0.0080930404,0.0010953064,0.0028194233,-0.0016423268,-0.0111388676,0.0063490844
6.8050398827,-0.0070794118,0.0001210088,0.0038206619,0.0026160944,-0.0100905811,-0.0010825332
6.8150691986,-0.0040769097,-0.0008330231,-0.0010052876,0.0057871202,-0.006858835,0.0021036728
6.8252067566,0.0008588764,-0.0037117486,-0.0048031765,0.0090167886,-0.0100267986,-2.32607e-05
6.835272789,0.0008554119,-0.0026501303,0.0021174592,0.012165444,-0.0046868944,0.0010404058
6.8453407288,-0.0020720181,0.0012990946,0.0021842164,0.0035528075,0.0026445887,-0.0021389425
6.8553390503,-0.0011241253,-0.0054882057,0.0031965417,0.0002885712,0.0089964941,-1.13432e-05
6.8654389381,0.0007958296,-0.0074459799,-0.0045789438,0.0024135867,0.0100969793,0.0031739972
6.8754811287,0.002706218,-0.0016384011,-0.0085036708,-0.0028906306,0.0068604397,0.0021119285
6.8855500221,0.0046329903,0.0002887363,-0.0095084263,-0.0039242031,0.0036888807,0.005296004
6.8956050873,0.0016115416,-0.0026423817,-0.0076072174,-0.0081921862,0.0036585208,0.0063588717
6.9057407379,-0.0004211184,-0.0094562061,-0.0047216373,-0.0028439984,0.0026363328,0.0052960706
6.9157361984,-0.0044261855,-0.0035995131,0.0001187368,0.0046056621,0.0048374357,0.0074188765
6.925866127,-0.0064787534,0.0022477026,0.0069139642,-0.0039660158,0.0079183802,0.0031751958
6.9358577728,-0.0016920384,-0.0055421479,0.0059189838,-0.0050528506,0.0100518381,0.0063619344
6.9459700584,-0.0008198288,0.0002576823,0.0010114951,-0.0039773593,0.0090152025,0.0084835412
6.9560098648,0.0010083128,-0.0055894144,0.0029327914,-0.0061110845,0.0090034846,0.0095458766
6.9661417007,-0.0001196381,-0.0056032427,0.0019104524,-0.0060788346,0.0058417134,0.0127292192
6.9760417938,-0.0031864163,-0.0056337006,-0.0001029925,-0.0028667962,0.0048086736,0.0127278874
6.986207962,-0.0052542058,-0.0026976352,-0.0030221897,0.0014387369,0.0016540259,0.0116654197
6.9964938164,-0.0062999246,-0.0007389074,-0.0020436007,0.0057796896,-0.0057634106,0.0074134171
7.006357193,-0.0053535593,0.0042158477,0.0019431157,0.0175386108,-0.0077683711,0.0095323613
7.0163788795,-0.0034426493,-0.0044277199,0.0011510892,0.0186275765,-0.0098741325,0.0105928313
7.0264439583,-0.0014648776,0.001530003,-0.0025728899,0.0240352862,-0.0172821153,0.0063404292
7.0365099907,0.0005187351,-0.0012573486,-0.0043059546,0.0229367316,-0.0141015006,0.0074040955
7.0466432571,-0.0023573828,-0.0030666476,-0.0050930935,0.018706806,-0.0184027068,0.0042167581
7.0566711426,-0.0003602695,-0.0019799953,-0.0010250764,0.0175448693,-0.0088491486,0.0063454225
7.0668110847,-0.0043285605,-0.0047771819,0.0098051475,0.0099696675,0.0016667425,0.0021066023
7.0768041611,0.0005382258,-0.0037547832,0.0089026736,0.0067475089,0.0037677102,0.0031702688
7.0869259834,0.0024372893,-0.0027748232,0.0079400586,0.0013268581,0.0122019406,0.0021143253
7.0969481468,0.0023615765,-0.0086292513,0.0049920124,-0.0093348417,0.0110338787,-7.1487e-06
7.1070728302,0.0052417475,-0.008713413,1.68128e-05,-0.0135920113,0.0099495733,0.0021168555
7.1171030998,0.0032119188,-0.0068817027,-0.0020983177,-0.0253277645,0.0098816622,0.0074287965
7.1272087097,0.0001984495,-0.0031593328,-0.0033347562,-0.0274566114,0.0087612038,0.0010572503
7.1372070312,-0.002783325,0.0044951551,-0.0025764662,-0.0220325515,0.0003613273,0.0074224714
7.1473360062,-0.0038185236,0.0004798884,0.0011264725,-0.0231025293,0.0003174518,0.0021136599
7.1573410034,-0.0028461036,0.0023236389,1.723e-05,-0.0080764452,-0.008026232,0.004229275
7.1674108505,-0.0008497801,0.0052271001,6.68e-06,0.0037374711,-0.0153510561,0.00422295
7.1774640083,0.0021262723,0.0072106235,-0.0008825021,0.009094419,-0.0174264591,0.0042205527
7.1876039505,0.0001906115,0.0053520314,0.0050571603,0.007930805,-0.0078723012,0.0063486183
7.1976089478,-0.0037679714,0.0005793686,0.0051624221,0.0132456757,-0.0056967651,0.0074101542
7.2076969147,0.0001084242,-0.0041770227,0.0024111313,0.0175411683,-0.0077550551,0.0116564985
7.2177410126,0.0029633003,-0.0089018829,0.0045449776,0.0207223147,-0.005591237,0.0137803694
7.2278089523,-5.78206e-05,0.0048228614,-0.0001844721,0.0238929391,-0.0023522337,0.0180280451
7.2379450798,0.0017569024,0.0010586495,-0.0009925918,0.0153452586,-0.0013657992,0.0180307087
7.247959137,-0.0013202246,-0.0008129363,-0.0028574422,0.0089357235,-0.0003549962,0.0190958381
7.2580099106,-0.0004863706,0.0002168531,-0.0037872749,0.0088813938,0.0049361722,0.0169748981
7.2678956985,0.0003166157,0.0022006745,-0.0037533001,0.0004109442,-0.0014697956,0.0222828425
7.2780270576,0.0021131295,-0.0036052947,-0.0027570084,0.003601145,-0.0003877531,0.0212207753
7.2890820503,0.0018990223,0.0081400387,0.001163487,0.0068451939,-0.0045682499,0.0265259258
7.2983498573,0.0007108483,-0.0015267616,0.002192263,0.0014786581,-0.0014179971,0.0286524594
7.3083558083,0.0005051229,-0.0015109067,0.0041339439,-0.0006370647,-0.003564771,0.0275893249
7.3184766769,-0.0025989679,-0.002478767,0.0031235262,-0.0017409446,-0.0004534,0.0180349685
7.3284988403,-0.0037262109,0.0043298714,0.0011329098,-0.0038933903,0.0016630806,0.0201609042
7.3385400772,0.002019647,0.0081877224,0.0001024051,-0.0134474803,-0.0037673709,0.0137898233
7.348608017,-0.0009530824,0.0071287863,-0.0029314712,-0.0134285726,-0.005895636,0.0127262902
7.3587241173,0.0009687353,0.0012403245,-0.0078540994,-0.0069736019,-0.0111585753,0.0105984239
7.3687429428,0.0009511817,-0.0026731973,-0.0078707291,-0.0005525621,-0.0132591445,0.0052866163
7.3788099289,-0.0010174926,-0.0016690975,-7.16405e-05,0.000527882,-0.0142762046,0.010594829
7.3888850212,-3.66908e-05,-0.0055006631,0.0019594473,0.0100909751,-0.0099630821,0.0084718904
7.3989448547,-0.0010403435,-0.0005752926,8.84576e-05,0.0122151123,-0.0088765118,0.0095336922
7.4090428352,-0.0030291346,0.0024509544,0.0070039076,0.0121488264,-0.0025238746,0.0074128178
7.4190249443,-0.0040739966,0.0025142545,0.0041719717,0.0131520387,0.0038514668,0.0074157473
7.4292268753,-0.002201986,-0.0013027673,0.0013591094,0.0109971948,0.0059616892,0.0084792133
7.439209938,-0.0023065028,-0.0071040876,-0.0024906951,0.0013925051,0.005870875,0.0074198083
7.4492816925,0.0005117911,-0.0070718415,0.0023958725,0.0002948027,0.0090725273,0.011668615
7.4593019485,0.0003941092,-0.0012730246,-0.0015547232,-0.0082102679,0.0058149491,0.0116691478
7.4694809914,-0.0006852564,-0.0110337622,-0.007437821,-0.0049664583,0.0015989651,0.0116661526
7.479446888,-0.0007813242,-0.0023001914,-0.0065072733,-0.0038987976,0.0016152104,0.012727689
7.4896039963,-0.000846852,-0.0052498467,-0.003675099,-0.0145101091,-0.0048852996,0.0063560749
7.4996118546,-0.0047819284,-0.0072744377,-0.0037774995,-0.0091835214,-0.0037569185,0.0095406836
7.5096988678,-0.0048562852,-0.0043356903,0.0010707421,0.0025652004,-0.004722381,0.0084754853
7.519744873,-0.0009632077,-0.0004103666,0.0020903987,0.0057660537,-0.004701342,0.0074128839
7.5298819542,-0.0059168977,-0.0023170596,0.0011535926,0.0067691337,0.0016598183,0.0052925418
7.5398607254,-0.0030104336,-0.0051810034,0.0031883761,0.0099790413,0.0005990812,0.001044001
7.5500068665,-0.0020399434,-0.0041503198,0.0003517909,0.0110036395,0.004831044,-0.0021389425
7.5600209236,-0.0030161631,-0.0060493834,-0.0005552726,0.0045992704,0.0047543449,-0.0053227516
7.5700969696,0.0038568112,-0.0012020951,-0.0024962383,-0.0049533555,-0.0006197146,-0.0032004118
7.5801310539,0.0038888785,-0.0080348141,-0.0044664103,-0.0028073797,-0.0016482272,-0.0010778726
7.5902471542,0.0009574774,-0.0070734508,-0.0054432112,0.0025122846,0.0005398258,0.0021085995
7.6002807617,0.0009183023,-0.0031474119,-0.0015467362,0.0014243834,0.0026594356,0.0031717336
7.610408783,-0.0001140427,-0.0070150979,-0.0005297618,0.0056821918,0.0037719714,0.0052944063
7.6203160286,0.000794198,0.0007941837,-0.0024537402,0.0035159765,0.0069363397,0.0052965367
7.6305570602,-0.0002990183,0.0018051977,-0.0004859524,0.0056507392,0.00696903,0.0074194088
7.6405477524,-0.0003767129,-0.0020438915,-0.0004475074,0.0056374236,0.0079954118,0.0021109299
7.6506590843,-0.0014355,0.0019055719,0.0005806728,0.0120162806,0.0101742772,0.0021094652
7.66065979,-0.0005167093,0.0019787664,0.0026255292,0.0120248031,0.009085577,-0.0021382766
7.6708087921,-0.0004961681,0.0010668153,-0.0031060532,0.0163663141,0.0016679408,-0.0063900799
7.6808137894,-0.0004763347,0.0011528844,-0.0029824334,0.0142128821,0.0037990022,-0.0021412726
7.6909141541,0.0004835162,-0.0007058864,0.0019891304,0.0078296047,0.0016074871,-0.0042646113
7.7009367943,-0.0024807346,-0.0045811422,0.0039453548,0.0035408502,0.003706058,-0.0021388759
7.7110738754,-0.0034736586,-0.0016591435,0.0039530438,0.0013984973,0.004761735,-1.36734e-05
7.7210798264,-0.0015531894,0.0002699608,0.0019791168,-0.002879072,0.0058062272,0.0031733315
7.7311820984,-0.0026011434,-0.0045697577,0.0010224028,0.0078373011,0.0016901118,0.0084774829
7.7412147522,-0.0017236363,0.0042147152,0.0010467215,0.0025043217,0.0016781276,0.0137878256
7.751335144,0.0010853444,-0.0006456857,0.0010288997,-0.0092764655,0.005805295,0.0116697475
7.7613520622,0.0029036733,-0.0006933694,-0.0019578892,-0.0113414796,-0.0005101254,0.0222851075
7.7714929581,0.0027249637,-0.0006845479,0.0028711599,-0.0027862871,-0.0025635557,0.0212191772
7.7814998627,-0.001355749,-0.0065255053,-7.04484e-05,-0.003840101,-0.0035992591,0.0265279226
7.7915830612,0.0014041621,0.0022680874,-0.0039401012,0.0089910887,-0.0055753905,0.0318332724
7.8016252518,0.0031243297,-0.0025179272,0.0029274863,0.0015190579,-0.0056683356,0.0275879279
7.8117437363,-0.0049139229,-0.0054061897,-9.494e-07,-0.0016775075,-0.0056411047,0.0360833444
7.8217496872,-0.0021962789,-0.0005054956,0.0077699465,-0.0027158735,-0.0088749817,0.0297111981
7.8318510056,-0.0052908775,-0.0005072837,0.0077372831,-0.0048886668,-0.0057936367,0.0169716366
7.8418679237,-0.0073483181,0.0062812679,0.0057475609,-0.0070543494,-0.0026223448,0.0180355683
7.8520107269,-0.0015347343,0.0032860751,0.0007927461,-0.0144660613,-0.0091155982,0.0084776822
7.8620128632,-0.0005263653,-0.0006676798,-0.0070552784,-0.0069753872,-0.0111792814,0.0074129505
7.8721179962,0.0004744637,0.0022079463,-0.0051518637,-0.0080233412,-0.013338306,0.0031649424
7.8821520805,0.0014485825,-0.0026039963,0.0026643318,0.0175573863,-0.0099108182,0.0063455557
7.8922829628,-0.0004848507,0.0042414181,0.003685002,0.0047604982,-0.0111469906,-0.0032070032
7.9022550583,-0.0034182784,-0.0161296614,0.0047571701,0.017520234,-0.0056331819,0.0116576962
7.9123849869,-0.0034880457,-0.0014110093,0.0039389175,0.0164198428,-0.0024590266,0.0116590951
7.9224271774,-0.0006147664,0.0035407061,0.0069570583,0.0088913534,0.0027115005,0.001045599
7.9324560165,-0.0016516115,-0.0061637647,0.0011783285,0.0024930825,0.0026966534,0.007418477
7.9424028397,0.0022107246,0.0035609121,0.0001822753,-0.0028329734,0.0015751963,0.0052956711
7.9526872635,0.0060940641,-0.0081546791,-0.0056824642,-0.0145265143,-0.0027792719,0.0042356662
7.9627380371,0.0021356824,-0.0043455251,-0.0029042321,-0.0166586414,-0.0027702171,0.008483408
7.972823143,0.0001099664,-0.0063584335,0.0047411961,-0.0166919567,0.0004275069,0.0106077455
7.9828391075,-0.0029365835,-0.0054548867,0.0055819196,-0.0135001587,0.001530322,0.0127310837
7.9929656982,-0.0040163365,-0.0025808101,0.0064831418,-0.0059906039,-0.0026545024,0.0116644204
8.0031223297,-0.0001907762,-0.0026045328,0.0025413078,-0.0017311443,-0.0015354424,0.0148492958
8.0130872726,0.0007149461,0.0003219361,-0.0032592968,0.0100474861,-0.0056831827,0.0137817673
8.0231304169,0.0026344392,0.0033264274,-0.0041190344,0.0143996235,-0.0141546987,0.0105910348
8.033164978,0.0006616819,0.0005145187,-0.0039796787,0.015455965,-0.0130985547,0.0084680291
8.0432605743,-0.0032668901,0.000664782,-0.0018548326,0.0228949729,-0.0098364484,0.0105913673
8.0532855988,-0.0032697883,-0.0011472588,0.0012526555,0.0185680836,-0.0046451492,-0.0010844639
8.0633506775,-0.001267847,0.0008778686,-0.0005726175,0.0110885948,-0.0036355446,0.0010415376
8.0734701157,0.0017045174,-0.0010708456,-0.0034606413,-0.0049310913,-0.0027491779,-0.0042627468
8.0835027695,0.0007386986,-0.0040155537,0.0003716989,-0.0081841415,0.0025486483,-0.0010738778
8.0935668945,-0.0002588075,-0.0031270271,0.0041389507,-0.0199554227,0.0056223357,-0.0021312858
8.1036157608,-0.0012820851,-0.0110427625,0.0010446353,-0.0284796655,0.0045144605,0.0021175211
8.1137180328,-0.0023139757,-0.0121835954,0.0007900639,-0.0306007676,0.0034623789,0.0063648638
8.1237850189,-0.0023649153,-0.0074782856,0.0005542083,-0.0230999775,0.0003307678,0.0042377971
8.1338386536,-0.0024237004,-0.0027488356,-0.0006200032,-0.022040464,0.0014355801,0.0095472075
8.1438808441,-0.0034725112,-0.0057937987,0.0050098938,-0.0262908675,-0.0007652561,0.0031763942
8.1539669037,-0.0024993164,-7.46732e-05,0.0019234462,-0.0166411437,-0.0049193213,0.0042345347
8.1640510559,-0.0014567118,0.0066338889,-0.0020875889,-0.0091339573,-0.0091673294,-0.0063874833
8.1740846634,-0.0003648665,-0.0011717563,-0.0020688134,0.0026322603,-0.012232095,-0.0042702705
8.1841468811,-0.0012076985,0.0047173612,0.001897399,0.0143989045,-0.0153610427,-0.0117074139
8.1942882538,0.001893263,-5.77455e-05,0.0001329227,0.0165700465,-0.0184987132,-0.0074613369
8.2043552399,0.0039973515,-0.0048146136,-0.0016224341,0.0240085199,-0.0152435312,-0.0063998005
8.2143917084,0.0021571103,-0.0046715625,0.0005146904,0.0186441969,-0.012086953,-0.0032108645
8.2243919373,0.0022296789,-0.0065158494,0.0035911843,0.013298966,-0.0110587068,-0.001085396
8.2345228195,0.0042306962,-0.0064440854,0.0046766442,0.0100666871,-0.0078898109,0.0010406055
8.2445907593,0.000324044,-0.0102929957,0.0047353548,0.002503043,0.0016216685,0.0052944729
8.254655838,-0.0016846325,-0.01026069,0.0066895527,0.0014210539,0.0026535103,0.0021089325
8.264623642,-0.0016974922,-0.0073501952,0.0027939125,0.0025196075,-0.000527103,0.001045266
8.2747888565,-0.0026696441,-0.0015282517,-0.0020792442,-0.0028619217,0.0036501316,-0.0021372782
8.284822464,-0.0026581702,-0.0005923992,-0.0021338421,-0.0103355506,0.0035364146,-0.00956803
8.2949333191,-0.003576186,-0.0026077514,-0.0051243263,-0.0092338538,0.0003617937,-0.0095689613
8.3048429489,-0.0044471589,0.0031703825,-0.0071441489,-0.0049243262,-0.0038657084,-0.012757564
8.3152179718,-0.0013748523,0.0011998529,-0.0013040261,-0.0017025145,-0.0059736669,-0.0148829678
8.3251161575,-0.0041567055,-0.0007579213,-0.0032579855,0.0036246059,-0.0048383614,-0.0106365569
8.335190773,-0.0020977077,-0.0065972097,-0.0032165605,0.0036434624,-0.0069523784,-0.009576885
8.3452177048,0.0008935291,-0.0065440424,0.0026885313,0.0046599908,-0.0016034194,-0.0042654769
8.3553266525,-0.0039698971,-0.00456338,0.0017446919,0.0100088157,-0.0025973781,-0.0010816009
8.3653917313,-0.0010201897,-0.0064667948,0.0008716626,0.0089305025,-0.00155262,-0.0021426044
8.3754234314,-0.0029604402,-0.0025233512,-0.0010212617,0.010031214,-0.0047126599,-2.06642e-05
8.3854913712,0.0010134612,0.0004281516,-0.004832502,0.0057397955,-0.00264871,-0.0032039406
8.3956184387,0.0020443681,-0.0005283838,-0.0047947126,0.0036259126,-0.0047890265,-0.0032048062
8.4056310654,0.0001452375,0.0004569406,-0.0067257243,-0.0005983934,-0.0090495516,-2.04644e-05
8.4156894684,-0.0017640408,-0.0034513359,-0.0067390162,-0.0038623121,-0.0027333323,-0.0032008113
8.4257612228,0.0002265457,0.0043234937,-0.0028512436,0.0015063556,-0.0058558891,-0.0010801364
8.4358844757,-0.0016921352,0.0004414434,-0.0028325275,0.0036280425,-0.0047613294,0.0010424032
8.4458885193,-0.0026373011,0.0014399404,-0.0027961689,0.0025273589,-0.0016084132,-0.0021411395
8.455991745,0.0012722571,0.0004786367,-0.0008423881,-0.0007031895,0.0015456352,-0.0021377443
8.4660205841,-0.0026569855,-0.0005101447,0.001076941,0.0013453141,0.0100453803,-0.003195818
8.4761533737,-0.0017067756,-0.0024644618,-0.0028232294,-0.0029223766,0.010036259,0.0010519905
8.486158371,-0.001766805,-0.002486456,-0.0018882708,-0.0040124077,0.0121281715,-0.0021320849
8.4962482452,-0.0028208909,0.0014014954,0.000989203,-0.0050661396,0.0110710971,-8.1473e-06
8.5062904358,-0.0009118732,0.0023144002,-0.0049120146,-0.0050560199,0.0100031691,-0.0010704823
8.5164041519,2.21613e-05,0.0003577585,-0.0049306112,-0.0028816285,0.0057929112,0.0010491941
8.5264062881,0.0019873786,0.0022848363,-0.0068994123,-0.003884309,-0.0005755061,0.002108067
8.5364980698,-0.0019344952,0.0013287182,-0.0039777714,0.0036118506,-0.0026126911,0.0052917432
8.5465459824,-0.0019376617,0.0023501033,0.0019098563,0.0068116384,-0.0026055004,0.0021055369
8.5566425323,-0.0019687829,-0.0014720445,0.0049113673,0.0099898279,-0.000447741,0.0031667403
8.566693306,-0.0020021242,-0.002371121,0.0030726832,0.011048967,0.0006572045,0.008476018
8.5766868591,-0.0001061898,-0.0013519411,0.0011898322,0.0078153033,0.003798137,0.0063550766
8.5866727829,-0.0001924899,-0.0032763963,0.0012140317,-0.0007856414,0.0100895884,0.0063604028
8.5969438553,-0.0003199842,-0.0032738333,0.0021495861,-0.0061421366,0.0121932859,0.0106094098
8.6069583893,0.0004951466,-0.0013968234,0.0020352048,-0.0167803988,0.0089309141,0.0127340797
8.6170921326,-0.0006382656,0.0024579281,0.0058255238,-0.0050693359,0.0122290393,0.0148576181
8.6270875931,0.0001560632,-0.002456296,0.0008959813,-0.0114406832,0.0089831781,0.0137958154
8.6372184753,0.0020013633,0.0004122967,-0.0040548998,0.0024921503,0.0027467874,0.014849429
8.6472263336,0.0009110454,0.0082385652,-0.0088784648,0.0089716213,-0.0045966129,0.01909131
8.6573257446,0.0027258056,-0.0043176301,-0.0058320719,0.0132616013,-0.0066742776,0.0201508496
8.6673288345,0.0006358657,0.0035538787,6.25892e-05,0.0068577644,-0.0067440532,0.0180288441
8.6774282455,-0.0054040221,0.0006982202,0.0069009108,0.0035968563,-0.0003862218,0.0212192442
8.6875629425,-0.0046090749,-0.0079975612,0.0147063779,-0.0007174648,0.0037789622,0.014851626
8.6975593567,-0.0057294783,0.0007051344,0.006850366,-0.0039515793,0.0069413991,0.0159153584
8.7076215744,-4.9737e-06,0.0026129598,0.0038814589,-0.0124582481,0.0036630479,0.0127304848
8.7176914215,0.0008802671,-0.0004087572,-0.0021108347,-0.022052981,0.0024972491,0.0095470753
8.7277755737,0.0017914508,0.0004670734,-0.0061360556,-0.0124397678,0.0014993628,0.0063587385
8.7378234863,0.0026944163,0.0033319707,-0.0042810994,-0.0091811512,-0.0037435356,0.0116647538
8.7478961945,0.0036485824,0.0023408646,-0.0023736912,-0.001673433,-0.0079846196,0.0021045385
8.7579603195,0.0007056776,0.0043169968,0.0005732222,0.0068601882,-0.006794719,0.0105984248
8.7680368423,0.0006501037,0.0014462585,0.0006239457,0.0089843255,-0.0057081496,0.0116602266
8.7780942917,0.0025400105,-0.0052705891,-0.002142306,0.0207574945,-0.0087398263,0.0190879833
8.7881774902,-0.0004696217,-0.0022075658,-3.32551e-05,0.0185886156,-0.0056100795,0.0137811014
8.7982378006,-0.0025219214,-0.004054714,0.0039684814,0.0067951265,-0.0004211757,0.0116628231
8.8082933426,-0.0006772843,-0.0049901493,0.0059374613,-0.0049960185,0.0047882334,0.0127302175
8.8183765411,-0.0018021878,-0.0069780834,0.0058399481,-0.0156673603,0.0047092708,0.014856087
8.8284273148,-0.0009841811,-0.0109569915,0.0047262353,-0.0178016163,0.0046906285,0.0148566198
8.8385629654,-0.001143616,-0.003285635,0.0035714551,-0.0156682655,0.0047024796,0.0137941502
8.8485612869,-0.0031973463,-0.0023918038,-0.0014120297,-0.0113800429,0.0025969846,0.010606613
8.8586893082,-0.0032802341,0.0024175162,-0.0034559921,-0.0092036547,-0.0016495588,0.0074189431
8.8686952591,0.0015781705,0.0033565278,-0.0015445905,-0.0038051596,-0.0079828221,0.005290811
8.8787946701,-0.002317254,0.0004478211,-0.0005733924,0.0036609052,-0.0079375487,0.0021027406
8.8888111115,-0.003277455,-0.0033916121,0.000481133,0.0101185385,-0.013165867,0.0052838866
8.8989591599,-0.0022909162,-0.00426488,0.0035356327,0.016467886,-0.0078119803,0.0042232824
8.9089012146,0.0006599757,-0.0031654721,0.0037261888,0.0228818431,-0.0088101337,0.0052829543
8.9190635681,0.0065715942,-0.0049899705,-0.0019038873,0.0186576452,-0.0130991535,0.0042208857
8.9291143417,0.0046427133,-0.013654042,0.0011436386,0.0079741087,-0.0121521344,0.0010386746
8.9392328262,-0.0021532145,-0.0038975959,0.0030971214,0.0078965826,-0.0047311694,-2.02646e-05
8.9492311478,-0.0050752428,-0.0019163375,0.0079869078,-0.0039078789,0.0015046224,-0.0042613489
8.9593296051,-0.0060623256,-0.0107464083,0.0137262987,-0.0232252479,0.0119264377,-0.0074369689
8.969373703,-0.0011408742,-0.0050792582,0.0047650379,-0.024271071,0.0097951088,-0.0074377679
8.9794168472,0.0027924213,-0.00234865,-0.0013120131,-0.0296072215,0.0097344555,-0.0095598409
8.9895038605,0.0008885819,-0.0112784989,-0.0025032717,-0.0220409147,0.0002575973,-0.0085046962
8.9995832443,0.0019279752,-0.0065007098,-0.0026321369,-0.0080905855,-0.0070280125,-0.0053259474
9.009771347,4.6331e-05,-0.0094176419,-0.0016456203,0.0037144078,-0.0132568795,-2.30611e-05
9.0197610855,-0.0018339421,-0.0084076412,-0.002540465,0.0111973584,-0.0142463772,0.0010370102
9.0297346115,-0.0046770391,-0.0073571689,-0.0014568524,0.0176091846,-0.0152722271,-0.0021505272
9.0398311615,-0.0035465104,-0.0033506637,-0.001269813,0.0240291078,-0.0173723958,-0.0074627344
9.0498962402,-0.0014326986,0.0016585703,-8.08792e-05,0.028285373,-0.0162948817,-0.0106486743
9.0600585938,-0.0002574515,0.0017898793,-0.0027538494,0.0272049271,-0.0152778188,-0.0159568861
9.069978714,-3.85385e-05,0.001937818,0.0013628049,0.0207701977,-0.0121507356,-0.0159536917
9.0801677704,0.0011279021,-0.0038121229,0.0034791275,0.0121874949,-0.0080086552,-0.0201969724
9.0901670456,-0.0006623533,-0.0057287104,0.0016070051,0.0057325251,-0.0027457157,-0.0180691071
9.1002674103,-0.0005181548,-0.0115674026,0.0016352577,-0.0028683385,0.003574165,-0.0138173038
9.1102981567,-0.0013870414,-0.0155036338,-0.0013251262,-0.0082023842,0.0035483323,-0.0106305648
9.1204071045,-0.0032485989,-0.0087982304,-0.0033945993,-0.0156639758,0.0024015752,-0.0138149066
9.1302852631,-0.0021582288,-0.0011452322,-0.004545148,-0.023114169,0.0001935484,-0.0169995148
9.1405687332,-0.0020229337,-0.0022839194,-0.0076573449,-0.02095275,-0.0018834511,-0.0127525711
9.1505661011,-0.0028553647,0.0024297948,-0.0078453375,-0.0252452306,0.0001666504,-0.018059453
9.1606740952,-0.0036991951,0.0013157839,-0.0022023874,-0.0177538395,-0.0018901753,-0.018062314
9.1707010269,-0.0025623781,0.007068526,-0.0032556611,-0.001692581,-0.0070415279,-0.0159453675
9.1808366776,0.000496808,0.0051306598,0.0026089591,-0.0006796475,-0.0017268572,-0.0159433056
9.1908187866,-0.0033077491,-0.0065281875,0.0036205691,0.0056586755,0.0046881652,-0.0170035083
9.2009162903,-0.0012236651,-0.0006756072,-0.001189466,0.0088735912,0.0036825556,-0.0127573656
9.2109670639,0.0018256936,0.000313651,-0.0050223428,0.0035363492,0.0036151777,-0.0159414411
9.2210845947,-4.0811e-05,-0.0026083475,-0.0069335657,0.0045735175,0.0068210242,-0.0138161723
9.2310285568,0.0019976008,0.003231358,-0.0078946901,0.0035601845,0.0015136107,-0.0127567668
9.2411680222,-0.0018279817,0.0032295699,-0.0040100771,-0.0039561875,0.0056795268,-0.0148773743
9.2512950897,-0.0037223441,-0.0045601614,-0.002075668,0.0013597487,0.0078689121,-0.0116922343
9.2612705231,-0.0007298481,-0.0016538387,-0.0040160972,0.0024714051,0.0036691066,-0.0063858856
9.2713680267,0.001251388,0.0012680406,-0.0030239779,0.0046381531,0.0005116628,-0.0053262138
9.2814369202,0.0022529322,0.0013114924,-0.0010269837,0.0067639402,0.0016047573,-0.0032022097
9.2915630341,-0.0006885048,0.001362216,5.7264e-06,0.0110660102,-0.001520196,-1.94657e-05
9.301568985,-0.0055941981,0.0014149661,0.0010212107,0.0046000686,0.0047896318,-1.44058e-05
9.3116207123,-0.0056715426,-0.0024738198,0.0029813095,-0.0039891582,0.0100339288,0.0021139926
9.321721077,-0.0047654328,0.0004137272,0.0058240932,-0.011480283,0.0120693156,-0.0010678858
9.3318395615,-0.0028464911,0.0080982558,0.000817482,-0.0168377645,0.0141377933,-0.0021272912
9.3418359756,0.0010382418,0.0021404142,0.0006612582,-0.0253768452,0.0140639571,-0.002125893
9.3518943787,8.974e-07,1.67603e-05,-0.0034728008,-0.0221541524,0.0119699137,-0.0021277573
9.3619680405,-0.0020219428,-0.0020376926,-0.0036484557,-0.0178631339,0.009913221,0.0021169886
9.3720979691,0.0008240971,-0.0050400384,-0.0047327834,-0.0146063548,0.0046638642,0.0063607357
9.3821029663,0.000768635,0.0045813434,-0.005869146,-0.0177717358,0.0014656738,0.0084846066
9.3921699524,-0.0002763685,0.0035168643,-0.0011770086,-0.0231095087,0.0013913716,0.0042387289
9.4022083282,-0.0003050831,0.0014667029,-0.001302834,-0.0134530738,-0.0038151748,0.0063565411
9.4123725891,-0.0023012129,0.0062527768,-0.0024166065,-0.0135074016,0.0014759937,0.0042356001
9.4223709106,-0.0023782221,-0.0064278729,0.0043245596,-0.0082108807,0.0057795951,0.0063608689
9.4324226379,-0.0014881681,0.0022859091,0.0013349099,-0.0061304197,0.0110963294,0.0053011971
9.4427042007,0.0033048349,0.0032133574,0.000306849,-0.0061179828,0.0100560328,0.0084861377
9.4527273178,0.0041287574,0.0022288675,0.0031787199,-0.005071627,0.0121942852,0.0095487395
9.4628944397,0.0010603849,-0.0007163172,0.0001988454,-0.0039957352,0.0111503918,0.010608878
9.4726715088,0.0009059343,-0.0006988531,-0.0017582731,0.0035407431,0.0048842407,0.015912829
9.4828453064,-0.0012287315,-0.0026143675,0.0021485132,-0.0007606605,0.0080302991,0.0159151591
9.4928417206,-0.0024083448,-0.0025793796,0.0050557298,0.0035211705,0.007041201,0.0212225728
9.5029687881,-0.0026185107,-0.0054342039,0.0080085443,0.0034808228,0.0112772919,0.0201638993
9.5130519867,-0.0028400463,-0.011254061,0.0099359797,-0.008238418,0.0090250568,0.0159185547
9.5230579376,-0.0049450886,-0.0016084199,0.0059006256,-0.0177612416,0.0004474141,0.0148536898
9.5331392288,-0.0021183756,0.0041522495,0.007717554,-0.0241427086,-0.0017305189,0.0148542225
9.5431909561,-0.0040980023,-0.0125722177,0.0006830735,-0.0315827541,-0.0050633987,0.0021143919
9.5531616211,-0.0040568528,-0.0039551742,-0.0082567884,-0.0100883814,-0.0196964033,0.0074106208
9.5633411407,-0.0010574426,-0.0030229574,0.0033574745,-0.0197117664,-0.0187660288,-2.07974e-05
9.5734472275,-0.0038885293,-0.0050555952,0.0061601442,-0.0090404814,-0.0186728183,-2.34606e-05
9.5834522247,-0.0018161725,0.0075430386,0.0061018509,-0.0037023881,-0.018634202,-0.0010855291
9.5935058594,-0.0007105437,-0.0070423968,0.0012887163,0.0101170205,-0.0132080102,-0.0010863282
9.6036434174,0.0013009195,-0.0001519208,0.0072447103,0.0154241677,-0.0099582886,0.0021000109
9.6135749817,0.0032936814,0.0028237815,0.008314495,0.0110901399,-0.0036503251,-0.001081135
9.623714447,0.0013743226,-0.0058759935,0.0045094532,0.0067856987,-0.0004889532,0.0010433352
9.6337757111,0.0013596449,-0.0058161505,0.0036141917,0.0078219343,0.0027172263,0.0031682714
9.6437749863,0.0003307569,-0.0019182449,0.0026589674,-0.0028917482,0.0068608387,0.002111529
9.6539134979,-0.0026661051,-0.0038908606,0.0045383614,-0.0082380446,0.0078752367,0.0021133935
9.6640300751,-0.0007455614,-0.0010157709,0.0054322523,-0.0082063805,0.0046709878,-0.0010731455
9.6739444733,-0.0007371646,-0.0001234894,0.0004880471,-0.0103214625,0.0025026423,-0.0053208875
9.6841650009,0.0002992037,0.0007832164,-0.0015548425,-0.0102343764,-0.0059860507,-0.0053244825
9.6942071915,0.0023430395,0.0055505149,-0.0055447775,-0.0080234203,-0.0133667355,-0.0010815345
9.7042160034,0.0033995095,-0.0003232842,-0.0046013552,-0.0090603484,-0.0165370945,0.0021013427
9.7142791748,0.0015050356,-0.0003172641,-0.0026474553,0.00374626,-0.0164113939,0.0042217514
9.7244081497,-0.0014250021,-0.0022103672,0.0042049927,0.0026168656,-0.0100481696,0.0052874153
9.7344455719,-0.0043530879,-0.0041229017,0.0091111707,0.0047196979,-0.0068395934,0.0063502826
9.7445430756,-0.0033826348,-0.0001988893,0.0062239212,0.002599583,-0.0079062562,0.0084747532
9.7545633316,-0.0004771691,-0.0011818891,-0.0005549149,-0.0006103255,-0.0068455199,0.0127232932
9.7646608353,0.0004728172,-0.0002213007,-0.0005851941,-0.0069771176,-0.0111644343,0.0095355567
9.7747392654,-0.0025022295,-0.0012138968,0.0003265186,-0.0069653997,-0.0122115891,0.0116586285
9.7848100662,-0.0064073843,0.0026288147,0.0002650066,-0.0090767285,-0.0143883908,0.006350616
9.7948656082,-0.0034479541,0.0006404633,-0.0007615642,-0.0090660742,-0.0154493945,0.0063500833
9.8049430847,-0.0034231511,-0.0023413782,0.0011014981,-0.0134107554,-0.0080804275,0.00316947
9.8150119781,-0.0034066183,0.0014779086,0.0019650501,-0.0112978043,-0.0059397779,0.0031700025
9.8250627518,0.0024973485,0.000420999,-0.0020028311,-0.0144655546,-0.0091513507,0.0031698029
9.8351125717,0.0045163515,-0.0016335135,-0.0069822031,-0.0155017888,-0.0123575302,0.0010448665
9.8450088501,0.0036060247,-0.0017157679,-0.0070854384,-0.0123222424,-0.0102144843,-1.66694e-05
9.8550853729,-0.0012399222,-0.0007865911,-0.003288205,-0.0081075234,-0.0048791077,-0.001076874
9.8653478622,-0.0041216877,0.001121592,-0.0013803797,0.0004041791,-0.0027024394,-0.0042642117
9.8754005432,-0.001167361,0.0050268285,0.0025138301,0.0003626337,0.0015554224,-0.0021384766
9.8854961395,-0.0001942631,0.0001719112,0.0025246781,-0.0007481715,0.0057762666,-0.0042596841
9.8955173492,0.0018093918,0.0011120553,-0.006238516,0.0003834059,-0.0005735084,-0.0032013441
9.9056100845,0.0037763822,-0.0047344454,-0.0081772162,-0.0028046099,-0.0016421021,-1.52712e-05
9.9156341553,0.0008202005,-0.006677676,-0.0072102505,-0.0006799409,-0.0005486081,0.0021083334
9.9257774353,-0.0011796918,-0.0008210426,-0.0023461538,0.0025555333,-0.0036759579,0.0063531459
9.9357833862,-0.0022035507,-0.0036965495,0.0015693946,0.0025241077,-0.0004860237,0.0074165459
9.9458007812,-0.0061919955,-0.0065812953,0.0045131487,0.004657194,-0.0004527343,0.0095388191
9.9558315277,-0.0052829054,-0.005568672,0.0055279774,0.0057232571,-0.0004572617,0.0074149482
9.9659986496,-0.0043442813,-0.0026275998,0.0007094188,0.0057244026,-0.0004647851,0.0063537448
9.976099968,-0.005349223,-0.0015957241,0.0007695003,0.0132241305,-0.0036102447,0.0021030735
9.9861478806,-0.0043428582,0.0014172907,-6.57992e-05,0.0186023843,-0.0078076525,0.0020996116
9.9983739853,-0.0072424752,-0.0042812712,0.0030553385,0.0239465497,-0.0088497475,-0.002149462
10.006565094,-0.006223191,-0.0080451854,0.0051914495,0.0164534803,-0.0067923223,-0.0021471982
10.0164031982,-0.0022399095,-0.008938957,0.0072723669,0.0154513326,-0.0131538156,-2.65231e-05
10.0263786316,-0.0011607524,-0.0049387105,0.006468181,0.0208077487,-0.0152361412,-0.0010907223
10.036444664,-0.0020174203,-0.0116832741,-0.0021427828,0.0112355491,-0.0185030401,-0.0010899234
10.0478010178,-0.0028693345,-0.0106393583,-0.001048799,0.0101923076,-0.0206281766,-2.81876e-05
10.0565910339,-0.0027653691,-0.0076677091,0.0058160466,0.0005327566,-0.0154347466,-0.0042703371
10.0673007965,-0.0056183604,-0.0086421855,0.0135779427,-0.0059582461,-0.0069944565,-0.0032039406
10.0768508911,-0.0045843911,-0.0087323673,0.0125221061,-0.0144958068,-0.0070759491,-0.0042636124
10.0874261856,-0.0015419092,-0.0136422999,0.007625584,0.000467509,-0.0090611363,-0.0032060049
10.0972213745,0.0005114559,-0.0126986392,-0.001120563,0.0026108203,-0.0101242699,-0.0063924771
10.1068887711,-0.0022927118,-0.0039592274,-0.0001569943,0.0015304303,-0.0090716556,-0.0063926103
10.1168355942,-0.0012296181,-0.001021493,0.0115212249,-0.0102101164,-0.0092018843,-0.0106368894
10.1272335052,-0.0040219245,-0.0069393404,0.0094899582,-0.0091850907,-0.0049843024,-0.0159429051
10.1372680664,0.0010257397,-0.0060320385,0.0045892042,-0.0070375185,-0.0059920428,-0.0106349587
10.1470222473,0.0031247619,-0.0099949725,0.0055068773,-0.0113042481,-0.0060584215,-0.0148797054
10.1570720673,0.000329915,-0.0081087835,0.0132008838,-0.0123910848,-0.0039249635,-0.0116929663
10.1671876907,-0.0005230423,-0.0053239353,0.0100965546,-0.0251795314,-0.006178664,-0.014877174
10.177233696,0.0006219852,-0.012306083,0.0079536485,-0.0326158777,-0.0094061485,-0.0116915014
10.1873598099,-0.0001853075,-0.0067081936,0.0047363085,-0.0368356556,-0.0147824045,-0.0170027781
10.1973514557,-7.9837e-06,-0.0050105937,0.0073235077,-0.0485165454,-0.0201345608,-0.0085080918
10.2074861526,-0.0027431813,-0.0111250766,0.0098676132,-0.0442480035,-0.020104399,-0.0095707597
10.2175350189,-0.0015820082,-0.0026576405,0.0085203694,-0.0473971926,-0.025451228,-0.0116962288
10.2275152206,-0.0023602215,-0.008725334,0.0140599059,-0.0346093588,-0.0231830813,-0.0063890149
10.2376194,0.0056839022,-0.0011396294,0.0060803932,-0.0217628032,-0.0273360144,-0.0095797479
10.247751236,0.0049780044,0.0035807008,-0.0037699894,-0.0056356043,-0.0388469957,-0.0064036618
10.2577619553,0.0052444744,0.0016490931,0.004065339,0.0050239647,-0.0377066284,-0.0085293977
10.2678699493,0.0015798394,0.001668107,0.0060394448,0.0006986707,-0.0324447565,-0.0095885359
10.2779045105,0.0048000845,-0.0012432223,0.0090408372,0.0071312701,-0.0355995372,-0.0138389412
10.2880277634,0.0051441002,-0.0002373939,0.0023416323,0.011424792,-0.0376784652,-0.0127781378
10.2980461121,0.0015597899,-0.0050976761,-0.0014754491,0.0017993292,-0.0356403515,-0.0127746752
