0.0000000000,0.0128861852,0.0115142176,0.0056142411,0.0113470405,-0.0053901831,-0.0368174501
0.0099419355,0.0185727663,0.0165946204,0.0133404927,0.0102921631,-0.0064397343,-0.0336323082
0.0199970007,0.0213635154,0.0109283039,0.0123217301,0.0060161911,-0.0053744698,-0.0272598956
0.0300829411,0.0163366087,0.0042788098,0.0122344689,0.0135341892,-0.0063764844,-0.0261873081
0.0402619839,0.0172065087,0.005485327,0.0023262105,0.0369463563,0.0001948655,-0.0261902381
0.0503690243,0.0052989912,0.0136537859,-0.0018918315,0.0433683023,-0.0018989118,-0.0304401089
0.0604059696,0.0060755801,0.0062992284,0.0027288995,0.041228082,-0.0019652245,-0.0378729925
0.073745966,0.0107588954,0.0077435086,0.0005021294,0.0497949347,-0.0051013632,-0.0421239287
0.0806260109,0.0134519227,0.0112115452,0.0050060353,0.0583882928,-0.0103542488,-0.0453124642
0.0907969475,0.0171632357,0.0137440274,0.011441608,0.0520387813,-0.0157151911,-0.0453135297
0.1010479927,0.0101665445,0.0161649901,0.0120333033,0.039276544,-0.0200570766,-0.0431889966
0.1107610464,0.0060949516,0.0166357476,0.0106998878,0.0467224792,-0.0179044437,-0.0484988056
0.1208649874,0.0039727581,0.0083542177,0.0045407019,0.0392712168,-0.020076517,-0.0463757329
0.1310780048,0.0008582663,-0.0068242839,0.0023457608,0.0200293455,-0.0170820598,-0.0495547466
0.1409499645,0.0035951626,-0.0123629859,0.0002564391,0.0146544483,-0.0128858499,-0.0495500863
0.151039958,0.0053073955,-0.00336638,0.0030802689,0.0006970875,-0.0045120721,-0.0484805591
0.1611050367,0.0004835319,-0.0121593764,0.010566731,-0.0218948536,0.0133367665,-0.0474047102
0.1711479425,-0.0012934912,-0.0074610403,0.0068075261,-0.0336630978,0.016444942,-0.0431529731
0.181210041,-0.0080343895,0.0017068097,0.0076767406,-0.0572571903,0.0279322863,-0.0399564505
0.1912130117,-0.0038728523,-0.007832556,0.0068346462,-0.0669753328,0.0395609811,-0.0335773788
0.2013839483,0.0004047048,-0.0069609573,0.0057676039,-0.0755297244,0.0416496955,-0.0272031035
0.2114419937,0.0043212664,-0.0028660586,0.0067005954,-0.0648770779,0.0438995361,-0.0218956899
0.2215169668,0.0105963238,0.008229346,0.0126111703,-0.0402067527,0.0325249732,-0.0091650467
0.2316000462,0.0074071479,0.0108059952,0.0150792198,-0.0283596795,0.0220451709,-0.0049260943
0.2416110039,0.0061059487,-0.0028027585,0.004647573,-0.0272539333,0.0177834462,-0.009176366
0.2516490221,0.0030215573,-0.0023836186,-0.0005447665,-0.005485788,-0.0220782161,0.032208357
0.2617490292,-0.0403092019,-0.0084362915,-0.0096308989,0.0298350509,-0.1253460795,0.2583126724
0.2719459534,0.0022700918,-0.028230099,-0.0136412187,0.0463727489,-0.0685967803,0.3146121502
0.2818470001,0.0589581318,-0.0122252395,-0.0040665665,0.037610203,0.0477115847,0.1001881436
0.2919969559,0.036277134,0.0094815204,0.00730445,0.0165877435,0.009704547,-0.0049436046
0.302060008,-0.0129559748,0.0076551745,0.0101062255,0.0050313016,-0.0084709274,-0.0102574769
0.3121310472,0.0153494664,0.0038158605,0.0141090946,0.001833111,-0.0084573459,-0.0038858633
0.3221819401,-0.0015622784,-0.0007743528,0.0051814518,0.0007480327,-0.0074457433,-0.0102573428
0.3323030472,0.0040630591,-0.00259599,0.001297613,0.0114278411,-0.0084412331,-0.0145077473
0.3423290253,-0.0021861601,0.0030061314,-0.0032083788,0.032737419,-0.0050927741,-0.0176966824
0.3523099422,-0.0009317208,0.0019132802,-0.0065386691,0.0348493047,-0.0029659737,-0.0198197551
0.3624229431,-0.005739938,-0.0027215173,0.0015931329,0.0348038971,0.0012292372,-0.0272499099
0.3724679947,-0.0061388421,-0.0002898266,0.0037898025,0.0263313167,-0.0052044275,-0.0261891726
0.3825169802,-0.0055183279,-0.000268965,0.0073652468,0.0071023083,-0.0032646472,-0.0283063184
0.3926279545,-0.0108893327,-0.0028875163,0.0073310337,-0.013215214,0.0008091902,-0.0272373259
0.4026470184,-0.008906465,-0.0019522002,0.0024734936,-0.0218459852,0.0103113493,-0.0229831915
0.4127509594,-0.0081992559,-0.0010401299,-0.0031875768,-0.0261549801,0.014545775,-0.0187327862
0.4227889776,-0.0053201425,-0.0014111688,-0.0096556945,-0.0305785164,0.0304431822,-0.015537194
0.4328930378,-0.0045287418,0.0011208961,-0.0043419399,-0.0497847013,0.0303031001,-0.0112851905
0.4429140091,-0.0076067257,-0.0030586412,0.00378265,-0.0754650608,0.036433097,-0.0134007391
0.4529980421,-0.0116565339,-0.0034685424,0.0051725111,-0.0743345469,0.0300694741,-0.0144660035
0.4631290436,-0.0117332451,-0.0008204271,0.0015486678,-0.0572376698,0.0280889478,-0.0155323995
0.473121047,-0.0087685101,-0.0048368862,-0.0032149949,-0.0454694256,0.0249807723,-0.0197841357
0.4831949472,-0.0039410102,-0.0058933785,-0.00015829,-0.0294428915,0.0230063051,-0.0187281929
0.4932609797,-0.0020927894,-0.0011056354,-4.98096e-05,-0.0133842984,0.0178203322,-0.0219202563
0.5033910275,0.0065135849,-0.0001672794,0.0011009177,-0.0143661257,0.0093016112,-0.0251090601
0.5134090185,0.000479449,0.0016708681,0.0061177216,-0.0367768928,0.0090920208,-0.027227072
0.5234860182,-0.0015211512,-0.0023069074,0.0052566133,-0.0431813672,0.0090438174,-0.0261644721
0.533542037,-0.0004627812,-0.003440409,0.0004829963,-0.0463497303,0.0058466922,-0.0240416639
0.5439180136,-0.0003921497,-0.0114155104,-0.0052218237,-0.0239357669,0.0060480274,-0.0229841247
0.5536830425,-0.0003977228,-0.0006819059,-0.0130770607,0.0123913465,0.0021486271,-0.0187481008
0.5637609959,0.0073341024,0.0104015181,-0.0075247684,0.0465420187,0.0024602171,-0.0166324861
0.5737849474,0.0082293637,0.0070008347,-0.0001052419,0.0615366809,-0.0026935325,-0.0134534687
0.5841120481,0.0060509038,0.0085418532,0.0063271723,0.0626417324,-0.0069692377,-0.0198272131
0.5938999653,0.0040187133,0.0032430002,0.0058844886,0.0583929271,-0.0091493009,-0.0230126195
0.6040300131,0.0039541912,0.0027720639,0.0054633818,0.043462608,-0.0103759533,-0.0283179041
0.6140710115,0.0008897078,-0.0036858013,0.0042560301,0.0274034776,-0.0051969038,-0.0261876415
0.62439394,0.0006773066,-0.0043732217,-0.0007604162,0.0134752793,-5.1379e-06,-0.025120711
0.6343070269,-0.0005078125,-0.0054137399,0.0042718253,-0.0110633541,-0.0001502801,-0.014496563
0.6442860365,-0.0007669139,-0.0115403822,0.00758638,-0.0260852855,0.0082274918,-0.0113026341
0.6543339491,-0.0029709148,-0.0059672287,0.0079213576,-0.0389733911,0.0166382883,-0.0059861653
0.6647449732,-0.0061417329,-0.0092436364,0.0093290405,-0.0647375584,0.0323770344,0.0014618973
0.6745040417,-0.0044254768,-0.0136458566,0.0021206341,-0.0797822773,0.0428773463,0.0046563591
0.6844860315,-0.0057069468,-0.0073627522,0.0027026138,-0.0766864121,0.053543441,0.0089076962
0.6946200132,-0.0021127569,-0.0039162328,-0.0006490151,-0.0724786222,0.0599882938,0.0152806407
0.7048909664,0.0034179282,0.000500531,-0.0020347037,-0.0692666844,0.0589837469,0.0195257198
0.7147589922,0.0041635823,0.0039903829,0.0023365221,-0.0724025592,0.0526105352,0.0227087308
0.7247639894,0.0020224643,0.0084886262,0.0027250848,-0.0734260082,0.0483710505,0.0248304699
0.7348890305,-2.5611e-05,0.0061698863,-0.0047091045,-0.0509630442,0.0432617739,0.0248222146
0.7451429367,0.0009636175,0.006982238,-0.0152939362,-0.0220916867,0.0381993055,0.0237527546
0.7550319433,-0.0059512365,0.0041002939,-0.015321116,0.0025673183,0.0267149564,0.0194935612
0.7650790215,-6.4056e-05,0.000426204,-0.0115778251,0.0304164179,0.0163411461,0.0184187088
0.7751790285,0.0038624895,-0.0011799624,-0.0050391355,0.0497397818,0.0048101903,0.0141608482
0.7854180336,0.0058478904,-0.0047246506,-0.00240312,0.0519771874,-0.0057728793,0.0152153932
0.7952870131,0.0069359434,-0.0063366583,0.0001768073,0.0531401858,-0.0153125878,0.0152103323
0.8053510189,0.0071751964,-0.0031633666,0.003736933,0.0489272252,-0.0206201337,0.0205176137
0.8154439926,-0.0003776956,-0.0088547757,-0.0014269153,0.0457498096,-0.0227354839,0.0258263592
0.8256779909,-0.0010840107,-0.0039834669,-0.0015752116,0.028703101,-0.024980329,0.0300781634
0.8355979919,-0.0027023661,-0.0070081046,0.0090862112,0.0105635114,-0.0251180138,0.0332680978
0.8458429575,-0.0072735953,-0.0091601303,0.0032476387,-0.0076410584,-0.0189035274,0.0343376212
0.8557219505,-0.0100024752,-0.0103935292,-0.0073674121,-0.0216431618,-0.0063134339,0.0311620682
0.8659410477,-0.0128871612,-0.0077452948,-0.0120416088,-0.0367576405,0.0105194077,0.0290495828
0.8758770227,-0.0119926743,-0.0050776294,-0.012759666,-0.0240815226,0.0233425293,0.0258673709
0.8858699799,-0.0062517631,0.0094532082,-0.0107072992,0.0025628973,0.0267521068,0.0248000436
0.8959280252,-0.0043897736,0.0144332955,-0.0039363899,0.0186113715,0.0226340611,0.0226703137
0.9062440395,-0.0005656886,0.0126217315,0.0018565854,0.0196786337,0.0226077642,0.0173620339
0.9160729647,0.0062561226,0.0138427923,0.0114317136,0.0198043361,0.0098480256,0.0131084332
0.9261579514,0.0063453508,0.0101675102,0.016093513,0.0273503475,0.0024714686,0.0109801684
0.9362139702,0.0064501357,0.0025835941,0.0119760828,0.0284473039,-0.0007299173,0.0067310943
0.9464800358,0.0046151173,-0.0089673689,0.0050144396,0.0241663009,0.0002873437,0.0056704241
0.9563319683,0.0008013737,-0.0079155853,-2.22722e-05,0.0305280611,0.0046080565,0.0088563636
0.9664540291,0.0018326532,-0.0001035621,-0.0049644508,0.0368587933,0.0121114459,0.0120442342
0.9764800072,0.0038383496,0.0038733194,-0.0031131306,0.0432455838,0.0143586211,0.0226617251
0.9867559671,0.010766197,0.0137018273,0.0065217218,0.0187654626,0.0077995886,0.0258494616
0.996762991,0.0098644681,0.0137384841,0.0269400086,0.0039444389,-0.0039811707,0.029032737
1.0069329739,0.0090994723,0.0127110789,0.029803833,-0.0034299875,-0.0135881919,0.0300912783
1.0166410208,0.0015198182,0.0038671801,0.0131702619,0.000783666,-0.0082666632,0.0269074701
1.0267879963,-0.0071602273,-0.0019756248,-0.0025113621,0.0081449095,0.0023809215,0.0226637218
1.0367480516,-0.0110267811,0.004872174,-0.0065113106,0.0080278106,0.0140305869,0.0194847733
1.0467979908,-0.0101383142,0.0077094147,-0.0073765316,-0.0113188559,0.0276202299,0.0141884778
1.0568740368,-0.0054475474,0.0085037062,-0.0031864443,-0.0231733844,0.0392025858,0.0163208712
1.0670109987,-0.0008182931,0.0130611965,0.0020791492,-0.0402680859,0.0411965623,0.0195112713
1.0771329403,0.001935799,0.0098181674,0.002486249,-0.055237174,0.0442836992,0.0248256102
1.0871880054,0.0018265437,0.0093830535,0.0038863025,-0.0712296963,0.043124225,0.0312000848
1.0973039865,0.0036883843,0.0059346268,0.0112590985,-0.0712376907,0.0442198478,0.0365096331
1.1074880362,-0.0011998225,0.0102214525,0.008816977,-0.0519958436,0.0412325151,0.0407502465
1.1174679995,-0.0011477877,-0.0009371926,0.0072643957,-0.0263543967,0.0382524393,0.0375568531
1.1274540424,0.0018338453,-0.009964793,0.0055750809,-0.0049531292,0.0320248976,0.0301151797
1.1376160383,0.0008375239,-0.0061859181,0.0066373548,0.0089269988,0.0310435258,0.0237403717
1.1477810144,0.0027518761,0.0025387118,0.0066645346,0.0132079246,0.0299978349,0.0205545649
1.157714963,0.0026923013,0.0083601782,-0.002086381,0.0142755862,0.0300140809,0.0216161013
1.1677320004,-0.0022994685,0.0112334201,-0.0069092908,-0.0018211976,0.0383568332,0.0205610897
1.177834034,-0.0024764049,0.0111892531,-0.0009218255,-0.0124930171,0.0382566974,0.0195019506
1.18808496,-0.0045271325,0.0100488374,-0.0007306734,-0.0114229871,0.0382863246,0.0226875581
1.1979080439,-0.0056569981,0.0051004598,-0.0054671564,0.0002499148,0.0447341055,0.0195024163
1.2080090046,-0.0029220986,0.0002686093,-0.0092738075,0.0003037639,0.0394217633,0.0184383504
1.2180939913,-0.0001764107,-0.0006365468,-0.0023931661,0.0078168083,0.0352499224,0.0194961578
1.2283619642,-0.0012785007,0.010112376,0.0024709902,0.0078583267,0.0309991837,0.0184320249
1.2382110357,0.001537342,0.0071228454,-0.001290361,0.0036217701,0.02777889,0.0184314921
1.2482869625,-0.0024225223,0.0031344602,-0.0070518055,0.0153699322,0.0268136263,0.0173660964
1.2583489418,0.0014598559,0.0109105418,-0.0080179377,0.020717293,0.0258130766,0.0194878355
1.2686209679,0.0024624062,0.0110171745,0.0006618699,0.0369075276,0.0079221604,0.0205371864
1.2784739733,0.0025928211,0.0111925313,-0.0044284859,0.0508435853,0.00167039,0.0194687285
1.2885489464,0.000738759,0.0143632004,-0.0056934156,0.0487069562,0.0016383653,0.0173451882
1.2986090183,-0.0040662694,0.0088278363,0.000829955,0.0455891937,-0.0068983976,0.0141563211
1.3089499474,-0.0048987973,0.0070669958,0.0044884286,0.0317679718,-0.0123381699,0.0120332493
1.3187220097,-0.0057215202,0.0023012469,-0.0034559765,0.0253007524,-0.006035001,0.01097624
1.3288060427,-0.0046610641,0.0033485005,-0.0074630775,0.020957619,0.0013689867,0.0131042395
1.3389919996,-0.0055919993,0.0023391554,-0.0074559846,0.0113012623,0.0066039623,0.0152329039
1.3491539955,-0.004600029,0.0022806833,-0.0025306144,-0.0047847899,0.0149642248,0.017366562
1.3590320349,-0.0007074881,0.0001265715,-0.001341323,-0.0218604468,0.0147943143,0.0141854156
1.3690969944,-0.0027003693,-0.0002477457,-0.0019685426,-0.0465034768,0.0241372157,0.0152568053
1.3791780472,-0.0105788521,0.0011815736,-0.0034796991,-0.066820994,0.0282110535,0.0163257979
1.3894169331,-0.007730912,0.0025302479,-0.0038763084,-0.0775758028,0.036598146,0.0152717186
1.399338007,-0.0039910185,0.0039242813,-0.0042957463,-0.0605251789,0.0388415903,0.0110213142
1.409332037,0.0046336842,0.0132769058,0.0010215243,-0.0391548313,0.0358180404,0.0067664478
1.419500947,0.0073612821,0.0062160203,0.0052691898,-0.029518716,0.0327189192,0.0067624534
1.4296959639,0.0072003496,0.0050384114,0.00064828,-0.0199178047,0.0327755138,0.0025124475
1.4395799637,0.0060257507,0.0068853209,-0.0060047903,-0.0049465774,0.0297160707,0.001445319
1.449581027,0.004888196,0.0117708752,-0.0040061274,0.0057809013,0.0245174486,0.0035642632
1.4596970081,0.0048406911,0.0127794454,0.0018385848,0.0037755407,0.011780615,0.0056820088
1.4699879885,0.0077673984,0.0098531554,0.0125895934,-0.0078548305,0.0010603929,0.0046185418
1.4823470116,0.0020016623,0.0058412859,0.0155713158,-0.0194041617,-0.0181748196,-0.0006971274
1.4899350405,0.0001476895,-0.0031217029,0.0069249473,-0.0205288921,-0.012913147,-0.0060038087
1.5006879568,-0.0076326835,-0.007146745,-0.0095849438,-0.0152055006,-0.0118263103,-0.0091900155
1.510874033,-0.0056840586,-0.0052696159,-0.0173105393,-0.009912095,-0.0075358255,-0.0091890823
1.5206689835,-0.0047704983,0.0004277537,-0.0181575809,-0.0227884762,-0.0001721845,-0.0017495421
1.5307099819,0.0019824696,0.0060395906,-0.0100895567,-0.0346222594,0.0092883622,0.0003815859
1.540266037,0.0038383198,0.0154626081,-0.0029729404,-0.0400388688,0.0177851766,0.0088815968
1.5504959822,0.0037404192,0.0122253606,-0.0016686717,-0.0486260168,0.0230216179,0.0099491253
1.5602099895,0.0036693108,0.010882468,0.0055239401,-0.0625285134,0.026111152,0.0142013943
1.5702320337,0.0045327437,0.0026725838,0.0001146396,-0.051924102,0.0325643234,0.0131392591
1.580376029,0.005370487,0.0082139084,-0.0044588246,-0.018867081,0.0349406637,0.0078230575
1.590644002,0.0022134674,0.00230077,-0.0023190775,0.0014379509,0.0319213681,0.0056923283
1.6004090309,-0.0028342116,-0.006466954,-0.0051609077,0.0132402815,0.0256578811,0.005686203
1.6105649471,-0.0049129534,-0.0044481447,-0.0071401992,0.0218986981,0.0140812537,0.0088645527
1.6206350327,-0.0010560561,0.002462537,0.0015849074,0.023010036,0.0098673338,0.0120475627
1.6308950186,0.0038868082,0.0035521099,0.0024501882,0.0358923301,0.0026154127,0.021595927
1.6407220364,0.0089219697,0.0056460807,0.0051856241,0.035926953,-0.0005329764,0.0269033406
1.6509430408,0.0149326511,-0.0029434254,0.0099070864,0.0294552576,0.006871677,0.0322187431
1.6610269547,0.0042696786,-0.0029098084,0.0058832369,0.0250903368,0.0163764991,0.0311628003
1.6713420153,-0.0064475345,-0.0067700436,-0.0107669635,0.0249824002,0.0269656926,0.0279827882
1.6811469793,-0.005518775,-0.0037936261,-0.0205607805,0.0216830075,0.0364590622,0.0237411708
1.6912059784,-0.0056971717,0.0020670602,-0.0117333932,0.0023995917,0.0437113829,0.0226878915
1.7012799978,-9.3687e-06,0.0155889699,0.0030602417,-0.0125386119,0.0436016619,0.0258770268
1.7116219997,0.0046995771,0.018345328,0.0159850325,-0.0188782401,0.0371871032,0.0269367658
1.7214800119,0.0065304232,0.0084305713,0.0201466884,-0.0177477263,0.0308234803,0.0258715004
1.7315499783,0.0005203378,-0.0043676784,0.0115750032,-0.0113775786,0.0340413116,0.0226864256
1.7416379452,-0.0015278269,0.0013385722,0.0019484957,-0.0092736818,0.0372637399,0.0258728974
1.7519179583,-0.0084555857,-0.0018793037,-0.0085046096,-0.037144728,0.0498309284,0.0375647061
1.7617149353,-0.0086126737,-0.0024148514,-0.0118864579,-0.0628298447,0.0570411682,0.0386366285
1.7717809677,-0.0009251047,-0.000154226,-0.0092738671,-0.0735245496,0.0601848327,0.0471368395
1.781850934,0.0038631749,0.0040489146,-0.0027839341,-0.0553689823,0.0593307577,0.0545643978
1.7921389341,0.0077179265,0.0074882815,0.0064220629,-0.0307184681,0.0489279851,0.0534913428
1.801954031,0.0008520376,0.0043058703,0.0124943452,-0.0210232288,0.0394005254,0.0439279303
1.8120449781,-0.0059574354,-0.0017453125,-5.21938e-05,-0.0038903961,0.0331641324,0.0407338031
1.8221299648,-0.0088580362,0.0079014013,-0.0127101941,0.0174697544,0.0311800782,0.0332947932
1.8323940039,-0.0108245425,0.0040225098,-0.0146805448,0.0184915829,0.0354059152,0.0290492494
1.8422290087,-0.0059835124,-0.0007989099,-0.012703876,0.0196444653,0.0269341357,0.030106524
1.8523260355,0.0008245599,0.0021596262,-0.0058665075,0.0142507656,0.0332799144,0.0343595929
1.8623729944,0.0007809889,0.0002198527,0.0009821852,0.0164819621,0.0237633754,0.0364778712
1.8726409674,0.0047298265,0.0061208913,0.0067633591,0.0282883402,0.0175126698,0.038596414
1.8825110197,-0.0029292214,0.006188483,0.0026987991,0.0177326351,0.0057276492,0.0354078114
1.8925769329,-0.0066317725,0.0051703164,0.0016473135,0.0027913963,0.005583439,0.0332878046
1.9027040005,-0.0083820634,0.0098250816,0.0026761494,-0.0078479322,0.0023072185,0.0332888663
1.9128869772,-0.0091718547,0.0018107602,-0.003033618,-0.0122056622,0.0107309297,0.0290463194
1.9227639437,-0.0081203692,-0.0003935983,-0.0087029738,-0.0208295118,0.0191236157,0.0258673038
1.932888031,-0.0032935846,-0.0016258648,-0.0064686337,-0.0295666493,0.039193064,0.0237571504
1.9428850412,-0.0025059092,5.9695e-05,-0.0071401396,-0.0253647156,0.0455617458,0.0184502695
1.9532090425,0.000145812,0.0017238567,-0.0038327374,-0.0478754304,0.0548955277,0.0152739827
1.9631479979,-0.0021376419,-0.0026291898,0.0045261583,-0.0724534765,0.0578364581,0.0110344971
1.9731119871,0.0004848134,0.0026431391,0.0061215363,-0.0638840422,0.0547065102,0.0078460937
1.9831680059,0.0041378331,0.0119035551,-0.0021341839,-0.0468509905,0.0591204315,0.0110293701
1.9934370518,0.0067975712,0.0086846659,-0.001746873,-0.0190099329,0.0498564951,0.0173872672
2.0032868385,0.0056553376,0.0143714258,-0.0054481425,-0.0018506534,0.0415176041,0.0173787456
2.0133728981,0.0035360348,0.01142189,-0.0063377419,0.0099861119,0.0320559926,0.0152486833
2.0234079361,0.0044756723,0.009507508,-0.0043744245,0.0059306505,0.0107986405,0.0152390953
2.033698082,0.0035818708,0.0055836746,0.0004885396,-0.0045341607,-0.0105478605,0.0099206958
2.0435080528,0.0067239297,-0.0021820953,0.0023727617,0.0073528592,-0.0253062993,0.008848507
2.0538301468,0.0070198071,0.0017739842,-0.0017323295,0.018110672,-0.0337015837,0.0088420492
2.0642580986,0.0063601625,-0.0010683229,-0.0078041353,0.0309913158,-0.0410098322,0.0098969275
2.0739870071,0.0096059628,0.0069318125,-0.0130260987,0.0480004176,-0.0344658457,0.0141419396
2.0838661194,0.0069518876,0.0091660926,-0.0143840713,0.0596754551,-0.0279903673,0.0152040087
2.0938940048,0.0052158129,0.0075565884,-0.0118584437,0.0574472621,-0.0184820164,0.0120251924
2.1039960384,-0.0005113292,0.0059711048,-0.0073703327,0.0563668199,-0.0174649563,0.0067169801
2.1142349243,-0.0053421962,0.0063280175,-0.0057692924,0.051933907,-0.0016495732,-0.0028301193
2.124174118,-0.0034764218,-5.99315e-05,-0.0041044154,0.0540026501,0.0047143167,-0.0060128635
2.1341660023,0.0012470972,0.0022732327,0.0015038451,0.0453390665,0.0173784457,-0.0049422728
2.1442229748,0.0010251593,0.0034767101,0.0072632036,0.0164658763,0.0235343445,0.0014389275
2.1545000076,0.0076376093,0.0044098208,0.0054742894,-0.009254667,0.0350571759,0.0131316688
2.1643569469,0.0094066747,0.0080156038,0.0019080242,-0.0349014401,0.039167501,0.0269436222
2.1744189262,0.0073256684,0.0055739591,0.0043370924,-0.0584246106,0.0443574674,0.0407555737
2.184481144,0.0053015244,-0.0009132316,0.0059178076,-0.0712163076,0.0432261564,0.0471290499
2.1947779655,0.0033487868,-0.003556638,0.005530139,-0.062692143,0.0443553999,0.0460650511
2.2046120167,0.0052829278,0.0007762621,0.0001161298,-0.0327709913,0.0403585285,0.0439318605
2.2146890163,0.0072461856,0.0141504714,0.0032249889,-0.002755357,0.026784664,0.037546929
2.2248430252,0.0053174687,0.0141539285,0.0080840783,0.020813087,0.017385304,0.0290418603
2.2350578308,0.008258868,0.0065043876,0.0021465023,0.0347313546,0.0121117122,0.0152320378
2.2449309826,0.0004234802,0.0106917331,-9.17712e-05,0.0583296232,-0.0004983551,0.0024781595
2.2549519539,-0.0044983733,0.0180058796,-0.0034803548,0.0785984099,-0.0003829072,-0.0070837867
2.2651000023,-0.0055824327,0.0137707302,-0.0088376207,0.0796202645,0.0038358062,-0.0123909349
2.2753129005,-0.0047406959,0.0046357224,-0.0131412549,0.0688774735,0.011196983,-0.0081370007
2.2852349281,0.000964899,0.008986027,-0.0124791665,0.0517219231,0.0195843428,-0.0006958625
2.2952151299,0.0037444425,0.0083328197,-0.0048547187,0.0442578271,0.0195597075,0.0056777475
2.3053650856,0.008567024,0.009581537,0.004709383,0.0390217863,0.0100125428,0.0131069021
2.3155651093,0.0027400446,0.004835696,0.0114224153,0.0071288603,-0.0018967814,0.0194800459
2.325425148,-0.0058936584,-0.0001580407,0.0143562751,-0.0140858814,-0.014815243,0.0194789805
2.335518837,-0.0104955249,0.0044051716,0.0076159439,-0.0236407407,-0.0202383045,0.0141692366
2.3455739021,-0.0131787471,0.0002286146,-0.0039747157,-0.0108586354,-0.0180321429,0.0099198967
2.3559169769,-0.0120712332,-0.0008712103,-0.0097803278,-0.0024541244,-0.0052665453,0.0035528117
2.3656840324,-0.0061898041,-0.004859834,-0.0077031651,-0.0142894797,0.0041661048,0.0014369301
2.3758070469,-0.0062547433,-0.0001951148,-0.0075144568,-0.0335510299,0.0092962179,0.0003827844
2.3858389854,-0.0054158079,0.0053427527,-0.0091674132,-0.0389937311,0.0198527221,-0.00067236
2.3961181641,-0.0094969384,0.0041075656,-0.0118096275,-0.0432716757,0.0208475478,-0.0049167732
2.4061341286,-0.0097191744,-0.0058654835,-0.013412456,-0.0434032381,0.0335311182,-0.0123429969
2.416036129,-0.0090022199,-0.0118696978,-0.0121500893,-0.0188307539,0.0305352621,-0.016598396
2.4261341095,-0.0073042917,-0.0002049496,-0.0091252131,0.0004718369,0.0211332384,-0.0197933912
2.4363560677,-0.0026303637,0.0076437304,-0.0042022266,0.0069279522,0.0159125756,-0.0155511741
2.4471979141,0.0011309873,0.0145954201,-0.0023088851,0.014549653,0.0011583973,-0.0102514839
2.4562969208,0.0089556761,0.0186464507,-0.0014523069,0.0253415797,-0.010399322,-0.0070739337
2.4664039612,0.0100479014,0.0149669359,0.0032092533,0.0297693517,-0.0262840129,-0.0081447903
2.4766740799,0.0093378015,0.0054743597,0.006818553,0.0364198498,-0.0506107882,-0.0049728327
2.4865179062,0.0057819081,0.0019148896,0.0034350357,0.0557325594,-0.0610807389,-0.0092301611
2.4965538979,0.0042734933,0.0033694217,-0.0069572129,0.0781957433,-0.0661972091,-0.0102999546
2.5066490173,0.0007693064,0.0059101293,-0.0086545153,0.0866986811,-0.0629673228,-0.0145476945
2.5169038773,-0.001847129,0.0056206295,-0.0084249182,0.091997087,-0.0597713999,-0.0198573731
2.5268368721,-0.0006517578,0.01115957,-0.0091195507,0.0886433721,-0.0449868627,-0.0262199324
2.5368330479,-0.0074473131,0.0108387182,-0.0038792887,0.0735641047,-0.0313595347,-0.0315176919
2.5469088554,-0.007506262,0.0045687864,-0.0052759447,0.0510462783,-0.020966012,-0.0346921794
2.5571861267,-0.0096163563,0.0010281513,-0.0006166497,0.0135565856,-0.0074914829,-0.0336149298
2.5670628548,-0.0108408742,-0.0046831062,0.0003745755,-0.010072045,0.0071228794,-0.0389106236
2.5770878792,-0.000426184,-0.000774472,0.0005507668,-0.0154771684,0.0145370532,-0.0335956886
2.5872240067,0.0021586907,-0.0018031886,0.0056536994,-0.0229896829,0.0187158193,-0.0335916951
2.597440958,0.0106184073,-0.002894788,0.008881052,-0.0315341949,0.0197509229,-0.0261566136
2.6073770523,0.0113357194,0.0036338279,0.0072958074,-0.0528746359,0.0195921976,-0.0219040774
2.6173930168,0.0111341663,0.0081165144,0.0057410202,-0.0538852774,0.0143122822,-0.0165972635
2.6275048256,0.0080789812,0.0125974724,-0.0007217923,-0.0506375544,0.0101447012,-0.0091675771
2.6377248764,0.003127594,0.0064603398,-0.0043433108,-0.0377281979,-0.0003738524,-0.0123619055
2.6475789547,0.0011215698,0.0043855617,-0.0061669745,-0.0088960193,-0.002264963,-0.015555569
2.6576440334,0.0020684195,0.0103136012,-0.0081845922,0.0157444254,-0.0116140563,-0.0176894926
2.6677718163,0.0030257297,0.0076222727,-0.0083526773,0.0200651381,-0.0168956369,-0.019816827
2.6779899597,0.0068989289,0.0089066336,-0.0037200251,0.038219586,-0.0177991167,-0.0198209547
2.6878581047,0.0098292716,0.0132000158,-0.0050443807,0.0489547923,-0.0240719263,-0.0198268145
2.6978919506,0.0059065116,0.0078404853,0.0072406135,0.0458448827,-0.0336686932,-0.0230172146
2.7080430984,0.0059777391,0.0033595869,0.0068879328,0.0469429046,-0.0368562303,-0.0251426827
2.718255043,-0.0046912837,0.0056506107,-0.0013086001,0.0372768566,-0.0305677056,-0.0240747556
2.728126049,-0.0066403258,-0.0018999865,-0.0044388571,0.014738258,-0.0180452578,-0.0261863749
2.7381670475,-0.0067073512,-0.0047290614,-0.0044815936,-0.0013670754,-0.0086066816,-0.0219320413
2.7483010292,-0.0058336663,-0.0038101366,-0.0063274899,-0.0228151083,0.0018307789,-0.0197977833
2.7585189342,0.0018222522,-7.51903e-05,-0.0041302242,-0.0356588699,0.0059827138,-0.0166060515
2.7683999538,0.001608957,0.007443578,0.0049396954,-0.0474074073,0.0069481093,-0.015540788
2.778427124,-0.0005212236,-0.0016089967,0.0131148892,-0.0633529276,0.0004147094,-0.019787332
2.7885770798,-0.0006705332,-0.0038709929,0.0105443196,-0.0431232862,0.0047942782,-0.0261610765
2.7987861633,-0.0066907811,0.0047244141,-0.003942112,-0.012169498,0.0039692973,-0.0314786732
2.8086428642,-0.0088934712,0.0047984431,-0.0078094401,0.0037916256,0.0083115809,-0.0378513522
2.818693161,-0.0032757032,0.0021196911,-0.0078632636,0.0262733661,0.0010598603,-0.0410464145
2.8287711143,0.004303385,0.0054347822,-0.0022136965,0.0412877351,-0.0062366687,-0.0410538726
2.8391160965,0.0099869855,0.0039702365,0.0082195001,0.0424864516,-0.0189180411,-0.0346895158
2.8488898277,0.0089439936,0.0072835395,0.0108250575,0.0340367742,-0.0274529401,-0.0304444358
2.85896492,0.0090037175,0.0047337124,0.0085348086,0.0308618061,-0.0295762774,-0.0261964295
2.8690471649,0.0002702665,-0.002791076,0.0004618367,0.0200989079,-0.0200650655,-0.0176945534
2.8793840408,-0.0026208269,-0.0094598224,-0.0084681911,0.0210698955,-0.0104852766,-0.0145052848
2.8891811371,-0.0025946605,-0.005394428,-0.0096086068,0.0264396276,-0.0135939848,-0.0102610048
2.8992438316,0.0003321957,-0.0032520583,-0.0029451051,0.0199727528,-0.0072838236,-0.0102562774
2.909309864,0.0022770357,-0.0031310013,-0.0020547905,0.0093131848,-0.0084241889,-0.008130542
2.9196500778,0.0003117811,0.0057412097,-0.0002255241,0.0146254981,-0.0062619681,-0.0091931438
2.9294250011,-0.0016638149,0.0107903192,-0.003331522,0.029574886,-0.0072063254,-0.0113210091
2.939581871,-0.0046424973,0.0091104815,-0.0016162196,0.0317772701,-0.0135836648,-0.0155696832
2.9496500492,-0.0036693919,0.0065391371,5.25316e-05,0.0414213724,-0.0177784078,-0.020883223
2.9599199295,-0.0027081775,0.0079328129,0.004591485,0.0510153845,-0.0166194681,-0.0187616814
2.9699189663,-0.0047006118,0.0054332325,0.0022806129,0.0530633554,-0.0081266472,-0.0208815578
2.9798998833,-0.003774594,0.0028968761,-0.0038618841,0.0391692705,-0.0060973186,-0.0166306198
2.9902160168,6.22165e-05,0.0002588938,-0.0021033087,0.0231330469,-0.0030195031,-0.0113160163
3.0002579689,-0.0009837855,-0.0005578687,0.0016862353,0.0156561416,-0.0020037072,-0.0081274807
3.0100841522,-4.33136e-05,0.0005314658,0.0094210105,0.0060834088,-0.0052775312,-0.0091884835
3.0201599598,0.0009248745,-0.0052920273,0.0055158935,-0.0014111251,-0.0032266974,-0.0102483546
3.0301949978,-0.0039709914,-0.0053625992,-0.0002952019,-0.0142470291,-0.0001347673,-0.0070581539
3.0404679775,-0.0069318521,-0.0035523465,-0.0021219053,-0.0227859206,-0.0002086698,-0.0070566898
3.0501918793,-0.008928936,-0.0017971089,-0.0078069963,-0.0260938331,0.0103734005,-0.0070505645
3.060338974,-0.0080981962,-0.0038969209,-0.0105249686,-0.0187416188,0.0220956374,-0.0091699744
3.0703859329,-0.0014683713,0.0018951604,-0.0093998117,-0.0006105518,0.0233220235,-0.0081121661
3.0806930065,0.0041822386,0.0087963054,0.0013600191,0.0090360297,0.0191619657,-0.0081167612
3.0905439854,0.0147544332,0.0060034702,0.0140760737,0.0016524158,0.0106225386,-0.005995553
3.1005978584,0.0127043612,0.0060908506,0.0189184155,0.0103201251,-0.0020501793,-0.0081262821
3.1106870174,0.0136848278,0.0110941241,0.0168383326,0.0189317241,-0.0094026346,-0.0081321411
3.1209490299,0.0049285484,0.0064353654,0.0097754793,0.0307265986,-0.0157132614,-0.0155722126
3.1308250427,-0.0009224224,0.00279376,0.0036800704,0.0296259131,-0.0125603443,-0.0187557563
3.140857935,-0.0058627236,9.92725e-05,-0.0043102899,0.0231486782,-0.0052177431,-0.0229968391
3.1509380341,-0.0059657204,-0.000705867,-0.0112327738,0.0145386793,0.0021554849,-0.0198055748
3.1612429619,-0.0051317918,0.0013497779,-0.0122465296,0.0080953743,0.0063855164,-0.0134314308
3.1710989475,-0.0023732889,0.0024182508,-0.0063820281,-0.0025945539,0.0084489342,-0.0081186909
3.1811580658,0.0023781252,-0.0014493158,0.0024671755,-0.0089883506,0.0084324889,-0.0017442158
3.1912369728,0.005249877,-0.0024231365,0.0113004642,-0.0014209794,-0.0010305215,0.0014345333
3.201499939,0.0053098691,0.0033885548,0.0171363559,-0.0119772172,-0.0127726644,0.004615413
3.2113609314,0.0025156033,-0.0016495874,0.0162466969,-0.0322207026,-0.0161327757,0.0046188748
3.2214288712,-0.0012178827,-0.0039252928,0.0027957163,-0.0429242924,-0.0130499667,0.0035614003
3.2315039635,-0.0030538249,-0.0033643534,-0.0086236401,-0.0515364259,-0.0057044355,0.002505457
3.2417759895,-0.0049939561,-0.0028286865,-0.0141294403,-0.0559415817,0.0080577824,0.0035757148
3.2516288757,-0.0060471403,-0.0012732437,-0.0127845211,-0.0496884808,0.0229608305,0.0025197715
3.2616848946,-0.006244998,0.001345844,-0.0144010587,-0.029520683,0.0337483622,0.0025196383
3.2717700005,-0.0015903224,0.0022333572,-0.0093061728,-0.0113368854,0.0296628103,0.0025129803
3.282047987,-0.0008048225,0.0022527287,-0.0004565517,-0.0037512193,0.0180361811,-0.0006800833
3.29190588,0.0020339084,-0.0035012057,0.0044243536,0.0145391058,0.0033405914,-0.0006920676
3.3019659519,0.0039957357,0.0035185525,0.007160922,0.0339163989,-0.0134742744,-0.0017675185
3.3120298386,0.0001621437,-0.0020537069,0.0029986105,0.035002172,-0.015621582,-0.0070778616
3.3223109245,0.0002423417,-0.0076673916,-0.0021140378,0.0307108313,-0.013529202,-0.0060146614
3.3320879936,-0.002598803,-0.0065418174,-0.0081512136,0.0157193653,-0.0083339075,-0.0028228625
3.3422298431,-0.0006118226,-0.0074983528,-0.0101223392,-0.0045983428,-0.0042600036,-0.0017539364
3.3522439003,0.0003802073,-0.0056762984,-0.0061084428,-0.0238774978,0.0030477103,0.0056872019
3.362596035,0.0052734804,-0.003994911,0.000966688,-0.0463006496,0.0050138552,0.0120663382
3.3724050522,0.0043066633,-0.0034452965,0.007170578,-0.0677050054,0.0112211509,0.0163220707
3.3825199604,0.0004002046,0.0008453439,0.0047160587,-0.0731374025,0.0207594614,0.0216359422
3.3925700188,-0.0084120743,-0.0026676944,0.0032596788,-0.0709813088,0.0186630208,0.0226961449
3.4028379917,-0.0084422641,-0.0090523651,-0.0021063485,-0.0625206009,0.0261367839,0.0184506681
3.4126739502,-0.0075311768,-0.00847873,-0.0036566653,-0.0368999317,0.0252856389,0.0163201392
3.4227318764,-0.0017863918,-0.00189343,-0.0024362602,-0.0144821061,0.0243999362,0.0131282741
3.4328408241,0.0030274284,0.0029246518,-0.0004013578,0.0058572539,0.0182110183,0.0131200179
3.4430749416,0.0117852278,0.0029783556,0.0005806884,0.0123266857,0.0119141731,0.0152394278
3.4530029297,0.0118227787,0.0040441463,0.0014624795,0.0198839381,0.0035190899,0.0194805115
3.4629709721,0.0080482252,0.008044214,0.005188962,0.0200009309,-0.0081518805,0.0194745865
3.4731330872,0.0053284359,0.0033041546,0.0098480182,0.0254537538,-0.0197763108,0.0194673948
3.4833519459,-0.0031664777,0.0005401085,0.0066231689,0.0361608565,-0.0228532627,0.0215877369
3.4932439327,-0.001906227,-0.0031036427,-0.0015114347,0.0478763692,-0.0206494965,0.0184004661
3.5032689571,-0.0036082375,-0.0018652966,-0.0038221874,0.0478529893,-0.0185196325,0.0194624029
3.5134158134,-0.0014395226,0.0003819178,-0.0032019415,0.0563378185,-0.0131261991,0.0215865392
3.523679018,0.0016789626,0.0017121742,-0.0006685058,0.0637734681,-0.0098628942,0.0237086806
3.533536911,-0.00014184,0.0069580982,-0.000114421,0.0647340715,0.0007564597,0.0237137415
3.5435318947,-0.0019776928,0.003396661,-0.0082586808,0.0614496768,0.0092228483,0.024781201
3.5535998344,-0.0048399973,0.0076208422,-0.0046995678,0.0443766825,0.0090875598,0.0269090664
3.5638661385,-0.0087004118,0.0077827284,0.0058390102,0.0134175429,0.0098504219,0.0226702467
3.5737359524,-0.0027631628,0.0028983066,0.0058684549,0.0016674101,0.0107950456,0.0205501039
3.5838708878,0.0031766486,0.000847728,0.0049774251,-0.0047454815,0.0118070468,0.0216140375
3.593693018,0.006115247,-0.0011823466,0.0050692162,0.0005049398,0.0203416795,0.0216169674
3.6040179729,0.0070694876,0.0016805837,0.0021888218,0.0058070272,0.0235505216,0.0184318256
3.6140451431,0.0080134459,0.0026254961,0.0071206889,0.0015954766,0.0182140116,0.0194931608
3.6241769791,0.001167972,0.0026011774,0.0110131102,0.0059350985,0.010804167,0.016302295
3.6341481209,0.0012186657,0.0083790133,0.0081043439,-0.0025502658,0.0054038092,0.013116356
3.6443018913,-0.0026478576,0.0024407217,0.0042640171,-0.0047187703,0.0085334228,0.0078096082
3.6542658806,-0.0006674338,0.0062929103,-0.0045011439,0.0059626354,0.0075587053,0.0067446101
3.6643791199,-0.0006743479,0.0053510973,-0.0084122224,0.0048861587,0.0086099217,0.0067458753
3.6744129658,0.0031568301,0.0053968737,-0.0064641037,0.0133598046,0.0150574343,0.007808743
3.6846709251,0.0119117089,0.0123261521,-0.0006705323,0.0177533813,0.0023565535,0.0067386846
3.694535017,0.0099644251,0.0094839642,0.0051139197,0.006028282,0.0012276395,0.0120500922
3.7046508789,0.008033175,0.0065808604,0.0060632429,0.0007194839,-0.0020784086,0.0003702675
3.7146689892,0.0031531644,0.0046220729,0.0002012452,0.0038782591,0.002193568,0.0003715991
3.7249951363,0.0001921248,0.0075671384,-0.002753953,0.0038237171,0.0074919267,-0.0006878064
3.7348098755,0.0001030159,0.0036886046,-0.0017334024,-0.002684515,0.0180598833,0.0014427225
3.7449498177,-4.03035e-05,0.0055631706,-0.0064850249,-0.0038588373,0.0286892895,0.0056945253
3.7549510002,0.0046485555,0.0112988064,-0.0062997141,-0.0167559944,0.0381818637,0.0141969332
3.7652320862,0.0053892327,0.0071761319,0.0018161734,-0.0327685662,0.039108377,0.0152648613
3.7750439644,0.0071312976,0.0049370835,0.0051356754,-0.0381345712,0.042265553,0.0184531976
3.7852089405,0.0010362755,0.0055344412,0.0074914894,-0.0520533174,0.046368286,0.0152727179
3.7952060699,-0.0040919888,0.0002040575,-0.0007846156,-0.0563660413,0.050554242,0.012090506
3.8055529594,-0.0083119683,0.0026508877,-0.0129319234,-0.0489906296,0.060146682,0.0089090941
3.8153429031,-0.0077256667,0.0061756084,-0.0192817245,-0.0394738242,0.0686909035,0.0046637491
3.825480938,-0.0072191465,0.0019933889,-0.0187969003,-0.0341750346,0.0719364956,0.0067854896
3.8354849815,-0.0007916201,0.0114192078,-0.0124966903,-0.0393796526,0.0591993965,0.0131512433
3.8458209038,0.0017896186,0.0149904201,0.0016071995,-0.0499983951,0.054894194,0.0184633844
3.8556189537,0.0083656497,0.01071331,0.0099076228,-0.0477767885,0.0464525074,0.022705799
3.8656489849,0.0082176216,0.0074516842,0.0112672644,-0.0294910949,0.0317514613,0.0216305498
3.875756979,0.0052182865,-0.004472225,0.0095910029,-0.0251501445,0.0243340228,0.0173785463
3.8860299587,0.00322016,-0.0115110567,0.0020116172,-0.0165198259,0.0148035688,0.0088778017
3.8959300518,-0.0056209969,-0.0107206991,-0.0056580701,-0.0132902088,0.0116000529,0.001442789
3.9059579372,-0.0066566574,-0.0021078279,-0.0065257349,-0.0153709892,0.0062692026,0.0003791226
3.9160840511,-0.0037471461,0.0065170238,-0.005431036,-0.0110486783,0.0010083946,0.0014371964
3.9262771606,0.0001512956,0.0113510797,-0.0005248586,0.0049767867,-0.0009799213,0.0003695352
3.9361419678,0.0040789736,0.0134013603,0.0023113689,0.0199591983,-0.0050934395,0.0003636762
3.9462089539,-0.0007816065,0.0087077329,-0.00175486,0.0284860004,-0.0039722491,-0.0017609937
3.9563310146,-0.0017715205,0.0050334046,-0.0058327713,0.0220486075,-0.0008797864,-0.0070668096
3.9665598869,-0.0067313123,0.0042545507,-0.0050136843,0.0198716074,0.0033812046,-0.0017561334
3.976626873,-0.0057994532,0.0053636143,-0.0051076212,0.0123596285,0.0075668949,-0.0006903362
3.9864499569,-0.004859786,-0.0053117564,-0.0060549774,-0.0036650114,0.0095833736,0.0046240678
3.9965310097,1.05392e-05,-0.0044352105,-0.0049641528,-0.0121999104,0.009536502,0.0088734077
4.006814003,0.0010087382,-0.0026373556,-0.0038634937,-0.0142754707,0.0042535895,0.0152428905
4.0167441368,0.0049667549,-0.0008164336,0.0020771225,-0.0078513939,0.0021875093,0.0152402269
4.0267410278,0.0001796376,-0.0009223511,0.002109488,-0.0035108672,-0.0052155461,0.0131112961
4.0368709564,-0.0007036436,0.0019780109,-0.0018404523,0.0167608485,-0.0050869156,0.0056736199
4.0470838547,0.0013355803,0.0050406763,-0.0020006695,0.0316847488,-0.0039362297,-0.0007011221
4.0569748878,-0.0044891345,0.0052814195,-0.008096735,0.0402217805,-0.0038616615,-0.0007032527
4.0670089722,-0.0025414634,0.0056054303,-0.0083739562,0.0434212461,-0.0038685859,-0.0060127969
4.0770668983,-0.0035623121,0.0049753496,-0.0047408142,0.0402092114,-0.0028355457,-0.0060114656
4.0874190331,-0.0006544698,0.002326102,-0.0010406772,0.0273753032,0.0002699001,-0.0006973271
4.0972218513,0.0022613597,0.003430278,-0.0001660982,0.0081589986,0.0011977456,0.0046170107
4.1072731018,0.0012769293,-0.0023994735,0.0066783628,-0.0121569522,0.0052994797,0.0099330135
4.117415905,0.0012895059,-0.001576989,0.0038630567,-0.0111425556,0.0106207412,0.0109972116
4.1276922226,-0.0006390024,0.0050818631,0.0019969544,-0.0079043126,0.0074995169,0.0163046252
4.1375479698,-0.0005867291,0.002005429,0.0021283824,-0.0164200366,0.0053029414,0.0163056906
4.1475448608,-0.0004947293,-0.0010893634,0.0041952929,-0.0131573705,-0.0010270595,0.0173623674
4.1576528549,0.0025811088,0.0007270882,-0.0025867024,0.0007872079,-0.008367531,0.0120461648
4.1679158211,0.0046559167,0.0036890814,-0.0055979886,0.0189492218,-0.0103522502,0.0088555645
4.1778230667,0.0048170877,0.0047951648,-0.0067665377,0.0254164413,-0.0166554209,0.0099125737
4.1878108978,0.003989656,0.0059861252,-0.0031232634,0.0318400636,-0.0187497977,0.0056633004
4.1979570389,0.0060863388,0.0149676511,0.00245293,0.0254367609,-0.0188126471,0.0046030958
4.208137989,-0.0025823819,0.0112126181,0.0012678107,0.0211236905,-0.0146336826,0.0003591488
4.2180809975,0.0004507196,0.0065166662,-0.0018205444,0.026427377,-0.0114040663,0.0003594151
4.2280788422,-0.0053615975,0.0018698284,0.0008719167,0.0263511576,-0.0039835675,-0.0006990582
4.2382159233,0.0004971218,-0.0018565943,-0.0041006007,0.017769387,0.0001581805,-0.0049420064
4.2484178543,0.0004376661,0.0001985143,-0.0051515498,0.0124234902,0.0011653214,-0.0060016117
4.258327961,0.0023152125,0.0051692436,-0.0013152162,0.0177074671,0.0065377159,-0.0028148731
4.2683477402,0.0012489449,0.0014552781,-0.0004378358,0.0230641775,0.0044268286,-0.008125416
4.2784862518,0.0040754569,0.0016169259,0.0014376243,0.0145362038,0.0032704838,-0.0113092251
4.288687706,0.0029740226,0.002714009,-0.0005761186,0.016635919,0.0064659445,-0.0123706944
4.2985830307,0.0067690802,0.0155114243,0.0042120419,0.0145149771,0.0054209195,-0.0070616831
4.3086180687,0.0037579727,0.0136593888,0.0051158867,0.0081540439,0.0011283702,-0.0060008792
4.3187170029,0.005655427,0.0166204292,0.0080439048,-0.002536417,0.0031848631,-0.0017499416
4.3289580345,-0.0002639699,0.0058591077,0.0061677895,-0.0163778514,-0.0001261784,-0.0028099464
4.3388948441,0.001673777,0.0018573115,0.0043555698,-0.0121322395,0.0020123399,-0.0059953532
4.3488712311,-0.0003388632,-0.0011178544,-0.0014279286,-0.0036265021,0.0052412227,-0.0102420961
4.3590192795,-0.0004607249,-9.66479e-05,-0.0023873844,0.0049190493,0.0042270911,-0.0144919688
4.3692331314,-0.0025657821,0.0029572556,0.0004533728,0.0167069454,-0.0010096156,-0.0198069718
4.3790650368,-0.002678554,0.0109595964,-0.0026224055,0.0295332614,-0.0030266938,-0.0208730362
4.3891611099,-0.0047341692,0.01706657,-0.0028345385,0.0221041627,-0.0073495368,-0.0229971725
4.3992848396,-0.0057990956,0.0104549238,-0.0049138465,0.0210578069,-0.0094877882,-0.0240597744
4.4095578194,-0.0019245256,0.0145533988,-0.006041328,0.0147236632,-0.0158758461,-0.0187516287
4.4193511009,9.1385e-06,0.0098722884,-0.0003089706,0.0104125375,-0.011669118,-0.0187484324
4.4293909073,0.0058441353,0.005144448,0.0064512691,0.0051151644,-0.0159439575,-0.0166275576
4.439496994,0.0048923683,-0.0015889099,0.0073688827,0.0019356161,-0.0180870034,-0.0155660221
4.4498319626,0.0029544425,-0.0044750264,-0.0014561812,0.0007854505,-0.0095948484,-0.01343749
4.4596538544,-0.0009788383,-0.0034972122,-0.0073308744,-0.0013706451,-0.0074984073,-0.0144976955
4.4697041512,-5.49961e-05,-0.0015666177,-0.0053338804,-0.0110191973,-0.00335899,-0.0176786408
4.4798331261,0.0017885457,-0.0025486043,-0.0052655735,-0.004670755,0.001988105,-0.0198011808
4.4900722504,0.0016370009,0.0052595446,-0.0062170424,0.0048589157,0.0094776461,-0.0229846556
4.499920845,0.0013738762,0.0044321129,-0.0023139515,0.0143975597,0.0159067828,-0.0261692647
4.5099887848,0.0030381274,0.0026953528,-0.00040404,0.0144273592,0.0127031999,-0.0293564685
4.5200557709,0.0007838499,0.0038956711,0.0014694532,0.0133703509,0.0116259521,-0.0304185376
4.5303077698,-0.0014524568,0.0002174089,0.0043561659,0.0101940259,0.0094675263,-0.0314790756
4.5401768684,-0.0007309425,-0.0006148507,-0.0005342165,0.0059484141,0.0073290081,-0.0282936674
4.550303936,6.04283e-05,0.0014025876,-0.0014888445,-0.0047229789,0.0072642928,-0.0240445938
4.5603199005,0.0037934375,0.005326421,0.0015045604,-0.0068311375,0.0051859622,-0.0144889057
4.5705609322,0.0036775065,0.0062376568,-0.0003519455,-0.0111326491,0.0083605163,-0.0102401655
4.5804357529,0.0025555086,0.0042435238,-0.0012131134,-0.0133201694,0.0136468913,-0.0102369692
4.5904979706,-0.0005367804,-0.0016611507,-0.0059600272,-0.0090825744,0.0168383569,-0.0144825149
4.6005802155,-0.0046791839,0.0002755831,-0.0087811751,-0.0059674736,0.0253404994,-0.0166026577
4.6108260155,-0.0108169131,0.0042237351,-0.0097185178,0.0058017806,0.02226042,-0.0166075826
4.6207108498,-0.0062236893,0.0053528259,-0.0038474598,0.0143270921,0.0233821422,-0.0187327862
4.6307749748,0.0003562164,0.003593714,-0.0009423891,0.0186784305,0.0149251428,-0.019800581
4.6408839226,0.0040606451,0.0057391832,0.0068000755,0.0134812715,0.0010854931,-0.0198061746
4.6511530876,0.0078740902,0.0049343416,0.0125781493,0.0114572421,-0.0095373904,-0.0187480319
4.6608848572,0.0020110798,-0.0037352731,0.0085824924,0.0051620621,-0.0201895013,-0.0166281555
4.6711759567,-0.0037974226,-0.0085405996,-0.003203074,0.0030476721,-0.0223438647,-0.0187524278
4.6811060905,-0.0037239599,-0.006536453,-0.0081702275,0.0009134142,-0.0223625079,-0.0187518951
4.6914138794,-0.0007516551,-0.0064760139,-0.0053196945,0.0104639903,-0.0169379152,-0.0134436814
4.7012662888,0.0012517165,0.0043806145,-0.0074288645,0.0232588798,-0.0157650597,-0.013446345
4.7113342285,0.0041881991,0.011419625,-0.0037454166,0.0274686478,-0.0093493713,-0.0113191456
4.721408844,0.0012462329,0.0145646641,-0.0010362664,0.0200413577,-0.0136586316,-0.0113194119
4.7316627502,0.00224172,0.0050563524,0.0027045808,0.0200632475,-0.0157879628,-0.0123818796
4.7415237427,-0.0016047467,0.0033177445,-0.0014170805,0.0212140009,-0.0242874399,-0.015571814
4.7515921593,-0.0035000551,-0.000382333,0.0013117989,0.0159152951,-0.0286044907,-0.0198210869
4.7616977692,-0.0053771841,-0.0060336282,-0.0008318225,0.0170245022,-0.0328461081,-0.0208852869
4.771982193,-0.0062598693,-0.0039298227,-0.0049400129,0.0158954002,-0.0264616441,-0.0166346822
4.7818288803,-0.0042558718,-0.0086618355,-0.0079746051,0.0115102399,-0.0148209697,-0.015565956
4.7919039726,-0.0013294924,-0.0075778058,-0.0129416389,0.0157120954,-0.0073310276,-0.0113140186
4.8019618988,-0.0013734211,-0.0025971225,-0.0081401868,0.0113700777,7.25598e-05,-0.0091856197
4.8121681213,0.0004855287,-0.0044313958,-0.0023360052,0.010286144,0.0011264394,-0.0091870185
4.8220610619,0.004343499,0.0014919946,0.0034668646,0.0018348685,-0.0074292319,-0.0081273466
4.8321299553,0.0033967984,0.0063950727,0.0131616788,-0.0055158297,-0.0191591252,-0.0070690061
4.8422050476,0.0035228324,0.0063658068,0.010202189,-0.0043826541,-0.025488127,-0.0028252592
4.8524198532,0.0017771017,0.0014140317,-0.0005429188,-0.0097173657,-0.0255350657,-0.002823595
4.862364769,-0.0010216642,-0.0025515249,-0.0063944259,-0.0087471753,-0.0159905627,-0.0049426723
4.8723621368,0.0009994995,-0.0045520356,-0.0092912717,-0.0066963807,-0.0074560633,-0.0006918678
4.8824830055,-0.0029050219,0.0002534101,-0.0063451328,-0.0110288113,-0.0011273273,-0.0006876067
4.8927121162,0.0009740483,-0.0055931499,-0.0053252974,0.0038764747,0.0021728619,-0.0028138743
4.9026408195,0.0018851947,0.0022704313,0.0004832348,0.0092211729,0.0011376912,-0.0060011456
4.9126391411,-0.0010939051,0.0033366987,0.0004116496,0.0070862765,0.0010908195,-0.0102472892
4.9227671623,-0.0011609305,0.0082568238,-0.0025536814,0.0049403012,0.0021193323,-0.0123698292
4.9329690933,-0.0022567916,0.0093266675,-0.0055111446,0.0081263203,0.0031744102,-0.0176798385
4.9428310394,-0.0014152337,0.0065192292,-0.0016375581,0.006012836,0.0010268372,-0.0187421739
4.9529762268,-0.0035483944,-0.0011607697,0.0022738776,-0.0035607489,-0.0022680259,-0.0229883175
4.9629688263,-0.0017007102,-0.0089490106,-0.0005782644,-0.0088953273,-0.0023007828,-0.0208633821
4.9732637405,0.0001652133,-0.0108932545,-0.0034538903,-0.0056675235,-0.0043681944,-0.0166169703
4.9833078384,-0.0018389035,-0.0060592582,0.0014577111,-0.0173681192,-0.0075775697,-0.004935815
4.9931721687,0.0020979834,-0.0042665889,0.0054912767,-0.0238241032,-0.0022929262,0.000376526
5.0032610893,0.0050936532,-0.0014524749,0.006539484,-0.0034410655,-0.012712012,0.0024897442
5.0135030746,0.009118218,0.0063321302,0.0084365206,0.0061649289,-0.0126216635,0.0035496159
5.0234050751,0.0043345881,-0.0014618924,0.0035057268,0.000817568,-0.0116211139,0.0014278754
5.033408165,0.0014821779,0.002459378,-0.0004688302,0.0093131317,-0.0084099406,-0.006007337
5.0435647964,-0.006302427,0.0054346034,-0.0064518251,0.0071671563,-0.007381428,-0.0081298761
5.0537800789,-0.0082881562,-0.0032037189,-0.0074976482,0.0060821846,-0.0052984366,-0.0123737575
5.0636997223,-0.0063695419,-0.0050055673,-0.007579545,0.0188887939,-0.005172736,-0.0102533484
5.0736980438,0.0024062288,0.0058756778,7.42873e-05,0.0146337813,-0.0062364684,-0.0049437373
5.083782196,0.0092502125,0.0010785172,0.0059184036,-0.0035058074,-0.0063741542,-0.0017538032
5.0940499306,0.0141865797,0.0088537643,0.0127340751,-0.0045269709,-0.0105788857,0.0056768158
5.1039152145,0.0103984065,0.0058679292,0.0107900696,-0.0109174922,-0.011675043,0.008863288
5.1139659882,0.0066321981,-0.0049817255,0.0050037107,-0.016275771,-0.0095920516,0.0099268211
5.1240549088,0.0028545451,-0.0021962812,0.0030768118,0.0007764492,-0.0073278314,0.008861823
5.1343050003,0.0010075163,0.0075642774,0.0049285493,0.0135508338,-0.0040474832,0.0067372867
5.144244194,8.67736e-05,-0.0049906662,0.0028971038,0.0167058799,0.0001760237,-0.0006939982
5.1542329788,-0.0028802562,-0.0058505824,0.0008582076,0.015605649,0.0033074352,-0.0070622154
5.1643352509,-0.0049841511,-0.002760618,-0.0002264777,0.0240553264,0.0118423346,-0.0113072945
5.1745738983,-0.0032081711,0.0023048231,-0.0071539083,0.0239778534,0.0192490499,-0.0144894384
5.1845040321,-0.0034525204,0.0005817721,-0.0072455206,0.0207871199,0.0181600843,-0.014489172
5.1945209503,-0.002717148,0.0046483586,0.001487871,0.0047701793,0.0191095006,-0.0102379685
5.2046089172,-0.0009756792,0.0046581337,0.0035288534,-0.0122793783,0.0168799032,-0.0038639586
5.2148132324,-0.0010903586,0.0045215199,0.0037017069,-0.0240481533,0.0200309549,0.0067572598
5.2247991562,-0.0031584906,0.0033293674,0.0029741726,-0.0357839055,0.0199630447,0.0120692011
5.2347669601,0.0007043969,0.0049553821,0.0081651406,-0.0432075486,0.0156738237,0.0152550749
5.244904995,0.0017008375,-0.0002252748,0.0094371634,-0.0367003828,0.0050920192,0.0110009406
5.2551107407,0.0046833945,-0.0014869859,0.0077331266,-0.0281610861,0.0051586647,0.0099380063
5.2650380135,0.0047549796,0.0032201717,0.0048985681,-0.0045782626,-0.0052532293,0.0088650193
5.2750358582,0.0058652651,0.0080874274,0.0028784475,0.0146835288,-0.0103976578,0.0077960263
5.2851729393,0.0021030498,0.0101194689,-0.0002282659,0.0222141501,-0.0167399775,0.0014201523
5.2953948975,0.0002227914,0.0074025104,0.0034623346,0.027492933,-0.0114226425,-0.0038878606
5.3052997589,-0.0026655602,0.0047054002,0.0012989839,0.0295728631,-0.0061128316,-0.0060093347
5.3153028488,-0.005627613,-0.0048070839,-0.0008203188,0.0262726732,0.0033950531,-0.0081280135
5.3253688812,-0.0008723545,-0.0084780147,0.0010408362,0.0176184662,0.0149915218,-0.0081200227
5.335709095,-0.0010371614,-0.008332937,0.0009879073,0.0101715215,0.0128107918,-0.0070570228
5.345500946,0.0017339181,0.0014393637,0.0039129457,-0.0037512193,0.0180361811,-0.0006800833
5.3556370735,0.0015668165,0.0013733217,0.0069834194,-0.0176655687,0.0221586861,-0.0006741578
5.3656048775,0.0004388284,-0.0007216026,0.0071905456,-0.0208877288,0.0242596548,0.0003895089
5.3759899139,-0.0026608515,0.0010332176,0.0015631517,-0.0220191702,0.0306236111,0.0014544404
5.3857698441,-0.0018866766,-0.0001473119,-0.0059674182,-0.0210255459,0.0380738042,0.0035815071
5.395758152,-0.0021033096,-0.0002665808,-0.0067339935,-0.009292962,0.0392427295,0.0046424437
5.4059171677,0.0025302661,0.0045739124,-0.0046441355,0.0003229128,0.0382794663,0.0067631188
5.4161801338,0.0062322211,0.0036326954,0.0032496653,0.0003865352,0.0319420099,0.0110062668
5.4260396957,0.0021800888,0.0026406357,0.005273541,-0.0006070901,0.0244918168,0.0088792006
5.4361047745,0.0020964635,0.0084657976,0.0033530793,0.0037044073,0.0202849526,0.0088761374
5.4462590218,-0.0009528208,0.0084540555,0.0024205646,0.0005008914,0.020229293,0.0046297275
5.4564590454,-5.95856e-05,0.0025866339,0.0015375813,-0.0048333397,0.0202035271,0.0078163994
5.4663491249,0.0007847738,-0.0042909672,0.0026456914,-0.0070213946,0.0254829787,0.006757793
5.4763741493,0.0006208014,-0.0023751548,0.0027524433,0.0025362121,0.0298194028,0.0078177312
5.486495018,-0.0014939118,0.0024302313,-7.15057e-05,-0.0081872726,0.0350450575,0.009946662
5.496735096,-0.0007081438,-0.0016212156,0.0001704892,-0.0242418461,0.0402509384,0.0163249988
5.506652832,-0.0018442083,0.0010209987,0.000466009,-0.0348774455,0.0370231904,0.0237586815
5.5166311264,-0.0010035742,-0.000274687,0.0037431917,-0.0359692089,0.0391299501,0.0226972122
5.5267658234,0.0047724736,-0.0074218204,0.0099679427,-0.0412281528,0.0316840149,0.026942024
5.5369839668,0.0037545753,-0.0077890446,0.0142204957,-0.041148521,0.024248071,0.0258784909
5.546913147,0.0076592756,0.0005889843,0.007704874,-0.0337404087,0.0307070352,0.0301270317
5.5569181442,0.003748138,0.0031606862,-0.0037100711,-0.0273807272,0.0350356065,0.0343738422
5.5669898987,0.0046966863,0.0057768533,-0.0063802996,-0.0210184343,0.0393632427,0.0386215821
5.5772628784,-0.0002179552,0.0065037319,-0.0051870146,-0.0092757847,0.0395282879,0.0481746756
5.5871510506,-0.0011914183,0.0034219334,-0.0021350186,0.0014050892,0.0385466479,0.0460478738
5.5971469879,-0.0011922527,-0.0054169586,-8.98043e-05,0.0067639272,0.0364634581,0.0449845381
5.6072831154,0.0017542433,-0.0103104403,0.0048498116,0.0089285448,0.0332783163,0.0417970009
5.6175098419,0.0027330113,-0.0073905876,0.0067953072,0.0174084231,0.0386521779,0.0407345369
5.6274442673,0.0026776982,-0.0015787771,0.0038919649,0.0131175378,0.0407230519,0.0386130624
5.6374397278,-0.0023003924,-0.0036117723,0.0020357571,-0.0029435074,0.0458672121,0.0354345776
5.6475887299,-0.0063800621,8.4431e-05,-0.0016367236,-0.017972257,0.0541762747,0.0280099511
5.657793045,-0.00757743,0.0046783397,-0.0032818117,-0.0233481415,0.0583870634,0.0301374849
5.6676640511,-0.0048646736,0.0092716524,0.004863759,-0.030755192,0.0519419499,0.0280125476
5.677713871,-0.0070055532,0.0118909786,0.009085794,-0.0275092497,0.0477536619,0.0322567597
5.6878490448,-0.0031900215,0.0126544544,0.0073799691,-0.0028667562,0.0384536386,0.0375548527
5.6980648041,0.0016856979,0.0116364071,0.0064730844,0.0154405059,0.0216091443,0.0332937948
5.7079820633,0.0008067083,-0.001936703,0.0073886714,0.0209348742,0.0057268506,0.0311608706
5.7179789543,0.0039370847,0.0010981271,0.0062335334,0.0349562019,-0.0090271952,0.0279649422
5.7280797958,0.0042280746,0.0110478112,0.0088167386,0.0468304418,-0.0227523297,0.022646077
5.7383241653,0.0035985899,0.0093537876,0.0074602566,0.0490156189,-0.0280592106,0.0194572099
5.7482509613,-2.842e-06,0.0047525475,-0.0016878644,0.0478707254,-0.020683052,0.0130903907
5.7582278252,-0.0066284346,0.0089254687,-0.0098749204,0.0530912913,-0.0089803906,0.0109724449
5.7683539391,-0.0094866566,0.0111952135,-0.012149076,0.0465484373,0.0047359546,0.0077955602
5.7785959244,-0.0085464232,0.0144077847,-0.0124079389,0.0453649312,0.0163831562,0.0056787468
5.7885150909,-0.0096386187,0.0185551364,-0.0086955829,0.0292956829,0.0226301327,0.0088713439
5.7984809875,-0.0059249806,0.0148365805,-0.0019039909,0.0153151779,0.0331194587,0.0088796662
5.8086500168,-0.0002680231,0.0061356137,0.0060194931,-0.0060178079,0.0318581872,0.0067608552
5.8188529015,0.0034446311,-0.0017249873,0.0081718164,-0.0124361338,0.0328294411,0.0014531753
5.8287830353,0.0061122966,-0.0057148626,0.0103368955,-0.0156391151,0.0327807069,-0.0017314326
5.8387818336,0.0088403709,-0.0019215038,0.0105189281,-0.007049703,0.0275363419,-0.0038597644
5.8488068581,0.011590112,0.0048486898,0.0086837607,-0.000595266,0.0222664792,-0.0070494325
5.8591761589,0.0026198816,0.0106795141,0.0018698176,0.0143853091,0.0181465019,-0.0081175594
5.8689861298,0.0015337657,0.0186105091,-0.0128638549,0.037880782,0.0161949378,-0.0134334955
5.8790502548,-0.0005903352,0.0101890871,-0.015996078,0.044353649,0.0087756375,-0.0208717044
5.8891501427,0.0001604747,0.00969264,-0.0075278082,0.0614665896,0.0046322914,-0.0283107124
5.8994059563,0.0048247767,0.0131994197,-0.0069496431,0.0732238069,0.0025852525,-0.032562051
5.9093198776,0.0045726192,0.0119368741,-0.0015779535,0.0742888004,0.0025668766,-0.0368095264
5.9193191528,0.0043037427,0.0086891958,-6.27438e-05,0.062593773,-0.0017870588,-0.0378700644
5.9294261932,0.0021109176,0.0024053762,-0.0062496462,0.0561169647,0.0055909622,-0.0368029363
5.9396820068,-0.0020191181,0.0077113817,-0.0114605231,0.0444214232,0.0012727799,-0.0325555913
5.949575901,-0.0002912987,0.0060755322,-0.0047835507,0.0156217339,-1.21952e-05,-0.0283017252
5.9596710205,-0.0004572976,0.0033222148,-0.0009471575,0.0102939997,-3.31677e-05,-0.0240511205
5.9696588516,0.0072588515,0.0024509737,-0.0038742819,0.0081544165,0.0010784359,-0.0134320306
5.9799518585,0.0033019376,-0.0004259636,-0.0039133825,0.0018378776,-0.007437421,-0.0091878837
5.9899449348,0.0033038449,-0.0072431853,-0.0077795782,-0.0088525834,-0.0053809281,-0.0049369466
5.9998850822,0.001396675,-0.0063844612,-0.0155135198,-0.0195037611,-0.0075743748,-0.0017509402
6.0099520683,-0.0034599709,-0.0055699637,-0.0164029393,-0.0195650123,-0.0011737328,0.0035612672
6.0202050209,-0.0015216876,-0.006682544,-0.019190887,-0.0100644017,0.0095191253,0.0035652618
6.0300679207,-0.0015732754,-0.0057806661,-0.0191157255,0.0026788246,0.0160177704,0.0067506684
6.0403289795,0.0032231999,9.45041e-05,-0.015178184,0.0068827844,0.0223928448,0.0025061229
6.0501999855,0.0040399325,0.0040315101,-0.008320312,0.0058279061,0.0213432927,0.0056912638
6.0606842041,0.0039073718,0.0050610611,-0.0073536434,0.0154919317,0.01504838,0.0035610008
6.0706620216,0.0038437438,0.0061417529,-0.0084002418,0.0198131762,0.0097737228,0.00249547
6.080575943,0.0057678414,0.0092358897,-0.0007283489,0.0252978504,-0.0050052227,0.006733092
6.0905218124,0.0028832448,0.0064770887,0.0098327594,0.0114768436,-0.0104521867,0.0035484838
6.1007442474,-0.0019003559,-0.0042141965,0.0019954641,-0.0013275556,-0.0105715618,0.0024904767
6.1106171608,-0.0076825428,-0.0111261895,-0.008705358,-0.0131096458,-0.0064439289,0.0003719319
6.1206731796,-0.0086387806,-0.0112930229,-0.0144182248,-0.0228708219,0.0093933567,0.0014449196
6.1307258606,-0.0077427733,-0.0095503619,-0.0132205291,-0.0314707011,0.0156986564,0.0035738505
6.1410751343,-0.0039792466,-0.0069115451,-0.0080404086,-0.044353798,0.0230148938,0.0035797094
6.1508898735,0.0037018848,-0.0043207696,0.0020947657,-0.0453990884,0.0208904892,0.0046407129
6.1609320641,0.004577179,0.0031004259,0.0034177504,-0.0496035293,0.0144942431,0.0057002516
6.1708369255,-0.0003609765,0.0008331249,-0.0001883308,-0.0346328318,0.0114278793,0.0035713206
6.1811099052,-0.0004006434,0.0035243938,-0.0087690158,-0.0186056644,0.0094318399,0.0014426559
6.1911740303,-0.0043716836,0.0053713629,-0.0145267053,-0.0089894161,0.0084186401,-0.0038678206
6.2012939453,-0.0064302194,0.0073085735,-0.013504724,0.0005999077,0.009536569,-0.0081176264
6.2112560272,0.0003012907,0.0083496282,-0.011546771,0.0049014455,0.0064046914,-0.0059966845
6.2214589119,0.0051094485,0.0026015947,-0.0047268071,0.0092439689,-0.0009848482,-0.0060016783
6.2314329147,0.0100096352,-0.0001682331,0.0029780469,0.016801754,-0.0093730064,-0.0006987919
6.2414922714,0.0149865039,-0.0010114005,0.0009037455,0.0200601052,-0.0146442689,0.0003606802
6.2515621185,0.0092509277,-0.0008569052,-0.0003003875,0.0264980309,-0.0177298076,0.006728298
6.2617921829,0.0035787118,0.0002122829,-0.0014697114,0.014747764,-0.0167495646,0.0099161686
6.2716908455,-0.0001630593,-0.0065600565,-0.0045062103,0.0136694508,-0.0157048069,0.008855165
6.2817659378,0.0019643498,-0.0016769459,0.0002837976,-0.0002469774,-0.0115744425,0.0099219605
6.2918348312,0.0011147152,0.0001909445,0.0012636384,-0.0088271489,-0.0074119214,0.0088644195
6.3020982742,0.0051233065,0.0039735148,0.0012999972,-0.0098833852,-0.0084965602,0.0067410148
6.3119678497,0.0051855338,0.0019349763,0.0013759931,-0.0131497532,-0.0021723516,0.0046214052
6.3220248222,0.0081142075,-0.0010447791,0.0043767891,-0.0099630142,-0.0011104161,0.0003732636
6.3321027756,0.0041664732,0.0105867693,0.006318768,-0.0014584754,0.0021402382,-0.0006890714
6.34233284,0.0011772405,0.0135068009,0.005348464,0.0006530909,0.0042529237,-0.0049354816
6.3520641327,-0.0018483509,0.0087108323,0.0014372667,0.0123568848,0.0075038448,-0.0102458252
6.36226511,-0.0039256024,0.0068770954,-0.000565509,0.0091455663,0.0085437428,-0.0091826245
6.3723268509,-0.0001299787,0.0050261924,0.0004057487,0.0090944339,0.0138764558,-0.0049327519
6.3826828003,0.0026915562,0.0051142881,0.0023447475,0.0112657612,0.0107387193,-0.000686608
6.3924708366,0.005581547,0.0032538483,0.0052374206,0.0081101824,0.0065082884,0.0056828745
6.4025917053,0.0114035793,-0.0044994047,0.0111252265,-0.0014528576,0.0021809179,0.0056826081
6.4125938416,0.0075420332,0.0052097747,0.0149818854,0.0007676864,-0.0062746191,0.0078014191
6.4228649139,0.0057240319,0.0100701759,0.0100236731,0.0104055079,-0.0093814619,0.006736421
6.4327507019,0.0019469153,0.0052669356,0.0011160573,0.021149233,-0.0167429708,0.0024828201
6.4427957535,-0.0047709155,0.0073318193,0.0009300312,0.0200772025,-0.0167861152,-0.0028267242
6.4529309273,-0.0046788263,0.0065285871,0.0026881299,0.020076137,-0.0167999621,-0.0049503287
6.4631242752,-0.0016703714,0.0096015641,-0.0013838807,0.0200622883,-0.0157805048,-0.0113206105
6.4759511948,-0.0016688515,0.0048726508,-0.0053822794,0.0103622572,-0.0063153654,-0.0113134198
6.4848980904,0.000228126,0.0020962665,-0.0064333477,0.012402798,0.0032728803,-0.0081235515
6.4933099747,-0.0008467245,0.0080335448,-0.002602736,0.0048503391,0.0117302816,-0.0028084149
6.5040040016,-0.0029561031,0.0061083743,0.0052526197,-0.0048351772,0.0201472677,-0.0006771538
6.5139389038,-0.0011731494,-0.0007561733,0.0053954325,-0.0134361219,0.0264387187,-0.0006718274
6.5239582062,-0.0013766397,-0.0018905094,0.0007502636,-0.0263300575,0.034816023,-0.0006655023
6.5336918831,-0.0025742459,-0.0031315973,-0.0037799873,-0.042356696,0.0368189886,0.0025249645
6.5437078476,-0.0008592415,0.000405998,-0.0063005486,-0.0466762856,0.0421001688,0.0046526971
6.5533542633,-0.0031155157,0.0039328644,-0.0039158859,-0.0488638058,0.0473865457,0.004655893
6.5634880066,-0.0004605163,0.0035630176,-0.004440526,-0.0434753299,0.0421425141,0.0067749703
6.5734939575,0.0051630926,0.0051736543,0.0047588549,-0.0498344228,0.0378564224,0.0088980421
6.5838451385,0.0039855433,-0.0019496372,0.0100147324,-0.0315965638,0.0284513365,0.0067657819
6.5936360359,0.0048690331,0.0027452419,0.005317112,-0.0154293124,0.0126830274,0.0078156004
6.6037597656,-0.0020447182,-0.0022452762,0.0044753752,-0.0196802765,0.0104823913,0.0014445867
6.6137599945,-0.000141095,-0.0033713272,-0.0012164513,-0.0175460204,0.0105010327,0.0014440541
6.624101162,-0.0002307403,0.0033091018,-0.003021101,-0.0186226293,0.0115380678,-0.0006779527
6.6339011192,-0.0003185678,0.0031203935,-0.0038078823,-0.0271798968,0.0135993548,0.0014488477
6.6440238953,0.0025640917,0.004900069,0.0012448033,-0.0185463559,0.0041531222,0.0056886002
6.6540470123,0.0045201373,0.0019020746,0.0062057576,-0.0067248512,-0.0042600702,0.0014342003
6.6643338203,0.0035774303,0.0008926103,0.0062194667,-0.0035041822,-0.0063605057,0.0003700013
6.6741638184,0.0026707244,0.0038109133,0.0012960633,0.0114574563,-0.0083450936,0.0014270099
6.6842279434,0.0017513525,0.009784908,0.0001679262,0.0285600107,-0.0113990735,-0.0017649217
6.6942968369,-0.0021070647,0.0071316073,-0.0030237832,0.0424209647,-0.0102307443,-0.0038914559
6.7045927048,-0.0030547786,0.0055237124,-0.0013932983,0.0445665419,-0.0113018006,-0.0081387321
6.7144317627,-0.0049896347,2.30978e-05,-0.0055855908,0.0434855632,-0.0102916639,-0.0145087475
6.7246651649,-0.0021034288,0.0033126185,-0.0078322692,0.0466553904,-0.0070879483,-0.0155694168
6.73478508,-0.0041273045,0.0066064904,-0.0052054324,0.0402313136,-0.0050218673,-0.0155667551
6.7449970245,-0.0002763379,0.0010696361,-0.002491931,0.0284942035,-0.0051248651,-0.0155633586
6.7549381256,0.0026020599,0.0003361414,-0.0007160107,0.0231809318,-0.0072796289,-0.0134394877
6.7649431229,-0.0023310292,-0.0043860367,-0.0018046895,0.0103334691,-0.0031334865,-0.0113106892
6.775001049,-0.004363786,-0.0052818945,-0.0047700205,0.0048928978,0.0074507142,-0.0081186248
6.7852830887,-0.0044709849,-0.0043426445,-0.0105544133,-0.0079895575,0.0147951804,-0.0038660895
6.7952108383,-0.007531892,-0.0024329117,-0.0094974441,-0.0058558341,0.0148068983,-0.004928424
6.8052000999,-0.0017601658,0.0033813426,-0.0094394488,0.0006143153,0.0085169105,-0.0017471452
6.8153090477,0.0069988859,0.005351753,-0.0016002456,-0.0003878316,0.002155418,0.00037353
6.8255400658,0.0099444278,0.0053817937,0.0052224598,0.0029311329,-0.0094949119,-0.0006945974
6.8354721069,0.0090388246,0.0112635801,0.005114337,0.0061953692,-0.0158468187,-0.0028221968
6.8454828262,0.0032620323,0.0035138438,-0.0008077422,-0.0002029547,-0.0169971045,-0.0081314081
6.8556170464,-0.002536695,-0.0052610328,-0.0135049624,-0.0002892418,-0.008522925,-0.0102507519
6.865814209,-0.0064288187,-0.0023180535,-0.0194023047,0.003973254,-0.0074191783,-0.0091880169
6.8757138252,-0.0064983773,-0.0032832911,-0.0125475926,-0.0174651928,0.0019434306,-0.0091778971
6.8857469559,-0.0075657177,-0.0063774874,-0.0094355745,-0.0356610529,0.00706915,-0.0123560475
6.8958830833,0.0001128208,-0.0046611121,-0.0071855583,-0.0388917327,0.010258818,-0.0070446385
6.9060788155,0.0009696376,-0.0039146831,-0.0030271211,-0.0409648456,0.0038680304,-0.0081099039
6.916009903,0.003822763,-0.0080694845,0.004079958,-0.0430240035,-0.003570711,-0.0070512961
6.9260139465,0.0038021994,-0.0054245284,0.0072524152,-0.0419362336,-0.0057045026,-0.0102377022
6.9361429214,-0.0001044381,-0.0037136963,0.0015782317,-0.0216165818,-0.0097506428,-0.0070594857
6.9463472366,0.0019260239,0.0020017931,-0.0051771202,-0.0108868917,-0.0149429403,-0.0038781404
6.9561929703,4.66895e-05,0.0009920308,-0.0051871338,0.000872829,-0.0169624165,-0.0038821348
6.9662752151,0.0021451009,0.0078243325,-0.0043062964,0.007310993,-0.0200622678,0.0003623447
6.976351738,0.0052184057,0.00887552,0.0014162859,0.0116109326,-0.0232149195,-0.0007021208
6.9866571426,0.0024433625,0.0070559094,0.0022149286,0.018074479,-0.0295310039,-0.001769649
6.9966249466,-0.0002969611,0.0043007443,2.60075e-05,0.0233978722,-0.0284441691,-0.0049558552
7.0065488815,0.0028197658,0.0005886267,-0.0050515332,0.0211874731,-0.021013882,-0.0017673186
7.0166769028,0.0019374382,-0.0060593178,0.0006283721,0.0169173609,-0.0210719388,-0.0049516601
7.026889801,0.0069208038,-0.0049494198,0.0033971271,0.0168584269,-0.0146934707,-0.0028234618
7.0368118286,0.0079720803,-0.002845793,0.0061752996,0.0199974943,-0.0082787136,0.000364342
7.046792984,0.00897469,-0.0036598733,0.0099343257,0.0252789147,-0.0029196348,0.0014269433
7.056953907,0.008040417,-0.0006076982,0.0078198509,0.0188670903,-0.0018937849,0.0046144808
7.067158699,0.0021765423,0.0033462355,0.0116423564,0.0028074021,0.0032854639,0.0067445431
7.0770430565,-0.0007602978,0.0081742117,0.0116362767,-0.0004461817,0.0085763661,0.0088716103
7.0870542526,-0.0017410923,0.0158937294,0.0077800355,-0.004748892,0.0117228907,0.0088734748
7.0971727371,-0.0007979083,0.0031838128,0.0069149337,-0.0122097377,0.0105758673,0.0056893993
7.1073880196,0.000143994,-0.0027395179,0.0040853224,-0.0057602255,0.0063791918,0.0046255328
7.11729002,0.0030491543,0.0040567229,-0.0046828785,0.0123580573,0.008638883,0.0014366638
7.1273431778,0.0039432538,0.0148421833,-0.0027868547,0.0048703142,0.0096158646,-0.0017483438
7.1374740601,0.0009170961,0.0070994804,0.0040618381,-0.0036773682,0.0106022991,-0.0017456805
7.1476840973,0.0057154489,0.0032376358,0.0031273565,0.0070367679,0.0064371815,-0.0038736127
7.157544136,0.0037077558,0.0101427743,0.0030486784,0.0145487459,0.0022514916,-0.0049394099
7.1676282883,0.0007206392,0.003439934,0.0010308226,0.0155405868,0.009680979,-0.0059978166
7.1777458191,0.0006634485,0.0055580446,-0.0039764442,0.0326806903,0.0034917924,-0.0017580643
7.1879501343,0.0025825095,0.014555485,0.0016508898,0.0327060968,0.0013683208,-0.0017576647
7.1978807449,-0.0003664899,0.0080063054,0.0102213817,0.0328339301,-0.0113637196,-0.0017640564
7.2078762054,0.0007209968,0.0043657729,0.0089977579,0.039332442,-0.020871006,-0.0038937195
7.2180337906,-0.0010875274,-0.0031121066,0.0037988028,0.0404411182,-0.0251195468,-0.0060197213
7.2284550667,-0.0058894861,-0.0076859286,-0.0033297339,0.0361058116,-0.0188182406,-0.0102629354
7.2381501198,-0.0058364677,0.0051789591,-0.0094444556,0.0253184102,-0.0072265654,-0.0081308093
7.2481431961,-0.002934258,0.0014197538,-0.0095198555,0.0006792974,0.0021149381,-0.0070580211
7.2582449913,0.0009102118,0.0033873627,-0.0036459961,0.0006382847,0.006379724,-0.0038704835
7.2685012817,0.0076527786,0.009215028,0.0081333118,-0.0111438595,0.0105216056,-0.0038658231
7.278424263,0.0046093059,0.0062573859,0.0150405364,-0.0100224018,0.0052397582,-0.001745148
7.2884149551,0.0016308021,0.0061572501,0.0131837921,-0.0153712556,0.0062408405,-0.0038674211
7.2985301018,-0.0023380625,0.0011751363,0.0094060497,-0.016458625,0.0083673745,-0.0017424847
7.3087558746,-0.0082524233,0.0068881223,0.0007231435,-0.0101071447,0.0137489568,0.0014441207
7.3186678886,-0.0053804326,0.0038658688,-0.0128027005,-0.0027134102,0.0212204568,-0.0017394221
7.3286819458,-0.0036027241,0.0009354661,-0.0117196245,-0.0027551427,0.0254783835,0.0003862465
7.3387470245,-0.0018262375,-0.0010348251,-0.0047859945,-0.0080684144,0.0233236197,0.0025101174
7.3490891457,0.0019186031,-0.0050056865,-0.0036240616,-0.0165912509,0.0221867841,0.0025129803
7.3588900566,0.0047101867,0.0016810009,-0.0015210906,-0.0154910972,0.0190269426,0.0046347207
7.3689570427,0.0046178889,0.0045196125,0.0034603677,-0.0068912702,0.0127358912,0.004628995
7.3790230751,-0.0003170479,0.0005786131,-0.0023388662,0.0005573248,0.0149231451,0.0046281959
7.3893699646,-0.0003951002,0.0005768249,-0.0110817952,0.0090589058,0.0181677397,0.0025031932
7.3991479874,-0.0034677195,-0.0042041233,-0.0101272864,0.011171326,0.0203014649,0.0014419236
7.4092340469,-0.0026328969,-0.0051362803,-0.0052079358,0.0015894584,0.0180809889,-0.0006796172
7.4192919731,-0.0037471461,-0.0022187522,-0.0002760092,-0.003747249,0.0180205349,-0.0028018905
7.4295797348,0.0019911123,-0.0032116463,-0.0031010904,-0.0037274091,0.0158919357,-0.0038650907
7.4394159317,0.0028357101,-0.0002836873,-0.0030705729,0.0026758946,0.0159547869,-0.0028048865
7.4495520592,0.0056271148,0.0027294466,0.0017993649,0.0112547101,0.0117571792,-0.0070558903
7.4596328735,0.00449561,0.0047579119,0.0086130099,0.0005738363,0.0127388202,-0.0049290904
7.4699010849,0.0033624959,0.0027843425,0.0087062316,-0.0122872349,0.0179399084,-0.0038624273
7.4797391891,0.0042133522,0.0075545022,0.0059102378,-0.0069798212,0.0212179925,0.0035704551
7.4898328781,0.001183946,0.0103475163,-0.002733449,-0.015521884,0.0222451072,0.0099447984
7.4998269081,0.0001032841,0.0043177316,-0.0044627585,-0.02622566,0.0253279824,0.0088872565
7.5101561546,0.0009544086,0.0011970112,-0.0032504597,-0.021957919,0.0253726561,0.0099475272
7.5199899673,0.0037733805,0.0059243152,0.0018018087,-0.0144581897,0.022227196,0.0056968564
7.5300207138,-0.0012409497,-0.0009831479,-0.0009791652,-0.006960514,0.0190824699,0.0014454523
7.5401268005,-0.0033481228,-0.0029559424,-0.0096754832,0.0025893161,0.0244575273,-0.0006778861
7.55037117,-0.0025541293,-0.0087444475,-0.0135292811,0.007895425,0.0276862774,-0.0006767543
7.5602521896,-0.0008032728,-0.0057861498,-0.0066390433,-0.0048989346,0.0265203472,0.0003877112
7.5702910423,0.0029334021,-0.0058300188,0.0051900945,-0.0080354176,0.020161584,0.0056937272
7.5803670883,0.0126444288,0.0009351681,0.0131036239,-0.0015229238,0.0096490216,0.0120576164
7.5906581879,0.0146413632,-6.16004e-05,0.0170218553,0.0070899781,0.0022960997,0.0120522231
7.6005120277,0.011803288,-6.5853e-06,0.0149655538,0.0189018957,-0.0050422405,0.0099219605
7.6105451584,0.0080043264,0.0040161917,0.0079406695,0.0306682475,-0.0081426259,0.0067311614
7.620639801,0.0022574854,0.0090577314,-0.0030451813,0.0359687358,-0.004954556,0.0003606136
7.630920887,-0.0035802233,0.0161254127,-0.0081963344,0.0370302722,-0.0049930392,-0.0070729349
7.6407728195,-0.0075350213,0.0173503477,-0.0074387589,0.0273520797,0.0023570196,-0.0060050073
7.6508188248,-0.0105673485,0.0107442448,-0.0085593266,0.0208673365,0.0107666161,-0.0091828238
7.6608748436,-0.0078021693,0.0001796792,-0.0124575896,0.0047538802,0.0212368332,-0.0091735031
7.6712088585,-0.0021757293,-0.0065859845,-0.0094176931,-0.0081290836,0.0285672527,-0.0070443726
7.6810626984,0.0024321568,-0.009579747,-0.0033623972,-0.0252111293,0.029513739,-0.0017305672
7.6911220551,0.0041497541,-0.0039472273,0.0027831993,-0.0380755551,0.0358159095,0.0057089068
7.701198101,0.0029628468,-0.0101259043,0.0061046085,-0.0455209576,0.0336702019,0.0120805195
7.7114629745,0.0038422537,-0.0075825145,0.0045255027,-0.0422426313,0.0262845233,0.0142000625
7.721321106,0.0018410872,-0.0021191528,-2.97228e-05,-0.037848413,0.0135620702,0.0099453963
7.7313771248,0.0028268886,0.0014785239,0.0002230605,-0.0292173512,0.0040811496,0.0088762045
7.7414550781,0.0048619402,0.0081041167,-0.0016301671,-0.0098497765,-0.0116730453,0.0078016189
7.7517271042,0.0069601727,0.006121547,-0.0006620685,0.0008969307,-0.0190356225,0.0035490831
7.7615718842,0.0032170606,0.0081371376,0.0001740655,0.0127067184,-0.0264016576,-0.0028283889
7.7716627121,-0.0014864315,0.0034480998,-0.0059324303,0.0340795964,-0.0294047706,-0.0038975144
7.7817220688,0.001649965,0.0028004358,-0.0111690564,0.051174961,-0.0313776396,-0.0039028411
7.7920098305,-0.0011112202,-0.004564791,-0.0057432451,0.0458292514,-0.030370567,-0.0049623796
7.8018460274,0.0019625318,0.000633509,-0.0012352268,0.0425341204,-0.0208218023,-0.0007095778
7.8119220734,0.0021152687,0.0057478854,-0.0044548311,0.0350047275,-0.0144585799,0.0088515701
7.8219881058,0.0012652468,-0.0028829267,-0.0065600672,0.0156504698,0.0002692344,0.0152346352
7.8322629929,-0.0084419362,-0.0136375716,-0.0133684678,-0.0089651812,0.0075093037,0.019491965
7.8421001434,-0.0045491266,-0.0089133671,-0.0122600002,-0.0134036057,0.0244549979,0.0205633547
7.8521990776,-0.0065886187,-0.0071671298,-0.0071950355,-0.0262636654,0.0296343807,0.0184455402
7.8622140884,0.0011105727,-0.0045264056,0.0067999563,-0.0454639904,0.0283709764,0.0131407902
7.8725428581,0.0029455614,-0.003900378,0.0149760442,-0.0486036167,0.0219564196,0.0099527873
7.882349968,0.004834075,0.0054468224,0.0114022689,-0.041100692,0.0188525058,0.0120729301
7.8924942017,0.0067293239,0.0080605457,0.0077928505,-0.0314639397,0.0157318134,0.0088843275
7.9024920464,0.0047361446,0.0058634588,0.0002194842,-0.0250409283,0.0136518851,0.0067580589
7.9128351212,0.0046984148,0.0085951993,-0.0054552355,-0.0165167879,0.014788256,0.0067556622
7.9226322174,0.0055814278,0.009443433,-0.0023947754,-0.0090783127,0.018043438,0.0078171985
7.9327611923,0.0025617373,0.0084383795,0.0025565824,0.0005230494,0.0181283262,0.0078138029
7.9427599907,0.0034394455,0.006551058,0.0045083961,0.0165086742,0.0203901473,0.0078108734
7.9530582428,0.0014041554,0.0047435472,0.0034401617,0.0197819099,0.0129707148,0.0046205395
7.9629621506,0.0023018313,0.0048560211,0.0072889528,0.0144361472,0.0139920367,0.0056842063
7.9729571342,0.0022730124,0.0039787004,0.0033017597,0.0219614692,0.0087728407,0.0088652847
7.983191967,0.0013157915,0.0079488466,0.0002811154,0.0123706264,0.0076625692,0.014176161
7.9937520027,0.0013517331,0.0030431459,0.0003275474,-0.007920716,0.0096553452,0.0216155015
8.0034065247,0.0062960279,0.0029206583,0.0043275557,-0.0079404227,0.0117981248,0.0248019733
8.0132322311,0.0024513793,0.0086180279,0.0034240088,-0.0057899486,0.0107608903,0.025864508
8.023276329,0.0015327226,0.0026382515,0.0015796026,-0.0122385267,0.0149074318,0.0194974225
8.0336418152,-0.0004269588,-0.0013982346,-0.0012202064,-0.0133429645,0.0180688053,0.0173741505
8.0434360504,-0.0033953595,0.0072221467,-0.0021033087,-0.0112007177,0.016991822,0.0120640742
8.0535640717,-0.0064131427,0.0032632658,0.0009303888,-0.0037660785,0.0202270299,0.0099394042
8.0635414124,-0.0074615288,0.0071083019,-0.0078142686,0.0100943428,0.0213884357,0.0067510684
8.0739269257,-0.0046492922,0.0081405947,-0.0077968636,0.0090277735,0.021378912,0.0067515345
8.0836963654,0.0020766449,0.0023717592,-0.0009238521,0.0058578132,0.0181610156,0.0056889332
8.093788147,0.0039454293,0.00629899,0.0020105443,0.0122765899,0.0171682555,0.0078119384
8.1038455963,0.0028962982,0.0092835138,0.0058632097,0.0069947424,0.0118235592,0.0088724094
8.1141042709,0.003812511,0.0015120814,0.006900569,0.0016360097,0.0138782533,0.0056893323
8.1239366531,0.005684216,0.0053772042,0.0069449148,0.0026695831,0.0170498118,0.0025052573
8.1341772079,0.0036220741,0.0063521573,0.0050249896,-0.0015816204,0.0148634901,-0.001742618
8.1441574097,0.0025264216,0.0014431188,0.0041511855,-0.0090334108,0.0126346909,-0.0081126327
8.1543416977,0.0004342985,0.0043176124,0.0022775135,-0.0058213724,0.0116016502,-0.0081139645
8.1642637253,-0.0026069391,0.0150136063,-0.0035686889,0.0080624847,0.0106687453,-0.0070561566
8.1742992401,-0.0027187872,0.0170496423,-0.0036061802,0.0112983854,0.0075270138,-0.0049344166
8.1843957901,0.0001232814,0.0093643973,-0.0016711751,0.009153476,0.0085693747,-0.0049333512
8.194644928,0.001998235,0.0095022628,0.0011851391,0.0209026486,0.007632209,-0.001751939
8.2045507431,0.0068023098,0.0067591378,0.0020766456,0.0262265746,0.0087259691,-0.0038763429
8.2145614624,0.0047636223,-0.001795738,0.0048719845,0.0262361355,0.0076582413,-0.0049388772
8.2246999741,0.0017416965,0.0003727982,0.0037316284,0.0251988359,0.0044382131,-0.009187418
8.2349023819,0.0016477298,-0.0004631569,0.0056023202,0.0059797335,0.0053172559,-0.0113053629
8.2447710037,0.0025126827,-0.0043388894,0.0056522093,-0.0057789218,0.0073505794,-0.0091777639
8.254901886,-0.0005025077,0.006309838,0.0017806491,-0.0068174489,0.0041594468,-0.0091802943
8.2649078369,0.0033577573,0.0140177915,0.0008950433,-0.0206677504,0.0019301147,-0.0070542926
8.2752218246,-0.0005997527,0.0041037509,-0.0028176107,-0.0302676745,0.0018589417,-0.0049271593
8.285033226,0.0042444956,0.009727628,-0.002600173,-0.032402996,0.0018264512,-0.0070502311
8.2951688766,0.0022438359,0.0075906226,-0.00534902,-0.025958173,-0.0023614364,-0.0070541594
8.3051519394,0.0051632714,0.0054899165,-0.0071471729,-0.0206225291,-0.0023148307,-0.0070554912
8.3155155182,0.001196314,0.0054540941,-0.0080882711,0.0007175934,-0.0021702214,-0.0134313647
8.3253040314,0.0050354195,0.0085450122,-0.007215003,0.0305950642,-0.0019369284,-0.0176860299
8.3353681564,0.0039365184,0.0060159275,-0.0075053968,0.0572812967,-0.00280665,-0.0240638368
8.3455104828,0.0047753346,0.0085169384,-0.0020675459,0.0658268481,-0.0038207821,-0.0283137076
8.3557338715,0.0016835224,0.0149070332,0.0072443685,0.0573318712,-0.0081391642,-0.0283139069
8.3656396866,0.0025307727,0.0047099302,0.0078609185,0.0520068817,-0.0092467731,-0.0283131097
8.3756465912,0.0014462065,-0.0007267882,-0.0002388755,0.0434379987,-0.0061170254,-0.0251245052
8.3857727051,-0.0016148199,-0.0043267896,-0.0062889853,0.0220219232,0.001137425,-0.0229918472
8.3959760666,0.0011832308,-0.0051908186,-0.0063162246,-0.0035854084,0.0009550649,-0.0166144427
8.4059066772,0.0040299189,-0.0013838103,-0.0042471685,-0.0270782188,0.0029412503,-0.0059894938
8.4159135818,0.0039630425,0.0003146837,-0.0040101805,-0.0441399999,0.0017447588,-0.0038619614
8.4259786606,0.0058529866,0.0029180357,-0.0017570058,-0.0430840552,0.002808159,-0.0049234978
8.4363136292,-0.0010610629,0.0045640776,-0.0083323522,-0.0346037522,0.0081676375,-0.0081090378
8.4461126328,-0.0031567919,0.0014498541,-0.0129773421,-0.0260917582,0.0103157433,-0.0155427195
8.4561920166,-0.0063006687,0.0004405091,-0.0118957562,-0.0004941188,0.0115516502,-0.0229808614
8.4662790298,-0.0026068795,0.0026198337,-0.0071069994,0.0359027684,0.0001629076,-0.0283047855
8.4765291214,-0.0008711028,0.004051418,-0.0025232234,0.0540636405,-0.0018142895,-0.0304341838
8.486371994,0.0028683734,0.0016615698,0.001022478,0.0573289394,-0.0081523471,-0.0304381773
8.4964418411,0.0008187782,-0.0017899564,0.0026089153,0.043557547,-0.0177746806,-0.0230062939
8.5065832138,0.0017837476,-0.0043781688,0.000389119,0.0307338946,-0.0157229807,-0.0166312195
8.5167751312,0.0037738276,-0.0022664955,0.0021734436,0.0061909482,-0.0159092695,-0.0123782847
8.5267047882,0.003866185,-0.0061857989,0.0012041529,-0.017283218,-0.0160797127,-0.007063414
8.5367031097,0.0039521349,-0.008322089,-0.0025623837,-0.0311528519,-0.0161663964,-0.001750807
8.5468387604,0.0060136509,-0.0037098816,-0.0072737732,-0.0322727114,-0.0108637773,-0.0006860753
8.5570650101,0.0021644724,-0.0039998582,-0.0119329495,-0.0430472791,-0.0003196571,0.0035695229
8.5669384003,0.0011960458,-0.002352803,-0.0126576228,-0.0345315523,0.0018769181,0.0035684574
8.5768728256,0.0011530112,0.0032811472,-0.0076089897,-0.0206942223,0.0051396233,-0.0028042872
8.5871047974,0.0010691773,0.002303333,-0.0017076532,0.0038880864,0.0010546005,-0.0113069611
8.5972995758,-0.000970881,0.0043745348,-0.002764205,0.0231129397,-0.000919268,-0.0144993588
8.6072130203,-0.0010691393,0.0027177641,-0.0019925036,0.0380820334,-0.0040064044,-0.0198136978
8.6172418594,-0.0011768151,0.0011480758,0.000653108,0.0423847474,-0.0071529285,-0.0198155623
8.6273784637,-0.0032380926,-0.0091724088,-0.0035357871,0.0476665944,-0.0018082312,-0.0208760314
8.6375827789,-0.0004234124,-0.0078289201,-0.001841406,0.0348534584,-0.0008317165,-0.0166247617
8.6474990845,0.0014211129,-0.0037127426,0.0048541031,0.0081363618,0.0032277401,-0.0091833565
8.6575145721,0.0032899869,-0.0007943799,0.0156120853,-0.0185332261,0.0019771196,-0.0028082817
8.6676044464,0.0013039302,-6.36866e-05,0.0138762193,-0.0463083982,0.0049454789,0.0014474497
8.6778669357,-0.0035778391,-0.0034318259,0.0064422092,-0.0591470711,0.0091311689,0.0099490592
8.687710762,-0.0064990628,-0.0019759824,-0.0068082609,-0.0538753457,0.0155437943,0.0099509228
8.6977787018,-0.0075158882,0.003470392,-0.0142879887,-0.0346992239,0.0189088974,0.0120708654
8.7078752518,-0.0017128695,0.0042245695,-0.0101340814,-0.0250636432,0.0158028528,0.0110050682
8.7181148529,0.0050992561,0.0031188438,-0.0011948744,-0.0132127358,0.0041933358,0.0046249335
8.7280473709,0.0109717138,0.0070501873,0.0085500674,0.0136013003,-0.0094013028,-0.0006976599
8.7380437851,0.0169292279,0.0150537202,0.0112571316,0.0361306593,-0.0208917111,-0.0028314516
8.7479362488,0.0111848004,0.0124218771,0.0128763514,0.0382963419,-0.0240630023,-0.0038953843
8.7581977844,0.0054666591,0.0098277042,0.0105682807,0.0500235707,-0.0229063928,-0.0049595833
8.7683048248,-0.0012554039,0.0062946985,0.005286952,0.0457218215,-0.0197673235,-0.0060189888
8.7783355713,-0.0089666955,-0.0080022505,-0.0028008022,0.0370990373,-0.0113607896,-0.0070743994
8.7884016037,-0.006006937,-0.0068114093,-0.0078768535,0.0231432728,-0.00296624,-0.0028194673
8.798532486,-0.0041010487,-0.0057729771,-0.0040114322,-0.0078668389,0.0031363936,-0.0017467459
8.8085784912,-0.0012522448,-0.0078183701,-0.0009390513,-0.0250144005,0.0104281288,0.0003848483
8.8185768127,-0.0003699172,-0.0022039702,0.0012278756,-0.0303641614,0.0114224199,-0.0027993603
8.8286838531,0.0044379723,0.0034519741,0.0024237833,-0.0228617694,0.0083115809,-0.00174102
8.8388404846,0.0082853027,0.0111258933,0.0083798366,-0.0120397741,-0.0064711594,-0.004935415
8.8488149643,0.0073736501,0.0130526731,0.0122662382,0.0019601975,-0.01908895,-0.0060070711
8.8588447571,0.0104320236,0.0112267444,0.0101767974,0.0287315175,-0.0284110792,-0.007081124
8.8690061569,0.0057544303,0.012468488,0.0059207878,0.0427101851,-0.0389068648,-0.0081517147
8.8791770935,-0.0018202473,0.010844321,-0.0052332678,0.0501477495,-0.0356584713,-0.0081521142
8.8891143799,-0.0035814452,0.0044319937,-0.014441113,0.0575643927,-0.0302882101,-0.0081513152
8.8991107941,-0.0083561949,-0.0019474914,-0.0168168936,0.0510338396,-0.0176263414,-0.0102665313
8.9092559814,-0.0024930942,-0.0054616621,-0.0112701459,0.0423274338,-0.0007110087,-0.0081322743
8.9194641113,-0.0006101239,-0.0061070612,-0.0046702423,0.0358298793,0.0087888204,-0.0070638801
8.9292964935,0.0021813703,0.0009349892,0.0068798861,0.013390352,0.0118037844,-0.0028094803
8.9393873215,-0.0028503942,-0.0029667905,0.0088998275,-0.0154751465,0.0168428179,-0.0049227653
8.9494590759,0.0018931221,-0.0021275571,0.012024303,-0.0250649229,0.0157463942,0.0025117153
8.9598064423,0.0047031534,0.0005965541,0.0141971903,-0.024012465,0.0167968124,-0.0006742908
8.9696369171,0.0036238921,-0.0015331795,0.0124442177,-0.0228718333,0.0093652606,-0.0028018903
8.9796657562,0.0035729003,0.0040980885,0.0067962608,-0.0303334817,0.0082327519,-0.0038630264
8.9897899628,-0.0043288874,0.0106475065,-0.0008093516,-0.0356606022,0.0070974464,-0.0081094373
9.0000667572,-0.0064139771,0.0123815844,-0.0083924932,-0.0282409824,0.0124666449,-0.0081075728
9.0100078583,-0.0075526643,0.0064156363,-0.0111148758,-0.0111898258,0.0147170164,-0.0112961754
9.0199289322,-0.001852404,0.0064300606,-0.0100614233,0.0015826141,0.0180194024,-0.0102365706
9.0300140381,0.0018387925,0.0045858929,-0.0041861334,0.0079757981,0.0191501807,-0.0081140315
9.040266037,0.0075195325,0.0037505338,0.0006903609,0.0133447843,0.0160417389,-0.0038700176
9.0501289368,0.0103270002,0.0038565109,0.0074829063,0.0048423763,0.0128187817,0.0014395267
9.0602474213,0.0112231262,-1.70757e-05,0.0133816795,-0.0057723699,0.0074407277,0.0046255328
9.0702619553,0.007320602,-0.0011268547,0.0047034225,-0.0121959159,0.009513732,0.0056899982
9.0805521011,-0.0005388368,-0.0002811243,-7.91351e-05,-0.0121990321,0.0095006162,0.0035656614
9.0903959274,-0.0054608691,-0.0023632338,-0.0019171039,-0.0207797363,0.013656212,0.0014463176
9.1004676819,-0.0094626956,-0.0054650595,-0.0046543875,-0.0207667686,0.0125730382,-0.0017382236
9.1105327606,-0.0066266465,-0.0046403697,-0.0083787246,-0.0175541956,0.0115469228,-0.0006777529
9.1208219528,-0.0067322659,-0.0047746589,-0.0072390833,-0.0239497758,0.010409886,-0.0038627605
9.1307106018,0.0009681177,-0.0019892147,0.0017315348,-0.0239380561,0.0093627311,-0.0017396886
9.1407852173,0.0057832492,0.0066130469,0.0019042095,-0.0218139477,0.0104564242,0.0003837165
9.1508197784,0.0056961966,0.0113541195,0.0020237167,-0.0079631126,0.0126926806,-0.0006804827
9.1609897614,0.002689172,0.0093962857,-0.0028004446,0.0037758602,0.0127950134,-0.0006832125
9.1711816788,-0.0003396082,0.0094420025,-0.0008672873,0.0059079872,0.0127859581,-0.0049309544
9.180847168,-0.0034019458,0.0065713832,-0.0008648435,0.000527896,0.0169769078,-0.0059897602
9.1909179688,-0.0055301893,0.0026673982,-0.0066368976,-0.0047976263,0.0158623755,-0.0070507638
9.2011966705,-0.0027596164,0.0006997893,-0.0074964561,-0.0038042422,0.0233268831,-0.0028005587
9.2110595703,-0.0038795876,-0.002290993,-0.0103117628,-0.0133844316,0.021155607,0.0025097844
9.2211313248,0.0038409424,-0.008235543,-0.006221036,-0.0154475272,0.0148252742,0.0110026058
9.2311973572,0.003838737,-0.010299175,0.0007179579,-0.0110916607,0.006402228,0.0152444886
9.2414684296,0.0097702332,-0.0123437932,0.0076458654,-0.0078173857,-0.0009962332,0.0152393617
9.2513418198,0.0108860321,-0.0123950532,0.014472981,0.001906082,-0.012555683,0.0194783155
9.2613868713,0.0111235864,0.0011745999,0.0134017067,0.006229538,-0.0178240165,0.0194751862
9.2714633942,0.0084169395,0.0059784362,0.0094303088,0.0018875198,-0.0104204277,0.0216035843
9.2817497253,0.0007920754,0.0068944404,-0.0003972451,0.0071456116,-0.0029955348,0.0141736316
9.2916030884,0.0008746576,0.0059089372,-0.0072653093,0.011317187,0.0065769311,0.0120537551
9.3016643524,-0.0050096321,0.0069089839,-0.0121716065,0.0058717681,0.0171130635,0.0078128045
9.3117322922,-0.0031811404,0.0040224502,-0.0072471299,0.0025846288,0.0255662017,0.0067560617
9.3220062256,-0.0014178265,0.0041007111,-0.0004079143,0.0153981354,0.0245895553,0.0025049243
9.3318662643,0.0003370833,0.0042608688,0.005415102,0.0111290887,0.0245453455,0.0014441872
9.3419532776,-0.0047552395,-0.0035097292,0.0064484677,-0.0124334963,0.0328213833,0.000392505
9.3520822525,-0.0049545872,-0.0065562418,0.0017894706,-0.0188122988,0.0306780729,0.0057020495
9.3624229431,-0.0012124885,-0.0037868908,0.0088271098,-0.0262067523,0.0231997184,0.0078237234
9.3722572327,-0.0013253499,-0.0118316105,0.0081437426,-0.0368759111,0.0231342018,0.012073596
9.3823251724,-0.0033435035,-0.0063173464,0.007455071,-0.0346558429,0.0146574946,0.0110073993
9.3924236298,-0.0013823021,-0.0017640879,0.0038289032,-0.0367560126,0.0114835389,0.0152535429
9.4026889801,-0.0013420988,-0.0040670922,-0.0017329851,-0.0410236493,0.0114601701,0.0173781458
9.4125881195,0.0026232493,-0.0024551442,-0.0034044781,-0.0282047875,0.0105456412,0.0226834286
9.4226007462,0.0036583436,-0.0007497956,-0.006149272,-0.0218522977,0.0159055181,0.0226855595
9.4326696396,0.0007510972,0.0019470165,-0.009888391,-0.0197707694,0.0212361012,0.0237494931
9.4429645538,-0.0022161412,-0.0030897548,-0.0077802339,-0.0134054963,0.0244627874,0.0216242895
9.4527959824,0.0016823303,-0.0012110164,-0.0057372847,0.0079685021,0.0214592759,0.0205555633
9.4628562927,0.0006598126,0.0008111904,0.0010277828,0.0186613332,0.0194161646,0.0184286963
9.4729328156,0.0035875333,0.0019227574,0.0009191235,0.0357987732,0.0131923566,0.0173594374
9.4832859039,0.0065264595,0.0100022266,0.0035833917,0.0507793725,0.0090652555,0.0152297076
9.4930486679,0.0075200987,0.0035339305,0.0052437386,0.0550803766,0.0059264544,0.0162888467
9.5031480789,0.005639751,0.0058217356,0.0068583689,0.0529785901,0.0027388502,0.0184111856
9.5131978989,0.0067342711,0.0012408802,0.0046198568,0.0444868319,-0.0015451107,0.0237201974
9.5235128403,0.0030062986,-0.0024673035,-0.0005052487,0.0306198038,-0.0016327286,0.0290337373
9.5333356857,0.0022029174,-0.0063049486,-0.0006161729,0.0113832606,0.0014309717,0.0364727452
9.5434627533,0.0004671108,-0.0112518957,0.0013280114,-0.0046042558,-0.0008230612,0.0375366136
9.5535383224,-0.002255212,-0.0114289811,0.0023503504,-0.0099612046,0.0012523403,0.037539009
9.5637273788,-0.0039928961,-0.0058081439,-0.0014736453,-0.0142927291,0.0075878673,0.038605202
9.573592186,-0.006784569,-0.0041136434,-0.0023172894,-0.0217855312,0.0096238535,0.0354227237
9.5837211609,-0.0047263908,-0.0014912775,-0.0060041943,-0.0272067972,0.0180227328,0.0290585048
9.5936813354,0.0011876117,0.0099656293,-0.0048707523,-0.0090847844,0.0203308929,0.033302255
9.6040744781,0.0002477955,0.0156960208,-0.0008958975,0.0015696976,0.0214375034,0.0258666389
9.6138515472,0.0070833159,0.0088703344,-0.0027788677,0.0122287339,0.0225709453,0.0226791017
9.6239356995,0.0070363176,0.0118649313,-0.0008977453,0.0197481439,0.0172898304,0.0163035616
9.634059906,0.007981617,0.0081436345,0.0067846975,0.0304508545,0.0141931064,0.0152374972
9.6442871094,0.0030711484,0.0054079602,0.0056635938,0.0283115096,0.0141407084,0.0099281529
9.6540021896,-0.0018645633,-0.0022577336,-0.003216187,0.0197425224,0.0172491502,0.009931881
9.6642093658,-0.0019530166,-0.0080326488,-0.0080851121,0.0078913504,0.0288303047,0.012065473
9.6742963791,-0.0001421977,-0.0022031358,-0.0031444826,0.0014678063,0.0309033096,0.0131299384
9.6845016479,0.0055901003,0.0045729587,0.0076667271,-0.0006751604,0.0319734327,0.0173781458
9.6944675446,0.0074248505,0.0016154358,0.0067931614,0.0036567375,0.0256377757,0.0163120832
9.7044649124,0.0083496161,0.0045341561,0.0068112812,0.011216227,0.0172418933,0.0205539651
9.7146015167,0.0063946736,0.0065164873,0.0106843906,0.010212481,0.0108596273,0.0194892343
9.7247991562,0.0093981512,0.0036653588,0.0067151985,0.0294868965,0.0046748351,0.0216052495
9.7347412109,0.0075897765,0.009670944,0.0045176945,0.0413323715,-0.0058257421,0.0226587951
9.7447290421,0.0038443995,0.0049996683,0.0023247204,0.030622175,-0.002769033,0.0173525121
9.7548656464,0.0049527776,0.0090144584,-0.0007628003,0.0188427474,0.0013932216,0.0205429792
9.7650909424,0.0011528026,0.0129798362,-0.0018781224,0.0241127424,0.0078206938,0.0226674508
9.7748908997,0.0002138209,0.0111608217,-0.0068943896,0.0293716863,0.0152666261,0.0184226371
9.7850446701,0.0001481068,0.0045120427,-0.0069886246,0.021794036,0.025790507,0.0152445547
9.7952871323,-0.0009860505,-0.0011891415,-0.0060419836,0.0216949657,0.0352979898,0.0088785347
9.8054113388,-0.0041653919,0.0037857005,-0.0051041641,0.0152108353,0.0437429436,0.0110089974
9.815202713,-0.0024716067,0.0087017724,-0.0011326472,0.0023637461,0.0478889495,0.0131379282
9.8253059387,0.002147634,0.0038379738,0.0038868985,0.0109047703,0.0479905494,0.0173836723
9.8353357315,0.0009417724,0.0087565491,0.0029624305,0.0184071623,0.0448797122,0.0184420124
9.8456783295,0.0007258546,-0.0019095829,0.0030422411,0.0066662426,0.0447496176,0.0141976001
9.8554639816,0.0024562669,2.07732e-05,0.005109211,-0.0007088492,0.0351214893,0.0120710656
9.8655900955,0.0013275336,0.0038222978,0.0071832142,-0.0134207569,0.0254614074,0.0120686684
9.8756093979,0.0041967821,0.0017090151,0.0034797392,-0.0176035166,0.0169430189,0.0131272757
9.8859558105,0.0012454282,0.0083074281,-0.0032012858,-0.0207841843,0.0148003735,0.0141884116
9.895775795,0.0031876755,0.0090669701,-0.0039768019,-0.0250745378,0.0168781709,0.0131287398
9.9058027267,0.0060608876,0.0098634074,-0.0008568565,-0.0133101298,0.0148499077,0.0120648071
9.9159402847,0.002119292,0.0078516314,0.0001839598,0.0027260948,0.0117720924,0.0067502027
9.9261398315,0.0020770621,0.0059613297,-0.0047277608,0.0251290053,0.0119418036,0.0024957363
9.9360818863,0.0010439049,0.0091108987,-0.0078394813,0.0369414575,0.0046103867,0.0014272762
9.9460687637,-0.00292189,0.0122995088,-0.0051617422,0.0380198509,0.0035442566,-0.0006965284
9.956111908,-0.0029327082,0.0096605131,-0.003432075,0.0391311869,-0.0006696631,0.0024864818
9.9666166306,-0.001913916,0.0060239146,-0.0056108632,0.0391643979,-0.0038388912,0.0046085552
9.9764900208,-0.001853,-0.0015446832,-0.0116596026,0.0284728706,-0.001796247,0.0067358883
9.9865264893,-0.0008293498,-0.0052994778,-0.0147268577,0.0231364816,-0.0018425859,0.0067369537
9.9965238571,-0.001772504,0.0016753385,-0.013928513,0.0273730382,0.0013777085,0.0067374865
10.0066833496,0.0041163755,0.0018982003,-0.007273952,0.032722719,0.0003549882,0.0056752176
10.0166692734,0.0070831669,0.0030857036,-0.0006322662,0.0253161993,-0.0060832044,0.004612084
10.0266151428,0.0061300588,0.0032483051,0.0011660656,0.0220829099,-0.0040422902,-0.0038827341
10.0367240906,0.0032036495,0.012135,-0.0038730302,0.0167355482,-0.0030417407,-0.0060044746
10.0469446182,-0.0046545374,0.0063879201,-0.008835475,0.0103037748,4.16008e-05,-0.0123698954
10.0568399429,-0.0018201877,0.0074356506,-0.013732533,0.0069963946,0.0106305955,-0.0113019682
10.0668478012,-0.0058572697,0.0035794089,-0.0127378507,-0.0025546066,0.0052701849,-0.0070558237
10.0769748688,-0.0049417722,-0.0002911975,-0.0068591037,-0.0014342144,-2.5511e-05,-0.0070587536
10.0872240067,0.0028612507,-0.0051270416,-0.0078074732,0.0061109737,-0.0073804297,-0.0060024774
10.0971221924,0.0048622978,-0.0079132607,-0.0108397407,0.0275398325,-0.0156681873,-0.0038884599
10.1071071625,0.0098601468,-0.001824527,-0.0052598515,0.0319244638,-0.027315788,-0.0060189888
10.1171836853,0.0100194998,0.0003747056,0.0022448502,0.0319771916,-0.0326277278,-0.0070834546
10.1275177002,0.0102260299,0.0074267695,0.0038912497,0.0298647452,-0.0347543284,-0.0049605821
10.137254715,0.0035731387,0.0076097557,-0.0041873255,0.0265770741,-0.0263081156,-0.0070791263
10.1476612091,0.0046690297,0.0009845207,-0.0102330251,0.0265043937,-0.0188888796,-0.0081363358
10.1574745178,0.0027635884,0.0050750086,-0.0084982915,0.0211170875,-0.0136096971,-0.0049469331
10.1677494049,0.0028075469,0.0051816413,-0.0037302771,-0.0002684966,-0.0095448475,-0.0038780072
10.1776533127,0.0037877751,0.0022319267,-0.001753966,-0.0131262373,-0.0043378347,-0.0017485435
10.1876869202,0.0086687095,0.0011339495,-0.0045383968,-0.0228063483,0.0030271374,0.0014419236
10.197716713,0.0086601861,0.0048250267,-0.0014434258,-0.028169157,0.0062258602,0.0110010738
10.2080173492,0.0106384344,0.0065033743,0.0007419785,-0.0345674269,0.0062110131,0.0173739512
10.2179021835,0.009726394,0.0100893686,0.0009687742,-0.0292403065,0.0073463186,0.021620363
10.2279443741,0.0069022966,0.0068873474,-0.0056631961,-0.0195904225,0.0031993107,0.0237401724
10.2380876541,0.0070397747,0.0048008272,-0.0104712052,0.0050376924,-0.0050881803,0.0216061808
10.2482862473,0.0081883259,0.0126909325,-0.0038206377,0.0361056514,-0.0176258087,0.009911974
10.25822258,0.0083552487,0.0101650069,0.0074812374,0.0618285909,-0.0291423816,-0.0007182994
10.2682113647,0.0075811935,0.0087555954,0.0010570487,0.0843574926,-0.0417609736,-0.0134727107
10.2783479691,0.0019403886,0.0084818909,0.0003261169,0.0983111262,-0.050183218,-0.0219748523
10.2885370255,0.00215729,0.0102656195,0.001463612,0.1058356762,-0.0554448254,-0.0251637213
10.2984247208,0.0004322421,0.0052511999,0.0016179284,0.101599656,-0.0586581975,-0.0241024513
