0.0000000000,-0.0020962919,0.0003859606,0.0081559736,-0.0452322401,-0.0005326436,0.0790390894
0.0096590519,-0.0038533474,0.0126756635,0.0076306178,-0.0472301431,-0.0155475456,0.074888289
0.0196419954,-0.002490815,0.0103714075,0.0110524017,-0.0492472202,-0.0294665564,0.0739175677
0.0296289921,0.0017612313,0.0198224988,0.0105283568,-0.0353037082,-0.0347603858,0.068636246
0.0396549702,-0.0006691481,0.0263099875,0.0032902672,-0.0149482377,-0.0410752743,0.0612242743
0.049620986,-0.0049529639,0.0309409704,6.48214e-05,-0.0084724948,-0.0443496332,0.0474298969
0.0596729517,-0.0032253827,0.0229891744,-6.613e-05,-0.0021209894,-0.0347489342,0.03992844
0.0718230009,0.0004269515,0.0239027347,-6.22557e-05,0.0191597976,-0.0239508841,0.0334692076
0.0798410177,0.0031979417,0.0190168824,-0.0018047974,0.0276482254,-0.0143421991,0.0238366853
0.0898009539,0.0050360593,0.0102542248,-0.0005896972,0.0158221927,-0.0016626228,0.0173883736
0.0997110605,0.005796555,0.0122116413,0.0043968274,0.0082873106,0.0057659987,0.0184096973
0.1098179817,0.0065233144,0.0161032882,0.0093458006,0.0018547112,0.0099732606,0.0162621234
0.1197609901,0.0034058129,0.0160415377,0.0123055894,0.001841262,0.0110555692,0.0183821339
0.1298069954,0.0032283401,0.0130555835,0.0123570878,0.001892129,0.0056938268,0.0162920859
0.1397379637,0.0020776128,0.016898891,0.0103988964,-0.0012641167,0.0003193018,0.0152653027
0.1497910023,-0.0009526575,0.0148277488,0.0054381802,-0.0118975872,-0.0050978344,0.016370248
0.1597419977,-0.0020670856,0.0168649759,0.0049101426,-0.0032561608,-0.0168032255,0.0143140219
0.1697200537,0.0030473208,0.0276983585,0.014391155,-0.0042079743,-0.0275711846,0.0058853826
0.1797380447,0.0016947126,0.0144483652,0.0151412208,-0.0180203263,-0.0341193676,0.0027509755
0.1897209883,0.0002906357,0.0067230072,0.0043517663,-0.0190722756,-0.0331222787,-0.0046914942
0.1997770071,0.0014756357,0.0110679474,-0.0004728721,-0.0244240314,-0.0299890675,-0.0089598754
0.2097040415,-0.0009969438,3.0008e-06,-0.0046787546,-0.0308427811,-0.0258180257,-0.0153567884
0.219761014,0.0021275913,0.0056880917,-0.0055346773,-0.0191665515,-0.0161430277,-0.0186113045
0.2296710014,0.0015739535,0.0205478277,-0.0054924176,0.0096302088,-0.012722997,-0.0197159834
0.2397040129,0.0025641655,0.0255047884,-0.0043941424,0.0341438055,-0.0082555441,-0.0197633877
0.2496720552,0.0057308706,0.020184001,-0.0040221498,0.0629501566,-0.0257754158,0.0302624945
0.2597169876,-0.0186957084,0.0061707105,-0.0111854356,0.079672277,-0.2450249493,0.3748264015
0.2697390318,0.1075722277,-0.0080057178,-0.0013534115,0.0975593999,-0.3860917687,0.4862173796
0.2797299623,0.1139923036,0.0118410792,0.0083261449,0.0824567452,-0.074498482,0.0645613521
0.2897510529,0.0381733812,-0.0030266438,-0.0008042739,0.0709849149,0.0760010108,-0.0745174438
0.2997200489,-0.0260778628,-0.0227909479,-0.0032575415,0.0496692359,0.0517015345,-0.0212222673
0.3097079992,0.0202995278,-0.0135700498,0.0063124611,0.0316399038,0.0345249437,-0.0136615532
0.3195739985,0.0022305881,-0.0011468921,0.0090701291,0.0040210597,0.0182761978,-0.0135353189
0.3298900127,0.0114172734,-0.000283936,0.0177429039,-0.012900399,-0.0042267144,-0.0048784483
0.3398000002,0.0133090355,5.09229e-05,0.0177533943,-0.0372930914,-0.0267906133,0.0027187516
0.3496409655,0.0044638249,-0.0065402184,0.0207023937,-0.0809963644,-0.0356517471,0.0059939064
0.3596179485,-0.0032975043,-0.0202860627,0.0139152724,-0.0959265754,-0.0389388874,0.0102760037
0.36967206,-0.0102236234,-0.0131386314,0.0024466827,-0.0980911925,-0.0357401632,0.0113191642
0.3796110153,-0.0121469162,-0.0165913496,-0.002879052,-0.0842310414,-0.0314069353,0.0059712706
0.3896650076,-0.0160782896,-0.0178375635,-0.0150807193,-0.042682264,-0.0172820631,-0.0047732531
0.3996230364,-0.0194974504,-0.0110339317,-0.0262087267,0.0041735251,9.74603e-05,-0.0155461393
0.4096189737,-0.0232405625,-0.0100804362,-0.0312214177,0.0627375022,0.0207939502,-0.0231579859
0.4196139574,-0.0231494866,-0.0050193463,-0.0317333639,0.1117790788,0.0307405908,-0.0285655353
0.4296189547,-0.0247874521,-0.0036937986,-0.0290658753,0.1287886947,0.0404640585,-0.0318276398
0.4395829439,-0.0185020827,-0.0050220285,-0.0190459173,0.1458507627,0.0416840501,-0.0297232103
0.4496090412,-0.0170412622,-0.0004361066,-0.0136311343,0.1512263566,0.0374413691,-0.0307618435
0.4595489502,-0.0144913755,-0.0026017223,-0.0071395324,0.1352050453,0.0352509208,-0.0233033951
0.4696229696,-0.0108369254,-0.0164749417,-0.0035001324,0.0979167894,0.0243199766,-0.0178945139
0.4795659781,-0.0112191699,-0.0197628532,-0.0031133578,0.0499438085,0.0143813249,-0.0114207696
0.4895460606,-0.0076535014,-0.0270170961,-0.0020447657,0.0201486312,-0.0007305165,-0.0017404454
0.4995690584,-0.0024170841,-0.0129033718,0.0025371029,-0.0010689069,-0.019013118,0.0047689863
0.5095540285,0.0028845703,-0.0067029987,0.007769139,-0.0244895443,-0.0308601893,0.0154860783
0.5195399523,0.0041754576,-0.0056709442,0.0037672236,-0.0383110829,-0.039475251,0.0208651312
0.5295499563,0.0014881527,-0.0008322391,-0.0023987577,-0.0286464728,-0.0468729809,0.0219687466
0.5395339727,0.0007579362,-0.0028115306,-0.0045780228,-0.0136884283,-0.0478418358,0.0198386163
0.5495280027,0.0020465588,-0.0066116843,-0.0045647905,0.0065550576,-0.0423594527,0.0176641457
0.5595070124,-0.0005514289,-0.0015933905,-0.0121575883,0.0310096666,-0.0293712169,0.014375275
0.5695209503,-0.0100383721,0.0005231109,-0.0146833947,0.0405001082,-0.0143528515,0.0121464748
0.5796339512,-0.0090220235,0.0016680565,-0.0151941469,0.0553460307,-0.0014325257,0.0099284612
0.5896359682,-0.009204682,0.0096185412,-0.0118311923,0.0681177527,0.0039920667,0.0077595832
0.5994980335,-0.0026009644,0.0127855148,-0.0014373944,0.0584563389,0.009289627,0.0109186247
0.609498024,-0.0017446841,0.0031642523,0.0039728,0.0285887215,0.0058703944,0.0130864372
0.619508028,0.002031747,-0.002613524,0.0091728885,0.0051100263,0.0035870003,0.0173674673
0.629554987,0.0019226109,-0.0045632515,0.0092804749,-0.012954995,-0.0051303245,0.0142494394
0.6395740509,0.003774259,-0.0065256748,0.0141632874,-0.0406508073,-0.0128138103,0.0153794186
0.6495530605,0.0009877717,-0.0095228944,0.0129449675,-0.0501556247,-0.0236115977,0.0112065123
0.659471035,0.0030985808,-0.0085295234,0.0108493287,-0.0266327225,-0.0256254785,0.0048306379
0.6694890261,-0.0006155635,-0.0046773348,0.0009230687,-0.0180885028,-0.0245269258,0.0005679827
0.6797219515,-0.0005617107,-0.0037764106,-0.0041349218,-0.0042894678,-0.0158519447,0.0026270056
0.6894780397,-0.0015095437,0.001086792,-0.0080996444,0.0159260556,-0.0082049444,0.0036256912
0.6994559765,-0.0035314823,0.0079598632,-0.006988077,0.0435928367,0.0016452896,0.0056678029
0.7094969749,-0.0065457192,0.0080639925,-0.0046215937,0.0626813099,0.0157145038,0.0087504117
0.7194629908,-0.005718526,0.0101610627,-0.0040997551,0.0733082592,0.0211489499,0.0097705359
0.729508996,-0.0077354577,0.0034858789,-0.0024550841,0.0838735551,0.0319731012,0.016067313
0.7394330502,-0.0060098735,0.0017479863,0.0003099157,0.0880544409,0.0426949896,0.0159940757
0.7494339943,-0.006222364,0.0019711461,0.0011877134,0.0763165578,0.0425951183,0.014940531
0.759436965,-0.0054153767,-0.0085291658,0.0088676531,0.0560598932,0.0413309149,0.0107144937
0.7694669962,-0.0007676447,-0.0073424373,0.0182731468,0.0272929594,0.0346956477,0.0107776094
0.7794530392,0.0001163219,-0.0141337309,0.0195068438,-0.0014681146,0.0280444063,0.0087149916
0.7894660234,0.0029834544,-0.0131628308,0.0165942628,-0.012091198,0.0226001069,0.0066329325
0.7994129658,-3.05439e-05,-0.0054414067,0.0154170105,-0.0237172283,0.0086137168,0.0067328005
0.809401989,0.0010528599,-0.0113515053,0.0152516086,-0.0257713236,2.02287e-05,0.0036027879
0.8193949461,0.0040307078,-0.0035905037,0.0101222117,-0.0203822833,-0.0063495198,0.0036396727
0.829390049,-0.0017577971,0.0002204981,0.0079047391,-0.0096713156,-0.011592485,0.005790974
0.8403530121,-0.001715895,0.010000309,0.0077810599,0.0095449882,-0.0124971606,0.0079095196
0.8495249748,-0.0037019814,0.0197257604,0.0066866591,0.0191446189,-0.0124047492,0.0100269988
0.8593759537,-0.0085493587,0.0187272038,0.0047375276,0.0329943895,-0.0101381335,0.0121255694
0.8693740368,-0.0075880256,0.0178119149,0.0010736897,0.045753859,-0.003635759,0.0110121015
0.8793179989,-0.0124300085,0.013932487,-0.0044763968,0.0552700013,0.0102715343,0.0045439489
0.8893699646,-0.0094236098,0.0004531947,-0.0038929866,0.0669285208,0.0220821202,0.0002096542
0.8993510008,-0.0094751678,-0.0022861157,0.0005504801,0.0519698113,0.0261887163,-0.0061816657
0.909381032,-0.0075123874,-0.0079744849,0.0068438961,0.0337663069,0.0314282216,-0.001953365
0.919350028,-0.0017785097,-0.0039702449,0.0100223729,0.0209718142,0.0302452445,-0.0040629879
0.9293479919,-0.0048128334,0.0048076119,0.0119548757,0.0039286483,0.0258382447,-0.0040225079
0.9393359423,0.0020169055,0.0028974023,0.0138776023,-0.0119994516,0.0150415227,-0.0018147477
0.9493379593,0.0020803248,-0.00108991,0.0107522923,-0.0215338357,0.005366791,0.0003794308
0.9593290091,0.0002040004,0.0017888155,0.0124623487,-0.0310720783,-0.0022064403,-0.0016897123
0.9694809914,0.0003825461,-0.0021590386,0.0102685411,-0.0342673436,-0.0022493172,-0.0038119853
0.979321003,-0.0052170721,-0.0042367969,0.0011511757,-0.029987907,-0.0022423929,-0.0070027183
0.9893549681,-0.0049628583,-0.0062190685,-0.004899709,-0.0150816627,0.0052908906,-0.0144987181
0.9993129969,-0.0057944921,0.0006256905,-0.0070207403,-0.0054857591,0.0085292943,-0.0198399536
1.0093179941,-0.0036114121,-0.0041794572,-0.0031473325,0.0062571829,0.0096616708,-0.0230426714
1.0193200111,-0.0015501047,0.0017528143,-0.0060187862,0.024358023,0.0151496455,-0.0220260099
1.0292949677,-0.0005116726,0.0058014002,-0.0028397725,0.0360556915,0.0184919126,-0.0167438965
1.039288044,-0.0014305974,0.0010632481,0.0033117845,0.0338331498,0.0260238666,-0.0093564205
1.0493110418,-0.0004731978,0.0021351185,0.0016581132,0.0316775888,0.0260616839,-0.0029808127
1.0593700409,-0.0014608169,0.0041847434,-0.0028413818,0.0294824764,0.0314322151,0.0022987709
1.0692989826,-0.0054330793,0.0013217535,-0.0005370067,0.0134454537,0.0324223787,0.0076155062
1.0792620182,0.0003364121,-0.0034357104,0.0017863824,0.0166686773,0.0313475244,0.0044348929
1.0893050432,-0.0007668699,0.0024971571,0.0078515122,0.0071657202,0.0194991212,0.0023935798
1.099257946,0.0031927859,-0.0091445241,0.0099950749,-0.0065895068,0.0075724209,-0.0049562124
1.1092660427,0.0042442712,-0.0101170335,0.0099176485,-0.0193140917,-0.00111268,-0.0091405706
1.1192450523,0.0034230684,-0.0092206392,0.0047179773,-0.0384884514,-0.0045007532,-0.0133562218
1.1292350292,0.000673387,-0.0112903509,0.0052321269,-0.0576735958,-0.0068139751,-0.0165149979
1.1392550468,-0.0001134242,-0.0114527736,0.0007475927,-0.0662200749,-0.0058142245,-0.0165140647
1.1492220163,-0.0008286203,-0.0086894426,-0.0105527919,-0.0544787385,-0.0057234108,-0.0165228527
1.1592210531,-0.0036525989,-0.0009775553,-0.009080736,-0.0449126586,-0.0013614192,-0.015497271
1.1692169905,-0.0007222856,0.0097051468,-0.0046182559,-0.0299424976,-0.006544197,-0.0101621598
1.1792320013,0.0003303026,0.0126385894,-0.0018760846,-0.0075406544,-0.0052885166,-0.008058928
1.1892249584,0.0013805663,0.0136271324,-0.0038688467,-0.0011274964,-0.0063077081,-0.0080567971
1.1992009878,-0.0004056657,-0.0020116363,-0.0058026598,-0.0129559264,0.0011486099,-0.0006614658
1.2091909647,0.0025421714,-0.0059199724,0.0009196713,-0.0289825648,0.0021116089,0.0014682643
1.2191970348,0.0024837588,-0.0030172858,0.0084842164,-0.0364765674,0.004202723,0.0025211452
1.2292180061,0.0044449004,-0.0030742679,0.0073463633,-0.0407128558,0.0009454109,0.0004204435
1.2391949892,0.0025755202,-0.0070727263,0.0041810586,-0.0364207737,-0.0001241147,-0.0027595039
1.2492469549,-0.0013013745,-0.0052618776,-0.0010021613,-0.0321794227,0.0041657053,-0.0049150665
1.2591660023,-0.0052022305,-0.0014793072,-0.0032682703,-0.0289828312,0.0062954356,-0.0091825156
1.2691709995,-0.0081134103,-0.0006015095,-0.0073653148,-0.0183703993,0.0138590783,-0.0092389751
1.2791589499,-0.0080555938,0.0052937474,-0.0102643659,0.0062149717,0.011865437,-0.0145547781
1.2891989946,-0.0079176091,0.0025106873,-0.0051641152,0.0222501308,0.011925891,-0.0220031068
1.2991379499,-0.0047572223,-0.0022094641,-0.008717088,0.0457318872,0.0131562706,-0.0241513439
1.3092139959,-0.0046297279,-0.0010084305,-0.0081999591,0.0638530999,0.0154521829,-0.022054106
1.3191460371,-0.0054443446,-0.0036867652,-0.0085699242,0.0552866422,0.0154577745,-0.0135486349
1.3292219639,-0.0043474701,-0.0093217883,-0.0022014664,0.0350202546,0.0131725157,-0.012457272
1.3391400576,-0.0023529197,-0.005219439,0.0039948537,0.0232970193,0.0098962951,-0.0103043728
1.3491359949,-0.0003065432,-0.0041367803,0.0022729947,0.007258398,0.0098448955,-0.0017937085
1.3588769436,-0.0022121037,-0.010960618,0.003298433,-0.0172670521,0.0033158907,0.006764492
1.3689190149,-0.00126588,-0.0119950566,0.0041065528,-0.0289870892,-0.0010136103,0.0110503174
1.3789279461,0.0016117727,-0.0130173955,0.004942806,-0.0214908253,-0.0031113825,0.0089339036
1.3891279697,0.0044557485,-0.0033030305,0.0018574311,-0.0193175524,-0.0073785651,0.0078975344
1.3991479874,0.0034942662,-0.0043272171,0.0017471625,-0.0171531998,-0.0095298663,0.0047243782
1.4090960026,0.0064667794,-0.0062646661,0.005536051,-0.0203308836,-0.0117101967,0.0026159533
1.4190859795,0.0036205088,-0.0092855487,0.0023744418,-0.0203737617,-0.0074155834,0.0047121281
1.4290809631,0.0036158597,-0.0073874388,-0.00066766,-0.0076124268,-0.0019638261,0.0057302536
1.4390950203,0.0035940742,-0.0054227505,0.0022268011,-0.0033616228,0.0002090468,0.0057120109
1.4490710497,0.0025890802,-0.0034932885,-0.0006687925,0.0061940658,0.0056450916,0.0077948691
1.4590599537,-0.0014019574,0.0033192839,-0.0025767372,0.0136514492,0.0067870552,0.0099083539
1.4691159725,0.0004394983,-0.0014938507,0.0015752628,0.0189601947,0.0110851303,0.0077519929
1.4791309834,0.0002747809,0.0053931084,0.0027770116,0.0243014321,0.0111157568,0.0066864621
1.4890739918,-0.002777722,0.0044357982,0.0068499162,0.0115139969,0.0067779999,0.0109730856
1.498980999,0.000996772,0.0044976678,0.0099606831,0.0093857311,0.006744178,0.0088496143
1.5090440512,-0.0010189975,0.0054425206,0.0080682952,-0.0044589778,0.00446318,0.0046245097
1.519037962,-4.138e-07,-0.0053297672,0.0080308029,-0.0204460677,0.0021851123,0.0025250067
1.5290240049,-0.001910087,-0.0112752113,0.0068642213,-0.0321647748,0.0009893531,-0.0017086206
1.539034009,-0.0028360451,-0.0104146395,0.0055246665,-0.0502847917,-0.0002641969,-0.0070001883
1.5490180254,-0.0027645791,-0.0066522155,0.0020978763,-0.0534342453,-0.0067013237,-0.0069562467
1.5590850115,-0.0027489925,0.0019872393,-0.0003596828,-0.0417392366,-0.0023068413,-0.0038065258
1.5690289736,-0.0017911161,0.0126379337,-0.0007502721,-0.0257248506,-0.0021920591,-0.0048808451
1.5790120363,-0.0007472301,0.0096147265,-0.0048797415,-0.0214850977,1.14403e-05,-0.0006469516
1.5890519619,0.0002728735,0.0017619934,-0.0059566186,-0.0034112902,0.0076600388,0.0024780016
1.5990329981,0.0021506881,0.005704483,-0.0039115832,0.0168436468,0.0110214809,0.0024428479
1.6090090275,0.0011723673,0.0009184685,0.0021765544,0.02001068,0.0153211551,0.0024127546
1.6189860106,0.0022122597,-0.0097246561,-0.0003703521,0.0402389839,0.0218893085,0.0023565616
1.6289869547,0.003063861,0.0031323042,-0.0027897046,0.0604718179,0.0294910353,-0.0019564279
1.6389789581,0.0010928547,-0.0054535065,0.0008337214,0.0636407137,0.0337848477,-0.0030504542
1.6489830017,0.0010613834,-0.0120537076,0.0025668456,0.0742459595,0.0434587821,-0.0063077668
1.658970952,-0.0048708287,-0.0060054455,-0.0034509585,0.0880672336,0.0531212613,-0.0138168158
1.6689670086,-0.0058498946,-0.0076364074,-0.0063244984,0.0954511091,0.0638663247,-0.0138916504
1.6789629459,-0.006884661,-0.0092575345,-0.0062186406,0.0986250639,0.0691947713,-0.018176144
1.6890360117,-0.0049536196,-0.0079309139,-0.0100069335,0.1039881408,0.0681220517,-0.0234848894
1.6990779638,-0.0019635225,-0.0142991934,-0.0019680546,0.1029601544,0.0659198835,-0.0298431851
1.7089450359,0.0048745009,-0.014781991,0.0060355975,0.1073106974,0.0552837476,-0.0276524704
1.7189580202,0.0068324241,-0.0055534635,0.011961611,0.1084673032,0.0435551889,-0.0254529659
1.7289509773,0.0118475594,-0.0100037847,0.010152014,0.104220897,0.0382328592,-0.0190411378
1.7389329672,0.0148286261,-0.0125705991,0.0101720411,0.0882188976,0.0307650939,-0.0030463266
1.7489279509,0.0167479552,-0.0142458472,0.0119706709,0.0679564998,0.024286421,0.0076337485
1.7589399815,0.0213419832,-0.0052118097,0.0223183353,0.0423836298,0.0114214867,0.0257937107
1.768906951,0.0132294931,-0.0072144661,0.0274238903,0.001765362,0.0123032592,0.0406898372
1.7789030075,0.0021762287,-0.0114488993,0.0145390341,-0.0367688462,0.0185630191,0.0576745421
1.7889239788,-0.0023314322,-0.0108670983,0.0102216918,-0.0592382029,0.0216682646,0.0661692321
1.7989660501,-0.0049728123,-0.0113121066,0.0116179297,-0.0624537095,0.0216786526,0.070421502
1.8089109659,-0.0038041736,-0.0028964076,0.014050574,-0.0474646315,0.0174921621,0.0672510117
1.8188790083,-0.0064236191,0.0016374197,0.0117836315,-0.0185979642,0.0155017162,0.0587463342
1.8289010525,-0.0108752511,0.0053003039,0.0078028156,0.0017134305,0.0176692642,0.0438446179
1.8388999701,-0.0132138096,0.0002434459,0.0020140125,0.0155750513,0.025133837,0.0289116055
1.8488810062,-0.016350653,-0.0027828012,-0.0056391642,0.0294751544,0.0272699576,0.0161393508
1.8586300611,-0.0155078135,-0.0036881957,-0.0072306083,0.0337291546,0.0325728431,0.0076035215
1.8689039946,-0.0146959089,0.0022878256,-0.0020333813,0.0198599435,0.0324474089,0.0054892376
1.8788659573,-0.0108871721,0.0043236222,-0.0008147643,0.0145247001,0.0313557833,0.0076246941
1.8889429569,-0.0042009917,0.0063405242,0.0003307774,0.0081592128,0.0249301046,0.011920373
1.8985600471,0.001456145,0.007369956,0.0091929752,-0.0045885406,0.0152593693,0.0173031539
1.90891397,0.0042381915,0.0082720723,0.0100590307,-0.0194774754,0.0076808119,0.0194874778
1.9188439846,0.0041740569,0.001304647,0.0078852493,-0.0311654247,0.0001315488,0.022734005
1.9288370609,0.0030688082,0.0060212817,0.0065455153,-0.0492882356,-0.0032059248,0.0238306951
1.9387860298,0.0020376479,-8.31875e-05,0.0011958792,-0.0663742721,-0.00331831,0.0259673484
1.9488500357,0.0028910374,-0.0013186131,-0.0023057149,-0.0653209984,-0.0011816559,0.0248903669
1.9588140249,0.0036604439,0.0062543359,-0.002877085,-0.0557221621,0.0010061308,0.0227475874
1.9688839912,0.0073978337,0.0021641459,-0.0022877739,-0.0407892875,0.0032410559,0.0205978844
1.9788440466,0.0071743461,0.010775229,-0.0084417146,-0.0141375707,0.0098078782,0.0141611565
1.9888219833,0.0031042432,0.0126427617,-0.0104242843,0.0135459881,0.019613903,0.0108910613
1.998955965,0.0001007651,0.0068043675,-0.012099294,0.0337572508,0.03145485,0.0023007682
2.00912714,-0.0029492641,0.0088498201,-0.0116769364,0.0422450118,0.0410669968,-0.0062666209
2.0190629959,-0.0029344524,-0.0036486778,-0.0081378501,0.0443357266,0.047472164,-0.0094985003
2.0288109779,-0.0039319065,-0.0024951492,-0.0104575437,0.0507310405,0.0506826043,-0.0148357404
2.0387990475,-0.0040058759,-0.0013153944,-0.0098396828,0.0507327728,0.0506791435,-0.0148340091
2.0487990379,-0.0030544365,-0.0050074849,-0.0053437636,0.0401046276,0.0442023389,-0.0126598049
2.0590219498,0.0017045771,-0.0038208757,0.0039295866,0.0273727216,0.0334444977,-0.0093946364
2.0687570572,-0.0003257955,-0.0008520875,-0.0007133172,0.00817932,0.0280156452,-0.0019092897
2.0788359642,0.0015602147,-0.0047449265,0.0003677323,-0.0152185485,0.0150612295,0.0034997233
2.088766098,0.0063812169,-0.0057658944,-0.0007004426,-0.0257604066,-0.0031444055,0.008937099
2.0990018845,0.00537065,-0.0087965522,3.81782e-05,-0.0310037695,-0.0159781799,0.0132755227
2.1087441444,0.0052686962,-0.0030886922,-0.0042153881,-0.0363103822,-0.0234190524,0.0228890013
2.1187500954,0.0041741165,-0.0003512296,-0.0065282867,-0.0352042392,-0.0297866687,0.0271789543
2.1287460327,0.004924241,0.0043785777,-0.0039751218,-0.0341751948,-0.0275866315,0.0335383154
2.1388809681,-0.0020757283,0.0031113829,-0.0121975234,-0.0256982222,-0.0210829247,0.0366783179
2.1487340927,-0.0032860602,0.0049066152,-0.012408047,-0.0097123301,-0.0146191679,0.0281261075
2.1587290764,-0.0044363108,0.0028602686,-0.0124767702,-0.0033706771,-0.0060392618,0.0259419158
2.1687660217,-0.0046164659,-0.0001311097,-0.0124494722,0.0019588415,-0.0017955146,0.0174115431
2.17877388,-0.0027367438,-0.0098730121,-0.0083871773,0.0137228221,-0.0007179994,0.0078350827
2.1887111664,-0.0018430913,-0.0088224206,-0.0042918012,0.020172732,-0.0049705352,0.0046709818
2.1987559795,0.0010211503,-0.0028636847,-0.0031011389,0.0234481543,-0.0124566806,0.0015313812
2.2087168694,0.0047957036,0.0109178629,0.0028739884,0.016027255,-0.0178762134,-0.000553075
2.2187628746,0.0029240882,0.003145596,0.0087855775,-0.0095699839,-0.0233577974,0.0058718007
2.2286829948,0.0049508247,-0.0037162695,0.0105980355,-0.0255492162,-0.0277474858,0.006973817
2.2386989594,0.0049526724,-0.0009075198,0.0054413392,-0.0309411846,-0.023461394,0.0133250579
2.2501511574,0.0030124222,-0.0059430394,0.0041207387,-0.0469590314,-0.0235671215,0.0154617112
2.2598350048,0.0030000841,-0.0090369973,0.0027335598,-0.0416578799,-0.019249605,0.0154293543
2.2693219185,4.8315e-06,-0.004320601,-0.00250545,-0.0256682597,-0.0148870815,0.0111403326
2.2792921066,-0.0068961349,0.0033291783,-0.0067017958,-0.0171801001,-0.0084121386,0.0110941269
2.2892150879,-0.0040987995,0.0042869654,-0.0028666542,0.006279686,-0.0050333859,0.0099934414
2.2988071442,-0.0051807133,0.0120939817,-0.0047517703,0.0255370047,-0.007092542,0.001493165
2.3088550568,-0.0060965386,0.0082803573,-0.0006533549,0.0223888829,-0.0103959274,-0.0069823451
2.3206620216,-0.0009706283,-0.0111004505,0.0015901043,0.0192115977,-0.0115322974,-0.0122858975
2.3287849426,-0.0008680189,-0.006114224,0.0017265989,0.0223820917,-0.0072416789,-0.0133783258
2.338737011,-0.0026751722,-0.0070119891,0.0028154566,0.009552978,-0.005195572,-0.0123195862
2.3485121727,-0.0025075043,-0.011822978,0.0048281266,-0.0032557612,-0.0052946419,-0.0123099992
2.3589100838,-0.0004438723,-0.0078759585,0.001878412,0.0031416835,-0.0073186439,-0.0048648659
2.3688130379,0.002426449,0.0058726277,0.0048487498,0.0148902191,-0.0093381191,-0.0016728012
2.3785271645,0.0024255251,0.0069174971,0.0078855474,0.0191801712,-0.0135397883,0.003665905
2.388448,0.0014662181,0.007916471,0.0050894334,0.0245403163,-0.0187878143,0.01007054
2.398460865,0.0033334529,0.0118906107,0.0081637222,0.0170697495,-0.0219865367,0.0175323188
2.4084210396,0.0013190543,0.0079788174,0.0101901609,0.0085218027,-0.0209838562,0.0175317861
2.4184231758,-0.0005899037,-0.001852015,0.0062761619,-0.0021590721,-0.020003546,0.016468918
2.4284360409,-0.0006266201,-0.0018963609,0.0071472838,-0.0117520439,-0.0180218872,0.0069012465
2.4384188652,-0.0005573595,-0.0058229361,0.0108723361,-0.0191730782,-0.0203026198,-0.0026383302
2.44851017,0.0005753969,-0.0088037644,0.0106066782,-0.0190646872,-0.0289520342,-0.0142686199
2.4584150314,-0.0011042322,-0.0068668518,0.0103251059,-0.0114893233,-0.0364850499,-0.0269732308
2.4684138298,-0.0006738866,-0.0077968035,0.0043001487,0.0045825867,-0.039657943,-0.0375877917
2.4786748886,-0.0031851495,0.0001329389,0.0032351329,0.0205785967,-0.0353124626,-0.0440020151
2.4887440205,-0.0008307362,0.013029417,0.0013327911,0.0312613361,-0.0362986289,-0.0440030806
2.4983799458,0.0035457944,0.0152753796,0.0054584458,0.0354769863,-0.0298508499,-0.0440490209
2.5083889961,0.00402132,0.0145217981,0.0056466176,0.0257881396,-0.0223897379,-0.0377162918
2.5184168816,0.002514336,0.0068581905,0.003831835,0.0171435196,-0.0117227137,-0.0324677341
2.5283839703,0.0008402502,0.009883007,0.0019195988,0.0085063558,-0.0031665098,-0.024018053
2.5383710861,0.0030106937,0.0070862975,0.0058925464,0.0063344142,0.00109801,-0.0229803547
2.5483708382,0.0022289192,0.0062220301,0.0108469445,0.0106058577,8.0416e-05,-0.0208519548
2.5584089756,0.0034172868,0.0063457098,0.0129024703,0.0127530321,0.001110527,-0.0272340868
2.5683419704,0.0056172642,0.0044940319,0.0100652296,0.0063505261,1.0375e-05,-0.0250976998
2.5785241127,0.0038992201,0.0006400552,0.0090813944,-0.0022035474,0.0031212133,-0.0282980204
2.5885238647,0.0001944636,-0.0012995396,0.0080479104,-0.0065466296,0.0095548779,-0.0219623595
2.5985240936,0.0022101735,0.003617188,0.0108948071,-0.0097886296,0.0127717108,-0.017730996
2.6085338593,-0.0015930797,0.0016353931,0.0088609774,-0.0130344899,0.0159983952,-0.0124376975
2.6185569763,-0.0015342201,-0.0022958908,0.0087776491,-0.0130748367,0.0192389321,-0.0092750611
2.6284899712,0.0004364287,-0.0032855663,0.0068002655,0.0018758839,0.0172442235,-0.006085393
2.6385178566,-0.0016087557,0.004518291,0.0049085333,0.0188884232,0.0238232967,-0.0018895823
2.6484789848,-0.0017440284,0.0124033894,0.0051412894,0.0338460654,0.0218104795,-0.0008245842
2.6585469246,-0.0057597426,0.018349966,0.0064674928,0.047742039,0.0187289361,0.0013108714
2.6684589386,-0.0077487794,0.0155302491,0.0039999201,0.0455457345,0.0261935089,0.0012639998
2.6784980297,-0.0068038073,0.0078257527,0.0024594381,0.0251854658,0.0367034078,-0.0009135338
2.6884820461,-0.0058158603,-0.0058016572,-0.0001609609,0.0058967238,0.0461642891,-0.0020238056
2.6985268593,-0.0030143822,-0.0087256823,0.0009435727,-0.0090800952,0.0492729992,9.12768e-05
2.7085239887,-0.0002695287,-0.0116281305,0.0097894985,-0.0186813232,0.0481390208,0.0011677267
2.7186641693,0.0014865135,-0.0019148383,0.0096854288,-0.0207410138,0.0406057388,-0.0030318121
2.7282979488,0.0024080907,-1.05295e-05,0.0086242864,-0.016381951,0.0309930574,-0.0061596949
2.7382769585,0.006244007,0.0048688855,0.0114827473,-0.0120362034,0.0224602912,-0.0082332324
2.7482881546,0.0043509337,0.0009365287,0.0085084746,-0.00668325,0.0193225536,-0.0050294492
2.7582600117,0.0043378803,0.0058052745,0.0046161129,0.0050536999,0.0204711761,-0.0061065648
2.7683291435,0.0053307447,0.0048871841,0.001865597,0.0103504611,0.0237548538,-0.0018819924
2.7782490253,0.0024176573,2.76771e-05,0.0020455434,0.00818065,0.0280129816,-0.0019079582
2.7883028984,0.0062786969,-0.0047951136,0.0012713387,0.0081473608,0.0312372688,0.0001959391
2.7983469963,0.0052698287,-0.0116159711,-0.0004609511,0.0165875852,0.0441107228,-0.0020186126
2.8082709312,0.0031611954,-0.0115523133,0.0008147075,0.0250705518,0.0505981855,-0.0010042145
2.8182148933,0.0059282812,-0.0153728519,0.0021784022,0.022845082,0.0602319054,0.003186669
2.828289032,0.0037976836,-0.0201905761,0.0026038601,0.0356413051,0.0635009333,-0.0010930308
2.8382158279,0.0006836092,-0.0191606078,0.0001137569,0.0303257667,0.0613123439,-0.0021371234
2.8482079506,0.0034315025,-0.0248859916,0.005450876,0.0196749866,0.0559404865,0.0042794971
2.8582060337,0.0148631372,-0.023769537,0.0097720334,0.0165533628,0.0421088263,0.0139303934
2.8682320118,0.0164286532,-0.0178804193,0.0168457348,0.0091577638,0.028257193,0.0257116854
2.8782029152,0.0189815499,-0.0149956141,0.0218056757,-0.0099674594,0.0132401604,0.0375116169
2.8881709576,0.0234094895,-0.0151236448,0.0285331924,-0.0280194301,-0.0028314842,0.0493147485
2.89823699,0.0170744397,-0.0154327545,0.0291374046,-0.0482954085,-0.0092766006,0.0631786361
2.9081821442,0.0136158504,-0.0197508726,0.0266617257,-0.0654504299,-0.0050251298,0.075911738
2.9182329178,0.0090668239,-0.0173605476,0.0142779062,-0.0676977336,0.0067566941,0.0811503083
2.9283161163,0.0005006527,-0.0052125249,0.0010077073,-0.0464536995,0.0207880903,0.0778573081
2.9382138252,-0.0070409444,-0.0075655375,-0.0012491629,-0.0262610763,0.0347707495,0.0703179017
2.9480781555,-0.0155658983,0.0008672085,-0.0130465915,0.0067695752,0.0466830693,0.0585312843
2.9582109451,-0.0201370679,0.0065905061,-0.0176320951,0.0397971645,0.0596484058,0.044611875
2.9684448242,-0.0187568031,0.0027468409,-0.0130660217,0.069673039,0.066183269,0.0317999385
2.9783811569,-0.0153396092,0.0058679786,-0.0131321233,0.0953044966,0.0673896819,0.0243360288
2.9884748459,-0.0108787678,0.0061496105,-0.0081551354,0.0974635184,0.0673428103,0.0168980863
2.9981651306,-0.0073051718,0.0005850997,-0.0041473196,0.093211785,0.0662186891,0.0147856679
3.008259058,-0.0076166359,0.0018000212,-0.0031971619,0.0762037709,0.0575367846,0.0148538444
3.0181541443,-0.0040277806,0.0039932933,0.0043602898,0.0421015993,0.0508546494,0.0138568906
3.0281419754,-0.0012968744,-0.0037227664,0.0067813708,0.0144305564,0.0378786623,0.0213970989
3.0381498337,0.001350764,-0.0017983112,0.0049668266,-0.0185929071,0.0280393455,0.0257340558
3.048140049,0.0029906367,-0.0009723696,0.0067341044,-0.0430985168,0.0183214713,0.0364381
3.0581731796,0.0006743704,0.00267311,0.0043898537,-0.049450554,0.00976873,0.0418092944
3.0680999756,-0.0036836828,0.0169747081,-0.0019826577,-0.0462113507,0.0044679744,0.043966189
3.0781168938,-0.0040684906,0.0186707582,-0.0033496902,-0.0386768691,-0.00191296,0.0408147387
3.0881750584,-0.0053119031,0.0164937582,-0.0075072334,-0.015168082,-0.0028453327,0.0354924127
3.0981240273,-0.0036294425,0.0183522906,-0.0094744842,0.0115235839,-0.0005630036,0.0290881731
3.1081109047,-0.0018394256,0.0135028567,-0.0082823914,0.026462853,0.0058381706,0.0141627546
3.1183099747,-0.0019434656,0.0116100516,-0.0108636301,0.0424298346,0.0123503981,0.0109206215
3.1282429695,-0.0088429116,0.0136264171,-0.0163263958,0.0509226546,0.0229950529,-0.0019030315
3.1382529736,-0.0099025927,0.0206252541,-0.0158444922,0.0465992801,0.0314681642,-0.0072677033
3.1482348442,-0.0031003619,0.0140420403,-0.00458899,0.027424518,0.0291277803,-0.0136134839
3.158290863,0.0008781885,0.0103122797,-0.000327854,0.0232080705,0.0247732457,-0.0188935995
3.168243885,0.0029073691,0.0114336815,0.003756912,-0.0001622336,0.0117487907,-0.0209176019
3.1782441139,0.004051182,0.0046406593,0.0076189353,-0.02463229,0.0008916152,-0.0187062472
3.1882381439,0.0041506025,0.0103939977,0.0062429621,-0.0576842539,-0.0067820172,-0.0111966645
3.1982989311,0.0052534076,0.0082485285,0.0065455749,-0.0885755867,-0.0155526055,-0.0089936974
3.2082071304,0.0024408435,0.0089126434,0.0046493127,-0.1024373397,-0.019880509,-0.0025816048
3.2182819843,0.002536807,0.0095497575,0.0026394441,-0.1227253005,-0.0189713053,-0.0025720175
3.2281770706,-0.0003062452,0.0081123319,-0.0043903873,-0.1248949692,-0.01680509,0.0027274066
3.2382059097,-0.000334468,0.0115975942,-0.0084772399,-0.113213554,-0.011330164,0.0069312067
3.2482581139,-0.0002907778,0.0113013592,-0.0141636413,-0.0566211157,-0.0088547561,-0.0048106704
3.2582011223,-0.0022101963,0.0219472852,-0.0155040901,-0.0053462097,-0.0085618077,-0.0165328402
3.2681870461,4.37235e-05,0.0064417925,-0.01433584,0.0319771916,-0.0019057693,-0.0219140239
3.278234005,0.0002311801,0.0096023288,-0.0148787778,0.0661155879,0.0046804943,-0.0326046199
3.2881920338,-0.0063288477,0.0137936082,-0.0132750552,0.0810042545,0.0143512301,-0.0401144661
3.2982530594,-0.0088926218,0.0043643322,-0.011564998,0.0691924691,0.0217636079,-0.0380314738
3.3081660271,-0.0056515005,-0.004068831,-0.0117861908,0.0638027638,0.0281346869,-0.0380690247
3.318210125,-0.0045128432,0.0011190381,-0.0092309397,0.0466751792,0.0312694944,-0.0306393392
3.3281750679,0.0024613475,-0.0053958688,0.0049311235,0.0168235414,0.0246712454,-0.0252637472
3.3382129669,0.0054669115,-0.006245533,0.013821872,-0.0151078943,0.0105927121,-0.0177130196
3.3481469154,0.0074707004,0.0006027427,0.0165691096,-0.0299177337,-0.0066043846,-0.0154663781
3.3582139015,0.004693422,0.0024852362,0.0172060449,-0.0383490324,-0.0195020735,-0.0164402947
3.3681390285,0.0010818874,-0.002514163,0.0128859589,-0.0403978005,-0.0291552339,-0.0185010489
3.3782029152,-0.0005419517,-0.0006690416,0.0017465665,-0.0243690368,-0.0301224925,-0.0206286497
3.3881390095,-0.005100396,0.0002695528,-0.0043672607,-0.0126734991,-0.0236374289,-0.022803653
3.3981370926,-0.0047426489,-0.0035673175,-0.0092316559,0.0214603692,-0.0191316288,-0.0271077212
3.4081249237,-0.0055038896,0.0093164053,-0.0099858921,0.049143929,-0.009325603,-0.0303778164
3.4180541039,-0.0071553555,0.0105567183,-0.0095186522,0.0672302544,-0.0006636712,-0.0336332619
3.4280769825,-0.0068499413,0.0069734063,-0.0098208468,0.0842382684,0.0080182347,-0.0337014385
3.4381380081,-0.0066034165,0.0083006229,-0.008114188,0.0798829347,0.0176213253,-0.0316356272
3.4481010437,-0.0024458731,-0.0030271206,0.0014487817,0.0606469214,0.0206698459,-0.0327043533
3.4581618309,0.0055294069,-0.0065646563,0.0108591635,0.0478156768,0.0206285678,-0.0263224859
3.468091011,0.0066896114,-0.0082930122,0.0132509191,0.0296806153,0.0183688756,-0.0241703857
3.4781529903,0.0068919393,-0.013021091,0.0144682247,0.0051939157,0.0086025316,-0.0187764205
3.4880990982,0.0070488784,-0.0159001146,0.0154681513,-0.0097160581,0.0031704819,-0.0155436089
3.4981441498,0.0041996273,-0.0061654244,0.0142828543,-0.0203147717,-0.0075655193,-0.0112158395
3.5080699921,0.002378497,-0.0013481174,0.0110899527,-0.0277109034,-0.0172327943,-0.0100855939
3.5180869102,0.0025095677,-0.0014180932,0.0117371995,-0.0351425856,-0.0226243623,-0.0089834444
3.5280609131,0.0007475053,0.0004218426,0.0083852727,-0.0351250097,-0.0247618183,-0.0089695957
3.5381240845,-0.00204983,0.0051793065,0.0050102188,-0.0351284742,-0.0247527622,-0.0079072611
3.5480508804,-0.0018739665,0.0031289663,0.0007412746,-0.0266122166,-0.0214895904,-0.0089967605
3.5581240654,-0.0007234181,-0.0017711911,0.0025003268,-0.0074373251,-0.0160130654,-0.0111716306
3.568046093,-0.0034770335,0.0011651125,-0.0014556334,0.010656991,-0.0063266167,-0.0197462104
3.5780990124,-0.0091165267,0.00315555,-0.007238178,0.0276643373,0.0034035086,-0.0219447836
3.5880379677,-0.0070141521,0.0013956036,-0.0039966987,0.0393036827,0.0163099878,-0.0230989978
3.5980911255,-0.0020172561,0.0084981527,-0.0015809224,0.051007878,0.0227713473,-0.0284627378
3.6080019474,9.48345e-05,0.0058387723,0.0028554513,0.0467436239,0.0216786526,-0.0273902826
3.6180839539,0.0003642176,-0.0056447778,0.0053099706,0.0403694808,0.0184152145,-0.0273608547
3.6280231476,0.0014898216,-0.0024869237,0.0067050769,0.0393108726,0.0173382331,-0.0273531321
3.6380729675,0.0055710706,-0.0081183109,0.0100476462,0.028637588,0.0141158076,-0.0198894888
3.648006916,0.0066642198,-0.006030241,0.0083412835,0.0190347638,0.0119402716,-0.0156191094
3.65802598,0.0086686052,-5.96437e-05,0.0094766328,0.006219632,0.0108113578,-0.0113545898
3.6679978371,0.0068486365,-0.0029616747,0.0085222442,-0.0054548671,0.0021797859,-0.0102280732
3.6780338287,0.0078640617,-3.03182e-05,0.0093815038,-0.0182729289,0.0031526389,-0.0091601452
3.6879601479,0.0050352248,-0.0001274142,0.0062147095,-0.0267979726,0.000958194,-0.0080775702
3.6980350018,0.0031930243,-0.0041000638,0.0069492175,-0.0289463438,0.0030668851,-0.0102174208
3.7079670429,0.0022937094,-0.0012583528,0.0047210171,-0.0246610492,0.0020130721,-0.0123383617
3.7180290222,0.0004420017,-0.0003378186,0.0035220697,-0.0214816369,0.0041878093,-0.0112940036
3.7279570103,0.0024811958,-0.0022867713,0.0014871075,-0.0044139717,0.0064392453,-0.0134453047
3.7380239964,-0.0003698136,0.0016238894,-0.0024002478,0.012604028,0.0140500274,-0.0135053592
3.7479481697,0.0006192361,0.0046553221,0.0007271483,0.0168086272,0.0215731915,-0.0124946898
3.7580208778,0.0025686657,0.0008883682,0.008789869,0.0178778861,0.0205308292,-0.0103638936
3.7679548264,0.0045393738,-0.0019166265,0.0119925458,0.0221474655,0.020563852,-0.0103670899
3.7780008316,0.0025982594,-0.0008976254,0.0083014676,0.0167395175,0.0290758498,-0.0093533574
3.7879328728,-0.0012707079,-0.0086896811,0.0075166537,0.0028090551,0.0343393199,-0.0061905878
3.7979421616,-0.0013335908,-0.0086790714,0.0066279485,-0.0078927251,0.0364211127,-0.0030093084
3.807929039,-0.0043351618,-0.0087559018,0.0007483675,-0.0164529234,0.0385015719,-0.0019544302
3.8179719448,-0.0054235128,-0.004910687,-0.0002943561,-0.0174746457,0.0320972055,-0.0008533465
3.8279080391,-0.0045962897,0.0009166208,0.0035350039,-0.0152908526,0.0278025903,-0.0050765872
3.837980032,-0.0017298127,0.0048613753,0.0064608171,0.0008312585,0.0161328856,-0.0092610791
3.8479070663,0.0032078659,0.0049293246,0.0084553082,-0.0043933308,0.0032487791,-0.0112986639
3.8579599857,0.0024075543,-0.0058097038,0.0093930084,-0.0107368473,-0.0042805104,-0.0112460665
3.8678760529,0.0034770404,0.0029707756,0.0053298785,-0.0085458644,-0.0106854131,-0.0122684538
3.8779368401,0.0045825276,0.0020158496,0.0090922434,-0.0213671196,-0.0107509261,-0.0080081951
3.887898922,0.001797322,-0.0009918008,0.0069023683,-0.0257016812,-0.003293809,-0.006991134
3.8978838921,-0.0020213688,0.0057515707,0.0007837131,-0.0171745066,-5.8867e-05,-0.0112671051
3.9078679085,5.09654e-05,0.0018509235,0.0026586368,-0.011906242,0.0095737865,-0.0145204226
3.9175970554,0.0002250706,-0.0030184779,-0.000282912,-0.004474557,0.0160101131,-0.0188180991
3.9277410507,-0.0006312693,-0.003948966,-0.0002545998,0.0007673427,0.0288489461,-0.0220921896
3.9376339912,0.0004707908,-0.0077507291,-8.19252e-05,0.0157196596,0.0278958008,-0.0220964495
3.947945118,-0.000449654,-0.000780085,-0.0007878826,0.0306093954,0.0365175195,-0.0274755023
3.9578671455,-0.0003365244,-0.0025777612,0.0014999225,0.0262968037,0.0418262668,-0.0275059957
3.9677410126,0.0026849245,-0.004331449,-0.0009508417,0.0412054434,0.0441245735,-0.0222193543
3.9778928757,0.0027274226,-0.0002406034,-0.0034036324,0.0423000082,0.0398802944,-0.019003056
3.9878330231,0.0018060242,-0.0068707261,0.0010305955,0.0433903039,0.0366914235,-0.0179207474
3.9978990555,0.0056450698,-0.00176231,0.0044714524,0.0422961451,0.0357068516,-0.0072906059
4.0078201294,0.0046229395,-0.0026097093,0.0029942109,0.0412394032,0.0335792527,-0.0051512886
4.017870903,0.0016236936,-0.0005493555,0.0023849919,0.0198982935,0.03130465,-0.0019348562
4.0278010368,0.0005968546,-0.0122304354,0.0065163686,-0.0014440129,0.0279876813,0.0044759051
4.037856102,0.0023696159,-0.0044374857,0.0065437271,-0.0035461802,0.0237013232,0.0045026699
4.0478792191,0.0012074744,0.0062625017,0.0064696386,-0.0173783712,0.0182503648,0.0045476775
4.0578179359,0.0031624173,-0.0084295664,0.0083963582,-0.0183694679,0.0096781822,0.0035440652
4.067595005,0.000155512,0.0002429691,0.0023533418,-0.0140841752,0.0086243693,0.0014231238
4.0778489113,-0.0037631656,0.0011255946,-0.0007117079,-0.0162321478,0.0128260385,-0.0049757864
4.087790966,-0.0036666358,-0.0047428999,-0.002692251,-0.0033885203,0.0107423812,-0.0102832001
4.0978069305,-0.001672175,0.0011648145,-0.0065075443,0.0179485921,0.0130249765,-0.0135036279
4.107612133,-0.0025296474,-0.0006544981,-0.0062406347,0.0307448152,0.0162940063,-0.017783327
4.1178321838,-0.0024053717,0.0004833546,-0.0078314235,0.0403202102,0.0216799825,-0.0210097469
4.1277580261,-0.0100896321,0.0015993323,-0.012281267,0.0530796796,0.0281823575,-0.0221232139
4.1378250122,-0.0070776609,0.0047990885,-0.0126733473,0.0562873259,0.0281919446,-0.024251746
4.1475749016,-0.0049500731,-0.001748899,-0.0091210892,0.0488381982,0.0270292088,-0.028488569
4.1577858925,-0.0027686621,-0.0073277149,-0.0066312836,0.0457390808,0.016278293,-0.0326649398
4.1677312851,-0.0064066914,-0.0022363458,-0.0110974004,0.0511040166,0.0141549567,-0.0358420908
4.1778011322,-0.0090161525,0.0009135809,-0.016528992,0.0458553284,0.0055172592,-0.0410937108
4.1876811981,-0.0134334825,-0.0046946798,-0.0190372746,0.0502071977,-0.0019851318,-0.0474224463
4.1977148056,-0.0148976408,-0.0005075726,-0.0273942631,0.0588197261,-0.0083855065,-0.0537614375
4.2077088356,-0.0104276501,0.0038238373,-0.0307247918,0.0739105269,-0.0232954808,-0.0611120239
4.2177419662,-0.0019980634,0.0043483581,-0.026161341,0.0793843865,-0.0403442383,-0.0599431656
4.2277011871,0.0083706714,0.0078527536,-0.0196094196,0.084798865,-0.0509630628,-0.0566909127
4.2376832962,0.0137702264,0.0171556678,-0.0112124961,0.0805685669,-0.0615584478,-0.0428117141
4.2476639748,0.0084287561,0.0194315519,-0.0088381451,0.0645320788,-0.0647526383,-0.0268439334
4.2576761246,0.0087801851,0.0206595864,-0.009489147,0.0452230945,-0.0594196618,-0.0098633524
4.2677602768,0.0070168409,0.0246519055,-0.0113543551,0.0119748563,-0.0477566123,0.0092072776
4.2776970863,0.0100294389,0.013943335,-0.0064474628,-0.0052414145,-0.0349777006,0.019762449
4.2876987457,0.0070100161,0.0158293452,-0.0065459893,0.0011033006,-0.0284976978,0.0218407791
4.2976489067,0.0098365583,0.0129099097,-0.0006686733,0.0043070833,-0.0263866112,0.0154489269
4.3077898026,0.0137307085,0.004228374,0.0092418501,0.0161198005,-0.02961969,0.0016505579
4.3176460266,0.0158276297,0.0004723278,0.0123989303,0.0460963398,-0.033806175,-0.015342541
4.32766819,0.0151531734,-0.0002794656,0.0098915417,0.0653403401,-0.031646885,-0.0302434601
4.3376278877,0.0106741823,-0.0009500775,0.0132631967,0.0621609278,-0.0296383295,-0.041938331
4.3478450775,0.0072373482,-0.0074865613,0.0166148264,0.0481862575,-0.0169390477,-0.0441357046
4.3576159477,-0.0001435841,-0.0063454304,0.0100183208,0.0299768932,-0.0106388079,-0.0409771949
4.367647171,-0.0018051232,0.0006683674,0.0140189836,-4.9742e-06,-0.0001645947,-0.0388993993
4.3776082993,-0.0025069977,-0.0002631936,0.0148593504,-0.0331497453,0.0028610227,-0.03039819
4.3877792358,0.0006102358,-0.00322924,0.0193852503,-0.0491516143,-0.0004237203,-0.0250537582
4.3976078033,0.0016972458,0.0015137997,0.0217479188,-0.0683129281,-0.010119224,-0.0164779797
4.4075937271,0.0028133129,-0.0045789275,0.02199951,-0.0854048282,-0.0123072779,-0.0068903333
4.4176187515,0.0009318923,-0.0029462371,0.0210828502,-0.0970799923,-0.0219822749,-0.0025689548
4.427737236,-0.0009696449,0.0035282578,0.0210060198,-0.1087632775,-0.029545119,-0.0014493619
4.4376130104,-0.0018048252,0.0002003518,0.0169544537,-0.1247873828,-0.0285914429,-0.0014486961
4.4475750923,-0.006552693,0.0016676988,0.011756571,-0.1290252656,-0.0328903161,-0.0003554686
4.4576368332,-0.0054118303,0.0022433009,0.0085884053,-0.1161944345,-0.0328461081,-0.005671937
4.4675650597,-0.0062644449,0.0097227301,0.00555882,-0.0905825421,-0.0294961166,-0.0120858941
4.4776248932,-0.0059912768,0.0075593796,0.0057379319,-0.0660312623,-0.0251274686,-0.0238193832
4.4875659943,-0.0037566687,0.0104057398,0.0032760813,-0.0255107321,-0.0194791704,-0.0249466971
4.4976167679,-0.0004675056,0.0095064249,0.000215204,4.0167e-05,-0.006557513,-0.0367338508
4.5075421333,-0.0049139825,0.0066994037,-0.0007106946,0.027740771,0.0052954182,-0.0506411418
4.5175361633,-0.0024518634,-0.0008134636,-0.0032143877,0.0511536859,0.0171621963,-0.0592343621
4.5275411606,-0.0018833245,-0.0091924462,0.0002983524,0.0607370697,0.0225258041,-0.0656501874
4.5375509262,0.0063784751,-0.0096756015,0.0097562987,0.0553576164,0.0278252289,-0.065679349
4.5475902557,0.0088036992,-0.0112365875,0.0141709168,0.0307638571,0.0308867972,-0.060370069
4.557528019,0.0121598877,-0.0197605882,0.0212362725,-0.0183474943,0.0284441486,-0.051821854
4.5675811768,0.0143821873,-0.0207295809,0.0286735613,-0.0845057443,0.0184676796,-0.0336503088
4.5775108337,0.0126257576,-0.0259455834,0.0305466373,-0.1634695381,0.0083836196,-0.0165317748
4.5875892639,0.0126944222,-0.0314072147,0.0318488181,-0.2082447261,-0.0057026381,0.0016514896
4.5975041389,0.013573084,-0.0233869348,0.025897475,-0.2370465398,-0.0132915825,0.0155332163
4.6075782776,0.0105347671,-0.017499486,0.0118635008,-0.2583744824,-0.0208291262,0.0283456855
4.6175050735,0.001605395,-0.0175496731,-0.0002793358,-0.2402190268,-0.022806257,0.0304696895
4.6275568008,-0.0015484656,-0.0047899876,-0.0180459302,-0.2017664611,-0.0257152282,0.0304616988
4.6375060081,-0.00264686,-0.0103289876,-0.0216133278,-0.1441188753,-0.0231985413,0.0229699612
4.6475582123,-0.0017559493,-0.0126788411,-0.0216807406,-0.0736449659,-0.0216754787,0.0122869574
4.6574821472,-0.0017928446,-0.0108745489,-0.0240477007,-4.13265e-05,-0.0136652235,0.0068692882
4.6674799919,-0.0037471021,-0.0078829918,-0.0257695001,0.0692935362,-0.006734347,0.0046511409
4.6775460243,-0.0019190277,0.0041710343,-0.0248640459,0.1417953074,0.0034517117,0.0055982945
4.6874871254,0.0018277501,0.0105523076,-0.0185619276,0.1598568708,0.0121780913,0.0097786589
4.6975421906,0.0046035382,-0.0045119915,-0.0023563788,0.1490410864,0.0250142608,0.0203251764
4.7074708939,0.0052956375,-0.010901073,0.0050016358,0.1457776725,0.0303783994,0.0256046262
4.7174911499,0.0019470786,-0.0027620587,0.0081904847,0.1061901674,0.0386848003,0.0330158025
4.7274618149,0.0054962072,-0.0240150485,0.0208861548,0.0453209616,0.0382866561,0.041560024
4.7374591827,0.0088852681,-0.0239957366,0.0242479164,0.0133369304,0.0316671021,0.0469396077
4.747522831,0.0073600742,-0.0114454422,0.0213446934,-0.0250402875,0.0270587709,0.0427467301
4.7574448586,0.0078891255,-0.0146192107,0.0250028092,-0.0526486114,0.0086888177,0.0439455509
4.7675118446,0.0084535517,-0.01198701,0.0244972426,-0.0599994659,-0.0031883479,0.0365909673
4.7774372101,0.0012410318,0.00320228,0.0159464199,-0.0759913474,-0.0054525672,0.0366182625
4.7874822617,-0.0019077624,-0.0030724201,0.0103288013,-0.0823624283,-0.008726391,0.0345191583
4.7974357605,-0.0051190224,0.000434896,0.0075673177,-0.077017203,-0.0097527737,0.0345215537
4.807477951,-0.0033839608,0.0011223163,0.0069490387,-0.0502588227,-0.0160130654,0.0281691179
4.8174209595,-0.00943565,0.0076951589,-0.0003103898,-0.0118396617,-0.0136058349,0.0249396339
4.8274822235,-0.0125790499,0.0173266139,-0.0062859938,0.0179981291,-0.0069713686,0.0238133837
4.8374061584,-0.0137471817,0.0173455682,-0.0031739161,0.0307554677,0.0005821558,0.020568056
4.8474712372,-0.0118939243,0.0135065522,-0.0057438896,0.0456720963,0.0080882749,0.0098850522
4.8573970795,-0.010021206,0.0107166376,-0.0033352063,0.0435523577,0.0080310181,0.004572711
4.8674612045,-0.0090392195,0.000113925,0.0009618117,0.0189300999,0.0174415633,0.0024040991
4.8773961067,-0.0051749316,-0.0066543613,0.0040838434,-0.0003075087,0.020495411,0.0023995717
4.8874640465,-0.0033978487,0.0001629796,0.0098736007,-0.0269974433,0.0192565061,0.0066758096
4.897362709,0.0013977622,-0.0028208885,0.0116524417,-0.03331526,0.0095692584,0.0046187835
4.9074420929,0.0051834914,0.0048951115,0.0104075987,-0.0300707333,0.0032088312,0.007844937
4.9174060822,-0.0017524625,0.0163886752,0.0031450107,-0.0396732911,0.0010327627,0.0121155828
4.9273958206,-0.0027922357,0.0172001924,0.0008360459,-0.0385198742,-0.0085956305,0.0100524314
4.9373569489,-0.0019326473,0.0229115691,0.0023577525,-0.0470403954,-0.0118481489,0.0122034661
4.9474239349,-0.0008913244,0.015888175,-0.0039109872,-0.0470212176,-0.0129440399,0.0090233861
4.9573578835,-0.0008903111,0.0147263017,-0.0053492473,-0.0480732992,-0.0129914433,0.0047763102
4.9674139023,0.003024671,0.0087533798,7.35833e-05,-0.052327171,-0.0141113028,0.0026617597
4.9773387909,0.0040787491,0.0037530866,0.0016107275,-0.0395229571,-0.011909402,-0.0016118147
4.9873342514,0.0021549498,0.013349792,-0.0075737522,-0.0246324241,-0.0032892816,-0.0069900686
4.9973468781,0.0013380086,0.0064779725,-0.0087179225,-0.0214664564,0.0041510575,-0.0144762136
5.0074119568,-0.0014287198,0.0044949856,-0.0127249639,0.0030324943,0.0117948633,-0.0177300647
5.017496109,-0.000357684,0.0104531851,-0.0155144613,0.0200466327,0.0215050131,-0.0231192373
5.0273351669,0.0017559265,0.0028175917,-0.0112627428,0.0296688993,0.0204924792,-0.0252441727
5.0372891426,0.0038854515,-0.0067133103,-0.0049397633,0.0435385108,0.0195723586,-0.0199339632
5.0473108292,0.0059551629,-0.0055106077,-0.0064001367,0.0488877334,0.0185358562,-0.0209933687
5.0573649406,0.0011601781,-0.004359344,-0.0040189312,0.0457249619,0.0110869948,-0.0145698246
5.0672960281,0.007995192,-0.0011949334,0.0022706105,0.0319020934,0.0003829512,-0.0038668462
5.0772771835,0.006931487,0.0047661867,0.0112235853,0.0084854495,-0.0114742415,0.0057884445
5.0873317719,0.0049282047,0.0076112952,0.0091229398,-0.0288078599,-0.0234376919,0.0154535882
5.0971870422,0.0087858774,0.0006555524,0.0146005461,-0.0532636642,-0.0364235342,0.0187412612
5.1073541641,0.0048590931,0.0022992101,0.0080069015,-0.0777644813,-0.0430167206,0.0198635161
5.1172771454,-0.0009828175,-0.0039412174,0.0061439588,-0.0873474702,-0.0441978313,0.0156292226
5.1272621155,-0.0019972289,0.0064661708,0.0003353669,-0.0819985121,-0.0431421548,0.0092442948
5.1373858452,-0.0028918351,0.0091272797,-0.0024594949,-0.0745262131,-0.039949026,0.0007184513
5.1472539902,-0.0007481242,0.0050173607,-0.0079735806,-0.0468112305,-0.0323166735,-0.0067871357
5.1573119164,-0.0016024674,0.0166478958,-0.0132628363,-0.0127252964,-0.0193185806,-0.0175190084
5.1672291756,-0.0042834845,0.0147379842,-0.0142621081,0.0245576277,-0.0073279655,-0.0239971485
5.1775050163,-0.0021106566,0.0130321588,-0.0109198969,0.0639995784,0.0014772443,-0.0304582436
5.1872692108,-0.0037862624,0.0084845033,-0.0082629016,0.0873768032,0.0144835897,-0.0305589102
5.1972389221,-0.0045016375,0.0069422927,-0.0053785727,0.1065808535,0.0167483427,-0.0327102132
5.2072839737,-0.0013705755,0.0064718928,0.0005998327,0.1150989756,0.0189608969,-0.0316681191
5.2172470093,0.0007568335,0.0059524979,0.0045527532,0.0926444009,0.0209833011,-0.0242263135
5.2272429466,0.001903299,-0.0054186378,0.014096709,0.0478300564,0.0153653622,-0.0156594571
5.2372121811,0.0049415859,-0.0120627079,0.0193566997,0.011586301,0.0086845569,-0.0145300096
5.2472720146,0.0069452557,-0.0100826416,0.022196861,-0.0352818742,-0.0076190485,-0.0037676436
5.257183075,0.0060708257,-0.0209904108,0.0265806634,-0.0768494233,-0.0175124258,0.0016365759
5.267264843,0.0080000199,-0.0085684452,0.0217973907,-0.0917559341,-0.0229535289,0.0038070525
5.2771892548,0.0012056862,-0.0031198654,0.0129716108,-0.1002841741,-0.0251394548,0.0059522288
5.2871809006,-0.0016316737,-0.0044991765,0.002240093,-0.0917575285,-0.0219034441,0.0016757245
5.2971048355,-0.0025407041,0.0020660367,-0.0043820427,-0.0501038283,-0.0226938725,-0.0036609841
5.3073039055,-0.0024291838,0.0039594974,-0.0056537674,1.9527e-05,-0.0148700373,-0.0090586785
5.3172140121,0.0015696918,0.0070216861,-0.0064489529,0.0469052792,-0.0038402895,-0.0112864133
5.3271570206,-0.003214028,0.0092030969,-0.0039243386,0.0948781222,0.0050538694,-0.0145647638
5.3372192383,-0.0021319652,0.0125147309,-0.0039454983,0.1150509119,0.0190868638,-0.016795028
5.3471422195,-0.0049115089,0.0021687951,-0.0028492496,0.1138796508,0.0329448916,-0.0200712495
5.3571629524,-0.0038011635,-0.0062203202,-0.001727371,0.1009864882,0.0435240306,-0.0211932398
5.3672008514,-0.0017531181,-0.0155916605,0.0031623556,0.0732430071,0.0422406532,-0.0211655423
5.3771390915,0.0031546687,-0.0220902357,0.0165353734,0.0305998065,0.0344535671,-0.0178966448
5.3871779442,0.009989623,-0.0228698645,0.0246572811,0.0082849143,0.0204229727,-0.013540512
5.3971157074,0.008968804,-0.0111545715,0.0236209352,-0.0183229931,0.0074658943,-0.0049395678
5.4072122574,0.0079582371,-0.0083333645,0.0262076575,-0.0459500961,-0.0108537246,0.0026352613
5.4171171188,0.0088663138,-0.0036312733,0.0266467053,-0.0565442853,-0.0236946885,0.010161221
5.4271378517,0.0010358428,0.0028396454,0.0151689956,-0.0651023537,-0.0247570239,0.0186732151
5.4370989799,1.15072e-05,0.0006169882,0.0116068441,-0.0586953163,-0.0257597044,0.0208008178
5.4471859932,-7.17307e-05,-0.000579277,0.0110900709,-0.046964623,-0.0235495456,0.0186535083
5.4571070671,-0.0059721437,0.002041718,-0.0002075718,-0.0428092964,-0.0085761892,0.016430568
5.4671640396,-0.0060240892,-0.0020448957,-0.0034883306,-0.0354275443,0.0053116633,0.0088986158
5.4770889282,-0.0070472327,-0.0060649905,-0.001806228,-0.0301096123,0.0106318602,0.0014243219
5.4871659279,-0.0080390833,-0.0110290442,-2.10092e-05,-0.0141727254,0.0214067437,-0.0029062442
5.4970798492,-0.0051680771,-0.0090625081,-0.0009444044,0.0146304276,0.0248097312,-0.0061361259
5.5072641373,-0.002365079,0.0008098689,0.0002934053,0.0338099822,0.0302748028,-0.0093721328
5.517083168,0.0025127565,-0.0028878246,0.0046952679,0.0423942804,0.0229010433,-0.0050832452
5.527094841,0.0044003758,0.001203021,0.0090223867,0.0413971916,0.0143429758,-0.0050270525
5.5370330811,0.0034146344,0.0023151245,0.0113060195,0.0200694017,0.0099415686,-0.0007352352
5.54712677,0.007254425,0.001377603,0.0143405516,-0.0098048737,0.0044482667,0.0088827703
5.5570349693,0.0061847004,-0.0006909165,0.0131633589,-0.0407804996,0.003219218,0.018475078
5.567056179,0.0059982273,0.0049265232,0.0097223837,-0.0706691593,0.0019464933,0.0216913782
5.57710886,0.0058928761,-0.0022066627,0.0081064422,-0.0812973008,-0.0013917794,0.0164105948
5.5870471001,0.0047904882,-0.0015601311,0.0054349615,-0.0748633742,-0.0024652996,0.0100387167
5.5970301628,-0.0001299346,0.0020540562,-0.0030097649,-0.0481990017,0.0030229429,0.0025469775
5.6070599556,-0.0030599798,0.0087424126,-0.0101506393,-0.0119608361,0.0139003573,-0.0081727784
5.6170220375,-0.0069068638,0.0087241735,-0.015948562,0.0264339559,0.0195076428,-0.0124868331
5.6270518303,-0.0059308079,0.0177087989,-0.0145536354,0.0573319495,0.0282606557,-0.0168147348
5.6370172501,-0.0020092691,0.0180090871,-0.0061120079,0.0605667606,0.0261093546,-0.0210514255
5.6470422745,5.26642e-05,0.0124517884,-0.001516609,0.0626839772,0.0282633193,-0.0210668724
5.6570029259,0.0010561978,0.0146522727,0.002926202,0.0349089354,0.0291538797,-0.0168038178
5.6670322418,0.0031532382,-0.0027767215,0.0072349622,0.0146302944,0.0279464033,-0.0146570429
5.6769928932,0.0051457318,-0.0026923213,0.0074051931,0.0007831883,0.022533793,-0.0103637613
5.6870698929,0.0021840965,0.0041220393,0.0063793375,-0.0130628515,0.0171190538,-0.0060694134
5.6970090866,0.0041293534,0.0080143418,0.0052988245,-0.0215233155,0.0084821563,-0.0081308335
5.7069849968,0.0061185989,0.0148313846,0.0041730716,-0.0128770964,-0.0032349529,-0.0112480633
5.7169628143,0.0033152734,0.0216356125,0.0001053526,-0.0085293539,-0.0107269576,-0.0165151302
5.7270479202,0.0015258824,0.0196991768,0.001943083,-0.0106676053,-0.0107344147,-0.0154511975
5.736946106,0.0007627045,0.0158331599,0.0057233288,-0.0127974683,-0.0086733941,-0.0229015239
5.7470188141,-0.0009027983,0.0109403338,0.0006889417,-0.0203097127,-0.003396607,-0.0239928868
5.7569608688,-0.0015252198,-0.0027224217,0.0005303933,-0.0256811753,0.003974224,-0.0314709097
5.7669792175,-0.0013216401,0.0002328363,0.0042027547,-0.0257496201,0.0114734191,-0.0293947104
5.7769412994,-0.0059698788,0.0021554437,0.0029900386,-0.0236391984,0.0167816319,-0.0358061381
5.7869801521,-0.005749878,0.0051120128,0.000905545,-0.014085372,0.0232682936,-0.0358548723
5.7969298363,-0.0064855185,0.0100658145,-0.0020826147,-0.0055436827,0.0264656842,-0.0443795174
5.8069329262,-0.0051411954,0.0023462977,-0.0059299157,-0.0066267904,0.0275442656,-0.0422609709
5.8169541359,6.11578e-05,-0.0062728319,-0.0028762505,0.0019167624,0.0255077463,-0.0380035117
5.8269171715,0.0041146907,0.0026709642,0.0030200793,-0.0033496385,0.0148244742,-0.0326186009
5.8369278908,0.0082231797,-0.001074532,0.0128087122,-0.0129017308,0.0062405737,-0.028308671
5.8469190598,0.0075104269,-0.0069201384,0.0136361439,-0.0235471856,-0.00019096,-0.0208227932
5.8569769859,0.0057422551,-0.0021244083,0.0064956262,-0.0298998896,-0.0076954812,-0.0175819937
5.8668980598,0.003940973,-0.0051055942,0.0110382754,-0.0331052691,-0.0098033734,-0.0111917378
5.8768949509,0.0030674075,0.0006824341,0.0058756783,-0.0117897289,-0.0064179632,-0.0101686846
5.8869771957,-0.0036715234,0.0093764868,-0.0040613697,-0.0054644542,0.0032501104,-0.0102357958
5.8968510628,-0.0044539836,-0.002321342,-0.00596997,-0.00012415,0.0053763781,-0.0155617185
5.906908989,-0.0034298862,0.0016806331,-0.0019739554,0.0104952045,0.0129219126,-0.017742848
5.9168577194,-0.0023716057,0.0017976966,0.0021059825,0.0232771784,0.0162279606,-0.0177736077
5.9269361496,-0.0032402838,0.0019300189,0.0023854091,0.0275116041,0.02053589,-0.0178044997
5.9368700981,-0.0060746637,0.0040046182,0.0007332875,0.0328351334,0.0227042362,-0.0188840125
5.9469280243,-0.0049889949,0.0051437225,-0.0018069432,0.0393007547,0.0173648652,-0.0241658594
5.9568519592,-0.0038480128,0.0053908434,0.0015499308,0.0436237268,0.0120268241,-0.0283881687
5.9668698311,0.0002483164,0.0047015753,0.0088282544,0.0340592526,0.0076595061,-0.0304779503
5.9768428802,0.0024824475,0.0029543843,0.009125622,0.0180780217,0.0053697205,-0.0325715952
5.9869179726,0.0018217003,-0.0027582441,0.0121514518,-0.0053519355,-0.0012242664,-0.0325124711
5.9968328476,0.0031088626,-0.0066105518,0.0120515535,-0.0214018747,0.0018897678,-0.0293365195
6.0068817139,0.0014348959,-0.0066360626,0.0069175675,-0.0288488716,-0.0024157646,-0.0261162259
6.0168328285,0.000630561,0.0020782556,0.0045450642,-0.0512910672,-0.0004266498,-0.022925226
6.0268249512,0.002737168,-0.0009074602,0.0138427336,-0.061938379,-0.0058075665,-0.0175709408
6.0368151665,-0.0009866024,0.0037855115,0.0044620945,-0.0544908568,-0.0035947459,-0.0154654458
6.0468869209,-0.0018617178,0.0104693975,0.0019879653,-0.0481163114,-0.0003299769,-0.014428677
6.0568108559,-0.0007086957,0.0055015292,-0.0003065751,-0.0342882425,0.0051313676,-0.0134120146
6.0668668747,-0.0015653039,0.0045063104,-0.0004809187,-0.0076422542,0.0117139034,-0.0177228749
6.0768041611,-0.0004141296,0.0026294794,-0.0052218721,0.0253864024,0.0204938129,-0.0209907051
6.0868120193,0.0007144844,-0.0001293811,-0.0077359364,0.0423906855,0.0312769488,-0.0253220703
6.0968008041,0.0018476879,-0.0057281051,-0.0052028582,0.0540753044,0.0377902426,-0.0243106019
6.1067800522,0.0047944817,-0.0015219841,-0.0015974329,0.0700036734,0.0475416742,-0.0233225692
6.1167840958,0.0038225686,0.0026716795,0.0020545437,0.0635947734,0.0475054532,-0.0211907085
6.1267871857,0.0058127674,-0.0048268829,0.0106120426,0.0571906716,0.0453637391,-0.0158603918
6.1367788315,0.0038563048,-0.0036625657,0.0082936604,0.0497078523,0.0453344472,-0.0126684606
6.1467299461,0.0028188264,-0.0015641246,0.0097052176,0.0155549441,0.0429690294,-0.0083797062
6.1568012238,0.0028513109,-0.0210410748,0.0177076776,-0.0196512453,0.0384648256,-0.0040797661
6.166823864,0.002766106,-0.0143045578,0.0126577932,-0.0430479161,0.0286465473,-0.0061245412
6.1767711639,-0.0012022222,-0.0115251336,0.0170937497,-0.0642863587,0.0156487226,-0.0060214768
6.1867399216,0.0046254727,-0.0106978808,0.0194851477,-0.0748529807,0.0016908296,-0.0037988026
6.1967458725,0.0007815992,-0.0070829783,0.0148123214,-0.0779571608,-0.0100947237,-0.0047847047
6.2067289352,-7.67673e-05,-0.0063488875,0.0092175314,-0.0640477389,-0.0132116871,-0.0068989885
6.2167291641,-0.0048315492,0.0002391544,-0.0040484355,-0.0352270082,-0.0129909106,-0.0069194948
6.2266530991,-0.0057350961,0.0021178331,-0.0072338269,-0.0118215531,-0.0042413613,-0.0048677954
6.2365922928,-0.0066428152,0.0050463285,-0.0101814559,0.0212301407,0.0013411567,-0.0070523862
6.2467718124,-0.0075874892,0.0100448932,-0.0137555888,0.0520791337,0.0144052925,-0.0071586464
6.2567090988,-0.0046285954,0.0044483151,-0.0082611721,0.059458755,0.0262078904,-0.0083016753
6.2667169571,-0.0035769904,-0.0060451422,-0.0065698312,0.0711894408,0.0284180474,-0.010448982
6.2765021324,-0.0035517777,-0.0096908603,-0.0029507563,0.0562267415,0.0314900056,-0.0125829726
6.2867708206,0.0004338657,-0.0240859184,0.0054427101,0.0338415392,0.0260092188,-0.0082822349
6.2966861725,0.0081338622,-0.016077498,0.013566168,0.0136589063,0.014093969,-0.0081896894
6.306748867,0.0109602846,-0.0052654538,0.0213690717,-0.0203936044,-0.002128676,0.0004384199
6.3165798187,0.0099860467,-0.0083256755,0.0229571778,-0.0533944257,-0.0162114725,0.0079879491
6.3267021179,0.0080121793,-0.0017580781,0.0145277092,-0.0586818717,-0.0247482341,0.0144213475
6.3366641998,0.0050206515,0.0067580547,0.0089820344,-0.0575866401,-0.0289959759,0.0165725145
6.3466601372,0.0049766335,0.009440979,0.0025481298,-0.0479697064,-0.0289488379,0.0133783193
6.3566637039,0.0011103486,0.0102227535,-0.0047022388,-0.0191833284,-0.0234099962,0.0101353889
6.3666448593,-0.0037468041,0.0140366759,-0.0116544059,0.0138174985,-0.0082824416,-0.000609667
6.3767118454,-0.004654285,0.0121432748,-0.0134363463,0.0276084095,0.004598469,-0.0060118893
6.3866682053,-0.0055614975,0.0044736471,-0.0091819447,0.0381782316,0.0206394866,-0.0146224219
6.3967051506,-0.0036275352,0.0115081873,-0.0077505396,0.050873518,0.0346282721,-0.0157870222
6.4066209793,-0.000673082,0.0117551889,-0.004227011,0.0519126877,0.0388933271,-0.0179401878
6.41670084,0.0023021137,0.0100590792,0.0012131645,0.0412322097,0.040917594,-0.0221981835
6.426609993,0.0024437939,0.001489779,0.002722533,0.044481799,0.0355896726,-0.0232282933
6.4367880821,0.005463365,0.0036809649,0.0032501533,0.0424099937,0.0280891489,-0.0231767613
6.4466190338,-0.0002648796,-5.66039e-05,0.0075189187,0.0264571272,0.0204932801,-0.0220539737
6.4566230774,0.0027597582,0.0030192938,0.0077702715,0.0104825534,0.0150473807,-0.0188175663
6.4665851593,0.0028362905,0.0060311165,0.0107466886,-0.0065411702,0.0074523119,-0.0166316442
6.4765810966,0.002091143,-0.0007930789,0.0106383283,-0.0224126764,-0.0087239947,-0.0197055973
6.4864788055,0.0061618718,0.0001681653,0.0122837145,-0.0415711924,-0.0163355749,-0.017518077
6.4963922501,0.0034702455,-0.0029014144,0.0088569243,-0.0532824434,-0.0217338018,-0.0132253272
6.5067610741,0.0025899445,0.0037790146,0.0120688993,-0.0799494684,-0.0251229405,-0.009995712
6.5167140961,0.002729181,0.0005928483,0.0160692055,-0.1002607346,-0.0231074616,-0.0057443748
6.5265722275,0.001869682,0.0041391458,0.0062681749,-0.1046022251,-0.0156322345,-0.0026026438
6.5365929604,-0.0039275554,0.0095544662,-0.0016800449,-0.1196637377,-0.001844783,-0.0016194046
6.5465650558,-0.0077687469,0.0013136473,-0.0037802742,-0.1314543337,0.0044677076,-0.0027144966
6.5567741394,-0.0058416096,0.002932271,2.31578e-05,-0.1133431122,0.0109711466,-0.0091461632
6.5665521622,-0.0028845633,0.0085441675,-0.0027494715,-0.0781299993,0.0154551109,-0.0166365691
6.5765619278,-0.0066405204,0.0073775854,-0.0071764276,-0.0460972339,0.0167214442,-0.021976741
6.5865521431,-0.0035406912,0.0083862748,-0.0053801225,-0.005457663,0.0116009843,-0.0325958282
6.5966029167,-0.002364632,0.0144279804,-0.0023191259,0.0287041701,0.0118505228,-0.034747798
6.6065587997,-0.0001876915,0.0156746116,0.0020035221,0.0479138158,0.0120081818,-0.033699844
6.616587162,0.0011271869,0.0071808901,0.0025878265,0.0564214177,0.0163398143,-0.0347961336
6.626511097,-0.0014941061,0.0044936743,0.0001869514,0.0478524305,0.0194890015,-0.0337481797
6.6365470886,-0.0031292404,-0.007954279,0.0045450046,0.0232734494,0.0235572457,-0.0358828343
6.6465158463,-5.659e-06,-0.0058201347,0.0057294681,-0.000221489,0.0244534016,-0.0348098502
6.6565637589,0.0031498706,-0.0076398049,0.0096794683,-0.0194078349,0.0221447051,-0.0369040221
6.6664857864,0.0052869651,-0.0036666188,0.0163214523,-0.0375375673,0.018825341,-0.0336826667
6.6765379906,0.0056211981,-0.0105424318,0.0092380363,-0.0374940261,0.0134825082,-0.0336484462
6.6865038872,0.0029276644,-0.0037657414,0.0049555614,-0.0385491699,0.0123964706,-0.0347030573
6.6965532303,0.0041179094,-0.0017921124,0.0066697909,-0.0214527436,0.0093431566,-0.0325717293
6.7064800262,0.0014774238,-0.0007896814,0.0026501133,-0.0086527904,0.0105109522,-0.0325882398
6.7165470123,0.0007835662,-0.0016903076,0.0006769612,0.0009497693,0.0105953747,-0.0315336287
6.7264699936,0.0020353829,-0.005460063,-0.0020754025,0.0200978965,0.0182341188,-0.0305341426
6.7364659309,0.0032251512,-0.0072399769,-0.0017928169,0.0275576785,0.0193691608,-0.0294840597
6.746515274,0.0034927761,-0.0187659655,-0.0004374669,0.0360654108,0.0216088779,-0.0252549592
6.7564339638,0.0044797692,-0.0107564125,0.003844352,0.0402995721,0.0227809343,-0.0167653337
6.7665309906,0.0045290622,-0.0095910225,0.0071952655,0.0349804424,0.0185100231,-0.0114219673
6.7764501572,0.0064268741,-0.0055429135,0.0114088971,0.0211246796,0.0131211169,-0.0039399499
6.7865247726,0.0054049226,-0.0054707918,0.0193537194,0.0019978555,0.0012436849,-0.0006623978
6.7964391708,0.0015099084,-0.0055537615,0.014340492,-0.0204368774,0.0011198479,0.0046639242
6.8064680099,-0.0013829137,-0.0105878506,0.0082256515,-0.0385562256,-0.0022266803,0.0046982793
6.8164181709,-0.0014084543,-0.0146627817,0.006891103,-0.0449755117,-0.0001440883,0.0046918876
6.8264808655,-0.0004513825,-0.0118984375,0.0016057207,-0.0470999181,-0.0001877642,0.0015064809
6.8364191055,0.0014805531,-0.0100443158,0.0041604354,-0.0342887789,0.0009491392,-0.0027620338
6.8464541435,0.0053757462,-0.005198041,0.0029732301,-0.0161361396,0.0010713784,-0.004900286
6.8564100266,0.0024878418,-0.0062452946,-6.91698e-05,-0.0034023691,0.0097338427,-0.0028383336
6.8663749695,-0.0033609832,-0.0043606553,-0.0088171642,0.0221256278,0.0195776839,0.0002671785
6.8764381409,-0.0063907173,0.0005886164,-0.0104532531,0.0476798564,0.0262156129,0.0033933301
6.8864059448,-0.0065501896,0.0036775675,-0.0098849228,0.0615314879,0.0284785014,0.0054937652
6.8964648247,-0.001818713,0.0010090675,-0.0023266957,0.0690285563,0.0253322441,0.0055078799
6.9063801765,0.0009811556,-0.0035964642,0.0062572076,0.0733631179,0.0178751256,0.0044908188
6.9163751602,0.0029029881,-0.0102319513,0.0078926999,0.0445522405,0.0176303815,0.0023895847
6.9264030457,0.0047847661,-0.0188976917,0.0140921781,0.0082557518,0.0163171757,0.0066730133
6.9363369942,0.0037123894,-0.0179996286,0.0130226929,-0.0343685374,0.0084794937,0.003566036
6.9464302063,0.0036295091,-0.0191455279,0.0145878503,-0.0588954538,0.003000306,0.0099930428
6.9563579559,0.004472259,-0.0125510488,0.012034269,-0.0738098174,-0.0013760667,0.0110917296
6.9664239883,0.0053957137,-0.0108729992,0.0064770891,-0.0694683343,-0.0088512935,0.0079499986
6.9763479233,0.0033668613,-0.0013475213,0.0019778325,-0.0416308492,-0.0172248036,0.0037363453
6.9864239693,0.0014080738,0.0073102321,-0.0032754228,-0.0138873663,-0.015941428,0.0037086483
6.996363163,-0.0004983509,0.0062825885,-0.0062951134,0.0074501461,-0.013657501,0.0015544177
7.0063118935,-0.004417893,0.0130953994,-0.01116517,0.0191195849,-0.0060584364,0.0046841642
7.0163602829,-0.0025281573,0.0131554212,-0.0080717485,0.0137100387,0.0014098661,0.0078260284
7.0262918472,0.0003480648,0.0034488644,-0.0029874132,0.0125726033,0.0078592431,0.0130969565
7.0363292694,0.0011573767,0.0024643149,0.0009832694,-0.0098936912,0.0130478796,0.0152036501
7.046350956,0.0010441577,-0.0054329429,0.0038419082,-0.0226638149,0.0086648492,0.0141785992
7.0562877655,0.00282431,-0.0016145501,0.006569834,-0.0290024057,0.0021704652,0.0110405972
7.0663051605,-0.001133498,-0.0037394557,0.003339143,-0.0321468003,-0.0032341541,0.0068282746
7.0763320923,-0.0002274478,2.66638e-05,-0.0008623288,-0.0289306305,-0.004292761,0.0047064023
7.0863080025,-0.0012214447,0.0038408842,-0.0020843432,-0.0182130076,-0.0074616559,-0.0005924897
7.0963468552,-0.0021822418,0.0086448397,-0.0062053488,-0.0139042782,-0.0127605479,0.0004999391
7.106274128,-0.0001985992,0.0086387601,-0.0033964799,-0.0106757274,-0.0159419589,0.0005183148
7.1163492203,-0.0011170174,0.007632276,-0.0016036914,-0.0085553182,-0.0137965176,-0.0005597328
7.1263217926,0.0027958786,0.0095887985,-0.0007553981,-0.0138992174,-0.0138196871,0.0015689316
7.1363039017,-7.18201e-05,0.0075461473,-0.003857343,-0.0107308542,-0.0095226765,0.0015401698
7.1462349892,0.0028669273,0.010441443,-0.0049847052,-0.0181972943,-0.0106401388,0.0026150213
7.1563391685,0.0048379335,0.0026204195,0.0035908534,-0.0309559666,-0.0150524639,-0.001595969
7.1662540436,0.0048699412,0.0015436616,0.0071344092,-0.0383976363,-0.0204176679,0.0026935847
7.1763091087,0.0019745862,0.0023379531,0.0066359355,-0.0565433539,-0.0205580164,0.0027071666
7.1862468719,0.0019519662,0.0060379114,0.0070005967,-0.0618907101,-0.0205721315,0.005898166
7.196269989,-1.7549e-06,0.0097116437,0.0053261234,-0.0671801493,-0.0259663649,0.0048745805
7.2062339783,-0.0028234685,0.009440681,-0.0002825544,-0.0724841058,-0.0271397531,-0.0025508453
7.216299057,0.0002447699,0.0043953266,-0.0037747906,-0.0436629727,-0.025875017,-0.0057664793
7.2261018753,-0.000643369,0.0101893749,-0.0022130893,-0.0158811435,-0.0267834216,-0.012154337
7.2361650467,0.0005873477,0.0024349298,0.0016129925,0.002254718,-0.0224358104,-0.0206966922
7.2461519241,0.0008200442,0.0034914222,-0.0022368119,0.0278000273,-0.0126372436,-0.0229028556
7.256321907,-0.0038374031,0.0065536704,-0.0049366043,0.0415912047,-0.0018485114,-0.0229795538
7.2669000626,-0.0026963914,0.0057907905,-0.0025883601,0.0415174365,0.0067103552,-0.0219726134
7.2768678665,-0.0015264417,0.0030851569,0.0007388904,0.0340264961,0.0098401029,-0.0241121966
7.2868771553,-0.0003768469,-0.001612762,0.0059116795,0.0169148874,0.0129322987,-0.0219955165
7.2965641022,0.0017131602,-0.0073560271,0.0128650982,-0.0129583236,0.0084816245,-0.0155719724
7.3065347672,0.0047905478,-0.0171066318,0.0166364629,-0.0342497602,-0.0001970852,-0.0112512596
7.3162989616,0.0087289251,-0.0122941528,0.019166084,-0.0555405356,-0.009924015,-0.0048001511
7.3313951492,0.0048350724,-0.0086189304,0.0204356629,-0.0768511593,-0.0175068341,0.002700642
7.3390302658,0.0019368862,-0.006024221,0.0146572301,-0.1002667248,-0.0283213966,0.0091614714
7.3466000557,-0.0010451938,0.0004247632,0.0116356928,-0.1044920981,-0.0357902311,0.0145248109
7.3560552597,-0.0040214029,0.0049095955,0.0085877497,-0.1034223065,-0.0368336588,0.016656138
7.3659911156,-0.0040200916,0.0035705771,0.0037460639,-0.0756719038,-0.03556839,0.0145037714
7.3760509491,-0.0011167491,0.0072929468,0.003115864,-0.0415201932,-0.0321536884,0.0080840886
7.3866672516,-4.83359e-05,0.0042411294,-0.0001619742,-0.0201832149,-0.0277770478,0.0006040684
7.3963098526,0.0011162793,-0.008442143,0.0026693656,-0.002091961,-0.018082343,-0.0069077769
7.4060487747,-0.0026829506,-0.0064922366,-0.0012570904,0.0244962405,-0.0061199553,-0.0070039169
7.4159321785,-0.0036483372,0.0024096575,-0.0029579089,0.0446546376,0.0089972112,-0.0071151042
7.4260101318,-0.0036677683,-0.0003269109,0.0043729856,0.049893342,0.0197529197,-0.0040013362
7.4359560013,-0.0027604366,0.0018098559,0.0068592145,0.0552064851,0.0219484307,-0.0018938433
7.4459981918,-0.0008046592,-0.0019196067,0.0074057295,0.0413388722,0.0228645578,-0.0072020562
7.455945015,0.0021136736,-0.0085963998,0.0146001894,0.0114910938,0.0162543263,-0.0039541982
7.4659852982,0.0050422284,-0.016367713,0.0195647795,-0.015181263,0.0128779709,0.0003358882
7.4759449959,0.0069351229,-0.0125367437,0.0193337519,-0.0460654087,0.0040908707,0.0014802483
7.486000061,0.0079434551,-0.0176101122,0.0149347503,-0.0759434178,0.0006988021,0.0068350667
7.4959259033,0.0068504843,-0.0179180894,0.0151510555,-0.088785708,0.0017329075,0.014273542
7.5059328079,0.0017875766,-0.0017279182,0.0025196983,-0.0866208225,-0.0035579945,0.0185559057
7.5161919594,0.0015429889,0.0076884832,0.0026076152,-0.0940739512,-0.0088939043,0.0260313991
7.5259990692,0.0003817414,0.0034228768,0.0047112419,-0.0833752304,-0.013059088,0.0292381123
7.5359120369,0.0030177867,0.010925075,0.0010875179,-0.0524060018,-0.0159962885,0.0324215181
7.5459671021,0.003746215,0.0126851406,0.0035919263,-0.0331825018,-0.0158748478,0.029220134
7.5558991432,0.0055550965,0.0027997103,0.0082671959,-0.0139467558,-0.0168311894,0.0249633361
7.5659132004,0.0025200581,0.0007206407,0.0042725517,0.0073569347,-0.0092302617,0.0195872132
7.5758509636,-0.0015167559,0.0055278149,-0.0005731271,0.0115255807,0.0057079419,0.0131144002
7.5859642029,-0.0015761817,-0.008119205,0.0035251691,0.0114515452,0.0163589884,0.0087958183
7.5958209038,-0.0016875828,-0.0061673317,0.001734586,0.0124630146,0.0248776414,0.0034250219
7.6060819626,-0.0047544208,-0.0002868566,0.0018804981,0.0156316422,0.0302188769,0.000200999
7.6160478592,-0.0009708966,0.0007876363,0.0060715987,0.0209675524,0.0313113071,-0.0008679939
7.626098156,-0.0040286449,0.0037453976,0.0053600385,0.0262976028,0.0313706957,0.001252681
7.6360678673,-0.0031380916,0.0047865119,0.001798661,0.0316693336,0.0271378662,0.0012759839
7.6460528374,-0.0042600599,0.0078234281,0.0050929501,0.038100332,0.0218890421,0.0066174855
7.656056881,-0.0025022591,0.0157528725,0.0064819767,0.0402805284,0.0165568609,0.0055861766
7.6660070419,-0.0006379748,0.0129341092,0.0069058253,0.0338940024,0.0122776935,0.0109303426
7.676071167,-0.0006862546,0.0051567759,0.0061965301,0.0082891742,0.0110009741,0.0098945051
7.685956955,0.0002259051,0.000242373,0.0062513663,-0.009788096,0.0033614305,0.0078318883
7.6960511208,0.0050053629,-0.0026849899,0.014902385,-0.0321462639,-0.004282108,0.0089585371
7.705976963,0.0068644318,-0.003817657,0.0183585007,-0.0684323683,-0.0056224773,0.0100549608
7.7160220146,0.0087876357,-0.006992856,0.0167092998,-0.0801505372,-0.0089109484,0.0111471228
7.7259478569,0.0077295932,-0.0024257097,0.0129785845,-0.0855050907,-0.0068147741,0.0111372694
7.7359900475,0.003751192,-0.0008187685,0.0091910074,-0.0887480304,-0.0004575425,0.007912714
7.7459602356,0.000842694,-0.0069811735,0.00360343,-0.0674443394,0.0071433857,0.0025365914
7.7560229301,-0.0001712407,0.0006263462,-0.0065958784,-0.0269304644,0.0138518894,-0.0007271126
7.7659568787,-0.0050352779,-0.0003866944,-0.0095309298,0.0242759977,0.0205971412,-0.0082433522
7.7759308815,-0.0050745276,0.0065962877,-0.012974767,0.0657898858,0.0348152258,-0.0072989953
7.7859687805,-0.0080292188,0.0087782945,-0.016067652,0.1031063646,0.0414893739,-0.0105555085
7.7960100174,-0.0090786181,0.0081675258,-0.0119933765,0.1201524585,0.0437967367,-0.0063335993
7.8059387207,-0.004265931,0.004667839,-0.0088249128,0.1041327417,0.0447416268,-0.006328539
7.8159499168,-0.0014515186,0.0011206474,0.0019071414,0.0710964948,0.0359811597,-0.0009367033
7.8259391785,0.0033606624,-0.0084031019,0.0132880528,0.0295842104,0.0207151212,0.0013160647
7.8359928131,0.0081735887,-0.0102834497,0.0173325855,-0.0183316506,0.0053979494,0.0035744249
7.8458919525,0.0091595985,-0.0191867147,0.0189620573,-0.0662254021,-0.0131147476,0.0069150948
7.8559889793,0.0101200975,-0.0194821749,0.0171529371,-0.1024414673,-0.0250960421,0.0133919017
7.8658480644,0.0032089388,-0.0101967249,0.010090502,-0.1216069013,-0.0326895155,0.017704092
7.8759799004,0.0020621454,0.0059262719,0.0029449775,-0.1248234734,-0.0326769985,0.0219552964
7.8859081268,-0.0009894932,0.009330174,-0.0032076524,-0.1259257644,-0.0305025261,0.0272539202
7.8958969116,-0.0070674983,0.0185473766,-0.0122862151,-0.1078648567,-0.0207279269,0.0293038897
7.9059581757,-0.0053329435,0.0211543646,-0.0169210117,-0.0395851396,-0.014883087,0.0260311309
7.9158811569,-0.00454649,0.024003109,-0.0160593074,0.0191174541,-0.0112800971,0.0195938721
7.9258790016,-0.0055882898,0.0162304845,-0.0157262962,0.0521571636,-0.0025286828,0.0131397005
7.9359049797,-0.0045801965,0.0037600007,-0.0130656641,0.0894816294,0.0062147412,0.0013685289
7.9458599091,-0.0036817158,0.0138419475,-0.0102592995,0.0990895182,0.0094227847,-0.0071581136
7.9558849335,0.0003232395,0.0005563703,0.0004781201,0.0830712765,0.0124563919,-0.0124768466
7.9658651352,0.0033434068,-0.0069660936,0.0069965436,0.0403754711,0.0121261599,-0.0124448882
7.9758238792,0.0043891701,-0.0087945852,0.0111371595,-0.0012282971,0.0075567085,-0.0091991611
7.9858908653,0.0073480043,-0.0117147956,0.0158953387,-0.0396156348,0.0008833592,-0.0048795138
7.9958429337,0.007357094,-0.0079632793,0.0163559038,-0.0705093667,-0.0089271935,0.0005165837
8.0057983398,0.0054326686,-0.0043342505,0.0107091386,-0.0800773054,-0.0132854562,-0.000510864
8.0158672333,0.0054453644,0.0032448377,0.0050993278,-0.0629205555,-0.0238153301,0.0027335323
8.0258321762,0.0006176864,0.0127887931,-0.0042459057,-0.0244698357,-0.0256736837,0.0005939486
8.0358667374,0.0006673371,0.0186050143,-0.0092991274,0.0161171369,-0.0285653435,0.0005839616
8.045791626,0.0027201509,0.0177667346,-0.0099687269,0.0609053783,-0.0218334049,-0.0026781443
8.055893898,0.0027787124,0.0218907204,-0.0113376072,0.0864655972,-0.0141648324,-0.0038073249
8.0658073425,0.0028933322,0.0104874577,-0.0046435879,0.0960316733,-0.0087559521,-0.0049114712
8.0758810043,0.0039792093,0.0020449962,-0.0007680939,0.1002088487,0.00302241,-0.0060523693
8.085808754,-0.0008717144,0.0023247804,0.0010453179,0.0894504786,0.0136180632,-0.0071759569
8.0958614349,0.0001557504,-0.0042062793,0.0067443564,0.0701801032,0.0219846498,-0.0114671085
8.1057872772,-0.0007785524,-0.0059345756,0.0102603752,0.0413425975,0.0259913746,-0.0167849082
8.1157903671,-0.0016555155,-0.0096897278,0.0116065452,0.0264287628,0.0226608254,-0.0178154185
8.1257991791,0.0004030799,-0.0124895368,0.0128532369,0.015798755,0.0172346346,-0.0177728087
8.1357975006,-0.001497742,-0.0046154056,0.0119961817,0.0083525572,0.0139722638,-0.017747242
8.1457967758,-0.0024647678,0.0032441821,0.0139500219,-0.0022630692,0.0043254951,-0.0113029238
8.1558408737,-0.0043372479,0.0051957574,0.0128969271,-0.0043097083,-0.0084704608,-0.0059065614
8.1657581329,-0.0013945664,0.0100971665,0.0118676145,-2.57473e-05,-0.0126580158,0.0004919495
8.1758232117,0.0015994643,0.0081567969,0.0089245755,-0.0010614498,-0.0179790109,0.00371251
8.1857700348,-0.0022484029,0.0022152867,0.0058910563,-0.0074884566,-0.0169236008,0.0079597197
8.1958246231,-0.0003702308,0.0080251899,0.0057176067,-0.0138989519,-0.0180013832,0.0132855102
8.205745697,0.0015651619,0.002085587,0.0093962857,-0.0309668835,-0.0181606393,0.0101112872
8.2158021927,-0.0003970827,-0.0009919796,0.0119015882,-0.0458747298,-0.020460546,0.0048254449
8.2256774902,0.0016692912,-0.007979909,0.0075545027,-0.0469546393,-0.01729884,0.0005561316
8.2357263565,0.001739267,-0.0061775241,0.0051120236,-0.0459186733,-0.0119805075,-0.0037299599
8.2457180023,-0.0021123255,-0.004341403,0.0056830957,-0.0299482252,-0.0065220925,-0.0048389002
8.2557659149,-0.0040519801,0.0072763171,-0.0023876713,-0.0086483965,4.39307e-05,-0.0059575611
8.2657251358,-0.0050505665,0.0160705652,-0.0034068511,0.0126238689,0.0098185306,-0.0070981933
8.2757091522,-0.0021639729,0.0211130586,0.0017765476,0.0489184931,0.0100907059,-0.008187958
8.2857198715,-0.0020853842,0.0174114313,0.0052268817,0.0542552024,0.0122241639,-0.0135174766
8.2957296371,-0.0018927122,0.0068719592,0.0028923466,0.0627927631,0.0133402944,-0.0156551953
8.3056917191,-0.0007228816,-0.0026156697,0.0035997941,0.0660000071,0.014397569,-0.0199138559
8.3157072067,0.0013851558,-0.0111149941,0.0110621769,0.0500182435,0.0110577,-0.022009898
8.3256816864,0.00249565,-0.0099429879,0.0124060828,0.0286564976,0.0109288031,-0.0177445784
8.3357467651,0.0054772529,-0.0039413366,0.0164734442,0.0009300616,0.0064664097,-0.0134422425
8.3456726074,0.0074498686,0.0009383765,0.0173266251,-0.0299993586,-0.0001129294,-0.0048788479
8.3557348251,0.0074836048,-0.0021046195,0.020836385,-0.0545104295,-0.0066813501,-0.0016352505
8.3656492233,0.0084734,0.0026081409,0.0173464734,-0.0565714464,-0.015256729,-0.0026405938
8.3757362366,-0.0001853074,0.003310224,0.0098359305,-0.0587065034,-0.0131789297,-0.0068987217
8.3856649399,0.000961337,-0.0046521816,0.008347244,-0.0533572771,-0.0142154321,-0.0079581272
8.3957176208,0.0010939275,-0.0018164907,0.0050272658,-0.0235346686,-0.0044056787,-0.0133571541
8.405629158,-0.0016646648,0.0020702686,-0.0038534687,0.0169469789,0.0076187593,-0.0187753551
8.4156618118,-0.0043851105,0.0021768417,-0.0104023498,0.0478180721,0.0206237733,-0.0263200887
8.4256343842,-0.0052039591,0.0034357514,-0.0097573679,0.074404411,0.0336367786,-0.0285478234
8.4356603622,-0.0002743567,0.0077746715,-4.17517e-05,0.0999256149,0.0476838909,-0.0329022259
8.445567131,0.0068040225,-0.0073828492,0.0001771762,0.1008981988,0.0583975203,-0.030847596
8.4556865692,0.0030304228,-0.0148294959,0.0012536957,0.0965717658,0.0637424812,-0.0266287513
8.4656133652,0.0049461755,-0.0125020538,0.0052023246,0.0815970749,0.0637083948,-0.0170565508
8.4756565094,0.0067321095,-0.0102304015,0.0206308682,0.0464243107,0.0538901202,-0.0084693208
8.4853935242,0.0075868401,-0.0120423827,0.0268936474,0.0113131944,0.0365904905,0.0001665112
8.4956264496,0.0093911327,-0.0081475172,0.02503285,-0.0109767979,0.0193566419,0.0045419517
8.5055913925,0.0025056635,-0.0063730869,0.0179706533,-0.0332951546,0.0053350991,0.0099604186
8.5156297684,-0.0005188549,-0.0075511727,0.0156256873,-0.0503007658,-0.0043984884,0.0121607222
8.5255231857,-0.0025564993,-0.0009562168,0.0092149097,-0.0512786768,-0.0140524469,0.0090368344
8.535577774,-0.0045869914,0.0056844559,0.0077049448,-0.0501934439,-0.0161821768,0.0090501504
8.5456027985,-0.0026351179,0.0045212116,0.0033508255,-0.0384310596,-0.018237872,0.0079928758
8.5555744171,-0.0046094921,0.0063120332,3.07872e-05,-0.0267175455,-0.0138910599,0.0058321198
8.5655822754,-0.0075856415,0.0139998998,-0.0032168315,-0.0204029251,-0.0021036423,0.0036264898
8.5755748749,-0.0076017943,0.0110129919,-0.0013812468,-0.006578587,0.0044120476,0.0025096934
8.5855855942,-0.0056609479,0.0100593772,-0.0032673762,0.0125532951,0.0173219871,-0.005024123
8.5955505371,-0.0086077116,0.0120461788,-0.005977957,0.0295561142,0.0281101856,-0.008291156
8.6056108475,-0.0104867183,0.0043522324,-0.0075092004,0.0337745622,0.0355971344,-0.0115298266
8.6155080795,-0.0095471106,0.0045376029,-0.0031466172,0.042279765,0.0409804434,-0.0147582432
8.6255645752,-0.004646,0.0057393517,-0.0015962408,0.0433855094,0.0387969203,-0.0211192034
8.6355276108,-0.001623478,0.0001207796,0.0037702634,0.0252734851,0.0343845934,-0.0210793894
8.6456747055,0.0033932363,-0.0055578742,0.0060636713,0.0125683425,0.0225114226,-0.0231183041
8.6555213928,0.0054322812,-0.0005674753,0.0100364396,-0.0097480165,0.0084858844,-0.0176978391
8.665514946,0.0123352148,0.0004555192,0.0147595126,-0.0363780297,-0.0012756656,-0.0101792039
8.6755657196,0.0084860958,0.0051467624,0.0122474143,-0.0673169047,-0.0067849467,-0.0016233993
8.6857347488,0.0026696359,0.0097137894,0.0046123578,-0.0875707716,-0.0122401658,0.0037380764
8.6955289841,0.0036241149,0.0143004861,0.001775594,-0.09822236,-0.0155187836,0.0048286407
8.7054405212,0.0027063524,0.0120199528,-0.0011173771,-0.0971182138,-0.0187438708,0.0016616099
8.7155532837,0.004822019,6.31419e-05,3.48999e-05,-0.0832262263,-0.017632002,-0.005791646
8.7256813049,0.0030475294,-0.0020867977,-0.0025811479,-0.0522653833,-0.0132263349,-0.0185905322
8.7355384827,0.002306286,0.0017612185,-0.0087899854,-0.0128069231,-0.0065543167,-0.0239730477
8.745472908,-0.0004088248,0.0076853838,-0.0126810363,0.0297796875,0.0087018674,-0.0283512846
8.7555007935,-0.0050995913,0.0137124266,-0.0162165444,0.0627940968,0.0185656827,-0.0294999052
8.765619278,-0.0059251753,0.0159637537,-0.0145333689,0.0808572546,0.0283336248,-0.0285134707
8.7755289078,-0.0018660987,0.0144255962,-0.0106450608,0.0967962742,0.0380573571,-0.0307121761
8.7854671478,0.0012203192,0.0070755091,-0.001801102,0.0893175825,0.038017679,-0.0285819136
8.7953948975,0.0034068262,-0.0081742797,0.0059286668,0.0637236685,0.0346189514,-0.0285447612
8.8056545258,0.0074643525,-0.0108259711,0.0074607446,0.0296304151,0.0258230641,-0.0263391323
8.8154373169,0.0124565996,-0.0135434065,0.0184467752,-0.0033267355,0.0084909452,-0.0230147075
8.8254642487,0.0135892071,-0.0144729409,0.025146218,-0.0341368467,-0.0109493323,-0.0186175629
8.8354272842,0.0118234791,-0.0116534028,0.0226877648,-0.0629015118,-0.019682901,-0.0142927226
8.845489502,0.0090730228,-0.0099345837,0.0161198694,-0.0681977421,-0.0271509383,-0.0078662485
8.8554239273,0.0003936325,0.0034080949,0.0016039326,-0.0703764781,-0.0239154641,-0.0025740147
8.8654603958,0.0004975235,0.0041553583,-0.0049282,-0.0587142259,-0.0142061114,-0.0026451212
8.8754062653,-0.0003933276,0.00303193,-0.0073411749,-0.035249114,-0.0097953836,-0.0080018034
8.8854312897,-0.00516009,0.0010054316,-0.0094981473,0.0009877197,-0.0020517106,-0.010202107
8.8953962326,-0.0011603201,-0.0008200202,-0.0054078982,0.0297583789,0.0066656144,-0.0166525487
8.905456543,-0.0019768442,-0.0084540043,-0.0040037916,0.0585271791,0.0122502632,-0.0145840719
8.9153871536,4.8015e-05,-0.0052196179,-0.0013630674,0.0841129646,0.0177611429,-0.0178230088
8.9253759384,-0.0047369865,-0.003948072,0.0004069521,0.0894534066,0.0177933667,-0.0188893378
8.9354448318,-0.0027128423,-0.0055614505,0.0041694953,0.0734292939,0.0166575275,-0.0124976188
8.9453210831,-0.0007369483,-0.0092093144,0.0126010496,0.0403349921,0.0153690912,-0.0082165878
8.9554367065,0.0002852713,-0.0120242033,0.0138473827,0.0072715804,0.0119080469,-0.0081715798
8.9653625488,0.0052019092,-0.0158755574,0.0167841036,-0.0225363839,0.0020583458,-0.0080868918
8.9753761292,0.0073140892,-0.0257195029,0.0174629409,-0.0533776507,-0.0131171448,-0.0047792452
8.9853563309,0.0044871601,-0.0229913983,0.013898463,-0.0682508722,-0.0217825379,-0.0047126664
8.9954166412,0.0025619899,-0.0124960933,0.0121069262,-0.0810423046,-0.0261101741,0.0006357601
9.0053424835,0.0035826003,-0.0107925329,0.0103418548,-0.0746342093,-0.028161874,0.0048941546
9.0154094696,0.0005879735,0.0016121473,0.0008140518,-0.0523137152,-0.0204195324,0.0154535873
9.0253314972,-0.0043274132,0.0042932238,-0.0093857329,-0.0203762911,-0.0094936471,0.0142980432
9.0352182388,-0.0043473807,-0.0055460129,-0.0123188188,0.0179975946,-0.0027848789,0.0142281353
9.0451335907,-0.0054677394,-0.004484931,-0.010971277,0.0659600645,0.0061364439,0.0141367875
9.0551166534,-0.0008248056,0.0035793986,-0.0053727911,0.0872850567,0.0094986856,0.0130377021
9.0654840469,0.0048968825,-0.005873898,0.0043292954,0.0894157141,0.007433936,0.0194230303
9.0753479004,0.0114859678,-0.0055815373,0.0120244939,0.0808952004,0.00313666,0.024769593
9.0853214264,0.0111700632,-0.0064444337,0.0213584621,0.0371290781,-0.0013771319,0.0365157276
9.095328331,0.0099091567,-0.0153067503,0.0244328696,-0.0055562006,-0.0059180884,0.0440113284
9.1052837372,0.0104334392,-0.0076963101,0.0251537878,-0.0396774188,-0.0125493594,0.0493901148
9.1153526306,0.0090556778,-0.0070583019,0.0275174696,-0.0780417174,-0.0203284528,0.0494677462
9.1252765656,0.0087000169,-0.0074754748,0.0266887862,-0.0918914825,-0.023641957,0.0494989045
9.1353111267,0.0073140594,0.0057082381,0.019808026,-0.0950523913,-0.026913384,0.0442080051
9.1452627182,0.002155069,0.0091371741,0.0120092351,-0.0875739753,-0.0247815233,0.0367522202
9.1553411484,-5.18526e-05,0.0165186729,0.0042863204,-0.0790518522,-0.0194405559,0.0292775258
9.1652526855,-0.0099586807,0.0180576649,0.0014635636,-0.0790523887,-0.0152561963,0.0186264794
9.1753368378,-0.0100279413,0.0099948253,0.0028046682,-0.0599187762,-0.0023497182,0.0110943932
9.185256958,-0.0101081096,0.0117843356,0.0004405095,-0.0312013738,0.0127810314,0.0046018725
9.1953163147,-0.01508471,0.0184643473,-0.0056450055,-0.0142249223,0.0267732795,0.0002482701
9.2052440643,-0.0122008286,0.0116542783,-0.0016534016,0.0017822729,0.0289983507,-0.0040269024
9.2153110504,-0.0142223202,0.0165639725,-0.0025098608,0.0135089699,0.0333102755,-0.0104376636
9.2252311707,-0.0083728991,0.0137904491,0.0017475798,0.0252553746,0.0344335958,-0.0147027159
9.2352342606,-0.0054488149,0.0159273949,0.007985861,0.030637091,0.0301744025,-0.0178668182
9.2452659607,-0.0082079135,0.0092022028,0.0034616902,0.0285390522,0.0269245468,-0.0210314523
9.2552270889,-0.0099750422,0.0034572091,-0.0010986612,0.0232207198,0.0247436836,-0.0210125446
9.2652826309,-0.0078958236,0.0045785513,0.0001215055,0.0083387094,0.0171470176,-0.0209528878
9.2751750946,-0.00578275,0.0017640796,0.0050663068,-0.0107937064,0.0063297902,-0.0187448617
9.2852869034,0.0011067127,0.0116164889,0.0079135606,-0.0107284579,-0.00325253,-0.0144332042
9.2952013016,0.0060768756,0.0175268259,0.0087452848,-0.0171057992,-0.0075564645,-0.0122772427
9.3052310944,0.0111681856,0.0126425829,0.0037148907,-0.0213332996,-0.0118825035,-0.0143710198
9.3152179718,0.0113559999,0.0087047424,0.0044423654,-0.0308790002,-0.0194365606,-0.0143160243
9.3252468109,0.0106522478,0.002819499,0.0031750514,-0.0255667921,-0.0151475389,-0.0175347216
9.335187912,0.008912269,0.0057134833,-3.20361e-05,-0.0191929154,-0.0108345496,-0.0186283495
9.345208168,0.010061834,0.0086712446,-0.0001858161,-0.0075149545,-0.0022120329,-0.0208172016
9.3551702499,0.0093073882,0.0067677107,-0.0031326697,0.0074003446,0.002160345,-0.0229807533
9.3651819229,0.0076217684,0.0039323773,-0.0049588964,0.0190902911,0.0117972596,-0.0315505378
9.3751592636,0.0068921777,0.0031251516,-0.0047285841,0.0265327618,0.0171587355,-0.0369050913
9.3852386475,0.006230298,-0.0044929776,-0.0053170607,0.0371521153,0.0247042701,-0.0390862189
9.3951501846,0.0083200373,-0.0003090295,0.0009920313,0.0413620397,0.0301230028,-0.0338107646
9.4052152634,0.0036730503,-0.0059981141,0.0014203503,0.0327650905,0.0354368091,-0.029589653
9.415140152,0.0037753021,-0.0048492346,0.0027289703,0.0146282967,0.0321358219,-0.0242437571
9.4251346588,0.0028707122,-0.0057403836,0.005813749,-0.0013506701,0.0256539527,-0.0178162176
9.4351596832,0.0029056703,-0.0086407457,0.0126069505,-0.023696322,0.0137956962,-0.0092239277
9.4451436996,0.0039038097,-0.0077083502,0.0133696515,-0.0321316198,-0.0001366314,-0.0059405165
9.4551429749,0.0039615664,-0.0087728295,0.0121044833,-0.0342283249,-0.005480797,-0.0037785624
9.4651145935,-0.0007981027,-0.0118794236,0.0039155199,-0.0341542885,-0.0161318425,0.0005400195
9.4750738144,-0.0017240013,-0.0090651307,-0.0022620247,-0.0181666687,-0.0138569707,0.0015742579
9.485124588,-0.0018070007,0.0045441594,-0.0053717182,0.0009955745,-0.0083466247,0.0036499258
9.4951171875,-0.0037752951,0.007480463,-0.0053378032,0.0148545327,-0.0050557563,0.0014963604
9.5050926208,0.000138167,0.001738688,-0.0011804984,0.0244048946,0.0014399597,0.0025099597
9.5150661469,0.0030953323,-0.0049910937,8.36565e-05,0.0265130512,0.00675483,-0.0028379341
9.525097847,0.0041124257,-0.0127086435,-0.0015232251,0.0338987969,0.0164492689,-0.0007811747
9.5351247787,0.0011535918,-0.0165154133,0.0017907335,0.0359823182,0.0228730794,-0.0018886504
9.5450296402,-0.0018666352,-0.0115384851,0.0031068637,0.0317092799,0.0228491127,-0.0008231195
9.5552635193,-0.0039456156,-0.0046044979,0.0082839448,0.0295957942,0.0206855591,-0.0018697418
9.5650672913,-0.0059966412,-0.0005829725,0.0134679396,0.0307124574,0.0142905116,-0.0007666606
9.5750675201,-0.0069798199,-0.0014812145,0.0118276784,0.0296764877,0.0089721791,0.003519431
9.5851392746,-0.0060607162,-0.0014197621,0.0110921571,0.0211567692,0.0057180617,0.0056712646
9.5953397751,-0.0061158803,-0.0004266295,0.0073543503,0.0115568731,0.0035345361,0.0088787759
9.6051149368,-0.0061636535,-0.0033830199,0.0064440086,-0.0023104725,0.0023584843,0.0088960864
9.6150417328,-0.0023381079,-0.0033794437,0.0073989346,-0.0129782967,0.0033063032,0.0046488773
9.6251049042,-0.0042990413,-0.0044669304,0.0004162504,-0.0204905421,0.0085830912,0.0035575142
9.6350097656,-0.0023826922,-0.0025821719,-0.0016958998,-0.022640245,0.0117413336,-0.0007133973
9.6450967789,0.0014628207,-0.0006395969,0.0039851381,-0.0279175658,0.0052695852,-0.0027925272
9.6550254822,0.0053999755,0.0002774206,0.0027727797,-0.0278963931,0.0031228114,-0.0038408805
9.6650848389,0.0063747796,0.0051101651,0.0054033711,-0.0417304523,-0.0012775298,-0.0059274673
9.6750221252,0.0074515375,0.0001300183,0.0060506775,-0.0352958515,-0.0044440283,-0.0069734235
9.685087204,0.0094959773,-0.0009259376,0.0047300174,-0.0416472256,-0.0129981013,-0.0016015616
9.6950006485,0.0075731906,-0.0039800201,0.0091545302,-0.0469735488,-0.0162056126,0.0026706813
9.7049999237,0.0085617937,-0.0012054835,0.0058017089,-0.0363328904,-0.0128987655,0.004766589
9.7150259018,0.0055492255,0.0074348059,0.0063335611,-0.0341882445,-0.0160447583,0.0100982375
9.7249526978,0.0054836306,0.0024464931,0.0128546068,-0.0309841931,-0.0170706082,0.0122274356
9.7350597382,0.0034986769,0.0003211704,0.0086009214,-0.0331727788,-0.0106726298,0.012186422
9.744977951,-0.0043508378,-0.0018638168,0.0014126613,-0.0300443657,-0.0020889947,0.0131909661
9.7550430298,-0.0035026933,0.0009328928,0.0001520826,-0.0311573017,0.0042985971,0.0120916134
9.764966011,-0.0045603481,-0.0069942866,0.0048033907,-0.0290052015,0.0042698351,0.0067783408
9.7749948502,-0.0017622674,-0.0002537164,0.0026171519,-0.027953919,0.0064104842,0.0056993612
9.7849683762,0.004016045,-0.0041910801,0.0092681963,-0.0300676711,0.0042474642,0.0046524727
9.7950210571,0.0049552354,-0.0072161946,0.0080682347,-0.0268865228,0.0074656284,0.0035688325
9.8049468994,0.0029765402,-0.0024821553,-0.0028733895,-0.0130157145,0.0086326245,0.0024891871
9.8149271011,-0.0010453428,0.0042625275,-0.0039846585,-0.0055705812,0.0108502395,0.004592285
9.8249721527,-0.0001810158,0.0072215404,-0.0009855912,0.0093641598,0.0120345475,0.0045741759
9.8349494934,-0.0051881042,0.0140032377,-0.0038523958,0.0136153633,0.0121171046,0.0109473867
9.8449993134,-0.0062638787,0.0091653075,0.00028214,0.0242962372,0.012181554,0.008814727
9.8549261093,-0.0014906491,0.0073147025,0.0006308868,0.0339358151,0.0079873418,0.0098989001
9.8649768829,-0.0054013398,-0.0014384184,0.0009156181,0.0254648328,0.002514279,0.0025035683
9.8748989105,-0.0015308226,-0.0061965976,0.008022638,0.0190865621,-0.0007430332,0.001463071
9.8849992752,0.001374427,-0.006137887,0.0100996811,0.0042045517,-0.0083397003,0.0015227259
9.8949136734,0.0003912782,-0.0080980454,0.0129708964,-0.0107590854,-0.0084022842,0.0079085864
9.9049463272,0.0031733846,-0.0003529582,0.0146974633,-0.0342641473,-0.0095711462,0.0174941029
9.9148950577,-0.0018772448,0.0032858457,0.0112788398,-0.0534899011,-0.0107328165,0.02388875
9.9249582291,-0.0001646246,0.0079099741,0.0106790382,-0.0684225112,-0.015059921,0.031363979
9.9348840714,0.0005798971,0.0105238762,0.0070948317,-0.0587855987,-0.0171550289,0.0281860288
9.9449501038,-0.0015503133,0.0112109985,0.0016361191,-0.0534169339,-0.0213796031,0.0292720646
9.9548740387,-0.0016994441,0.0070871916,0.0011987402,-0.029936241,-0.0191023331,0.0239272341
9.9648714066,0.001066867,0.0119019952,0.0020100786,0.004251556,-0.0189196393,0.014340654
9.974899292,7.0337e-05,0.0128927436,0.0011279895,0.0330874659,-0.0166482311,0.0036810846
9.984872818,0.0011747514,0.0061916914,-0.0004497455,0.0554846488,-0.0101530459,-0.0070005879
9.9948549271,0.0003320907,0.0053968038,-0.0019440935,0.0564682856,0.0015789769,-0.0102620283
10.0048532486,-0.0005196894,-0.0041880403,-0.0004535005,0.0457346812,0.0079268869,-0.0081709139
10.0149154663,0.0042890641,0.0008714405,0.0057627275,0.02322831,0.015310768,0.0002942097
10.0248394012,0.0051176581,0.0058132019,0.0127162654,-0.0012738379,0.0055838386,0.0099359173
10.034866333,0.009756539,0.0155630317,0.0204183776,-0.0204284918,-0.0041292422,0.0163867604
10.0448293686,0.0077105495,0.0095417704,0.0220403988,-0.041660279,-0.0192384198,0.0186243486
10.054889679,0.0057415697,0.0063718762,0.015686186,-0.0490175262,-0.0310985427,0.0133949649
10.0648803711,0.0037743186,0.0081066098,0.0140886027,-0.059696801,-0.0301214289,0.0123336948
10.074886322,0.002901349,0.0020165052,0.0076161935,-0.0617897734,-0.0323387757,0.0049127969
10.0848760605,0.0019766127,0.0057089534,0.0040332987,-0.0543568954,-0.0259048454,0.000616319
10.0948839188,0.0049800309,0.006587049,0.0035782172,-0.0362466052,-0.0193974115,-0.0047504827
10.1048688889,0.003078047,0.0142946448,0.0012334301,-0.0224602167,-0.0075522037,-0.0069617056
10.1148319244,-0.0026749934,0.0132247414,-0.0057499693,0.0051514381,0.009762072,-0.0070932657
10.1247024536,-0.0056440798,0.0239929762,-0.007587044,0.0306615923,0.0238355473,-0.0093271248
10.1349449158,-0.0065852073,0.0192529168,-0.0081244987,0.0508954898,0.0314351432,-0.0136390496
10.1450357437,-0.0065371362,0.0155975427,-0.0045088218,0.0743427649,0.0379838571,-0.0190098453
10.1548976898,-0.0054759351,0.0149322953,-0.0027239607,0.0732745677,0.0411157347,-0.0264648348
10.1648254395,-0.0052763787,0.0025489535,0.0058527901,0.0551972948,0.0334761888,-0.0285274498
10.1747293472,-0.0011672939,-8.77771e-05,0.0074056699,0.0392610729,0.0268811379,-0.0359125324
10.1848297119,0.0020163094,-0.002785245,0.0135554383,0.0041299826,0.0169539377,-0.0400731862
10.1947898865,0.0101739205,-0.0113942418,0.0184617359,-0.0330944806,0.0006290274,-0.0399388298
10.204706192,0.0104578771,-0.0055455957,0.0209049899,-0.0693030879,-0.011371443,-0.0355861597
10.2148447037,0.0098311342,-0.0056991968,0.0191331822,-0.0959853008,-0.0147238299,-0.0291743334
10.2248659134,0.0100745,0.0008939114,0.0132826874,-0.1013395861,-0.0147198355,-0.0238586627
