0.0000000000,0.0020009237,-0.0039317938,-0.0032369480,0.0520307496,-0.0742696896,-0.0658134669
0.0099340677,0.0137481494,0.0008999375,-0.0098975282,0.0694917664,-0.0849151388,-0.0718537793
0.0198889971,0.0188866965,0.0078074005,-0.005502759,0.085163936,-0.0890267938,-0.0805194452
0.0298280716,0.0089545799,0.0123611959,0.0030539646,0.1045733169,-0.0784561783,-0.083053045
0.0396430492,-0.0037121368,0.0125935944,0.0091679702,0.1112903431,-0.0699622929,-0.0801957399
0.0496799946,-0.0188178308,0.0100670727,0.0095621953,0.1024712846,-0.0538506992,-0.0669731423
0.0628390312,-0.0273977555,0.0062708524,0.0162145514,0.083520323,-0.0469320752,-0.0538963862
0.0696339607,-0.0254112221,0.0034479764,0.0144112129,0.0701389983,-0.0458513647,-0.042366229
0.0793969631,-0.018417526,-0.0013467404,0.0005505695,0.0732192174,-0.042680338,-0.0352700725
0.0894360542,-0.0059921038,-0.001505408,-0.0117728096,0.0530716032,-0.0475387424,-0.0343486182
0.0994349718,0.0001477557,0.0039571193,-0.0178547483,0.0306383744,-0.048395481,-0.0386496559
0.1091790199,0.0031797546,-0.0030749771,-0.0157503467,0.0112958364,-0.0501843281,-0.040661674
0.1193270683,0.0005058455,0.003824797,-0.0125061851,-0.0027831425,-0.0387681536,-0.042715773
0.1292450428,-0.0111740576,0.0082264217,-0.0060594664,-0.0139492434,-0.0294476226,-0.0427538529
0.1391379833,-0.0197555907,0.0021546152,0.0015827431,-0.0346268266,-0.0190855283,-0.0344275124
0.148900032,-0.0248355605,-0.0048669907,0.0053728833,-0.05878729,-0.0197585095,-0.0230928343
0.1588460207,-0.0206106789,-0.0063583585,0.0025618686,-0.0674389228,-0.0185619518,-0.0139652165
0.1690289974,-0.004474048,0.0081739696,-0.0102054458,-0.0549798533,-0.0262076203,-0.0132959643
0.1787099838,0.0078633381,0.0174281262,-0.0217056256,-0.029683467,-0.029793568,-0.0104927868
0.1885820627,0.0185551904,0.0211860202,-0.0267443042,-0.0072236974,-0.0331848375,-0.0111947963
0.1985709667,0.021246817,0.0251536034,-0.0221223217,0.0065829284,-0.0273336042,-0.0183899235
0.208556056,0.0132265193,0.0236604474,-0.0164498668,0.0128573356,-0.0187007021,-0.0162482094
0.2186319828,0.0025706249,0.0243691467,-0.0060282336,0.0168606006,-0.0036937895,-0.0132570826
0.2283650637,-0.0054910225,0.0245192312,-0.0006195889,0.0126972804,0.0081090741,-0.0034691659
0.2383049726,-0.0102227228,0.0171883367,0.0062717809,0.000955048,0.0203470979,0.0015052529
0.2481800318,-0.0148855345,0.0072340039,0.0086873779,-0.030121645,0.2008561492,-0.1507852226
0.2581410408,-0.1598825455,-0.0265137292,-0.0104525071,-0.0377831161,0.3409887552,-0.2623398304
0.2680710554,-0.2166171819,-0.0500280596,-0.029430924,-0.0432295464,0.1718005389,-0.0788983777
0.2780580521,-0.0431008376,-0.0039503905,-0.0266396385,-0.0435879193,0.0431368314,0.0174265951
0.287907958,0.0240380578,0.0132400664,-0.0213565808,-0.035076987,0.0212773401,-0.0038509965
0.297845006,-0.0011500311,0.0066931513,-0.0209680777,-0.0284202415,0.0151038663,0.0050738556
0.3077880144,0.008595462,0.014308718,-0.0114178639,-0.0242382791,0.0213013086,-0.0004223762
0.317702055,-0.0096756266,0.0077066091,0.0003704443,-0.0337674245,0.0304119829,0.0065724496
0.3276079893,-0.0192208774,0.0034598974,0.0040473356,-0.0410343893,0.0310455486,0.0140372897
0.3375999928,-0.0138308154,0.0003571776,0.0129662175,-0.0411785543,0.0215700213,0.0224911962
0.3474650383,0.0045399028,0.0024057892,0.0157852788,-0.0269836411,0.0137776127,0.0239186492
0.3574479818,0.0237471126,0.0089332135,-0.0031788931,-0.0033544796,0.0028266942,0.0194150768
0.3673009872,0.0344017409,0.0142650278,-0.0143166166,0.0213708393,-0.0073793381,0.0083509749
0.3773289919,0.0410045348,0.0158903264,-0.0126732579,0.0522721186,-0.0137637341,0.0014899066
0.3873720169,0.0380539708,0.0192210935,-0.0049708472,0.0731787309,-0.0153403254,0.0009942923
0.3970739841,0.0230059139,0.0227377079,0.0002669706,0.0838108733,-0.0077921283,0.0033533536
0.4070199728,0.003467645,0.0128954323,0.0107856402,0.0812646225,0.0038030089,0.00976012
0.4169470072,-0.0097291516,0.0008881954,0.0264291782,0.0677914247,0.0085820518,0.0224130321
0.4268629551,-0.0110239731,-0.0052113864,0.0349518657,0.0436019301,0.0175502468,0.0287433658
0.4367749691,-0.0052881581,-0.011089596,0.0262482781,0.0172662884,0.0163020231,0.0289579164
0.4467520714,0.0078282608,-0.0131849973,0.0188676734,0.0012415149,0.0166109502,0.0184384305
0.4566329718,0.016164612,-0.0111551611,0.0160036702,-0.0142254131,0.0162205286,0.0051418329
0.4665679932,0.0173696838,-0.0160226561,0.0164496321,-0.0323056169,0.0147280945,-0.0051153321
0.476485014,0.0147978915,-0.0175595619,0.0124303121,-0.0516778044,0.0210051648,-0.0094247591
0.4864300489,0.0065563577,-0.0200050808,0.0141146798,-0.0667971075,0.0238595419,-0.0093171671
0.4963179827,0.0012579071,-0.023335848,0.02194524,-0.0751830414,0.0179973915,-0.0035767241
0.5062689781,0.0062976587,-0.0198705532,0.0211864132,-0.0679906383,0.0096270759,-0.0020190415
0.5161759853,0.0138319833,-0.0115497438,0.0129094739,-0.0524041355,-0.0024205321,-0.0045703165
0.5260989666,0.0252228789,0.0019323495,0.0039723529,-0.0226595569,-0.0153634949,-0.0123853618
0.5360250473,0.0332892202,0.016555097,-0.0008433447,0.0089652147,-0.0246584602,-0.0231804848
0.5459929705,0.0379722081,0.0285418294,0.0055683269,0.0474798493,-0.0343739353,-0.0321537405
0.5560959578,0.0358901434,0.0358195566,0.0157281775,0.0756516531,-0.0283895489,-0.0342966206
0.5657919645,0.0234909914,0.0296488665,0.0203017611,0.0914260894,-0.0214592051,-0.0259449463
0.5757290125,0.0073763984,0.0140611203,0.028680684,0.0847748518,-0.0145847863,-0.0126761133
0.5856499672,-0.0034954441,-0.0004330608,0.0359706879,0.0663777292,-0.0092637902,0.0002527351
0.595615983,-0.0100026773,-0.0086129634,0.0370602012,0.0421814881,-0.0077732196,0.0093732961
0.6055150032,-0.0085427063,-0.0123153059,0.0343512297,0.0146942064,-0.0115415929,0.0101381559
0.6155099869,-0.0006849212,-0.0135398833,0.0224632639,-0.009431636,-0.0189182814,0.0083408216
0.6253019571,0.0096381409,-0.0179593302,0.0118201394,-0.0271192864,-0.0194770135,0.0016253948
0.6354900599,0.0132328523,-0.0235603787,0.0055953874,-0.0428324677,-0.0241804216,-0.0088030118
0.6453469992,0.0118177785,-0.0250209905,0.0086080441,-0.0678946823,-0.0233023781,-0.012158595
0.6551179886,0.0060645449,-0.024678681,0.0133724231,-0.0863463953,-0.0226600245,-0.0176284276
0.6653009653,-0.0028632176,-0.0217119791,0.0162308831,-0.1001871079,-0.0273671616,-0.0232429039
0.6750190258,-0.0009484184,-0.0173117258,0.0171703119,-0.0988152251,-0.0328332968,-0.0279093273
0.6848920584,0.007968138,-0.0104818074,0.0061714067,-0.0772382915,-0.0446638577,-0.0336244702
0.6948859692,0.0192591511,-0.0033392641,0.0031923666,-0.0477143116,-0.0596393459,-0.0327411331
0.7049900293,0.0263183378,0.0107156904,-0.0001571761,-0.004733819,-0.0692733377,-0.0413545966
0.7146849632,0.0262348466,0.0209292434,-0.0021602497,0.042127341,-0.0744071081,-0.0471522324
0.7246450186,0.0222951733,0.0270847343,-0.0013044463,0.0838159323,-0.0703612342,-0.0467852466
0.7345460653,0.0130680157,0.0266220234,0.0028855219,0.1103808731,-0.066410698,-0.044560343
0.7447710037,0.004572894,0.0175331496,0.00895405,0.1217858568,-0.0614731982,-0.0365761854
0.7544400692,-0.0017103595,0.0102394493,0.0093312869,0.1255421638,-0.0584113635,-0.033117637
0.7643250227,-0.0007611853,0.0053841141,0.0027590408,0.1197167635,-0.0575753972,-0.0261963494
0.7742530107,0.0057667303,0.0035162834,-0.0095537286,0.1193476468,-0.0617845245,-0.0321369283
0.7841520309,0.0166100673,0.0010247496,-0.0142108779,0.1071583554,-0.0606356338,-0.0374022648
0.7941180468,0.0197351389,0.0018307832,-0.0150179248,0.0849939361,-0.0568704568,-0.0378630236
0.8040109873,0.0148363216,0.0049596098,-0.0084026437,0.0653307512,-0.0469248816,-0.0419941209
0.8140150309,0.0017181593,0.0015744236,-0.0045735226,0.0409004204,-0.028035881,-0.0429361165
0.8238719702,-0.0116492258,-0.0071227881,-0.0011663423,0.0100317225,-0.01079138,-0.0371679738
0.8340539932,-0.014566456,-0.0107196895,0.0015693321,-0.034692958,0.0011022972,-0.0207709912
0.8437620401,-0.0120522873,-0.0027051303,0.0068957224,-0.0601541176,0.0059556421,-0.0188021157
0.8536399603,-0.0055264276,0.0001720455,0.0004819049,-0.0662164465,0.0061580422,-0.0177931115
0.8636430502,0.0064398157,0.0019830731,-0.0154947024,-0.0657820851,0.0051915813,-0.0187172275
0.8734869957,0.0196859054,0.0063495305,-0.0248531681,-0.0556612723,0.000663142,-0.0223917235
0.883466959,0.0230754875,0.0111898454,-0.0218793731,-0.0420341417,0.0017515759,-0.026735073
0.8931770325,0.0143071217,0.018257644,-0.0158582907,-0.0284520201,0.0076129274,-0.0226921272
0.9032839537,0.0027507651,0.0193665884,-0.0109385829,-0.024735935,0.0196978189,-0.012337626
0.9132120609,-0.0086168395,0.0155271562,-0.0024948702,-0.0265879855,0.0247876532,-0.0037195031
0.9232090712,-0.0140197324,0.0060088304,0.0084709544,-0.0325409509,0.0272289719,0.0066620316
0.9330650568,-0.0123955952,0.0045748618,0.0095158229,-0.0342398696,0.0219870731,0.0139325615
0.9429830313,0.000369634,0.0046440628,0.0020707264,-0.0226878747,0.0133443158,0.0147624025
0.9529249668,0.0147014065,0.0080969008,-0.0100007635,-0.00296264,0.0037827687,0.0117071569
0.9628139734,0.0224019848,0.0108059319,-0.0186657291,0.0141692087,0.0015294682,0.0064191846
0.9726400375,0.0188690387,0.008861986,-0.0109149804,0.0239867754,-0.0028519644,0.0032001219
0.9826719761,0.0043786871,0.0045196083,-0.0002517686,0.0269665867,0.0011118846,0.0078284293
0.9926220179,-0.0074324501,0.0003015664,0.0056172027,0.0202579945,0.0035268392,0.0103594977
1.0025399923,-0.0129853534,-0.0040685269,0.0069724931,0.0123025998,0.0030453396,0.0165651962
1.0127129555,-0.0080697732,-0.0061601135,0.004549922,0.0072359354,-0.0004710983,0.0226552449
1.0223840475,0.0027802545,-0.0043882462,0.0022178306,0.0138757285,-0.004331084,0.0198125876
1.0322920084,0.0094889654,-0.0004029605,0.0002171411,0.0229706019,-0.0095998822,0.0129599422
1.0422500372,0.0136389835,-0.000766668,0.0010437383,0.0309670083,-0.0160489939,0.0060335919
1.052355051,0.0132704778,0.0028267768,0.0005114092,0.0351252705,-0.0118928635,0.0024254085
1.0621520281,0.0057311165,0.0017785099,0.0058909669,0.0374941491,-0.0102949664,-0.0008127291
1.0719970465,-0.0042073769,-0.0031357738,0.0105211148,0.0328226984,-0.0085580535,0.0012086433
1.0819990635,-0.0096873688,-0.0065931412,0.0111425538,0.0332791656,-0.0064237956,0.005850533
1.0918600559,-0.0029301387,-0.0061531994,0.0069986,0.0237021726,-0.0049614543,0.0073107108
1.1018190384,0.0011977809,-0.007582936,0.0045114174,0.0179023407,-0.0068400479,0.0068963235
1.1118509769,0.0043159681,-0.0108651249,0.0053707375,0.0077377642,-0.0110550327,0.0058477698
1.1216759682,0.0063474583,-0.0115490286,0.005984725,-0.000818972,-0.0107530309,0.0108454581
1.1318310499,0.0064794826,-0.0052753421,0.0068467273,-0.0109855011,-0.0113165556,0.0058774976
1.141463995,0.002053197,-0.0049871537,0.0109052081,-0.0155016892,-0.0072168852,0.0057781618
1.1513689756,-0.0032711667,-0.0064960453,0.0127628464,-0.022776112,-0.0058919624,0.0053459974
1.1613490582,-0.0039243144,-0.0072630974,0.01465136,-0.0274901763,-0.0047630486,-0.0004993749
1.1712729931,-0.001606856,-0.0078649847,0.012551846,-0.0316376947,-0.0105122812,-0.0069697909
1.1811670065,-0.0004141969,-0.0106814234,0.0108876843,-0.0324672684,-0.0158865396,-0.005476024
1.1911270618,0.0062746364,-0.0099201528,0.0024405136,-0.026323,-0.0223436393,-0.0100678131
1.2010350227,0.0118343337,-0.005764279,-0.0062188492,-0.0136535447,-0.0242171735,-0.0091655338
1.210991025,0.0152483983,-0.0070430371,-0.0066837654,-0.0002589095,-0.0241529923,-0.0109195588
1.2209069729,0.0128371669,-0.0042581889,0.0014908924,0.0056290734,-0.0231625624,-0.0126825711
1.2308239937,0.00752994,-0.002106938,0.0101853022,0.0106135346,-0.0196482558,-0.012776481
1.2407300472,0.0021351534,0.0015129116,0.0142014045,0.0133858845,-0.0205247011,-0.0218690448
1.2506660223,-0.0023574126,0.000442293,0.017166676,0.0111728869,-0.0204224363,-0.0230518542
1.2605099678,-0.0004237336,-0.0066809985,0.0133435149,0.0026941807,-0.0235884022,-0.0233535916
1.2705470324,0.0046465355,-0.0077607962,0.0045766248,0.0007968559,-0.0212120637,-0.0278938822
1.2804909945,0.0091435267,-0.0060120556,-0.003295599,0.0041670864,-0.0290255118,-0.0276888181
1.2903569937,0.0106624914,-0.0046125385,-0.0070205317,-0.0024155369,-0.0299530886,-0.0278188474
1.3005490303,0.0119179441,7.56052e-05,-0.0094935885,-0.0074140243,-0.026889123,-0.0257445108
1.3101769686,0.0101546748,0.0009824303,-0.0059369192,-0.0024056835,-0.0275690276,-0.0224669911
1.3201340437,0.0088901324,0.0028625396,-0.0072585926,-0.0022538835,-0.017473517,-0.0113906385
1.3301130533,0.0047765779,0.0133248838,-0.0041849003,-0.0028850525,-0.0154172909,-0.0107697556
1.3399989605,-0.0025698585,0.0159744881,0.0060743704,-0.0045173042,-0.0101974951,-0.0071438616
1.3499779701,-0.0053710085,0.0117425593,0.0051152124,-0.0154142492,-0.0062498916,-0.0055616116
1.3598899841,-0.0014697951,0.0120789679,-0.0041812048,-0.022075614,-0.0042834133,-0.0046356302
1.3697750568,0.0038740593,0.0138005884,-0.0107132178,-0.0264070667,-0.0044677043,-0.0081656165
1.3798960447,0.0049490589,0.0165012144,-0.0118247848,-0.0253569838,-0.0029539634,-0.0068396288
1.3896330595,0.0015805322,0.0144998105,-0.0120769124,-0.0247872453,-0.0015563365,-0.0059142141
1.3995139599,-0.0003652913,0.0138694318,-0.0132960659,-0.0274980776,0.0039137965,0.0036744976
1.4094760418,-0.004849155,0.0125643881,-0.008088409,-0.027311746,0.0055071656,0.0094504617
1.4194120169,-0.0078761773,0.0100773843,-0.0002755509,-0.0262347609,0.0084928358,0.0154558886
1.4293270111,-0.0089694159,0.0099044712,0.0048968806,-0.0214420483,0.0076249111,0.0170627069
1.4392830133,-0.00839967,0.0089769633,0.0020933761,-0.0158225112,0.0038954206,0.0172443353
1.4491679668,-0.000902493,0.0070308712,-0.0019692169,-0.0121791298,-0.002314006,0.013341872
1.4591510296,0.0081484867,0.0054489044,-0.0063603506,-0.0019075838,-0.0064464328,0.0132124424
1.4691660404,0.0132448627,0.0098179849,-0.0125603657,0.0086688939,-0.0069769346,0.0133038219
1.4789520502,0.0090721501,0.0116417678,-0.0120623093,0.014794698,0.0026226959,0.0144580361
1.4888420105,0.0024884897,0.0062483218,-0.0072603212,0.0111895762,0.0062107728,0.0193954036
1.4988410473,-0.0035460186,-0.0040545198,-0.0005474673,0.0017057932,0.0173968486,0.0291553549
1.5088720322,-0.0071064574,-0.0065070125,0.0043267026,-0.0141366422,0.0231668539,0.0320643596
1.5187189579,-0.0040517789,-0.0047948095,0.0123227853,-0.0173132606,0.0245599523,0.024495123
1.5285580158,0.0013607698,-0.0053887698,0.0124436039,-0.0253856573,0.0197092704,0.0157179125
1.5385739803,0.0056779641,-0.0038369033,0.0084107537,-0.0302187614,0.0137336701,0.0069822101
1.5488370657,0.0112644387,-0.0045610997,0.0003498807,-0.0291773751,0.0101642348,-0.0018037914
1.5583280325,0.0109117879,-0.00750694,-0.0072273002,-0.0239250902,0.0055138231,-0.0050778817
1.5682640076,0.00682437,-0.0055481526,-0.0090162149,-0.0169049092,0.0065090465,-0.0052526509
1.5782669783,-0.0001936299,-0.0051477882,-0.006659864,-0.0048487787,0.0096108308,-0.0034049505
1.5882450342,-0.0044056964,-0.0061800214,0.0010154857,-0.0027645007,0.0048735994,0.0013938661
1.5980690718,-0.0082387077,-0.0068010422,0.0076617613,0.0021996317,0.0004554154,0.0040098894
1.6079579592,-0.0039523435,-0.0115518896,0.0091562876,0.0136412829,-0.0065439045,-0.0019954722
1.6179400682,0.0017752904,-0.0141619174,0.0065359487,0.0222744513,-0.0196943264,-0.0083095618
1.6278020144,0.0131239397,-0.0121637909,0.0020747795,0.0382672697,-0.0286963452,-0.0207356028
1.6377650499,0.0190636925,-0.0058806869,-0.0059146867,0.0491470806,-0.0351694264,-0.0285980552
1.6476889849,0.0190445445,0.0001666811,-0.0061489926,0.0667813718,-0.0363675803,-0.0347059816
1.6575980186,0.0073673981,-0.0018023583,-0.0010758028,0.0689792857,-0.0297349766,-0.0371334553
1.6675280333,-0.0035778922,-0.008462104,0.0067231669,0.0636483431,-0.0150796026,-0.0340410545
1.6775109768,-0.0113274949,-0.013826224,0.0094713578,0.0575630218,-0.0108214738,-0.0256188102
1.687376976,-0.0192869045,-0.013263735,0.0216289181,0.0570191182,-0.0089324936,-0.0206658952
1.6972990036,-0.0187446512,-0.0089590875,0.0274930615,0.0496900976,-0.0044597145,-0.0215663109
1.7072319984,-0.0154463844,-0.0097881882,0.0238773245,0.0312267561,-0.0115045747,-0.0256869197
1.7171419859,-0.0078155743,-0.0200591423,0.012564661,0.011505249,-0.0105426414,-0.0294355862
1.7271330357,0.0012724358,-0.0237498023,-0.0007243739,0.0041680634,-0.0221979637,-0.0357095264
1.7370090485,0.0070543098,-0.0163838007,-0.0055834637,0.0047536921,-0.0274105687,-0.0453176796
1.7469830513,0.004498865,-0.0140719144,-0.0076956139,0.0097470302,-0.0269687511,-0.0472610854
1.7568600178,0.0036186087,-0.0041330191,-0.0128349056,0.0032936581,-0.0195851382,-0.0505239926
1.7667679787,-0.0028289449,-0.0030832621,-0.0047651515,-0.0052110581,-0.0107612861,-0.0542133711
1.7766979933,-0.0079661505,-0.0102086393,0.0076076402,-0.0200129077,-0.0098329084,-0.0501730889
1.7866910696,-0.0107998597,-0.0152500598,0.0142020602,-0.0354776159,-0.0118803466,-0.0457999781
1.7967389822,-0.006402899,-0.0084029166,0.0142169604,-0.0412263162,-0.0170396883,-0.0457174219
1.8065149784,0.0005701589,-0.0011763903,0.0090474496,-0.0352096111,-0.0260611475,-0.0463606045
1.816362977,0.0075218785,0.0001444486,-0.0023888932,-0.0175576508,-0.0305589586,-0.0463363715
1.8263880014,0.0169497691,0.0010675457,-0.0074636326,0.0064659272,-0.0341619514,-0.0498304069
1.8362489939,0.0185980462,0.0081813606,-0.011349855,0.0218302365,-0.0319398083,-0.0499134958
1.8461740017,0.0108519448,0.0121022733,-0.004059969,0.0334148109,-0.0318162404,-0.0529478714
1.8563350439,-0.0003465456,0.0136960419,0.0013569011,0.0300317947,-0.0219050162,-0.0483110398
1.8660260439,-0.0120389061,0.0098951133,0.0078197727,0.0180237796,-0.0128015336,-0.04106218
1.8761490583,-0.0183086731,0.001527634,0.0113737602,0.0005475846,-0.0101551507,-0.0348402373
1.8858699799,-0.0110711949,-0.0089060394,0.0085409889,-0.0202846378,-0.0148268677,-0.0283879992
1.8958010674,-0.0015985859,-0.0063143703,0.0059310808,-0.0322315767,-0.0185462385,-0.0230843127
1.905714035,0.0113887591,0.004261699,-0.0051248656,-0.0283280071,-0.0233748164,-0.0293874815
1.9156399965,0.0151364459,0.0108405622,-0.0164841395,-0.022449078,-0.0261538252,-0.0320383906
1.9257229567,0.0139839752,0.0121374996,-0.0152469259,-0.0192127153,-0.0195015147,-0.0340318009
1.9355000257,0.0095812483,0.0074982909,-0.0123936515,-0.0127201956,-0.0182450358,-0.0295643508
1.9454400539,0.0022070366,0.0108462246,-0.0091787567,-0.0156913064,-0.007903981,-0.0236451402
1.9555569887,-0.0054877442,0.0175751112,-0.0029541836,-0.0258552618,0.0029718364,-0.0178130846
1.9652570486,-0.0095714377,0.0156569146,0.001739861,-0.0357602648,0.0139874695,-0.0070491536
1.9753659964,-0.0108869718,0.0070493487,0.0043671741,-0.0486451723,0.0175113641,0.0008732183
1.9851230383,-0.0030790013,0.0016950038,0.0054186,-0.0597544573,0.016348362,0.0083669871
1.9950489998,0.0074372846,0.0044229296,0.0013790741,-0.0585208796,0.0135475155,0.0092572821
2.0049848557,0.0194160305,0.0154614123,-0.0117000919,-0.0401029065,0.0104819499,0.0052402033
2.014893055,0.0240152739,0.0187334083,-0.02476996,-0.0235715993,0.0080214562,0.0013421344
2.0248360634,0.0184161626,0.0179645084,-0.0218045097,-0.0100993775,0.0095234793,0.0035078502
2.0347518921,0.0092983944,0.0171861909,-0.0129944067,-0.0079619251,0.0125144757,0.0054977639
2.0447368622,-0.0002261442,0.0164348744,-0.0099995723,-0.0083762249,0.0178293455,0.0118633844
2.0546090603,-0.0101043331,0.0145939263,-0.003695427,-0.0149086928,0.0234715194,0.0135393124
2.064661026,-0.0121072279,0.0087091001,0.0013701334,-0.0221610125,0.0219268855,0.0204381645
2.0745768547,-0.0082357721,0.0016321209,0.0009105816,-0.0253847688,0.0184112471,0.0268337466
2.0844199657,0.0006197351,-0.0010595652,-0.0067277537,-0.0235495847,0.0131669492,0.0225236192
2.0943109989,0.0082028611,0.0014460352,-0.0149107557,-0.0210560672,0.0078435568,0.020238094
2.1042580605,0.0142219318,0.0069412855,-0.0187631231,-0.0071020792,0.0070336899,0.0169599429
2.1141381264,0.0107367737,0.0139881643,-0.013313828,0.0004706192,0.0103698308,0.0147375343
2.1243100166,0.0008752006,0.0093736919,-0.0022938834,0.0035499432,0.0169190764,0.0164288431
2.1340298653,-0.0103769498,0.0077876118,0.0052916422,-0.0024839807,0.02450376,0.0269336812
2.1440000534,-0.0167834945,0.0005514291,0.0124630947,-0.0111531019,0.0298532508,0.0333669782
2.1538610458,-0.0197733827,-0.0039052102,0.0153344292,-0.0193638951,0.022979632,0.0379835665
2.1637690067,-0.0140488343,-0.0068577263,0.0126439948,-0.0245738365,0.0186203048,0.0389770605
2.1737289429,-0.0024214876,-0.00157747,0.0031706109,-0.0170815662,0.0069548599,0.0423672646
2.1836130619,0.0086094392,0.0047161845,-0.0068163262,0.000582472,-0.0009557937,0.0348419398
2.193572998,0.013855706,0.0114094885,-0.0093778362,0.0172333531,-0.0049904827,0.034087196
2.2036881447,0.0149524314,0.0101293596,-0.0120132556,0.0346934795,-0.009214256,0.0321257785
2.2134139538,0.0082743568,0.0061442521,-0.004147111,0.046749346,-0.0099580772,0.0357154533
2.2233800888,-0.0036436063,0.0059897569,0.0080949673,0.0528052859,-0.0054477472,0.0421468243
2.2332491875,-0.0167020597,0.0019973186,0.0131331105,0.0454690754,0.0006996273,0.0492534675
2.2432260513,-0.0216120966,-0.0058805081,0.0182866473,0.0339047424,0.0027910075,0.0544905402
2.253123045,-0.0182804205,-0.0122436015,0.0223469753,0.0226824488,0.0025481272,0.05832709
2.2630391121,-0.0080905603,-0.0139450161,0.0197704453,0.0139667206,-0.0057039433,0.0557160601
2.2729568481,0.0065888423,-0.0108783571,0.0034222021,0.0109751914,-0.0103346473,0.0528060235
2.282957077,0.0152064664,-0.0058105323,-0.0075357542,0.0155301737,-0.0161014572,0.0431685746
2.2928271294,0.0169224106,-0.0054859254,-0.0092380634,0.0178639013,-0.0160202309,0.0337391235
2.3027939796,0.0086934967,-0.0008234116,0.0011531725,0.0206997246,-0.015174944,0.0326409005
2.3126368523,0.0008929479,0.0046521691,0.0101409564,0.0241570398,-0.0083077168,0.0318339653
2.3226151466,-0.0061916602,0.002398279,0.0135012288,0.0179772638,-0.0046296241,0.0314799286
2.3325328827,-0.011039828,-0.0069924328,0.0197843928,0.0123476069,-0.0053398893,0.0381972231
2.3424530029,-0.0090411948,-0.0130926101,0.0199971814,0.0082511324,-0.0100725936,0.0403674319
2.3525838852,-0.002396394,-0.0132048456,0.0111665148,0.0201088581,-0.0205073915,0.0385919027
2.3622729778,0.0097536994,-0.0073976251,-0.002143322,0.0381416529,-0.0284880847,0.0334315598
2.3724880219,0.0172976516,0.0010990766,-0.0090013128,0.0509655736,-0.0301573556,0.0285451915
2.382130146,0.0133689893,-8.1453e-05,-0.0035553561,0.0632263273,-0.0359342843,0.0245878007
2.3922970295,0.0065218466,-0.0024475786,0.0047073378,0.0694219023,-0.0328559391,0.0254546609
2.4019980431,-0.0034719897,9.19965e-05,0.0086488742,0.0711107031,-0.030635925,0.0246549472
2.4119839668,-0.010597025,5.85583e-05,0.0137953777,0.0892580152,-0.0306929164,0.0244458895
2.4218490124,-0.0112790512,0.0024865535,0.0135044474,0.0935456976,-0.0270094983,0.0241759121
2.4318890572,-0.0066361022,0.0014565256,0.0094469199,0.0951766223,-0.0301059559,0.0179728754
2.4417529106,0.001209836,-0.0065255496,0.0065085306,0.0837442949,-0.033201348,0.0140480762
2.4516768456,0.0071165818,-0.0108838407,0.0094754109,0.0644158721,-0.0215204582,0.0070868395
2.4615411758,0.0051893848,-0.0073641273,0.0116107482,0.0492388681,-0.0260060187,-0.0041189441
2.4715309143,0.0008361894,-0.0129515855,0.010340156,0.0296483897,-0.0244576577,-0.0072968942
2.4814469814,-0.0047317189,-0.0188507773,0.0094192633,0.0049006096,-0.019467691,-0.0073481263
2.4913289547,-0.0090987431,-0.0197223164,0.0076025142,-0.014834214,-0.0186277311,-0.0127394293
2.5012769699,-0.0111317681,-0.0234019496,0.0099509964,-0.033066567,-0.0208032671,-0.0158748012
2.5111889839,-0.0035556448,-0.0199163891,0.0081979651,-0.0404491164,-0.0232248791,-0.0159203429
2.5210990906,0.0049486416,-0.0090337722,-0.0027065859,-0.0340976566,-0.0353790149,-0.0242953189
2.5310389996,0.012612517,-0.0068068239,-0.0107288947,-0.0159700513,-0.0425037704,-0.0309715979
2.5409750938,0.0193048976,-0.0043433043,-0.0199037176,0.0038950001,-0.0474170335,-0.035370037
2.5508739948,0.0223689936,0.0033851531,-0.0203932505,0.0237155762,-0.0528576076,-0.0381373279
2.5608139038,0.0171700679,0.0090860398,-0.0074531422,0.0395155773,-0.0474204943,-0.036866568
2.5707330704,0.0055883038,0.0123223932,0.0031941547,0.0432011262,-0.0361590534,-0.0300914887
2.5806629658,-0.008189057,0.0092716487,0.0099527249,0.0401328988,-0.0273447894,-0.0214616153
2.5905909538,-0.0150025832,0.000514653,0.0132941622,0.0310371406,-0.0215364359,-0.0168484878
2.6005320549,-0.0124276476,-0.0019251439,0.0099560637,0.0228959434,-0.0161962658,-0.013490608
2.6106600761,-0.0075195027,-0.00750694,0.0026677265,0.010586814,-0.017654879,-0.0163828004
2.6203241348,0.0001482921,-0.0109528033,-0.0020609484,0.0029277399,-0.021381706,-0.0231279545
2.6302781105,0.0117353452,-0.0081649749,-0.0156894904,0.0017716615,-0.0225644168,-0.0294913128
2.6401860714,0.0142589165,-0.0058364603,-0.026841877,-0.0064662942,-0.0194106996,-0.0346879065
2.650138855,0.0080839349,-0.0045804116,-0.0239205938,-0.0210425742,-0.0057654623,-0.0392584242
2.6600120068,-0.0024465066,-0.0094586341,-0.0140919071,-0.0399608724,0.0070797619,-0.0378068313
2.6699929237,-0.0149270939,-0.0088715283,0.0034410371,-0.0660502613,0.0186429415,-0.0354222357
2.679970026,-0.0205753185,-0.005113754,0.0189084429,-0.0896519944,0.0288471095,-0.0320961475
2.6898841858,-0.0203057863,-0.0071693393,0.0239614863,-0.1053859517,0.0300165024,-0.0302143581
2.7000319958,-0.0142774628,-0.0061801407,0.0135883708,-0.1043349802,0.0190727748,-0.0320291072
2.7097449303,0.0016230005,-0.0048718783,-0.0047748671,-0.088810876,-0.0004053183,-0.0390838198
2.7196440697,0.0185378157,0.0012794402,-0.0253136735,-0.0584527031,-0.0135192554,-0.0398219153
2.7295451164,0.0261638723,0.0119416984,-0.0366951227,-0.0162280239,-0.0193017777,-0.0405968949
2.7394609451,0.0217139237,0.0214048885,-0.0319035053,0.0264082979,-0.0226355214,-0.0390402079
2.7493958473,0.0051081288,0.0200094245,-0.0202899557,0.0535605587,-0.0123525253,-0.0293849185
2.7593109608,-0.0093743252,0.0203621648,-0.007802783,0.0551485121,0.0032645178,-0.0182713475
2.7692930698,-0.0204412527,0.0130244764,0.0088891992,0.0510048978,0.0046770582,-0.0074349456
2.7793819904,-0.0220744051,0.0055393246,0.0176077504,0.0459018387,0.0029904784,-0.0007828684
2.7892050743,-0.012672727,0.0020087627,0.0058255806,0.0431483947,-0.0019848391,-0.0038857174
2.7991318703,0.0030311006,-0.0010417434,-0.0062895403,0.0376129262,-0.0085410085,-0.0080541968
2.8089489937,0.0156548582,-0.0041590664,-0.0157045703,0.03423604,-0.0121831475,-0.0157286283
2.8189389706,0.0222585909,-0.0029455158,-0.0202032905,0.0278274082,-0.013195416,-0.0243860334
2.8298070431,0.0178510211,0.0010054377,-0.0141234975,0.0250023268,-0.0064336495,-0.0272135101
2.8386940956,0.0046006101,0.0023513106,-0.009599207,0.0179214254,0.0021057765,-0.0251604132
2.8487439156,-0.0073132259,-0.0034551355,-0.001018642,0.0060487874,0.0088627487,-0.02271723
2.8586239815,-0.0131606208,-0.006957564,0.0093467841,-0.0048252544,0.0136180893,-0.0134849148
2.8684649467,-0.0133483307,-0.0044506523,0.0106876511,-0.0090650078,0.0057881293,-0.0155946715
2.8784041405,-0.003006835,0.0007002619,0.0021579876,-0.0024036421,0.0032589252,-0.0169070102
2.8883550167,0.0109033091,0.0058833626,-0.0094999662,0.0105342604,-0.0037917939,-0.0186958574
2.8982548714,0.0222093873,0.0082398923,-0.0149568897,0.0269443933,-0.013791698,-0.0263774768
2.908244133,0.0306369327,0.0066886214,-0.0157435518,0.0498244092,-0.0189124234,-0.0338465795
2.9181160927,0.0322680138,0.0137849124,-0.0196624976,0.0596381575,-0.0154553736,-0.0346515514
2.9280838966,0.0201014094,0.0247347616,-0.0114260893,0.067353867,-0.0047151116,-0.0354206711
2.9379889965,0.0004296559,0.0198806189,0.0035699024,0.0673230588,0.0096656913,-0.025878001
2.9481620789,-0.0141833769,0.0051003364,0.0148509163,0.0519022942,0.017706573,-0.0129350387
2.9578008652,-0.0160228051,-0.0033660862,0.017818274,0.0388929322,0.0205423068,-0.004214651
2.9678909779,-0.0107083814,-0.005612168,0.0111573357,0.0268051084,0.0230419505,-0.0041017327
2.9781680107,-0.0018354547,-0.0036603543,0.0076221838,0.021289615,0.0217114352,-0.0077800248
2.9876408577,0.0081845326,-0.0063875648,-0.001693307,0.0154586229,0.0233319681,-0.0105638271
2.9975218773,0.0097714318,-0.0068253609,-0.0045134411,-0.008978188,0.0211697482,-0.0129442932
3.0074601173,0.0055119651,-0.0057376358,-0.0038618431,-0.0378857367,0.030466577,-0.0156221027
3.017375946,-0.0053847921,-0.0113132326,0.0038834228,-0.0643546283,0.03644564,-0.0076813879
3.0275380611,-0.0126684206,-0.0058329436,0.0079951901,-0.0849302113,0.0426366925,-0.0074526225
3.0372290611,-0.0160271265,-0.0065381262,0.0158675332,-0.1006870642,0.0413874015,-0.0018532926
3.0472378731,-0.0135095613,-0.0054524275,0.0174950976,-0.1067939624,0.0370666906,0.0012753889
3.0570850372,-0.0067987633,-0.0036136839,0.0112844128,-0.0959814414,0.0240012202,0.0006993138
3.0670809746,0.0013978141,-0.0041634175,0.0041103973,-0.0722846314,0.0163843147,0.0058088545
3.076898098,0.0085148765,0.0056015518,-0.0016855584,-0.0407265276,0.006045124,0.0077711055
3.0868999958,0.0055091041,0.0122857364,-5.87092e-05,-0.0082143936,-0.006655491,0.0028578392
3.0967819691,0.0017567533,0.0093462737,0.0018638982,0.0196286887,-0.0108606219,0.0121541349
3.1067810059,-0.0009251875,0.0073948768,0.0015935316,0.0334515609,-0.0128326928,0.0143134259
3.116631031,-0.0049434644,0.0043688086,0.0036479249,0.0489470772,-0.0152055696,0.0166783147
3.1266341209,-0.0069235903,0.0004619625,0.008570971,0.0605177134,-0.0251335688,0.0198520012
3.1364810467,-0.0030270559,-0.0027847621,0.0060939803,0.0599426478,-0.0336852409,0.0148654673
3.1464800835,0.0023462134,-0.004370186,-0.0003518448,0.069478631,-0.0407892242,0.0063135233
3.156170845,0.0117977066,-0.0074943635,-0.0066388235,0.0747693479,-0.0485552698,-0.0012440614
3.16634202,0.0127197756,-0.0015695426,-0.0035918341,0.0776841789,-0.0509073734,-0.0072433641
3.1761879921,0.0083472831,0.0015684036,0.0017364635,0.0761462077,-0.0515630469,-0.0117007969
3.1861538887,0.0029949802,-0.0016024443,0.0063501014,0.0689053386,-0.0461509675,-0.0104283383
3.1962461472,-0.005120222,-0.0038480493,0.0114226956,0.055676084,-0.0491566136,-0.010644787
3.2059988976,-0.0061508906,-0.0073566171,0.0111494083,0.0537096038,-0.0436313525,-0.0094618108
3.2158780098,-0.0017837924,-0.0088768331,0.0014791503,0.0530860722,-0.0387785397,-0.0036201004
3.2257759571,0.0049064863,-0.0080983369,-0.0049349652,0.0564429834,-0.0372791812,-0.0087759802
3.2359318733,0.0123099787,-0.0057251188,-0.0039649592,0.0549418516,-0.0324958749,-0.0128808757
3.245661974,0.0133553548,0.0010262397,0.0047039404,0.0461054817,-0.02898583,-0.0206466559
3.2556118965,0.0067007798,-0.0021804306,0.0103727598,0.0315472223,-0.0289488137,-0.0221972801
3.2655091286,-0.0015825671,-0.0006473991,0.0104949493,0.0165323205,-0.021676518,-0.0238713436
3.2758021355,-0.0050241542,-1.2252e-06,0.0065367236,0.0019331381,-0.0149589609,-0.0236222371
3.285367012,-0.0066412282,-0.0026359889,0.0019370927,-0.0051135863,-0.0135541437,-0.0186775457
3.295358181,-0.0027711731,-0.0013435218,-0.0005382285,-0.0064069945,-0.0114553059,-0.0160748065
3.3052091599,0.0026629227,-0.002167854,-0.0061855302,-0.0001288587,-0.0050141849,-0.0111604743
3.3151950836,0.007539894,-6.49425e-05,-0.0117395502,0.0098848045,-0.0064480309,-0.0129464911
3.3250851631,0.0070470232,0.0027992395,-0.0115575176,0.0391303077,-0.0096081374,-0.0085813031
3.334980011,0.0080888225,0.0076793698,-0.0115219336,0.0464832969,-0.0042075133,-0.0120948115
3.3449220657,0.0030063349,0.0196617506,-0.0052619562,0.0204002969,-0.0025531575,-0.0152767561
3.354842186,-0.0003981036,0.0131783755,0.0020536794,-0.0098636886,0.0022932629,-0.0068309074
3.364798069,-0.0031755609,0.0025528935,0.0042507662,-0.0217009075,-0.0015217153,0.000428071
3.3747038841,-0.0017655832,0.0046966937,0.0003098859,-0.004891389,-0.0035952528,0.0019585565
3.3846831322,0.0018483656,0.0100814374,-0.0084563484,0.0107173976,-0.0028511656,0.003320497
3.3945610523,0.0047807056,0.0102371844,-0.0186121445,0.0197831523,-0.0082885418,0.0051184301
3.4044661522,0.003248747,0.0071220067,-0.0150557142,0.0226891935,-0.0090797665,0.0094892103
3.4144539833,0.0024222392,0.0056100157,-0.0157466512,0.0253182668,-0.0036759463,0.009128252
3.4241309166,-0.0001312536,0.0089880498,-0.0106298318,0.0223485753,-0.0002175654,0.0098425122
3.4341020584,-0.006279726,0.0059818891,-0.0050194249,0.0135929007,0.0063916016,0.0108246859
3.4441490173,-0.0088808285,0.0020588306,0.0054102554,-0.0006191465,0.0116119292,0.0122911884
3.4540948868,-0.0069270176,-0.0035522911,0.0085166115,-0.0143160503,0.006806788,0.0163050052
3.4640820026,-0.002592836,-0.0024573538,0.0041667833,-0.0201481059,0.0107005965,0.0136290612
3.4739589691,-0.0007528705,-0.0023525688,1.98497e-05,-0.0192056131,0.0045715971,0.012974456
3.4839549065,0.0006249207,-3.01334e-05,0.0008308901,-0.0142529327,0.0015864599,0.016125774
3.4938011169,0.0011462527,-0.0012602541,-0.0057196007,-0.0041597309,0.0031020648,0.0150401369
3.5037150383,0.0050115841,0.0005570319,-0.009423553,-0.0027352059,0.0021089721,0.012498416
3.5136551857,0.0066834348,-6.13662e-05,-0.0080071082,-0.003978014,-6.8961e-05,0.0165539775
3.5237288475,0.0017779875,0.0017701653,0.001319231,-0.002220328,0.0021470552,0.0206067748
3.5344529152,-0.0057012034,-0.0022850963,0.0078300852,-0.0052512717,0.0034908864,0.01265168
3.5447359085,-0.0076557589,-0.0067114565,0.0097668786,-0.0111682834,0.0045923698,0.0139124207
3.5540308952,-0.0004608971,-0.0097719161,0.0064439788,-0.0060883029,0.0004580786,0.0158030652
3.5639958382,0.0089125289,-0.0079963533,0.0037871017,0.0002047466,-0.0071612257,0.0104852654
3.5738811493,0.0120011522,-0.0043988558,-0.0014135228,0.0130991507,-0.0142510924,0.0032748235
3.5834829807,0.0095519973,-0.0007114741,-0.005620657,0.0263425186,-0.0119767534,0.0023187487
3.5928890705,0.0088417483,-0.0003803107,-0.0118095856,0.0317849554,-0.0119618392,0.0041861571
3.6031420231,0.0059534567,0.000737634,-0.0100796809,0.0363011435,-0.004975569,0.0121050663
3.6127781868,-0.0013500196,0.0028538373,0.0018720045,0.0346668512,-0.001945158,0.008310562
3.6227021217,-0.0077558798,0.0012738374,0.0119012017,0.0298790187,0.0054581636,0.0094067194
3.6325860023,-0.0100731151,-0.0018564197,0.0145815033,0.0168506578,0.0082965605,0.0103679532
3.642583847,-0.0102605121,-0.0037930938,0.0133674759,0.0031952993,0.0043329778,0.0069729555
3.6524209976,-0.0036200029,-0.0107459752,0.0113394875,-0.0029913131,-0.0030205424,5.19992e-05
3.6624240875,0.0062124687,-0.0105694858,0.0023347749,-0.0106913103,-0.0054821023,-0.0030790791
3.6722631454,0.0091776503,-0.0058882567,-0.0048879371,-0.0098432712,-0.0106520969,-0.005731754
3.6824569702,0.0063010114,-0.0043546292,-0.0063654766,-0.0053952597,-0.0116545111,-0.0069408296
3.6921348572,0.002381112,-0.0025774571,-0.0045911656,-0.0070360326,-0.0084174378,-0.0063300664
3.7021110058,-0.0052527678,-0.0055793258,-0.0036558495,-0.0076533533,-0.0051385541,-0.0033111069
3.7119960785,-0.0067744893,-0.0106939999,0.0048473491,-0.0110311303,-0.003332665,-0.0004409186
3.7219748497,-0.00351717,-0.0082720248,0.0074309721,-0.0166690424,0.0032253691,-0.0042348579
3.7318248749,-0.0039125872,-0.0036588642,0.0111677665,-0.0164455138,-0.0040996554,-0.0102402866
3.7418019772,-0.0014512283,-0.0055538747,0.0124104638,-0.0188285094,-0.0045071188,-0.0173349474
3.7516951561,0.0053157019,-0.0043760273,0.0057712211,-0.0220688656,-0.0069923811,-0.0180313624
3.7618231773,0.0074298936,-0.0029076668,-0.0004269467,-0.0176259167,-0.0105141448,-0.0212908052
3.7716851234,0.0080138398,-0.0054283473,-0.0056398497,-0.0102229491,-0.0097641991,-0.0199507046
3.7816669941,0.0071239728,-0.002252135,-0.00633633,-0.0096349232,-0.0118947281,-0.0141695142
3.7916178703,0.0023369747,0.0020740894,-0.004584013,0.0024669245,-0.0085585862,-0.0155623481
3.8015270233,-0.0029851538,0.0050134924,-0.0025649653,0.0146066789,-0.0117442599,-0.0129037146
3.8114130497,-0.0047863615,-0.0024326178,-0.0004611597,0.0166226923,-0.0119085759,-0.00726943
3.8213801384,-0.0060543162,-0.007380757,0.0014734878,0.0162684917,-0.0168351587,-0.005878727
3.8313000202,-0.0039408547,-0.0035922262,-0.000246583,0.0167193636,-0.0265466422,-0.0097542917
3.8412020206,0.0007768529,0.0029492048,-0.0042722807,0.0235165507,-0.0272928588,-0.0133120092
3.8511629105,0.0033928561,0.0068521169,-0.0121472459,0.0314501077,-0.0302657466,-0.0173070505
3.8610911369,0.0059182006,0.0042970446,-0.0118948799,0.0351473726,-0.0310218167,-0.0124534396
3.8710131645,0.0060024518,0.0028412607,-0.0070990906,0.0343875736,-0.0290665235,-0.0111116394
3.8809528351,0.0032669413,0.0030253199,-0.0058966265,0.0325483941,-0.0233108997,-0.0068180915
3.8908090591,-0.0026412648,0.0043588546,-0.0023992644,0.0382992253,-0.0183177404,8.68533e-05
3.9007549286,-0.00837027,0.0007551578,0.0047418489,0.0696331784,-0.021864539,-0.0018015944
3.9106879234,-0.0091483044,0.0005594161,0.0038478984,0.0635708496,-0.0126111181,0.0019546947
3.920580864,-0.0058578742,0.00734314,0.0062600984,0.0423832685,-0.0175760482,-0.0051250532
3.9307231903,0.003719117,-0.0062604281,0.0025416031,0.0237296037,-0.0156085063,-0.0010235184
3.9404659271,0.0128502203,-0.0060853693,-0.0040573464,0.0229090825,-0.0226933137,-0.008992495
3.9503588676,0.0174146257,0.0040362743,-0.0150201302,0.0375765301,-0.0246486068,-0.0114379758
3.9602818489,0.0202230476,0.008594838,-0.0224924665,0.0412527584,-0.0254765823,-0.0122166844
3.9702429771,0.0137164546,0.0083808573,-0.0152593236,0.0477988981,-0.0240645763,-0.0092980266
3.9802379608,0.0060913819,0.0053223041,-0.0045098648,0.0488332696,-0.019136928,-0.0040039285
3.9901120663,-0.0042320234,0.0008520749,-0.0007901774,0.0469295532,-0.0098334411,-0.0005008397
3.9999480247,-0.0105621265,-0.0005860659,0.0050738468,0.0339943133,-0.0039965911,0.0040414478
4.0101499557,-0.012721275,-0.0018398496,0.0100878486,0.0216522478,4.50223e-05,0.0019740027
4.0198559761,-0.0091093229,-0.0026716325,0.0111055989,0.0097093023,0.0035161865,0.0014315167
4.0297980309,0.0005509513,-0.0042142007,0.0027208938,-0.0021927203,0.0043052812,0.0010056107
4.0399332047,0.0092513366,-0.0045389864,-0.0029296265,-0.0156664513,0.0039537437,0.0010431611
4.0496401787,0.0089506758,-0.0025877091,-0.0029811249,-0.0266185217,0.0023119049,0.0032140038
4.0595722198,0.0058173048,0.0009589461,-0.0053499923,-0.0231082104,0.0017411896,0.0014637742
4.0694241524,0.0009742933,0.0029160646,-0.0057484494,-0.0190908313,0.0066187689,0.0104091996
4.0796189308,-0.0028058034,-0.0010214183,-0.007758914,-0.0120616853,0.0084614102,0.0144702531
4.089389801,-0.0051513207,-0.0038251611,-0.0034128414,-0.0171413086,0.0104382746,0.0173287243
4.0992622375,-0.0074394983,-0.0026157233,0.003673376,-0.0198390912,0.0117645282,0.0160464123
4.1092891693,-0.0040029478,-0.003356013,0.0015802993,-0.0301287472,0.0082169315,0.0127848051
4.119134903,0.0021936703,-0.0011843774,-0.001673101,-0.0264676996,0.0074866936,0.0044041038
4.1290521622,0.0058797556,0.0003066328,-0.0014829026,-0.0283631608,0.0070984042,-0.0032082761
4.1389460564,0.0043200958,-0.0003679129,0.0033406629,-0.0284023099,0.0030312247,-0.0092688315
4.1488690376,-0.0007416499,0.0012362269,0.0027838363,-0.0242250524,0.001600042,-0.0090968246
4.1588001251,-0.0040995223,0.0021748212,0.0022362485,-0.0151929408,-0.0015797723,-0.0095437029
4.1687240601,-0.0067457003,0.0051566032,0.0008961572,-0.0050934348,-0.002500427,-0.0026742788
4.1789121628,-0.0099767195,0.0030039218,0.0005773916,0.0104090916,-0.0040517184,-0.0003221747
4.1885519028,-0.0096554356,-0.0035015675,0.004270853,0.0177801009,-0.0052892896,0.0013700976
4.1984148026,-0.0082516717,-0.0041897628,0.0033144369,0.0244358741,-0.014193302,0.0018262971
4.2085847855,-0.0004090411,-0.006510112,-1.05486e-05,0.0306839161,-0.0209651869,-0.00534746
4.2185697556,0.0057939845,-0.0037511322,-0.007122098,0.0405722298,-0.0283037946,-0.0120996386
4.228307724,0.0111026121,-0.002632055,-0.0116479378,0.0466746874,-0.0312236845,-0.0148736872
4.2381920815,0.010182525,-0.001282129,-0.0100260964,0.0439191163,-0.030191442,-0.018336596
4.2480831146,0.0043349969,-0.0012793872,-0.0061921463,0.0377080925,-0.025947962,-0.0178551972
4.2581620216,-0.006523673,-0.0011262628,0.0017658486,0.0346324071,-0.0160332806,-0.0152610103
4.2679581642,-0.0116807567,-0.0032565924,0.0081176171,0.0162321832,-0.002618405,-0.0098291934
4.2778029442,-0.0150711434,-0.0050005647,0.011975171,0.0001930287,0.0039550751,-0.0096731316
4.2876682281,-0.0137726413,-0.0112691848,0.0171095748,-0.0161757357,0.0044163349,-0.0098036947
4.297645092,-0.0035558683,-0.0112866489,0.0109244594,-0.0305546746,0.0048933066,-0.0148314768
4.3073568344,0.0066454071,-0.0113940565,0.0014488115,-0.0363229029,0.0035204475,-0.0192883424
4.3175058365,0.0125453724,-0.0083912341,-0.0035020099,-0.0327489413,-0.005105265,-0.0234380793
4.3273658752,0.018644806,-0.0016457173,-0.0130868535,-0.0297186207,-0.0085921418,-0.0293966047
4.337351799,0.0202061497,0.004661825,-0.0193158966,-0.015323434,-0.0084573859,-0.0337388888
4.3476319313,0.011556725,0.0071366695,-0.0120170098,-0.0038391748,-0.0080406014,-0.0300462171
4.3571939468,-0.0001219255,0.0115410956,-0.0053751455,0.0040778704,-0.0033901893,-0.0237100217
4.3670568466,-0.0069612754,0.0080061229,0.0015000715,0.0123037538,0.0045532212,-0.0168551113
4.3770370483,-0.0099963741,0.0030778912,0.0100677619,0.0070352224,0.0105791558,-0.0104957502
4.3869171143,-0.0088700699,-0.0026216242,0.0130174775,-0.0038380208,0.0071175792,-0.0065582995
4.3969078064,-0.0065423292,-0.0017795893,0.0130159874,-0.0124304444,0.0061662979,-0.0092960298
4.4067559242,-0.003301118,-0.0016277763,0.0110036144,-0.0198137909,0.0051588244,-0.0126610324
4.4167509079,0.0035256403,-0.0082494346,0.0055268421,-0.0276695844,-0.0012641877,-0.014129499
4.4268198013,0.0105146123,-0.0120820133,-0.0053296671,-0.0308039449,-0.0021353078,-0.0150811151
4.436601162,0.0157871358,-0.006131086,-0.0109549155,-0.0247074384,-0.0079902681,-0.016191652
4.4464769363,0.0124096824,0.0003012088,-0.0068632946,-0.0237534065,-0.0070733409,-0.0195209682
4.4564352036,0.0045263576,0.0034174589,-1.18599e-05,-0.0182803441,-0.0027054904,-0.0169986896
4.4663071632,-0.0052516204,0.0042985943,0.0045483722,-0.0231306702,0.0015347946,-0.0155839194
4.4762849808,-0.0134750502,-0.0009509656,0.0094209323,-0.032301262,0.0033196451,-0.008068745
4.4861741066,-0.0140782939,-0.0073374244,0.015215816,-0.0426572338,0.0024740915,-0.0048041418
4.4960842133,-0.0056082201,-0.0050043794,0.0149844903,-0.0439853519,-0.0021318456,-0.0054869764
4.5062570572,0.0040000039,-0.0039430591,0.0089184651,-0.0366653875,-0.0065502962,-0.0090967584
4.5159187317,0.0075905877,0.0008376506,0.0017721071,-0.0260156728,-0.0169861596,-0.0154127106
4.5258698463,0.0127246929,-7.93072e-05,-0.0063403235,-0.0136499926,-0.0252438225,-0.0165378638
4.5357899666,0.0116039468,0.0003264812,-0.009274303,-0.0038439683,-0.0295168646,-0.0169597082
4.5457391739,0.0087502552,0.0066813496,-0.0063672648,0.0084655173,-0.0321395434,-0.0183178522
4.5556139946,0.0019831616,0.0092101963,-0.0015204535,0.0239685774,-0.0290782433,-0.0150754545
4.5655298233,-0.0043821079,0.0091247233,0.006231965,0.0246929564,-0.0248613935,-0.0139349224
4.5754828453,-0.0096870409,0.0028668907,0.0101572881,0.0231238212,-0.0240057185,-0.008062386
4.5854787827,-0.0132062184,-0.0026503536,0.0143308658,0.0151035348,-0.0210908875,-0.0074994271
4.5953531265,-0.0090348171,-0.0048698517,0.0129182953,0.0067755636,-0.0259128083,-0.0055137747
4.6052651405,-0.000994463,-0.0040504071,0.0080983061,0.0031249919,-0.028567981,-0.0053107422
4.6152009964,0.005975123,-0.002968702,-0.0021285401,0.0023510773,-0.0315134376,-0.0094916383
4.6251840591,0.0097506596,-0.0031032297,-0.0073807226,0.0024363869,-0.0331017449,-0.0140236402
4.6352682114,0.0072703469,-0.0052339169,-0.0067301975,8.53483e-05,-0.0276366733,-0.0141053991
4.644949913,0.001394059,-0.005047712,-0.0019538389,-0.0115734385,-0.0280502625,-0.0104289707
4.6548628807,-0.0090202587,-0.0064710709,0.0030739917,-0.0242591389,-0.0193036422,-0.0040946421
4.6648807526,-0.0121960985,-0.0047839615,0.0084112305,-0.0334562771,-0.0140766557,0.0003001725
4.6749649048,-0.0099537121,-0.0052360031,0.0102172503,-0.0365484767,-0.0154351341,-0.0014881401
4.6846518517,-0.0019703847,-0.0064022872,0.0017730608,-0.0389882848,-0.0178663339,-0.0066366959
4.694601059,0.0066927928,-0.0075173709,-0.0041925297,-0.0313974768,-0.0246755052,-0.0073642712
4.7045669556,0.0122816516,-0.0028905007,-0.0115460139,-0.02584452,-0.0279589165,-0.0114048198
4.7143478394,0.0159567557,0.0068582562,-0.0179310422,-0.0137138199,-0.026224399,-0.0164046381
4.7243919373,0.013645987,0.0118047269,-0.0165206771,-0.0036991811,-0.0234608371,-0.0125853997
4.7342967987,0.0066709775,0.0107847722,-0.0096761575,0.0065931375,-0.022355359,-0.0126075037
4.7443027496,-0.0017102105,0.0085385712,-0.0020785914,0.0090825716,-0.0144188711,-0.0084718475
4.754365921,-0.009646778,0.0041846302,0.0024240627,0.0115297502,-0.0122191003,-0.0046574017
4.7639021873,-0.0119535672,-0.0015665027,0.0053642406,0.0086176731,-0.0105429068,-0.0011759177
4.7739982605,-0.0070447964,-0.0026161405,0.0002762689,0.0108552603,-0.0131312329,-0.0014584791
4.783993721,0.001044746,-0.0042070481,-0.0058876262,0.0161120743,-0.0155890649,-0.0042596585
4.7938508987,0.005121361,-0.0062983963,-0.0115323644,0.0148691768,-0.0164513979,-0.0068035102
4.8039417267,0.0103323115,-0.0041361186,-0.0204266291,0.00555486,-0.0188365243,-0.0045749433
4.8137302399,0.0113049997,0.0026821163,-0.0248412471,0.0055189072,-0.0143445702,-0.0068956218
4.8236551285,0.0054196673,0.0073302654,-0.02188587,0.0070527103,-0.0064568194,-0.0067190547
4.8337631226,-0.0056415987,0.0054817465,-0.0141559225,0.0006206436,0.0035886243,0.0023535364
4.8438148499,-0.012447183,0.001543608,-0.0055276738,-0.0122121526,0.0112092597,0.0057264967
4.8535580635,-0.0149978744,-0.0018375251,-0.0002114163,-0.0221305639,0.0161467604,0.0052588452
4.8635168076,-0.0130806016,-0.0018455717,0.0041565313,-0.0277051795,0.014828762,0.0058171768
4.8734078407,-0.0088630663,0.0018219021,-9.00612e-05,-0.0281909425,0.0152527373,0.0029201903
4.883523941,-0.0016299379,0.0038333205,-0.0080988398,-0.0284753684,0.021120213,0.0020177783
4.8932619095,-0.0004119617,0.0018094447,-0.0123528233,-0.0186320581,0.0233338326,-0.0003324612
4.9032068253,0.0006553936,-0.0014292928,-0.0140748611,-0.0164734758,0.0252108295,0.0046530096
4.9131031036,-0.0023745787,-8.99765e-05,-0.0132020693,-0.0221334919,0.0306143835,0.0104411235
4.9231042862,-0.0082182931,-0.0004843804,-0.0115938168,-0.0260046646,0.0333513133,0.0099054622
4.9329400063,-0.0139750736,-0.0040811631,-0.0047595487,-0.0240999702,0.0358168706,0.0120032337
4.9429459572,-0.0091839926,-0.0058186385,-0.0036546574,-0.0295992214,0.0309062637,0.0103624603
4.9528079033,-0.0039799404,-0.0046935412,-0.0042064772,-0.0299528893,0.0236906968,0.0017117145
4.9627671242,0.0004803049,-0.0059386822,-0.005512415,-0.0213301964,0.0147898803,-0.0021877859
4.9726529121,0.0115892841,-0.0019520852,-0.0101844659,-0.0083459541,0.0085024238,-0.0039231014
4.9827070236,0.0138941063,0.0037405756,-0.0162975173,0.0076960418,0.0075048027,-0.0093251243
4.9925341606,0.0116305603,0.009008971,-0.0188685041,0.0329715721,0.0089319907,-0.0087980852
5.0025081635,0.0037554908,0.003963199,-0.0135512939,0.0455937982,0.0148657793,-0.0021391164
5.0123791695,-0.0024047685,0.001622167,-0.0023929463,0.0428941548,0.0216166265,0.0034596471
5.0222740173,-0.0052838814,0.0038756994,0.0071923151,0.0355274081,0.0245993678,0.0044130585
5.0322480202,-0.0064553064,0.004274514,0.0142174382,0.0252041966,0.0302276928,-0.0028552406
5.0421142578,-0.0103013264,-0.0015152427,0.0165620465,0.0110064391,0.0294873323,-0.0081083588
5.052136898,-0.0061332774,-0.0116503565,0.0093447575,-0.0054241992,0.0263349488,-0.0093637733
5.0619668961,0.0037261504,-0.0152160255,-0.0006881342,-0.0147647914,0.0260081794,-0.0156603176
5.0719947815,0.0075784582,-0.0149435131,-0.007504283,-0.0198279936,0.0287680123,-0.0129015502
5.0820479393,0.0062228846,-0.0077408883,-0.0097204437,-0.0268319324,0.0318197273,-0.0131964292
5.0918140411,-0.0037474078,-0.0053738686,0.0004091873,-0.0364014693,0.0380286239,-0.0095036887
5.1016831398,-0.012062599,-0.0038808915,0.0072746291,-0.0435101539,0.0472215898,-0.0058240322
5.1118121147,-0.0179162957,-0.008264753,0.009523632,-0.061846815,0.0524831973,-0.0073281862
5.1215410233,-0.015378763,-0.0126660196,0.0207197089,-0.0763750672,0.047618933,-0.0048695225
5.1314458847,-0.0065819812,-0.0075216028,0.0214975495,-0.0720623434,0.0369322002,-0.0080139171
5.141397953,0.0027465927,0.0017828611,0.0113301892,-0.0540948883,0.0254118983,-0.0144948522
5.1515827179,0.0083000017,0.0024664071,0.0036298647,-0.0281972438,0.0113581307,-0.0191740263
5.1614847183,0.0133703006,-0.0008695456,-0.0061927424,-0.0027022711,0.0014008376,-0.0224515442
5.1712050438,0.017422583,0.0021344689,-0.0129700284,0.022387635,-0.0035017757,-0.0211790856
5.1811189651,0.0126429601,0.0093249353,-0.0080159297,0.0431331284,-0.0049814279,-0.022759106
5.1910638809,0.0036045867,0.0104190977,0.001224698,0.0547652841,-0.009733839,-0.0218179449
5.2009601593,-0.0039335829,0.0088593038,0.0152932424,0.0603572987,-0.0022415679,-0.0172077827
5.2109189034,-0.0101132439,0.0010369089,0.022204699,0.0579167791,-0.0062690661,-0.0127227521
5.2208361626,-0.0077492935,-0.0031522247,0.0201501865,0.050303068,-0.0071058315,-0.0148654971
5.2307739258,-0.000865106,-0.0063228938,0.0173256416,0.0424193107,-0.0164362174,-0.0204975493
5.2406830788,0.0060583609,-0.0061385366,0.0075723543,0.0476413295,-0.0227226075,-0.0270708315
5.2506151199,0.0123072965,-0.0087013571,-0.0048171864,0.0478629023,-0.0252190549,-0.030400848
5.2605171204,0.016573336,-0.0067152116,-0.0133158546,0.0442193449,-0.0223375149,-0.0332417414
5.270483017,0.0136819733,-0.0067749354,-0.0125142317,0.02766167,-0.0144481668,-0.0309061501
5.280395031,0.0028621512,-0.0059925052,-8.4816e-05,0.0035328101,-0.0066863839,-0.0258106906
5.2903370857,-0.0071195108,-0.0040681097,0.0125603098,-0.0139423199,-0.0002623065,-0.0202726461
5.3002071381,-0.014064868,-0.0054834816,0.0183408875,-0.0268225204,0.0054086288,-0.0199169815
5.3101801872,-0.0132305818,-0.0096387593,0.0181768555,-0.0350711271,0.0032701101,-0.0140646854
5.32006073,-0.0064053428,-0.0051356289,0.0133532304,-0.0388131365,0.0023758209,-0.0186754484
5.3299980164,0.0014975476,0.0003303555,0.009984972,-0.0327949263,-0.0047984687,-0.0202885251
5.3399162292,0.0075771618,0.0026632217,0.003583373,-0.0251926668,-0.0050208429,-0.0216429774
5.3498659134,0.0101966662,0.0053583649,-0.0055612908,-0.0171115696,-0.0058900984,-0.0257895179
5.3597359657,0.0118031306,0.0084808143,-0.007548152,-0.0112630911,-0.0082840146,-0.0253072865
5.3696870804,0.007851149,0.0091564329,0.000418128,-0.0099637341,-0.0070017017,-0.0227407981
5.3796238899,-0.0004645926,0.007156339,0.0088981409,-0.0176510382,-0.0021925657,-0.0220514722
5.3896050453,-0.0077426326,0.0024535921,0.0113036055,-0.0222276803,-0.0055726497,-0.0174220987
5.3995060921,-0.0097987102,-0.0002163979,0.0131619591,-0.0298317149,-0.0119626382,-0.0130841425
5.4096140862,-0.0016976041,-0.000317547,0.0099793086,-0.0211735126,-0.0173832364,-0.0142636569
5.4193267822,0.0067665833,0.0002563861,-0.0004451857,-0.0106246434,-0.0232824031,-0.0157560911
5.4292898178,0.0125654591,0.0054482487,-0.0058676586,0.0020570641,-0.0281107146,-0.0172783546
5.4391641617,0.0131737841,0.0064549712,-0.0060759173,0.0100486781,-0.0299083479,-0.0206168927
5.4490418434,0.0134572936,0.0060740975,-0.0081557613,0.0165909994,-0.0262212027,-0.0199423134
5.4590520859,0.0101697547,0.0076806811,-0.0084733348,0.0190722663,-0.0190855283,-0.0152011886
5.4689488411,0.0013344395,0.0063162115,-5.54905e-05,0.0135299619,-0.0147714745,-0.0106690219
5.4788470268,-0.002864216,0.0043588546,0.0092148194,0.0018487158,-0.0089444779,-0.0049895979
5.4889822006,-0.0082745897,0.0077390936,0.0114341397,-0.0107355192,-0.0057406952,-0.0010955234
5.4986739159,-0.008833562,0.0074413684,0.0098503241,-0.0178656895,-0.0036226832,-0.0051864386
5.5086760521,-0.0042188508,0.0044454006,0.0037987842,-0.0241108015,-0.0042136386,-0.0039752331
5.5185432434,0.0033521312,-0.0017255279,-0.0049268589,-0.0239898041,-0.0103519587,-0.0037206681
5.5284628868,0.0071241963,-0.0027966234,-0.0114951711,-0.0153007107,-0.0188242719,-0.0039568907
5.5383872986,0.0094023598,-5.96377e-05,-0.0148541909,-0.0071600485,-0.0213039424,-0.0041431123
5.5484089851,0.0100869788,0.0052678254,-0.0150338989,-0.0004014778,-0.0206112545,-0.0048927916
5.5582728386,0.0079636527,0.0092155607,-0.0136591773,0.0056673335,-0.0146202063,-0.005408946
5.5681838989,-0.0002266807,0.0071369675,-0.0056962357,0.0045384197,-0.0123458672,-0.0003537333
5.5781168938,-0.0082899081,0.0055721668,0.0038314476,-0.0010952312,-0.0065260613,0.0003878239
5.5881128311,-0.0083157765,0.0030941633,0.0099517712,-0.0082993479,-0.0026109484,0.0032310146
5.5979599953,-0.0044522327,-0.0006714198,0.0100694904,-0.0161151029,-0.0034106956,0.0019015312
5.607735157,0.0019137817,-0.0022225115,0.0055139675,-0.0171763748,-0.0065835859,0.0013867422
5.6178092957,0.0071554738,-0.0051539275,-0.0016400204,-0.0178173967,-0.0125352172,0.0024503088
5.6278209686,0.0139824999,-0.00278959,-0.0107661467,-0.0064462312,-0.0238762889,0.0001320271
5.6376638412,0.0162996911,0.0036826995,-0.0181561094,0.0087083969,-0.0265445095,0.0008807085
5.6478219032,0.0168340765,0.0078861983,-0.022589324,0.0249566082,-0.0298505574,-0.0002705762
5.6577210426,0.0138617409,0.0095485719,-0.0219596606,0.033038415,-0.0278609116,0.0041319286
5.6675252914,0.0039983946,0.0122575434,-0.0118151288,0.036225155,-0.0188128222,0.0078265322
5.6773719788,-0.0054268581,0.0084390314,0.0021333708,0.0342639126,-0.0138180628,0.0137847895
5.6875329018,-0.0111486213,0.007415798,0.0083646197,0.0230000746,-0.0106931096,0.0184128303
5.6972270012,-0.011208077,0.004618254,0.0090206275,0.0139827002,-0.0080717597,0.021830298
5.7071728706,-0.0089305686,0.0015909341,0.0044851913,0.0109975617,-0.0075007784,0.0226095393
5.7170600891,-0.0041230363,-0.0042702886,0.0013977303,0.0056239241,-0.0115706204,0.0217031669
5.7271871567,0.0034947204,-0.0046692821,-0.0081114154,0.002588453,-0.0156801455,0.019040538
5.737118721,0.0085046692,0.0002569822,-0.0135335308,0.0017980272,-0.0164069217,0.0148707265
5.7469167709,0.0064097005,0.0001240042,-0.012477098,0.0037810169,-0.0090853591,0.0149165327
5.7567749023,0.0004032808,0.0001371172,-0.0077380524,0.0006609461,-0.00319711,0.0184730515
5.7667627335,-0.0032743555,0.0001430777,-0.0017805682,-0.005023838,0.0021513163,0.018250145
5.7766690254,-0.009923433,0.0003154543,0.0078124418,-0.0136056077,0.0077119968,0.021048462
5.7865819931,-0.011601557,0.0002108482,0.0112798829,-0.0204749648,0.0067439373,0.0195799954
5.79646492,-0.0089097368,-0.0021923515,0.0091190943,-0.0215709452,0.0050965063,0.0167490542
5.8063907623,-0.0030046892,-0.0027745101,0.0009810938,-0.013572406,0.0005800513,0.0163410567
5.8163571358,0.005766328,-0.0009265873,-0.0066826926,-0.0040737991,-0.0076816068,0.0184477177
5.8264608383,0.0118123544,-0.0004575583,-0.0112287384,0.0108311148,-0.0146023631,0.0132399062
5.8361778259,0.0134620471,0.0021645692,-0.0157815795,0.0257354937,-0.0134273777,0.0139737409
5.8461270332,0.0094598038,0.0055172113,-0.0146134477,0.0355889238,-0.0081388718,0.015444871
5.8560070992,-0.0004581255,0.0051421192,-0.0094133001,0.0339122862,0.0010311909,0.0170043856
5.8660068512,-0.0071300012,-0.0027025673,0.005261959,0.030225141,0.0061186273,0.0257483404
5.8758687973,-0.0068666381,-0.0027571651,0.0100680599,0.0186813138,0.0118164606,0.0247890372
5.8858408928,-0.0039008004,-0.0012544128,0.0103272805,0.0216462128,0.011518986,0.0150647713
5.8956961632,-0.0034430367,-0.0090388982,0.0067186966,-0.0006550988,0.0101903342,0.014901652
5.905916214,0.0027349251,-0.011108133,0.0042004003,-0.00886882,0.0070741693,0.0097889155
5.9155731201,0.0042651701,-0.0126784174,-0.0007867799,-0.0120090414,0.0046088812,0.0051185964
5.9255309105,0.005793761,-0.0055896374,-0.0072383271,-0.0133131929,0.0071945442,0.0023230764
5.9354190826,0.0011933106,-0.0030448767,-0.0069131241,-0.006141921,0.0043404349,0.0008016457
5.9454231262,-0.0040292484,-0.004311237,-0.0057012425,-0.0096072257,0.0054384563,0.0023225769
5.9553761482,-0.0076355678,-0.004857156,-0.0008128271,-0.0077295206,0.0056943856,0.0013264883
5.9650149345,-0.0114044296,-0.0084689585,0.0057122125,-0.0060378802,0.0025838136,0.004255699
5.9749727249,-0.0097520845,-0.0084476797,0.008765162,-0.0088757444,0.0002420962,0.0030839085
5.9851689339,-0.010370587,-0.0095866052,0.0084016332,0.0013142196,-0.0071681496,-0.0035558851
5.9951958656,-0.0038915169,-0.0093214242,0.0054150238,0.0067284261,-0.0170759074,-0.003239701
6.0048980713,0.0050500291,-0.0044454667,0.0003739013,0.0152545366,-0.021221118,-0.0073835794
6.0148820877,0.0077054757,-0.0017221901,-0.0028819428,0.0295202024,-0.0223156754,-0.0088024456
6.0247278214,0.0046874392,-0.0039900276,-0.0003663287,0.0348758176,-0.0240246262,-0.0074626086
6.034743309,-0.0012871963,-0.0035775634,0.0016776337,0.0308771711,-0.01454404,-0.0027372958
6.0446138382,-0.0056920988,-0.0034320685,-0.0012156353,0.0225784946,-0.0011989403,-0.0005716132
6.0545258522,-0.0123509811,-0.0103525249,0.0070065274,-0.0001714691,0.0071849572,0.0026415903
6.0644741058,-0.0089746164,-0.0121150343,0.0193760414,-0.0169288777,0.0069862851,-0.0003547322
6.0745940208,-0.0040450436,-0.0095428554,0.0180245657,-0.0280788243,0.0105053857,-0.0106747812
6.0843458176,0.0006781775,-0.0139565794,0.0036805286,-0.0325875543,0.00746379,-0.0150468918
6.0942287445,0.0057907361,-0.0147570698,-0.0055199252,-0.0414786078,-0.0006271596,-0.0230514556
6.1042308807,0.0104020191,-0.0122440187,-0.0086336713,-0.037508633,-0.0045201681,-0.0255367178
6.1140799522,0.0121670617,-0.005886707,-0.0109471669,-0.0298815146,-0.0068525649,-0.024650285
6.1240539551,0.0100628538,0.000455406,-0.0128367525,-0.0149150845,-0.0054552043,-0.0237368196
6.1339149475,0.0060141641,0.0032301215,-0.0111618023,-0.0032939366,-0.0035308041,-0.0238504373
6.143901825,-0.0005839807,0.0031037596,-0.0027871118,0.0007902873,0.002475423,-0.0209246892
6.153968811,-0.0068635535,0.0041741994,0.00740415,0.0014005951,0.0019728846,-0.019885622
6.1636800766,-0.0089490311,0.0043207672,0.0116493125,-0.0012298091,-0.000703326,-0.0179132856
6.1735920906,-0.0048927856,0.0029033092,0.0096644768,-0.0037145382,-0.0058296444,-0.0181351602
6.1835927963,0.0017904448,-0.0001980993,0.0022380962,0.0015476015,-0.0100800497,-0.0224364307
6.1934781075,0.0086517138,-0.0050392481,-0.0060544,0.006657497,-0.015748322,-0.0219776686
6.2034769058,0.0144619746,-0.0020818445,-0.0131239276,0.0139974356,-0.0187505018,-0.0166806411
6.2133340836,0.0119740618,0.0019365218,-0.0175572019,0.0241861567,-0.0192072354,-0.0169929303
6.2233009338,0.0066974419,0.0052548316,-0.0087362519,0.0266815387,-0.0107991034,-0.0170251541
6.2333288193,-0.0025836271,0.0044765738,-0.0033344612,0.0194541644,0.0043862411,-0.0116553903
6.2431340218,-0.0099868225,0.0041140583,0.006211461,-0.0009579002,0.0104044527,-0.0093887737
6.2530341148,-0.0124919759,0.0022261408,0.0167446751,-0.023367513,0.0117394952,-0.0071826112
6.2630157471,-0.0075859171,0.0029559997,0.016348185,-0.0409446433,0.0146058556,-0.0098601533
6.2728652954,-0.000387643,0.0019811061,0.004671277,-0.0502741411,0.0113964798,-0.0129448259
6.2828359604,0.0053587365,0.0008241204,-0.002792953,-0.0513415374,0.0054030358,-0.0141256722
6.2927241325,0.0085711731,0.0011562374,-0.0088369241,-0.0394293927,-3.70031e-05,-0.0137812253
6.3027348518,0.011950965,0.0059734848,-0.015071569,-0.0282252077,-0.0008716378,-0.0142067987
6.3125572205,0.0072153169,0.0086683901,-0.0158544164,-0.0187017433,-0.0021105402,-0.0105917901
6.322783947,0.0001921165,0.0060364273,-0.0086226445,-0.0068346979,-0.0027819232,-0.0069621671
6.3324370384,-0.0015717936,0.0047140983,-0.0014331923,-0.0053582415,-0.003221611,-0.0018353162
6.342402935,-0.0017714095,0.0059471992,0.0044167652,0.0056842891,-0.0096030785,-0.0015852454
6.3522629738,0.0011874097,0.0055192378,0.0046497001,0.0169259366,-0.0202828851,-0.0030852712
6.3622360229,0.0076621431,0.0065430668,0.0005974188,0.0275468901,-0.0264667459,-0.0048887637
6.3721027374,0.0144803775,0.0111964615,-0.0050816522,0.042016197,-0.0341864489,-0.0060764342
6.3821349144,0.01517954,0.0135381492,-0.0079807034,0.0607270338,-0.0367318988,-0.0073731267
6.3919839859,0.0155612035,0.014872876,-0.008208571,0.0722056106,-0.032223966,-0.0057391445
6.4021859169,0.0094903512,0.0121102007,-0.0075851069,0.0710663125,-0.0257242583,-0.003021921
6.4118361473,0.0050416845,0.0057789949,-0.0067358003,0.0633079931,-0.0091905538,0.0030468237
6.4217739105,-0.0029591364,0.0036939052,8.23154e-05,0.0434546582,-0.000378953,0.0097966054
6.4317250252,-0.0079436647,0.0006870297,0.011982264,0.0220922027,0.003913796,0.0082752416
6.4416098595,-0.0075661731,-0.0023377272,0.0138238091,-0.008494202,0.0152660524,0.0083506089
6.4513759613,-0.0008024615,-0.004439685,0.0045064702,-0.0298342891,0.0174208172,0.0050935298
6.4615468979,0.0035560536,-0.0067706439,-0.0005807863,-0.0407769531,0.0143435337,-0.0015694329
6.4714717865,0.0088708205,-0.0040412876,-0.0076547251,-0.0490976423,0.0158644654,-0.0054234937
6.4815998077,0.0109475208,0.0008405712,-0.0114186388,-0.0464834832,0.019944163,-0.0070389668
6.4914608002,0.0057503986,0.0056444672,-0.0109117012,-0.0512650125,0.0217798799,-0.0070343059
6.5012469292,-0.0022913706,0.004443076,-0.0046630488,-0.053771846,0.0237303786,0.0025269748
6.5111618042,-0.0060557914,0.0065108207,0.0035460605,-0.0491959155,0.0234307721,0.0091929333
6.5210638046,-0.0092812078,0.0081647309,0.0082520852,-0.0390769653,0.0184985977,0.0120236073
6.5311570168,-0.008822863,0.0069322851,0.0073021068,-0.0279141515,0.0103991264,0.0164298415
6.5409078598,-0.0022250009,0.0043542651,0.0064648404,-0.0132973902,0.0015992431,0.0176109523
6.5507950783,0.0098780496,0.0050934223,-0.0019631968,0.0064345906,-0.0091652535,0.0134653766
6.5606880188,0.0156077845,0.0091539891,-0.0084095588,0.0263249427,-0.0149504384,0.0066719186
6.5708489418,0.0184606425,0.0112911733,-0.0055490122,0.0449799411,-0.0207689125,-0.0011780148
6.5805587769,0.0146650327,0.0143974693,-0.0062195645,0.051298026,-0.0131442826,0.0013234921
6.5905270576,0.0063458192,0.0104965838,-0.0071443901,0.0475420803,-0.0050898185,0.0065487139
6.6004571915,-0.0064058346,0.0005373624,0.0053567304,0.0399320945,0.0044834465,0.0127916969
6.6103310585,-0.0145251201,-0.0076386663,0.0172808785,0.0130099356,0.0083498238,0.021027755
6.6202549934,-0.0147246616,-0.0113337962,0.0196913499,-0.0098253395,0.0097037749,0.0203579701
6.6302800179,-0.010247414,-0.0140334098,0.0131155271,-0.0220465846,0.0086741969,0.0138690444
6.640127182,0.0036559212,-0.0151309101,-0.0008330927,-0.0287620109,0.0011811268,0.0052803503
6.6502809525,0.0139885647,-0.0124361245,-0.0054559098,-0.0313748419,-0.0005145079,0.0013405365
6.6599860191,0.0153363599,-0.0040760967,-0.0060291872,-0.0255204123,-0.0055034072,-0.0078436406
6.6699419022,0.0069865393,0.0032573608,-0.0047805295,-0.0185132809,-0.0059984894,-0.0055546872
6.679915905,-0.0036076349,0.0042137769,-0.0046936856,-0.0158493221,-0.0019116022,-1.39805e-05
6.68983078,-0.0138364034,0.0037195352,0.0008746996,-0.0066836085,3.17065e-05,0.004872587
6.6997561455,-0.0193975307,8.544e-05,0.0086732525,-0.0030606445,-0.000662846,0.0152077824
6.7096180916,-0.0190940835,0.0023739007,0.0160772223,0.0086537143,-0.0060227239,0.0192386433
6.7195587158,-0.013021891,0.0010245708,0.0153242964,0.0196823962,-0.0152705507,0.0185235851
6.7296729088,-0.0038017971,-0.0057419273,0.0034715547,0.0231260415,-0.0231055692,0.0181291699
6.7393450737,0.0062046009,-0.003781769,-0.0035679922,0.0281381104,-0.0287831631,0.0141570661
6.749311924,0.009604956,-0.0031543109,-0.0043993578,0.0313199647,-0.0302638821,0.0110070128
6.7592949867,0.0075291353,-0.0060652229,-0.0003376589,0.0295479,-0.0245748367,0.0063052014
6.7691669464,0.0035032588,-0.0128765432,0.0074540987,0.0186552145,-0.022109814,0.0079134507
6.7791419029,0.0006079334,-0.0125364391,0.0117512364,0.0124023799,-0.0186623521,0.0030646338
6.7890520096,-0.0041905981,-0.0127083985,0.0121301431,0.0015086303,-0.0188868567,0.0009727208
6.7990489006,-0.0065667224,-0.0130915372,0.0146142859,-0.0145483669,-0.0174945556,-0.00447371
6.8091449738,-0.0046029878,-0.0158089735,0.0140240807,-0.0228561871,-0.0228760056,-0.0102525698
6.8187851906,0.004006322,-0.011996421,0.0046466603,-0.0247257259,-0.0305365883,-0.0161509383
6.8287539482,0.0120135201,-0.0049124691,-0.0060054646,-0.0112158637,-0.0367638618,-0.0214815214
6.8388590813,0.0191791169,0.0014136103,-0.0134039503,8.47271e-05,-0.0390381999,-0.0245657284
6.8486261368,0.0140942289,0.0071469811,-0.0081833592,0.0164197572,-0.0411703251,-0.0226731859
6.8584551811,0.0056325453,0.0099506648,-0.0007297979,0.0305683352,-0.0411990844,-0.0203453172
6.8684811592,-0.0040186686,0.0084028514,0.0012312545,0.0393116698,-0.0419221334,-0.0117671769
6.8783311844,-0.0104676383,0.0045249728,0.0033909692,0.0432739221,-0.0405687168,-0.0005707142
6.8883237839,-0.0085804211,0.0024847654,0.0019523515,0.0486556366,-0.035482876,0.0046895281
6.8983898163,-0.0068308157,0.0031886366,-0.0022732005,0.0463450775,-0.033582978,0.0051886044
6.9081749916,-0.0039692414,-0.0007621381,-0.0009145127,0.0386087708,-0.0346740782,0.0057857851
6.9180350304,0.0013707983,-0.0033112499,-0.0069411383,0.03166724,-0.0342032313,0.0043274378
6.9280381203,0.0077917981,-0.0050902697,-0.0121223908,0.0218175426,-0.032429561,-0.0032576772
6.9379081726,0.0082992716,-0.004503462,-0.0104642501,0.0105723441,-0.0272230841,-0.006814329
6.9478831291,0.0050806063,-0.0054357382,-0.0088039022,-0.0002981471,-0.0227692127,-0.0080045629
6.957734108,0.0005919295,-0.0043136212,-0.0065181837,-0.0057224738,-0.0167637859,-0.0072239898
6.9676609039,-0.0034303111,-0.004955742,-0.0013189898,-0.016447112,-0.0123352148,-0.005805091
6.9777908325,-0.0077962172,-0.0025750729,0.0013133897,-0.0209640991,-0.0123424046,-0.0058607506
6.9877157211,-0.0042642397,-0.001331422,-0.0011256323,-0.0236243308,-0.0136185922,-0.0037213336
6.9974079132,0.0027773934,9.95067e-05,-0.0064125643,-0.0220282972,-0.02064614,-0.0007095649
7.0074019432,0.0096821142,0.0073958305,-0.0129224639,-0.0061073001,-0.0267415848,0.0021971422
7.0173001289,0.012350197,0.0150814326,-0.0184445959,0.0230045114,-0.0299272574,0.0019518649
7.0271949768,0.009543593,0.0192241333,-0.019180594,0.0491603054,-0.0318865478,0.0058518313
7.0371389389,0.0061746496,0.017563846,-0.0186830144,0.0670764595,-0.0271389298,0.0115491319
7.04712677,-0.0007582945,0.0116406949,-0.0162678342,0.0676933303,-0.0221534893,0.0167194586
7.0570001602,-0.0080848979,0.0098919543,-0.0078826528,0.0655609369,-0.0153589677,0.022750454
7.0669870377,-0.0130275534,0.0044768122,-0.0027554617,0.0487917252,-0.0040253531,0.0237823278
7.0768151283,-0.0095459418,-0.002758834,0.000688137,0.0436989628,0.0005952313,0.0245863367
7.0867981911,-0.0073538017,-0.0044233534,-0.0027661906,0.0254444126,0.0070685768,0.0180338956
7.096698761,-0.004144032,-0.0032547447,0.0001530661,0.0130436681,0.0072824284,0.014274844
7.1066207886,-0.0013893289,-0.0128118722,-0.0011961446,0.0088477693,0.0147760315,0.0218920503
7.1165380478,-0.001252864,-0.0051448676,-0.0005394802,-0.0132434173,0.0122548165,0.0137715405
7.1265311241,-0.0055505675,0.0028930572,0.0005121841,-0.0249852948,0.0125336498,0.012255935
7.1363811493,-0.0090053426,-0.0107078878,1.56178e-05,-0.0290372968,0.014365905,0.0198265016
7.1465921402,-0.0072384817,-0.0028586122,1.47237e-05,-0.0270669106,0.0152434157,0.0182008762
7.156244278,-0.0052409214,-0.0019597742,-0.0012491331,-0.0244189296,0.0168572925,0.0167342741
7.1661748886,-0.0021631462,-0.0018639895,0.0006454005,-0.0186001007,0.0092180148,0.0138680795
7.1761021614,0.0038366276,0.0003668335,0.0001145615,-0.0183774587,0.0065039867,0.012479241
7.1859941483,0.0053743082,-2.29808e-05,-0.002792357,-0.0131287258,0.0021611701,0.0093018571
7.1960077286,0.0068844813,0.0027801064,-0.0008992539,8.9151e-06,-0.0010237043,0.0078459065
7.2058558464,0.003108691,0.0022501019,0.0030065193,0.0125576425,-0.0002018528,0.0068303766
7.2157359123,0.0007459479,0.0005526212,0.0048603429,0.0165939294,-0.0024895081,0.0083750105
7.225897789,-0.0044650328,-0.0015990469,0.0075073256,0.0197362807,0.000389369,0.0110621061
7.2357130051,-0.0074949157,-0.0048827264,0.0097699184,0.0162525997,0.0007939032,0.0085193198
7.2455658913,-0.0077117723,-0.0117408959,0.0137651581,0.007067713,0.0035100612,0.0094050877
7.2554969788,-0.0042038453,-0.0121753542,0.0133346925,-0.0005736952,0.0020200226,0.0062178164
7.2654209137,-0.0004595858,-0.0090824692,0.0098654646,-0.0083254464,-0.000105979,0.0009611358
7.2753782272,0.005136441,-0.0099879233,0.0030210628,-0.013345506,-0.0009107863,-0.0048370985
7.2852697372,0.0074518281,-0.0130416481,-0.0038123713,-0.0191034377,-0.0018447569,-0.0064785373
7.2950468063,0.0071642059,-0.0134021966,-0.0013973103,-0.0234017801,-0.0034234787,-0.0061674803
7.3051509857,0.0020510512,-0.0075180861,0.0040466799,-0.0214793328,-0.0063095465,-0.0080912476
7.3150749207,-0.0009501916,-0.0069653126,0.0094011435,-0.0181077719,-0.0036229494,-0.0061956095
7.3250322342,-0.0054408056,-0.007092807,0.0095824013,-0.011659015,-0.0058320416,-0.0076095155
7.3350839615,-0.0079864012,-0.006286833,0.0092716226,-0.0103495382,-0.0064714667,-0.0073756902
7.344853878,-0.0087326514,-0.0066909525,0.0085319895,-0.0075685764,-0.0081804171,-0.0060812607
7.3547487259,-0.0084055858,-0.0112673966,0.0109520564,-0.0110314842,-0.0118654333,-0.0077044573
7.3647518158,-0.0054339957,-0.013392183,0.009628118,-0.0124429595,-0.010953567,-0.00597277
7.3748188019,-0.0016608578,-0.0125673143,0.0020804419,-0.0169546213,-0.0106584886,-0.0127052404
7.3845448494,-0.0002158922,-0.0114500849,0.0014523878,-0.0280624013,-0.0121895401,-0.0172457974
7.3944430351,0.0018378454,-0.0097158877,0.005979897,-0.0338616967,-0.0138521511,-0.0252424721
7.4043831825,0.0018319595,-0.0079242913,0.0105564604,-0.037355233,-0.0168974753,-0.0320404246
7.4144487381,0.0005571502,-0.0078502623,0.0072615757,-0.0330398493,-0.0215992853,-0.0330345817
7.4242830276,0.0023978162,-0.0084086983,0.000338377,-0.0219748579,-0.0304620191,-0.0295014977
7.434138298,0.0039188075,-0.0055699083,-0.0038083778,-0.0033212788,-0.0367939547,-0.0304352008
7.4441328049,0.004557352,-0.0031408998,-0.0057295547,0.0132885017,-0.0405972116,-0.0242007095
7.4539999962,0.0047552097,0.0009689596,-0.0071748481,0.026979547,-0.0440968722,-0.024623353
7.4639840126,0.0022875029,0.0019045142,-0.0042702542,0.0341846384,-0.041608151,-0.0218359213
7.4738278389,8.00746e-05,0.0028049019,-0.003169714,0.0367165059,-0.038411025,-0.0221011732
7.4838342667,0.0012376267,0.0014687446,-0.000648676,0.0367639996,-0.0343425125,-0.0269677993
7.4936990738,0.002058025,-0.0014037224,0.0031206026,0.0326872319,-0.0299349818,-0.0250732265
7.5036449432,-0.0001888019,-0.0003934833,0.0073297634,0.0252584349,-0.0291418899,-0.0320748426
7.5135450363,-0.0032866639,-0.0009578797,0.007514657,0.014648933,-0.0277043171,-0.0346461236
7.5234451294,0.0012981403,-0.0045301649,-0.0006104694,0.0060041351,-0.0262704715,-0.0351238623
7.5334091187,0.0013975906,-0.002178404,-0.0060093985,0.0059572635,-0.0226746704,-0.0377382897
7.5433950424,0.0027498263,-0.0028850767,-0.0112528782,0.0027101596,-0.0190857947,-0.0356741063
7.5534090996,0.0007915455,-0.0020873877,-0.0117593389,0.0001410083,-0.0164474007,-0.0344072431
7.5632281303,-0.0027775657,0.0037486223,-0.0116810184,-0.0026573529,-0.0108542312,-0.0312771946
7.5731019974,-0.0051359725,0.0069827703,-0.0088979593,-0.0082704974,-0.0022173331,-0.0270859115
7.5830230713,-0.0098668532,0.0070058969,-0.0034499154,-0.0195317622,0.0028077855,-0.0250443667
7.5930051804,-0.0091730254,0.0006507901,0.0027664318,-0.0263734236,0.0004394364,-0.0204504132
7.6028780937,-0.0069204462,-0.0002532932,-0.0017524348,-0.0330658592,0.0002514173,-0.0219362229
7.6128568649,0.0017746645,0.0014993814,-0.0052594529,-0.0293816403,-0.0065116803,-0.0255940743
7.6227293015,0.0092300875,0.003329244,-0.0074794875,-0.0237922892,-0.0089905504,-0.0264864992
7.6329078674,0.0164478682,0.0053789285,-0.0109242788,-0.0152808251,-0.0128420135,-0.027240973
7.6426677704,0.0210198127,0.0097306641,-0.0173898321,-0.0012716209,-0.0152812032,-0.0256853551
7.6525812149,0.0192473643,0.0167598985,-0.0172489863,0.0198621601,-0.0121413367,-0.0205497164
7.6624369621,0.0121464832,0.0177303813,-0.0127369743,0.0340080708,-0.011029467,-0.0133150052
7.6724171638,0.0040700543,0.0185973905,-0.0068240748,0.0381450281,-0.0020245202,-0.0011952256
7.6824989319,-0.0033023697,0.0200330876,-0.0007601366,0.0334282145,0.0076920232,0.002590691
7.6922903061,-0.0082987892,0.0189225338,0.0032287254,0.0209081601,0.0143051846,0.0055888779
7.7021217346,-0.011113842,0.0116743119,0.0072879805,-2.33972e-05,0.0227575246,0.0078873187
7.7120628357,-0.0065298718,0.0055575636,0.0031093969,-0.019430384,0.0233884286,0.0063568
7.7220191956,0.0016562599,0.0008673337,-0.0037912712,-0.0340476781,0.0226544607,0.0047860676
7.7319030762,0.0065614539,0.0019147065,-0.0108351102,-0.0398139544,0.0187763665,0.0025029397
7.7419018745,0.0091687543,0.0081902416,-0.0155522805,-0.0427730791,0.0210046321,0.0054393746
7.7517609596,0.0084888889,0.0080863507,-0.0184503775,-0.0377554186,0.0187265649,0.0017330531
7.7617611885,0.0046774405,0.0065597561,-0.0152305942,-0.0344405845,0.0188903492,0.0084381271
7.7716207504,0.0014334726,0.0093735131,-0.0132272821,-0.0334048793,0.0204767939,0.0122094285
7.7816152573,-0.0024415744,0.0111921104,-0.0054574595,-0.0245251879,0.0234305058,0.0148654338
7.7915329933,-0.0044677895,0.0102212103,0.0035387888,-0.0177013725,0.0197896995,0.0188380703
7.8016629219,-0.0052182865,0.0087651284,0.0070002689,-0.0045150849,0.0159073416,0.0223493148
7.8113632202,-0.0010202867,0.0085072191,-0.0002607689,0.0108803827,0.0134343309,0.0255371183
7.8213009834,0.004504736,0.008091894,-0.0044276104,0.0226093885,0.0084816497,0.0257703457
7.8312320709,0.0057746577,0.0063726571,-0.0036272393,0.0341328867,0.0056789392,0.0268824827
7.8410668373,0.0079226745,0.0075507429,-0.0062524662,0.0425528251,0.0023198945,0.0276253372
7.8510508537,0.0060383934,0.0086379917,-0.006976007,0.044927299,0.0021678279,0.0298224445
7.8609781265,0.001156162,0.0045449403,-0.0048312531,0.0417858362,0.0080480874,0.0263025779
7.8708930016,-0.0040102196,-0.0009113881,0.0028685941,0.026583977,0.0124119427,0.0263017789
7.8810229301,-0.0058500213,-0.0048942897,0.0086354623,0.0142239816,0.0106502622,0.0275827274
7.8907518387,-0.0063448292,-0.0085532395,0.0101782093,0.0046445914,0.0090867206,0.0236223396
7.9006690979,-0.0035412353,-0.0127095906,0.0121523757,0.0001332848,0.0001406297,0.0191199668
7.9105820656,0.003281455,-0.0135475127,0.0040287389,-0.00210883,-0.0050653173,0.0113267582
7.9205040932,0.0066378373,-0.0111681549,-0.0007237778,0.0037331688,-0.0083324835,0.0076503973
7.9304533005,0.0108048571,-0.0069495174,-0.0058565126,0.0132252071,-0.0093500772,0.0048370338
7.9403247833,0.0105559481,-0.0020740363,-0.0095424047,0.0256441496,-0.0090424819,0.0079628862
7.9502949715,0.0054734605,0.0017054346,-0.0065431581,0.0340022147,-0.0023137396,0.0121528367
7.9601840973,-0.0034296555,0.0009092358,-0.0007584677,0.0369917005,0.0053156842,0.0153402751
7.9701957703,-0.0099408673,-0.003496978,0.0094816107,0.0255797878,0.0087157423,0.0203206521
7.9800801277,-0.0107932584,-0.0084358184,0.0169307608,0.0156784225,0.0121677322,0.0193635467
7.9901638031,-0.0091140466,-0.0099844066,0.0168923754,-0.0001404877,0.0152061321,0.0143394917
7.9999170303,-0.0083624767,-0.0126486151,0.0176997799,-0.0173735376,0.0148708392,0.0104303043
8.00984478,-0.0057435674,-0.0154514639,0.0154092927,-0.029231796,0.0119757168,0.000919091
8.0197591782,-0.0017932844,-0.0169496275,0.0068570389,-0.0412040353,0.0080132,-0.0079732696
8.0296897888,0.0020313817,-0.0185476877,0.002792181,-0.0513038039,0.0044765221,-0.0092427991
8.039607048,0.0040200162,-0.0146996705,-0.0004883991,-0.0486735776,-0.0022282521,-0.0109371357
8.0495471954,-9.49842e-05,-0.0117462007,-0.0008740411,-0.0388217494,-0.0051646535,-0.0155736981
8.0594682693,-0.0012937528,-0.0112645952,0.0029552593,-0.0301757976,-0.0073745446,-0.0130385365
8.0694437027,-0.0060520512,-0.0083474843,0.0044879331,-0.027359236,-0.0070709442,-0.0102094598
8.0793247223,-0.0083644735,-0.008641812,0.0101063866,-0.0256145112,-0.0109791337,-0.0102585945
8.0892744064,-0.0065924865,-0.0046571228,0.0131808538,-0.019292701,-0.0181856453,-0.0111198612
8.0991611481,-0.001697157,-0.0016750428,0.014286818,-0.0105933063,-0.01988714,-0.0136150438
8.1091365814,0.0057597118,-0.0001002285,0.0051850094,0.005418417,-0.0287525374,-0.0170132369
8.1190376282,0.0114716096,-0.0024232003,-0.0040116892,0.0221939348,-0.0378773287,-0.0175265968
8.1289405823,0.0112807555,0.0029693511,-0.0068153725,0.0386434793,-0.0383351259,-0.0179793313
8.138677597,0.0111971004,0.0065043238,-0.0076087699,0.0501525998,-0.0334183946,-0.0159368552
8.1488056183,0.003000896,0.0024547842,-0.0058910237,0.0527830049,-0.0266619548,-0.0134177711
8.1587018967,-0.0053090793,-0.0042187902,0.0035055294,0.039918337,-0.0187752713,-0.0120786335
8.1686973572,-0.0100483196,-0.0059443447,0.0101376195,0.0128153469,-0.0091916192,-0.0123947505
8.1787433624,-0.0118042873,-0.0047915909,0.0155479331,-0.0077075046,-0.0055771773,-0.0171458963
8.1884899139,-0.0063811135,-0.0088657467,0.0094228396,-0.0305603556,-0.004813116,-0.0247071423
8.1984109879,0.0049962061,-0.0103159277,-0.000990747,-0.0491666198,-0.007137523,-0.0265142657
8.2086076736,0.0093957288,-0.0090886084,-0.0072006569,-0.0562751293,-0.0119357407,-0.0314522982
8.2185049057,0.0113686128,-0.0063869688,-0.0142375808,-0.0518656448,-0.011368487,-0.0315221064
8.2282152176,0.0113686873,0.0006720093,-0.0207393747,-0.0457648747,-0.009587897,-0.0282964855
8.2381191254,0.007971908,0.007430878,-0.0196978431,-0.0324595459,-0.0130271036,-0.0231376439
8.2480297089,0.0042819637,0.0126064094,-0.012546001,-0.0173714049,-0.0126926107,-0.0149185946
8.2581806183,-0.0035685939,0.0167494081,-0.005135952,0.0035415983,-0.0099855075,-0.0102369571
8.2678318024,-0.0083807753,0.0143534811,0.000790061,0.0114645027,-0.0061316476,-0.0044238092
8.2778396606,-0.0080119269,0.0105754407,0.002138318,0.0151755288,-0.010988188,-0.0031016495
8.2877416611,-0.005227406,0.0060087708,0.0016543283,0.0185122043,-0.0136060752,-0.0009263793
8.2977256775,0.0038143056,0.0086419256,-0.0014893995,0.0242245048,-0.016048193,-0.0064728446
8.3075838089,0.0070450562,0.0092791589,-0.0091840615,0.0229648314,-0.0169342272,-0.0041300626
8.3175621033,0.0084049655,0.0074034599,-0.0186142307,0.0268161185,-0.0146982372,-0.0030633663
8.3274488449,0.0092214299,0.0078351768,-0.0181748252,0.0237164646,-0.0095490152,-0.0034420681
8.3373651505,0.0065568793,0.0056374935,-0.0166708808,0.0213330239,-0.0038043107,-0.0031962914
8.3472595215,0.0020366269,0.0040587452,-0.0130146127,0.0140538057,0.0058240821,0.0036339178
8.3572692871,-0.003860746,0.002390292,-0.0058640824,0.0031333361,0.0141877392,0.0066842688
8.367143631,-0.0080265151,0.0014543799,0.0003291979,-0.0144818779,0.0155691206,0.0080826953
8.3771238327,-0.0122878896,-0.0009224149,0.00799507,-0.0268080533,0.0130455093,0.0067742839
8.3870315552,-0.0081387656,-0.0041458341,0.0022392883,-0.0346249603,0.0126441717,0.0094907079
8.3969297409,-0.0001398814,-0.0006592008,-0.0086847534,-0.0268968232,0.0060006492,0.0093045197
8.4068460464,0.0053845602,0.0065643457,-0.0136522632,-0.0133690313,0.0036155223,0.009547933
8.4168272018,0.0085290326,0.0121435197,-0.0208823066,0.0022263522,0.0018237475,0.0082716793
8.4266881943,0.0075905728,0.0130166085,-0.02010387,0.0183480643,0.0050288616,0.0179320294
8.4366760254,0.0048758644,0.0151278051,-0.0135871749,0.0270861611,0.0070520653,0.0183743145
8.4465484619,-0.0013992828,0.0165857933,-0.0041539059,0.036055956,0.0101053799,0.0205109697
8.4567060471,-0.0054736179,0.0134960683,0.0017285957,0.0414247997,0.0164919067,0.0196583569
8.4663925171,-0.0082444744,0.0059182313,0.0058934703,0.0358406827,0.0188661143,0.0193310548
8.4763908386,-0.0053398502,-0.0021642777,0.0080899615,0.028517168,0.0182024557,0.0204298422
8.4863491058,-0.0010308814,-0.0049347016,0.0072104945,0.0172125809,0.0174828693,0.0174580198
8.4962282181,0.0047019231,-0.0070224735,0.0006257906,0.0118185263,0.0153145231,0.009810687
8.5059137344,0.0060990411,-0.0078496663,-0.0049137459,0.0084847808,0.0148444753,0.0090136025
8.5158672333,0.0090938313,-0.0095431535,-0.0121499877,0.0047757966,0.01449853,0.0065866644
8.5261468887,0.0097839637,-0.0064300629,-0.014471231,-0.0031322828,0.0180415995,0.0068971552
8.5377492905,0.004188444,-0.0038141343,-0.0042967186,-0.0086383689,0.0263184384,0.0110430643
8.5458068848,-0.0034986627,-0.0042044851,0.0047445311,-0.0224553812,0.0340738259,0.0151885413
8.5563545227,-0.0110247182,-0.0071183774,0.0135377068,-0.0424944237,0.0383364819,0.017105883
8.5663528442,-0.0130370753,-0.0091419546,0.018693747,-0.0560131632,0.0419799536,0.0185722206
8.5762367249,-0.0107769566,-0.0062617394,0.0192625541,-0.060509108,0.03723846,0.0147571759
8.5855293274,-0.0063339961,-0.006951842,0.0157863516,-0.0577724501,0.0333324037,0.0092723956
8.5954475403,-0.0014021439,-0.0031172368,0.008753838,-0.0519899242,0.0261043198,0.0059533645
8.6052656174,0.0031169164,-0.0047515365,0.0014894619,-0.0422667228,0.0130425794,0.0016347825
8.6151304245,0.0030119377,-0.0035989019,-0.0032675848,-0.025320854,0.0041356375,0.0007578367
8.625038147,0.0063148397,-0.0004479024,-0.0054345713,-0.0072502401,-0.0030943118,0.0044393907
8.6349468231,0.0031731683,0.0034458307,-0.0008407221,0.0127389142,-0.007594788,-0.0002036311
8.6449556351,-0.0011654836,0.0012335447,0.0105986018,0.0275942925,-0.0184711367,0.0003628233
8.6547660828,-0.0058811349,-0.000561628,0.0099539775,0.0359854698,-0.0183326527,-0.0003504711
8.6647443771,-0.0031636846,-0.0041175815,0.0105528254,0.0380840413,-0.0209497418,0.0013057488
8.6746749878,0.0006018239,-0.005419943,0.0128126759,0.0431984663,-0.0276824795,-0.0031295796
8.6845560074,0.0049423832,-0.0079467027,0.0102381725,0.050211899,-0.0325526036,-0.0052806148
8.694562912,0.009727682,-0.0096416203,0.0040124073,0.0495403372,-0.0329888277,-0.0098206382
8.7046318054,0.0099715395,-0.0081906645,0.0016380562,0.0488580354,-0.0363265686,-0.0149794482
8.7144165039,0.0087756021,-0.0085443584,0.0002843156,0.0471381694,-0.0329174548,-0.0170012191
8.7242794037,0.0103863878,-0.0068050954,-0.002782403,0.0377294868,-0.0228483099,-0.017522933
8.7344198227,0.0065923291,-0.0047865245,0.0048137917,0.0279358868,-0.0214285776,-0.0202601962
8.7442712784,-0.0023865444,-0.0054217312,0.0121820588,0.0112740863,-0.0122065842,-0.0196900144
8.7542438507,-0.0061358702,-0.0071405503,0.0164234061,-0.0040636789,-0.0040423973,-0.0176059902
8.7641420364,-0.0084676342,-0.0084747998,0.0141364951,-0.0142500037,-0.004669039,-0.0194912422
8.7741308212,-0.0064105433,-0.0110831587,0.0131765623,-0.0286799874,-0.0067391144,-0.0159485061
8.7839756012,-0.0027741981,-0.0124317138,0.0113637466,-0.0271974038,-0.0127424123,-0.0177139156
8.7939624786,0.0015858966,-0.0098385541,0.0029080524,-0.0324986055,-0.0184804592,-0.0146437557
8.8038549423,0.0046534496,-0.0063729021,-0.0048344717,-0.0268835947,-0.0244789626,-0.0183479469
8.8138332367,0.0067768353,0.0026768115,-0.0132321697,-0.0217713043,-0.0240280908,-0.0188871361
8.8236789703,0.0085790409,0.00701448,-0.0070305453,-0.0163701456,-0.0227404516,-0.0192168355
8.8336839676,0.0058892029,0.0067665246,-0.0043085204,-0.0128019545,-0.0216128677,-0.0169230904
8.8435325623,-0.0009863717,0.0071651009,0.0038805618,-0.0089715309,-0.021618994,-0.0092760883
8.8535423279,-0.0041955006,0.0080796154,0.0109269032,-0.0030807951,-0.0222645439,-0.0057843849
8.8633928299,-0.0011517447,0.0050828126,0.0061380281,0.0060176286,-0.0221119449,-0.0044192486
8.8735046387,0.0045447904,0.0034506586,0.0023675575,0.0170526132,-0.025780715,-0.0042689797
8.8833246231,0.0087955398,0.0019403365,-0.0022233711,0.0207818374,-0.0273059085,-0.0074778227
8.8931703568,0.0089031113,0.002025154,-0.0055743442,0.0198710375,-0.0285277665,-0.010818325
8.9030714035,0.0077202129,0.0027925638,-0.0069541321,0.0138504282,-0.0234081056,-0.0085003097
8.9130868912,0.0043371278,0.0046748188,-0.0083245616,0.0047852066,-0.0178825781,-0.0099214064
8.922958374,-0.0006160927,0.0035150913,-0.0111917835,-0.0003443081,-0.010392705,-0.0057223998
8.9329366684,-0.0055708182,-3.26964e-05,-0.0084726196,-0.0172420666,-0.0055920905,-0.0014027855
8.9427986145,-0.0059846682,-0.0023494097,-0.0021291361,-0.0258427449,-0.0036181558,-0.0012254193
8.9530076981,-0.0050001335,-0.0037757489,-0.0002248869,-0.0342042707,-0.0011779013,-0.0010201561
8.9626550674,-0.0036928845,-0.002177808,-0.0051420317,-0.0325792097,-0.0023970965,-0.0025709148
8.9726133347,-0.0004650695,0.0009478596,-0.0083093029,-0.0299717076,-0.0064725317,-0.0019544929
8.9825162888,0.0033181715,0.0032695797,-0.010757206,-0.0150257833,-0.0133735808,-0.0034370746
8.9925804138,0.0040842253,0.002903786,-0.0139142852,-0.0055491021,-0.013606607,0.0004272053
9.0023622513,0.0016917246,0.0088778408,-0.0133809429,0.0117675699,-0.0111980448,0.0034605458
9.0123100281,0.0005623954,0.0101626189,-0.0136589985,0.0263648015,-0.0091596609,0.0021073939
9.0224227905,-0.0044663888,0.0063340333,-0.007890461,0.028006373,-0.0103559531,0.0097288284
9.0322189331,-0.0082933949,0.0037591723,-0.0022755847,0.0261175707,-0.0121794203,0.0067132972
9.0420837402,-0.007065956,-0.0006662938,0.0010182871,0.0248179473,-0.0117304111,0.0062528369
9.0520486832,-0.0027619791,-0.0038019153,-0.0011476264,0.0186843313,-0.0133400252,0.002756306
9.062130928,0.0011649239,-0.0046910974,-0.0013210163,0.018735731,-0.0158548485,-0.004910402
9.0719108582,0.007247712,-0.0034257504,-0.0047781453,0.0137489624,-0.0180700663,-0.0141699808
9.0817632675,0.009433086,-0.0024131867,-0.0074583278,0.0149415256,-0.0147384508,-0.0219045989
9.091750145,0.0066031027,-0.0017173621,-0.0090929847,0.0097441003,-0.0074784076,-0.0213448349
9.1016130447,0.0015857327,-0.0040015909,-0.0053229914,0.0015700604,0.006187337,-0.0221943837
9.1116046906,-0.0048593921,-0.0066446993,0.0013665571,-0.0084547875,0.0106028579,-0.0164323337
9.1217451096,-0.0101653235,-0.0082514016,0.0119079966,-0.0225881841,0.0157611351,-0.0103110597
9.1314020157,-0.0136977183,-0.0055740806,0.0110339541,-0.0279457532,0.0194783751,-0.011352622
9.1413631439,-0.01323839,-0.0113253919,0.0061699166,-0.0294661522,0.0115426872,-0.0134511935
9.1513242722,-0.0012738449,-0.0129893152,-0.0015367852,-0.0239663683,-0.0002095759,-0.0136382803
9.1612386703,0.0129911853,-0.0079180924,-0.0155490022,-0.0134367635,-0.0032000395,-0.0205792766
9.1711616516,0.0170358531,-0.000322971,-0.021452127,-0.0039540455,-0.0110406522,-0.0258104894
9.1810836792,0.0154097779,0.0044132737,-0.0136563163,0.0048508979,-0.0141216628,-0.0287343748
9.1909999847,0.0063803452,0.0078119305,-0.0090741506,0.0127796605,-0.0109144179,-0.0226796456
9.2008972168,-0.0005186093,0.010440019,-0.0064925537,0.0234123301,-0.0063124755,-0.0210974608
9.2108211517,-0.0034531546,0.0062423614,-0.0019281493,0.0298413783,0.0014969778,-0.0179675817
9.220749855,-0.0050717634,0.0066100028,0.0074999942,0.0292909034,0.0045340462,-0.0112550836
9.2306089401,-0.0060955924,0.006512132,0.0117753167,0.0345514454,0.0029241657,-0.0081195775
9.2406101227,0.0011072415,0.0050111678,0.0075560226,0.0339596905,0.0059159608,-0.0094503593
9.2505369186,0.0067583281,0.0063104299,0.0004794016,0.0417115316,0.0025212294,-0.0077779274
9.260392189,0.0108927144,0.004168537,-0.0088540902,0.0737120807,0.0013411827,-0.005543801
9.2704019547,0.0099338396,0.0101001533,-0.0117675047,0.0695097819,0.001373407,-0.009858788
9.2802848816,0.0014760601,0.0129047902,-0.0031195865,0.0419290252,0.0057284744,-0.0079120174
9.2902736664,-0.0057344777,-0.0065951678,0.0033019795,0.0256057996,0.0064214286,0.0032389374
9.3001403809,-0.0074233604,-0.0060023996,-0.0027814494,0.0179840997,0.0041233874,0.0022008372
9.3100500107,-0.0077725989,-0.0020125839,0.0014421358,0.013395207,0.0026693013,0.002509431
9.3199558258,-0.0028760922,-0.0010408494,0.0032510175,-0.0015685633,0.0013840597,0.0018098187
9.3301258087,0.0031903046,-0.0023041102,0.0067489757,-0.0116440114,-0.0047140466,0.0023311325
9.3398351669,0.0048078853,-0.0012464854,0.0029079332,-0.0131138097,-0.0075961193,-0.0005338963
9.3497257233,0.0071778107,0.0052978662,-0.0024078474,-0.0059568319,-0.0087058581,-0.0025600956
9.3596954346,0.0063990909,0.0087479027,-0.0038069473,0.0134767871,-0.0065921079,-0.0009608676
9.369603157,0.0006438601,0.0056054262,-0.0019502626,0.0181141496,-0.0042442651,0.0045398585
9.379535675,-0.0018083346,0.0045963195,0.0020028963,0.0216537565,-0.002785119,0.0109964265
9.3895072937,-0.0045333547,0.0013904837,0.0075389161,0.0242600143,-0.0049065929,0.0161292367
9.3994121552,-0.0071175438,-0.0005507204,0.0073493137,0.0253676251,-0.0016945545,0.0152445342
9.409286499,-0.0051975441,-0.0051055881,0.0073254718,0.0215034653,-0.0054200506,0.0180327632
9.4192934036,0.003366645,-0.0098333089,0.0024579777,0.0185151342,-0.0117533142,0.0125469193
9.4291572571,0.0138268424,-0.0072611901,-0.0049805031,0.0158987548,-0.0129330941,0.0037224344
9.4391422272,0.0162899159,-0.0070838663,-0.0057914839,0.0185560565,-0.0151733449,-0.0033320128
9.4490480423,0.0133570684,-0.0065905782,-0.0029504881,0.0153622162,-0.0119104404,-0.0090413308
9.4589443207,0.0063984948,-0.0042534801,0.0022764816,0.0028682631,-0.0007358165,-0.0095782243
9.4688568115,-0.0031548035,-0.0040032598,0.0061693802,-0.0140397912,0.0076914905,-0.0075131422
9.4788503647,-0.0152284848,-0.0092889396,0.0144138951,-0.0350907482,0.0115434863,-0.0067711854
9.4886989594,-0.0189068355,-0.0081531135,0.0198400635,-0.0462089106,0.015297479,-0.0034799848
9.4986448288,-0.0146063613,-0.0107834069,0.0150861163,-0.053009294,0.0143310176,-0.0032480236
9.5085506439,-0.003027041,-0.00847176,0.0053332462,-0.055860389,0.0061713578,-0.0034096106
9.5185432434,0.008192475,-0.0076423618,-0.0052459822,-0.0507567041,0.0014061638,-0.0053838119
9.5283794403,0.0138985766,-0.0011127326,-0.0088229161,-0.0349868871,-0.0089018671,-0.0108563751
9.5385417938,0.0119023724,0.0040167239,-0.0117146354,-0.0192326903,-0.0059726564,-0.0122484099
9.5482540131,0.0068681794,0.0073561338,-0.0123916259,-0.0047563673,-0.0043175016,-0.0084182173
9.5582504272,-0.0026084823,0.0049371389,-0.0050835595,-0.0002881158,-0.0051864912,-0.0036985637
9.5680971146,-0.0094791399,0.0011787084,0.0002171411,0.0019248826,-0.00359472,-0.0004872908
9.5780944824,-0.0145777809,-0.0011828872,0.004027368,0.0015009074,-0.0037374655,0.0026887951
9.5879573822,-0.0110765295,0.0003773239,0.006754817,0.0045970986,-0.0058996859,0.00074775
9.5978736877,-0.0066112918,2.61334e-05,0.0063112988,0.0082032848,-0.0125693064,-0.0039894809
9.6079874039,0.0011517364,-0.0016798112,-0.0002434836,0.0141769331,-0.019266624,-0.0098245665
9.6178016663,0.0066138464,-0.0034582349,-0.0074188695,0.0150507148,-0.0211886279,-0.0111513538
9.6276521683,0.0122178299,0.0002301601,-0.0108734351,0.0201590136,-0.0207316298,-0.0162681844
9.6376581192,0.010179217,0.0020710495,-0.0079074493,0.0256541818,-0.0149797341,-0.0181909874
9.6475582123,0.0027322727,0.0036847857,0.0006099357,0.0180464163,-0.0102981627,-0.0149805136
9.657459259,-0.0035613668,-0.0005426737,0.0051109805,0.0107243219,-0.0047273622,-0.0128153637
9.667350769,-0.0047612828,-0.0048414799,0.0073000207,0.0012686797,-0.0080216927,-0.0092511885
9.6773586273,-0.0061739427,-0.0074692103,0.0044721975,-0.0046227654,-0.0085742986,-0.0078245327
9.6872005463,0.0040405798,-0.007051799,0.0017391457,-0.005899041,-0.0074057034,-0.0082061635
9.6971998215,0.0091230972,-0.0048223468,-0.0037199841,-0.0005431576,-0.011190854,-0.0113564171
9.7072687149,0.0098116649,-0.0024157497,-0.0066562281,0.0032470531,-0.015253773,-0.0098558916
9.7170772552,0.0124223633,0.0028910902,-0.009849607,0.0093720574,-0.0161611121,-0.0143584991
9.726899147,0.0083732856,0.0067883399,-0.0116003733,0.0183848161,-0.0130758397,-0.0077163419
9.7368965149,0.0032392996,0.0055189994,-0.0063075409,0.0246933121,-0.0103064179,-0.0028297075
9.7467603683,0.0001969146,0.0049242047,-0.0014611469,0.0224810243,-0.0062144715,0.001412475
9.7567653656,-0.0072030169,0.0016755131,0.0033977642,0.0177445933,0.0007275905,0.0057944404
9.7666034698,-0.0095561938,-0.002806935,0.0106374631,0.0017142268,0.0028693045,0.0086018778
9.7765989304,-0.0080156671,-0.0047929022,0.0137886424,-0.0094851647,0.0051284642,0.0053498922
9.7865037918,-0.0007898104,-0.0054893228,0.0070132627,-0.019072013,0.0050384491,0.0016353484
9.7964220047,0.0047201174,-0.0060451361,0.0011619939,-0.0252617318,0.0009243981,-0.002888297
9.806306839,0.0045885402,-0.0041684839,-0.0035782442,-0.0246594138,-0.0014857627,-0.0074190665
9.8162975311,0.0074225026,-0.0010578963,-0.0086597195,-0.0191131141,-0.0011131865,-0.0078627486
9.8263626099,0.0059504467,0.0016954807,-0.011299192,-0.0171740651,0.0004343764,-0.0046774088
9.8361625671,0.0011305618,0.0032407907,-0.0074369297,-0.0105691599,-0.0017030766,-0.0029532784
9.8460149765,-0.0043142182,0.0063823727,0.0006510033,-0.0084362347,-0.0016021428,0.0031193616
9.8560037613,-0.00961331,0.0017219451,0.0028820052,-0.009224264,-0.0024671378,0.0066451207
9.8663110733,-0.0123209106,-0.0007912847,0.0089504141,-0.0105585959,-0.0022799175,0.0085139601
9.8758335114,-0.0070295972,-0.0018727514,0.0048418655,-0.0077678696,-0.0057926266,0.0075237975
9.8856658936,-0.0017188829,-0.001201007,0.0031053438,-0.0059867478,-0.011852649,0.0055165729
9.8956918716,0.0017313319,-0.0026830169,-0.0042515383,0.0009659673,-0.0114305383,0.0062284358
9.9056625366,0.0039488631,-0.002558026,-0.0068903551,0.0037084015,-0.0118531818,0.0031118381
9.9155139923,0.0057236808,-0.0026080939,-0.0062724934,0.0081428308,-0.0121336132,-0.0014978275
9.9253873825,0.0066205519,1.96365e-05,-0.0070895539,0.0078279562,-0.0098555461,-0.004440221
9.9353141785,0.0026704329,9.3427e-05,-0.0052155242,0.0079134442,-0.001625845,-0.0013701287
9.9454813004,0.0002137231,0.0026101139,0.0006281747,0.0054275608,0.0016905895,-0.0029676922
9.9552087784,-0.006186713,-0.0038369033,0.0052565946,-0.0038421042,0.0062912004,0.0024036372
9.9651908875,-0.006651212,-0.0091144172,0.0104168067,-0.0144626126,0.0091346577,0.0022849266
9.9750204086,-0.0045713228,-0.0085031716,0.0068747415,-0.0213271771,0.012238306,-6.15846e-05
9.9850282669,3.89325e-05,-0.0054629776,0.0002350225,-0.0236003622,0.0103200302,-0.003676493
9.9949893951,0.0033937949,-0.0060713026,-0.0006761537,-0.0208759494,0.0032860893,-0.0065497775
10.0048151016,0.0048554498,-0.0052007171,-0.0032395707,-0.0223749541,-0.0009736368,-0.0074084131
10.0147171021,0.0023348737,-0.0069675776,-0.0059645162,-0.0200044736,-0.0026660757,-0.0090803457
10.0246868134,0.0013976651,-0.0070718857,-0.0076438771,-0.0130000049,-0.0063963654,-0.0040093213
10.0346136093,0.002192806,-0.0011856291,-0.0084194522,-0.0093655884,-0.0068970397,-0.0050250506
10.0445241928,0.0001533287,0.002849069,-0.0045753107,-0.0012874221,-0.0074025076,-0.0042958772
10.0544700623,-0.0047171754,0.0028798846,0.0002148761,-0.0008072541,-0.0081692319,-0.0082536014
10.0643606186,-0.0082637416,-0.0013043019,0.0039010658,-0.0043489924,-0.0053132577,-0.0066818036
10.0743579865,-0.0068375808,-0.0021840069,0.007199706,-0.0043495251,-0.0064983647,-0.0110129025
10.0842056274,-0.0042193425,-0.0035505029,0.0069366707,0.0005692444,-0.0084041227,-0.0142192477
10.0941543579,0.0017656791,-0.0019621584,0.001535417,0.0095946975,-0.0159552488,-0.0157005005
10.1041250229,0.0064547616,-0.0012317034,-0.0023353086,0.0155710969,-0.0161129087,-0.0172329471
10.1139907837,0.0082787527,-0.0004395577,-0.0049001561,0.027078351,-0.0192767438,-0.016963169
10.1239471436,0.0024397033,-0.001636121,-0.0090802303,0.0298886951,-0.0161062498,-0.0188641343
10.1339206696,-0.0025931937,-0.006169531,-0.0008355365,0.0313129537,-0.0133860977,-0.0147812422
10.1438465118,-0.0047798646,-0.0027764174,0.0053104772,0.0234028324,-0.0081809498,-0.0122049339
10.1536579132,-0.0077386838,-0.0024075243,0.0055733337,0.0141627286,-0.0044101798,-0.0150212264
